%YAML:1.0
mlp: !!opencv-ml-ann-mlp
   layer_sizes: !!opencv-matrix
      rows: 1
      cols: 3
      dt: i
      data: [ 330, 23, 12 ]
   activation_function: SIGMOID_SYM
   f_param1: 6.6666666666666663e-001
   f_param2: 1.7159000000000000e+000
   min_val: -9.4999999999999996e-001
   max_val: 9.4999999999999996e-001
   min_val1: -9.7999999999999998e-001
   max_val1: 9.7999999999999998e-001
   training_params:
      train_method: RPROP
      dw0: 1.0000000000000001e-001
      dw_plus: 1.2000000000000000e+000
      dw_minus: 5.0000000000000000e-001
      dw_min: 1.1920928955078125e-007
      dw_max: 50.
      term_criteria: { epsilon:9.9999997764825821e-003, iterations:1000 }
   input_scale: [ 4.0847411129520239e+000, -2.4388307605578738e+000,
       4.0847411129520239e+000, -2.4388307605578738e+000,
       4.4963605360238335e+000, -2.6086728134703803e+000,
       5.1374438860754097e+000, -3.1924904935225591e+000,
       6.2747468869572280e+000, -3.9774923413746532e+000,
       4.4636363365985048e+000, -3.0413506988104255e+000,
       3.6430509553597723e+000, -2.4996568283492668e+000,
       3.5624676598563836e+000, -2.4192182582786157e+000,
       3.6344349464355967e+000, -2.4488490289551925e+000,
       4.1686179690601675e+000, -2.7489719894199829e+000,
       5.5642445170783823e+000, -3.4983824239025441e+000,
       5.5579689502283669e+000, -3.4020462123216912e+000,
       4.9243372034871697e+000, -2.8730665166588332e+000,
       4.3544218295266912e+000, -2.6738427316152578e+000,
       4.1524797390732227e+000, -2.5824081934759051e+000,
       4.0847411129520239e+000, -2.4388307605578738e+000,
       3.2624701483915097e+000, -1.4476944519007535e+000,
       3.3638151254406141e+000, -1.4191782020170671e+000,
       4.1010546294636292e+000, -1.8101741238699407e+000,
       3.8722263172371743e+000, -1.9202002999571575e+000,
       3.2299092426539042e+000, -1.6558658491852991e+000,
       2.6665592875299571e+000, -1.4121838435777725e+000,
       2.4617416252882220e+000, -1.2501877199090032e+000,
       2.5714089579949655e+000, -1.2963670917308607e+000,
       3.0383529938774321e+000, -1.4808999394887232e+000,
       4.1389919504647041e+000, -2.0625054154760507e+000,
       4.9777896473515630e+000, -2.4348443304742902e+000,
       4.2236558242908933e+000, -2.0874743153787945e+000,
       3.6971344302687248e+000, -1.8660038935298724e+000,
       4.3476026931443901e+000, -2.6793102985144324e+000,
       4.5694096527822721e+000, -2.8071121939549784e+000,
       3.0524340598791082e+000, -1.1417722278162210e+000,
       3.3576602579013355e+000, -1.1806674616580553e+000,
       5.0741336158542927e+000, -2.1097363510844924e+000,
       5.0466753690599813e+000, -2.3530198728545293e+000,
       3.8294452291098220e+000, -1.8949117808997737e+000,
       3.0253206808960860e+000, -1.6027369003342005e+000,
       2.4775975811213060e+000, -1.2555350590849816e+000,
       2.8848150860180848e+000, -1.4749617019984242e+000,
       3.6035296442896363e+000, -1.7270311884814742e+000,
       5.0672997593612772e+000, -2.3696099162792228e+000,
       5.6952482283885004e+000, -2.5520047869278186e+000,
       4.4149833781586230e+000, -1.8919819664749875e+000,
       3.5385872402332885e+000, -1.5897702186590355e+000,
       4.7674320122129821e+000, -2.9756792909591767e+000,
       5.1103033498602022e+000, -3.2061991988543848e+000,
       3.2967594661968493e+000, -1.2685520927408216e+000,
       3.6709556959119181e+000, -1.2910463629231668e+000,
       6.5784893582904438e+000, -3.0829225993736848e+000,
       7.2289793466046701e+000, -3.6996653892320821e+000,
       5.7131513799088554e+000, -3.3361370738514537e+000,
       4.2846179975723224e+000, -2.6929829936532270e+000,
       2.9728924797333383e+000, -1.8263946226007401e+000,
       4.3015192626642271e+000, -2.7062447136636458e+000,
       5.5660859729547285e+000, -3.2582300954110366e+000,
       8.0696043814518639e+000, -4.2070783143480348e+000,
       7.0022846882465632e+000, -3.4057415998585334e+000,
       4.2603633830522831e+000, -1.8328676084848898e+000,
       3.6527149761199049e+000, -1.7104711616700778e+000,
       4.9947754557255042e+000, -3.1831306761912028e+000,
       6.1630447202142555e+000, -3.8338222061331244e+000,
       3.3391865033506440e+000, -1.2941331662477042e+000,
       3.6760554550533815e+000, -1.2685494695085349e+000,
       4.4176493774689085e+000, -1.8662556170005329e+000,
       5.6486222801329831e+000, -3.1091252453864717e+000,
       5.5450004475173467e+000, -3.4059168868166743e+000,
       3.5306003080481299e+000, -2.3369406194358255e+000,
       3.0910414108081166e+000, -2.0334203960498494e+000,
       3.7428351638701916e+000, -2.4165175407690871e+000,
       5.2558900812099694e+000, -3.4195842079732550e+000,
       6.8689857343820862e+000, -4.0066225504255497e+000,
       4.9242207171256904e+000, -2.4889929267045607e+000,
       3.9743370085425305e+000, -1.9288798077214639e+000,
       3.3315229275118208e+000, -1.6825972332449584e+000,
       5.3166793056571757e+000, -3.5349362415833334e+000,
       5.2824876224053128e+000, -3.5428056862338697e+000,
       3.0885102794740944e+000, -1.2696704263100915e+000,
       3.6602223430853162e+000, -1.3423307143825955e+000,
       4.4895915000348801e+000, -2.1397573998883086e+000,
       4.9063615039364894e+000, -2.8294954446345573e+000,
       4.6211225650132057e+000, -2.9820713021412995e+000,
       3.3394289974820888e+000, -2.2551240432295367e+000,
       2.9446884008207737e+000, -2.0312094904587674e+000,
       3.3336481413316039e+000, -2.3193820823793785e+000,
       4.2555375771883721e+000, -2.8795920439691458e+000,
       5.7333400315123928e+000, -3.6904628602461877e+000,
       4.1479891496254329e+000, -2.3918602939490583e+000,
       3.7302843121893279e+000, -2.0640500384084821e+000,
       3.0376166414938690e+000, -1.7734072864997759e+000,
       4.9408065790113058e+000, -3.6385973041398256e+000,
       4.9106162540718907e+000, -3.2821328112889936e+000,
       2.9213066376611572e+000, -1.2441307757937747e+000,
       3.3069769332620593e+000, -1.2803810525765666e+000,
       4.0919699600716832e+000, -2.0170184316917683e+000,
       4.2102051832547778e+000, -2.4173187861236198e+000,
       4.9181788811452503e+000, -3.2061711625202105e+000,
       3.7525927894732920e+000, -2.5368770044979145e+000,
       3.1760357893355220e+000, -2.1747494686983702e+000,
       3.6019002221098853e+000, -2.4951327149315632e+000,
       3.8283975596776831e+000, -2.6139163192427044e+000,
       4.0215026623155037e+000, -2.6018381147152567e+000,
       3.7166668242895842e+000, -2.3232609222075582e+000,
       3.3174084663030268e+000, -2.0217121887918417e+000,
       2.7871972153055333e+000, -1.7657362702406663e+000,
       4.4959658135429610e+000, -3.4902172702046372e+000,
       4.6539959633763095e+000, -3.0589377262642330e+000,
       2.7633622928093411e+000, -1.1971245012090526e+000,
       3.3194772348777728e+000, -1.3545080918717927e+000,
       4.1915560747071865e+000, -2.1392086533933603e+000,
       4.5724481428170076e+000, -2.6363878527182374e+000,
       4.6683093478082140e+000, -2.9361622408437462e+000,
       3.6779277318473502e+000, -2.3451851957065295e+000,
       3.2128567030123509e+000, -2.1110620901330899e+000,
       3.4034706823741909e+000, -2.2199034804248625e+000,
       3.9778596666488588e+000, -2.6432026520288150e+000,
       3.5898354583675669e+000, -2.3509636570954799e+000,
       3.8763078967651596e+000, -2.5811227360177043e+000,
       3.4492524895429115e+000, -2.2349903974652587e+000,
       2.6713023535711962e+000, -1.7658272903627947e+000,
       4.1569335894042903e+000, -3.3302089164631203e+000,
       4.0743000360653152e+000, -2.6882391734655942e+000,
       2.5801104508585699e+000, -1.0647113652540929e+000,
       3.3270809686039113e+000, -1.4915976054134239e+000,
       4.6723686894543999e+000, -2.5563369230113198e+000,
       4.2998150558223580e+000, -2.4443190255898180e+000,
       4.5364171485046025e+000, -2.6546338675448897e+000,
       3.8353746876860222e+000, -2.3005647466564221e+000,
       2.8739320833205166e+000, -1.7484046432574496e+000,
       3.6214481529175702e+000, -2.1775122018338111e+000,
       4.1413846772922298e+000, -2.6500503383154697e+000,
       4.9748825485012267e+000, -3.3905576679520668e+000,
       4.8815536048214181e+000, -3.4177195222659540e+000,
       4.0863778001619089e+000, -2.8133757773228321e+000,
       2.5998950049181717e+000, -1.6909493735308128e+000,
       4.2343180871481954e+000, -3.3910711555460962e+000,
       4.0743000360653152e+000, -2.6882391734655942e+000,
       2.6911739545853055e+000, -1.0162839617054344e+000,
       2.9565124096290791e+000, -1.1999852509158746e+000,
       3.5418958187925527e+000, -1.8398224559825582e+000,
       3.7742882149230290e+000, -2.0576570674687966e+000,
       3.9360745602395526e+000, -2.0023005944343528e+000,
       3.0123284506171868e+000, -1.5123086627983953e+000,
       2.6026106871053676e+000, -1.2506893677228690e+000,
       3.0917065283184169e+000, -1.6717359009463222e+000,
       3.4748314215370280e+000, -1.9935176372388432e+000,
       3.8448221043948538e+000, -2.4706152866716518e+000,
       4.7275419451516347e+000, -3.3121595548684817e+000,
       4.0741679801027351e+000, -2.7851696958795515e+000,
       2.7039816715673659e+000, -1.7149979940612712e+000,
       4.5434054206305730e+000, -3.6994132161250013e+000,
       4.0743000360653152e+000, -2.6882391734655942e+000,
       2.7007410268080667e+000, -1.0004215576480009e+000,
       2.9594471808328140e+000, -1.1795622898899265e+000,
       3.3626116255089227e+000, -1.6450614865749669e+000,
       3.5597962377127392e+000, -1.7563432885720218e+000,
       3.7216999464594021e+000, -1.6245534866826565e+000,
       3.0045256808343099e+000, -1.3006698349976262e+000,
       2.6120741963610747e+000, -1.0011980853959050e+000,
       3.1529460264966773e+000, -1.5470683457001844e+000,
       3.6309424111170410e+000, -1.9462730207236576e+000,
       3.5710778973744706e+000, -2.1166090114128320e+000,
       3.7127226840384453e+000, -2.4011787237384694e+000,
       3.6110192151694172e+000, -2.4196653118359190e+000,
       2.6464367757145095e+000, -1.7550530753315243e+000,
       4.5920072547648605e+000, -3.7516399413046289e+000,
       4.0743000360653152e+000, -2.6882391734655942e+000,
       2.6741540570202273e+000, -1.0340618932089043e+000,
       2.9041765949312088e+000, -1.1554801117462385e+000,
       3.3252177176827087e+000, -1.5755541251542238e+000,
       3.5866228447429878e+000, -1.6970102871430364e+000,
       3.7060999098210261e+000, -1.6323219813076828e+000,
       2.9551674771103991e+000, -1.2904416004598616e+000,
       2.5031994273943381e+000, -9.0047515677359047e-001,
       2.9831999777215108e+000, -1.4308777705876525e+000,
       3.5269181805441616e+000, -1.8607009213405652e+000,
       3.3266112922054427e+000, -1.8897446420744328e+000,
       3.5745328095008952e+000, -2.2214288337358248e+000,
       3.6347170441140610e+000, -2.4475533950458033e+000,
       2.6130389916424259e+000, -1.7732217885804920e+000,
       4.7149913484903063e+000, -3.9056966090947975e+000,
       4.2385784887479812e+000, -2.7937659951535343e+000,
       2.5896950874581668e+000, -1.0689108872078579e+000,
       3.1274881542359716e+000, -1.4121663543914151e+000,
       4.3053365904493557e+000, -2.3821295976433094e+000,
       5.0104776307872374e+000, -2.8855462665142180e+000,
       6.0290074107366554e+000, -3.5628834487939063e+000,
       3.6961710289433758e+000, -2.1372987584811036e+000,
       2.6520339180481027e+000, -1.3004894115931602e+000,
       3.6111730320840407e+000, -2.1148330951506420e+000,
       5.0115493604876455e+000, -3.1109436233642871e+000,
       4.7048249343856794e+000, -3.1332408774290159e+000,
       4.7532107942732180e+000, -3.2740668159637032e+000,
       4.4277937912686083e+000, -3.0559965301402450e+000,
       2.6340131042682655e+000, -1.7749734895584919e+000,
       4.6726754671475259e+000, -3.9343275140704201e+000,
       4.7214899605284044e+000, -3.0965666448243789e+000,
       2.6082989658795035e+000, -1.0796195731885438e+000,
       3.2078940924966961e+000, -1.4136629536652945e+000,
       3.9990565035854484e+000, -2.2508801301075545e+000,
       4.8189248678048759e+000, -3.2191341333540162e+000,
       5.1122064633264506e+000, -3.4738184188346044e+000,
       3.2058848804386226e+000, -2.1185015702437342e+000,
       2.7305291539364478e+000, -1.7043498358389946e+000,
       3.4006412451662875e+000, -2.2615939009237649e+000,
       4.4375242500204628e+000, -3.0516690649864171e+000,
       4.2336250353884752e+000, -3.0589355010662413e+000,
       4.6228993154141724e+000, -3.4244611692262921e+000,
       4.0665407098432524e+000, -2.9861618670539078e+000,
       2.5650893005626036e+000, -1.7659831943765172e+000,
       4.6443100087712352e+000, -3.8107557475458318e+000,
       4.7237299859348933e+000, -3.0966674852784299e+000,
       2.8211988426219250e+000, -1.1872188893209068e+000,
       3.2515903123110208e+000, -1.4704163940760775e+000,
       4.2559313802001180e+000, -2.5043614389061672e+000,
       4.7015897137301446e+000, -3.1585855581713038e+000,
       4.4986203939338036e+000, -3.1620372270916071e+000,
       3.1647793355344982e+000, -2.1484402861454646e+000,
       2.8852545386478181e+000, -1.8621720853165731e+000,
       3.3707297478859326e+000, -2.3573035232244028e+000,
       3.9268692198676951e+000, -2.8375683886158489e+000,
       3.8948524342763480e+000, -2.8539889346547103e+000,
       4.4107803768642553e+000, -3.3258386948550518e+000,
       3.9885974841123062e+000, -2.9523096869314598e+000,
       2.7969899276370644e+000, -1.9492364690805373e+000,
       4.5594825628181521e+000, -3.7391211518567631e+000,
       4.9108129432697130e+000, -3.2790546407320567e+000,
       2.9217587090207879e+000, -1.2425851168864732e+000,
       3.3636682053987417e+000, -1.4847498952920117e+000,
       4.2690141438255944e+000, -2.4027800040216074e+000,
       4.2176324196912391e+000, -2.7352273236349474e+000,
       3.8395990185123923e+000, -2.6597949325516832e+000,
       3.2289683361902495e+000, -2.2408498177617071e+000,
       2.9356621782063201e+000, -1.9789772948726918e+000,
       3.4117077860665468e+000, -2.4362011096402307e+000,
       3.3384363480760801e+000, -2.3926047363218870e+000,
       3.5623921454688938e+000, -2.5969558269133719e+000,
       3.9748341786980967e+000, -2.9000878141437112e+000,
       3.8726146064980611e+000, -2.7268750637278401e+000,
       2.9478372862616427e+000, -1.9995067846475187e+000,
       4.7799646189649554e+000, -3.8631657394177830e+000,
       4.8799500119220243e+000, -3.3561617417226977e+000,
       2.8669548280338102e+000, -1.2535431945312008e+000,
       3.4981101531308161e+000, -1.4447804675878733e+000,
       4.2288564620011400e+000, -2.2256660473980703e+000,
       4.2550207087946079e+000, -2.7003042985631889e+000,
       3.4061128111848498e+000, -2.2883104528119227e+000,
       3.2479739463147457e+000, -2.2356622060251210e+000,
       2.9744291575649102e+000, -2.0980175134274686e+000,
       3.4313585129746302e+000, -2.4129122664288056e+000,
       3.5261716004607915e+000, -2.5394389269641717e+000,
       3.7709052299232897e+000, -2.7514669101014517e+000,
       3.5654894465082885e+000, -2.4170174175504839e+000,
       3.6544038527756544e+000, -2.3621262375074554e+000,
       3.0234880717484209e+000, -1.9795942309925267e+000,
       4.9647486588140115e+000, -3.9397552487316339e+000,
       4.8315371785485342e+000, -3.3415262098446341e+000,
       2.8561367540018145e+000, -1.2570162526987607e+000,
       3.5082842521457214e+000, -1.4510540354095716e+000,
       4.7889527207971287e+000, -2.5645273311979331e+000,
       4.8835495222635901e+000, -3.0641806941539182e+000,
       4.1712918058482487e+000, -2.8581796739829239e+000,
       3.6703240985486221e+000, -2.6405507036570852e+000,
       3.4845990685081962e+000, -2.5033003731848780e+000,
       4.5278742819058673e+000, -3.3622157087891948e+000,
       4.6483267306310623e+000, -3.3216247935961487e+000,
       4.1195943800367791e+000, -2.8801973699091943e+000,
       3.7587243220483431e+000, -2.4124511369908284e+000,
       3.6958612050393027e+000, -2.2809901484535793e+000,
       3.0728430874198187e+000, -1.9111559770549205e+000,
       5.1000091805307823e+000, -3.8503100518574591e+000,
       4.6788838767828826e+000, -3.1462922391663248e+000,
       3.0614095786445890e+000, -1.3016879536612225e+000,
       3.7692065074206038e+000, -1.6124341235704907e+000,
       5.4767779694058918e+000, -3.0267144523098004e+000,
       5.5902951335536182e+000, -3.4444006701543270e+000,
       4.5912200858377901e+000, -3.0699089515080997e+000,
       3.8297974643288883e+000, -2.6324452378531702e+000,
       3.4705868767894676e+000, -2.3720831640546676e+000,
       4.4783679117358552e+000, -3.1553533606795972e+000,
       4.6541201136962007e+000, -3.2812053679950419e+000,
       4.3814424317963212e+000, -2.9602396443824439e+000,
       4.2260620869909351e+000, -2.6998209125028887e+000,
       3.9184673422784759e+000, -2.3250329741092695e+000,
       3.0354743672383639e+000, -1.7426967433228602e+000,
       4.7015583692287457e+000, -3.4019950459313564e+000,
       4.4487714718411384e+000, -2.9681607035017015e+000,
       2.9254293043833122e+000, -1.2003994257007089e+000,
       3.4880428536963342e+000, -1.4519911413716988e+000,
       4.7814858909662243e+000, -2.4557142630676752e+000,
       4.7809393287932487e+000, -2.7759986660775464e+000,
       3.7248422695466834e+000, -2.3184765034992996e+000,
       3.1200240887307022e+000, -2.0160553001135630e+000,
       2.6930862368859039e+000, -1.6747980384889769e+000,
       3.0669664954211853e+000, -1.9397994186889755e+000,
       3.2961225355053845e+000, -2.1247578630767081e+000,
       3.6381042479308716e+000, -2.3438562397327152e+000,
       3.9840159004742968e+000, -2.4898285039906942e+000,
       3.7008974278473934e+000, -2.1353322894802620e+000,
       2.9203932222770828e+000, -1.5884387778376756e+000,
       4.3889202029912084e+000, -3.0689518861007383e+000,
       4.0939981798342728e+000, -2.7052498095932789e+000,
       3.1938089347717398e+000, -1.5408515173765718e+000,
       3.6709662361577942e+000, -1.7104729230294393e+000,
       4.3056332124707453e+000, -2.2637151588449038e+000,
       4.2143051988387317e+000, -2.5084006777177552e+000,
       3.4039580704268269e+000, -2.1416283863359316e+000,
       2.8057812458056719e+000, -1.8484209991160447e+000,
       2.5222617392017304e+000, -1.5973950259071532e+000,
       2.6837840514119757e+000, -1.7206982305262764e+000,
       2.9519408082225822e+000, -1.9374998993308554e+000,
       3.5051287871757633e+000, -2.3505190801826998e+000,
       4.0050179417686413e+000, -2.5799418241580545e+000,
       3.6238142958364614e+000, -2.1741450894502727e+000,
       3.1034099702541917e+000, -1.8160986602247919e+000,
       4.0206264465993158e+000, -2.7838597978545039e+000,
       4.0939981798342728e+000, -2.7052498095932789e+000,
       4.4390919139944707e+000, -2.8489976091521370e+000,
       4.9747245562733937e+000, -3.0056982485209911e+000,
       5.7711406489561554e+000, -3.7010740646905838e+000,
       6.5542747085188626e+000, -4.5858504120624648e+000,
       4.5589275160164684e+000, -3.3251367898198665e+000,
       3.7799925893227528e+000, -2.8207885977241558e+000,
       3.7105857517585061e+000, -2.8211365362409300e+000,
       3.6098362286035419e+000, -2.7934942012830515e+000,
       4.1698168646961244e+000, -3.2464613591897948e+000,
       5.6213710623454753e+000, -4.3567463173337844e+000,
       5.2228738625367752e+000, -3.7275276614446935e+000,
       3.9379895343900406e+000, -2.5858607025198626e+000,
       3.5500256978921212e+000, -2.4114652178580034e+000,
       4.0224179011808738e+000, -2.8761602792728715e+000 ]
   output_scale: [ 5.2631578947368418e-001, 4.9999999999999994e-001,
       5.2631578947368418e-001, 4.9999999999999994e-001,
       5.2631578947368418e-001, 4.9999999999999994e-001,
       5.2631578947368418e-001, 4.9999999999999994e-001,
       5.2631578947368418e-001, 4.9999999999999994e-001,
       5.2631578947368418e-001, 4.9999999999999994e-001,
       5.2631578947368418e-001, 4.9999999999999994e-001,
       5.2631578947368418e-001, 4.9999999999999994e-001,
       5.2631578947368418e-001, 4.9999999999999994e-001,
       5.2631578947368418e-001, 4.9999999999999994e-001,
       5.2631578947368418e-001, 4.9999999999999994e-001,
       5.2631578947368418e-001, 4.9999999999999994e-001 ]
   inv_output_scale: [ 1.8999999999999999e+000, -9.4999999999999996e-001,
       1.8999999999999999e+000, -9.4999999999999996e-001,
       1.8999999999999999e+000, -9.4999999999999996e-001,
       1.8999999999999999e+000, -9.4999999999999996e-001,
       1.8999999999999999e+000, -9.4999999999999996e-001,
       1.8999999999999999e+000, -9.4999999999999996e-001,
       1.8999999999999999e+000, -9.4999999999999996e-001,
       1.8999999999999999e+000, -9.4999999999999996e-001,
       1.8999999999999999e+000, -9.4999999999999996e-001,
       1.8999999999999999e+000, -9.4999999999999996e-001,
       1.8999999999999999e+000, -9.4999999999999996e-001,
       1.8999999999999999e+000, -9.4999999999999996e-001 ]
   weights:
      - [ 4.7143214959516740e-002, 3.1423537796250989e-001,
          5.8624907752665667e-001, 4.1656171713584944e-001,
          2.9473407511655877e-002, -2.2001184582456385e-001,
          6.9440752319824972e-001, -2.2931484886927617e-001,
          2.2132630646675899e-001, 5.2614457344511575e-002,
          -4.8985853863791839e-002, 3.0118537640876997e-001,
          9.0516257169344402e-002, 1.5857290180993980e-001,
          -2.5768679959281260e-001, -4.8214218798192604e-001,
          -1.4640609458625986e-001, -3.7843861812305990e-001,
          1.2593009996003185e-001, 2.5124129757128033e-001,
          -3.3972208106704033e-001, -2.3333057857477574e-001,
          9.8792579408247636e-002, 4.8526130816856035e-002,
          3.2063795402609635e-001, 5.9297194743404025e-001,
          4.0760495966202759e-001, 2.6638810229491577e-002,
          -2.1230791741775934e-001, 7.0054980464852101e-001,
          -2.2680506643389936e-001, 2.2802695264152664e-001,
          5.3809780941823079e-002, -5.6063078227654883e-002,
          3.0982026087707371e-001, 9.0035824725526278e-002,
          1.6297325756180728e-001, -2.5594055057179455e-001,
          -4.8877401191506287e-001, -1.5088596468546872e-001,
          -3.7746433229061516e-001, 1.3492635742844472e-001,
          2.4971244941785928e-001, -3.2872911894943041e-001,
          -2.3042226002600835e-001, 9.7104480136822172e-002,
          -7.0834665269015995e-002, 3.2474201821376225e-001,
          4.5466434627792533e-002, 4.1843495510200368e-001,
          2.2454467762786107e-002, -2.2055611520470275e-001,
          6.9772994344165296e-001, -8.1002546734089464e-002,
          2.1993972977557105e-001, 5.1333032489275496e-002,
          -1.7397186643218383e-002, 5.2921150641028716e-002,
          8.7365014645638409e-002, 1.6760839544641618e-001,
          -1.5787110878503244e-001, -4.8256910162810990e-001,
          -1.5107854824396866e-001, -3.7632312529730150e-001,
          2.6242608161029662e-001, 2.4605187619226798e-001,
          -2.1763179380032938e-001, -2.3440786009974796e-001,
          1.0053756975300350e-001, 7.0684273976628298e-002,
          4.8733439284081981e-001, 4.2065977054689695e-002,
          -3.6850070296640190e-002, -7.7776353683849025e-002,
          -2.2750553086062344e-002, 1.3062242966918522e+000,
          -2.2782105017696047e-001, 8.2382064635517768e-002,
          1.2728068465428569e-002, -6.6875375547812074e-002,
          2.4771891961637657e-001, 1.2568008913095485e-001,
          1.8871013845569054e-001, -2.5393005176291089e-001,
          1.3504449083043300e-002, -5.5556501152488032e-003,
          -1.5333429618852024e-001, 2.1797418802213103e-001,
          1.1898378879537225e-001, -2.4823462730776985e-001,
          -5.5847873451959873e-001, 9.0056447014891280e-002,
          -8.5650320150789647e-002, -8.2481999492537955e-002,
          -4.0897915532858714e-001, -6.3805356166512461e-001,
          -1.3129846097012920e-001, 3.7775996188096128e-002,
          5.8356601007561584e-002, 3.6537642033954910e-002,
          1.7466141331891327e-001, 1.3327028167492438e-001,
          -1.1580902275849242e-001, -1.1193295235852389e-001,
          8.8870852500898032e-002, -4.4721565041103251e-001,
          -3.0659535291181611e-001, 5.2948884425428622e-001,
          -2.0288802906933878e-001, 4.8659890388754144e-002,
          8.2732186747753247e-002, 2.3995084353244028e-001,
          -8.0064562907307291e-001, -1.6955725080848869e-001,
          -3.4375003946352300e-001, 1.7394960415773703e-001,
          -1.2696592937058029e-001, -5.0154720144334619e-001,
          -1.0336693241654973e+000, -4.6289409183384450e-001,
          2.6526120489674077e-001, 7.4363671716359034e-002,
          3.1835059696150671e-002, -5.4128371584982307e-002,
          -5.5302529509631798e-002, -5.2806995580603394e-002,
          -3.7692364688701152e-001, 8.8056931778844397e-002,
          -4.7977089865987560e-001, -1.1234145674376037e-001,
          2.0062378317015135e+000, 1.0949308357270782e-001,
          2.6521262621282574e-002, 2.0148861716173880e-001,
          8.2211115903951429e-002, -1.4767989296280351e-001,
          -1.6797256353927023e-001, -7.6052515177913405e-001,
          1.6405473741973658e-001, -1.3575421244910918e-001,
          -2.1369735417457780e-001, -6.4299604298561674e-001,
          -3.4814632958782406e-002, 2.6406576128982562e-001,
          9.3907563504695410e-002, 4.0024270126890700e-002,
          -2.4171941794514204e-001, -1.2382183809520203e-001,
          -4.4043551844773488e-002, -3.8080470024241664e-001,
          9.8027153967746403e-002, -1.9347577300706148e-001,
          -1.1768664361354107e-001, 3.0708012195741696e-001,
          1.0846333457205601e-001, 1.0884442147314893e-001,
          -9.3168336133878163e-002, -1.0393006831016920e-001,
          1.1472000431677389e-001, 1.1020153938708697e-001,
          -3.2069124625434658e-001, 1.6951221561593960e-001,
          -1.3516420428581713e-001, -2.1214290119268470e-001,
          -6.3534014215950441e-001, -2.8905147999548773e-002,
          2.6162328372991561e-001, 9.3901365219931601e-002,
          4.0614100742475102e-002, -2.4254217118221919e-001,
          -1.3483034079976980e-001, -4.5519338115303051e-002,
          -3.7232081910496095e-001, 9.0226618716964788e-002,
          -1.8913833349166112e-001, -1.1498751221565388e-001,
          3.0497799582803931e-001, 1.0817789793471796e-001,
          1.1950444535175869e-001, -4.2398067686190272e-001,
          -1.0177406989369854e-001, 1.1205423447460851e-001,
          2.3624777975666506e-001, -3.3130953109457612e-001,
          1.7325116209447794e-001, -1.3867551756952851e-001,
          -2.0406123299257845e-001, -6.3904229156622705e-001,
          -3.7923872447754560e-002, 2.6564791824467182e-001,
          8.7740435457457536e-002, 3.1852685038543833e-002,
          -2.4254768119273043e-001, -1.2536163450617394e-001,
          -5.3389878377332417e-002, -3.7157437293529927e-001,
          -2.0924240805675334e-001, -1.8860244260349493e-001,
          -1.1273027386486587e-001, 3.0622529575317814e-001,
          1.0411105509627361e-001, 1.1467408256814093e-001,
          -9.8537306186552001e-002, -9.9332918508843002e-002,
          1.1360351177131840e-001, 2.3747241126747015e-001,
          -3.3229330099083609e-001, 1.7493169794226610e-001,
          -1.3199172806611756e-001, -5.0154308695525962e-001,
          -6.4618506516535512e-001, -4.6578443569252187e-001,
          2.6891441407091621e-001, 9.6887230307931768e-002,
          3.6686262879837457e-002, -2.4323805124541995e-001,
          -1.3507629319079806e-001, -4.8015931818834137e-002,
          -3.7866184521386514e-001, 8.6834148102213002e-002,
          -2.9574367271428283e-002, -3.1241377213718974e-001,
          2.9610789496929868e-001, 3.8921129570428720e-001,
          1.1789110327314889e-001, -3.7581756052806764e-001,
          -1.0741352232325609e-001, 1.0638470746600483e-001,
          1.9863364711152250e-002, -2.7362128636930988e-001,
          1.7413857018898427e-001, -4.5279999731269838e-001,
          -4.0957672828958752e-001, -6.4206948118202267e-001,
          -1.2721441097673319e-001, 3.6750653863950822e-002,
          9.5259187243726215e-002, 3.1284124024934502e-002,
          -2.4405121115593531e-001, -2.4260868431017016e-001,
          -8.4765983789442570e-002, -3.7476554008052321e-001,
          9.8283645491004698e-002, -2.3933316194344942e-001,
          -3.0826872214375939e-001, 3.0491073659387136e-001,
          1.0404861503468069e-001, 1.1703801560968347e-001,
          -9.8903146202664660e-002, 5.5660203059510922e-002,
          -1.5180201612574734e-001, -2.6646131770041853e-001,
          -1.7621333269623307e-001, -1.4289490628449930e-001,
          1.0248663089737900e-001, 3.4253646586354429e-002,
          -3.2663568471345722e-001, 2.6611252090478243e-001,
          1.0037394336687647e-001, 6.8358664882816256e-001,
          -2.7809294752831133e-002, 2.8347294611967389e-002,
          -4.1428935789482274e-001, 2.7171707266115765e-002,
          3.7428145044572181e-001, -1.5416173811998971e-001,
          -4.0441403105789496e-002, -1.6101081290994843e-001,
          -3.5051817436441690e-001, 1.1083394565131463e-001,
          -3.1199975386896128e-001, -2.0221664249370958e-001,
          4.1314987181246314e-002, 1.4154881899233404e-001,
          -2.5638398510836585e-001, -5.2254362324599554e-002,
          -1.3821318803073279e-001, 3.2119439876228240e-001,
          -5.3539960070613499e-002, 2.1245020763685347e-002,
          2.7839199298628103e-002, 3.9924874306893815e-002,
          3.6633156993779897e-001, 1.5147287050166569e-002,
          2.7950029540609939e-001, -4.4697055381953593e-001,
          1.7038224681563563e-001, 3.7615598127892402e-001,
          -1.5625668172022486e-001, -1.1803224429092167e-001,
          -1.6453662350754059e-001, -1.0597810633278606e+000,
          -1.4552061556663576e-001, -5.4904043159159220e-002,
          1.6538463397111272e-001, 4.9442284661464178e-002,
          1.3179411539004843e-001, -1.1825506918267902e-001,
          2.8536202994638804e-001, -1.4685438480785290e-001,
          3.2346904323452147e-001, -4.4281852930700007e-002,
          9.9702922732607863e-002, 2.1357750508173321e-002,
          3.2456875578609434e-002, 3.7631371586256018e-001,
          -3.0847002309044278e-002, 7.1845913658006577e-001,
          -1.3446804557634773e-001, 4.9331761605172199e-002,
          3.7617145997442125e-001, -1.5698472135919553e-001,
          1.6399407069180172e-001, -1.6676057907285563e-001,
          -8.4502766999692946e-001, -1.4620486462804522e-001,
          -2.6470869117480703e-002, 1.2998859225320464e-001,
          3.2575164691500702e-001, 1.3358313950078640e-001,
          -1.1140126815747690e-001, 2.7067595344716799e-001,
          -1.4616837836093599e-001, 3.2114239810029616e-001,
          -4.2691943166334574e-002, 1.0687121886335918e-001,
          2.2468065529835993e-002, 3.8700080295200681e-002,
          3.6409845092618237e-001, -3.0366121398321542e-002,
          7.1593425564818169e-001, -1.3955867520778065e-001,
          4.1087255741242029e-002, 3.7299885272917876e-001,
          -1.5483872915224409e-001, 1.5234818429554520e-001,
          -1.6774120417261507e-001, -8.4644282894671408e-001,
          -1.4287325334784506e-001, -3.5016981291599365e-002,
          3.5628192500313120e-002, 3.2759200904122820e-001,
          1.2914151386830761e-001, -1.1960244928766547e-001,
          3.2375940231976885e-001, 4.9879790860070085e-002,
          3.1552295593556023e-001, 5.8380726545457007e-001,
          4.1642339731509148e-001, 2.4531561925226916e-002,
          -2.1916840989798292e-001, 6.9323477642783760e-001,
          -2.2029391261771969e-001, 2.1972574029551642e-001,
          4.4699449530186272e-002, -4.9791462137163733e-002,
          3.0865215921000100e-001, 8.6297955223582093e-002,
          1.6383835069265759e-001, -2.5354442643984132e-001,
          -4.8891058527872444e-001, -1.4374293715329939e-001,
          -3.7822647164011203e-001, 1.2985982276630842e-001,
          2.4505208645104029e-001, -3.3579394278644475e-001,
          -2.3272819197073430e-001, 9.4605399851310015e-002,
          2.2741701782497542e-001, 3.7369817479200101e-001,
          5.8746236580565880e-001, -1.5918487249501144e-002,
          -5.0505724992861323e-002, -2.2494005669112010e-001,
          4.8859249946130517e-001, -2.2407215590416552e-001,
          2.1948123629797048e-001, -5.3939673093105923e-003,
          2.4436505728860899e-001, 3.1081249416453199e-001,
          9.2885001309721063e-002, 1.5653089579079152e-001,
          -2.6390262113692486e-001, -2.0431496043202643e-001,
          3.6736153093228216e-003, -1.5131569177006859e-001,
          1.8472765596328997e-001, 4.6030025688465603e-001,
          -2.4585483496182106e-001, -5.6823276302469217e-001,
          9.9020801909619996e-002, -2.0680069107367104e-002,
          3.7957893935537174e-001, 2.7354935121444129e-001,
          1.6105207184502915e-001, -3.1617640806427944e-001,
          -8.5974209496546879e-003, 4.8531155735115378e-001,
          -6.7267694599397368e-002, 7.9051055651936333e-002,
          -9.8457252621581715e-003, 1.4997457347286025e-001,
          1.4013509265387519e-001, 1.2570905464215026e-001,
          1.5316856829253525e-001, -2.5623440824709254e-001,
          -1.3824033869527777e-001, 1.7057417352273480e-003,
          -2.4893992197653571e-002, 8.1142758321408770e-002,
          1.2900898970836583e-001, -2.4932787862796774e-001,
          -9.5855286172802534e-001, 9.4313452849680388e-002,
          -9.2244276405910347e-002, 2.0878106879458935e-001,
          -1.7645293877740761e-001, -2.5917618300736095e-001,
          -9.4867392726949729e-001, 3.4312373614920127e-001,
          6.2670616312767019e-002, -1.4378554996996665e-001,
          3.6677026480808304e-002, 6.0492612484364092e-002,
          1.8852220486991858e-001, -1.1696247610626286e-001,
          -2.6076801358140528e-002, -2.4963883818230437e-002,
          -6.4480490731588602e-001, 5.0064437362834030e-002,
          -2.0222013022053936e-001, 5.3267251470649701e-002,
          6.9659280263344572e-002, 1.1444611637866423e-001,
          -2.5266767973504023e-001, -5.6630472964721124e-001,
          -3.5291785751412136e-001, 2.6370424539419379e-001,
          -1.2937059457221128e-001, -3.8780716305273244e-001,
          -6.4544754093266010e-001, -1.0159767295043292e+000,
          5.5964548467212283e-001, 9.2633960804597196e-002,
          -5.9654942517974902e-002, -5.1893987922735821e-002,
          9.2282625674093649e-002, -4.6626142729378572e-001,
          -3.7318413366624614e-001, 8.6841073530037269e-002,
          -2.7256639710576475e-001, -4.7599755505135441e-002,
          1.8514258196793112e+000, -2.0504466056405718e-001,
          5.5167230736474691e-002, 4.7701953497567742e-002,
          2.4541502225979264e-001, -2.0619592921809296e-001,
          -1.7760529919383630e-001, -2.8028477381346784e-001,
          1.7147131492141066e-001, -1.3834176664666961e-001,
          -4.8020688405615841e-001, -6.3449471014736503e-001,
          -4.5494884325764862e-001, 2.6995466076852515e-001,
          9.1996466818782055e-002, 3.6386968171760577e-002,
          -4.9138144793294328e-002, 7.5485607832100218e-002,
          -1.3947628804909795e-001, -3.8156797495101080e-001,
          9.0351107016922297e-002, -3.9109949183496397e-002,
          -1.1602499387853020e-001, 1.7849341229827203e+000,
          -2.1068852141322147e-001, 1.0890027128636237e-001,
          1.9966279841698351e-001, 1.4791630167907358e-001,
          -4.9593718993411291e-003, -1.6592106883238736e-001,
          -3.3483066236414449e-001, 1.6555847672915913e-001,
          -1.3284842278279937e-001, -5.1109104896736535e-001,
          -6.4292351811245974e-001, -4.6209742376434831e-001,
          2.6742793482742577e-001, 9.5676925973168306e-002,
          4.0201111587263534e-002, -5.4718216676124434e-002,
          -1.2618834799009779e-001, -4.2764860876948863e-002,
          -3.7088723523346889e-001, 9.6125784896618646e-002,
          -1.8829432581530836e-001, -1.4118695882444693e-001,
          8.9065482927485029e-001, 1.1173710591692634e-001,
          1.1060717664707720e-001, -5.6473087638215999e-002,
          4.3959856757065124e-002, -7.8669169618094358e-003,
          1.1420354731077106e-001, -3.5472414883905301e-001,
          1.7319379990284528e-001, -1.3755105747132151e-001,
          -2.0393634780836034e-001, -6.3766775487106053e-001,
          -3.2503759173839457e-002, 2.7098705233423959e-001,
          8.7799121206972877e-002, 3.7113580580284251e-002,
          -1.4876441774704952e-001, -1.2554582596512331e-001,
          -4.7845442631263016e-002, -3.8105885803689798e-001,
          9.2091847943551144e-002, -1.8874410799283653e-001,
          -1.3646938312227741e-001, 8.3562300828934968e-002,
          1.0333524958755533e-001, 1.1417367470259981e-001,
          -9.3057348056771821e-002, 5.0410176387786110e-002,
          1.0974358133491065e-001, 1.1895470552562197e-001,
          -3.2507262888469757e-001, 1.6624337031778375e-001,
          -1.3060988730047907e-001, -5.1181898369320966e-001,
          -6.4483555667563808e-001, -3.0313945759140391e-002,
          2.6381676317574820e-001, 9.3713310849391676e-002,
          4.0587962316844368e-002, -4.9717886568648179e-001,
          -1.2501142331589563e-001, -4.0169029008934737e-002,
          -3.8060402360770340e-001, 9.4185094551670581e-002,
          -1.8514393465884918e-001, -1.3788133562487315e-001,
          8.3449751452973828e-002, 3.8425271389062815e-001,
          1.2010913398236572e-001, -9.9315846826366697e-002,
          5.4479150407044229e-002, 1.1222303127685355e-001,
          1.1595856118310192e-001, -3.3066064328930489e-001,
          1.6524580474150152e-001, -1.3200836210460209e-001,
          -4.6100725082958455e-001, -6.4132192816719558e-001,
          -4.5631043739617344e-001, 2.6669112999883149e-001,
          8.8289261057003063e-002, 3.0829700303037309e-002,
          -2.4735281638144360e-001, -1.2693899988764068e-001,
          -5.1013289366412085e-002, -3.7746910168241732e-001,
          -2.1518229439227485e-001, -3.1131793009456964e-002,
          -8.4151557658691464e-002, 9.3366449214044120e-002,
          1.0320909647121118e-001, 1.1781149650718520e-001,
          -6.0001034107619394e-002, 4.9309703766077316e-002,
          3.5182211675818148e-001, 1.1323395967532511e-001,
          -1.8379345527966132e-001, 2.6662637975193559e-001,
          -1.3321387557280348e-001, -4.0857809383976523e-001,
          -6.4162999270066789e-001, -4.6214778324263744e-001,
          2.2219927364389747e-001, 8.8073132441512006e-002,
          -2.4865294561149132e-001, -2.4670284981140916e-001,
          -2.3693200456187441e-001, -3.2846015137739465e-002,
          -3.7006396640774653e-001, -2.1459026978521065e-001,
          8.4035907735135321e-002, -2.2431420807422653e-001,
          -8.8766139256361523e-002, 3.8554948327871885e-001,
          1.1227235927299700e-001, -6.1118798221603973e-002,
          4.4722089861358581e-002, 2.3672429536189105e-001,
          -5.6105025983708601e-001, -1.1978988165208788e-001,
          1.8534201653007715e-001, -4.2248928514048556e-001,
          4.0821372488436272e-002, -4.8742080283326050e-001,
          -9.6287248285891788e-002, 2.0462627045245296e-001,
          1.8111682962040268e-001, -5.9764185279878861e-002,
          1.1598492523466687e-001, -6.1002554647312301e-001,
          -3.4687481079821184e-002, 1.1814668588125254e-003,
          -5.1513995713026339e-001, -3.4790509527585133e-002,
          -9.8772132506579458e-002, -3.2888559966390291e-001,
          -1.4587464863433297e-001, -3.3601558176786742e-002,
          -7.7853024856678596e-002, -8.8073556353066643e-002,
          2.0070981042300629e-001, -2.0538758940187560e-001,
          1.8365764437741884e-002, 1.1465233862562941e-002,
          8.3744690380037276e-002, -4.9630259812889044e-002,
          1.0712910149939212e-001, -1.4515832894907446e-001,
          1.9945974319064108e-001, 1.0499807038645648e+000,
          -2.8211961117317472e-002, 3.2041814363048549e-001,
          -1.3326668282965033e+000, -6.5109790481286151e-002,
          3.7840283016253751e-001, -5.2203696110411923e-001,
          1.7327673559245030e-001, -1.5690537483208963e-001,
          3.3441875091784973e-001, -1.4915322088849609e-001,
          -5.3644664366012305e-002, 2.5693001555262801e-001,
          4.3161972276972799e-001, 4.8708581949896343e-002,
          -1.0789557680210708e-001, -8.5159859256548551e-002,
          -1.3887703821055503e-001, 7.9932071591204398e-002,
          2.1548374603637471e-001, 1.0682083177833199e-001,
          -4.6008656320365510e-001, 1.5000711040704251e-001,
          4.0595490043439347e-001, -9.9751790680315089e-001,
          8.7887131453676448e-001, -3.1489073149546687e-001,
          3.7548899983064365e-001, 3.7219220224760174e-001,
          -5.0654522152544540e-002, -1.2511676990327850e-001,
          -1.6657868207830598e-001, -1.4559217392120000e-001,
          -1.4338029258618518e-001, 8.4194237837675226e-002,
          4.1874003574194613e-001, 2.3568389955708599e-001,
          3.9845432474155076e-002, -2.6326827740114761e-001,
          2.4224501528179207e-001, -3.2596787865102289e-001,
          3.2987654154342377e-001, -4.9415382744127184e-002,
          9.9398714174101344e-002, -8.2490589037615220e-002,
          1.2803767450259551e-001, -1.2552976905851597e-002,
          -2.1263966804698695e-001, 3.3977618978412583e-001,
          -2.9610961166395655e-001, 7.2341614759811912e-001,
          1.0367303689150710e-001, -5.2087418537477836e-001,
          -1.2630783325214306e-001, -1.5808948182846266e-001,
          -8.1544732644683171e-001, -1.4224857731641094e-001,
          8.4452381842478344e-002, -2.7932513796914853e-002,
          5.4811428091475940e-002, 1.2926379171790622e-001,
          -2.6324273291636235e-001, -6.4246859085927727e-002,
          7.2602601893526575e-002, 9.8911656222559363e-001,
          5.8711981404179681e-001, 5.1091118945192854e-003,
          2.5880171342886671e-002, -2.1287796079370008e-001,
          1.3111434934871991e+000, -2.2240521624429915e-001,
          2.2855396232972350e-001, 4.2439694276272755e-002,
          -1.1457878414870065e-002, 3.0603201908971800e-001,
          9.2510683512798383e-002, 1.6147182441370334e-001,
          -2.5852269656063848e-001, -2.0255680504700094e-001,
          -7.1507801428862677e-002, -1.5468190711848012e-001,
          1.5983364912055870e-001, 4.6552095277763900e-001,
          -4.5512672620754718e-001, -9.6249348206634977e-001,
          9.9482708772646575e-002, -1.7318088289348187e-002,
          3.7736780173652651e-001, 1.5091667706578915e-001,
          1.6051685701964877e-001, -8.5844760794460642e-002,
          -6.9861265483854768e-002, 4.9187344679400569e-001,
          -2.2707482153507369e-001, 2.2980379446507901e-001,
          -3.9361353750019265e-003, 2.4213497952662541e-001,
          5.0354603517210028e-001, 1.3283552742739721e-001,
          1.5430492089211492e-001, -6.5834408709640357e-001,
          -1.9888599414113325e-001, 1.1706514984658469e-002,
          3.1247949717341328e-001, 4.7593718158497028e-002,
          2.0902874348762088e-001, -2.3836990496468560e-001,
          -4.3910102312846816e-001, -6.4893795360027540e-002,
          -1.5017352847448111e-002, 3.8216137589818994e-001,
          6.8812125458424231e-002, 1.5381614687063530e-001,
          -4.3872146567206199e-001, -6.9186912286782712e-002,
          1.9596034809447424e-001, -1.9673357147164749e-001,
          2.5747535032973196e-001, -5.0199297800180296e-003,
          2.4927087591744665e-001, 4.2896309499168964e-002,
          1.0477712836960569e-001, 1.5328746216128677e-001,
          -6.4319896310749747e-001, -3.2370445886969673e-001,
          1.2356177177799495e-002, 3.0322997004098573e-001,
          4.0578524122574261e-002, 6.6861262496898527e-002,
          -6.3983046136057686e-001, -4.4527434518185954e-001,
          9.6245367416300950e-002, -9.8032059226938612e-002,
          3.7769007260468312e-001, 4.2044763037001964e-001,
          -2.5946805989121163e-001, -9.5453583474595272e-001,
          3.3671180144250995e-001, 2.5754888873710174e-001,
          -1.4860520755979942e-001, 1.7289906019815127e-001,
          6.4924035295028354e-002, 1.8006853379159427e-001,
          -7.6069116977153947e-002, -5.5527343304395640e-002,
          1.8805164996534604e-001, -4.6952527858188331e-001,
          1.4643555735644884e-001, -2.0145041070388936e-001,
          6.3924011668035394e-002, 6.8185521081128617e-002,
          1.8157120679737990e-002, -6.3706642324462182e-001,
          -8.6310439527997862e-001, -3.4420220315649214e-001,
          2.6245543935533200e-001, -1.3692528750510094e-001,
          -5.7663789033974830e-002, -6.3521391528042281e-001,
          -1.0261794788992504e+000, 4.5145200613637620e-001,
          7.8232385997251921e-002, -5.2764672803258833e-002,
          -5.2491181364934039e-002, -1.6921316087635624e-001,
          -4.7426204971349373e-001, -3.7035662749015541e-001,
          8.9608634121593325e-002, -3.9273119741603912e-001,
          -5.0350486870792507e-002, 1.5793632697612808e-001,
          -2.0153461629926078e-001, 5.8550500205449184e-002,
          8.0922577196262030e-002, 1.3176065952461752e-001,
          -3.1127029018411795e-001, -1.7536194686682319e-001,
          -2.4857212478885618e-001, 1.6668841250722932e-001,
          -1.3800879029790369e-001, -4.8117703978597615e-001,
          -1.0332536666899730e+000, -4.6469458052238105e-001,
          2.6233356532306440e-001, 8.4043595634522406e-002,
          4.0697556199423564e-002, -5.2764134241215524e-002,
          -2.3447080064779971e-001, -4.2211458757771977e-002,
          -3.7513024076712120e-001, 9.2976833524393301e-002,
          -2.9670609416239248e-002, -1.1466450144411154e-001,
          8.8786877079584714e-001, 1.0562857734457998e-001,
          1.1215723208724121e-001, 1.9978842395775295e-001,
          -4.8877069281446604e-002, 8.9713816487663009e-002,
          -1.7433181813263618e-001, -1.9499996996464805e-001,
          1.6376030694691041e-001, -1.2866686461881369e-001,
          -5.0700856851114828e-001, -6.4153302137777946e-001,
          -4.5516540862183674e-001, 2.6061100792220593e-001,
          9.5335648183956498e-002, 3.6255165114761047e-002,
          -4.5206583860547003e-002, -1.2311619929166659e-001,
          -5.0717992621083077e-002, -3.8076309060302427e-001,
          9.6170812245672518e-002, -1.9154418192831335e-001,
          -1.3763311783264115e-001, 6.1858877600573670e-001,
          1.1041722173262408e-001, 1.0954267027866443e-001,
          -5.6258392727807555e-002, 5.5077071552274148e-002,
          3.5002721786263241e-001, 1.5224019756533959e-002,
          -3.3223400073371984e-001, 1.6863084732163297e-001,
          -1.2694112970696456e-001, -2.0732154464170266e-001,
          -6.4024232251834046e-001, -3.9108033311988595e-002,
          2.6944983179415916e-001, 8.8866894184193509e-002,
          3.1801107051309431e-002, -1.4750462980669946e-001,
          -1.3277083494123137e-001, -4.7653619764978367e-002,
          -3.7129327800062051e-001, -2.1391741775723097e-001,
          -1.9388384964952454e-001, -1.0774113230551068e-001,
          9.1022689772439394e-002, 3.8426535798688677e-001,
          1.1184840327404327e-001, -9.8380557159510912e-002,
          4.9380327812831089e-002, 1.1148067345189479e-001,
          1.1219577286819131e-001, -3.2917716454067791e-001,
          1.6438846323088174e-001, -1.3774886294914318e-001,
          -5.0402159337864150e-001, -6.4474238047658905e-001,
          -3.3874537778021942e-002, 2.6816313307692896e-001,
          9.2936355300969262e-002, 4.0106539957263217e-002,
          -2.4039005774655678e-001, -1.2433555101969217e-001,
          -4.7749139575734123e-002, -3.8195494808222685e-001,
          -2.1278713034060828e-001, -1.9171850041254693e-001,
          -1.0872629223036888e-001, 9.0627701990763768e-002,
          3.8747512836965931e-001, 1.1794590391640875e-001,
          -9.7987565650035358e-002, 5.6221036742364172e-002,
          1.1039470488758456e-001, 1.1401739461782570e-001,
          -3.2204812061833615e-001, 1.6492118347553653e-001,
          -1.2890376748330973e-001, -4.5219934441881376e-001,
          -6.4098322113163819e-001, -4.6538541122751970e-001,
          2.6387718368739166e-001, 8.7257772454337704e-002,
          3.2495167518287467e-002, -2.3932543183538355e-001,
          -1.3276714167753739e-001, -7.3013208616382524e-002,
          -3.8076006749607072e-001, -2.0801755524165591e-001,
          -2.7338696488912868e-002, -3.0876717853325736e-001,
          8.7242002710012548e-002, 3.8089727771981297e-001,
          1.1474026061545767e-001, -1.0212774737122618e-001,
          4.4475806471110262e-002, 3.4694416094656894e-001,
          1.1337441778397743e-001, -1.5090125062474757e-001,
          -5.0799930705222617e-002, -4.5701987363670782e-001,
          -4.0676809208573789e-001, -6.4253680831976001e-001,
          -4.5416570503462089e-001, -1.5965614537117945e-001,
          1.0808557400232156e-001, -1.7004547602222522e-001,
          -2.4488516098147908e-001, -5.9898379084118714e-001,
          -2.3994854182199904e-001, -2.4670880288626246e-001,
          -7.9539593978208926e-003, 1.7148946633845846e-001,
          2.0837409717473410e-001, -8.6148651801162393e-002,
          1.7069384360185735e-001, -1.4260554395184713e-001,
          -1.3755417717802848e-001, -1.4071698401974356e-001,
          2.5254473736333388e-001, -4.5581761477994573e-002,
          -1.2538205049529572e-001, 8.9050245170500919e-002,
          -4.0628643023535088e-001, 4.1771347840512077e-002,
          -3.9933036669733535e-001, -9.4351356749542967e-002,
          1.1338149176661114e-001, 1.6700003693992796e-001,
          -5.3977763004806840e-002, 1.2411336026087905e-001,
          -6.0670733383408693e-001, 1.2307997869928135e-001,
          -5.0775078360435155e-001, -5.1071831034949178e-001,
          8.9649212316233618e-003, -1.4914002302900964e-001,
          -3.2114646946787589e-001, 1.1614552313374152e-001,
          -1.7681701885541046e-001, 1.6243299056891819e-001,
          7.0320137638034463e-002, 2.0494105687620379e-001,
          -2.0436259554416744e-001, 3.2508857311291944e-001,
          -6.4757860332436135e-002, 7.9756889473198075e-002,
          -4.1503541362541231e-002, -5.4971568836150404e-002,
          -1.8712783378950174e-001, 2.1372866854405892e-001,
          2.0013989256948397e-001, -2.1891579585032020e-001,
          3.7067911490505456e-001, -6.1458334986999885e-001,
          1.1027922581269452e-001, 3.7501734524937025e-001,
          -5.1539777895105832e-001, -1.1533773565946809e-001,
          -1.6810985859082270e-001, -8.1404397353967017e-001,
          -1.4381129515478919e-001, 8.5719709479765080e-002,
          4.3884596520945585e-001, -4.9366200900437501e-002,
          4.0048796668992179e-002, -2.5571494095670466e-001,
          4.5134181810707713e-001, -8.4106108029119242e-001,
          2.0079083754027696e-001, 1.7748504409157256e-001,
          -9.3247222943500657e-002, -2.8742922311900374e-002,
          -4.7731720706205216e-001, 1.1020360014942243e-001,
          -9.9661696794377741e-001, 2.4840286963735284e-001,
          -6.0840165546098746e-001, 1.1425929838218686e-001,
          3.7705830559736853e-001, -5.8368670818840396e-002,
          -1.3294630088475251e-001, -3.7006980278399121e-001,
          -8.2347687602619479e-001, -1.4400024013580853e-001,
          7.8154779664687549e-002, 3.7992944016495206e-001,
          -2.2778663904977080e-002, -1.6377388476883581e-001,
          -3.9804906309423643e-001, 4.4883534584065754e-001,
          -8.3921170241147547e-001, 3.1413393721219013e-001,
          3.4329639263354743e-002, -1.5538938473944347e-001,
          -1.0513905369132411e-002, 2.0168564797732863e-001,
          4.3152451685456623e-002, -2.1366924512319699e-001,
          1.7758038523846859e-001, -1.9016609538097512e-001,
          1.0780255939788407e-001, 1.0313656855942234e-001,
          -4.9922049481948935e-002, -1.2885396943369695e-001,
          -1.5896253840001720e-001, -8.1191967569886903e-001,
          -1.4524193831156346e-001, 8.7367898900391885e-002,
          1.3354348591870072e-001, 4.6001557654679205e-002,
          4.2596458515969056e-002, -2.5761346138780522e-001,
          -7.4018147005986967e-002, -2.0523914473758946e-002,
          3.7875030261437653e-001, 1.5136547268074074e-001,
          -1.4312736499586123e-001, -8.1672467181408789e-002,
          -1.0010104186427851e-001, 4.8377127657302649e-001,
          -1.9480573378982516e-001, 1.6354426712772124e-001,
          -7.6909902832353189e-003, -2.1301700270489617e-002,
          5.0281356716995762e-001, 1.3525993203098216e-001,
          -5.3381317514894586e-003, -6.4925011001265387e-001,
          -1.2933647293804931e-001, 5.5315291253047860e-003,
          -1.7947850262444297e-002, -9.2365619981429267e-002,
          8.3706705723865335e-002, -1.1521348494881676e+000,
          -4.3666639611685415e-001, -6.9353127284890806e-002,
          -1.6328303798441236e-002, 3.7647220954062555e-001,
          1.4353726580016984e-001, 3.0474022374286980e-002,
          -8.5462440890294603e-002, -6.5162987566567687e-002,
          4.9271798106215531e-001, -6.5868678850493287e-002,
          1.6096420802023534e-001, -8.4250355800169086e-003,
          2.1250922257269800e-001, 4.4046867894919628e-002,
          1.3296594459599645e-001, -3.3115438639343839e-002,
          -6.6459872864346381e-001, -1.3710075576544770e-001,
          3.0442451894862471e-003, 3.0549726967637925e-001,
          -3.0177582488756347e-003, 2.0574512664674621e-001,
          -6.3663902014999862e-001, -2.4958280554316176e-001,
          -4.3550656758311330e-002, -1.1716796812149072e-001,
          7.5854753067152503e-002, -1.9218975586567676e-002,
          1.1161041376562812e-002, -1.1449081246818896e-001,
          -3.0332608849705839e-001, 1.9646443168462188e-001,
          -1.6877620755676839e-001, 5.4592026284275319e-001,
          -2.8983846583594669e-001, 2.4341747888557827e-001,
          1.5464021758066412e-001, 1.0624480447116826e-001,
          1.5724224434521056e-001, -6.3966665499115050e-001,
          -3.2692399334015104e-001, -1.8595759550535520e-002,
          8.3011177170921324e-002, 9.6834098729081497e-002,
          3.3061960549840064e-002, -1.5070081732832422e-001,
          -2.8213195927644924e-001, 8.9770012241058003e-002,
          -3.3492889905184403e-001, 3.2329210192640873e-001,
          4.0653283785388676e-002, 3.5043704131525777e-001,
          -9.5266329944401262e-002, -2.7637597199469993e-001,
          -9.0138262963961758e-003, -6.0327084813810750e-001,
          1.9753951926707183e+000, 7.0023943365001548e-002,
          -1.6618612289959314e-001, 1.0808753076157142e-001,
          5.7820603226544240e-002, -1.6566865506028880e-001,
          -5.3680418536782577e-002, -8.3129402735344582e-001,
          -1.4933709295943709e-001, 1.5644051057363204e-001,
          4.2422086677606108e-001, 5.1525192857609359e-001,
          2.7515472519504125e-001, -2.6313842711012581e-001,
          4.6093265558210073e-001, 1.3239721056827096e-002,
          -1.5705030754130184e-001, 2.6453710810222197e-001,
          -2.1196747090657533e-001, -1.1182109624355183e-002,
          -6.3691762374328553e-002, 6.7491081814438858e-002,
          1.9893040382651170e-001, 1.9151977587058053e-001,
          -8.9476725934556814e-002, -1.2985250620984490e-001,
          1.0152702228673792e-001, 1.5389965022085419e-001,
          -5.5114253081218180e-002, 5.5384324245004157e-001,
          -1.7070546364842298e-002, -1.3464484293772465e-002,
          -8.0680856416547334e-002, 1.2463996954327122e-001,
          6.6200826002460869e-002, -5.6106136747078629e-003,
          2.5782271647479404e-001, -1.0331167990594932e-001,
          1.9829175914582192e-002, -4.5961208713993329e-001,
          -1.0154235764126059e-002, -8.3936223952384037e-001,
          1.9744678312861160e-003, 4.1309134833151823e-002,
          -7.2268506825060724e-002, -1.0695968714350209e-002,
          3.0189315178498217e-002, -3.1152016184925441e-001,
          -2.4707037667162710e-001, -2.4982773534734694e-003,
          -1.3182384210440271e-001, -1.8808092495451742e-001,
          2.2878197812885609e-001, 3.2564681779523258e-001,
          -1.4651279425722532e-002, 5.0537943647165705e-002,
          -6.2859174096558901e-001, -4.2284897355561679e-002,
          6.2238810744956165e-002, 5.2352474959316297e-001,
          -2.8823861400567530e-001, -4.6300907767303660e-002,
          -4.5927859877655652e-001, -2.1075242606495531e-001,
          -1.5356193929323372e+000, -1.6915472962835951e-001,
          1.2587132063692022e-001, 7.3707822723223211e-003,
          9.9318239408132516e-002, -2.3789726850441859e-001,
          -6.0624196222398796e-001, -2.4281111681521941e-001,
          -2.5218867093176746e-003, -5.6590069559794495e-002,
          -1.6456672738689751e-001, -1.4769363649189329e-001,
          2.9903832338568109e-001, 3.9097318573063429e-002,
          -1.4262198761170061e-001, -1.7999926675999250e-001,
          -2.4238146852408668e-001, 1.5700840012600825e-001,
          -3.9064634359142376e-002, -3.2345741174995973e-001,
          -4.3053787791859831e-002, -4.6113943870022089e-001,
          -4.8683878866351088e-002, -4.8365690597101252e-001,
          3.5848806792311971e-001, 1.3011513935868746e-001,
          1.6613939946609618e-002, 1.5089202068728622e-001,
          -2.1959677329061292e-001, -6.1504206840856668e-001,
          -2.4325765873411900e-001, -8.7059442652817377e-003,
          -1.8070838120662921e-001, -3.9588106578748122e-001,
          -2.9463626480174088e-002, -1.5569830654310508e+000,
          1.8029104845181615e-001, -1.4625085791305409e-001,
          -2.0717057794766647e+000, -1.8475773406586263e-001,
          2.4424654153954437e-001, -4.0331462035371253e-002,
          -3.2527681702864020e-001, -4.7304070513629108e-002,
          -4.5343143573609446e-001, -2.0495569419545945e-001,
          -1.5470415850209955e+000, 3.4940847589358337e-001,
          1.2222887134564844e-001, 9.3307903019357787e-003,
          9.6888823523778714e-002, -4.9756799281831082e-001,
          -2.4950070236495786e-001, -3.6356992508978098e-001,
          -1.0101800946399044e-002, 1.1322988609757280e-001,
          -1.6915787205414323e-001, -1.4460514557492679e-001,
          2.9488749770519435e-001, 1.7232236898321307e-001,
          -1.4014702284073086e-001, -3.6482676516110907e-001,
          -4.2340487880362987e-001, 1.9820460381256050e-001,
          2.4288873701323418e-001, -2.7000577941457243e-001,
          -2.2330477055251714e-002, -4.5895180733131169e-001,
          -2.1144252584964430e-002, -8.3115130528121961e-001,
          1.1904794650353780e+000, -1.5389878521741956e-001,
          6.0961327191890506e-002, 5.6625808226842567e-001,
          -2.7465165087924809e-001, -2.6258419959984897e-001,
          -3.5579723013129944e-001, 2.0885688992776183e-001,
          2.8712599653484185e-002, -1.8086216420252438e-001,
          7.2773702145389141e-002, 3.8143270320475868e-002,
          -1.3045140948462181e-002, -2.1547701602760874e-001,
          -6.9094847550045924e-001, 1.2446213503593538e-001,
          2.4572966019347045e-001, 3.5290799716814771e-003,
          -3.9663214101387873e-001, 1.0804692907529348e-001,
          -1.6927412424646204e-001, 3.9234131577752344e-002,
          -1.8749924159202888e-001, 7.7829563403615720e-001,
          -1.7416276055268615e-001, 1.3755613982569834e-001,
          1.4974323218012439e-001, 2.2307935880071011e-001,
          2.3609264128458632e-001, 2.2572718728770057e-002,
          1.1341625959108868e-001, 5.3387598346061896e-002,
          1.3949217359581534e-001, 1.6950433001327661e-001,
          -2.1847586352210141e-001, -9.9303649362915743e-003,
          -1.5559706800055476e-001, -7.2069458897627585e-003,
          1.6406389958583140e-001, 3.5812558535178823e-001,
          1.2484556068025772e-002, 3.4577776849397507e-001,
          -1.7081222311799935e-001, 9.2657639237409814e-002,
          4.1377122226950717e-002, -1.6941311020844879e-001,
          1.4478744599974425e-001, -1.7716951250219370e-001,
          1.3747787861290947e-001, 5.0176549031220474e-001,
          2.2250242919389018e-001, 2.3192162565201313e-001,
          -1.9378278722596287e-001, -1.5258135724226632e-001,
          -1.1171394725328827e-001, 1.4182279502541056e-001,
          -5.0709410764266639e-002, -5.4573530311082263e-001,
          -1.1599060365664817e-002, -1.5871000033738983e-001,
          8.8658326163689294e-002, 2.6605426897413298e-001,
          6.6390964382291737e-002, 1.5532521864460701e-002,
          1.7355816930568813e+000, -3.5677769711989088e-001,
          3.1453802462866087e-001, 5.8268774301327109e-001,
          -6.0096417536499547e-001, -2.1510162089850671e-002,
          -5.3705540100659099e-001, -5.0416560679054602e-003,
          1.9127697674370453e-001, 1.9431044217259538e-001,
          2.4143550843185055e-001, -1.0294156513966102e-001,
          6.7591794134833254e-003, 7.1049684860472985e-003,
          -9.0339717490122901e-002, -2.4831952473176008e-001,
          -7.0074258559447000e-001, -4.1269328686403361e-001,
          8.8305131976848236e-002, -1.2781302918968312e-001,
          3.7633618918745185e-002, -1.1772108045890081e-001,
          -3.9691954240140985e-002, 3.6701134336390900e-001,
          -8.4824227332981250e-001, 3.2239337933738188e-001,
          1.4960087879628087e-001, -7.3012500723265039e-001,
          -2.6830500997357346e-002, -1.1418623490272404e+000,
          1.0734474641788677e-001, -5.1003668238105815e-001,
          1.1540994759981672e-001, 2.2001599775520214e-002,
          5.2747213103505419e-001, 1.1746172757635225e+000,
          -2.1443231970331159e-002, -2.0903578323831370e-001,
          -6.2780187992440728e-001, -2.7502838061447116e-001,
          -8.6708887594672712e-001, 8.3138113422467644e-002,
          -1.6792919585567578e-001, 2.5043558768553638e-002,
          -1.1388858998477978e-001, -3.5715175936743920e-001,
          1.8391142634279331e-001, -9.4184616524813514e-001,
          -1.3515336584732723e-001, -1.1634421550048425e-001,
          -1.3134038484385098e+000, -8.6555127807340315e-002,
          -3.7915433172774293e-002, -3.2848453892480166e-002,
          -2.1597895252381291e-001, 1.6742842857373957e-001,
          -8.1038694404580405e-002, 5.2916664769088573e-001,
          5.1271608211619607e-002, 4.4451871356621597e-002,
          -3.2929575118504734e-001, -3.6993290040192822e-001,
          -1.9580673869805504e-001, -3.3583868061266003e-001,
          2.7882690029963469e-001, -2.2235258485927273e-001,
          2.3926960928537223e-002, -1.7897634079773053e-001,
          -2.9832202511003331e-001, -1.0031753556858074e-001,
          -1.9995496468459571e-002, 3.7691291573580155e-001,
          1.4251633006366837e-001, 6.9593303616161022e-003,
          -8.3117408186299327e-002, -9.5685584568023091e-002,
          4.8969217846444690e-001, -1.9031481934203376e-001,
          1.6745562150235482e-001, 1.8189358005677433e-002,
          2.0896632257266173e-001, 4.6622917208298253e-002,
          1.1091059732552146e-001, -4.4942444642975538e-001,
          -6.4126568365493808e-001, -1.3348230924850515e-001,
          1.1650435990670243e-002, 3.8710385942054404e-001,
          -8.3485198948873837e-002, 7.8492392594355018e-002,
          -1.1449654915203069e+000, -5.8327797999911793e-002,
          -4.2109686588762671e-002, -1.2499418210980733e-002,
          1.4709806588244725e-001, -1.8133465215639487e-002,
          4.8335155112320845e-002, -1.1460981080255789e-001,
          -6.6725372747482414e-002, 1.9279351262774566e-001,
          -1.9458370261184307e-001, 1.6377771273475156e-001,
          8.1435195897351328e-005, 2.4188923492471401e-001,
          4.3842851600596533e-002, 1.3719361741237632e-001,
          4.7007352577464835e-002, -1.0001361883084969e+000,
          -1.3464234369643793e-001, -3.5746744747656135e-002,
          7.4982543357538636e-002, 1.0063264477011233e-001,
          8.0696947487630691e-002, -5.7514753679187558e-001,
          -3.1664672973589841e-001, -5.8925996245565694e-002,
          -1.2371790837183089e-001, -1.7626357950497943e-002,
          3.5617258704193383e-002, 2.7508240089775267e-002,
          -1.5775454421701465e-001, -3.1494035466584397e-001,
          2.8962501008154790e-001, -1.7503121704794380e-001,
          5.4479606272565906e-001, -1.2652450442562585e-001,
          2.4553075708985253e-001, 6.8774864611034258e-003,
          1.0802474197120644e-001, 2.8852259845470374e-001,
          -2.1623872908151906e-001, -1.2498171265234242e-001,
          -5.7661307015495954e-002, 7.2896978594235273e-002,
          2.6714795783492346e-001, 2.7864925055010408e-002,
          -6.2169682410987102e-002, -2.7857861517161669e-001,
          9.0865502326384628e-002, -6.3634740856310945e-001,
          1.3650788226918964e-001, 2.0817601860610524e-001,
          1.4759559499911284e-001, -2.5131549005448706e-001,
          2.1943498619743603e-003, -1.0872050998810187e-001,
          -5.0184486262867867e-001, 7.2380499071668447e-001,
          2.4102771142249560e-001, 6.2509157480495361e-002,
          1.0315915455085782e-001, 9.4089855388846590e-003,
          -7.2988793195739449e-002, -2.3035909775492244e-002,
          -2.5539087826607672e+000, -3.8516537533762796e-001,
          8.5935316444862977e-002, 2.4967710946427651e-001,
          2.5703967804575611e-001, 2.7766103592311592e-001,
          -2.5454122637122184e-001, 4.0358007223199999e-001,
          -3.9579580471371295e-001, -7.3662406990075452e-002,
          6.5277636412915882e-002, -2.1809809555004697e-001,
          -1.4475340666364836e-002, -1.6203296262055720e-002,
          -2.1534468427917544e-001, 1.9987466676511267e-001,
          3.7331850919938325e-001, 3.2353905090665661e-003,
          -1.4590666487655940e-001, 1.0949447744759112e-001,
          -1.0387936141554045e-001, -9.9795349296840002e-002,
          6.0756236625463378e-001, -8.4512683464944172e-002,
          2.5985248358510540e-002, -8.4131033657537671e-002,
          6.1800937676770307e-001, -7.8307924524051928e-002,
          1.1524972369633592e-001, -4.2135743371744215e-002,
          2.0971017340916814e-001, -4.0735430197069863e-004,
          -1.4742220492060984e-001, -3.7912071808371584e-002,
          -3.7641796831465935e-001, -8.0790318370385666e-002,
          9.7081339887185453e-002, -5.6076880642641092e-001,
          6.0046739440607587e-002, 1.9427987859461929e-001,
          -9.0003530984314892e-002, -9.9008404052295038e-002,
          -1.5742999662870294e-001, -3.4612328958960409e-001,
          -2.1852786226007950e-001, 8.7808598453613745e-002,
          -1.1798231677193129e-001, -1.2892353073750447e-002,
          -1.7259856009627278e-001, -2.1956152224560785e-001,
          -6.5150400790638871e-002, -6.6882824256233632e-003,
          5.2360366146110093e-001, -5.1052932786540342e-002,
          -1.9527822749461088e-001, -4.1211257975331805e-001,
          -5.6155606947543048e-002, -5.6604840303134374e-001,
          5.5866341270154867e-003, -5.9528339919445858e-003,
          -5.5840077517718212e-001, -4.3122161314885936e-002,
          -8.5560546573093463e-002, -3.2445405369351277e-001,
          -1.4305998720939220e-001, -5.3997515657397811e-004,
          -4.0579397955291757e-001, -1.1348529041444477e-001,
          4.5880222806874434e-002, 1.6688197287212783e-001,
          -1.7511288479749693e-001, -2.8322319608000756e-002,
          -4.0433935252113479e-001, -1.7524197840401692e-001,
          8.9661219763136818e-002, 3.8994075845844650e-001,
          -2.8341944623330168e-001, -4.3954427411673158e-002,
          -1.3080025755111963e-001, -5.3489380632455882e-002,
          -5.4294946292859669e-001, 2.1585221783147854e-001,
          -4.0784995111373568e-002, -3.3012835003233004e-001,
          2.4730150439231022e-002, -2.8273249074624029e-001,
          -5.2605118865740208e-001, -1.5962185531593504e-001,
          1.3934268583259664e-004, -3.4383169319039825e-001,
          1.9890717432836436e-001, 8.2300145032605694e-003,
          3.3990442656376567e-002, -1.2162979579193545e-002,
          -7.9351458717077841e-002, -3.0610329945138157e+000,
          1.2724674020190022e-001, -8.8942652596780483e-003,
          3.7433106673592836e-001, -7.1524567557931504e-002,
          -1.9895019563071083e-002, -1.3113621981796975e-001,
          -5.6026428028660626e-002, -3.1153221920228302e-001,
          4.4946286098949700e-001, -8.7953466358781707e-002,
          -1.2715785685913825e-001, 2.4831791711898313e-002,
          -1.0892615154425399e-001, -5.0335238851408881e-001,
          -3.7523873455845969e-001, 2.0288341612363797e-001,
          -8.9673493100999160e-002, -1.0898583435412544e-001,
          6.3726262155520311e-002, -7.2631616789548797e-002,
          -2.0318371629866539e-002, -9.6857631354321641e-002,
          -3.0567597323258000e+000, -3.4306009091756080e-002,
          -8.8120455213809082e-003, 3.7436042881610648e-001,
          -5.1146357814763115e-002, 1.1553292473112850e-001,
          -1.2802614728824985e-001, 1.7523069714588008e-001,
          -2.0607054156241553e-001, 1.0318141370367722e+000,
          -1.2285102316373804e-001, -3.2335199640184104e-001,
          2.8473632152842519e-002, -7.8005501334111646e-002,
          -9.0349066073517323e-002, -5.5038466986910062e-001,
          2.9108037621107308e-001, 5.8140646133968438e-002,
          -3.1640434736910727e-001, 5.0363767635687073e-001,
          -7.1621251063080760e-002, 1.6995178324835963e-001,
          -3.8006499906958757e-001, -2.1764770834343142e-001,
          6.7327990053149087e-002, 1.5698791622175945e-001,
          1.0922598982849347e-002, 1.0381204724593478e-001,
          1.0201910330041480e-001, 1.1323272763998851e-001,
          6.1875404854233644e-002, 1.2204764566625785e+000,
          3.0813701558437878e-001, -4.5091108703133248e-001,
          1.2101702006064510e-001, 5.1136216479486729e-001,
          2.2884095984478647e-001, 2.3874554617552560e-001,
          -1.9118301260974849e-001, 1.1160752615639778e-001,
          5.1259564319994691e-002, 1.0707258485862625e-001,
          1.8412194475291366e-001, 1.1144829232569048e-001,
          -1.6971221089524955e-002, -1.7536741754513263e-001,
          -1.1452342814574006e-001, 1.8274690685765058e-001,
          3.5471030331471159e-001, 7.9985630179286865e-003,
          2.9660037658995514e-001, -1.6896203402414342e-001,
          2.2393050127683559e-001, 5.8995072196736165e-001,
          4.2810901658883649e-001, 7.9892211107884623e-002,
          -8.6546020722178696e-001, 1.0081310940626875e-001,
          2.5251998430623024e-001, 2.3826677418667352e-002,
          2.2608414898583340e-001, 4.7345176494959243e-002,
          1.1774324286346304e-001, -1.0717995917820157e-001,
          1.1788179472405833e-001, -7.4565194980580465e-002,
          -2.2335409320735883e-001, 3.0250226950455785e-002,
          1.0202047498710345e-001, 7.5488111261571109e-002,
          -6.1730168721810641e-002, 7.5549190648722134e-002,
          -2.2182845614555125e-002, 6.9921263555900615e-001,
          -1.0458694094990606e+000, 3.1524048221492351e-001,
          3.8366061599730350e-001, -4.1701049244070132e-001,
          -1.3332981146934037e-002, -6.1532117120832530e-001,
          -4.8102978196660718e-003, -1.8041747237396505e-001,
          1.0863449009258772e-001, 2.4350566958505479e-001,
          -4.4264264622211391e-002, -2.0447497491504704e-001,
          1.4834511064476083e-001, -1.2031784494908905e-001,
          8.8005916874843118e-002, -2.7010911788904529e-001,
          -4.8472464906337087e-001, 1.7368225073066354e-001,
          1.3948562301340262e-001, -3.0648661179959843e-002,
          -7.8931248370391963e-002, -5.7166783502044599e-002,
          1.5113253622202702e-001, -8.7680684661164821e-001,
          3.2159153921492550e-001, 1.5035540502492828e-001,
          -4.2101654777965514e-001, -9.3117163541337842e-003,
          -8.6424961493274322e-001, 1.0297889582044237e-001,
          -1.8041244829370889e-001, 1.1369631600375994e-001,
          2.4339329579238964e-001, -3.4214233578587716e-002,
          -2.0204349939482383e-001, 1.5467385837687367e-001,
          -4.0120826298870471e-001, -7.2520192194111821e-002,
          -2.7851236973438181e-001, -4.8443880820435969e-001,
          5.1060759851046877e-001, 6.6724973872650792e-002,
          -3.2505164820505340e-002, -1.8742161307651968e-004,
          -3.5634625291245631e-001, 1.8983533085445423e-001,
          -8.5034548235885565e-001, 3.1848135043430797e-001,
          1.4643656759594381e-001, -6.4048443462572946e-001,
          -3.0093560579892171e-002, -1.1630800243867419e+000,
          1.0901564035817124e-001, -4.9971999925931675e-002,
          1.1064503693835631e-001, 1.9691357057248764e-002,
          5.3334790387402420e-001, 1.1892475635410314e-001,
          -2.0157881143853935e-002, -3.3520650892000620e-001,
          -3.7408235829436237e-001, -2.7407381850698648e-001,
          -1.7542805016639779e-001, 2.7833791139333519e-001,
          -4.0923407099559400e-001, -2.1445230072220912e-002,
          -1.0913956182125104e-001, -2.0172210613133842e-001,
          -1.0817823970057580e-001, -2.0116545940909503e-002,
          1.4743359544024007e-001, -1.8329655358220086e-002,
          4.5200650338564845e-002, -4.1176548948327824e-001,
          -2.7749850496486339e-001, 1.9298662887226012e-001,
          -2.0008865393311961e-001, 1.6452413869291513e-001,
          6.2671493851651688e-002, 1.5366641357453986e-001,
          -2.9404692408729373e-004, 1.0153257206073142e-001,
          1.9626608864352232e-002, -9.4305873209864510e-001,
          -1.3397609777783662e-001, 1.6230288342614269e-002,
          1.1351096289871553e-001, -1.0644535410850815e-001,
          -5.2299668746269144e-002, -4.1960936440295532e-001,
          -3.1769098208453533e-001, -6.1594696563494949e-002,
          -3.8699366760055996e-002, 1.5024525483842691e-001,
          -1.4463955560498504e-002, 3.9658383305468579e-002,
          -4.0926242938494745e-001, -1.2318452018569313e-001,
          2.0400341331841290e-001, -1.9104609343523293e-001,
          -1.0001356482229724e-001, 2.5626722962910006e-003,
          5.0195947826497267e-001, -4.9923924095428160e-002,
          1.1155410839115414e-001, 8.0318232346081233e-003,
          -3.9329916209173826e-001, -1.3125502394906111e-001,
          1.9176195230366639e-002, 7.7467856252027997e-002,
          1.7547843662740073e-001, 8.0938741955931912e-002,
          -2.2142518293268593e-001, -3.2102433441497863e-001,
          -5.2529857661010558e-002, -1.1909990389423228e-001,
          -1.7835822437787755e-002, -9.0541717493274575e-003,
          1.0687556513921248e-001, -1.5728556640037097e-001,
          -3.0974230785637585e-001, 5.6490267599860111e-001,
          -1.7167215736298416e-001, 5.4749486895042532e-001,
          -2.8766709000377216e-001, 6.2958875165308348e-001,
          1.0396697590553686e-002, 1.0256118945337962e-001,
          1.7577071264323377e-001, -1.4566509862417332e-002,
          -1.2393615959518421e-001, -6.1071752450418203e-002,
          1.6405867966599938e-001, 4.3230186661956699e-001,
          3.2712156420779542e-002, -1.5671583698583810e-001,
          -2.8774071637991233e-001, 1.2288648795015993e-001,
          -5.7234051564305544e-001, -7.3231501393080614e-002,
          1.9968002836326076e-001, 3.2150039974369626e-001,
          -1.6077926759356173e-001, 2.3550274710159056e-002,
          -8.7134275727219448e-002, -9.8858584937909677e-001,
          2.4895278430410514e-001, 6.6000006670571279e-002,
          3.8776402423990697e-001, -2.1149105549298050e-001,
          3.8088714192560247e-001, -2.9836388214473999e-002,
          7.5028512126054059e-001, -7.5550228112755602e-001,
          -1.1285654064231254e-001, 1.8071858811928185e-001,
          1.6256410958460705e+000, -3.8357930538145713e-001,
          1.2997027912637951e-001, -1.6015673200633038e-001,
          3.6810330527085816e-001, -4.4025898973117794e-001,
          -2.0738561476255801e-001, 4.0563581964134571e-001,
          -1.0836598418976165e-001, -2.5178347450642702e-001,
          4.0179633379956239e-002, -5.7733785069409105e-001,
          -5.0786733188364563e-001, 2.8099355007992860e-001,
          -8.3800769474580247e-002, -9.6794978808548343e-002,
          1.0254241634443999e-001, -3.3782347400341056e-001,
          6.1495143303222081e-002, 3.0958409906522322e-001,
          -6.1915395459714206e-001, -1.7215360405188340e-003,
          8.1064696905547615e-002, -4.0458299380277049e-003,
          -5.6602243612200079e-002, 6.3184748195113785e-002,
          -3.4869901466548232e-002, 5.1883132816675115e-001,
          2.1324602307358199e-002, -1.4592134236104617e-001,
          1.4683828712429733e-002, -1.0717941692786007e-001,
          -2.1356172397732385e-002, -7.9344751393707669e-002,
          -5.5902406893786982e-001, -4.9959273442732509e-002,
          -6.4885341193146831e-002, -8.8954088330279651e-002,
          -7.6803051289678737e-002, -6.6532115152574645e-001,
          -3.3838636072242684e-001, -1.8329600425327944e-002,
          1.6707523272881915e-003, -1.8902337909525113e-001,
          -1.5270419780914217e-002, -1.7545735785951483e-001,
          -1.1764211681320882e-001, -5.6645611625671985e-002,
          -5.8053702498968053e-003, -3.6341318873984250e-002,
          5.3524911863331318e-002, 1.1099634509035859e-001,
          -1.3977573307297811e-001, 1.3518600875156380e-002,
          -3.1142469303722203e-002, 2.1986856944281888e-001,
          2.9033504835308626e-002, -3.9491195158620190e-001,
          2.4839030443716829e-002, -6.9875048923615193e-002,
          -5.1986567626981806e-001, -1.2742446343042028e-003,
          2.0804944869165781e-001, -3.3818725890268603e-001,
          -1.0533455344015069e-001, -8.0184625913593040e-003,
          -2.2765935972438361e-001, -1.7736930060614376e-002,
          -3.1215486852367491e-001, -1.4692336822103795e+000,
          -3.7608110601709523e-002, -5.5250798631187002e-003,
          9.4535904242738011e-001, 3.1616329748420990e-002,
          -1.5010680112599871e-002, -1.4251410088210872e-001,
          -2.7002872365154440e-001, -4.2125418085356574e-002,
          3.4905246481579305e-002, -1.0850706692360297e-001,
          -4.0079571818863885e-001, 3.1566059375657055e-002,
          -6.6839008112268325e-002, -5.8117612264497243e-001,
          -3.2141992502171673e-001, 1.5368702066008538e-001,
          -9.6089607185842515e-002, -2.2053878960161460e-001,
          7.1326017774134814e-003, -3.7808311299425340e-001,
          -1.1736260841450907e-002, -1.1281563646590544e-001,
          -3.0488679830499197e+000, -4.0026871004026532e-001,
          -1.2010921773920526e-003, 7.6759694938741005e-002,
          -5.0669831732605974e-003, -2.9635140932404387e-002,
          -1.4002788662026441e-001, -2.7688212045610971e-001,
          -3.6000158817428428e-002, 5.0995157879987241e-001,
          3.7078795765273766e-002, -3.0955682117518696e-001,
          2.9380997901889919e-002, -7.6700802491215650e-002,
          -2.4898868127697596e-001, -3.7234891243192220e-001,
          3.0339275422655265e-001, -8.9042828052821307e-002,
          -1.5630988513239841e-001, 1.3616324141149402e-001,
          -2.3839507426135606e-001, -1.4021791510369530e-002,
          -3.7152549003427615e-001, -1.2576769664506098e+000,
          5.4299569230736366e-001, 4.7417368013469748e-002,
          -3.4352267847040895e-002, 3.3655429718636352e-002,
          -1.3302240453205990e-002, -1.4415980056951341e-001,
          1.5153738646114214e-002, 9.6018082912573882e-002,
          5.9528519532261515e-001, -2.2395778340900763e-001,
          -1.4680960362961740e-001, 5.1111140576185232e-001,
          -7.5330209011745627e-002, -6.3611434240802928e-002,
          -1.3471784882671781e-001, 3.0428150023728295e-001,
          -8.8663853626979025e-002, -6.4677710928312086e-003,
          1.8622070736930718e-001, -1.8112055132567206e-001,
          -2.1330022142437347e-002, -3.7200655747775624e-001,
          -1.1863786042439231e-001, 1.9529006663923892e-001,
          4.0237551385045138e-002, 1.7254087920903619e-002,
          3.7581156375025720e-001, -1.5429906070714108e-001,
          2.3086751184076663e-002, 5.3714650810412634e-001,
          6.3449180881580736e-001, 4.4172704969182863e-001,
          -2.2363772068511156e-001, 3.9913345724984090e-001,
          5.0253565719826321e-001, -2.8494505430053130e-001,
          2.2183688205258698e-001, 2.7591247601006137e-002,
          1.0726613218734064e-001, 5.4868838074391538e-002,
          -1.4292519417114180e-002, 1.9635569947320045e-001,
          -1.6163232486781676e-001, -1.1270731314084336e-002,
          -1.7824646781131201e-001, -1.1190509897382107e-001,
          1.0615285137818452e-001, 5.0001865664276402e-003,
          1.5550611447116124e-002, 2.8469154622587256e-001,
          -3.8690557845983437e-001, 8.5681756074384122e-002,
          5.8617078171331261e-001, 2.1374724817826327e-001,
          5.9253946681958975e-003, -6.4861414736202339e-001,
          4.4445531943820088e-002, -9.6073111359537736e-002,
          3.6017264617743260e-002, 4.4279168988741729e-001,
          2.1301138771202644e-002, -4.6633832420711875e-002,
          1.4837658144158875e-001, 1.0066834655465738e-001,
          6.4987286301728109e-001, -3.1361381324397183e-002,
          -1.1880237183814523e-002, 1.5326406477720042e-001,
          1.9184251086171852e-001, 9.4649491997563021e-002,
          -1.5391130229650529e-001, 2.4989744809372071e-002,
          4.0502209091309582e-001, -1.0369659348794469e+000,
          1.3293475276999833e-001, 4.3655621831183899e-001,
          -3.8521542645066759e-004, -8.2753396920386441e-002,
          -2.6402049741696509e-001, -1.1544505181975516e-002,
          -9.5702692936323844e-002, 1.1240439779150932e-001,
          4.5183822563387638e-001, -6.9083607656571400e-002,
          -2.0967237563474961e-001, 1.5604219205110134e-001,
          -1.1458170306811284e-001, 3.3272565930578424e-002,
          1.0126746516837230e-001, -3.8727976940797243e-001,
          1.5478068463023317e-001, 1.8477245630189715e-001,
          9.4089100727621482e-003, -4.8979229295317955e-001,
          2.5345198811361980e-002, 1.6292660944007070e-001,
          -9.6055793366542874e-001, 1.2773863869135973e-001,
          1.4855470453672925e-001, -1.0382453972339303e-001,
          -2.0324869230323405e-002, -4.8310482263605276e-001,
          1.0645140018395033e-001, -1.7030824918007187e-001,
          1.0447453011892129e-001, 4.5396494761797163e-001,
          -6.5865432486801295e-002, -2.9275150103169351e-001,
          1.4781584768729369e-001, -4.0091297654154440e-001,
          -6.2871615413349388e-002, 1.0211190788757528e-001,
          -4.0903099284894223e-001, 1.2244592515535253e+000,
          3.7805071900179975e-002, -3.2772896751472191e-001,
          -4.6201739277876636e-001, -2.0954700908511928e-001,
          4.0403750187363814e-002, -3.9935073816438987e-001,
          4.5103154544507018e-001, 1.4828719269048429e-001,
          -2.3904949638831698e-002, -2.2376399134620342e-001,
          -2.4810674967912999e-001, 6.4196845031410057e-002,
          -3.5797419813540687e-001, 1.0577324157009986e-001,
          6.1014339229983861e-001, 5.2506668107129739e-001,
          -2.0869634961120417e-001, 1.3304237398848737e-002,
          -1.9130907098715122e-001, -1.0527270188081096e-001,
          7.0865564907483428e-002, -4.0203963009856131e-001,
          1.7376295282733392e-001, 6.8133699664086597e-002,
          5.4898312831308986e-003, -3.0650315927454158e-001,
          -1.9665259428335899e-001, 2.4618627475869615e-002,
          -3.9219139241003266e-002, 1.4803579836098385e-001,
          -1.8531567878698495e-002, 1.0588696262218780e-001,
          2.4941373015870582e-002, -5.0495324092045837e-002,
          6.1687563330691320e-001, -1.8976938880802052e-001,
          -8.9588471774541559e-002, 3.9108811753294909e-001,
          4.9874267026574243e-001, -4.0569689032506441e-002,
          3.4289525751333122e-001, -9.5556450434867546e-002,
          -1.8621458695365084e-001, -1.3509287015974106e-001,
          1.4583225343431693e-002, 2.0724047513673791e-001,
          2.1856984521785330e-001, 6.6075237067593426e-002,
          -4.1848758403405467e-001, -3.1481978916143610e-001,
          -6.9319007549619213e-002, -3.8334688048391539e-002,
          1.3880330992761217e-001, -8.8790676959022118e-003,
          4.7829547354967215e-002, -4.0481492406715530e-001,
          -1.1556160770838741e-001, 1.9635029932749595e-001,
          -1.9935130920048005e-001, -9.4206706760068384e-002,
          1.1286229545024613e-001, 5.2614324891892372e-001,
          -4.9692675422173413e-002, 1.0345124115757982e-001,
          1.0520875551546247e-001, -3.6324664941418489e-001,
          -1.3621003020116726e-001, 1.7243313268268935e-002,
          1.1200232592001619e-001, 9.8718837347644889e-002,
          7.8020333153443949e-002, -5.8230309665231827e-001,
          -3.2338137079466295e-001, -6.8200909207113150e-002,
          -9.3522851054676504e-002, -4.0363334835460829e-001,
          -8.5458849745586839e-003, 1.7721914016392365e-002,
          9.1281692531777672e-003, -3.6565086854419115e-001,
          2.0029404730962766e-001, -1.6886152729023771e-001,
          6.7412257724339800e-002, -2.8323320134813879e-001,
          1.1021576272258826e+000, -5.1247169374278118e-002,
          1.1151746779610357e-001, 2.5845015645301278e-001,
          -3.8897596301018095e-001, -2.6721000761859193e-001,
          -6.2406516397068144e-002, 2.0492657890859092e-002,
          1.8256662865562548e-001, -5.4348830293914047e-002,
          -1.5984646880881997e-001, -1.2375349006655853e-001,
          -5.8969305477418132e-002, -1.1602219384682604e+000,
          -1.9027991872021935e-001, 1.3924647852645944e-001,
          1.0362450901673433e-001, -1.8569752764291397e-001,
          -1.4466684034707639e-001, -8.1369847687640176e-002,
          -9.9366008976662323e-001, -8.1421393353614160e-002,
          7.6781362815909859e-002, 1.5687388484211109e-001,
          9.2096539553408515e-003, 3.6164621415396551e-002,
          1.6325156986915512e-001, 3.2376466197786791e-001,
          -8.1443855893974615e-001, -3.0979192878406897e-001,
          8.4321510349902748e-002, 1.1347754655770219e-001,
          -3.0090793411187433e-001, -1.7868636908875271e-001,
          -2.0791149013939589e-001, 3.6823926502210069e-001,
          -4.3928207250425699e-001, -2.0909291687629733e-001,
          4.0292655675451289e-001, -1.0729248121068738e-001,
          -1.7874205310980179e-001, 1.1346678473549335e-001,
          -5.6977611199595868e-001, -5.0525980271304483e-001,
          2.8549019874974318e-001, -8.2042005462846845e-002,
          -6.6980761178895870e-002, -5.3730702927043905e-002,
          -3.4395857832429894e-001, 2.5202787236317248e-002,
          3.1036161693664782e-001, -6.2044485307773467e-001,
          -3.8037511637615667e-001, 8.6632211953660845e-002,
          -3.6063690378889592e-003, -2.5573714383350304e-001,
          4.9366423147063493e-003, 2.6882051596582988e-002,
          6.0672204437471400e-001, 2.9034665431242772e-002,
          -1.4980548112752182e-001, 1.4572017550618288e-002,
          9.7637669274831085e-002, -2.0631104474967344e-002,
          1.1998383581272179e-001, -2.2132798032153803e-001,
          -4.5408051512281188e-002, 2.5648823344137711e-001,
          -9.9139043919589553e-002, 4.8288748950555827e-001,
          -5.2836470942379657e-002, -3.4178469376472681e-001,
          -2.4378551794276854e-002, 1.3318621507476799e-001,
          -6.1310260181199272e-001, -1.7136766381185848e-002,
          -1.7879864713097454e-001, -8.4792564525042659e-003,
          -2.5504400770400409e-001, 2.7837116425284388e-003,
          -4.0011257220036171e-002, 8.8898025725597518e-002,
          1.1051957651685072e-001, -1.4274053991224175e-001,
          1.5762908355511501e-002, 9.1972319834346256e-002,
          2.4382679000150953e-002, 7.7396213694393631e-002,
          -3.9133737585784206e-001, 2.2018652493745566e-001,
          2.2318923678880670e-001, -3.7027374586427581e-001,
          1.4075103208042658e-001, 2.9675993013012852e-001,
          -9.8015741088728917e-002, -2.7204746662805621e-002,
          1.2804340025094937e-001, -3.1017746066893698e-001,
          -1.9071306515264942e-002, -4.0060402253354976e-001,
          -3.1331224409562947e-001, -2.3607191925206675e-002,
          4.3416752822597111e-002, 9.5689847089574231e-003,
          -1.3691762014787709e-002, 1.2093175288740614e-001,
          -1.4479337032198025e-001, 1.4345656707930749e-002,
          3.1856337886801180e-002, 4.8950132619171555e-002,
          -3.4391651331488160e-001, -3.9446986223850583e-001,
          2.3043924107456152e-002, 2.2571672609470178e-001,
          -5.9725797677936365e-001, -3.6920328075528586e-001,
          2.7978649869745553e-001, -9.6249578083830986e-002,
          -3.6645110294678596e-001, 1.3190661139831514e-001,
          -2.4532466363797770e-001, 1.7959945096721014e-001,
          -3.7132982587083230e-001, -7.0824415540642871e-001,
          1.1244438164510956e-001, -6.3596069807507448e-003,
          1.5605981476039681e-002, 2.4915107549553572e-002,
          1.1434163477985497e-001, -1.4564254972867638e-001,
          1.3163138976525598e-002, 9.0814389146832125e-002,
          2.9736617983699420e-002, 6.5448506410111740e-002,
          -3.9586428943471491e-001, 3.1520602987748614e-002,
          2.2579936344668544e-001, -1.6351412484251718e-001,
          -2.3600756690089544e-001, 3.0602536604147512e-001,
          -9.7460376392000322e-002, -1.9946168263304406e-002,
          1.3191412137925138e-001, 9.2859959607371721e-003,
          1.7744408544514279e-001, -3.7922676747003536e-001,
          -7.0647622005062760e-001, 2.2779184661721033e-001,
          4.8433381373332439e-002, 1.3198438503577589e-002,
          4.1951109903458417e-001, 7.5692973446460879e-002,
          1.1481395648746331e-001, 4.6548685055707036e-002,
          1.0156788599135019e-001, 5.9105225533742567e-001,
          -3.7887529862625891e-002, -1.3702626136362403e-001,
          2.2811475397618852e-001, 5.5904483182776021e-001,
          -1.5532725704851569e-001, -2.1984493691444489e-002,
          1.1439149299444039e-001, -9.6987762533426961e-002,
          -2.8907779592192206e-002, 1.3283296010030590e-001,
          -1.8628316594904584e-001, -1.0944838469101303e-002,
          -3.7931773304207750e-001, -4.2559796186485527e-001,
          1.0857288607815123e-001, 4.2420522512062804e-002,
          1.4632857707246661e-002, 4.2020464210933289e-001,
          -2.6191541929144480e-001, 8.5754747273701123e-002,
          5.0751578314732715e-001, 9.8300221012319028e-002,
          4.6126291634401900e-001, -3.1451424180845129e-002,
          -1.5959963581083833e-001, 2.5226640723074711e-001,
          3.0256322063891530e-002, 1.0130262463509145e-001,
          7.8206426361927553e-002, -5.1754907781262807e-002,
          -3.4280312194880541e-001, 1.5182018826858310e-002,
          3.1006088318424990e-001, 1.1426951904532784e-001,
          -1.2728410821757992e-002, -3.7835981780444206e-001,
          -1.6589037902095727e-003, 1.0933605171693001e-001,
          3.9862089703707150e-003, -2.1432632116427836e-002,
          3.5009187969103284e-001, -4.2179473081249369e-001,
          1.2777940154585229e-001, 7.4721709052752661e-001,
          2.1719063697307403e-001, 1.3043453490425758e-001,
          -3.2932928624411772e-001, -1.3250074582588300e-001,
          -9.6560531806576158e-002, 4.3505094959563985e-002,
          4.4516376762531817e-001, -3.3067106626083920e-002,
          -4.2568499373548549e-002, 1.4767498770657597e-001,
          -1.0776450170936391e-001, 6.6733073638170426e-001,
          8.6087270235085639e-002, -3.8031726160851775e-001,
          1.6306730638027397e-001, 2.9059943873483279e-001,
          1.0592389108266763e-002, -1.5824076119158204e-001,
          3.0035989326673479e-002, 2.0466059340081744e-001,
          -4.1254114819231141e-001, 4.4659557156954388e-001,
          2.2087999499739314e-001, 1.1464265554905693e-001,
          -8.3095067299898184e-002, -1.5893292805871659e-001,
          -2.3809972671524571e-001, -2.5339936828374304e-001,
          1.0720063579107482e-001, 4.4735909263696810e-001,
          -3.4220194457582044e-002, -2.0667686822758050e-001,
          1.4783567682088275e-001, -4.0079979993902010e-001,
          9.4331995091780215e-004, 1.2389663626758569e-001,
          -4.1023534607684947e-001, 3.7223638317348218e-001,
          1.4155806737523896e-001, 7.9363046108373372e-002,
          -2.8937167901663785e-001, -4.1433364254925872e-002,
          -1.1195385154044852e-002, -4.1233607886652185e-001,
          4.4769722023328140e-001, -3.0987011746695082e-003,
          7.7638919263377917e-002, -3.7412614671146321e-001,
          -4.8922055456433938e-001, -6.1483739276256028e-002,
          -2.5069540140011565e-001, 1.0546060348590806e-001,
          4.7582715534290676e-001, -3.1695936125384752e-002,
          -1.1518112606304860e-001, 1.5653845802728014e-001,
          -4.0159392146252620e-001, -1.3251599560660407e-001,
          1.2957940290602030e-001, -4.1085605121705543e-001,
          9.7754094432347405e-001, 4.3339529236550482e-002,
          7.4032165754961479e-002, -6.3625333288031283e-001,
          5.8747444624207210e-002, 7.0421116734167705e-003,
          -4.0693006698850515e-001, 4.5027455290335144e-001,
          -1.2093406528478425e-002, -9.2379618537324737e-002,
          1.9733581144351347e-002, -1.5617212838254219e-001,
          4.7964134772779395e-002, -3.6136041828982268e-001,
          1.0996330473722843e-001, 1.8756852432240099e+000,
          -5.2803287732360350e-002, -1.1451972746834120e-001,
          1.5559025693017445e-001, -2.9258516094828763e-001,
          -1.2223896152460852e-001, 1.2654806633349031e-001,
          -4.0320401749131457e-001, 3.1624823361919197e-001,
          -3.1789705572194168e-002, 6.8977217936146668e-002,
          -4.7401467178187340e-001, -1.6784370577277385e-002,
          1.4100035730251471e-002, -3.9177717125133245e-002,
          -1.1017477118141480e-001, -1.7431621131765405e-002,
          2.5029450471526327e-002, 1.7147649592353129e-002,
          -7.0940595564549691e-001, 2.1562694138629598e-001,
          -8.1463655904548335e-002, -9.3310213571458869e-002,
          9.5939087152785318e-002, 6.1458864365526256e-001,
          -5.6511482433801261e-002, 3.4688848242733189e-001,
          1.5129877687742654e-001, -1.2969546821058345e-001,
          -2.2556057978015334e-001, 1.0056426728308648e-002,
          2.1951613989189539e-001, 1.4796397125516592e-001,
          -5.6896484705921707e-002, -4.4853091614181456e-001,
          -1.2426259770377110e-001, -9.1724189067818374e-002,
          -2.0277438583959887e-003, 1.4389921908222189e-001,
          -1.7331942250467545e-002, 4.7259753121563976e-002,
          -3.0468436902575274e-001, -2.0917958273047504e-001,
          2.0327188270123078e-001, -7.8038320653288126e-002,
          -9.5289861374053833e-002, 1.1106260069904149e-001,
          5.2293764856214675e-001, 4.8510180923484178e-002,
          3.4538261857422065e-001, -9.5944985399221250e-002,
          -1.7474081336288094e-001, 6.6200367527833509e-002,
          1.4194011649803913e-002, 2.0882823447362728e-001,
          1.3625112275209572e-001, 7.7835606407601038e-002,
          -5.8399385262690917e-001, -3.1749847840180162e-001,
          -7.4218251462616278e-002, -2.6906081836480328e-002,
          -4.0839393926707779e-001, -1.1221975465151659e-002,
          1.4460024715761282e-002, -1.8039649348296596e-001,
          -6.8215621091484513e-001, 1.9443966890661654e-001,
          -1.9732514895435593e-001, -3.1851874234893170e-002,
          -2.9176335445536677e-001, 1.0554133094931415e+000,
          -5.7065669586368800e-002, 1.1258465092094745e-001,
          6.0538074175997041e-002, -5.0753080581059662e-001,
          -3.9719890801001623e-001, 1.5338530985329226e-002,
          1.0008869539245807e-001, 2.2142244959690663e-001,
          -8.7098399279387798e-002, -4.0933728262983665e-001,
          -1.3036402646152598e-001, -8.4759981238628629e-002,
          -9.1331679121283682e-001, -1.7741317629616615e-001,
          2.3793219938686277e-001, -1.3305436147300237e-002,
          -1.8642157139706073e-001, -6.1071513389883192e-001,
          -6.0518593106445980e-002, -9.9031449225410373e-001,
          -7.7994997688454318e-002, 6.7019280300691847e-002,
          1.5904174316847425e-001, 9.1481119342798813e-003,
          -5.1044561794226884e-001, -2.1723170000438160e-002,
          3.6006026229011295e-001, -3.1728000081525054e-001,
          -3.0608909204069229e-001, 2.7086025980018974e-001,
          1.1836954813980281e-001, -4.1890754756752707e-001,
          -1.1787889970679857e-002, -3.6622728220096529e-001,
          -6.6961654705483181e-002, -3.5842589575388262e-001,
          -1.5413311621164263e-001, 3.8770841545196766e-001,
          7.4749141566524055e-002, -2.2971569683710766e-002,
          2.0818147067889597e-001, -6.6123021781997138e-001,
          -5.0092434684341658e-001, 2.8676197428346795e-001,
          -9.4488827604598341e-002, -3.9482498126105693e-002,
          -5.2841260663420708e-002, -3.3884145644553837e-001,
          2.4348182772949617e-002, 3.3435528645336310e-001,
          -1.7280084256422298e-001, -3.7951616312929742e-001,
