%YAML:1.0
mlp: !!opencv-ml-ann-mlp
   layer_sizes: !!opencv-matrix
      rows: 1
      cols: 3
      dt: i
      data: [ 330, 14, 10 ]
   activation_function: SIGMOID_SYM
   f_param1: 6.6666666666666663e-001
   f_param2: 1.7159000000000000e+000
   min_val: -9.4999999999999996e-001
   max_val: 9.4999999999999996e-001
   min_val1: -9.7999999999999998e-001
   max_val1: 9.7999999999999998e-001
   training_params:
      train_method: RPROP
      dw0: 1.0000000000000001e-001
      dw_plus: 1.2000000000000000e+000
      dw_minus: 5.0000000000000000e-001
      dw_min: 1.1920928955078125e-007
      dw_max: 50.
      term_criteria: { epsilon:9.9999997764825821e-003, iterations:1000 }
   input_scale: [ 1.4592321716377466e-002, -3.1008683647302115e+000,
       1.4017526978893868e-002, -2.6927669326455117e+000,
       1.5157362093823845e-002, -2.5979718628814070e+000,
       1.5188169985127124e-002, -2.5819888974716112e+000,
       1.5427837358048426e-002, -2.3728013856678483e+000,
       1.5149967541039941e-002, -1.9104109069251365e+000,
       2.2722519804672145e-002, -2.5744614938693537e+000,
       3.6672624414706888e-002, -3.5865826677583335e+000,
       4.6948356807511714e-002, -4.3239436619718283e+000,
       1.0235570021332624e-001, -9.1608351690926977e+000,
       2.8567231245801881e-002, -3.2052433457789711e+000,
       2.4953256425297481e-002, -3.0692505403115904e+000,
       2.0991733403749914e-002, -2.9136525964404885e+000,
       1.3070209343141643e-002, -2.2768304675752740e+000,
       1.2007302660701854e-002, -2.2453655975512468e+000,
       1.5063162345046587e-002, -2.9448482384566077e+000,
       1.1971661659702463e-002, -1.9130715332204538e+000,
       1.0286405622580607e-002, -1.3979225241087045e+000,
       1.0528649266733445e-002, -1.1370941208072121e+000,
       1.1970349298685842e-002, -1.1599268470426580e+000,
       1.5032173216349948e-002, -1.1063679487233560e+000,
       1.4592321716377466e-002, -6.2017367294604231e-001,
       1.8776272156130248e-002, -6.4027088052404146e-001,
       3.4119361098017109e-002, -6.5850366919173020e-001,
       2.7694562678682821e-002, -1.2462553205407270e+000,
       2.6578078956762483e-002, -1.4458474952478790e+000,
       1.7444809066301296e-002, -1.1688022074421869e+000,
       1.2006878549788930e-002, -1.1898816642840828e+000,
       1.1731821679651640e-002, -1.4758631673001763e+000,
       1.2470563294192471e-002, -2.2259955480133562e+000,
       1.5721249524260256e-002, -2.9398736610366680e+000,
       1.4347202295552360e-002, -2.2682926829268282e+000,
       1.3637552747556377e-002, -1.6992390723455244e+000,
       1.4655511359087062e-002, -1.5740019199659505e+000,
       1.4592088679824432e-002, -1.4008405132631454e+000,
       2.9941595995174784e-002, -3.0390719935102406e+000,
       1.0760778282064755e-001, -9.4479633316528542e+000,
       3.9215686274509803e-002, -3., 1.9822394114938285e-001,
       -1.6353475144824085e+001, 4.6948356807511762e-002,
       -3.6572769953051667e+000, 2.4425141133452930e-002,
       -1.6609095970747993e+000, 2.0181439491500322e-002,
       -1.5438801210997746e+000, 1.3903701647008803e-002,
       -1.2207450046073729e+000, 1.1933921982983769e-002,
       -1.5418627202015029e+000, 1.4163041539502258e-002,
       -2.2873312086296149e+000, 2.5672692968940279e-002,
       -5.0190114754278250e+000, 1.6784076323281948e-002,
       -2.7408396635919425e+000, 1.2950793114505369e-002,
       -1.5761115220353035e+000, 1.4029993109696702e-002,
       -1.5222542524020921e+000, 2.7059066219426189e-002,
       -3.1983816271361758e+000, 2.4988991650297061e-002,
       -3.1661052420926379e+000, 1.9293518123316016e-002,
       -2.6933751300149158e+000, 1.8901295360554175e-002,
       -2.5724662985714231e+000, 1.5588885968378735e-002,
       -2.0265551758892357e+000, 2.0274509996611258e-002,
       -2.3964470815994510e+000, 2.0192174770884651e-002,
       -2.1282552208512424e+000, 1.3961456755759631e-002,
       -1.1657816391059292e+000, 1.2311051862082374e-002,
       -1.2212563447185716e+000, 1.4350156467604694e-002,
       -1.9530562952409987e+000, 1.5188169985127124e-002,
       -2.5819888974716112e+000, 1.5721249524260256e-002,
       -2.9398736610366680e+000, 1.3938598834765125e-002,
       -2.2036924757763661e+000, 1.2222600977824691e-002,
       -1.6622737329841579e+000, 1.2181867521501863e-002,
       -1.4179693795028170e+000, 1.5392559631114709e-002,
       -2.1457228125773904e+000, 1.4071825502660033e-002,
       -2.2106837864678912e+000, 1.3358900015321706e-002,
       -2.1895237125112277e+000, 1.2004525118300625e-002,
       -2.2964656551309095e+000, 2.0028862357676414e-002,
       -3.3247911513742849e+000, 2.0056680039773438e-002,
       -3.0867230581211325e+000, 1.8063847873006366e-002,
       -2.5181003934970874e+000, 1.1065684769888624e-002,
       -1.2570617898593477e+000, 1.0162454688287933e-002,
       -1.1219349975869879e+000, 1.3084601074060826e-002,
       -1.9247448179943476e+000, 1.6806722689075630e-002, -3.,
       1.4163041539502258e-002, -2.5281029148011531e+000,
       1.1995513557275846e-002, -1.7345512603820874e+000,
       1.1618642148684797e-002, -1.3826184156934909e+000,
       1.2735753774003490e-002, -1.5728655910894311e+000,
       1.3830107790731199e-002, -1.8698305733068579e+000,
       1.1849430849216127e-002, -1.9018336512991885e+000,
       1.3040558636530999e-002, -2.5781184424421784e+000,
       1.4046440135734922e-002, -2.8064787391198376e+000,
       1.4544473728065948e-002, -2.7925389557886620e+000,
       1.9129832762864441e-002, -3.3993712819610109e+000,
       1.3863919413192491e-002, -1.9700629486146530e+000,
       1.1256266208058878e-002, -1.3462494384838417e+000,
       1.0423658835140051e-002, -1.2258222790124700e+000,
       1.1628307905575343e-002, -1.5919153522732645e+000,
       1.5188169985127124e-002, -2.5819888974716112e+000,
       1.5188169985127124e-002, -2.5819888974716112e+000,
       1.1890102101571487e-002, -1.5968407122410508e+000,
       1.1694186884619295e-002, -1.3916082392696960e+000,
       1.1305795402523421e-002, -1.3612177664638201e+000,
       1.2367413183783442e-002, -1.8081158074691390e+000,
       1.2584750679365415e-002, -2.1129796390654532e+000,
       1.3075258369821551e-002, -2.4267679534388797e+000,
       1.7176046691011086e-002, -3.5794881304067103e+000,
       1.6512692715278523e-002, -3.3273075821286224e+000,
       1.3662324134316112e-002, -2.4838105276186693e+000,
       1.3212034096938639e-002, -2.1112830486907948e+000,
       1.1071108700087418e-002, -1.4237445788312419e+000,
       1.0661071688138412e-002, -1.2995846387840724e+000,
       1.0487868763152455e-002, -1.3644717260861343e+000,
       1.3153341044116411e-002, -2.2360679774997898e+000,
       1.4163041539502258e-002, -2.5281029148011531e+000,
       1.0562094407684160e-002, -1.3920840429327723e+000,
       1.0966514370804160e-002, -1.3521712219201529e+000,
       1.1234614811542851e-002, -1.4166849277355533e+000,
       1.3773320758554317e-002, -2.0136594949006410e+000,
       1.4445438182101221e-002, -2.4643917538664684e+000,
       1.6835398555463007e-002, -3.1482195298715823e+000,
       1.8561343032141488e-002, -3.3930135062754645e+000,
       1.8978065586588971e-002, -3.7367811139993683e+000,
       1.5354843132384173e-002, -2.7638717638291510e+000,
       1.4421008784588369e-002, -2.2078564449204792e+000,
       1.1902999190305590e-002, -1.5485801946587572e+000,
       1.0630666887642705e-002, -1.3702929618171447e+000,
       1.0604006704683118e-002, -1.5418225748609256e+000,
       1.3153341044116411e-002, -2.2360679774997898e+000,
       1.5188169985127124e-002, -2.5819888974716112e+000,
       1.2439851012876870e-002, -1.8610017115263797e+000,
       1.1255232349239986e-002, -1.4192847992391622e+000,
       1.1481366510897272e-002, -1.4122080808403645e+000,
       1.1135857461024497e-002, -1.4209354120267257e+000,
       1.3811825330121734e-002, -2.1449764737679056e+000,
       1.4988006898796502e-002, -2.5659467810739609e+000,
       1.3595329186214112e-002, -2.3125654945750203e+000,
       1.3602370675400134e-002, -2.1097276917545607e+000,
       1.5824032798954918e-002, -2.4574722936776987e+000,
       1.4157206914084080e-002, -1.9140543747841674e+000,
       1.5824666811142325e-002, -1.9638411512627625e+000,
       1.2166926771303682e-002, -1.4478642857851383e+000,
       1.0690694038010580e-002, -1.5822227176255659e+000,
       1.3071895424836602e-002, -2.5555555555555558e+000,
       1.8373383751600716e-002, -3.5919965234379401e+000,
       1.2822831425035394e-002, -1.9618932080304152e+000,
       1.0444805585643672e-002, -1.3755808956292714e+000,
       1.0855306471847381e-002, -1.3840515751605411e+000,
       1.0777457811114713e-002, -1.3461044806082276e+000,
       1.0615041376975869e-002, -1.4351535941671374e+000,
       9.9295074480721043e-003, -1.3990675994333595e+000,
       1.0225846965413472e-002, -1.3477666300414957e+000,
       1.0271895279084071e-002, -1.3322648176972041e+000,
       1.2146947634494322e-002, -1.4527749370855207e+000,
       1.7033501305208500e-002, -1.8106611887436634e+000,
       2.6931881023526828e-002, -2.8844044576197230e+000,
       1.6614505159169672e-002, -1.7877207551266567e+000,
       1.6095069142424902e-002, -2.1342061682855418e+000,
       1.4163041539502258e-002, -2.5281029148011531e+000,
       1.7735961445750802e-002, -3.6181361349331636e+000,
       1.1934355407449490e-002, -1.9273983983030927e+000,
       1.0493456733295136e-002, -1.4722319796813077e+000,
       9.9607325073283581e-003, -1.3347381559820000e+000,
       1.0267519498525429e-002, -1.4056234193481312e+000,
       1.1632280126902971e-002, -1.7262303708324009e+000,
       1.1948019705168268e-002, -1.5532425616718748e+000,
       1.1098676597232614e-002, -1.4628055755152587e+000,
       1.1230278260381055e-002, -1.3734630312446030e+000,
       1.2155227381181697e-002, -1.3771872622878862e+000,
       1.6322077148608043e-002, -1.4314461659329254e+000,
       2.7135868064809748e-002, -2.2142868340884752e+000,
       2.1572374950263810e-002, -1.8638531957027933e+000,
       1.7343346958171846e-002, -2.0950763125471590e+000,
       1.9607843137254902e-002, -3., 1.4163041539502258e-002,
       -2.5281029148011531e+000, 1.0997453889274693e-002,
       -1.8134801463413970e+000, 1.0322099803328738e-002,
       -1.5214775110106560e+000, 9.7953341732500785e-003,
       -1.3762444513416361e+000, 1.3464378031804957e-002,
       -2.1058287241742955e+000, 1.3447664287077103e-002,
       -2.0682507673524588e+000, 1.2920759382166356e-002,
       -2.0259750711236850e+000, 1.1706319884823402e-002,
       -1.6915632233569815e+000, 1.1947601844887752e-002,
       -1.7097018240034372e+000, 1.1576175510876134e-002,
       -1.2560150429300605e+000, 1.5302904142417761e-002,
       -1.2640198821637070e+000, 2.1001545350562426e-002,
       -1.4827091017497072e+000, 1.6814703879191647e-002,
       -1.3098654321890293e+000, 1.4441867514178693e-002,
       -1.4485193116721229e+000, 1.5721249524260256e-002,
       -2.4053511772118190e+000, 1.3071895424836602e-002,
       -2.5555555555555558e+000, 9.5245179496765663e-003,
       -1.5220179683583155e+000, 9.4221416877758001e-003,
       -1.4952938858500193e+000, 1.1769593926002261e-002,
       -1.9537525917163754e+000, 1.4644553683784763e-002,
       -2.4646783849809757e+000, 1.6832631670354991e-002,
       -3.0938377010112474e+000, 1.5628262587747667e-002,
       -2.9052940150622915e+000, 1.4163041539502258e-002,
       -2.5281029148011531e+000, 1.2501279493300564e-002,
       -1.7989341190859514e+000, 1.6470441882675296e-002,
       -2.2251566983494326e+000, 2.3273190371508223e-002,
       -2.5740148550888091e+000, 2.5493204767777503e-002,
       -2.0929921114345329e+000, 1.4984557006384597e-002,
       -1.0833834715616062e+000, 1.1846071469279840e-002,
       -1.1384074681977925e+000, 1.4705882352941176e-002, -2.,
       1.3071895424836602e-002, -2.5555555555555558e+000,
       9.1921083519054311e-003, -1.5387589381089692e+000,
       8.8955016929735398e-003, -1.4624204783248500e+000,
       1.2147117902956837e-002, -2.1196720740659680e+000,
       1.7271182926903040e-002, -3.2297112073308685e+000,
       1.5721249524260256e-002, -2.9398736610366680e+000,
       1.4609145335768492e-002, -2.8400178532733951e+000,
       1.1202374222893240e-002, -2.0477940079448844e+000,
       1.2077321110179760e-002, -2.0495213923975051e+000,
       1.7884423723352940e-002, -2.6898173279922823e+000,
       2.4187068328929254e-002, -3.1491562964265887e+000,
       2.2561869805982789e-002, -2.3261287769968253e+000,
       1.5219025495390653e-002, -1.1657773529469240e+000,
       1.0689661724758989e-002, -9.7169025078059212e-001,
       1.4705882352941176e-002, -2., 1.2470563294192471e-002,
       -2.2259955480133562e+000, 9.5363209074012262e-003,
       -1.5153213921860549e+000, 9.5738019727595013e-003,
       -1.4379850563084771e+000, 1.2059576754873694e-002,
       -2.0863067785931491e+000, 1.3150053941467519e-002,
       -2.5261253621559101e+000, 1.1209128270085545e-002,
       -2.1656035817805273e+000, 9.5912550433139426e-003,
       -1.8041150736473526e+000, 1.0910108752500616e-002,
       -2.0871038043533678e+000, 9.9862285004564781e-003,
       -1.7176313020785143e+000, 1.1966449074457883e-002,
       -1.9218117213579360e+000, 1.6235477771713788e-002,
       -2.2924494613659867e+000, 1.5154228961678335e-002,
       -1.6609034941999454e+000, 1.1125094941791522e-002,
       -9.6232071246496664e-001, 1.0976531797375750e-002,
       -1.0822860352212489e+000, 1.2836346484470140e-002,
       -1.7457431218879389e+000, 1.2470563294192471e-002,
       -2.0139959720120841e+000, 1.1036095799934925e-002,
       -1.5571931173708178e+000, 1.1328610438315602e-002,
       -1.6222570147667941e+000, 1.6902481445297973e-002,
       -2.7297507534156225e+000, 1.7898025125419582e-002,
       -3.2413323502134861e+000, 1.4335521666422048e-002,
       -3.0004246847821348e+000, 1.2857666489713170e-002,
       -2.5471037316121787e+000, 1.0923255186885403e-002,
       -2.0426487199475702e+000, 1.3871760454139364e-002,
       -2.7285752813292126e+000, 1.3434066460494460e-002,
       -2.3939506432601125e+000, 1.7408926229340808e-002,
       -2.6496385721056708e+000, 1.7685159675604047e-002,
       -2.2831541141204825e+000, 1.1545342974089129e-002,
       -1.0483171420472930e+000, 1.0989933380539064e-002,
       -1.1022903180680681e+000, 1.3071895424836602e-002,
       -1.8888888888888888e+000, 1.5188169985127124e-002,
       -2.5819888974716112e+000, 1.2262888212502451e-002,
       -1.8136811666291126e+000, 1.1417727406957758e-002,
       -1.5528109273462551e+000, 1.6453244611827553e-002,
       -2.5667061594450984e+000, 2.1057531962672956e-002,
       -3.7061256254304404e+000, 1.8515058379966580e-002,
       -3.3160469558520145e+000, 1.4667550657691373e-002,
       -2.9921803341690403e+000, 1.2390746120982347e-002,
       -2.4756710749722730e+000, 1.4481427802464043e-002,
       -2.9180077021965047e+000, 2.3649122359220103e-002,
       -4.2875858837266048e+000, 2.3446546067030692e-002,
       -3.7889618444321598e+000, 1.7968385843380074e-002,
       -2.3197186123803673e+000, 1.1130165500664301e-002,
       -1.0896432025150351e+000, 1.0989933380539064e-002,
       -1.1022903180680681e+000, 1.3495043168856575e-002,
       -2.0647416048350560e+000, 1.4163041539502258e-002,
       -2.5281029148011531e+000, 1.1395584073089342e-002,
       -1.7138958445926371e+000, 1.0313768102364484e-002,
       -1.4470216647617373e+000, 1.2203064513274256e-002,
       -1.7877489511946785e+000, 1.3606500060565435e-002,
       -2.1049255593694727e+000, 1.8012054458360346e-002,
       -3.1178866267421759e+000, 1.5383796151012390e-002,
       -2.5921696514455879e+000, 1.5063162345046587e-002,
       -2.9448482384566077e+000, 1.5833074673583858e-002,
       -2.7628715305403833e+000, 1.7399832026312376e-002,
       -2.9805912261073102e+000, 1.9427000204616331e-002,
       -2.9237635307947576e+000, 1.4093330367082216e-002,
       -1.7912622896561496e+000, 1.0775236481187739e-002,
       -1.0387327967864981e+000, 1.0439567987795668e-002,
       -1.1974184482001633e+000, 1.3495043168856575e-002,
       -2.0647416048350560e+000, 1.5721249524260256e-002,
       -2.9398736610366680e+000, 1.2595727193500675e-002,
       -1.9913844692924567e+000, 1.0612769529164665e-002,
       -1.3817825926972391e+000, 1.0016415331179309e-002,
       -1.1969616320759273e+000, 1.3502176051020063e-002,
       -1.7552828866326082e+000, 1.4914263836233331e-002,
       -1.9701742527664230e+000, 1.4475418432447670e-002,
       -2.2480324825591231e+000, 1.5176603763780210e-002,
       -2.3872797720426271e+000, 1.6447546394946569e-002,
       -2.6348969324704403e+000, 1.8707968901101636e-002,
       -2.4806766762860768e+000, 2.1146753717861663e-002,
       -2.6073947334123431e+000, 1.3589114109384308e-002,
       -1.4350104499509828e+000, 1.1592880299646838e-002,
       -1.2149338554029887e+000, 1.3105574605773997e-002,
       -1.5818428549169214e+000, 1.5721249524260256e-002,
       -2.4053511772118190e+000, 1.8373383751600716e-002,
       -3.5919965234379401e+000, 1.4340709533879956e-002,
       -2.5225308070094843e+000, 1.1562772338112709e-002,
       -1.6211006818034017e+000, 1.1207692012910117e-002,
       -1.2552615054459331e+000, 1.0993286471114841e-002,
       -1.0751434168750313e+000, 1.2894437505320690e-002,
       -1.4235459005874043e+000, 1.2196491503289697e-002,
       -1.2574582739891678e+000, 1.3071895424836602e-002,
       -1.4444444444444444e+000, 1.3361332392227029e-002,
       -1.5565952236944489e+000, 1.3638060046032808e-002,
       -1.6283843694963174e+000, 1.2061813555102770e-002,
       -1.1398413809572119e+000, 1.5339859240839538e-002,
       -1.5661996284897168e+000, 1.3031431602345772e-002,
       -1.4399731920592078e+000, 1.3244382555845802e-002,
       -1.7442851826048920e+000, 1.6806722689075630e-002,
       -2.7142857142857140e+000, 1.7537788058821880e-002,
       -3.7267799624996494e+000, 1.3592628661025539e-002,
       -2.5064807250931094e+000, 1.3633040283678588e-002,
       -2.1812864453885741e+000, 1.3376205898418800e-002,
       -1.7522829726928628e+000, 1.2775435257670784e-002,
       -1.3886898125088143e+000, 1.1470665950311466e-002,
       -1.0300658023379696e+000, 1.0088152067206401e-002,
       -6.8599434057003528e-001, 1.0088152067206401e-002,
       -6.8599434057003528e-001, 9.8581704328319104e-003,
       -7.6597984263103946e-001, 1.1762296689760431e-002,
       -1.3079673919013599e+000, 1.4350570197331517e-002,
       -1.6833218841469870e+000, 1.3121325928062158e-002,
       -1.5168252772839854e+000, 1.1719786364211711e-002,
       -1.4778650605270967e+000, 1.1983346093340190e-002,
       -1.7519651988463356e+000, 1.4163041539502258e-002,
       -2.5281029148011531e+000, 1.8373383751600716e-002,
       -4.2166915709923645e+000, 1.8161985914542284e-002,
       -4.0446742631685666e+000, 2.1887498037974004e-002,
       -4.1214158805505052e+000, 1.8797789509922808e-002,
       -3.1016352691372631e+000, 1.5927363560996548e-002,
       -2.2744275165103072e+000, 1.4705882352941176e-002,
       -1.7500000000000000e+000, 1.4808575807437116e-002,
       -1.7785099544731975e+000, 1.4911826102227847e-002,
       -1.9653786802736304e+000, 1.5234912890071735e-002,
       -2.0506192750036556e+000, 1.5173458686797215e-002,
       -2.0833158776972578e+000, 1.7570785375915287e-002,
       -2.7498279113307422e+000, 1.7567531476529199e-002,
       -2.8371563334594656e+000, 1.6533081714970806e-002,
       -2.7163853257697035e+000, 1.4184126054202984e-002,
       -2.6155528443950304e+000, 1.2836346484470140e-002,
       -2.6186146828319083e+000 ]
   output_scale: [ 5.2631578947368418e-001, 4.9999999999999994e-001,
       5.2631578947368418e-001, 4.9999999999999994e-001,
       5.2631578947368418e-001, 4.9999999999999994e-001,
       5.2631578947368418e-001, 4.9999999999999994e-001,
       5.2631578947368418e-001, 4.9999999999999994e-001,
       5.2631578947368418e-001, 4.9999999999999994e-001,
       5.2631578947368418e-001, 4.9999999999999994e-001,
       5.2631578947368418e-001, 4.9999999999999994e-001,
       5.2631578947368418e-001, 4.9999999999999994e-001,
       5.2631578947368418e-001, 4.9999999999999994e-001 ]
   inv_output_scale: [ 1.8999999999999999e+000, -9.4999999999999996e-001,
       1.8999999999999999e+000, -9.4999999999999996e-001,
       1.8999999999999999e+000, -9.4999999999999996e-001,
       1.8999999999999999e+000, -9.4999999999999996e-001,
       1.8999999999999999e+000, -9.4999999999999996e-001,
       1.8999999999999999e+000, -9.4999999999999996e-001,
       1.8999999999999999e+000, -9.4999999999999996e-001,
       1.8999999999999999e+000, -9.4999999999999996e-001,
       1.8999999999999999e+000, -9.4999999999999996e-001,
       1.8999999999999999e+000, -9.4999999999999996e-001 ]
   weights:
      - [ 1.5219301857032141e-002, 4.1885226490711275e-002,
          5.7371372144716416e-002, -4.0265148676331530e-001,
          2.1717501105684511e-001, -4.8804820301765897e-003,
          1.0350463929400169e-001, -3.7512969517311902e-002,
          -1.9314050541103162e-001, 5.4868313075474828e-001,
          4.0448309954475176e-001, 8.8119641209854660e-002,
          -5.1178794078989030e-002, 4.7419355273358738e-001,
          -3.7151071364647453e-001, 4.0636077483577580e-003,
          -3.0749216398199459e-002, -4.0351514167991942e-001,
          2.1965736115706880e-001, 6.6335978938384152e-002,
          2.8347496509066561e-001, -4.3539501285232408e-002,
          -2.2938447845874158e-001, 4.6925134879585953e-002,
          1.4364655309764133e-002, 1.4228545304059512e-001,
          -5.1227346158286273e-002, 4.0157374590383360e-001,
          -3.7108582080679775e-001, 1.2417296025171126e-003,
          1.4442080641981953e-001, -4.2842352987543714e-001,
          2.2226168679502800e-001, 6.3396964265649211e-002,
          2.8841309254329217e-001, 2.6564982385200817e-002,
          -2.2974274199622149e-001, 4.9745050015384942e-002,
          -1.1561807088381187e-001, 1.4982312713881993e-001,
          3.6136852411923115e-001, 4.0956739308149220e-001,
          1.8079388549867240e-002, 3.8050419038180738e-001,
          1.4584323172681413e-001, -2.6348188787387300e-001,
          2.2048147436904220e-001, 6.4495488364807549e-002,
          -2.9811847825003746e-001, -1.2218365358529559e+000,
          -2.2222298249993130e-001, 4.8490931282018077e-002,
          -1.2357532463451035e-001, 1.4240388252057765e-001,
          -2.4016010631177589e-001, 5.5470521152006047e-001,
          2.4377238202955401e-002, 5.6834473052056016e-003,
          4.2175555395957860e-002, -1.3433671529714400e-001,
          5.6338080913284072e-003, 5.1890924042561504e-001,
          2.1791562579667778e-001, -4.7159473131257221e-002,
          -2.3123840150544780e-001, 4.9511471503085033e-002,
          -1.2163947067383546e-001, 1.5074159366265436e-001,
          5.1321867573431261e-002, 1.9013390802765379e-001,
          5.3091496088108758e-003, 1.9765500390732391e-001,
          4.9099866230311479e-001, -3.0156401499717833e-001,
          1.5942619757892207e-001, 5.2854592952345392e-001,
          5.3187651949581627e-001, -1.4131926911044193e-001,
          -2.2962322602253163e-001, -2.8170928257598810e-001,
          -1.1618670161699246e-001, 1.8790589810848399e-001,
          9.2247839181036143e-002, 2.0076327582384668e-001,
          6.8485474636724463e-004, 1.9219754917064011e-001,
          4.9149474139385946e-001, -2.9769317197408457e-001,
          1.6286983920971415e-001, 5.1823856280916036e-001,
          5.3075941639633506e-001, -1.3293167603367539e-001,
          -2.3203137410546162e-001, -2.8195740816817300e-001,
          -1.1471006744392931e-001, 1.8684211534159881e-001,
          9.4532061128675057e-002, 1.9874724582690306e-001,
          3.6498528557239712e-001, -2.0986980924470403e-001,
          5.2928628408638556e-001, -1.9134540523884777e-001,
          5.1978676417360807e-002, 9.5575443174101093e-001,
          5.3732692722137554e-001, 1.2643931392078442e-001,
          -1.9607346531291026e-001, -2.8843660738613081e-001,
          -8.4668044315916124e-002, 5.6547673644231256e-001,
          -2.2669301066032163e-001, 1.7720702229766797e-001,
          7.4034269487968052e-001, -3.0647164655263270e-001,
          2.6892968601183377e-002, -1.8647738942277983e-001,
          4.6426441228220254e-002, 9.4824039426419016e-001,
          5.9338830645160275e-002, 1.1942111779910164e-001,
          5.6365642545297301e-002, -2.8399525770358364e-001,
          2.0648132274060288e-002, 1.7766881383055896e-001,
          -2.1954810997883042e-001, 1.5113014251595258e-001,
          1.3527539149684306e-001, -3.0769263167886729e-001,
          2.9034106768284922e-002, 1.1158376690085367e-001,
          2.1627306656062456e-001, 3.0256166548561730e-001,
          1.2800928883928209e-001, 1.2158962707258247e-001,
          6.5335463459867377e-002, 4.9402705146456269e-002,
          2.9509960130339724e-001, -8.1358568952893603e-002,
          -2.2698111543213065e-001, -7.9677964693241704e-002,
          -1.5778427398628872e-001, -9.5638712951843383e-002,
          -4.2756649186265039e-001, 4.8052124320149769e-002,
          -2.3379452485274790e-001, 8.2421732561460237e-002,
          9.9876761491146354e-002, 4.3449101450943745e-001,
          5.8384823272995462e-002, 5.4534080804133500e-001,
          7.6565025450117352e-001, -7.7440008445022201e-001,
          6.3208055627475584e-002, 2.6154676426464180e-001,
          9.5469369179967012e-002, -9.6444862573107290e-002,
          -5.8278762525823524e-001, -7.9973050742753928e-003,
          2.2098625705587710e-001, -2.4773204308063249e-001,
          1.0118239635985674e-001, 2.2547486758152376e-002,
          -5.1926592501667868e-002, 5.3825682127916408e-001,
          6.0248021084602665e-001, -4.6050929055193762e-001,
          5.4973661272427388e-001, 4.1057012208414628e-001,
          1.0262456713719390e-001, -8.9296986980956963e-002,
          -2.6923394636954778e-001, -7.5644018022515743e-003,
          2.2043524873569931e-001, -4.4745323762457950e-001,
          9.9633276741942306e-002, 2.2393445116056687e-002,
          -2.2207784052796734e-001, 5.4569563424829803e-001,
          8.8223748677740133e-003, -2.7040810468212334e-001,
          5.4892436657530852e-001, 3.4601355575251663e-001,
          -3.7578478617297989e-001, -1.4156738972926776e-002,
          -2.7004371736573884e-001, -1.8567132665500148e-002,
          2.1264451772866266e-001, -4.4943181773526458e-001,
          9.5748130260716130e-002, 2.3494153766962286e-002,
          -2.2865303289389396e-001, 2.2809159651090946e-001,
          1.6230061492908801e-002, -1.5681929395054137e-001,
          5.4645336509140030e-001, 4.7791649929456587e-001,
          -3.7804698877212756e-001, -1.1162482568110040e-002,
          -2.7702897228733792e-001, -1.6393591787425672e-002,
          2.2352163153771665e-001, -4.4202284992903407e-001,
          9.8795464900198665e-002, 2.1372168943532412e-002,
          -2.2591153853653470e-001, 5.3946581593609644e-001,
          1.3087755462143053e-002, 7.8520125267604282e-002,
          5.4442623310217886e-001, 4.7100846167741400e-001,
          -3.7311667997192433e-001, 5.5058642235561367e-002,
          -1.5495914043862463e-001, -3.9980837712874462e-001,
          2.1752476948040272e-001, 6.4618457716404940e-002,
          2.9220830945625442e-001, -4.6389463469604493e-002,
          -2.2516146052062533e-001, 5.6545419329348021e-002,
          8.7974635158367814e-003, -1.6889353600446863e-001,
          -2.7928654359479199e-001, 1.1120632768644297e-001,
          2.0194355217773716e-002, 4.3366031060081467e-002,
          1.1210394164509374e-001, -3.9896289611216185e-001,
          2.1654417202256326e-001, 6.8457662357421442e-002,
          9.8147537269256652e-002, -3.7757023405554820e-002,
          -2.3101423454847766e-001, 4.7596946533442416e-002,
          -1.2147333251063974e-001, 1.0648447129204724e-001,
          -4.7963429869066633e-002, 4.7785345538796092e-001,
          -3.7846997024186901e-001, -2.8752983178376469e-003,
          4.5616890743528989e-002, -1.2784387842517086e-001,
          2.2301455589103847e-001, 7.0781513705152496e-002,
          2.9602132958484639e-001, -3.8173906291320267e-002,
          -2.2268347574568600e-001, 5.1673000883259698e-002,
          -1.2258084587391513e-001, 1.4921751413546760e-001,
          -4.4298009538344778e-002, 4.0692060377507638e-001,
          -2.1813557079972759e-001, 4.8795634784985374e-004,
          1.4418811009361066e-001, -2.9949645122839919e-001,
          5.3710386023545931e-001, 2.2882377068558382e-001,
          5.9754079151593420e-001, 2.7695003109396214e-002,
          -2.2932270010928854e-001, 5.7134657677870113e-002,
          -1.1994946356747554e-001, 1.4351552884109933e-001,
          9.1833449963588901e-002, 5.5594506962206613e-001,
          -2.2484860285939298e-001, 6.0340222196224279e-003,
          1.4801557762215117e-001, -2.9552172086352363e-001,
          5.2821209241629774e-001, 2.3716701108612129e-001,
          5.2849966565557238e-001, 1.7482286828391900e-002,
          -2.2855938867930284e-001, 4.7444193800876236e-002,
          -1.2133480084352269e-001, 1.4545992223414403e-001,
          3.5595537468344740e-001, 5.5434362800492243e-001,
          2.5604563193660005e-002, -4.2720045262867046e-003,
          5.1336680151620358e-002, -1.3422067926561862e-001,
          -5.6111123936386370e-003, 5.2275182469702175e-001,
          2.2061607399595606e-001, -4.2537043826905555e-002,
          -2.2710256444725743e-001, 4.8159049875871399e-002,
          -1.2110821309026346e-001, 1.4959255465680879e-001,
          2.2288546981586355e-001, 1.9610299911834989e-001,
          -9.7529467360948875e-004, 1.9956164010157337e-001,
          4.8727112043734239e-001, -2.9770651269877396e-001,
          1.6140195393770734e-001, 5.1871397402615282e-001,
          5.3534210606195154e-001, -1.3739775977745816e-001,
          -2.2895697278454216e-001, -2.8319896495540742e-001,
          -1.2079750344653928e-001, 1.8325157759509478e-001,
          1.0192333440561223e-001, 1.9563499302650200e-001,
          5.0670345906318470e-003, 1.9371154605889965e-001,
          4.9175187279191007e-001, -2.9255079034971221e-001,
          1.5635751447457291e-001, 5.2652933796747770e-001,
          5.3063103303363535e-001, -1.3278507736726308e-001,
          -2.2606347552226549e-001, -2.7936493068212837e-001,
          -1.2041924534937556e-001, 1.8514635654823472e-001,
          9.7334332579355129e-002, 1.9608231074943483e-001,
          3.5846454479588675e-003, -2.0747771145392138e-001,
          1.5648082163870736e-001, -1.8848056246405212e-001,
          2.2494030182776154e-001, 5.7673880094344365e-001,
          7.3217642110444892e-001, 1.2665217931536091e-001,
          -2.0257042474305692e-001, -2.8442500855854130e-001,
          -8.9144439477099213e-002, 5.6762126762541731e-001,
          -2.1756422796005279e-001, 4.4707558399475718e-002,
          1.0607460503234284e-001, -4.1300139676556852e-002,
          -5.9413953897649370e-002, -1.3730191555338547e-002,
          2.2325939346708046e-001, -7.9740510907337497e-003,
          9.8416771615241982e-002, 2.0716460599230820e-002,
          9.9495566571414715e-002, 5.4833948096627660e-001,
          1.4678675457450208e-001, -1.1784281666003470e-001,
          -4.6822801677980024e-002, 4.0945149354356919e-001,
          -3.7435692659315178e-001, 2.5478595421753021e-002,
          7.5961445418051582e-002, -1.8700736537600175e-002,
          2.2225799070342733e-001, -2.6962085506513772e-003,
          1.0762086871501989e-001, 1.8913132537027904e-002,
          6.2462861224550276e-002, 5.4452807159623284e-001,
          1.4555419596322531e-002, 7.5622426195995227e-002,
          5.4934904844730725e-001, 4.7856150347235965e-001,
          -3.7122334778825794e-001, -1.9594242869994710e-002,
          -2.7407956699483826e-001, -8.3570067659114785e-003,
          2.1988507804889790e-001, -4.4505323981797434e-001,
          8.0828300427591232e-002, -4.4424343669851075e-002,
          -2.2624826802990691e-001, 2.2110670873251445e-001,
          6.4572754338790023e-003, -1.5822943232719358e-001,
          5.4931440438043067e-001, 3.9890512888171657e-002,
          -3.7211766089345133e-001, -2.0987527042483200e-002,
          -2.7181831846539539e-001, -1.4259097298145151e-002,
          2.2155620121074060e-001, -4.4117613394257332e-001,
          1.0722911853564862e-001, 2.0922418893273020e-002,
          -2.2771512921881784e-001, 2.2845404558568741e-001,
          1.6814155107792592e-002, -1.5211511030285660e-001,
          5.4153376074875803e-001, 4.7929535872203971e-001,
          -3.7296176546612014e-001, -1.6486826135453745e-002,
          -2.7493375917941487e-001, -1.8915519322009446e-002,
          2.2205525907161366e-001, -4.4935875470727121e-001,
          1.0662089665447497e-001, 1.7441849619917096e-002,
          -2.3048836635081241e-001, 5.4029156329097883e-001,
          1.7842533132261654e-002, 1.0126291108593478e-001,
          5.5140690215924237e-001, 4.7587594843464903e-001,
          -3.7110200823391387e-001, -1.6800693125247821e-002,
          -8.9543850313255757e-001, -1.0415530827682462e-002,
          2.1344665133206558e-001, -1.0504179294340710e-001,
          1.0455132377682372e-001, 2.2493563961846704e-002,
          -2.2033975709031309e-001, 2.2682415408271681e-001,
          9.2235388907294102e-003, -1.6228869634273882e-001,
          5.4748393842739174e-001, 4.0251552461707990e-001,
          -3.7441013637025344e-001, 4.6975668367131782e-002,
          -3.8203205865384426e-001, -4.0353889895138095e-001,
          3.1465756751317569e-003, -4.7617730272161263e-002,
          2.1345217422585705e-001, -4.5937281203455187e-002,
          -2.3075747870144617e-001, 5.6469486361394719e-002,
          -1.2049828618560326e-001, 1.4288061502257512e-001,
          -4.8291563525436502e-002, 1.9579945035141144e-001,
          -2.2353673171954799e-001, 5.6263151500054190e-002,
          2.0940294779610008e-001, -1.2958378430962056e-001,
          2.1552627356697629e-001, 3.0159619244460273e-001,
          2.8583932269887657e-001, -3.9445374262630797e-002,
          -2.3214442644725400e-001, 5.1025644652988741e-002,
          -1.1644384970123095e-001, 1.8341586542609731e-001,
          -2.8611797395649124e-001, 1.5978574357424552e-001,
          -2.6879650873237819e-003, 8.2516987518224281e-004,
          1.4708490505413721e-001, -2.9557879241607737e-001,
          5.3827386315721759e-001, 5.1849538245313709e-001,
          5.3140252521420484e-001, -1.4145436631463731e-001,
          -2.2315617760942216e-001, 5.4113587835079927e-002,
          -1.2374891165417623e-001, 1.8713936010955542e-001,
          9.2831146147867985e-002, 5.5989675418391782e-001,
          4.6939024545344984e-003, 1.9453718938310885e-001,
          3.9445801577165984e-002, -2.9597788559203081e-001,
          1.6136946654933165e-001, 5.2853571121055243e-001,
          5.8676864600431056e-001, -1.3797208866491789e-001,
          -2.2390845859449918e-001, 4.6545755970876526e-002,
          -1.2139385423703550e-001, -1.2083066242427119e-001,
          1.0209355084123696e-001, 1.6394652262817722e-001,
          6.7229299441331353e-002, 1.9469622982805709e-001,
          4.8399207370819253e-001, -2.9047466061966448e-001,
          5.3484989245108139e-001, 5.2496297446318785e-001,
          5.9054017634683531e-001, -4.2740491742705583e-001,
          -2.2097708744951858e-001, -1.5345774029203874e-001,
          -1.1450841914256546e-001, -1.0776497067407305e-001,
          1.0204231894088849e-001, -2.6659296004015459e-001,
          -2.4935697897239669e-003, 1.9326947879995868e-001,
          5.3506616353102110e-001, -1.9737854074636010e-001,
          4.6915210942518180e-002, 9.6008255863218372e-001,
          5.2941237011055919e-001, -1.3830720230145049e-001,
          -1.9592372306248135e-001, -2.8150167515993896e-001,
          -8.7197762224778597e-002, 3.0442339930161205e-001,
          9.4166130416769259e-002, -1.1955603124877900e-001,
          -4.4893755723393602e-003, 2.0329018258408060e-001,
          1.5558488269430598e-001, -1.9243273828882393e-001,
          -2.9226715734211661e-001, 9.4832118591315262e-001,
          5.2951672457076848e-001, 1.2734129670232780e-001,
          -5.5780210155123022e-001, -2.8099351397333444e-001,
          -4.5595964600442525e-002, 1.1216237257031478e-001,
          9.7865650473134960e-002, -1.1422038923487020e-001,
          -2.3333507896280853e-001, 4.0363968040434683e-002,
          9.1313154293045762e-002, 2.9601273112989090e-001,
          -1.5548324888449983e-001, 4.6840874928028464e-002,
          -5.3096919272470411e-001, -1.1277062730303974e-001,
          2.2603460138199702e-001, -1.2910181377866092e-001,
          -8.0200885887661711e-003, -3.0873372294488466e-001,
          -2.2061220639946208e-001, -1.2534739098056811e-002,
          -2.3258795861321113e-001, -1.6373970666765495e-002,
          -1.2052019419205080e-001, 2.9428221983271402e-001,
          -1.5620157603854756e-001, -5.2396728175123441e-001,
          -5.3705864462746089e-001, 1.3126629343023219e-001,
          2.2665051985430054e-001, -5.0569376812004921e-002,
          -1.3931888848808482e-001, -1.5471743882454470e-001,
          2.2524879312729820e-001, -1.6519766414979975e-001,
          -7.4355332466541124e-001, 3.1352530085164332e-001,
          -2.9017199500966259e-002, 1.8808447977195772e-001,
          -5.0909132515656728e-002, -9.5196626281353658e-001,
          -5.8130852228399400e-002, -1.2427198733366468e-001,
          -5.8638548125386325e-002, 2.9066318865978952e-001,
          -1.2793376873699979e-002, -1.7989549403499686e-001,
          2.1876309854395529e-001, -1.5278289497026282e-001,
          -1.0317111803477673e-001, 3.0729399547525593e-001,
          -1.3359661539579448e-001, -5.6939670896029013e-002,
          7.5176267706091626e-001, -3.0891639459848863e-001,
          6.7088812126768635e-002, -1.2805234861159462e-001,
          -6.4703904790006872e-002, 3.5577501290900082e-001,
          -5.7003855771993413e-002, -1.1886501309145238e-001,
          2.8705859714927717e-001, -1.7546683897381896e-001,
          -1.5716020649881127e-001, -1.4965672790728753e-002,
          -7.4293333368888312e-002, -1.1062889488676303e-001,
          2.9851146169302417e-001, -1.0320716952748429e-001,
          -8.0539093380922105e-002, -2.1192958857754296e-001,
          -3.1986058977837892e-002, 3.5948996848373793e-001,
          1.6438306267208921e-002, -1.4983438976725152e-001,
          5.9841733345917629e-002, 1.6932796559829949e-001,
          -2.1352134050239258e-001, -9.1454299813462439e-003,
          2.0605115569237990e-002, -7.6115779645014336e-001,
          5.3755398433209889e-001, -9.6525573377292700e-002,
          2.6424713505522751e-001, -1.2147547970968883e-001,
          -2.2171542583958695e-001, 4.5750320517687432e-001,
          1.2927552827260574e-002, -1.4048564657709769e-001,
          7.1810279559637391e-001, 6.2071505198559543e-002,
          -3.8092519643317463e-001, -1.3790690072972935e-002,
          -3.4052173667269331e-001, -3.9958470591577744e-001,
          2.2469280823191978e-001, -1.0206234461498151e-001,
          9.6423525850228703e-002, -4.4673629350095147e-002,
          -2.2556973045489068e-001, 2.2853142917406719e-001,
          1.3019863680860555e-002, -1.4779103850645267e-001,
          5.4057013129583087e-001, 4.1031581516630783e-001,
          -3.8184550445722359e-001, -9.7541383726724509e-003,
          -3.2895318108959726e-001, -4.0872311270614359e-001,
          2.2141679560736954e-001, -1.0539552619610373e-001,
          1.0589369132268125e-001, 2.3571305058508265e-002,
          -2.2128877500356711e-001, 4.8797142731721435e-002,
          6.7898824395043345e-003, -4.9567187806876573e-001,
          5.5077971998515307e-001, 7.5849031469304118e-001,
          9.7069398097039211e-002, 5.8762341675438881e-002,
          4.8357558193294248e-001, -2.9340843467573413e-001,
          1.5847664649948251e-001, 5.2562393145295250e-001,
          5.3444902081336554e-001, -1.3947160076960660e-001,
          -2.2968182645170723e-001, 4.9130841689469032e-002,
          -1.1392763280090420e-001, 2.6671812391239808e-001,
          9.5728617278682718e-002, 1.9084021504186022e-001,
          -2.1497896425237981e-001, 7.1440058718120603e-001,
          -5.8278422834257659e-002, -1.2574649225659321e-001,
          -4.7486084629351361e-003, 2.4877172363164288e-001,
          5.3778834628262373e-001, -2.7697634473848959e-001,
          -1.2347092252644315e-001, 4.9801452119977260e-002,
          -2.4408307100043897e-001, 1.8561850006528915e-001,
          -1.2389863805318055e-001, 2.0185484615866556e-001,
          4.2078182023038892e-003, 5.9911947914164121e-001,
          4.0400379012569987e-002, -2.9503915412786802e-001,
          1.6372009672820032e-001, 2.4575138560736190e-001,
          5.9572548362945110e-001, -1.4122723560788963e-001,
          -1.2240106135515819e-001, -2.8052684200963646e-001,
          -2.3581046718766763e-001, -1.8121142660084380e-001,
          -6.7535650139880915e-002, 1.6235776832752508e-001,
          -9.6198754153085432e-004, 9.7653712725957784e-002,
          -1.1333804280336467e-001, -1.8558837327029895e-001,
          5.2725418333624419e-001, 2.4724579810882122e-001,
          7.9449026217716046e-002, -4.2632262429692541e-001,
          -1.9155991507220436e-002, -2.8370861247721146e-001,
          -7.7179363456240424e-001, 3.0018954399312692e-001,
          -6.8319489537907674e-002, -1.1850208357642980e-001,
          -1.0907905769459003e-001, 6.0760038657746651e-002,
          5.2272843137073415e-002, 1.1256014332781441e-002,
          -2.2187259048445673e-001, 4.4285203933303580e-001,
          5.6805647754329135e-002, -2.3959895547230322e-002,
          -5.9587720146351303e-002, -1.0153242135758345e+000,
          -3.9728100512467429e-001, 4.6706651380029757e-001,
          -6.5698158858774253e-002, -4.0569406665723945e-001,
          -1.0258416916277202e-001, 4.2865429386383214e-002,
          1.1539707424080842e-001, 4.0642280391537955e-001,
          7.7292235100846632e-004, 2.8364231032989562e-001,
          -2.4133722338038375e-002, -2.0054473151101395e-002,
          -5.7786925164813124e-002, -5.4377410584917851e-001,
          -3.9802622309747931e-001, 7.5751596908421634e-002,
          5.1681736078929973e-002, -6.1450931339954551e-001,
          -1.0291572691726467e-001, -5.7915461302257443e-002,
          -1.1366070623380474e-001, 2.9186200224617048e-001,
          -1.5255903702104778e-001, 4.3674516283422421e-002,
          -5.3387322882390376e-001, -2.3161056387434154e-002,
          2.2937835191181447e-001, -5.1630832475624708e-002,
          -1.4918339549409449e-002, -8.3305033479063906e-001,
          -1.0216143436764012e-001, -1.9498564124118239e-001,
          -1.3323274108705818e-003, -1.9137157905806082e-001,
          -4.8845964733700514e-001, 2.9416459628640146e-001,
          -1.5852070407913377e-001, -5.2086977627894426e-001,
          -5.3494568441900558e-001, 1.3687707372670263e-001,
          2.2428934103579271e-001, 2.9078102127678906e-001,
          1.1422944242867147e-001, -1.8554113547965626e-001,
          -1.0303037189311563e-001, -1.9356271184672214e-001,
          -3.6841880848434860e-001, -2.0133017499782005e-001,
          -4.8791220092208837e-001, 2.9606479496095139e-001,
          -1.5586011396778432e-001, -5.2846266311787682e-001,
          -5.3253435690869810e-001, 1.3864488330096830e-001,
          2.2702545966138302e-001, 2.9117445232504680e-001,
          1.1727893417956622e-001, -1.8924350176672008e-001,
          -1.0007063062794365e-001, -1.9602931186229638e-001,
          -1.3372120865728437e-001, 2.1818107963176570e-001,
          -8.7955213570354143e-002, 2.1403294962779784e-001,
          1.3506294602139093e-001, -3.0516920448317175e-001,
          -3.1974193881648717e-002, -6.2670044792631441e-002,
          -6.0261235001473568e-002, -4.8047836118778373e-002,
          -1.3569792894816505e-002, -5.9132107786668206e-002,
          4.3225885345393823e-002, -4.7313413663420772e-001,
          -3.6301053684131540e-001, 5.5144042127672233e-001,
          1.8965209758128560e-002, -5.1237744588350079e-002,
          2.3297327964373135e-001, -8.9245802292330645e-002,
          1.5622358021150323e-001, -1.1637696790638820e-001,
          7.3579358038834503e-002, -5.4416787499704344e-001,
          -5.7195757724852588e-002, -3.4156219879376370e-001,
          2.3005601075067159e-001, -2.5786807454662813e-001,
          -3.6352308160229868e-001, 2.3404109201725398e-001,
          4.2390179695302510e-001, -4.8687223887526748e-002,
          7.4675034097459236e-001, -1.0318744265031538e-001,
          4.6131567249780032e-003, -1.2806711735054771e-001,
          -3.6667421200422309e-002, 9.6359256996299408e-002,
          1.5898884460956525e-002, -1.5188797205270746e-001,
          1.2794756002227017e-001, -2.6439532020725803e-001,
          -1.6515030672851530e-001, 1.4573278794983396e-001,
          -6.9689265700840011e-002, -5.6290241843189814e-002,
          2.2789891455776293e-001, -4.9488353267769805e-002,
          1.6287237230692669e-001, -1.1931601974293042e-001,
          -3.7163121397290430e-002, -6.5836880899742961e-002,
          1.2081735932927301e-002, -1.0430244077243796e-001,
          -3.3500617371100772e-002, -2.6015525572941151e-001,
          -2.8729109957377774e-001, 1.4083204834020652e-001,
          -8.0662283701948612e-002, 3.2063992708166927e-002,
          5.2157514307417961e-002, 6.0487089400314664e-002,
          1.8155301486261557e-002, -3.9413738270200026e-002,
          -3.4411003265099452e-002, -5.7603547703202536e-002,
          1.8325454170291369e-002, -2.1439320114292379e-002,
          1.6770120482904347e-001, 3.0808817159921988e-002,
          -2.4524060234178863e-001, -1.9507951054470846e-001,
          2.9280089411093940e-001, -3.9779628899047781e-001,
          -4.2176111626127562e-002, -1.0647482273743428e-001,
          -1.1738758989690742e-001, 2.1616950036544329e-002,
          -3.1890388436726008e-002, 1.6920997669452872e-001,
          1.2856028536696762e-002, -3.8127244353460055e-001,
          6.2185941658571164e-002, 1.6740950095301499e-001,
          1.8846235625422497e-001, 5.4578133231472536e-001,
          -5.2964983971691776e-002, -2.9221152970693148e-001,
          1.5474634968687079e-001, -8.0643269502642639e-002,
          5.2691483110704940e-001, -1.3958814954451015e-001,
          -6.1839290275217784e-002, -7.2323755027333125e-001,
          -5.4631638922150165e-002, 2.4225687885061888e-002,
          4.9413240106710339e-002, -6.1436445522571929e-002,
          -1.6414244252767415e-001, 5.9671378294490141e-001,
          3.8090944828737316e-002, -2.9366966505829661e-001,
          -9.5560130653809069e-002, 2.4765551506298397e-001,
          6.3742478133190075e-002, -1.4305994557779744e-001,
          -2.5446653050158924e-001, -2.8621332007772649e-001,
          -7.6122739811108941e-001, 2.0564438077685521e-001,
          -6.8023941664015736e-002, -6.2031874284566510e-002,
          -1.6222380078857282e-001, 5.9496414669947861e-001,
          -1.2089742088781143e-001, 4.8873692021215331e-002,
          -9.9453102666444207e-002, 2.3923467903316067e-001,
          7.6899846948990297e-002, -1.3930214831515592e-001,
          1.1367381664788342e-001, -2.8275769470734941e-001,
          -7.7230464259884635e-001, 2.5739228369770956e-001,
          -6.0804070404253029e-002, -2.5756283420661413e-001,
          -1.5878394980234703e-001, 4.2043049634338470e-002,
          -1.2126431170151411e-001, 1.1201280406743505e-001,
          -4.7820704194591536e-002, 2.3912272724164765e-001,
          7.8116329531815104e-002, -4.3035974336683985e-001,
          1.2164045889205002e-001, -2.8242793624791501e-001,
          -7.6131192373458656e-001, 9.5059487518752306e-001,
          -6.7617486296444040e-002, -2.4926877155895703e-002,
          -1.5839605854297259e-001, 3.9884928091443700e-002,
          -2.9603757513236811e-001, 1.1561999012688079e-001,
          -4.7846561926747751e-002, 2.7743075661701766e-001,
          1.2602051003158232e-001, -2.2255688803666154e-002,
          3.9650105640136254e-002, -2.8699406913305575e-001,
          -3.9795378001589859e-001, 4.9223768148529606e-002,
          5.2513638822541363e-002, -2.1961279167551973e-001,
          -1.0346177186659840e-001, 1.7356319016056140e-003,
          -2.1045050736219283e-002, 2.9959739314467082e-001,
          -1.6343791934851370e-001, 5.0644028270916908e-002,
          -5.2914951634044860e-001, -2.4757388405847281e-002,
          2.3108132143411012e-001, -4.6913768309969670e-002,
          -1.4717036784959168e-002, -1.3986806111721131e-001,
          3.0340782059138796e-003, -5.5898696336482778e-001,
          -9.6491133067054577e-002, -1.6291724006409314e-003,
          -1.4184734533492727e-001, 4.3313446473490808e-001,
          -1.5886575475113135e-001, -5.1759090859865686e-001,
          -5.3297858964908384e-001, 1.4363958092927931e-001,
          2.2914078835202825e-001, -5.2910131175717093e-002,
          4.1604089412034667e-001, -5.0173970457377981e-001,
          -3.6157388019101511e-001, -2.0213787756225493e-001,
          -3.6778048956364040e-001, -1.9538726930581704e-001,
          -4.8465663079476107e-001, 2.9430880171677187e-001,
          -1.5713691214351017e-001, -6.0678409231048891e-001,
          -5.2990090011793833e-001, 1.4259594976368617e-001,
          2.2987259163083415e-001, -5.0044721999519329e-002,
          4.1308670975734235e-001, -6.1222641192223504e-001,
          6.0915832436280730e-002, -1.9977377357980769e-001,
          -3.6973057500695694e-001, -3.7557350695912284e-001,
          1.1927774473854491e-001, 4.2549182481682585e-001,
          -1.5377642776204919e-001, -5.9670044811922585e-001,
          -5.3264445839428831e-001, 1.3999127789122123e-001,
          -9.5774607498172862e-002, 2.8884629922870497e-001,
          4.1677674333603537e-001, -6.5719445331742343e-001,
          5.9317945379076122e-002, -4.8186261347291459e-001,
          -3.6596102912020706e-001, 1.8377195523400641e-002,
          9.7364921637085725e-002, -1.1558597537763571e-001,
          -2.2443541141012330e-001, -1.1760001864232899e+000,
          -5.3477423777814959e-001, 1.3402850682612358e-001,
          -6.2238138892235673e-002, -5.7247532207787680e-002,
          3.2181091420794233e-001, -1.6003446861974993e+000,
          5.8393622568801977e-002, -2.0003924114828323e-002,
          -3.6971792070883597e-001, 2.9610403068783590e-002,
          4.2438819993178267e-001, -4.8021139904079982e-002,
          2.3254972316217873e-001, -1.0899161725147793e-001,
          -3.5439622619395983e-002, -1.1745121889583519e-001,
          -3.9173688020851000e-002, -5.1187013286271024e-002,
          4.0205589845095940e-001, -1.6879583243441174e-002,
          -3.8395561444683951e-002, -1.5870164967226999e-002,
          -3.7061443343227113e-001, 1.4253462388064492e-001,
          4.2382009753880612e-001, -5.4363762882063973e-002,
          2.2895292949174920e-001, 5.1852827540926995e-002,
          1.8335702182973657e-001, -1.2036012643190507e-001,
          -3.9294293001559330e-002, 4.6133997678039690e-002,
          1.0809904306028822e-002, 1.1470131696580446e-001,
          -2.1804768745571682e-001, -2.5515442607775846e-001,
          -3.6404072172959373e-001, 1.3552499956349418e-001,
          4.2689518381020586e-001, -4.6353868996851871e-002,
          2.2762199202826491e-001, 5.0616383163289376e-002,
          1.5686746839156634e-001, -1.1997271041567671e-001,
          -3.3041570048665009e-002, 4.5459761876853438e-002,
          1.0214528697335176e-002, -2.2605707143525597e-002,
          2.2847932009330960e-001, -2.5611029794897772e-001,
          -3.6050087479186915e-001, 1.3606900645911119e-001,
          1.4652047099893240e-001, 2.7553048334383424e-002,
          4.5700008197887491e-002, 5.3563305576371935e-002,
          7.8758667595620335e-003, -2.1219561699605100e-001,
          -3.0310206096467510e-002, -5.4668074170921577e-001,
          1.6352873546755867e-002, -2.4070891408540968e-001,
          -9.2662179824752722e-002, -2.5553499897682147e-001,
          -3.6513198744945857e-001, 5.5255391454145020e-001,
          -7.7628976153924140e-002, -4.6226352165931427e-002,
          2.3321414006853378e-001, -4.7791258097141992e-002,
          1.5369642393715721e-001, -1.1867316783233099e-001,
          -4.1277309305327609e-002, -1.6293249929477971e-001,
          1.7022592849290169e-002, -6.0760804623343267e-002,
          -3.3295790809426157e-002, -2.5716548909967479e-001,
          -2.8495638549697178e-001, 5.5712720331594157e-001,
          -5.0437050718657742e-002, -2.8916894951134126e-001,
          -1.0118684796444390e-001, -7.4141867800828792e-002,
          5.8756787522260719e-002, -1.4159114661766115e-001,
          7.4117159795555554e-002, -3.6356196073744140e-001,
          -5.4229537574036472e-002, -4.0442994287291138e-002,
          4.1962793238767289e-002, 4.0681137508359687e-002,
          -7.0357858873797585e-002, 5.4889493133608758e-001,
          4.4398187100260528e-002, -2.9325288336786526e-001,
          -9.5738068897534376e-002, -7.5635431642689710e-002,
          5.9081677049523544e-002, -1.3768975962052815e-001,
          -5.7522106536123940e-002, -7.2974862408210239e-001,
          -3.0277640561417413e-001, 1.5838029295472339e-001,
          -6.1921958682593425e-002, 1.4015989621723797e-002,
          -1.5916845449778574e-001, -4.1682120845501346e-002,
          -1.5311689322361904e-001, 1.1227281898572872e-001,
          -4.9916479612068361e-002, 4.4197866919441325e-001,
          5.5660590817965185e-002, -4.3208841480450449e-001,
          9.0423747993398446e-002, -2.8266607700046614e-001,
          -4.0281241288882413e-001, 1.6414305167774720e-001,
          -6.3157752224798053e-002, -1.2050107301090121e-001,
          -1.5625881332435118e-001, 4.2287052122632590e-002,
          -1.8000154812160712e-001, 1.1087915849673832e-001,
          -5.0654066724404000e-002, 4.1063267758561742e-002,
          1.2432752480436807e-001, -1.8457580315591953e-002,
          3.4310837532272181e-002, -2.8106122297985331e-001,
          -4.0128748478759330e-001, 1.6068483496995165e+000,
          -6.5698413562340269e-002, -1.6969459152718502e-001,
          -5.4264081860096319e-002, -3.9971821138978958e-002,
          -1.5300453752985399e-001, 1.1062729373053104e-001,
          -5.1955522512191328e-002, 5.1550728327978010e-002,
          1.2711834989847387e-001, 4.7466660781127830e-002,
          3.5159721771495844e-002, -9.8488767994382498e-002,
          -1.4419572962952876e-001, -1.1343974671031623e-001,
          4.5611945651948420e-002, -1.9741144669255628e-001,
          -1.0429185598763327e-001, -5.4398450663883102e-002,
          -1.3123621281409287e-001, 3.0016237913285115e-001,
          -1.5723882118262805e-001, -5.8653911797222263e-002,
          -5.2926784156876783e-001, -2.6427201001327744e-002,
          3.8690401862518195e-002, -4.8119318212004283e-002,
          1.1272796597013252e-001, -2.6432007739802488e-001,
          2.2825918552211519e-001, -1.9696186897248519e-001,
          -1.0202418134457047e-001, -1.9023848947192765e-001,
          -4.8156910463727720e-001, 2.9820319286054969e-001,
          -1.6134224334391484e-001, -4.6532008464328284e-001,
          -5.3595805321572010e-001, 1.3660658584349977e-001,
          2.2631817307982713e-001, -5.6418050384344318e-002,
          1.2339245992645387e-001, -1.8043272756921427e-001,
          -9.4979926256631611e-002, -1.9821918205418354e-001,
          -3.6229779237114756e-001, -7.0611840461242137e-001,
          -4.6734337194569466e-002, 2.9823712112444389e-001,
          -1.5574165405610263e-001, -6.0196082288885444e-001,
          -5.3733409465522441e-001, 1.3713685134928949e-001,
          -6.3024099261282135e-002, -5.0172750690638465e-002,
          4.1744709954244780e-001, -1.3959791091499902e+000,
          5.9483821175967545e-002, 6.5983083991371858e-002,
          -3.6387729674280711e-001, -9.8699193658734849e-002,
          -4.5498433074329492e-002, 3.0106986925905987e-001,
          -1.6107895263051891e-001, -2.4157424855732876e-001,
          -5.3461016272577544e-001, 1.4166198716589876e-001,
          -4.3148198238784014e-001, 2.8984024933558966e-001,
          7.6394730888146090e-001, -1.8040060018519324e+000,
          5.7376388739153787e-002, 6.9066175457845089e-002,
          5.0973711813792386e-002, 1.8687709373345018e-002,
          5.5660109992328821e-001, -2.3804282680373223e-001,
          7.5048397991505356e-001, -4.4854968447409388e-001,
          8.8988104577480659e-002, -5.6703311265267717e-002,
          -3.6325997965852813e-002, 2.8317532120497091e-001,
          4.0492756895193743e-001, -1.3889335269686573e-001,
          1.2311614730246057e-001, 1.1449781216363299e-001,
          -3.6530131053782017e-001, 3.8578543866475350e-002,
          1.2970397794708091e+000, -4.6773753074835070e-002,
          2.3540400891290289e-001, -4.4859182490145205e-001,
          2.2387902183849417e-001, -1.1825840332933206e-001,
          -3.3275441544686327e-002, 2.8056818051275079e-001,
          3.9969974298340388e-001, 1.2548064999355929e-001,
          -2.2075178564714179e-001, 1.0705387007157163e-001,
          -2.4642655992091213e-003, 1.3587953811578368e-001,
          1.3003234927933827e+000, -4.5954333195266414e-002,
          2.3102671053965448e-001, 5.0763712571630197e-002,
          1.5633720253561828e-001, -1.1867381921698821e-001,
          -3.1526270066663455e-002, 5.3651137788028755e-002,
          1.1291909546373283e-002, 1.2251224932014224e-001,
          9.3121768711820388e-002, 1.0133432425973057e-001,
          -2.9864956543551187e-003, 5.4554537504235001e-001,
          1.4605060655008950e-001, -4.6693524860188684e-002,
          2.2780403872870700e-001, 8.0689179922733167e-002,
          1.5533952556134534e-001, -1.2003523245864015e-001,
          -4.0909911601399465e-002, -5.4231764798195359e-001,
          9.6978968690160511e-003, 2.0302172818974749e-002,
          5.0428400886232634e-002, -2.5740888599499795e-001,
          -3.6094691625378034e-001, 5.5282741870958385e-001,
          -7.9955717073237634e-002, -4.6882375021668685e-002,
          2.3741905243314596e-001, 8.8758873976857749e-002,
          1.6330705513752874e-001, -1.2179984129250193e-001,
          -3.2194122637613995e-002, -5.4021077952882202e-001,
          1.3756440295707439e-002, -5.3876253946666133e-002,
          4.3591202105268324e-002, -2.6050491596905617e-001,
          -3.7174771376876264e-001, -1.3014223485352256e+000,
          -7.4309093627304965e-002, 4.5700999536768503e+000,
          2.2858814843000716e-001, 3.7913737514768631e-001,
          7.9621565371816458e-002, -1.2817798058303156e-001,
          -3.0385964680535092e-002, -1.6167330643206784e-001,
          -5.1038959839690028e-002, -1.1359270976021581e-001,
          2.1551217978486226e-001, -2.5912740519406380e-001,
          -9.1480541191448284e-001, 5.4882567290398243e-001,
          -9.6810445219125095e-003, 2.0020899034948506e-001,
          -1.0850265028273207e+000, -7.6824585010119462e-002,
          5.4580837010072443e-002, 1.1009359202102176e+000,
          4.5841982166156665e+000, -1.2228262563876726e+000,
          1.4306192312659749e-001, 1.7474094796692712e+000,
          -4.3504096873829399e+000, 1.6399350066665411e-001,
          1.0283829869943201e-001, 5.5212001395270427e-001,
          7.5522526930988765e-002, 4.4547639336111472e-002,
          -9.5597810642993511e-002, -3.0254218992354170e-001,
          6.2415362189931052e-002, -1.3550056684490303e-001,
          4.8932334695865204e-001, -3.5662742635021560e-001,
          -3.0158587372492468e-001, 9.4573396084983455e-002,
          4.3832377633995397e-002, 1.7266919192772304e-001,
          -1.6036633070885101e-001, 3.8932512308889056e-002,
          6.5776341041900915e-002, 1.1087926261122977e-001,
          -5.1241675816705280e-002, 1.0301736015768159e-001,
          8.5262751681658255e-002, -1.3516899728114040e-001,
          1.5439771997578153e-001, -9.6279855082956889e-002,
          -1.4141248126957351e-001, 5.9425184437358292e-001,
          -5.9779485964557420e-002, -3.4388661923618330e-001,
          -1.5532386008223478e-001, -2.5269285618076408e-002,
          8.0563532307596428e-002, 1.1236204267341920e-001,
          -4.6736841347140630e-002, 5.0943940268229473e-002,
          -1.3495486357309822e-002, -1.9768632441215721e-002,
          3.2230545319763118e-002, -9.6389979809138937e-002,
          -1.3915011086025680e-001, -1.3938475327606312e-002,
          -6.5728391070762254e-002, -1.1390334058754123e-002,
          -5.0576736611428169e-002, -5.1044155125740842e-002,
          -1.4660670102885631e-001, 1.0992059578579380e-001,
          -5.1176183450187381e-002, -5.0819413595550984e-002,
          -1.0008467615644071e-002, 4.5914665873110737e-002,
          3.6754301520077484e-002, 5.6717973582987857e-002,
          1.1480683702111422e-001, -1.2302626064949967e-001,
          2.8306512168229381e-001, -1.9086624444805983e-001,
          -1.6686473995629525e-001, -1.9268740146909633e-001,
          4.9299365621830231e-002, 3.8762271162353429e-001,
          -1.6268094602841376e-001, -5.2075929455564163e-001,
          -5.3222297995498791e-001, 1.3838507086581314e-001,
          3.3191220190934317e-002, 7.2093973373503151e-001,
          1.1228267216318011e-001, -4.1462634762748146e-001,
          -9.2753039447828853e-002, -1.9351772198390865e-001,
          -1.0031871505677145e-001, -7.1483227638591207e-001,
          5.0805661647294977e-002, 1.2857089638680610e-001,
          -1.6268354906898163e-003, -5.9855515972517159e-001,
          -2.1996932095326099e-001, 2.7549585281603062e-001,
          2.2980500539677981e-001, -5.4347580596996667e-002,
          1.1269517139396029e-001, -1.8794175597734716e-001,
          1.2596965197894047e-001, -1.9844673676570312e-001,
          -3.6604870412167201e-001, -7.0792208766625397e-001,
          -3.8457164762057190e-002, 2.9715794939450918e-001,
          -1.5436017448874123e-001, -5.9827690746042328e-001,
          -5.3424367274744544e-001, 1.3355150906376406e-001,
          -6.7403403961000391e-002, -4.8031015550318343e-002,
          4.1251675791708281e-001, -1.2678253188312805e+000,
          6.2640863971064678e-002, 6.7559632356913604e-002,
          -3.6213718823447782e-001, -5.9214848297059230e-001,
          4.0360055647140389e-002, -2.4054750498759281e-001,
          7.4276240307663521e-001, -4.4379703322600494e-001,
          9.0941736552291125e-002, -5.3048300196289026e-002,
          -3.9919134957281652e-002, 2.8831322456622754e-001,
          4.0028066854793715e-001, -4.2610462348914063e-001,
          1.2407114096871771e-001, 4.1248031676572477e-001,
          -3.6848850055916194e-001, 1.8693056682996784e-002,
          5.6405630875265111e-001, -5.4625326018795134e-002,
          7.4584305811443163e-001, -4.4495883458812002e-001,
          8.3602474131377391e-002, -1.2713769075472589e-001,
          -4.0668069271071347e-002, 2.8044009137020087e-001,
          4.0426197095730726e-001, -1.9989831655689919e-001,
          1.2043947471973818e-001, 1.1788926412638887e-001,
          1.2703874446694963e-001, 1.3366374438733300e-001,
          5.6666586147282849e-001, -4.7007867291343292e-002,
          2.3520488298458894e-001, -2.7805038915425651e-001,
          1.2913853981449121e-002, -1.2772553490269109e-001,
          -3.9917610203468470e-002, 2.8014603350823913e-001,
          1.0962202733257112e-002, 1.0350327408772615e-001,
          3.5797650612041887e-001, 1.0057110446276052e-001,
          3.4521051903894221e-003, 2.3343358577811113e-001,
          1.3067883201622281e+000, -4.8211970872149540e-002,
          2.2927076702629481e-001, -4.0505318919007965e-002,
          1.8039212129971314e-002, -1.2480577147214175e-001,
          -4.1853768426132587e-002, -5.0333101835502811e-002,
          6.2419736900928297e-003, 1.1533794798462838e-001,
          3.5633584889610492e-001, -2.5789047537661763e-001,
          -3.6311020453369097e-001, 5.5544041468496497e-001,
          1.4260949546318857e-001, -5.1445661620269548e-002,
          2.2994117456480687e-001, 3.8723707897012266e-002,
          1.6371634637154309e-001, -1.1621585703694208e-001,
          -3.2820019421121838e-002, -5.4314341188434989e-001,
          1.2098775495449091e-002, 1.9157903306360545e-002,
          4.2618161834643294e-002, -2.6646607832414265e-001,
          -6.0173722056611357e-003, 5.5269386957222322e-001,
          -7.9155899540570229e-002, -5.4961367562840799e-002,
          2.3055854148861235e-001, 7.9877822388595143e-002,
          1.5414422773322994e-001, -1.1649130661162488e-001,
          -4.0408130861372765e-002, -5.4815204326107303e-001,
          1.5348302360198308e-002, 1.8080168756331910e-001,
          4.3479499355484223e-002, -2.6595392895242026e-001,
          -3.7044135510648563e-001, 5.4632684991032554e-001,
          -7.1905671565715965e-002, 5.1324157192114550e-001,
          -2.2412315515748859e-002, 8.6105974859355144e-002,
          1.6032134974441942e-001, 3.1947019484632984e+000,
          -4.0358688949004420e-002, -5.4445796140681191e-001,
          -5.0177010899335996e-002, 1.7986435850632759e-001,
          2.1070212318220394e-001, -2.5751350081289121e-001,
          -1.0161686623286084e+000, 5.4923306040551423e-001,
          1.0750005518388814e-001, 4.2569745795177028e-002,
          -2.8766375227521890e-001, -3.0847273469455794e-001,
          8.4927018106997682e-002, -1.4058005549254465e-001,
          5.9860295155370258e-001, -3.6043427073545264e-001,
          -1.4597386357456382e-001, 1.2672205674726858e-001,
          4.7899188477748329e-002, -3.3416001991617200e-001,
          -6.4852569418790862e-002, 3.5260041570596978e-002,
          1.0699107250614512e-001, 1.1304237378415505e-001,
          -2.8993946764632367e-001, -7.1700068656640956e-002,
          5.3193825213497158e-002, 1.1948755965175233e-001,
          2.9879039966182402e-001, -3.5129938371018909e-001,
          -1.4292483057867877e-001, 1.3287623502644005e-001,
          5.1723036868242915e-002, -3.3652200796364423e-001,
          1.6349580133449507e-001, 3.7658001456380374e-002,
          -1.5221206666301534e-001, 1.1087319298530326e-001,
          -2.9711099447506389e-001, 9.8723700648638141e-002,
          7.8346260939136908e-002, 2.0681748087857627e-001,
          4.1449598807435234e-002, 1.5894092003045157e-001,
          -1.3775361345998094e-001, 3.3230893345305046e-002,
          4.5447049930929122e-002, -7.8773504371048797e-002,
          2.9792757214991905e-001, -5.8217502619804629e-002,
          -1.4549206819543492e-001, 1.1278239623011488e-001,
          -5.0876189500227813e-002, 4.5431399937864742e-002,
          -1.6492111818269609e-002, -2.0965219190484215e-002,
          3.1589569742426334e-002, -9.4425952783594558e-002,
          -3.9966516364366472e-001, 5.2093436865346110e-001,
          -5.7646593637575287e-002, -3.3268531963690208e-002,
          1.6415104882859519e-001, -1.9961222341726362e-001,
          -1.5570101207319453e-001, -3.6376290237463818e-002,
          -4.6631636529575464e-002, -5.7656567194716818e-002,
          -7.5196099161151247e-003, 3.7115940159074240e-002,
          4.1967905140314524e-002, 6.4907800319213046e-002,
          -6.9844470863754549e-003, 1.1324387171167942e-001,
          2.8333864710619100e-001, -3.9182842542788886e-002,
          4.1968011513061082e-001, -1.5313916474569783e-001,
          -1.3639172360532508e-003, 1.2284563148197949e-001,
          -5.0138245703158037e-002, -4.6660317577094340e-001,
          -1.3713967688011572e-002, 1.7844777518085134e-001,
          -2.5953417176725585e-001, 5.7300914542605677e-002,
          1.2261014987424382e-001, 1.0064705569760886e-001,
          1.0255968289177364e-001, -3.3272414189903808e-002,
          -1.3127774805873793e-001, -5.9904492930394904e-001,
          -2.9252078466564095e-003, -3.4322026207565887e-002,
          -5.2800659091762354e-002, -6.0737163763486324e-001,
          -1.7273788867654599e-002, 2.7171575264629461e-001,
          -4.1693180207298791e-001, 5.3855859576418308e-001,
          4.1763627222071825e-001, -4.9854934668046608e-001,
          1.1994958073141263e-001, 3.1365347154325811e-002,
          -1.6006672730718208e-001, -5.8854378727266288e-001,
          -7.0243870005024694e-004, -2.7755656226356482e-002,
          2.1912953416027275e-001, -2.4495915602671955e-001,
          -1.2809458816412836e-002, 2.7369537199114335e-001,
          -1.3179626846928361e+000, 5.4781114477064807e-001,
          7.6314334697278452e-001, -5.0178780375281873e-001,
          1.3006379124783632e-001, 2.4945344317984234e-002,
          -1.5389146586104599e-001, -5.3847829927719582e-002,
          1.1150605260358161e-001, -7.4911183968387152e-001,
          5.3456669018935321e-001, -4.4306713986634594e-001,
          3.1851743931185195e-001, -1.2551271689543111e-001,
          -2.2349453091348373e-001, 5.4669709603679084e-001,
          4.0126464571757597e-001, -2.0123281443697907e-001,
          1.2805934864978283e-001, 3.4870794824000523e-001,
          -4.3306481224792754e-004, 2.3952580507347228e-002,
          2.7449373397672400e-001, -2.3974718135441270e-001,
          5.3805395460758498e-001, -4.3920955476309698e-001,
          2.6300591306306859e-001, -1.2301825698401980e-001,
          -2.3017308523563304e-001, 1.0054110444216535e+000,
          1.2918186221789862e-002, 3.5584724055590566e-001,
          3.5680020689836411e-001, 4.3405816036538029e-002,
          1.2655199812865681e-001, 2.1261102070710275e-002,
          4.2543022893470012e-001, -2.3265006117535267e-001,
          7.4668130396838783e-001, -2.7965859494869888e-001,
          1.8943431538134079e-002, -1.1913155528057222e-001,
          -4.1638382113083378e-002, 2.9030056473462867e-001,
          1.7517353336690786e-002, 1.0035975203677956e-001,
          3.5581846127348493e-001, 5.1131735320380893e-003,
          1.2488676728881495e-001, 4.9318274868792844e-001,
          7.5401404441929532e-001, -5.6749744080168821e-002,
          2.3746918939990100e-001, -2.6452654225237706e-002,
          1.7700303473074003e-001, -1.2702587735593363e-001,
          -3.5027061352795041e-002, 2.8601382079004084e-001,
          7.2043297760977527e-003, 1.5216884873799078e-001,
          1.0032373432098421e-001, -2.6658869306081984e-001,
          -6.4402025392177754e-003, 5.4886511408269900e-001,
          2.5996882947729633e-002, -4.8999443077370211e-002,
          2.3109629551670227e-001, 8.2422181468075811e-002,
          1.5910585750220219e-001, -1.1949935120842806e-001,
          -3.8154470362876405e-002, -5.4405600743955007e-001,
          1.7920387740454846e-002, 2.5001294561002856e-002,
          5.2643414753751915e-002, -2.6524476034857863e-001,
          -3.6209856240334898e-001, 5.5565753458954825e-001,
          2.1337075889731317e-002, 2.5374829584954767e-002,
          -2.1308091295071241e-001, -7.6448535386791860e-002,
          1.4263062141314758e-002, -2.1338424004861031e-001,
          6.4584756372706248e-002, -5.4281195393527337e-001,
          -5.4284491382424895e-002, 4.5336318856772168e-001,
          7.3933244040294130e-003, -2.6071105607630080e-001,
          -3.6369929424183994e-001, 5.5438461151139395e-001,
          -7.6384667886682786e-002, 5.1987735370035326e-001,
          -2.3908339953760998e-002, 8.2911145573508205e-002,
          1.5673047108815374e-001, 3.1888964392904908e+000,
          -4.0605332910517350e-002, -5.4177276625317927e-001,
          -4.7676737959399022e-002, 1.8055208658060606e-001,
          2.0591876603405879e-001, -2.6317781981228300e-001,
          -2.7790809386533549e-001, 4.3576952374415751e-002,
          1.1822074170129157e-001, -5.0948497366867018e+000,
          -1.0820031101482248e+000, -3.0441673954880127e-001,
          8.0718333998794745e-002, 1.4817090350922073e+000,
          4.5836740577059913e+000, -1.0259725383561609e+000,
          1.9369154480318957e+000, -3.4648612204406726e-001,
          9.0517577530459178e-003, -2.6287875353255696e-001,
          -4.4557105673643255e-001, 3.8147498584713002e-002,
          1.0526553877169970e-001, 2.3383103585592455e-001,
          -7.4671252459137516e-001, 1.0019339763748544e-001,
          -5.9776194582527135e-002, 1.2050396111098961e-001,
          3.9661854650770659e-003, 5.7821301052065851e-004,
          -1.4166970604457774e-001, 4.9928821907935753e-002,
          8.0714845311589400e-003, -2.0744419951429707e-001,
          1.6041509798335560e-001, 3.7368419329298103e-002,
          -1.4590649086525498e-001, 1.1967127572448122e-001,
          -2.8776549488984515e-001, 1.0394266358427626e-001,
          7.8926670914846869e-002, 1.2020872131677911e-001,
          3.8785086855538109e-002, -9.4529797364352658e-002,
          -4.0189192105855326e-001, 2.2227088853714025e-001,
          4.7141945100507197e-002, -7.3200478457663254e-002,
          1.5761886920876764e-001, -5.3121487824163358e-002,
          -1.4878966845176056e-001, 1.1136372389461113e-001,
          -2.9711880612140579e-001, 1.0881299314055090e-001,
          -7.9884787031828164e-002, 2.1077378766171817e-001,
          3.0688058129135391e-002, -9.9604651249543319e-002,
          -3.9967790055189117e-001, 1.8965520743692302e-001,
          5.2001956215387078e-002, 1.0604008416616772e-002,
          2.8782950027404586e-001, -1.4040180027742510e-001,
          7.1328996941444844e-002, -2.5364372251786227e-002,
          -4.5127816156265828e-002, -5.4129283318001091e-002,
          -3.7645181904698087e-002, -2.2375947595536790e-002,
          3.0726729739053691e-002, 6.1289924681483997e-002,
          -8.7094137044127634e-003, 2.0890966433229186e-001,
          9.6589584421853558e-002, -3.0460138518574452e-002,
          1.6252969422353833e-001, -5.4578034075411908e-001,
          3.2239364866707304e-003, -4.5742106946621991e-001,
          -5.2010575658862544e-002, -8.0375753655068327e-002,
          -3.5859474564537357e-002, 1.7973781389125396e-001,
          -3.6234642813833828e-001, 6.2753375048421225e-002,
          -6.6930325172261402e-003, -5.7116016555096505e-001,
          3.5181174530771187e-001, 2.6160906056874472e-001,
          -5.4840385855897039e-002, -5.8906555943065864e-001,
          -6.0940927411518298e-003, -4.5666843094811077e-001,
          5.3856782223987187e-001, -8.8878823665811846e-002,
          -3.1746580470189099e-002, -1.2709271420233642e-001,
          -3.0652360144441132e-001, 5.9809038053643508e-002,
          1.9570191138558385e-001, -2.3350685642657819e-002,
          3.5141627778877205e-001, -1.3636151814644046e-001,
          1.3358810932755724e-001, -5.5763829914920060e-001,
          -7.2775360606719103e-002, -4.5488025958930128e-001,
          5.3851531530334562e-001, -7.9171515225219868e-002,
          3.2306692887959398e-001, -1.2742168556868319e-001,
          -6.5533728471035446e-001, 5.4394395837119780e-001,
          3.9892995335164028e-001, -5.6339760470954670e-001,
          3.5405717534095038e-001, 3.5004275555937753e-001,
          3.6199947703232715e-001, -2.1968079030716481e-001,
          1.3971045515001129e-001, -4.4850276671092826e-001,
          5.3501425408500014e-001, -2.5987573311671425e-003,
          2.7069752230128225e-001, -1.1748176158008396e-001,
          -3.0070928282838016e-001, 5.4041758311837340e-001,
          1.3684725199100289e-001, 3.3247835388090108e-001,
          3.5103108491583745e-001, 4.8062687479568039e-001,
          3.6298716232664663e-001, 3.8191138376240066e-002,
          1.4612991694169825e-001, -4.5563278059751217e-001,
          5.3055024332534872e-001, -5.7591376788581209e-003,
          2.7100179318001455e-001, -1.2199282088984166e-001,
          -5.9723030522383458e-001, 2.2722544225435451e-001,
          -1.1342739572442917e-001, 3.3683876275625058e-001,
          3.6077052187857606e-001, 3.6125509856125858e-002,
          5.1819541979001715e-001, 2.4943339745824307e-002,
          1.1932255618297144e-001, -5.0339814060922666e-002,
          7.4799204452818013e-001, 1.4610339690825291e-001,
          2.6243185333612123e-001, -4.2730905407858649e-001,
          -1.8739965638770906e-001, 3.8471961355818218e-001,
          1.8310468456741405e-002, 3.5373504782623300e-001,
          9.1317822374437890e-002, 6.2995645365291134e-002,
          1.3213960431555033e-001, 7.3448153987363862e-001,
          -7.0856167172510809e-002, -4.7517186901349998e-002,
          2.3616078481090966e-001, -3.2482985059786043e-002,
          1.4736499777560698e-002, -1.1981162114472163e-001,
          -3.8050373543538338e-002, -1.6179736892108271e-001,
          1.6980840909515710e-002, -1.5331255897342741e-001,
          2.8927332394709349e-001, -5.7811738843327500e-002,
          -3.6829692904120231e-001, 5.5440660755457016e-001,
          2.4743599678678747e-002, -5.5705990627618038e-002,
          -2.2832974192789717e-002, 8.8942473681616396e-002,
          1.5306860663933902e-001, -4.3025751512093963e-001,
          -3.5783705643607028e-002, -5.3985913717121037e-001,
          -1.7912345788287370e-001, 4.0557278001598324e-001,
          4.9697272437808214e-002, -2.6139895543433539e-001,
          -3.6158542675750266e-001, 5.5475837489479485e-001,
          1.0138578835145955e-001, 3.2253328644327089e-002,
          -2.2221451670741837e-001, -8.1869415286056180e-002,
          1.5490525182899084e-001, -2.6513720699736537e-001,
          6.9212857295165131e-002, -5.3661579963187522e-001,
          -2.9571161849377431e-001, 4.1422375088565805e-001,
          5.6030882209995711e-003, -2.5554352774506744e-001,
          -7.5167519008777051e-001, 5.5540900911367075e-001,
          -1.5165914078990018e-002, 2.5306574534967929e-002,
          -2.2098401504245863e-001, -7.7976821965200671e-002,
          -3.2688344641651890e-001, 2.2181131374863966e-002,
          6.9334985135941635e-002, -5.4295195477967662e-001,
          -2.9678671277626406e-001, 1.8657567071399039e-001,
          3.7247901921437518e-003, -2.6044660144311521e-001,
          -4.4797213444465289e-001, -3.7554421239614180e-002,
          -2.9159394547849375e-002, 2.3486947988772497e-001,
          -7.4292643213474396e-001, 1.0537943541379932e-001,
          -6.0934990026437479e-002, 1.2173577018138472e-001,
          1.2466218161921232e-001, 5.1102199785036332e-003,
          -3.9511775536930099e-001, -4.9361816928793342e-003,
          2.9516680374491603e-003, -1.6161355973202968e-002,
          1.5671530855092727e-001, -2.1326932381659502e-002,
          -2.1015660469454654e-002, 2.4123935606527575e-001,
          -7.4385061332713354e-001, 1.0788191882178219e-001,
          -6.7491201088279537e-002, 1.2346957710568851e-001,
          3.8840757095043124e-003, 4.9758049725748214e-003,
          -4.0265250290617022e-001, 1.6244168885700497e-001,
          -1.2793521982088288e-001, -1.3275050276067003e-002,
          1.5663652195554714e-001, -2.9143841863179809e-002,
          -1.4761963219034657e-001, 2.3184139207679957e-001,
          -7.4336789921755964e-001, 1.0895459136869981e-001,
          -8.9020242777514719e-002, 1.2686923378715084e-001,
          4.1829073685249962e-002, -3.5876362368187242e-001,
          -3.9675459238175798e-001, 1.5417878873317062e-001,
          -1.2445505398810355e-001, 1.7026367792544375e-001,
          1.6430876020388360e-001, -3.8211462788591326e-002,
          -1.5239664424195232e-001, 1.1405543376238225e-001,
          -2.9064792970867837e-001, 9.8298317863132201e-002,
          -8.0423421446416121e-002, 1.2180818573618583e-001,
          4.1540552668283798e-002, -9.6492511803715403e-002,
          -4.0023311869407646e-001, 5.3452158364522229e-001,
          -6.3549300774675133e-002, 1.5798611917360039e-002,
          2.9861004309175931e-001, -1.3942334745487228e-001,
          -1.4514255280004407e-001, -2.7219808575883814e-002,
          -4.8337106687076005e-002, 1.9862691549381369e-002,
          -7.8799924352912831e-002, 1.1894725742659888e-001,
          3.5617865145717839e-002, 6.3431269606807950e-002,
          -4.0023290932542394e-001, 2.0026753046808354e-001,
          9.5416052868033258e-002, 8.9516086866408186e-003,
          2.8879891195478169e-001, -5.5459316215702947e-001,
          7.8926583115475207e-002, -4.5238990097132847e-001,
          2.1321358717555244e-001, -8.6772814237620566e-002,
          -3.5564354508306951e-002, -4.3275986839918251e-001,
          -3.7162056039128788e-001, 5.9141804157598503e-002,
          -6.3572758582644290e-003, -9.8801420724073186e-001,
          3.5607184890032095e-001, 2.6129957175700608e-001,
          2.9791686355726626e-001, -2.2549845929777157e-001,
          7.1694294812681580e-002, -4.5126129904148315e-001,
          2.1436787653674944e-001, -8.5675421910044652e-002,
          -3.6106231166582868e-002, 2.0327361188953827e-002,
          -2.5481761308888989e-001, 6.5909232676147164e-002,
          -1.6437358257934659e-002, 1.2389251715691972e-001,
          3.5395935064555717e-001, 3.4790489355842874e-001,
          -4.2419655708403423e-003, -2.2358065348325040e-001,
          5.2669909241594248e-001, -4.5583895149268633e-001,
          2.1553666926368370e-001, -7.7235159400057318e-002,
          2.6205789455727285e-001, -1.2273852739411661e-001,
          -2.5445267985523140e-001, 6.7705803477792675e-002,
          -1.1065170325383067e-001, 1.4033179363497170e-001,
          3.5185102993891459e-001, -6.1255566999899157e-003,
          3.5978990896217756e-003, -2.1684016847145582e-001,
          5.3785519719284058e-001, -4.5108200960168598e-001,
          2.1642420324467032e-001, 7.6827586423827143e-002,
          2.6387454859445542e-001, -1.1642427986350092e-001,
          -1.3194602680632290e+000, 6.5229311512855354e-002,
          -5.2964965222414624e-002, 4.9134339237417418e-001,
          3.5274929320646686e-001, -1.3984019251201846e-002,
          3.7051259224268995e-001, -1.2944130230342754e-001,
          -3.7313044160780129e-002, -4.5615649282067888e-001,
          2.1742035942944254e-001, 8.5472666115521401e-002,
          2.7023870089437457e-001, -4.2873378225372910e-001,
          -1.3157240260283698e+000, -4.3219945382757335e-002,
          -4.7218937751677577e-002, 6.0348070078818339e-001,
          3.6051190216732787e-001, -5.4697608249726422e-002,
          3.6658492969478251e-001, 3.8936253639266644e-002,
          -2.9930750803686301e-001, -4.6014993572274937e-001,
          2.1707420739989164e-001, 5.2197915493782410e-001,
          1.1562872073280110e-001, -4.3118919877706358e-001,
          -1.3148560962201319e+000, -4.5318531510852203e-002,
          -2.1723652749726408e-001, 1.1701248697899780e+000,
          1.0243039297599277e-001, -1.1570589661474960e-001,
          3.6874258260271009e-001, 3.1037315305081470e-001,
          -2.1529858598527030e-001, -1.4189874873540703e-001,
          1.6142112168545819e-001, -2.4516928975333526e-002,
          1.1859370110061034e-001, -4.2959842427265321e-001,
          -2.2384212504635290e-001, -2.2005539761157339e-001,
          -1.7361051919846276e-001, -8.9209372067324086e-002,
          2.8378432780966123e-001, -6.4657304263101303e-002,
          -7.4482320207428165e-001, 5.5074899110530562e-001,
          -7.7906475562833491e-002, -1.2965858392537313e-001,
          -2.1690797287265490e-001, 8.5559069023966206e-002,
          1.7466973338702785e-002, 2.3869969281822473e-002,
          5.6397565733088961e-001, -6.3805970355105213e-002,
          -2.9585701159295502e-001, 4.0983603874113800e-001,
          2.9705672167978378e-003, -2.6444628452947266e-001,
          -7.4719909426918873e-001, 5.5454913133037098e-001,
          9.6887649757344166e-002, 4.5116251395070772e-001,
          -2.2132907504862914e-001, -8.4577667631347442e-002,
          -2.6544427708343271e-001, 4.3271778856823301e-001,
          5.6443123018584451e-001, -5.6009646550861922e-002,
          -2.9684527320360216e-001, -4.1604805615051192e-002,
          -3.5132459579679842e-001, -1.0296357655798749e-001,
          -2.9878232583991632e-001, 2.1795541717150829e-001,
          -3.2351538572588698e-002, 1.3000784730546047e-001,
          -3.6962579511885579e-001, -7.9168391208036232e-002,
          -8.1812420629116062e-002, -1.8058545216210883e-001,
          5.6333098777005142e-001, -1.3044029218055822e-001,
          -3.0028644680391531e-001, -2.5751589701246347e-001,
          3.5811178435437860e-003, 1.2085315625389975e-002,
          -3.5612420622913171e-002, -2.6726237416808470e-002,
          2.3531816386630922e-001, 2.3281181687948430e-001,
          -7.4810818812587543e-001, 1.0032749897754181e-001,
          -7.1709593493328283e-002, 1.1613083006552301e-001,
          1.6146548336150063e-001, 7.9894612153591071e-003,
          -3.9966190847374000e-001, 1.7295381127800977e-001,
          -7.2557415528096869e-001, -1.1264712774937319e-002,
          1.5808529401382390e-001, -2.4594050269414282e-002,
          2.3677901985835964e-001, 2.2926856427223638e-001,
          -7.4314841175828128e-001, 1.0146100975316172e-001,
          8.3992335221564463e-002, 1.2162739980954242e-001,
          3.6525899328547690e-002, 7.3187101214530143e-003,
          -4.0500196408203565e-001, 1.6220162122822027e-001,
          -1.1893925393780594e-001, -1.1938829367200077e-002,
          1.6256021122327721e-001, 1.7315511821816298e-002,
          2.3202304300355481e-001, 1.1434325446563998e-001,
          -2.9432811413717963e-001, 1.0832917050803412e-001,
          7.4875484662759673e-002, 1.2391338928633648e-001,
          3.7229008305260339e-002, -3.5417070824569197e-001,
          -1.7663190458202443e-002, 1.7063533782397386e-001,
          -6.0955450997049250e-002, -8.7031226822466608e-003,
          1.5704572364518057e-001, -1.2784730235042821e-001,
          7.8430938805109596e-002, 1.1424164987547650e-001,
          -2.9501404044197066e-001, 1.0526859307247891e-001,
          2.1241836564455918e-001, 1.1752672288259608e-001,
          2.2654834473305754e-001, -3.5166915030969192e-001,
          -6.5959079197190785e-003, 1.6081477935843400e-001,
          -6.6886157315272893e-002, 1.7019933296588038e-001,
          2.8969050622139858e-001, -5.4615747927164926e-001,
          7.9347458386550274e-002, -4.6001717787041069e-001,
          -2.8945243886820787e-001, 9.8063856699797280e-002,
          -8.2844897379929450e-002, -2.6560531541071398e-002,
          3.6291310583839359e-002, -9.2132957431097812e-002,
          -9.7248345616602200e-003, 5.7197263996764558e-002,
          9.7365466886241731e-002, -1.0942380862931782e-001,
          1.5978086108174985e-001, -2.1532728906614834e-001,
          7.8947861028275543e-002, -4.5973441778522423e-001,
          -2.9456067689937909e-001, -5.9605306798571596e-003,
          -8.7869238702798391e-002, -1.8701045095549262e-002,
          -2.6277216935301001e-001, 5.9964039723359223e-002,
          -1.1443560672696390e-002, 1.3991679527114456e-001,
          3.5923937731208588e-001, -8.6622001101292520e-002,
          1.0298306928982030e-001, -2.1426368061909934e-001,
          -9.3588106476737890e-002, -4.5397969939050387e-001,
          -2.9192243094334092e-001, -8.5651579354416134e-003,
          -8.2521736382257516e-002, 1.8882312499968482e-001,
          -2.6148105189471532e-001, 6.2863163567858482e-002,
          1.7819546439247808e-001, 6.4427208453260790e-002,
          3.5911500676254504e-001, -9.2928740413100383e-002,
          -1.6367025725282283e-001, -2.2490268405116431e-001,
          6.2489452937146188e-002, -4.4862813165228776e-001,
          5.1351234829689084e-002, -1.0298349536149370e-002,
          1.1632145980764057e-001, 1.8805247058924282e-001,
          -2.5698079544828473e-001, 6.5477944547026587e-002,
          1.7262252497284908e-001, -1.9155529926510151e-001,
          3.6116906358619516e-001, -9.1697242329370196e-002,
          3.6821279632704433e-003, -2.2216507578427258e-001,
          -3.7167124841282762e-002, -4.5509742251983637e-001,
          5.1773042519907657e-002, 4.4137105341495281e-001,
          1.1412012655168040e-001, -1.2200312382611771e-001,
          -5.6221261564602876e-001, -4.6204279809836671e-002,
          3.0091716232426541e-001, -1.9564001482707694e-001,
          3.5224268762702771e-001, -1.1585555691062190e-001,
          3.6156003538510140e-001, -1.2603819267954064e-001,
          -3.1678610450567676e-002, -4.5109066507020190e-001,
          5.2443888244245611e-002, 4.4054882325990047e-001,
          1.1895774732725821e-001, -4.3032068168693682e-001,
          -5.6888715924627320e-001, -4.5784868016550226e-002,
          -4.8768379951739250e-002, 7.8820087968893934e-002,
          3.5232781555092674e-001, -1.1968392589836924e-001,
          3.6171314509179697e-001, -1.2237628277491353e-001,
          -2.9922999862505889e-001, -4.5852015503495097e-001,
          2.1298670864848074e-001, 1.2407261027373047e-001,
          1.1915848353716234e-001, -4.2911296176198738e-001,
          -1.3169706586882637e+000, -4.9200333449602715e-002,
          -4.8804905996087174e-002, 2.5901946954388128e-001,
          3.5081535032694861e-001, -1.1437966637532752e-001,
          -6.0503272586961789e-002, 4.2224124598089957e-001,
          -3.3606387586762076e-001, -4.0698734457713370e-001,
          -3.6291279463669196e-001, -8.2327464006741069e-001,
          1.1619497148783391e-001, -4.0264329377053439e-002,
          -2.5569638968809699e-001, -2.2228049779487352e-001,
          -3.0388169726033626e-001, 2.4268353646982346e-001,
          2.2596393764268138e-001, 8.6170707541605607e-002,
          -3.7558578064862597e-002, 2.1930859074674763e-001,
          6.5701147034639903e-002, 7.7577450807036520e-004,
          -9.6692294393686665e-002, -3.1012074356610903e-001,
          5.7689860364195315e-002, 1.1238274322018522e-001,
          1.9391528876903252e-001, -3.6098801758715571e-001,
          -3.0448659439994769e-001, 2.5571212477337785e-001,
          5.0572528501183246e-002, 2.2414366958592783e-002,
          -4.4961768751585296e-001, 2.2574864194741112e-001,
          -5.5967245788118167e-002, 1.2581288539071581e-001,
          -3.6441678210334422e-001, -3.0127960028791040e-001,
          -6.1894350549740261e-002, 4.2888299388913048e-001,
          1.6883264641987183e-001, 7.2594920462874741e-003,
          -3.0454044550350096e-001, -1.2337548997152353e-001,
          4.0936735465188509e-003, 4.8488332314278328e-002,
          -3.6612133471542141e-001, -1.3987448283574427e-001,
          3.8067923324295788e-002, 4.5491440100407504e-001,
          -5.0307111444294415e-002, -4.4004137761206102e-001,
          -1.2585541873638267e-001, 4.2754154995329857e-001,
          4.9386796196358246e-001, 4.7719785350752664e-002,
          8.2139879029158563e-002, -6.9975101464402356e-001,
          -3.5416872825997969e-001, 1.1949781229927806e-001,
          1.5738921039902923e-001, 1.0489942945205701e-002,
          2.3483607214248792e-001, 1.1256870747323627e-001,
          -2.9345831992698757e-001, 1.0220904075641865e-001,
          8.1730299991830985e-002, 2.1151512255107496e-001,
          3.8123270913488230e-002, -3.6293751714455802e-001,
          -7.0037960948051859e-003, 1.7290578470943954e-001,
          -5.4628374665308432e-001, 6.9796771594932444e-002,
          1.2905735603911328e-001, -2.4696151891799141e-002,
          2.3471941669987947e-001, 2.2563276429217846e-001,
          -1.5535620969483555e-001, 4.5766013684681570e-002,
          -1.2307560327043902e-001, 1.2281021117759233e-001,
          2.2541832373406159e-001, -4.5761048754478778e-001,
          -1.3120786436971690e-002, 1.7474482518042098e-001,
          -7.2229045863183283e-001, 6.1971337022558179e-002,
          1.2319335785039744e-001, 9.1108406814799162e-003,
          3.3602491027510545e-001, 4.0685403998053593e-001,
          -2.1313135225847024e-001, 1.0717377014104301e-001,
          -8.0229132604186543e-002, -2.3004903176737295e-002,
          2.2527937045734611e-001, -2.2290204360454299e-001,
          -7.2183439118244531e-003, 1.6942994331517733e-001,
          -5.8233280801479041e-002, -4.1318531849166112e-001,
          2.1543264546411145e-001, 1.3493206018751459e-002,
          3.4010729735799844e-001, 4.0280105454952697e-001,
          -2.1972582991301054e-001, 9.7017415800106588e-002,
          -9.5166085922225779e-002, -1.9576412305099818e-002,
          2.2046114550933280e-001, -5.1294058626314906e-002,
          -1.8068901304560001e-002, 1.6252899570154741e-001,
          -6.8552460266028736e-002, -1.2023941197215891e-001,
          2.2106021185120361e-001, -5.5274328114778770e-001,
          1.7849143232920478e-001, -1.3310725952889954e-001,
          -2.2264111481912308e-001, 1.0188941131342380e-001,
          -2.9461006384837751e-001, -1.6442490349120500e-002,
          2.2602109983762494e-001, -5.6268330680159892e-002,
          -1.1566351885992990e-002, 5.8424418679705936e-002,
          3.5805424260887309e-001, -1.1600718822354315e-001,
          1.5773873778017225e-001, -2.2173351797155810e-001,
          2.8702613386340389e-002, -1.3611808894115920e-001,
          -2.1763274869227328e-001, -4.9418544616887080e-003,
          -2.9352261794439638e-001, -4.2533383567780464e-001,
          -6.3554817700584992e-002, -5.6674279236295325e-002,
          1.7561942383733586e-001, 2.6231413965340283e-001,
          3.5129523067958385e-001, 2.0447857243016557e-001,
          2.6436847955276305e-002, 3.8962757090620220e-002,
          7.8253049690285084e-002, -5.4430076678824574e-002,
          -5.3780148215663182e-001, 1.5781084029487713e-001,
          1.6870250946785768e-002, -6.9322533641906448e-001,
          -5.9318135953851853e-002, -5.3136787212875805e-002,
          1.7761293417757468e-001, -1.9727864926667660e-001,
          2.2385818857462925e-001, -1.0902423487594122e-001,
          4.5104971552083944e-001, 1.3083480718634205e-001,
          5.6444956497884488e-002, -4.7820008245706591e-002,
          -5.6812778453737070e-002, 4.3441511125761856e-001,
          -1.2923261178999107e-001, -6.8238471001199019e-001,
          -1.6439743496921494e-001, -1.5870616565117590e-001,
          2.9720348597368135e-001, 1.1333087596810749e-001,
          2.2440284517014364e-001, -1.1166336420865293e-001,
          4.4558298429025678e-001, 1.3840965378139225e-001,
          6.2151881267385543e-002, -4.6091187854111648e-002,
          -5.5648894425042950e-002, 4.3737142722248262e-001,
          -1.3497050584257425e-001, -6.8190367663211249e-001,
          -1.6879210601043715e-001, -1.6366736643807012e-001,
          3.0047478803933630e-001, 1.2213382357187280e-001,
          2.3194170885232118e-001, -1.1339090500424277e-001,
          6.6903697428264508e-001, 1.3440113966201617e-001,
          -2.9192178573354016e-001, -1.3103475846857163e-001,
          4.6796470879654821e-002, 4.3114858178777116e-001,
          1.6306709333791164e-002, -4.2432881157745356e-001,
          -4.3623192709689346e-001, -1.0670853944144863e-001,
          -4.7019969712512523e-002, 1.2292106464557079e-001,
          3.5086051988355782e-001, -1.1891328118107708e-001,
          4.2442605925243276e-001, 4.1312156306226172e-002,
          5.5086936645794685e-002, -5.4840978075592156e-002,
          -5.4411118053457969e-002, 4.4068138067905444e-001,
          1.5595777120850309e-002, -2.1870110952935196e-001,
          -1.6501951756464603e-001, -3.1923787132997344e-001,
          2.9747867197958117e-001, -3.6513368955403087e-002,
          2.2591713657811474e-001, -1.1788266124652955e-001,
          9.9633020454082219e-002, -1.2462523639381662e-001,
          1.2501340411866746e-001, -4.6042033716191572e-001,
          -2.9583008572831088e-001, -3.2805527575729384e-003,
          -8.3197718630684647e-002, -1.1650751101862657e-001,
          -6.3319274852121299e-002, -9.6633925179708063e-002,
          -3.9938608009076210e-001, 4.4607122699706458e-001,
          3.5289084893662914e-001, -9.0267644036787512e-002,
          -3.3959205780927870e-002, -2.8177097375591931e-001,
          -2.5370359480044147e-001, 1.2335575969985603e-001,
          -3.6111428414794750e-001, -2.9944932244953498e-001,
          6.0148724988894543e-002, 4.3381733035045139e-001,
          1.1971726441133404e-001, -3.5522679047416883e-001,
          -2.1326834174519735e-001, -1.2466063183478881e-003,
          5.2075066562360097e-003, 5.4808940571134757e-001,
          -4.4449843793592542e-001, -1.3698839014121339e-001,
          -8.1243856034932838e-002, 1.1390583219457845e-001,
          -4.7457259944403633e-002, -3.0683296157471557e-001,
          8.4503456552508377e-002, 6.8826122622934638e-001,
          1.1412912122491703e-001, -3.6007742021714773e-001,
          1.2377176120825954e-001, -1.1833527488320252e-001,
          -2.2827781186985829e-001, 2.8043575704182117e-001,
          -4.4343588452519378e-001, -1.3989900633004104e-001,
          -2.4513338117222105e-001, 1.3755417985381282e-001,
          -1.0217857576281666e-001, -4.3801201148304253e-001,
          -1.6161748091876621e-002, 4.2661691037820376e-001,
          1.1920571872651153e-001, 1.5659554575771584e-001,
          -1.8992081456437454e-001, -1.1915804301463938e-001,
          -2.3323395561578017e-004, 1.0949479604195485e-001,
          -9.9100894876202744e-002, -2.5191004681947633e-002,
          3.4541054854645381e-001, 4.0644176591960657e-001,
          1.0364504122292023e-003, 5.0543584555629809e-002,
          -3.1020946156716224e-002, 4.2012915917281450e-002,
          2.2219329833133314e-001, -2.2705418867905255e-001,
          -6.2685778625573858e-003, 1.7634405071037271e-001,
          -5.4487935600193360e-001, 6.0291560965992412e-002,
          2.1432245145485126e-001, 1.5719094989707118e-002,
          3.4013287711787715e-001, 4.0007738839048701e-001,
