%YAML:1.0
mlp: !!opencv-ml-ann-mlp
   layer_sizes: !!opencv-matrix
      rows: 1
      cols: 3
      dt: i
      data: [ 330, 26, 10 ]
   activation_function: SIGMOID_SYM
   f_param1: 6.6666666666666663e-001
   f_param2: 1.7159000000000000e+000
   min_val: -9.4999999999999996e-001
   max_val: 9.4999999999999996e-001
   min_val1: -9.7999999999999998e-001
   max_val1: 9.7999999999999998e-001
   training_params:
      train_method: RPROP
      dw0: 1.0000000000000001e-001
      dw_plus: 1.2000000000000000e+000
      dw_minus: 5.0000000000000000e-001
      dw_min: 1.1920928955078125e-007
      dw_max: 50.
      term_criteria: { epsilon:9.9999997764825821e-003, iterations:1000 }
   input_scale: [ 3.7518181576520075e+000, -2.5836206961331856e+000,
       3.7355203380783379e+000, -2.4611477680966467e+000,
       3.5926393458512367e+000, -2.1381642772101825e+000,
       3.5335305609806511e+000, -1.8443633641548638e+000,
       3.6395532382807918e+000, -1.6142536944606964e+000,
       3.9495822572176551e+000, -1.4640765758687295e+000,
       4.3246914483621692e+000, -1.3587719779935488e+000,
       4.6980039426698319e+000, -1.2878289085360641e+000,
       5.0618133436987813e+000, -1.3207961650506372e+000,
       5.1288189170275063e+000, -1.4203785810681404e+000,
       4.7669062973320768e+000, -1.5624695936348456e+000,
       4.2106142045954060e+000, -1.6998656698321228e+000,
       3.8923145372354671e+000, -1.9034872307060309e+000,
       3.7649753040040173e+000, -2.1454829847242052e+000,
       3.6181656680830878e+000, -2.2011326103213880e+000,
       3.8197433268343937e+000, -2.5596492405625026e+000,
       3.7744666956623711e+000, -2.3855157833666500e+000,
       3.5232977339071487e+000, -1.9571893440014720e+000,
       3.5390838097250148e+000, -1.6648110393410815e+000,
       3.7693904472056818e+000, -1.4743826616587874e+000,
       4.1899318369354530e+000, -1.3616343389101575e+000,
       4.7327360592379382e+000, -1.2919677037977477e+000,
       5.2432391213366927e+000, -1.2310617505008410e+000,
       5.5809455887372161e+000, -1.2190300881466525e+000,
       5.4412551095385746e+000, -1.2307420837482301e+000,
       4.8123215774324226e+000, -1.2919724802109323e+000,
       4.1444144582052358e+000, -1.4280554342112117e+000,
       3.7557974449782727e+000, -1.6397118640430561e+000,
       3.7377902647547523e+000, -1.9941557001881944e+000,
       3.6287522194403934e+000, -2.1050530198921336e+000,
       3.9593946838093843e+000, -2.5465326778678388e+000,
       3.9579538536419125e+000, -2.3643032081259490e+000,
       3.7534375489959300e+000, -1.8816441717638497e+000,
       3.7755954761245718e+000, -1.5454742855827859e+000,
       4.1753436187910600e+000, -1.4351703899550319e+000,
       4.6848034947269692e+000, -1.4094390695870720e+000,
       5.0724657568402733e+000, -1.3882854508219995e+000,
       5.4220481342124041e+000, -1.3550561493914761e+000,
       5.6366819374231687e+000, -1.2998389970633895e+000,
       5.3831754813333399e+000, -1.1608496153113139e+000,
       4.7178589099585402e+000, -1.0684720382342212e+000,
       4.0629327823571808e+000, -1.1393909707518948e+000,
       3.7640010250826128e+000, -1.4012538889623400e+000,
       3.7356417335807133e+000, -1.8009010571701694e+000,
       3.6448561242710640e+000, -1.9504578342932735e+000,
       4.0563618397095906e+000, -2.4940014949932650e+000,
       4.1574897857199273e+000, -2.3529828742634753e+000,
       3.9762831752779579e+000, -1.8784573921467254e+000,
       4.1733584064252032e+000, -1.6728699883151954e+000,
       4.6739342206177765e+000, -1.7389165109292870e+000,
       4.8357554768188811e+000, -1.7682255952388963e+000,
       4.7517125714601427e+000, -1.7478567629254700e+000,
       4.6658472752037525e+000, -1.7009296176724413e+000,
       4.7019578298528808e+000, -1.6336875605676666e+000,
       4.7899074228287377e+000, -1.5222000176860719e+000,
       4.3752731756782728e+000, -1.2453342678687349e+000,
       3.7746545853109392e+000, -1.0684434959169995e+000,
       3.6066038972214578e+000, -1.2470052895734500e+000,
       3.7241016479318514e+000, -1.6850174013707313e+000,
       3.6570391044699488e+000, -1.8471792324808394e+000,
       3.7756481049576878e+000, -2.1954856200296362e+000,
       3.9408474682651575e+000, -2.1238187759385729e+000,
       3.9436290007992576e+000, -1.8155388542353466e+000,
       4.2933120539596183e+000, -1.8261954497519346e+000,
       4.4941710629161893e+000, -1.9392186840372878e+000,
       4.3122733913007920e+000, -1.9740607359787179e+000,
       4.0400520152108763e+000, -1.9494391704391079e+000,
       3.8419457292307846e+000, -1.8784192458273652e+000,
       3.8813856075939785e+000, -1.8338378947425664e+000,
       4.0823791087843579e+000, -1.7715164776285939e+000,
       3.8981836810377994e+000, -1.4588982265848607e+000,
       3.4781512562441295e+000, -1.1416029427464784e+000,
       3.3129447391919276e+000, -1.1516121391895549e+000,
       3.4766819313113957e+000, -1.5146703919211757e+000,
       3.4220612395762169e+000, -1.6552223595751083e+000,
       3.5372993177239147e+000, -1.9778257031067454e+000,
       3.7486664248064567e+000, -1.9518592541371917e+000,
       3.8828008677254791e+000, -1.7900025688452403e+000,
       4.1129368258083963e+000, -1.8567528117228591e+000,
       4.1439020767213757e+000, -2.0006805792246385e+000,
       3.9975385895330815e+000, -2.1259828750831842e+000,
       3.6781159770618661e+000, -2.1097551961371348e+000,
       3.5695896263285714e+000, -2.0870617996023588e+000,
       3.6056552677345026e+000, -2.0511974841044114e+000,
       3.6603850121519099e+000, -1.9031597816055457e+000,
       3.5788976740378868e+000, -1.6045218211629235e+000,
       3.3564210312927663e+000, -1.2896787574208783e+000,
       3.1381911163033873e+000, -1.1724643192572395e+000,
       3.2510884920654908e+000, -1.4276118758606398e+000,
       3.1961540897213232e+000, -1.5308043713256401e+000,
       3.5211224065325366e+000, -1.9274432024367780e+000,
       3.7375081687260456e+000, -1.9189426274970394e+000,
       3.8413478396604099e+000, -1.7742103650538830e+000,
       3.8665404311450358e+000, -1.7992252973969034e+000,
       3.9558478797968872e+000, -2.0383808614855581e+000,
       3.8776640495517238e+000, -2.2547432236604390e+000,
       3.7559273826151602e+000, -2.3674471038235940e+000,
       3.6722446258114130e+000, -2.3726741345159370e+000,
       3.6162125780523695e+000, -2.2384051085629246e+000,
       3.5902090300959664e+000, -2.0241346348583682e+000,
       3.6437515869400272e+000, -1.7958481744442392e+000,
       3.4539057072872117e+000, -1.4662927912665151e+000,
       3.2236439121219616e+000, -1.2967158406829222e+000,
       3.2032445811080064e+000, -1.4414509020506157e+000,
       3.0781982596081594e+000, -1.4876326930343173e+000,
       3.5312272748444067e+000, -1.9452779214074101e+000,
       3.7342152554714483e+000, -1.9339133407715496e+000,
       3.6718221092896068e+000, -1.7033024254957871e+000,
       3.6747802244813910e+000, -1.7003802501967189e+000,
       3.8397645790687922e+000, -1.9840987208635126e+000,
       3.9623970189209468e+000, -2.3281930592612805e+000,
       3.9688930993111198e+000, -2.5110391824789025e+000,
       3.8728388906108839e+000, -2.4897671721712213e+000,
       3.7791038866124791e+000, -2.3214762622777090e+000,
       3.9220131757330430e+000, -2.2073633017189995e+000,
       3.9201841825660368e+000, -1.9535138591811851e+000,
       3.6606661776173550e+000, -1.6205656939903175e+000,
       3.3561322390849480e+000, -1.4376122477587252e+000,
       3.2119298221462134e+000, -1.5075369691500844e+000,
       3.0378439730604985e+000, -1.5076435546896692e+000,
       3.5027077671425233e+000, -1.9838698703208748e+000,
       3.7444067173454774e+000, -2.0020177173663081e+000,
       3.5372805001408882e+000, -1.6765358274570972e+000,
       3.4104205704766430e+000, -1.5549312805817788e+000,
       3.5275269199143682e+000, -1.7327220112407118e+000,
       3.8098842327257287e+000, -2.0897433945477863e+000,
       3.9734373792602518e+000, -2.3282556248212010e+000,
       3.8197755355392204e+000, -2.2362187509881144e+000,
       3.9615474564585376e+000, -2.2118496027241692e+000,
       4.2958035032271704e+000, -2.2147524720169049e+000,
       4.2564789257015851e+000, -1.9743249786097441e+000,
       3.9723383739358691e+000, -1.7130045741066497e+000,
       3.6231190486963860e+000, -1.5835913135976460e+000,
       3.3455107622127551e+000, -1.6255726513064086e+000,
       3.1143021852402120e+000, -1.5960989778963877e+000,
       3.3817565035988935e+000, -1.9702265607312242e+000,
       3.6181136824215083e+000, -2.0006134219323339e+000,
       3.3797528120022973e+000, -1.6402416773367847e+000,
       3.1246967279670557e+000, -1.4018128779602372e+000,
       3.1164215930575661e+000, -1.4238056673855939e+000,
       3.3223165199477704e+000, -1.6308970925863184e+000,
       3.4433358564374177e+000, -1.7586405242737349e+000,
       3.3895769045966166e+000, -1.7053724222059612e+000,
       3.6165447143758236e+000, -1.7150024440418317e+000,
       4.0591131826845421e+000, -1.7399953299384647e+000,
       4.3207773649017431e+000, -1.7124664203187283e+000,
       4.3873962039763468e+000, -1.7145114670405011e+000,
       4.1905496362002150e+000, -1.7648122334487903e+000,
       3.7336948965250030e+000, -1.8038949520283034e+000,
       3.2973300686369185e+000, -1.7007040653370153e+000,
       3.2761587325112407e+000, -1.9563035804616411e+000,
       3.4728428884584788e+000, -1.9796351247137300e+000,
       3.2696633321282258e+000, -1.6532321530485135e+000,
       3.0406380575920591e+000, -1.4138742413187275e+000,
       3.0014689245892301e+000, -1.3814521601591041e+000,
       3.2027668388693464e+000, -1.5177581142383472e+000,
       3.2937637732052423e+000, -1.5759939972524619e+000,
       3.2626993930767800e+000, -1.4877372703126592e+000,
       3.3536158049074385e+000, -1.3856949486905468e+000,
       3.6388040048092791e+000, -1.3043637174024154e+000,
       4.0495395360480657e+000, -1.3465758126333280e+000,
       4.7381688042008916e+000, -1.6254389966281226e+000,
       4.8636382325567880e+000, -1.9064784277957905e+000,
       4.1171439246229964e+000, -1.9253324363308322e+000,
       3.5155931686458888e+000, -1.7648234460137420e+000,
       3.1424860008680011e+000, -1.9104547745836113e+000,
       3.2628816624474322e+000, -1.9053421967799793e+000,
       3.1029035466007087e+000, -1.6520164792397165e+000,
       3.0466325928372955e+000, -1.5440895820769485e+000,
       3.1942439285434934e+000, -1.6304654111109771e+000,
       3.5380263987089973e+000, -1.8465872360151587e+000,
       3.7095880223037341e+000, -1.9237458024875727e+000,
       3.6188634290928503e+000, -1.7671364773399252e+000,
       3.5799973448702462e+000, -1.5582605204666307e+000,
       3.8023529576581252e+000, -1.3954814679953416e+000,
       4.1385456862649566e+000, -1.3214826401051780e+000,
       4.7065088387920451e+000, -1.4660306208284897e+000,
       5.0755896381408867e+000, -1.8184985356556083e+000,
       4.3496486890042627e+000, -1.9198869320625505e+000,
       3.6562341947119492e+000, -1.7521798962907795e+000,
       2.9665432660780136e+000, -1.7871494963307260e+000,
       3.0261861478823397e+000, -1.7718476440051456e+000,
       3.0054320697124095e+000, -1.6712619777458269e+000,
       3.2841980790189971e+000, -1.8406813143384377e+000,
       3.7321142942470051e+000, -2.1689149305755562e+000,
       4.0230725482008163e+000, -2.3985623036176116e+000,
       4.0065963348629188e+000, -2.3535566351565933e+000,
       3.7314730090563342e+000, -2.0727585218850479e+000,
       3.6575190837946021e+000, -1.8413728668071803e+000,
       4.0322688724411790e+000, -1.7597133094853210e+000,
       4.6093758637638862e+000, -1.7129548744064702e+000,
       4.7651367594649479e+000, -1.5506724380618879e+000,
       4.7118040432798649e+000, -1.5814165174630712e+000,
       4.3463474427732534e+000, -1.7998762453659409e+000,
       3.7215736651569644e+000, -1.6850740570037617e+000,
       2.7718806745765661e+000, -1.6508751043392904e+000,
       2.8664481723218689e+000, -1.6829902862890589e+000,
       3.0195265435603718e+000, -1.7571621066394909e+000,
       3.5743658307536816e+000, -2.1849026684662323e+000,
       4.0653844914867241e+000, -2.6247366257636289e+000,
       4.1475608159663144e+000, -2.7490469733508442e+000,
       3.8379433731549426e+000, -2.5141643527386637e+000,
       3.5072509971307451e+000, -2.1878211423914133e+000,
       3.5082953581976741e+000, -2.0294332805113391e+000,
       3.8711305145882169e+000, -1.9893833924330002e+000,
       4.4770762840868210e+000, -1.9816158201787402e+000,
       4.7137498680090006e+000, -1.7586049775590147e+000,
       4.2824397186769927e+000, -1.4692947575725377e+000,
       4.0875056000508287e+000, -1.6124879746117575e+000,
       3.6594476365722475e+000, -1.5735430080819375e+000,
       2.7912865951281147e+000, -1.6226262526345805e+000,
       2.9328329439974086e+000, -1.6937928588314901e+000,
       3.2542121649366131e+000, -1.9072006055722048e+000,
       3.9605259520324871e+000, -2.5053499236627217e+000,
       4.3075670669743085e+000, -2.9178037772305374e+000,
       3.9878385261670162e+000, -2.7927630546306799e+000,
       3.5473052307358097e+000, -2.4733007968865039e+000,
       3.3214246024813767e+000, -2.2334052676274161e+000,
       3.3792583410288692e+000, -2.1528281212200926e+000,
       3.7046946353748682e+000, -2.1250105106495156e+000,
       4.2261750349161504e+000, -2.1090686979431710e+000,
       4.5159906415758106e+000, -1.9055531339120133e+000,
       4.0988105129999761e+000, -1.5132081300075013e+000,
       3.8310081737876986e+000, -1.5070692171582978e+000,
       3.5201536851881108e+000, -1.4864830737056332e+000,
       2.9335745108829197e+000, -1.6668352236403254e+000,
       3.1063815310912730e+000, -1.7519020360638309e+000,
       3.4815766632256300e+000, -2.0104386079369410e+000,
       4.2597418491746071e+000, -2.6915279962530279e+000,
       4.4646252553762658e+000, -3.0512944088664091e+000,
       3.9817131216259747e+000, -2.8435680398143224e+000,
       3.6057340150196615e+000, -2.5947372661612857e+000,
       3.4737103133399096e+000, -2.4418902670817308e+000,
       3.5708633964398020e+000, -2.4011571304788126e+000,
       3.8893350915186886e+000, -2.3791646653052756e+000,
       4.3139896676716623e+000, -2.3224093089723157e+000,
       4.4913092932095857e+000, -2.0479680539719465e+000,
       3.9388191359888602e+000, -1.5567808747527729e+000,
       3.6429344014869542e+000, -1.4942831493425193e+000,
       3.4383486450129634e+000, -1.4999271848624782e+000,
       3.0996947048729009e+000, -1.7415166507556188e+000,
       3.2278158412259610e+000, -1.7820829617254141e+000,
       3.4210612206363127e+000, -1.8752529674374938e+000,
       4.0658039694341186e+000, -2.4473243090978403e+000,
       4.3372119620973288e+000, -2.8686428166163385e+000,
       4.0310010260898563e+000, -2.8272964237747926e+000,
       3.8437296317793415e+000, -2.7566189553933902e+000,
       3.7961496993692343e+000, -2.7019012047816933e+000,
       4.0440313078704335e+000, -2.7392521458004815e+000,
       4.3248329493775950e+000, -2.6696057837939495e+000,
       4.6837953350671970e+000, -2.5450136772422849e+000,
       4.5637768283567581e+000, -2.1139820338860220e+000,
       3.8201761066776219e+000, -1.5627126593818523e+000,
       3.6573141315816273e+000, -1.5970218525023725e+000,
       3.5024959600389654e+000, -1.6348448757426770e+000,
       3.3696774125385596e+000, -1.9616099878392443e+000,
       3.3415957760012960e+000, -1.8515714662525737e+000,
       3.2027797995566467e+000, -1.6514817089517155e+000,
       3.5878729408721663e+000, -1.9684756826744467e+000,
       4.0302552197348733e+000, -2.4480786164599055e+000,
       4.0830819499185109e+000, -2.6770944028710879e+000,
       4.0967527575841851e+000, -2.7817174439705417e+000,
       4.2667695555695193e+000, -2.8833243053749427e+000,
       4.5494385045987702e+000, -2.9247263314495404e+000,
       4.9287945591316884e+000, -2.8813562829443362e+000,
       5.0798806078680032e+000, -2.6207034403133243e+000,
       4.5032098712595987e+000, -2.0255522712677956e+000,
       3.8278690803463076e+000, -1.6227355147226541e+000,
       3.9358950822067649e+000, -1.8959689838401990e+000,
       3.8519156263601775e+000, -2.0011579986221104e+000,
       3.7340155273201945e+000, -2.3436892425470091e+000,
       3.5930391707837650e+000, -2.1144546532330857e+000,
       3.1616997536957863e+000, -1.6222866435949099e+000,
       3.1649839100605615e+000, -1.5640197490517156e+000,
       3.5520044533714294e+000, -1.8763566335395490e+000,
       3.9507934850054602e+000, -2.2554902643394930e+000,
       4.1943304783144164e+000, -2.4976260062505871e+000,
       4.4051146201936868e+000, -2.6134371411862976e+000,
       4.6607363592262949e+000, -2.6280098485626220e+000,
       5.0141880880081446e+000, -2.5798109730911998e+000,
       4.8516847731746218e+000, -2.2651843807966885e+000,
       4.2791340834375999e+000, -1.8715601791636483e+000,
       3.9960441810708889e+000, -1.8544880688819922e+000,
       4.3545141172615756e+000, -2.3756625064365990e+000,
       4.3026048878013814e+000, -2.5330167315826695e+000,
       4.1363060737124320e+000, -2.8473927760355719e+000,
       3.9884327604694216e+000, -2.5748425562615043e+000,
       3.4709665266982004e+000, -1.9430464745203677e+000,
       3.1550653226601018e+000, -1.5444744788458258e+000,
       3.1673228151172403e+000, -1.4705129629140525e+000,
       3.3820611327044818e+000, -1.5997546126695328e+000,
       3.6168258816548207e+000, -1.7576646763187291e+000,
       3.8123719778603604e+000, -1.8510799101128614e+000,
       4.0496555747321574e+000, -1.9049999308051084e+000,
       4.3883334725345193e+000, -1.9595331869496104e+000,
       4.4961085734541673e+000, -1.9815768579707316e+000,
       4.4316346220065777e+000, -2.0777527200040744e+000,
       4.3843454994553204e+000, -2.3392255366107229e+000,
       4.5967784105440730e+000, -2.8278954409510257e+000,
       4.4958092889230858e+000, -2.9399584479682277e+000,
       4.3025218148389701e+000, -3.2081001226554289e+000,
       4.2673128219289023e+000, -3.0190557074096187e+000,
       3.9509910898341931e+000, -2.4941916964781021e+000,
       3.5938563303073532e+000, -1.9892931937011267e+000,
       3.4040117325290389e+000, -1.6735642162118654e+000,
       3.3381367329530769e+000, -1.5208029559675718e+000,
       3.3553903463379733e+000, -1.4793554121688217e+000,
       3.4910994973385776e+000, -1.5275395647001515e+000,
       3.8743678465086324e+000, -1.7232192797120667e+000,
       4.5561260728670465e+000, -2.0867556416643054e+000,
       5.0371891589861981e+000, -2.4844856622474856e+000,
       4.9929341417859288e+000, -2.7257923439492417e+000,
       4.6270024553016063e+000, -2.8108428273728339e+000,
       4.6027960959632628e+000, -3.1034212131022607e+000,
       4.4780037157594439e+000, -3.1642586995237458e+000,
       4.1770571094307680e+000, -3.2420473602944218e+000,
       4.2107224063779656e+000, -3.1127660809077833e+000,
       4.0159741815136476e+000, -2.6875611924298881e+000,
       3.7195072757696299e+000, -2.2054730408934144e+000,
       3.5503707287094044e+000, -1.8666735934236316e+000,
       3.4321978355863987e+000, -1.6289871862213194e+000,
       3.3614382894809687e+000, -1.4971432491254115e+000,
       3.4381724538104073e+000, -1.5103808076166509e+000,
       3.8493334908653440e+000, -1.7577413540604907e+000,
       4.6064020776708317e+000, -2.2462163186672623e+000,
       5.0929133035116259e+000, -2.7280322637661065e+000,
       4.9678870069499919e+000, -2.9370912176910222e+000,
       4.6839662824853141e+000, -3.0510803273149221e+000,
       4.5526378569621846e+000, -3.2187208978224224e+000,
       4.3595876085538467e+000, -3.2143912080968962e+000 ]
   output_scale: [ 5.2631578947368418e-001, 4.9999999999999994e-001,
       5.2631578947368418e-001, 4.9999999999999994e-001,
       5.2631578947368418e-001, 4.9999999999999994e-001,
       5.2631578947368418e-001, 4.9999999999999994e-001,
       5.2631578947368418e-001, 4.9999999999999994e-001,
       5.2631578947368418e-001, 4.9999999999999994e-001,
       5.2631578947368418e-001, 4.9999999999999994e-001,
       5.2631578947368418e-001, 4.9999999999999994e-001,
       5.2631578947368418e-001, 4.9999999999999994e-001,
       5.2631578947368418e-001, 4.9999999999999994e-001 ]
   inv_output_scale: [ 1.8999999999999999e+000, -9.4999999999999996e-001,
       1.8999999999999999e+000, -9.4999999999999996e-001,
       1.8999999999999999e+000, -9.4999999999999996e-001,
       1.8999999999999999e+000, -9.4999999999999996e-001,
       1.8999999999999999e+000, -9.4999999999999996e-001,
       1.8999999999999999e+000, -9.4999999999999996e-001,
       1.8999999999999999e+000, -9.4999999999999996e-001,
       1.8999999999999999e+000, -9.4999999999999996e-001,
       1.8999999999999999e+000, -9.4999999999999996e-001,
       1.8999999999999999e+000, -9.4999999999999996e-001 ]
   weights:
      - [ 7.6040304695824879e-001, -1.8445811555253910e-001,
          2.1257977997930516e-001, 6.3963927941577861e-002,
          1.5351837686209437e+000, 1.0693905575609472e-001,
          -1.1079578414985922e-002, 3.9474324133496907e-001,
          6.1556198795367389e-001, -4.1468112305812588e-001,
          5.8118544674745665e-001, 9.0807091232831594e-002,
          9.6260069590891187e-002, 1.0324789507393724e-001,
          2.1845145963312348e-001, -4.0906133080536200e-001,
          5.4554612713319850e-002, 1.0170452096398053e-001,
          -5.1314398641683953e-002, -3.6706515985596322e-001,
          4.6763204408881937e-001, -2.2185924231302327e-002,
          -1.7107115147698143e-001, -5.2423549969017096e-002,
          -4.1652950088529274e-003, 1.2478578036313942e-001,
          5.0617120710178010e-001, -1.8059820857403430e-001,
          2.7107091956688051e-001, 6.3315255585606176e-002,
          3.8056074589408467e-001, 1.0699309463699655e-001,
          -9.8671150942381772e-003, 4.9376017031250213e-001,
          4.3734568912085109e-001, -4.1800859619352126e-001,
          2.2744511100796036e-001, 1.0739662520422816e-001,
          1.4121262093876599e+000, 1.0285719282432497e-001,
          2.0771097390374615e-001, -5.2474932790569895e-001,
          6.3110408862766754e-002, 1.0401759220086122e-001,
          -9.1092727189732936e-002, -1.0896582392133500e+000,
          4.6469661182489375e-001, -1.4666012617407510e-002,
          -1.6860036595425518e-001, -3.9474522711011678e-002,
          1.0087916315225222e-001, 5.4103705575352912e-001,
          5.5526900608287721e-001, -3.0457176763443984e-002,
          2.0014157834983948e-001, 6.2337603613309284e-002,
          -4.0698876724058497e-001, 2.9820822004609548e-001,
          -1.7094615608815915e-002, 4.9365705218839756e-001,
          1.5114191165082008e-001, -1.4094161056544593e-002,
          2.2262263625268147e-001, -2.0381700270933906e-002,
          3.9837511978943424e-001, 1.9465180156704670e-001,
          1.2742993942041458e-002, -5.7242018152665963e-001,
          5.0088500393612873e-002, 1.0332894031196889e-001,
          -1.0104009505259376e-001, -7.1423425337253143e-003,
          5.8421383879283285e-002, 1.6018450168660481e-001,
          -9.4768445581206090e-002, -4.4856759174699751e-002,
          5.6865333449896201e-002, 2.0161793587612867e-001,
          6.4817510704793330e-002, -3.4608323921321772e-002,
          1.5111419137961152e-001, -1.7738290551901820e-001,
          -3.5859573231510961e-001, 1.7907957463760285e-001,
          -5.5653673889882994e-002, 1.2113916915894260e-001,
          3.3483186894799864e-002, -3.4622351660082273e-001,
          -8.7697957179898936e-002, 1.9218394150028659e-002,
          -6.9774456763876350e-002, 1.7557183600523527e-001,
          -5.1359408841461326e-002, -6.0660650800987381e-001,
          2.1121114352525134e-002, 1.0909576590484661e-001,
          -1.3366417728144134e-001, 1.2415208200120345e-001,
          1.9724931970886014e-001, 2.6691948712137953e-002,
          5.4708068523456277e-002, -2.3350520387258492e-001,
          3.9785634589880131e-002, 2.0660311274234813e-001,
          7.5166168445477924e-002, 7.3869774278093533e-002,
          -9.4351684986836187e-002, -1.7972629504886961e-001,
          -3.8631034969873213e-001, 1.5104694080946565e-001,
          -1.6970233622117952e-002, 2.2915342514427309e-001,
          1.2972141958511352e-001, -3.6134963721321767e-001,
          -8.4810561996574940e-002, 1.5686237116068827e-001,
          -2.4145233459897386e-002, 1.4872337792313725e-001,
          -1.7087379433346664e-001, -4.1969888209064549e-001,
          -1.6775610795296819e-001, 2.9353988077848066e-002,
          -1.2366160768899567e-001, -9.2427493777851172e-003,
          2.2851925285392960e-001, 1.9795765312004268e-001,
          4.7096006766631787e-001, -2.3305824659641339e-001,
          2.2342718650818043e-002, 4.9290805989660019e-001,
          8.2320488866661878e-002, 1.4351619985480696e-001,
          -2.9674464511386646e-002, -1.9285385541396530e-001,
          -3.9651762815627678e-001, 1.1316314902818372e-001,
          -1.7383007364912977e-002, 3.7406828560962259e-002,
          7.6587337586720677e-002, -3.7430359980733863e-001,
          7.7222607556122558e-001, 4.6884650716874803e-002,
          -5.1051508272086300e-002, 1.4475170906947070e-002,
          -7.2021854572940316e-002, -4.0412005229721282e-001,
          -8.2509617971014665e-002, -9.0301309259015458e-002,
          -3.0480539958179154e-001, 9.8569565985969221e-003,
          -1.9927595247559594e-003, 2.4392628684870257e-001,
          2.4034964466000330e-001, 3.9297277067183035e-002,
          -1.0906458746957372e-001, 1.1161025231182954e-001,
          7.4806523617875237e-002, 1.1652439297265695e-001,
          -9.9862833601809087e-002, -2.4509535266612981e-002,
          -1.7192813309434279e-001, 1.2526002222389410e-001,
          -8.6997235440334178e-002, 8.4022760974985664e-002,
          7.2945720246793425e-002, -3.6423835797778281e-001,
          3.3647103989416660e-001, 1.4308770400999768e-001,
          -3.4083819238862117e-003, 2.2951009967403197e-002,
          -1.9841255311382860e-001, -3.7131138114933343e-001,
          5.5982907400845751e-002, -6.1996555389066045e-002,
          -4.5594654428794928e-002, 1.1302657619542161e-002,
          -2.3373331209893583e-003, 7.7698747398406209e-002,
          1.9277997386169626e-001, 3.6460750696901786e-002,
          -1.0467167943230433e-001, 9.8538885872288248e-002,
          6.8967218755361132e-002, 1.9179459047947173e-001,
          -3.9339603845060789e-001, -9.1760097184629255e-002,
          -1.6662381453711431e-001, -4.8498807669275328e-004,
          -1.4626460866624699e-001, 1.8256668465905235e-002,
          4.4019659908719130e-002, 5.7754275066680737e-004,
          9.2732288460724274e-002, 1.0254636816385750e-001,
          -1.6779392354386286e-001, 2.9182878664429583e-002,
          -1.4351240709359622e-001, 1.5315724665794808e-001,
          -3.2816986863533813e-002, -2.8895543101899096e-001,
          -5.1008301893718765e-002, 9.4823431008476417e-003,
          -1.5629318334702755e-001, -1.1068317387597570e-001,
          1.9534612006459576e-001, 7.5700215171710772e-002,
          -1.1011219694911530e-001, 1.8834257689454334e-001,
          1.0005109839312809e-001, 2.1565661285292256e-001,
          -8.5530164200975090e-001, -1.3735474141966805e-001,
          -1.9404233089740569e-001, -1.6218897728867275e-002,
          -2.8224771554576200e-002, 1.0145797388277542e-002,
          3.3328405982292164e-001, 7.8325329292594600e-002,
          8.3673814245458486e-002, 2.7332168747932217e-001,
          4.1879478230877121e-002, 3.5922131684379438e-002,
          1.4499464297161233e-001, 2.0837072966322423e-001,
          9.3211350715945218e-001, -4.0925085413488477e-001,
          -2.1933798526321859e-003, 2.2013415114013894e-002,
          -1.6870964686815929e-001, -2.4898882208091686e-001,
          1.5637889597053184e-001, -2.1771716351375819e-001,
          -6.0529893920663380e-002, 1.2662804709216258e-001,
          -1.8032439566596368e-002, 6.7757661951217560e-002,
          -2.7016941524035626e-001, -1.1004839926741174e-001,
          -7.5739342192742744e-005, 1.5136401948305006e-002,
          -1.4922714481853741e-001, -2.9610556934840099e-001,
          4.1986615354893442e-001, 5.7857643416834283e-002,
          8.7650084344584073e-002, 3.8679998684421645e-002,
          4.8793002747821046e-001, -1.5322869832712219e-001,
          1.0433946342778479e-001, 8.0798793727857787e-001,
          1.3365071007340912e-001, -2.6005066639301228e-001,
          -3.5103921928456475e-002, 1.4097825916632882e+000,
          1.8616723005240324e-001, -1.0650558901261400e+000,
          1.9738586143542222e-001, -1.7954006782808973e-001,
          -2.3852329725136534e-001, -9.1048371419282043e-002,
          2.2369351753969649e-001, -1.3217127918982038e-001,
          -2.1952848926354740e-001, 3.3004020805925967e-002,
          -7.0591626671321364e-002, -2.8236474463205315e-002,
          -1.5885101984244990e-001, 1.1584672110797511e-001,
          5.5547688254936278e-001, -3.6908489940637773e-001,
          8.2712544923738113e-002, -2.5680128322960849e-001,
          1.6983777803799094e-001, -1.7147994312798340e-001,
          1.0695129778879198e-001, 6.7622661258361705e-001,
          4.4332264393889383e-002, 2.6381711348069486e-001,
          -5.2566378235882297e-002, 2.0631717287070428e-001,
          3.1887890925598010e-002, -6.2034370621846920e-002,
          -2.4683388668675487e-002, -2.8414303871616620e-001,
          -1.7465026171187026e+000, 5.5089835609282468e-002,
          2.9887660403147104e-001, -1.3740137830351326e-001,
          -1.5514322424902591e-001, 5.5294407002972457e-001,
          -1.8201826774582083e-002, 2.5035616612101862e-002,
          -1.8764894340473665e-001, 1.6926162436455233e-001,
          9.1013916739210321e-001, -7.6402394242164773e-001,
          1.5289472309989854e-001, -2.7835707742447247e-001,
          1.6445122978408877e-001, -5.4413947146048733e-002,
          1.7654236919633681e-001, 1.1824365912159158e+000,
          -8.3639982831805348e-002, 2.5436862856611281e-001,
          -2.2280572076289101e-001, 3.1430259168110902e-001,
          2.3749329652180506e-001, -1.5486657026431141e-002,
          -1.2405618103091473e-001, -3.3231611234337460e-001,
          -1.3834782527426330e+000, 1.2571258074517280e-001,
          3.0054616377852983e-001, 8.5186675704104819e-002,
          -1.5159781516695647e-001, 5.3942087866592270e-001,
          -1.8704067951269249e-002, -4.3062658333196370e-002,
          -1.0660895817924453e-001, 2.4462275169097702e-001,
          2.8981255224748409e-001, -7.6587852416374580e-001,
          7.7838535296261585e-002, -6.5318020728168894e-003,
          1.6207463562174201e-001, -5.0876837153111608e-002,
          9.0407485366028939e-002, 7.0134062322831647e-002,
          -8.4932724601457038e-002, 2.5346796898465529e-001,
          6.9890339287558473e-002, 9.2446063392130920e-002,
          2.4000120870769667e-001, 2.5000364899227526e-002,
          1.1834494278109396e-001, -3.2773502879471833e-001,
          -1.0230503721008402e-001, 8.0578282913124022e-002,
          3.1194897002668431e-001, -3.5183953181680658e-004,
          -1.1529527349964767e-001, 5.3527352888075796e-001,
          -3.9125682066370883e-002, -5.1608396112032488e-002,
          1.3907936928149808e-001, 2.5221111596506646e-001,
          3.3370774503852002e-001, 7.2227467686456742e-002,
          3.3009615902121418e-002, 5.4869085173262375e-002,
          1.8705708936364063e-001, -1.6756074173213537e-001,
          7.6941292847554299e-002, -1.1813166436192013e-001,
          -1.9026611586213141e-001, 2.5727157801228745e-001,
          5.1524231550754855e-002, -8.5075575583782440e-002,
          2.3392833667408347e-001, 1.9652779581862855e-002,
          8.1309799956349321e-002, -3.2770343717110145e-001,
          2.6446870642870779e-001, 3.3530686273202553e-001,
          3.0640257249847980e-001, -2.2571637333790178e-002,
          -5.5389324770600830e-002, 1.6652352912009510e-001,
          -4.4639807287456729e-002, -2.3255960623729560e-002,
          1.2315288734523923e-001, 3.3068868027480020e-001,
          3.2480508164276695e-001, 1.5647272938004847e-001,
          5.7176460599258828e-002, 2.4281318587618492e-001,
          1.9629764778018477e-001, -5.7454329251951000e-002,
          1.4732866293052344e-001, -1.1200693616519311e-001,
          -1.9577379199734679e-001, 1.8621955076456426e-001,
          5.1745090854301283e-002, -8.8576044062968248e-002,
          2.3676836869146672e-001, 2.3736757975582522e-002,
          6.8541167621155225e-002, -3.6910027643092985e-001,
          2.5280746751101540e-001, 3.3325370246610658e-001,
          5.2636754915294903e-001, -1.7499859922380492e-001,
          2.0261192724810861e-001, 6.7899801040963811e-002,
          1.5392137420873047e+000, 1.3988955859907121e-001,
          6.4574545383477289e-003, 4.0831925556716619e-001,
          1.9125938478917007e-001, -4.0618014331219993e-001,
          3.0146259638118772e-001, 1.0609904712453955e-001,
          -6.4121390481561874e-002, 2.0458706837489432e-001,
          8.5185291330546892e-002, -3.9501965444712689e-001,
          5.9163660586860990e-002, 1.0543251658758945e-001,
          -1.1937093922372370e-001, -3.4631645926915178e-001,
          4.9709145072162036e-001, -5.0239400070628938e-003,
          -1.7345171546052882e-001, 2.8854608665792029e-002,
          2.2095253772454349e-002, 4.1532118356067704e-001,
          7.0584627793488874e-001, -1.9752423069749746e-002,
          2.0870540555680214e-001, 6.6670577788488034e-002,
          3.1798080500001374e-001, 3.0656403558464496e-001,
          -1.0498731078200563e-002, 4.2375578891571358e-001,
          3.1315418659448235e-001, -4.2695888208100008e-001,
          1.6981626532084287e-001, 1.0226619239126590e-001,
          -2.7132460293874519e-002, 2.0361882671750511e-001,
          -7.1826351364172397e-002, -5.7258355140053130e-001,
          2.1000239474746435e-001, 1.0870172688885794e-001,
          -1.1736342921009708e-001, -1.8181378889526218e-002,
          3.1435014528899158e-001, -4.1876190215069508e-003,
          -1.7375964516491962e-001, -4.0138827229362947e-002,
          1.1017810187320687e-001, 2.1992642024379638e-001,
          6.7404923809099349e-002, -2.9726560025436666e-002,
          1.4908372631807781e-001, 1.6388281964845178e-001,
          -4.3098045275598224e-001, 3.7853000692417321e-001,
          -2.3166059812822146e-001, 1.2315545616495877e-001,
          5.9334161688525025e-002, -6.8295153455887758e-001,
          -1.3931222291013143e-001, 1.8767571521434723e-001,
          2.2742428604177126e-001, 1.9161444721851356e-001,
          -1.2010686240657109e-001, -6.0169459333115050e-001,
          4.3999992188663670e-002, 1.0176630043122446e-001,
          -1.4022031233929133e-001, 5.8521642986857060e-002,
          2.3122694407042163e-001, 1.6155254387852525e-001,
          -2.0217947268343271e-002, -2.3395084526911472e-001,
          6.5170017894885537e-002, 2.5739758032779392e-001,
          6.3463441698812850e-002, -2.8721909164664553e-002,
          1.5305448130777388e-001, -1.8152593098976461e-001,
          -4.5131950593722403e-001, 4.2862850679578457e-001,
          -3.8392806448994642e-002, 4.0236617690797435e-002,
          -9.0489644722639817e-002, -3.5842304109827117e-001,
          -1.4289268602716884e-001, 1.9055581535166288e-001,
          -2.3285982052162032e-002, 1.5021635017081428e-001,
          -4.1539926493785900e-001, -6.1348890492124775e-001,
          2.5209574192981799e-002, 3.1411474438746423e-002,
          -1.4299920230497690e-001, 1.3070973691153698e-001,
          2.3341232684600841e-001, 8.0150769070737565e-002,
          -3.3329085243389005e-002, -2.3466006503241274e-001,
          3.9786566580487001e-002, 3.2428222865233913e-001,
          8.1897349806757835e-002, 8.5776161593779612e-002,
          -1.1167571569724141e-001, -1.8530339545300262e-001,
          -4.3826808958241387e-001, 3.5627341656666001e-001,
          -4.4216501382101141e-002, 3.3232979129181189e-002,
          -3.9214266573754444e-002, -4.5831980098660385e-001,
          -9.5212187069309187e-002, 1.8584221428126024e-001,
          -1.8234115391408037e-002, 1.5389571635163232e-001,
          -9.4715238956470577e-002, -4.2299180706143585e-001,
          -2.8934197100831328e-002, 2.9778649668176716e-002,
          -1.8670643102035042e-001, 1.2873847973136812e-001,
          1.8207187082832588e-001, 1.1749117119819638e-001,
          9.0347691678710873e-002, -2.4072870810872474e-001,
          6.2707776000157020e-002, 2.5460927429071412e-001,
          1.4489025268022351e-001, 1.3978596928431999e-001,
          -1.6346222943301394e-001, -1.8713871900182652e-001,
          -4.3943204358071047e-001, 1.2199848536353568e-001,
          -1.9934359682819014e-001, 1.8439316866703897e-002,
          -1.6047488302100035e-002, -4.8169555869854114e-001,
          3.1975197915156246e-002, 9.3416746640140144e-002,
          -1.0897283826716597e-001, 1.1724910249665542e-001,
          -1.9216087709800073e-001, -4.2183392033668049e-001,
          -2.0174504003778519e-002, -5.7746857328435618e-002,
          -1.3698779843858647e-001, 1.6322124268603849e-001,
          1.4075451136015042e-002, 2.1584753097237405e-001,
          1.4052529722944054e-001, 4.0606553686294553e-002,
          -1.1803495223742391e-001, 5.6186019959865954e-002,
          -3.6842263928200877e-003, 2.5797153472326884e-001,
          -2.3940654621795804e-001, -7.5688013050228181e-002,
          -3.5179522364682797e-001, 5.6399806835555143e-002,
          -1.9481171873051656e-001, 3.1429983921161475e-002,
          1.9882184445179249e-001, 1.0804360998916325e-004,
          -5.2576432179761483e-002, 1.3549392130454574e-001,
          -2.0097448279811805e-001, 1.5114519468139134e-001,
          -1.3259902570694146e-001, -4.1200404530426310e-001,
          -1.2916104135745157e-001, -4.1199142484949006e-002,
          -1.2034986318920229e-001, 1.6464320660924150e-001,
          6.9738286045349937e-003, 3.5398086660900975e-002,
          6.7758702116110112e-002, 3.6656527273282051e-002,
          -1.2284828778904176e-001, 1.6042403209311169e-002,
          1.4898081618120002e-001, 9.1280847185783678e-002,
          -4.0158943241868367e-001, -2.6311098882581835e-001,
          -2.3048256833014749e-001, 1.2129266321070133e-001,
          -1.8243788180213044e-001, 1.7541241567170837e-001,
          6.3876187542194804e-002, 3.9804475043143280e-003,
          -2.1889250570835081e-001, 1.4301460658430204e-001,
          -3.5036223977327523e-002, 1.8691687749116295e-001,
          -1.3627638632640321e-001, -1.3146523474927754e-002,
          -1.5118350748658838e-001, -6.7170346672702386e-002,
          -1.9095126479981436e-001, 9.1400019618706849e-002,
          3.8730785023408688e-002, -1.5507087729524152e-001,
          1.4003608575305002e-001, 1.9574212543873834e-001,
          -4.4194738585444503e-002, -2.0126124536496860e-003,
          9.0532422093180839e-002, 2.1628414147616296e-001,
          -2.6859195320420493e-001, -1.1445697877579902e-001,
          -3.7602619886881222e-001, 9.5142393975896272e-002,
          -1.4013657818305122e-001, -1.2250889018666483e-001,
          3.9283277108455354e-002, -3.7149254091931849e-001,
          8.1013600432609856e-002, 1.7199976980341203e-001,
          -8.9279804178923131e-003, 2.0481922448646070e-001,
          -1.3755760185809598e-001, 1.6273101194911807e-001,
          -9.7510097550036062e-002, -5.1272631134315272e-001,
          -1.2119593295431030e-001, 1.3157931541450585e-001,
          6.5741147814322679e-002, -3.4993734380382259e-002,
          1.5054138436446007e-001, 2.1760799998910677e-001,
          1.3862348676865546e-003, 1.3592581316158760e-002,
          -1.1188895356468021e-002, -9.8401038726662726e-002,
          -7.5819308117612644e-002, -1.3748806955336418e-001,
          -9.9149098351459325e-002, 1.3269886610835438e-001,
          -1.6587867755231381e-001, 7.0637258156150490e-002,
          2.9759253703612386e-003, -3.9074724147433487e-001,
          7.9693288466142237e-002, -3.1198292167032307e-002,
          5.7753287689787802e-001, -6.5865807536345397e-002,
          9.1435997909844566e-002, 4.0146353171528447e-002,
          5.7085266329594674e-002, 1.7571513313760594e-002,
          -3.5168955929397738e-001, 1.6940401003417280e-001,
          1.1573287242856781e-001, 1.3123545826677313e-001,
          -1.0899224125312214e-001, -5.8577071136502158e-002,
          -6.4407306179696489e-001, 7.7934162256739450e-002,
          -9.2261985685367726e-002, -1.3393322498725230e-001,
          -1.4204051768620107e-001, 3.0617121298202956e-002,
          3.8189768936067336e-001, 3.5611213977550127e-002,
          -2.3107552809920420e-001, 1.7795369715837059e-001,
          2.5803541988845019e-001, -1.7029360830028756e-001,
          8.0610066121246188e-002, -3.0528522717333006e-001,
          1.5367116217198248e-001, -5.6667352814816267e-002,
          1.0383841876552904e-001, 1.2444170764688946e-001,
          5.4093462865591344e-002, 2.5382620045782922e-001,
          -1.3016182091237805e-001, 3.4390950068585080e-001,
          -1.0897699146936625e-001, -1.3736429345183485e-001,
          -5.9748401979329312e-002, -1.8196168294906462e-001,
          -5.3424018621136382e-001, 1.6979786030509428e-001,
          -2.9884169770386375e-002, -1.3163249852049511e-001,
          -1.2993537945207473e-001, 2.8378718683524812e-001,
          -1.8791312701553271e-002, -2.7535448191521861e-002,
          -5.7805862053081948e-002, 1.5275239884768518e-001,
          4.4463781912784112e-001, -4.1441078687140681e-001,
          4.0558265091871720e-001, -5.2544805845500565e-002,
          1.5693430662408728e-001, -3.3403044313770856e-002,
          4.1611105949562882e-002, 5.5077645965538810e-002,
          4.2523507685781586e-002, 2.5887064741810190e-001,
          -9.9396570483165603e-001, 3.8429949533967678e-001,
          -1.1016377380274152e-001, 6.5315034360911017e-003,
          -1.4542895641445780e-001, -3.4414733214497600e-001,
          -6.5474468635776634e-002, -1.8160621155542356e-001,
          2.8073098672464447e-001, -1.6138185321372164e-001,
          -1.1313420054225602e-001, 5.5215533132964700e-001,
          -5.1278230356309688e-003, -4.3759050453747228e-002,
          -1.2933677091836304e-001, 1.5882523741581259e-001,
          5.6657686226623649e-001, 8.2711668081752079e-002,
          6.7800821822850674e-002, 2.3370599441543533e-002,
          1.5512574001250296e-001, -9.0991487967852808e-002,
          1.7108618796631933e-001, -1.0542382761103109e-002,
          -5.9948338684416881e-002, 1.6299212645582492e-001,
          -9.3114307273959057e-002, 1.1105267317609008e-001,
          -1.5339793330428156e-001, 2.9350269530742962e-002,
          9.7115453472550128e-002, -3.8458226111098148e-001,
          3.5082143107723263e-001, 1.0223452111336957e-001,
          2.7408463912830466e-001, -1.4266492486908622e-001,
          -1.2194689181366092e-001, 5.4359359566069398e-001,
          -4.0203084779337810e-002, -8.2473040418282850e-002,
          1.2452923891218474e-001, 2.0891048727857120e-001,
          3.0296861954321758e-001, 8.5302182158405515e-002,
          3.7000333541940114e-002, 1.4382953291471517e-001,
          1.7605482256701080e-001, -6.1967503445583369e-002,
          1.7251000032579675e-001, -1.7930313307924728e-001,
          -1.9329338200013929e-001, 1.6409786916066327e-001,
          8.2596436498544229e-002, -8.4343124556308477e-002,
          -1.6216279768250647e-001, 2.3341816093434251e-002,
          1.1279379541535051e-001, -3.3587794699645335e-001,
          5.4262426745938053e-001, 7.8508738351676072e-002,
          3.1207574586896791e-001, -1.7329188255450979e-002,
          -1.3706720811324125e-001, 1.5923113989844409e-001,
          -4.3841328500089906e-002, -5.5268643370844084e-002,
          1.2747303102628732e-001, 4.8732565293387584e-002,
          3.1453280623873864e-001, 2.7630787281586393e-002,
          -5.1803496001049422e-002, 1.1689021910299605e-001,
          2.0768926638139765e-001, -6.4778296474907029e-002,
          1.6846052030555328e-001, -2.0415357641930995e-001,
          -1.8994471269356092e-001, 1.9724230378465499e-001,
          7.0655349555371019e-002, -8.6505758542025787e-002,
          4.8942330730713954e-002, 2.6569401961100188e-002,
          3.4863936739706045e-002, -3.3557251941582733e-001,
          5.4343202452681050e-001, 1.3925685612090086e-001,
          3.5519254119585081e-001, -2.5024385876102277e-002,
          7.8262149743623069e-002, -2.3802501787114502e-001,
          -2.3061568263727616e-001, 1.2147209574505487e-001,
          -1.5260794127854761e-002, 1.5996988947157958e-001,
          -6.1320690305257018e-002, -1.9718843496697600e-001,
          1.9098478163913327e-001, 1.9229657701189526e-001,
          -7.0714443716629619e-002, 1.9643535464741788e-001,
          -4.9779839650796930e-002, -9.7332405414462220e-001,
          2.1197377031200826e-001, 1.0209998592590827e-001,
          -1.3539294870666832e-001, 5.8650405625248668e-002,
          2.6691837614526653e-001, 2.8457692987821909e-001,
          -8.1700024230844711e-003, 2.9033286630578595e-002,
          7.7952331786234619e-002, 2.2697558805105020e-001,
          3.0145914240641009e-001, -2.2767593394321807e-002,
          6.1666335739006657e-002, -1.2084478094517102e-001,
          -3.4563548467929633e-001, 3.6136919629983544e-001,
          -8.0610012080056075e-003, 1.3439500086150380e-001,
          -6.4523112130913024e-002, -4.8563784343479272e-001,
          -1.3184031013626285e-001, 1.9256569433593693e-001,
          -7.9511709660237642e-002, 1.9895422197480264e-001,
          -1.1783036435042910e-001, -5.4314031173003641e-001,
          1.8853603753633358e-001, 1.0828031070387550e-001,
          -1.4465776868432403e-001, 2.5812297407569257e-001,
          2.3604471552684156e-001, 3.6811798752503905e-001,
          -1.1746202779172866e-002, -1.5657534265067594e-001,
          6.5301594557869228e-002, 6.4796858269257829e-001,
          -4.3322487820495947e-003, -1.0910230753178508e-001,
          -9.0551348000825326e-003, -1.7831704178038857e-001,
          4.9899513341805472e-002, 1.3477673941086252e+000,
          -3.3414413641952279e-001, 8.9663500535172511e-002,
          -2.4638677259177613e-001, -3.5800791988640507e-001,
          -1.2333783036065724e-001, 1.2134910243760165e-001,
          7.0306225798549456e-003, 1.6181253545136265e-001,
          3.0674611101267341e-001, -5.6903918633723971e-001,
          2.7230194772361138e-001, 1.0434415747273643e-001,
          2.0618604425963156e-002, 1.1368075440450950e-001,
          2.6852921959742210e-001, 3.5513546733006257e-001,
          1.4940431275319099e-001, -4.5853377852246879e-001,
          4.1445084812930175e-002, 5.6543948477561834e-001,
          9.4931879786292906e-003, 4.9250254931244859e-002,
          1.5119980534203833e-001, -1.7231001437165719e-001,
          8.9645443888322907e-002, 9.4125839184852345e-001,
          -3.4521671243259866e-001, 3.8570957844327472e-002,
          -9.8458525992125255e-003, -5.0773322483856319e-003,
          -8.9151960919670731e-002, 7.9170645649351071e-002,
          -1.0834131257987605e-001, 4.7022218314424630e-002,
          -3.5161100637262320e-002, -4.7206891913155558e-001,
          -9.3048115510775686e-002, -5.9589041498466930e-002,
          1.4621803361792533e-002, 1.4517836404309817e-001,
          -4.9629191542339664e-004, 2.1803981628335645e-001,
          1.0755925565576267e-001, -4.7265950056015110e-001,
          -9.4757333533286872e-002, 3.3832839281302396e-001,
          1.4346874426251938e-001, 3.6119511187265235e-001,
          -3.6001514809446786e-002, -1.6013194435094769e-001,
          9.3093608931513666e-002, 3.2190315472905789e-001,
          -2.2859741852205051e-001, 2.9187592366512961e-002,
          3.5905445481584933e-002, -5.4360204963929499e-003,
          -1.0240232520386421e-001, -1.6999265485865764e-002,
          -2.4612036796500011e-001, -2.6023666273737034e-001,
          1.8968980999079968e-001, -4.7557294176686332e-001,
          3.3909207831611485e-002, -5.2958245702266760e-002,
          -5.5917028111673352e-003, 1.7588213335707731e-001,
          1.9723144324867836e-002, 5.1582397397937185e-001,
          3.9627335818868167e-002, -4.6412288546165165e-001,
          -7.5779671294955150e-002, 4.7426747514176731e-001,
          3.4700609635678122e-002, 8.9506726213960525e-002,
          -1.0442179241515034e-001, -2.9565478320057287e-001,
          4.4321666509088042e-001, 8.7003329877650984e-002,
          -1.5839050427473153e-001, 2.3373217985856434e-001,
          1.1148807617161431e-002, -4.0893795836824079e-002,
          -1.7550784915234177e-001, -5.9873092359594170e-002,
          -4.0084715511060470e-001, -2.6962429469584648e-001,
          1.9097609323714726e-001, -3.7084639513844042e-001,
          8.4853949691534956e-003, 2.0630192867039038e-001,
          3.0749391708849265e-002, 8.9159034879878876e-002,
          3.6236585910645019e-002, 5.4161877516907109e-001,
          -1.2057270895747654e-001, -1.3323850577832483e-002,
          -8.9083617346511476e-002, 5.3005123321145708e-001,
          2.1626079047117266e-001, 4.8211473360514812e-001,
          -2.2694492643505018e-001, -4.4288572727597442e-001,
          4.1564145425431193e-001, 3.3095247411895366e-002,
          -1.1308331542582635e-001, 5.5340679868106402e-001,
          -1.5802575345757737e-003, -3.8815229430218409e-002,
          -7.7872753037233666e-001, -5.0126168908889358e-002,
          -2.0181644163900025e-001, -8.5425850787552472e-003,
          8.8386029029460383e-002, -1.6870375811222876e-001,
          -2.5468386402525167e-001, -9.5118519933141257e-002,
          8.4814984008978939e-002, 8.7160613542927090e-002,
          1.4244211086358963e-001, 9.8406248488555836e-002,
          -1.7437834912620929e-002, 1.1407811637535870e-001,
          -3.1745749735038326e-001, 2.3568599475342811e-001,
          3.6847442647215362e-001, 9.6135803520647461e-002,
          -1.0296768456570043e-001, -8.5526876198162877e-002,
          -4.4071295640573062e-003, 1.6772950722157923e-001,
          -1.6902565207084447e-001, -2.3584034299789089e-001,
          -2.8848445539070899e-002, 4.4686875190282013e-002,
          -8.5374506567280628e-002, 9.9637964598781659e-002,
          -7.1761305806380890e-002, -5.5793471565826931e-003,
          8.5534758990587378e-001, -1.4106498226087699e-001,
          -5.2004920290532552e-001, -5.5022093750882595e-001,
          -5.8531044177867489e-002, 7.3779701961839073e-001,
          1.1960621130597950e-001, 4.7176935559065637e-002,
          -8.8918700450600317e-003, -1.9167609131604568e-001,
          -1.0892164447814330e+000, 1.6823074304256849e-001,
          2.0486462767682809e-001, 3.2284704468800447e-002,
          3.1327803752754030e-001, 2.7139849905427066e-001,
          -2.9821631751922022e-002, 2.3478086405824586e-001,
          -2.8557413449253416e-001, 2.9064117677903745e-001,
          8.6406981140855266e-002, 8.7837713932654521e-002,
          2.5178489831976087e-002, -4.4467718205036200e-002,
          1.7123451009537494e-001, 1.7355557958933021e-001,
          8.5760489232189963e-001, 2.2681747317206094e-001,
          -4.0294835587801732e-002, -2.4480799589520860e-001,
          -6.2859460825302782e-001, 2.0674958825238121e-001,
          -1.1920152855110464e-001, -7.2584518989391167e-003,
          8.1622975024561256e-002, -1.4599464805300541e-001,
          -4.4260339889046174e-001, -4.5673871734897599e-003,
          -1.0375948948414866e-001, -1.7513530505135777e-001,
          9.0116754525709067e-002, 1.3065247186035855e-001,
          -4.2176208482688051e-003, 7.8821904365867679e-001,
          -2.2962429586550187e-001, -7.1689802851658838e-002,
          2.0858898027865327e-001, -1.5590410127485860e-001,
          6.0745189121540373e-002, -2.0651309801942824e-001,
          5.3010393029833047e-001, 5.8920103818141958e-002,
          1.3521990677270163e-001, 1.9121532807418507e-002,
          4.2492438400037698e-002, 1.0462430036700972e-001,
          -1.1322117391652464e-001, 2.0808849366859675e-001,
          -2.2017791834440647e-003, 1.3914600442191610e-001,
          -1.1555955095600465e-001, -1.7126881401352270e-001,
          -1.9235355961448944e-001, -2.9613179610915036e-001,
          -6.8483531561019259e-002, -3.6272060772631698e-001,
          -2.6437136702101488e-001, 2.6172159270616435e-001,
          -9.9605322695086124e-002, 9.9709325175453833e-001,
          -2.1216299597000762e-001, -2.3605885433834437e-002,
          -4.3719852641721202e-001, -1.3725567790227008e-001,
          1.2387370508135533e-001, -3.4414567118231743e-001,
          2.1915060596903857e-001, -4.4978918105040469e-002,
          9.4505837151846128e-002, -1.6772028727209645e+000,
          1.1653078570154168e-001, 1.6334090765074480e-001,
          4.7030539844820536e-002, -7.2243080927617109e-002,
          -6.5236142346585868e-002, 3.3639564399969002e-001,
          -2.1004906886879027e-001, -1.8412447100985480e-001,
          -7.0333105925269182e-003, 1.7329600754947125e-001,
          -7.5412899249537035e-004, -3.0900986465894653e-001,
          5.8679820948371167e-002, 2.4743248507919371e-001,
          -2.6691140622439313e-001, 8.2390226887455087e-001,
          -2.4730008621683841e-002, -1.4537382762760484e-001,
          -7.5326813767870460e-001, -2.1742156445869082e-001,
          1.2523647643531804e-001, -5.3399260873837139e-002,
          5.9496359908705063e-003, 1.7111009762905163e-001,
          1.1182450484215846e-001, -2.9888069121573468e-001,
          1.1085413500820274e-001, 1.3984905575265461e-001,
          3.5101457858574193e-002, -1.7473793887531305e-001,
          -5.6323737476223691e-002, 4.1457113400090212e-001,
          -1.6499348852918735e-001, -1.8050401645022920e-001,
          3.0049042915829638e-001, 1.7539108271143283e-001,
          -2.5610988604842067e-001, -3.3368520288028614e-001,
          -1.4633183469302929e-001, 4.1398000588638428e-001,
          -1.3078185696737893e-001, -6.2186765844134934e-002,
          3.7972831671850282e-001, -1.0378964336077703e-001,
          3.6641286937192358e-001, -3.5580792455407584e-001,
          1.6892167754076057e-001, 6.2441528840225871e-002,
          1.7589615662412925e-001, 5.4079802794061833e-002,
          6.7274377214406478e-001, -2.4799042593479433e-002,
          1.0935985616501404e-001, 1.6611955263588310e-001,
          4.0262811075526296e-002, -1.7106974609572861e-001,
          -4.5826184730479842e-002, 4.9605931441488664e-002,
          -1.6333568173759935e-001, -1.9678061972155819e-001,
          4.0367362898818138e-001, 4.9330465534162288e-001,
          -7.5204598055506111e-002, -2.1465750691310614e-001,
          -1.2110431245120433e-001, 4.1626501633140345e-001,
          -3.9675544144953757e-002, -7.3233519273282574e-002,
          1.3519617194653152e-001, -9.5559465038398909e-003,
          4.8245344769791643e-001, -2.4594447408878375e-001,
          8.8153151085526723e-004, 6.9753488907156200e-002,
          1.6858076316244253e-001, -5.3524767437907406e-002,
          3.2921429045194628e-001, 6.5638287024003400e-002,
          1.6431323108570144e-002, 1.7132562226539383e-001,
          -8.3472272115401189e-002, -1.6476963988062823e-001,
          -5.6878414620526469e-003, 2.1663580701156263e-001,
          9.9386782297389023e-002, -1.9948534919403832e-001,
          1.7493654719697542e+000, 7.0822373831489940e-002,
          -8.5633496701406700e-002, -2.9585778732317136e-001,
          -2.1483885073662085e-001, 1.1519545743890020e-001,
          -1.0087796729375217e-001, 1.8874464101047504e-002,
          1.2052620506376314e-001, -9.6944240079176874e-003,
          2.7891576518036387e-001, -2.4044917010577091e-001,
          1.8765742311639161e-003, 7.6642634053443986e-002,
          1.5891659971729363e-001, -8.6284593617168726e-002,
          2.2583992135723890e-001, 6.7268136377487187e-002,
          -1.9439340997007207e-001, 1.9654029980691878e-001,
          6.5105468698247945e-002, -1.6215766002556539e-001,
          -1.0859120534775135e-001, 1.7586330438017295e-001,
          1.1131388129713983e-001, -5.7628296926343536e-001,
          1.6257423497288881e+000, 1.5355160855478889e-001,
          3.3949044042225124e-001, -1.5656796725987737e-001,
          -3.1049740165785844e-001, -1.8120809073781996e-001,
          -1.1077058838631290e-001, 6.2604081490023463e-003,
          1.0482177704826085e-002, 6.9864202681145460e-002,
          -9.3858304860735015e-002, 2.4011529364390824e-001,
          2.0859714388079512e-001, 3.8337644811315880e-001,
          -1.2837714155799954e-001, 1.6500898170844552e-001,
          8.8257301507578334e-001, -7.1024887214039745e-001,
          9.0636034290310419e-001, 1.1097210075077245e-001,
          -2.3290677325628036e-003, 6.8907478907005118e-002,
          3.5273644780152283e-002, 5.4868486101218905e-001,
          8.1220269992380006e-003, -7.9059773480617018e-002,
          -7.1759558875246335e-002, 4.0589972683426506e-001,
          -1.0223651525731688e-002, -1.6763066108825841e-001,
          6.0912978282404349e-002, -1.7268033620993573e-001,
          1.5100371603960078e-001, 4.8562966559957406e-002,
          -1.6357816898271652e-001, 6.6039359399882730e-002,
          -1.0606335775238408e-001, 2.0591404174449501e-002,
          -8.3520385735026778e-002, 1.8845649420814206e-001,
          -1.1605970453804799e-001, 1.8490904371757497e-001,
          3.4034847157297282e-001, -1.0271591830477751e+000,
          2.5662759535326357e-001, 1.0723971696456752e-001,
          4.0670190232166281e-003, 1.9816695665039971e-001,
          3.3604692676474188e-002, 5.8770130653204988e-001,
          1.1262931589934122e-001, -8.0811896968882066e-002,
          -7.5169746032377083e-002, 3.7102529457434258e-001,
          2.0316257518305215e-003, -4.1323510725143668e-002,
          3.4329952129293295e-002, -1.7782608985814671e-001,
          1.9195823643386048e-001, 1.0616550820082164e-001,
          -2.0984654313734188e-001, 5.0723725427665560e-003,
          -1.1685122513284082e-001, -5.4316302736773299e-002,
          -8.2008355890611798e-002, -3.4830666891863496e-002,
          -9.4437821668990576e-002, 3.5835320812247030e-002,
          3.4289340837720206e-001, -6.2249801821069739e-001,
          -5.1266867972206254e-002, 3.6835314074477397e-002,
          5.7143756628946106e-003, 1.3534689140795961e-001,
          2.4486026346622562e-003, 4.9315877170923651e-002,
          1.3169105114905205e-001, -8.2311739591016439e-002,
          -6.7015954928662150e-002, 7.9677467898996068e-001,
          3.8494143710226482e-003, 1.2852384422074103e-002,
          4.7282490236371259e-002, -1.3132075886580549e-001,
          4.3535635916700892e-002, 1.1575350421352809e-001,
          -2.6711224921225524e-001, -2.1336368724456257e-002,
          4.1708951604649117e-002, -5.3119724804314296e-002,
          -9.1806220303353073e-002, -2.2487275801376619e-001,
          -6.5173388824460743e-001, -2.4399320065485630e-001,
          1.9260946056521439e-001, -2.0902377304143391e-001,
          1.4352045788659507e-001, -8.3964957922413402e-002,
          -1.7219168451806738e-002, 1.6370157528398924e-001,
          -3.1694740883158212e-001, 1.8064349264387369e-001,
          3.3086828764656753e-002, 6.8380469904102251e-002,
          3.0458786250450565e-001, 2.0241284396730244e-001,
          7.5023062068866650e-002, -8.6711653423307306e-002,
          6.3793719673547314e-002, -2.8945726491082863e-001,
          4.8428224797627523e-001, 1.7819803182249605e-001,
          -2.0033503308474612e-001, 7.0799805657782173e-003,
          1.9510953359042217e-002, -2.4690642081042441e-001,
          -6.5996494950325843e-004, -1.0153796391533677e-001,
          -5.0649863240670134e-001, -4.3726432664019804e-001,
          7.4125497135324667e-002, -3.7820165225387686e-001,
          -1.5450157209194848e-002, -1.5155243891885362e-001,
          -8.8344103779019661e-002, 9.3018287141338890e-002,
          -2.4803173942565898e-002, 1.6119451673305593e-001,
          -5.1054028673764636e-002, 1.1870827175807695e-001,
          1.2241928380954969e-001, 9.4071274999577348e-002,
          6.1682338742802501e-001, -1.2826827443198108e-001,
          6.7033508090036317e-002, -3.1900544947847687e-001,
          8.3341829272465917e-002, 1.8458078677004083e-001,
          -1.9431664099915053e-001, 3.8195028366267758e-001,
          -5.3755688186879913e-001, -1.5536176368235421e-001,
          -2.3028851278191947e-001, -8.5969056788920292e-002,
          3.6722583009421550e-002, 3.2693047930423748e-002,
          1.8132035761394247e-001, -2.6816910869617860e-001,
          -3.1487832884083931e-002, -1.5637651125384180e-001,
          -6.0254069843548669e-002, 6.3492112636778575e-001,
          2.0857216198672995e-001, 1.0658121108481838e-001,
          -9.3730498782142249e-002, 2.1723857106136593e-001,
          2.2707396013455075e-001, 2.2843494420745258e-001,
          4.7328155791555410e-001, 3.9286587443646243e-002,
          1.0226631804949957e+000, 3.3336705540950681e-002,
          1.2225405704017772e-001, -1.3916018913062847e-001,
          2.5983817134166293e-001, 3.4704632025467974e-001,
          -1.6165241435589800e-001, 2.0182003353711117e-001,
          -7.1209050759244136e-002, -6.1405555849637000e-002,
          3.7112328671908834e-001, -7.3670740451839897e-002,
          -7.3123429432510340e-003, -1.3606649833886805e-001,
          1.8668026741083013e-001, -1.1287217680594208e-001,
          1.1014770629814384e-001, 1.0224876981807773e-001,
          6.3502113188350001e-002, -3.3468539584332840e-001,
          -1.0531783582365133e-001, -4.9277055391113614e-002,
          3.4274343298964539e-002, -2.1024922554615376e-002,
          2.0202747202438845e-001, 3.3494364828679296e-001,
          3.9968111957198044e-001, 6.8587802116823665e-002,
          1.9333456131228557e-001, -9.5715716449337102e-002,
          1.7950786720618583e-001, 1.1275861093271139e-001,
          1.6522005361980069e-001, 1.9965951784049302e-001,
          2.3112735633057624e-001, -3.1533982398758195e-002,
          2.1201755106279252e-001, -1.8372300977504064e-001,
          2.3707342846723778e-001, -1.8962859783437552e-001,
          8.4288983635010389e-002, -4.3888140777641321e-001,
          -8.9142452785386430e-003, 1.4520141046800886e-001,
          4.8282743669394285e-001, -1.7014863344678186e-001,
          1.5294768040157189e-001, -2.0330108282828760e-001,
          3.1865420854402221e-001, -2.6596449899816826e-001,
          1.8721547323236618e-001, 1.1595877523829043e-001,
          1.1242773434237932e-001, 1.6628207816492727e-001,
          3.8697389382775407e-002, 8.4533478057802841e-002,
          8.5103459694489930e-002, 2.0237350027679532e-001,
          2.9238784132859963e-001, 1.9826746830598235e-001,
          5.2467327205862391e-002, 3.1758819334079771e-002,
          1.4211557691681559e-001, -1.4141957573922066e-002,
          8.8428226043455738e-001, 3.0150857593701612e-003,
          -9.0976096862942737e-002, -7.8870831974593603e-002,
          -9.8822696866772225e-002, -5.2911656263690487e-002,
          -1.7425935208364837e-001, -4.8091361604464422e-002,
          2.5955249803014557e-001, -3.7234736495400755e-001,
          -8.1870401147257771e-002, 2.8656832591923764e-001,
          -1.0693968800098565e-001, 1.1605318327737595e-001,
          1.1548398332342967e-001, 2.2029057938255495e-001,
          1.1686412755089536e-001, -1.1893726248857154e-003,
          7.4706757685001499e-002, -3.3275177025435775e-002,
          6.8809221029716450e-001, -1.7266071606888905e-001,
          1.2411198528079817e-001, -5.8439956547034461e-002,
          1.4258403647915666e-001, 3.5442837505052566e-001,
          2.3185046006450119e-002, 2.3561520085163301e-001,
          -2.6741322831834294e-002, -2.0667265660658068e-001,
          -1.0204792274093299e-001, -8.4726649596953099e-002,
          -1.0246539099488887e-001, 1.6656781825721195e-001,
          1.8837215881987415e-001, -1.5717555378582790e-001,
          -9.0547322703775177e-002, 2.9880763717607273e-001,
          -9.3601025627967849e-002, -2.2390670905333562e-001,
          -2.6989369021366894e-001, -1.3655056514984146e-001,
          -3.2612919332922219e-001, 1.2495778237165708e-001,
          7.3532794041861874e-002, 5.2015304874876524e-002,
          4.5547731112790424e-001, -4.6900108244161026e-001,
          1.6834760585688349e-002, -9.8011637779001154e-002,
          1.5319402221590106e-001, -6.8852254703341761e-002,
          6.8826590320292272e-002, 1.2475473674334134e-001,
          3.1297271652909499e-002, 1.4440169781977150e-001,
          -2.3959973558440967e-001, -8.4464699247577421e-002,
          -1.7516796635376292e-001, 1.6986699839236688e-001,
          2.6161623635317310e-001, -2.9957335899608967e-001,
          -9.8139892795868586e-002, 5.0168982472602519e-001,
          -9.8946999506127564e-001, -3.4694385469624572e-001,
          -4.4068401326425477e-001, -4.1067395903577296e-002,
          -4.6372576890932427e-001, 7.6349083690889752e-001,
          1.1739852481208646e-001, 2.9592118793943883e-003,
          1.4799092640848976e-001, -5.9989978416162171e-001,
          1.2988282534903398e-001, 4.7973290962514004e-001,
          -1.0079289913352105e-001, -3.1957592584639594e-002,
          9.0594507678620595e-002, -4.8109688379161651e-002,
          1.1699022252538212e-001, 1.6806273443974434e-001,
          -9.2883707360824366e-002, -8.4686544940607317e-002,
          -3.7762343434828843e-001, 2.8759231022888804e-001,
          4.5284972328232209e-001, -1.7944536073049455e-001,
          2.4381421491464847e-001, 6.5642080516445112e-001,
          -1.7708561679934900e-001, -2.9509076763108033e-001,
          -2.9686017998095704e-001, -4.9404638525010994e-002,
          -4.8836100303246593e-001, 7.2535129715010360e-001,
          5.7117530621803225e-001, -6.1480999530820681e-002,
          2.1959003558144791e-001, -5.8719313446002463e-001,
          1.1963201245442553e-001, 4.8712850355627291e-001,
          1.6212607891933759e-001, -8.0963791292628512e-003,
          3.0363892170756190e-001, -4.6819866033558630e-002,
          1.1232806145804368e-001, 3.6729431450005073e-001,
          -5.4339937652116324e-002, -1.7457193045336683e-001,
          -3.1746505902435046e-001, 1.6061505955904101e-001,
          5.2296089588390948e-001, -2.3033490477612781e-001,
          4.1191262217359470e-001, 8.6494934712314531e-001,
          -8.8250035254207049e-002, -2.6950683217941646e-001,
          -3.0631901810479761e-001, 4.7473295305209245e-002,
          -3.4079944724014027e-001, 1.2090068815590532e-001,
          1.5507392918283419e-001, -3.2330789409558087e-002,
          1.2558939164286206e-001, -3.0946779818847137e-001,
          1.5277586978668764e-001, 6.2093923086149055e-002,
          1.5429233003277215e-001, 1.8464857315377123e-001,
          3.8907902396379102e-001, -1.2520350404321303e-002,
          -1.0521448908716863e-001, 2.4144510269011438e-001,
          1.4610110740512222e-001, -1.7652018315924906e-001,
          1.2350107505495079e-003, 6.1604010021684164e-001,
          6.5793372366102976e-001, -1.7399474024729691e-001,
          3.2348028515019839e-001, 7.0022208431647515e-001,
          -7.0249505449814495e-002, -2.7084491183640402e-001,
          -1.5515393780191547e-001, 9.7723041176390510e-002,
          -3.6103433786149625e-001, 5.4628465411551558e-002,
          1.3692014892267967e-001, -3.4301188228484360e-002,
          8.2712532506002315e-002, -2.9408714674698372e-001,
          1.7040799608328108e-001, 6.4149977441499861e-002,
          1.6196491023729984e-001, 9.3190592298157168e-002,
          4.2683027529709938e-001, 4.5412119303267322e-002,
          -1.1783210608115326e-001, 2.4618491092277228e-001,
          -5.7166971368477870e-002, -1.7977176897965513e-001,
          3.0464669513227172e-001, 3.3077549929834510e-001,
          6.6180804827721817e-001, -1.7842238614846082e-001,
          3.4091411502092595e-001, 6.9648817673564578e-001,
          -1.6222497296580132e-001, -7.2155417508123418e-002,
          -1.4263013377492023e-001, -4.1395900073277453e-001,
          4.9992415958269726e-002, 7.0275895709152283e-002,
          4.8305350960495097e-002, 9.2334019688776248e-002,
          -8.2401813476028929e-002, 2.3321474494905176e-001,
          -1.1055947533729013e-001, 1.5664546701750220e-001,
          -1.4291830847156833e-001, 8.4361296055706070e-001,
          3.2631778161717284e-001, -9.8087543820248635e-001,
          3.2654724047959394e-001, -3.4442922746617789e-002,
          5.8605326958477283e-002, 4.5428134028733899e-002,
          -2.5115694241636061e-001, 8.1439870951440244e-002,
          4.8695145732621396e-002, -2.9936997198724495e-002,
          -9.2646596866150135e-002, -1.1733333512955028e-002,
          -1.5923960042693910e-001, -7.0919027194155285e-002,
          -3.3562342098805951e-003, -3.7821600785171661e-001,
          1.7506448453325973e-001, 6.5104281375393383e-002,
          -3.3175905842861911e-002, -5.4487499424594240e-003,
          -9.0238700461331839e-002, 1.3537556551777552e-001,
          -1.0209388081647758e-001, 1.8738465859778525e-001,
          -1.4477295848433042e-001, 7.3441207380868123e-001,
          3.4887525212363041e-001, -9.8225069007677523e-001,
          1.8253007123057760e-001, -1.3502791222841329e-001,
          -5.5615045413583086e-002, 1.2248681462689899e-001,
          -2.4327544489923719e-001, 4.5339208296558721e-002,
          -3.9672901340595243e-002, 6.6203489510386460e-002,
          -1.0507521740236164e-001, 6.1400278580069821e-002,
          -3.4990127551491224e-001, -1.5389137557406438e-002,
          1.7960913648955404e-001, -1.3310377561529041e-001,
          4.7598131500322044e-001, 1.2440360949210501e-001,
          -5.0562262190068796e-001, -8.4024135297822893e-004,
          -3.3180303135402328e-001, -3.2539911518802828e-001,
          -1.2378454984974861e-001, 1.8776384977878289e-002,
          -5.0164785152165225e-001, 4.7481035036560024e-002,
          6.0312717254676603e-003, -1.4356538338785627e-001,
          2.1147963027189581e-001, 5.9991262885698372e-002,
          -1.8952311461972093e-001, 1.5715601552608127e-001,
          -1.3851826845793314e-001, 8.0923503559935675e-002,
          9.2069779150833225e-002, 1.7645228923391262e-002,
          4.1731085610209867e-001, 5.0589036230505695e-002,
          -5.9535325650189853e-002, -9.7718646969173206e-002,
          1.5971644312051866e-001, -2.0227776919846682e-001,
          5.0224925210772575e-001, 1.2706665493984320e-001,
          -3.4249944211161854e-001, 1.8443100265866659e-002,
          -3.9614241198500388e-001, 9.3748647353208200e-005,
          3.0263654790407594e-002, -7.2018395562979842e-002,
          -5.1930193284558901e-001, 1.4747932750154119e-002,
          1.5034548714748697e-001, -3.3747776085615945e-002,
          3.5090479781548223e-001, -5.0614178275411960e-002,
          1.1964625426613101e-001, 1.4516816426720600e-001,
          -1.8516733968770485e-001, 2.0642432070512631e-001,
          1.1831676922327586e-001, 1.4975279027253266e-003,
          1.5421106893393105e-001, -7.7577231079026629e-002,
          -1.4383311474886157e-002, -5.7265709086799987e-001,
          5.2097390655784370e-001, -2.1837910654438789e-001,
          1.3825540556228608e-001, 1.6088241117769000e-001,
          1.1519963647767986e-001, 4.2362134053457692e-002,
          -4.4357271473581394e-001, -1.2876995521934614e-001,
          4.4384502976030854e-003, -1.0117694914989511e-001,
          -5.7551130246083315e-001, -3.2633660147543354e-002,
          1.0343375141520296e-001, -1.1368492685008922e+000,
          -1.4244920802646655e-001, -2.6452337264986060e-002,
          -8.0628612668124156e-002, 5.2348185081925180e-001,
          -3.8962213525159148e-002, 1.0738718653443763e-001,
          -6.2786166704237728e-002, -9.4006966859503951e-002,
          -1.0871498100828117e-001, -4.6319402128495467e-002,
          9.4529228710572399e-002, -5.5842130413449875e-002,
          5.2030672748316587e-001, 1.7834314196202858e-001,
          1.1292143839227177e-001, -1.1253872340281390e-001,
          6.6870274697710119e-001, -6.4039169680290581e-002,
          -1.9859104077564188e-001, 3.0811777537657192e-001,
          -1.9057096089745393e-001, -7.1176879679204541e-001,
          1.2201149425941883e-001, 3.4283288754107737e-002,
          -3.5243240546632616e-002, -3.7568860478949812e-001,
          1.9370123685900520e-001, -4.8197623922799936e-002,
          -8.5591334508171267e-003, 7.4025002490341030e-001,
          -2.0606638112331301e-002, -4.0843030524987534e-001,
          5.1971875108849333e-002, 1.2718441745424305e-001,
          -2.7091499133369112e-001, -1.7932288123647708e-002,
          6.4788691452591562e-001, 1.6590737447537252e-001,
          6.8155522425537807e-001, 5.3866779583532656e-002,
          8.1934675515086797e-001, -1.0999334975179838e-001,
          9.5977266216386858e-002, 1.1288215550034363e-003,
          -1.6026412735573708e-001, 2.5070638418653313e-001,
          5.3584603744683301e-001, -3.6012325660224204e-001,
          1.1958855672346178e-001, -1.4399489355580657e-002,
          -2.1952613003609184e-001, -8.3891049160228148e-001,
          8.4136884392941133e-002, -1.6270821604585936e-001,
          6.2792868555090415e-003, 5.9851578800424838e-003,
          -2.2943361887792869e-002, -3.6332495681764104e-001,
          -1.5055575303567775e-001, 4.8667058509549818e-002,
          -5.6092291082777912e-001, -1.4343538330630776e-001,
          2.1872685091957114e-001, 9.0485943111796474e-002,
          2.1097257094294442e-001, -3.3661425541860419e-002,
          1.2558214033605786e-001, -1.1631162983998737e-001,
          8.9784311167644161e-003, 1.7937403619058812e-001,
          -1.0135142663663967e-001, 2.0322661249740992e-001,
          1.7549830777323480e-001, -4.0015335971481775e-001,
          1.5851494403844010e-001, 1.1666819205141657e-001,
          -2.8544869673038964e-001, -5.4692321810613620e-001,
          -6.7112199009339540e-002, -1.3980942005861879e-001,
          -2.2390245339929150e-003, -4.2486388965870932e-002,
          1.2911060282135833e-001, -2.1295809851169736e-001,
          7.4072458368227984e-002, 2.3226859906019467e-001,
          1.5535449584632072e-001, 6.2853715421972225e-002,
          4.4100915873857427e-001, 3.3383128838710519e-001,
          1.6110018765602716e-001, -3.8877237856370400e-002,
          -1.1262825237386605e-001, 5.6292713247261796e-002,
          3.7903493680075014e-002, 2.3300196141641779e-003,
          1.7733204605904596e-001, 1.9850230023657423e-001,
          1.8097580920650702e-001, -3.4534013965005406e-001,
          1.5137198862926829e-001, 1.4824555638058456e-001,
          8.1493190752846223e-001, -3.3049334421056520e-001,
          -2.0705268245974968e-002, 1.6639619089350810e-001,
          4.5862766265260577e-002, -5.1800236916686226e-002,
          9.6448924326574231e-002, -8.3634039822145900e-002,
          2.0217344961924039e-001, 2.4979752792388205e-001,
          6.9239931668799951e-002, 1.0982414178763655e-001,
          -1.4145122442198230e-001, 4.0316910911454909e-002,
          9.2352151662563983e-002, 7.9498296496131379e-003,
          -9.9462670136755305e-002, 5.7133405753196566e-002,
          -4.9878334491405579e-002, -2.9890496662589028e-002,
          6.1924961125607814e-001, -2.2069806304324122e-001,
          7.4471128587427576e-002, 2.2913520040472573e-002,
          1.4758073192455873e-001, 6.6828943459307399e-002,
          1.6372976809843978e-001, -2.6232502714073878e-002,
          -1.4209097011223876e-001, 1.3949080186504073e-001,
          5.2176168001961128e-002, -9.6124170757598160e-002,
          -8.7789672781342282e-002, -8.2153210142729652e-002,
          9.1361680038583665e-002, -2.1350097248310017e-002,
          9.3467635046218162e-002, 2.5076601163171092e-001,
          -5.0854257520366419e-001, 6.8673429813537606e-002,
          -3.3741047733565460e-001, -5.7750440666047120e-002,
          -9.7299228098013085e-002, -7.0676740120732759e-002,
          7.1931634172409220e-002, -3.9690293242708286e-002,
          5.2114685478119007e+000, -4.3950593735391047e-001,
          1.9563990985574142e-001, 6.0950566276579266e-001,
          1.4981343892936277e-001, 3.3036338230535661e-001,
          -5.9482712911364366e-002, 1.5822458163305519e-001,
          -2.8260987045069810e-002, 1.6625119039262759e-001,
          5.9985300153925850e-002, -8.4771113183624597e-002,
          -8.7550404167017259e-002, 2.1580380433604263e-001,
          3.7972237386116653e-001, -2.9437191545617308e-001,
          2.3937649291152649e-001, 2.4758820873267132e-001,
          -6.8600497662402016e-001, -3.5104389612413067e-001,
          -3.2670954972896887e-001, -4.5508429373697479e-002,
          -3.5471955356240886e-001, 5.3632195194786354e-002,
          9.3658684918380239e-002, -2.4963923624740561e-001,
          7.7823839283023777e-001, -3.5687219739993153e-001,
          6.0199926022004954e-002, 5.6392466456888624e-001,
          -1.1085923428397611e-001, 9.0384725626188267e-001,
          9.1898942744768147e-002, 9.4559967518521165e-002,
          4.5559317505754970e-001, 2.3464498241231474e-001,
          -8.9418017532943671e-003, -8.5162840776314169e-002,
          -4.6920497553977969e-001, 1.7409026267714950e-001,
          3.5999507819661530e-001, -3.6642783334263618e-001,
          1.3778669310779057e-001, 5.6844881316127338e-001,
          -5.1833487026141478e-001, -2.7221603493261670e-001,
          -2.3276368922691690e-001, -1.7675811032067332e-001,
          -4.1004489619165446e-001, 4.1176940203863949e-001,
          1.9581367210269535e-001, -2.4944778666151027e-001,
          1.3186067659401027e-001, -3.4605784920892352e-001,
          2.1697144999675416e-001, 1.4699013912033798e-001,
          -1.0169149847155498e-001, 2.3456552187323354e-001,
          2.9345951148296290e-001, -3.8810537371136832e-003,
          7.8918076803623305e-001, 1.3214481041119552e-001,
          -2.8436388380360827e-001, -1.7613034189245019e-001,
          -4.0879239950277130e-001, 9.1926768558302396e-002,
          4.5446065125838808e-001, -1.5192902188980162e-001,
          3.3124223236911260e-001, 6.7287413234480264e-001,
          -4.4771979071475804e-001, -2.3169437671422707e-001,
          -1.6409064707389537e-001, -2.0958750329043260e-001,
          -1.2336049810785256e-001, 3.7116621567738550e-001,
          2.1533422489577647e-001, -5.4309796239742511e-002,
          1.6810132751831644e-001, -4.0675385367522804e-001,
          1.6188827938459965e-001, 1.3475427978884424e-001,
          -1.0196500210786998e-001, 1.7572148077416955e-001,
          2.8681513088610061e-001, 3.2006239713400931e-003,
          3.0492172091402470e-001, -4.7942781303109014e-002,
          1.5544571233441970e-001, -1.8453023736699520e-001,
          -1.9089602775807049e-001, 4.7124730342683241e-001,
          6.2017665802339228e-001, -1.8234715145089930e-001,
          3.3248249717175860e-001, 6.4137072338071166e-001,
          -1.2849866675029650e-001, -2.0754497427710925e-001,
          -1.6370614785233950e-001, -2.1353239188789075e-001,
          -1.4540974395790995e-001, 7.4778787231300703e-001,
          1.7651178470158227e-001, -1.0638399648725169e-001,
          -2.0854755290462473e-002, -4.5105262927575379e-001,
          1.5196866739467060e-001, 1.3249811005330286e-001,
          1.6318468404015826e-001, 7.8163310568203359e-002,
          3.7156008228984283e-001, 1.4275562832656263e-001,
          2.8642279167871321e-001, 1.3765609442149462e-001,
          3.3366888808963643e-002, -1.8182635085202786e-001,
          -1.8453115988457641e-001, 6.3660076274575772e-001,
          6.2750206691695531e-001, -4.2467665853740305e-001,
          1.5918940690629638e-001, 6.6132948703885241e-001,
          -3.9965902205650600e-001, -8.8458317139072790e-002,
          -1.4844226436127636e-001, -3.8152247758157939e-002,
          1.0312853377833764e-001, 7.2984143750655942e-002,
          -2.8110441397567437e-001, -1.9496021903684918e-001,
          -6.1154246568126203e-001, 2.0722656618135615e-001,
          -9.0960650377673147e-002, 1.3957907057893093e-001,
          3.6866794565607224e-003, 3.7724529675008844e-001,
          1.9580190785604379e-001, -5.1340193478715247e-002,
          7.4679005949494878e-002, -4.0930419603140478e-001,
          8.9635712495189285e-002, 7.8303813804738887e-002,
          -3.1284903952545889e-001, -7.1191077716839857e-002,
          8.7866183073037021e-002, -3.8058334817679992e-002,
          -6.6181460606954479e-001, -4.0788900457779435e-002,
          -4.4087527937164495e-001, -2.2191439152628911e-001,
          -3.8179097395840628e-001, -3.8473458403534347e-002,
          5.4628665879513316e-001, 6.5320810703967128e-002,
          -2.6824614193659874e-001, -4.8918487636762303e-001,
          -3.1176224334204744e-001, 9.6520422876309006e-002,
          -1.2364059634931165e-001, 7.8682460972792440e-002,
          -1.4599862163454289e-001, 1.1624871498232452e-001,
          1.7715484759492089e-001, 2.9929413583139303e-001,
          9.1262936259923724e-002, 1.1012463919662069e-001,
          5.2404329917179707e-002, 1.6565393070393436e-001,
          -3.5746291595582030e-001, 5.6799817883380073e-002,
          8.1552964915170167e-002, -4.6303201976422313e-002,
          -6.9017667215644540e-001, -2.3832260330586479e-002,
          -1.0039101705277743e-001, -2.4230207284188440e-001,
          2.0229252959754646e-001, -4.2261273436531094e-001,
          1.6634194864298071e-001, 1.2458662399650292e-001,
          -4.5843675331380601e-001, -5.9905381141265042e-002,
          -3.6793551788632833e-001, 1.2354682910467921e-001,
          -1.2295881312149047e-001, 2.7805093178127238e-002,
          -1.5221978084013085e-001, 1.2203468005885777e-001,
          1.2758585299753020e-001, 3.0712917875469309e-001,
          1.3785713365012381e-001, 2.3525527686930936e-001,
          6.4601192417532483e-002, 1.7458896364656071e-001,
          -2.3822459047693786e-001, 6.4006797492268869e-002,
          -1.0438829782576733e-001, -6.5784600008470986e-002,
          -4.8115813877392943e-001, 4.4834886389136040e-002,
          -9.1295132463382975e-003, -1.3356034947038914e-001,
          5.3131743142125842e-001, -1.2888571185671238e-001,
          2.7790557044025055e-001, 6.8092149838861596e-002,
          -2.1433280543890104e-001, 2.7909289668341782e-002,
          4.2098638239762676e-002, 3.1237016651637944e-001,
          -1.3441541511925728e-001, 2.6162337371894695e-001,
          7.7808785614296563e-002, 1.0223563262606197e-001,
          2.1114153553344400e-001, 6.2682527417889614e-002,
          -9.6601039969206298e-002, -1.2099431164486019e-002,
          2.9249646706645649e-001, 4.0974989383038013e-001,
          -9.4150889826589979e-001, 1.3461585623013803e-001,
          -6.9503883426254673e-002, -7.0019483928749307e-002,
          -4.5245885020210352e-001, -5.1074886435964639e-002,
          -2.3901620274047652e-001, -6.9030065744720023e-002,
          3.4333701054006360e-001, 3.4945263899241169e-001,
          1.5825393810825178e-001, -3.4612345801534494e-001,
          1.5952116084245499e-001, -1.8860487668362283e-001,
          -3.9779252362033957e-001, -1.2648169534227520e+000,
          -3.7325313768276658e-001, -1.4592306037401370e-001,
          -8.8960332939847283e-003, 9.3114461650093655e-002,
          3.4517779908517877e-002, -7.7280101355091391e-001,
          -2.5140074172924620e-001, 9.0797197716057113e-002,
          -6.0527384606196217e-004, 8.8400316656596167e-001,
          -2.2428642268620493e-002, -3.1724197609296345e-001,
          6.1815151240383025e-002, -9.4977202216251749e-002,
          -1.7472959195157595e-001, -8.7426577638659349e-003,
          2.9095434512134373e-002, -1.9436534599004740e-002,
          -1.3062035458419949e-001, 3.3634934001084860e-001,
          8.4726381451374388e-001, -3.5283293216081074e-001,
          1.6520313566470332e-001, -3.0694985674001952e-002,
          -4.0082609601734642e-001, -1.6862303694905847e-001,
          -1.0780351775239558e-001, -1.3103246842475194e-001,
          3.5267545228938096e-001, 8.2496529514885591e-002,
          -3.5566390512001482e-003, -1.7906864480317189e-001,
          2.4573616481680306e-002, -5.8299418212345876e-002,
          1.4228143261736906e-001, 2.8387207493302674e-001,
          7.3926425634598419e-002, -3.5960950802651404e-001,
          -1.2090288053424797e-001, 3.2444717221818999e-002,
          -3.7584211387475319e-001, -2.1710939439571009e-001,
          1.8662855470289716e-001, 1.0158505586703150e-001,
          2.3647933591284828e-001, 1.2023654821388428e-001,
          1.4672292714755217e-001, -1.3593640385287084e-001,
          1.2746618054500719e-001, -1.3800223414646481e-002,
          -1.1104668175634769e-001, 2.3680137681922533e-001,
          2.9532976075370621e-001, -6.1738530122029878e-001,
          1.2869680337776884e-001, 3.9269289709442651e-001,
          -1.3378929512055924e+000, -7.5208887839034164e-002,
          -1.6022074176052320e-001, -4.2951970191856967e-002,
          1.0413110390285739e-002, -3.6604862891749877e-002,
          1.7038679470970636e-001, -2.1021672492850624e-001,
          -1.2078844013114549e-001, 3.4875685085787345e-001,
          -1.4057541559982639e-001, -1.8087227721347993e-001,
          2.0986618365962487e-001, 3.6575512948686900e-001,
          2.2637160723063859e-001, 1.1790991737714676e-002,
          -4.1243102763155660e-002, -8.2669604485639758e-002,
          9.8518926377254679e-002, 1.3515920049722233e-001,
          2.9682795975099463e-001, 8.6502869017526934e-003,
          2.1427371848871965e-001, -5.0769454293478622e-001,
          5.5619120682773311e-002, 1.6119777043577085e-001,
          1.1449397225370556e-003, -9.3396229179007334e-002,
          -1.6193528888920491e-001, 3.6504407854693566e-001,
          5.0443554195671085e-002, -5.0370521698001311e-002,
          1.6070301770481579e-001, -2.1231919526165727e-001,
          1.1159260280666367e-001, 2.8293493336868220e-001,
          -1.5660575244928160e-001, 1.1110512033141098e-001,
          -1.8192375033500832e-001, 3.6075926301355088e-001,
          3.3264931079616472e-001, 6.3976757223144307e-003,
          -4.0199605709931044e-002, 8.1741111464760860e-002,
          2.7033723166042210e-002, -5.6684611068934920e-003,
          5.7213650921614867e-001, 2.4620288930547976e-002,
          3.1164173300967875e-002, -1.5237754297115677e-001,
          5.2829606632913619e-002, 8.1222215570330603e-002,
          2.6915471820852399e-001, -5.1783320764892538e-001,
          -1.6741698521973478e-001, 9.2618005492084057e-002,
          4.8232827338125797e-002, -4.5345528778329321e-002,
          1.6555382150012110e-001, 2.4440566031600233e-002,
          7.4616211956438847e-002, -6.8446100736448676e-002,
          9.8735247711973770e-002, 1.5676411770923804e-001,
          -1.4971570845077090e-001, 4.3674999508437180e-002,
          1.0451355155153436e-001, 1.8135426128135491e-002,
          -6.8602935329628703e-002, -7.1789024477754995e-002,
          1.7963628418917639e-002, -3.0836272922042336e-002,
          6.1680063853490963e-001, -1.7742734164351298e-001,
          4.9232717964352246e-002, -1.2287306267772025e-001,
          1.4424146594703507e-001, 1.1490905025256531e-001,
          3.2748037439078520e-001, -6.4432571562220625e-002,
          -1.5353102951080430e-001, 1.3223767483161170e-001,
          4.6100619105881369e-002, -5.0639868125195137e-002,
          -3.8713401815082468e-002, 1.6084804129422225e-001,
          8.7612703150085791e-002, -2.5383337438355319e-001,
          1.5190625814236319e-001, 1.1920756770433753e-001,
          -6.1445094367163644e-001, 2.6695997104625818e-002,
          -3.8051874253354723e-001, 1.6814869252878639e-001,
          -1.0633774108896356e-001, -6.1237828064460806e-002,
          6.2555565820477527e-002, -3.3669952191751444e-002,
          1.8068976152079967e+000, -4.4921970031512631e-001,
          1.6530930182061443e-001, 4.5201546976018087e-001,
          1.5573502060293409e-001, 3.1303214665864265e-001,
          5.8126928447864157e-002, -1.8230183345820744e-001,
          -5.7692246079432311e-002, 1.3714110599247251e-001,
          6.0263920847479585e-002, -9.6582331859844869e-002,
          -8.0771874603336249e-002, 9.3914080531858168e-001,
          3.9774513142799317e-001, -2.8897720349718869e-001,
          6.0265001819694008e-001, 2.7842805583366886e-001,
          -6.1103051051973156e-001, -4.1340974737908498e-001,
          -3.1669365311696390e-001, -4.8664673161245559e-001,
          -3.9544692769699324e-001, -4.3093764236291326e-002,
          7.9838064876744719e-002, 9.9619356062699643e-002,
          1.2274643398049925e+000, -3.6268649051475604e-001,
          1.3482195938987435e-001, 4.3223831221229431e-001,
          1.5026977314072423e-001, 8.7765583652647450e-001,
          2.9554423566067500e-001, 1.0100071449025563e-001,
          1.9279426648326736e-001, 1.6463992247926867e-001,
          2.1776093032503438e-001, -9.1461539418407109e-002,
          -1.2965876100386900e-001, 2.4569073973613031e-001,
          6.6179436200759378e-001, -1.3811046271448316e-001,
          5.0419761525670259e-001, 2.5565066663486585e-001,
          -4.5279163323299765e-001, -2.7279082760982204e-001,
          -7.1559321168262677e-002, -5.6499673162465913e-001,
          -3.0424585017910488e-001, 3.8377929892442830e-001,
          1.3444285226091093e-001, -2.4868307960683103e-001,
          2.3558973670240305e-001, -3.5637698967457304e-001,
          2.4715160066024827e-001, 1.8229423427109148e-001,
          -9.8019936252576240e-002, 4.1980555496233107e-001,
          2.8573467418619430e-001, 2.1931998926437785e-002,
          3.0549177229560459e-001, 1.6279098775693951e-001,
          -5.4620013311012405e-001, -7.9643124190937359e-002,
          -2.6619513449063492e-001, 2.6053354903905768e-001,
          3.9116520620958317e-001, 1.4411375704430403e-002,
          3.0084692753599013e-001, 5.9181299817015576e-001,
          -4.4725506340366827e-001, -2.2417433055015332e-001,
          -2.3602758284775327e-001, -5.8263706133123205e-001,
          -2.9549842593324344e-001, 3.6931241925887875e-001,
          1.7879244183700296e-001, -2.3894997276108010e-001,
          2.3958695634614585e-001, -4.0072717729577512e-001,
          1.5132486824233554e-001, 1.0610656667065010e-001,
          -1.0413033258686674e-001, 2.2326317423060971e-001,
          2.9107336112627208e-001, 1.0118635051002063e-002,
          3.1697378795062670e-001, 7.5347604733804321e-002,
          -6.1854144012052248e-001, -7.4878888305996802e-002,
          -2.2990222866014257e-001, 1.2120379404875094e-001,
          3.9424624964525662e-001, -5.6213671305713704e-002,
          1.5507121348139488e-001, 6.2152742608972045e-001,
          -4.4455768788901184e-001, -5.1099380953781548e-001,
          -1.6211600608096641e-001, -2.4321666390955610e-001,
          -2.2548308854732271e-001, 3.2723525812083620e-001,
          2.1427575303747134e-001, -4.8166523699182839e-001,
          2.3675267210990250e-001, 3.0901071175017173e-002,
          1.5589780995562974e-001, 1.0566844552766612e-001,
          -9.7580187923156037e-002, 6.0992029988318361e-002,
          2.9052189032889786e-001, 2.1567692060616102e-002,
          6.3592491225188330e-001, 6.0431188711156859e-002,
          8.2763283244103480e-002, -8.3607307402506978e-002,
          -2.3284581059622947e-001, 4.1423705585908083e-001,
          5.7184049364088030e-001, -1.0612760202084595e-001,
          1.5522593181279515e-001, 6.3523052793654633e-001,
          -1.1182143862460454e+000, -1.7576704470387480e-001,
          -2.5401049347320609e-001, -3.7257706596285856e-001,
          3.4374610523067267e-001, -2.5151439113541857e-001,
          -5.0175073764377187e-001, -4.1099056072455409e-001,
          -3.1548104610377820e-001, 1.2140467236293796e-001,
          9.5356361287552469e-002, -4.2262329542694999e-001,
          -2.9470252944488868e-002, 1.5371561507826681e-001,
          3.9042481440449650e-001, 5.2400956897382933e-001,
          -1.9164963476446362e-001, -5.0891152930476380e-001,
          1.5243557984222708e-001, 1.2425031240012592e-001,
          -5.8127778987570111e-001, 3.1024253864136198e-002,
          -4.6961706196042341e-002, -5.4832906348832117e-002,
          -4.3595307678371648e-001, 1.9246181257127382e-001,
          -1.2482042013078314e+000, -1.7467143353242176e-001,
          -3.2375545811402145e-001, 5.3955425398356016e-002,
          6.6425250668500369e-001, -1.2334327607914338e-002,
          -1.0043300404819293e+000, -4.0522646913865157e-001,
          -3.2162193893563840e-001, 3.4885495393775134e-001,
          -1.9139404234184895e-001, -3.0220719284491016e-001,
          -1.2297484637555524e-001, 1.1638950977932287e-001,
          4.2567642787293447e-001, 8.0574801860401235e-001,
          -1.6699262690014383e-001, -2.0144302658641861e-001,
          8.2928532915024170e-003, 1.6858202577334502e-001,
          -3.8910973927545639e-001, 5.0058075266816514e-002,
          -5.1996933926660993e-002, -6.6755014422040612e-002,
          -3.8874531648920385e-001, 1.7441579690945797e-001,
          -2.0415413381262480e-002, -1.1660096008288653e-001,
          2.9299707680067333e-001, -3.2755141579714336e-001,
          1.3388111012323820e-001, 1.2746679817893997e-001,
          -4.5814810595881383e-001, -4.4715558908722230e-001,
          -3.7745685712578469e-001, 4.5874172877009084e-001,
          -1.9496823691790124e-001, -7.6728858871041428e-001,
          -7.7551425364411177e-003, 1.1727594556578413e-001,
          3.7162891374963702e-001, 3.1267599725044154e-001,
          7.2420763427581678e-002, -3.5205023915874552e-002,
          1.0220655337201075e-002, 5.0866539129250143e-001,
          -6.9285300867287003e-001, -2.3808942570341100e-002,
          -1.0620237706352623e-001, -6.3558587909147479e-002,
          -1.4116346824029019e-001, 5.5678767726195462e-002,
          7.5352031419720744e-002, -1.0878803799605009e-001,
          3.0169032543889718e-001, -1.2132051108854539e-001,
          2.0183433204363746e-001, 4.8352424838358030e-003,
          -2.3428403610365859e-002, -4.8803638294126039e-001,
          -8.4812022105420992e-002, -4.9964996992681476e-002,
          -2.0833630479321580e-001, 3.9415865374372688e-001,
          -8.8852539781177423e-002, 6.2821064022240830e-002,
          -4.8645136105049891e-002, 4.7379623697153671e-002,
          -2.4525287862704453e-001, -7.8370198646637065e-002,
          -5.9510840580542450e-002, 5.6886566910350378e-001,
          -2.2660044283402689e-001, 1.2684786993046218e-001,
          -3.2470271652658622e-001, -6.8462131232816789e-002,
          4.1185741255816560e-002, -3.8200468976151003e-004,
          -7.7088975471744814e-002, -3.6422383392450436e-002,
          3.4271725084831667e-001, 4.3407199696536608e-001,
          4.1799153762246866e-001, -7.1730790797056732e-001,
          2.0577420779259373e-001, -2.4728473050129460e-001,
          -2.8909586751748639e-001, 9.4469033523652504e-002,
          -1.1252980124341999e-001, 4.4592136729494580e-001,
          1.7067963745380749e-001, 6.0139687051142997e-002,
          -2.8789897217247584e-001, -4.9192897414973946e-001,
          -2.5114528889800969e-001, 8.9294390016371517e-002,
          3.2516438788290483e-002, 3.5324579249618715e-001,
          -3.6085395442673772e-002, -3.1319293758155486e-001,
          -1.0426237827044070e-001, -8.4804180082557773e-002,
          -2.4050217959728995e-001, -1.4491189863391274e-001,
          -1.0111709337688103e-001, -3.0730273791859757e-002,
          3.1254154602985768e-001, 3.2845226394879656e-001,
          8.0339195682356579e-001, -2.1265181290061266e+000,
          1.6282998541747590e-001, -2.3604852067688087e-002,
          -1.0865937757278013e-001, 1.0425814793920631e-001,
          -8.9968145318320245e-002, -3.8152413621415665e-001,
          1.2396939987571871e+000, 3.6226281593981402e-001,
          -6.1143326441014931e-002, -1.3840456865506900e-001,
          -3.5169818330397234e-001, 4.0267014353376385e-001,
          1.7531591416398035e-001, 2.3786294166480277e-002,
          -3.5499121091475266e-002, -2.1077651382892429e-001,
          -1.0270016542865185e-001, 3.4653860441677981e-001,
          -4.8579126840443222e-002, -2.6806246268677247e-001,
          -3.8379258010642202e-002, 2.9039259162730774e-001,
          1.4563849553247621e-001, 1.1593786873332755e-001,
          1.3717335997741167e-001, -2.2073249977323045e-001,
          1.2042526125324403e-001, 2.1499771899006104e-003,
          -2.1514892295086494e-002, 3.1806184823179262e-001,
          9.9305287703263329e-002, -1.1611942389598966e-001,
          9.7693393646404045e-002, 2.6713794973870786e-001,
          -6.7269673141824485e-002, -9.2321369526970648e-002,
          -2.6896545906577296e-001, -1.0277870864937498e-002,
          8.0300482333853535e-002, -1.4014948649056599e-001,
          1.5741633945805608e-001, -2.5044622261407246e-002,
          -1.6853098537335129e-001, 8.6581410657807278e-002,
          -4.0444612787636530e-001, 6.7122118381062162e-002,
          -4.6206299371657183e-002, 1.8369409749885229e-001,
          3.1478110194323963e-002, -9.8624984006252629e-003,
          -2.5045811062566106e-002, -5.6312870722723618e-002,
          3.8402910352490738e-001, 5.6718195487921643e-003,
          5.6885126865135782e-001, 3.8597563471961020e-002,
          2.2357415540009998e-001, -1.1928896700138353e-001,
          5.4329931443506063e-002, 9.7076095197865309e-002,
          -1.8130739389318731e-001, -8.5046314428320322e-002,
