%YAML:1.0
mlp: !!opencv-ml-ann-mlp
   layer_sizes: !!opencv-matrix
      rows: 1
      cols: 3
      dt: i
      data: [ 330, 21, 12 ]
   activation_function: SIGMOID_SYM
   f_param1: 6.6666666666666663e-001
   f_param2: 1.7159000000000000e+000
   min_val: -9.4999999999999996e-001
   max_val: 9.4999999999999996e-001
   min_val1: -9.7999999999999998e-001
   max_val1: 9.7999999999999998e-001
   training_params:
      train_method: RPROP
      dw0: 1.0000000000000001e-001
      dw_plus: 1.2000000000000000e+000
      dw_minus: 5.0000000000000000e-001
      dw_min: 1.1920928955078125e-007
      dw_max: 50.
      term_criteria: { epsilon:9.9999997764825821e-003, iterations:1000 }
   input_scale: [ 3.2589208595539381e+000, -1.7468287364655681e+000,
       3.5696101061751508e+000, -1.7986544584509432e+000,
       4.1227109430091629e+000, -1.7741567137837617e+000,
       4.1488432141225919e+000, -1.6382790078066785e+000,
       3.4800564678465267e+000, -1.3595616439347968e+000,
       2.9140507935803406e+000, -1.1519911934575604e+000,
       2.6007505815156517e+000, -1.0314263912963431e+000,
       2.4845094541266666e+000, -9.6954571743070461e-001,
       2.5965300568429850e+000, -9.9741355950915034e-001,
       2.9451271643599064e+000, -1.1163570097161857e+000,
       3.6520619393091058e+000, -1.4422894178285963e+000,
       4.7514168880736865e+000, -2.0705489395133290e+000,
       4.5024189032696533e+000, -2.1893997946754302e+000,
       3.7531737355170867e+000, -2.0661391222871113e+000,
       3.5098288578072951e+000, -2.0437669984966464e+000,
       3.4586814477997314e+000, -1.7882387915704088e+000,
       3.8988470746661514e+000, -1.8899140562184693e+000,
       4.3819453175314491e+000, -1.7888374281734241e+000,
       4.4422383495703652e+000, -1.6831589656682395e+000,
       3.7693821190156123e+000, -1.4649617585117727e+000,
       3.1595394823384826e+000, -1.2794863165063339e+000,
       2.7818130929766895e+000, -1.1419081250385690e+000,
       2.6381889704726245e+000, -1.0747662504695368e+000,
       2.7704755397179546e+000, -1.0932683174113453e+000,
       3.1475584500520912e+000, -1.1967991857697571e+000,
       3.9214663784322323e+000, -1.5081136548341436e+000,
       5.0954452214865302e+000, -2.0924854680815992e+000,
       4.8033510447982737e+000, -2.1806482367214262e+000,
       4.1247367131831449e+000, -2.1615020126485507e+000,
       3.8626503257007805e+000, -2.1781685687129002e+000,
       3.5251136743383382e+000, -1.6164949830340645e+000,
       3.9940842278742550e+000, -1.6884020454962358e+000,
       4.2646969852777534e+000, -1.4716739912813013e+000,
       4.5451488305731402e+000, -1.5344207275440624e+000,
       4.0749778155883911e+000, -1.5504029151363761e+000,
       3.5149792485943974e+000, -1.4840423701036811e+000,
       3.0892084586926156e+000, -1.3667299151283077e+000,
       2.9651174489057639e+000, -1.3038935861363445e+000,
       3.0996384618980808e+000, -1.2859960540220710e+000,
       3.5286177922591624e+000, -1.3634393564940743e+000,
       4.3011423728956588e+000, -1.5684767542027278e+000,
       5.2210673964845791e+000, -1.8598804969960396e+000,
       4.7644263749769351e+000, -1.8614668041580664e+000,
       4.6058568497342849e+000, -2.2217919078526394e+000,
       4.3448056564175470e+000, -2.3018089988809556e+000,
       3.6870449258613824e+000, -1.5050787667081000e+000,
       4.2812426096873599e+000, -1.6208867306735661e+000,
       4.7481465338368745e+000, -1.5080176652513337e+000,
       5.0277209422745877e+000, -1.7217259752778360e+000,
       4.5053163285923166e+000, -1.9182150717295818e+000,
       4.3686328869178750e+000, -2.1700582008246072e+000,
       3.9005020889436288e+000, -2.0669736538000274e+000,
       3.6678485251783188e+000, -1.9405586653909572e+000,
       3.7756376390336328e+000, -1.8906806962112812e+000,
       4.3768370226459936e+000, -2.0038306177012091e+000,
       5.0208918434313095e+000, -2.0251552721349841e+000,
       5.6438135921623918e+000, -2.0364703857902651e+000,
       4.8699157753794253e+000, -1.8504622069272163e+000,
       4.8813291980568563e+000, -2.2474519547820186e+000,
       4.6743781552361083e+000, -2.3526878219273750e+000,
       3.8044290360728756e+000, -1.4241716583238961e+000,
       4.6267803595172863e+000, -1.6592031179393394e+000,
       5.1031396305117278e+000, -1.6612523237471841e+000,
       4.8865508342002908e+000, -1.8670061996719907e+000,
       4.3602582823386076e+000, -2.1073133826322059e+000,
       4.6189589120102594e+000, -2.6101673161306205e+000,
       4.4510291635795038e+000, -2.6996246546682259e+000,
       4.0219394796773651e+000, -2.4317298945837722e+000,
       3.9619192920912516e+000, -2.2732239533841052e+000,
       4.3836598060312175e+000, -2.2893727582906802e+000,
       4.6335475980694882e+000, -2.1247068570355223e+000,
       4.9431792280715001e+000, -2.0002883880714037e+000,
       4.5950229736197059e+000, -1.8691314652668105e+000,
       4.4523066022555042e+000, -2.0516845422943035e+000,
       4.2334907244921469e+000, -2.0900525362251092e+000,
       3.6447285663799271e+000, -1.2957400187896204e+000,
       4.4020709606396151e+000, -1.5303078003316462e+000,
       4.9213944170528565e+000, -1.6728515308513390e+000,
       4.8075262203521243e+000, -1.9966051376077947e+000,
       4.2740288629706162e+000, -2.2286406724441492e+000,
       4.4897047540532009e+000, -2.7068351472117724e+000,
       4.4266768805189285e+000, -2.8426407804434870e+000,
       3.8344522921741664e+000, -2.4459191474963515e+000,
       3.7027786430988696e+000, -2.2735573393597126e+000,
       4.0185422808803715e+000, -2.2870465218572198e+000,
       4.2640289341168680e+000, -2.1980322977333233e+000,
       4.5205120596455259e+000, -2.0854403288856820e+000,
       4.0864416216532016e+000, -1.8456152474519274e+000,
       3.8495097188953351e+000, -1.8484528943889265e+000,
       3.5948960643354018e+000, -1.8070975418574844e+000,
       3.3632163596246629e+000, -1.1750878026262361e+000,
       4.0057139016098686e+000, -1.3981035152502812e+000,
       4.4713230687733665e+000, -1.6028869923057925e+000,
       4.8854980357789000e+000, -2.1993922591525128e+000,
       4.4698769362118167e+000, -2.4967467848743170e+000,
       4.1518502598910940e+000, -2.5928864291085629e+000,
       3.9154417121819098e+000, -2.5659803329082154e+000,
       3.4255475759984146e+000, -2.2333077287738194e+000,
       3.4778947747050308e+000, -2.2331977951303359e+000,
       3.8301744491918828e+000, -2.3509320916822345e+000,
       4.1712160752071794e+000, -2.4074146116851733e+000,
       4.4861318011740980e+000, -2.3739946923081474e+000,
       3.7596654884858030e+000, -1.9024062306497773e+000,
       3.5602912805980407e+000, -1.8526493964831992e+000,
       3.3257510195773525e+000, -1.7813666143745743e+000,
       3.0624810020149371e+000, -1.0724226333043103e+000,
       3.6002007088202435e+000, -1.2555428093196648e+000,
       4.1645662186192514e+000, -1.5036152108436975e+000,
       4.9477514315991327e+000, -2.2735694325559650e+000,
       4.7496925923757045e+000, -2.6789720484720494e+000,
       3.9203855228787750e+000, -2.4124660055456379e+000,
       3.4110693124783125e+000, -2.1759908076944714e+000,
       3.1982159410503965e+000, -2.0490838010861716e+000,
       3.3834738199685201e+000, -2.1852568547746216e+000,
       3.6898529132205935e+000, -2.3254959067782015e+000,
       4.2829241626455108e+000, -2.6157977135696129e+000,
       4.5593714211943359e+000, -2.5901905241952288e+000,
       3.5772441776500719e+000, -1.9364361678143434e+000,
       3.4401536525538434e+000, -1.9129351241343642e+000,
       3.2597132360721188e+000, -1.8665328300234134e+000,
       2.9691759759427612e+000, -1.0337233197162075e+000,
       3.3387362570540895e+000, -1.1467609817545024e+000,
       3.7814747601307834e+000, -1.2991299701970718e+000,
       4.6519379860324612e+000, -1.9973269990241109e+000,
       4.8574572122232738e+000, -2.4949360706058328e+000,
       3.9305942546183066e+000, -2.1829424754235673e+000,
       3.3141266799820075e+000, -1.8857607727303158e+000,
       3.2648443146435624e+000, -1.9092994433293338e+000,
       3.4763871358536167e+000, -2.0935819066032222e+000,
       3.8456300997818311e+000, -2.3230866834409993e+000,
       4.6218699707070945e+000, -2.7490288852741309e+000,
       4.3770989457040157e+000, -2.4618372921598337e+000,
       3.6709505755564975e+000, -2.0097869999127913e+000,
       3.5873129596724329e+000, -2.1007026817635408e+000,
       3.4700888060073245e+000, -2.0945488943090678e+000,
       2.9039611865873414e+000, -1.0119668510763138e+000,
       3.1635171501258004e+000, -1.0678946372059432e+000,
       3.3981708406338949e+000, -1.0808511735922903e+000,
       3.9376309925538444e+000, -1.4455146992250358e+000,
       4.3160952427871742e+000, -1.8669363580286797e+000,
       3.8101695425471784e+000, -1.7883906173394082e+000,
       3.3395151372869472e+000, -1.5939604758219426e+000,
       3.2386284139512798e+000, -1.6115942923096658e+000,
       3.3922088603185307e+000, -1.7749510680390925e+000,
       3.7787589370242127e+000, -2.0559390966468909e+000,
       4.0741266026009875e+000, -2.2075725848868584e+000,
       3.8770278847822959e+000, -2.0529168050991538e+000,
       3.6900710790193645e+000, -2.0070181158627234e+000,
       3.7042681221661389e+000, -2.2170823582661576e+000,
       3.5984197337566775e+000, -2.2305771124530027e+000,
       2.8990835531767063e+000, -1.0150404751960456e+000,
       3.1200731217551976e+000, -1.0348531441951963e+000,
       3.2128109194672851e+000, -9.7760850104943653e-001,
       3.4851417898802159e+000, -1.1326887465606812e+000,
       3.5944002039215497e+000, -1.3071733478411600e+000,
       3.4688770852987019e+000, -1.3499514575481859e+000,
       3.2014538289436616e+000, -1.2637632144774178e+000,
       2.9655718782340292e+000, -1.2318302154895442e+000,
       3.0606315986160326e+000, -1.3568449033935355e+000,
       3.3319598252795344e+000, -1.6070290660796467e+000,
       3.4714340282416281e+000, -1.7244197691749399e+000,
       3.4748691596577546e+000, -1.7622952400431715e+000,
       3.4718964399111356e+000, -1.8715438750691029e+000,
       3.6453867948802161e+000, -2.1997159037754361e+000,
       3.5157992907187312e+000, -2.2132215081963089e+000,
       2.9055274992879183e+000, -1.0286433222592013e+000,
       3.1195823895248287e+000, -1.0533189102880778e+000,
       3.2310739110396560e+000, -1.0036231639812148e+000,
       3.5853722081961870e+000, -1.1963845507445299e+000,
       3.6399799344684012e+000, -1.3571123043629874e+000,
       3.5119314432080575e+000, -1.3852454998495640e+000,
       3.2303404997997394e+000, -1.2953510395265875e+000,
       2.8938232507630270e+000, -1.2175404399338947e+000,
       3.0573505880883394e+000, -1.3577624778215081e+000,
       3.4273719498045851e+000, -1.6659881921412745e+000,
       3.5490323946716593e+000, -1.7720948657933628e+000,
       3.4492412680453954e+000, -1.7634450391711873e+000,
       3.3109162110312091e+000, -1.7995394598989602e+000,
       3.5290700368368255e+000, -2.1374007281194221e+000,
       3.3760432483176781e+000, -2.1499819659995452e+000,
       2.9135994175379309e+000, -1.0484355022060230e+000,
       3.2153801540809348e+000, -1.1160451807460738e+000,
       3.5785149253269464e+000, -1.1947832249818997e+000,
       4.2155643638230220e+000, -1.6164982368128329e+000,
       4.4487866876869049e+000, -1.9947391948604585e+000,
       4.0695146027866755e+000, -1.9628724086695568e+000,
       3.5637827158265680e+000, -1.7639408181338134e+000,
       3.1661097294645280e+000, -1.6164079671205827e+000,
       3.3672716236007187e+000, -1.7669363121668378e+000,
       4.0421228490772698e+000, -2.2297021568393562e+000,
       4.4653304212045697e+000, -2.4931693284007421e+000,
       3.9976264535049060e+000, -2.2066953334260986e+000,
       3.5179690838839504e+000, -1.9909377861223119e+000,
       3.4535628978351371e+000, -2.1262841269870352e+000,
       3.2649507683859094e+000, -2.0976938558873859e+000,
       2.9184008757197986e+000, -1.0904419332967834e+000,
       3.3597236161267010e+000, -1.2244003084633099e+000,
       4.0151419949511498e+000, -1.4893841087406359e+000,
       5.1623212009040964e+000, -2.3251203723799425e+000,
       5.0507023690156885e+000, -2.6936929113743426e+000,
       4.2220154982408253e+000, -2.4149182823488498e+000,
       3.6482282638395880e+000, -2.1328799588456313e+000,
       3.3521873935465289e+000, -1.9791771897795187e+000,
       3.3457874935552683e+000, -1.9979083030865681e+000,
       3.8420817083786822e+000, -2.3390004529859447e+000,
       4.6039234554138595e+000, -2.7984383390005845e+000,
       4.4425263230602621e+000, -2.6388095122305533e+000,
       3.7129638394171938e+000, -2.1817679991767558e+000,
       3.5118927578111254e+000, -2.1896923489115911e+000,
       3.2625301917863054e+000, -2.1077935318004184e+000,
       3.0052761272580244e+000, -1.1539375558754814e+000,
       3.6106916700585003e+000, -1.3564885613095166e+000,
       4.4012591987163248e+000, -1.7144043648022607e+000,
       5.4658622949231361e+000, -2.6528749031679615e+000,
       4.4415346531814262e+000, -2.5981767036034924e+000,
       3.7399339706775074e+000, -2.3765451957511403e+000,
       3.4203388524675624e+000, -2.2638195774969474e+000,
       3.2293557949612874e+000, -2.1540100039250101e+000,
       3.0784725082012270e+000, -2.0307732880152649e+000,
       3.2311910899169050e+000, -2.0985150340119816e+000,
       3.7434516495053498e+000, -2.3807984503899835e+000,
       4.1513378424333220e+000, -2.5269122196198261e+000,
       3.7770626980463855e+000, -2.2471362335117862e+000,
       3.5653344041548154e+000, -2.2293296814363428e+000,
       3.2829437828643662e+000, -2.1246551235634370e+000,
       3.2612837547480855e+000, -1.2797351564750044e+000,
       3.9415609965563498e+000, -1.5226402580586411e+000,
       4.7074835314326045e+000, -1.8691053733383491e+000,
       5.0271264233690527e+000, -2.4574476962064065e+000,
       3.9227547944293395e+000, -2.3217626097955404e+000,
       3.5183199677134915e+000, -2.3180710907830773e+000,
       3.4488270676897641e+000, -2.4200199953006134e+000,
       3.3043706949177856e+000, -2.3505975823797893e+000,
       3.1775398675957658e+000, -2.2126323156286456e+000,
       3.1003072096162412e+000, -2.0669941074983873e+000,
       3.4116711139162392e+000, -2.1578363869195396e+000,
       3.8711906992214580e+000, -2.3053874225530024e+000,
       3.7385500322446452e+000, -2.1833537235871874e+000,
       3.6965816841942614e+000, -2.2860130084780548e+000,
       3.4001925152999832e+000, -2.1648264578828922e+000,
       3.5610825757730229e+000, -1.4205196397308739e+000,
       4.2756954660251658e+000, -1.6679404284734614e+000,
       4.9866857021575797e+000, -1.9486929893799358e+000,
       4.6124430750200283e+000, -2.1741849716994626e+000,
       3.7051449767345415e+000, -2.1487134287056322e+000,
       3.6830946851375921e+000, -2.4633828976801477e+000,
       3.7913646067333664e+000, -2.7539917412888864e+000,
       3.7158582275720682e+000, -2.7442134392545663e+000,
       3.6578363863612995e+000, -2.6387260510953570e+000,
       3.4602257381539125e+000, -2.3216105922706389e+000,
       3.4413529149388418e+000, -2.0916704097021079e+000,
       3.7631743635884121e+000, -2.0982723522797926e+000,
       3.8167622298308079e+000, -2.1067642210857822e+000,
       3.9664898613418256e+000, -2.3687996536133289e+000,
       3.6271215038611886e+000, -2.2411222879595116e+000,
       3.9234585796255672e+000, -1.6013925999882226e+000,
       4.6001495776330534e+000, -1.8102708733457058e+000,
       5.3524081530485983e+000, -2.0138378710824734e+000,
       4.8008435507804172e+000, -2.1519628907625661e+000,
       4.0457362457805210e+000, -2.2810741525594396e+000,
       4.2190950637993119e+000, -2.7707515974723549e+000,
       4.5396957066352517e+000, -3.2533961049065323e+000,
       4.5283638110183633e+000, -3.3090719492772322e+000,
       4.5708665014822767e+000, -3.2530077919752940e+000,
       4.3230754918759118e+000, -2.8365386300886164e+000,
       3.7831490346453012e+000, -2.1819238828249783e+000,
       3.7465323541793292e+000, -1.9205933013236101e+000,
       3.9314351763512589e+000, -2.0315621156276298e+000,
       4.2308560133153099e+000, -2.4408672204541872e+000,
       3.8768316019364129e+000, -2.3339433883881973e+000,
       3.9750244529862995e+000, -1.6780666733392917e+000,
       4.4722672773595056e+000, -1.7778586728480281e+000,
       4.8844290607936509e+000, -1.7781789856865791e+000,
       5.1592457902757083e+000, -2.2161500140448838e+000,
       4.4528222044393786e+000, -2.3868517956059963e+000,
       4.1935551828225242e+000, -2.5928605812480288e+000,
       4.1207488667398806e+000, -2.7631953852228923e+000,
       4.0508968253186621e+000, -2.7644634993035910e+000,
       4.1995569704309181e+000, -2.7967656232814910e+000,
       4.2769033374696432e+000, -2.6450636127480540e+000,
       4.0579694771734589e+000, -2.2178133422030446e+000,
       3.9581984166523356e+000, -1.9233349201194085e+000,
       4.0354702525817316e+000, -2.0083002637245131e+000,
       4.2434085099433885e+000, -2.3876962680867084e+000,
       3.9391011559009574e+000, -2.3240317943781936e+000,
       3.8156230784782803e+000, -1.7130088570550586e+000,
       4.1843724053488067e+000, -1.7615818850010339e+000,
       4.3580859719514073e+000, -1.6630038522805097e+000,
       4.9485692519006115e+000, -2.1305342601583739e+000,
       4.1289875491685422e+000, -2.0962004662572582e+000,
       3.4743576289359139e+000, -1.9834735799824270e+000,
       3.1695078048931324e+000, -1.9328894545705868e+000,
       3.0379417305948664e+000, -1.8846393216930524e+000,
       3.1326757618233119e+000, -1.9113744088164648e+000,
       3.4358946616432542e+000, -1.9935228407290682e+000,
       3.8871876446586917e+000, -2.0851349600294826e+000,
       4.2117221998374523e+000, -2.1109912994605406e+000,
       4.0064854681204141e+000, -2.0568427273189989e+000,
       4.0861727525403664e+000, -2.3367171405144211e+000,
       3.8548238378383064e+000, -2.3103759557094428e+000,
       3.6470705026268262e+000, -1.7971228455056789e+000,
       4.0633800935506210e+000, -1.9096480224899315e+000,
       4.6370958139452672e+000, -2.0358167997751022e+000,
       5.0098069220684289e+000, -2.3168750744864237e+000,
       3.8285184092994493e+000, -1.9555612146405472e+000,
       3.1143425600211558e+000, -1.7326886379992823e+000,
       2.8150665817580593e+000, -1.6339699946648800e+000,
       2.6827544134284107e+000, -1.5757443275848049e+000,
       2.7726478668101908e+000, -1.6191090236801680e+000,
       3.0628406486079522e+000, -1.7654762521171448e+000,
       3.6573136316201680e+000, -2.0398250852660968e+000,
       4.1555296710014797e+000, -2.2514473738589196e+000,
       3.9911641742274302e+000, -2.2123694256913304e+000,
       3.8545577363345225e+000, -2.3011033217574610e+000,
       3.6639525631324332e+000, -2.2614524385715034e+000,
       3.4069885764038639e+000, -1.7328613373856121e+000,
       3.7445816969772237e+000, -1.8350596905868617e+000,
       4.4998947484989094e+000, -2.0903857357199489e+000,
       4.7309833187803294e+000, -2.2545119689020225e+000,
       3.4553779488570813e+000, -1.7656213194485748e+000,
       2.8407169225454769e+000, -1.5402761717388180e+000,
       2.5596548174065874e+000, -1.4411295300003528e+000,
       2.4593891060906130e+000, -1.4008529358438184e+000,
       2.5267306321676091e+000, -1.4403419836171039e+000,
       2.7954022892798576e+000, -1.5952944478677520e+000,
       3.2986268365468452e+000, -1.8746861441203362e+000,
       3.8185312379190943e+000, -2.1201739196840776e+000,
       3.7700878642406255e+000, -2.1459749183092698e+000,
       3.5688621278717583e+000, -2.1736005649827033e+000,
       3.4132783433165805e+000, -2.1237935907375389e+000 ]
   output_scale: [ 5.2631578947368418e-001, 4.9999999999999994e-001,
       5.2631578947368418e-001, 4.9999999999999994e-001,
       5.2631578947368418e-001, 4.9999999999999994e-001,
       5.2631578947368418e-001, 4.9999999999999994e-001,
       5.2631578947368418e-001, 4.9999999999999994e-001,
       5.2631578947368418e-001, 4.9999999999999994e-001,
       5.2631578947368418e-001, 4.9999999999999994e-001,
       5.2631578947368418e-001, 4.9999999999999994e-001,
       5.2631578947368418e-001, 4.9999999999999994e-001,
       5.2631578947368418e-001, 4.9999999999999994e-001,
       5.2631578947368418e-001, 4.9999999999999994e-001,
       5.2631578947368418e-001, 4.9999999999999994e-001 ]
   inv_output_scale: [ 1.8999999999999999e+000, -9.4999999999999996e-001,
       1.8999999999999999e+000, -9.4999999999999996e-001,
       1.8999999999999999e+000, -9.4999999999999996e-001,
       1.8999999999999999e+000, -9.4999999999999996e-001,
       1.8999999999999999e+000, -9.4999999999999996e-001,
       1.8999999999999999e+000, -9.4999999999999996e-001,
       1.8999999999999999e+000, -9.4999999999999996e-001,
       1.8999999999999999e+000, -9.4999999999999996e-001,
       1.8999999999999999e+000, -9.4999999999999996e-001,
       1.8999999999999999e+000, -9.4999999999999996e-001,
       1.8999999999999999e+000, -9.4999999999999996e-001,
       1.8999999999999999e+000, -9.4999999999999996e-001 ]
   weights:
      - [ -2.6443779179350445e-002, -5.5257628527285729e-001,
          1.4597401929157041e+000, 2.3160968120029872e-002,
          -1.8498340443734274e-001, 4.0017215264992340e-001,
          -2.1276608427304020e-001, -2.2374795900153958e-002,
          1.5869978175253380e-001, 3.3550188969230477e-001,
          -2.0880698613261123e-001, -3.1986260664322336e-002,
          4.8896945645537926e-001, 1.6282387553764561e-002,
          1.1899653036012760e-002, 1.3608622983839549e-001,
          -1.0977244605768366e-001, 2.5842027050175031e-002,
          -1.6105953480455054e-001, 1.0213395018316165e-001,
          -4.2677524455263549e-001, -5.7411792895807317e-003,
          -2.2524140229435230e-001, 2.0507814928003459e-001,
          7.0289225585685816e-002, -1.1001109279394279e-001,
          -5.7689001644111226e-001, -3.3815767115187101e-001,
          1.0487538646603746e-001, 1.5844221074169618e-001,
          2.3602559431816444e-001, -1.9997004354476605e-001,
          -2.1423535239258154e-001, 4.2822800924236093e-001,
          8.4154413876078207e-002, -3.7710153640821598e-001,
          9.7351631553987003e-002, -1.3691791166930195e-001,
          2.7582646421504556e-002, -1.6230234822066231e-001,
          -1.4383375389447334e-001, -1.4621336812206362e-001,
          -6.9740593108296757e-003, -4.9386499850283060e-002,
          3.8142615753564826e-002, -1.3302990701928064e-001,
          -1.1773083783399120e-001, -2.9071445752254271e-001,
          1.1551271541201724e+000, -5.2082801745956107e-002,
          1.6025032551952337e-001, 2.6290923849135517e-001,
          -3.7160358837308716e-001, -1.9699969685066387e-001,
          7.4106450521160910e-002, -1.6804631541731374e-001,
          -1.5435056173057189e-002, 9.2025232379934874e-002,
          -4.1311152037343063e-001, 2.8937656060863601e-002,
          -8.5918992146746545e-002, 6.7946393740775102e-002,
          -1.1249089216142891e-001, -3.6745366068640617e-001,
          -1.3591578488900150e-001, -3.3225298401471648e-001,
          -2.2506292100836250e-001, 3.7539628748282421e-002,
          -3.5204415045607895e-001, -1.4830681332868034e-001,
          4.2840969646824961e-002, 6.4722591699128718e-001,
          -1.1132775327075650e-001, -6.9727625793809778e-001,
          3.3557981078655021e-002, 1.8472232505015254e-001,
          -4.2818064698381353e-001, -5.9230502599274364e-002,
          -2.6207948987885567e-002, 6.6923711363050739e-002,
          3.3111796212387801e-002, 8.5666075247397208e-002,
          2.3777845517724361e-001, -1.7396054188778839e-001,
          1.7475054476585303e-001, -1.0642227760142919e-001,
          -1.7411915030145234e-001, -7.3398760286666542e-001,
          -6.8179233679033391e-002, -8.2260816331289255e-001,
          9.7956287284672747e-002, 4.3894314992341983e-002,
          6.0598245370781278e-001, -1.9760346739371309e-001,
          -2.1284002113576664e-001, -2.7080602301833005e-002,
          5.0438524580971346e-002, -1.8844991652345627e-001,
          -9.6385556078724385e-002, -1.9539684892677225e-001,
          -3.3313352548921253e-002, -2.1797938749822765e-001,
          -5.5255063385008650e-002, -2.3701523022232646e-001,
          1.1632461552635888e-001, 1.7748900686972011e-001,
          -1.0846643677916322e-001, -1.8807803351377297e-001,
          -2.3661737689918805e-001, -1.8666889472262307e-001,
          -6.2602757149543842e-001, 2.4886311490836538e-001,
          3.0233134421578084e-001, 2.9581833598475898e-001,
          -2.0265149881601197e-001, -3.4513473115351656e-001,
          4.7314739252355936e-001, 7.7938179357041171e-002,
          8.4950468796325992e-002, -4.3352293762664730e-002,
          -3.1019998452296071e-001, 2.2436168357145100e-001,
          -2.8283230956767626e-002, -1.0733424593547326e-001,
          7.2390169166859961e-002, 1.2624026140260966e-001,
          1.2923975226809101e-001, -2.3067575950878041e-001,
          -1.9737220928983651e-001, -2.7434869906142967e-001,
          -1.7511496287432399e-001, -6.2878742326118331e-001,
          2.8869127482790030e-001, 3.1057635997377459e-001,
          2.9213237957746607e-001, -1.9353901507758065e-001,
          -3.2178911310301683e-001, 2.6069680131334239e-001,
          -2.7774169184702407e-001, 7.4953936870765556e-002,
          -1.0505488549479511e-001, -5.0066809378563581e-001,
          4.3916874437654047e-001, -3.0378185066859045e-002,
          -1.9158469622681720e-001, 7.3812720561158146e-002,
          1.1933456485781058e-001, 1.2436949053005479e-001,
          -1.1864549109997258e-001, -1.9079309168686967e-001,
          -2.4722586372108218e-001, -1.6796315935251677e-001,
          -6.3385447853617627e-001, 3.0511285708244629e-001,
          9.5542919515782254e-001, 3.0077637157215698e-001,
          -1.9724986086514656e-001, -3.1830034409623664e-001,
          2.6616288700968477e-001, -6.0872103686127743e-001,
          7.8399558481287185e-002, -1.0511669161182255e-001,
          -4.9681810840642276e-001, 1.6621827998136197e-004,
          -2.6068310696783878e-002, -2.0613298603770430e-001,
          7.1724965150238615e-002, 1.1776271703633642e-001,
          1.0500019440035757e-002, 4.5236791266767707e-003,
          -1.8601073970322626e-001, -2.7569347237925418e-001,
          -1.6905827526492034e-001, -1.7786608181903746e-001,
          3.9802657763247551e-001, 9.5144617096680151e-001,
          2.9093500708892295e-001, -1.9656080341363968e-001,
          -3.2397314162023366e-001, 2.6180313341210931e-001,
          -8.2804137477807771e-001, 7.3979217368614320e-002,
          -7.0898244726435550e-002, -3.5727751682763181e-001,
          2.8807918033503400e-003, -1.6490566964614103e-001,
          -2.0230301492424646e-001, 7.1044692382476057e-002,
          1.2378257028960472e-001, -1.3544030133852070e-001,
          1.8953140490354115e-002, -1.9128556299504540e-001,
          -2.4141087268623559e-002, -1.7624227316480931e-001,
          -3.3138820835123062e-001, 3.9368815808749402e-001,
          9.5097565257874306e-001, -1.1564327668429236e-001,
          -2.0440307396906299e-001, -3.1857007971950796e-001,
          2.7274780036314267e-001, -3.2897592139750942e-001,
          7.3894558130878765e-002, -8.6530714353693430e-002,
          -3.4813209887563445e-001, -3.0937993156835088e-003,
          -1.6390648907080521e-001, -1.7054272594743683e-001,
          6.9655096929489180e-002, 1.2100972471034524e-001,
          -1.2438416156030076e-001, -1.8153980581229790e-002,
          -1.4483459941048199e-001, 2.4971941354740828e-002,
          -1.8638306818883504e-001, -3.1321161767690564e-001,
          3.4743520088711893e-001, 9.3451524475713232e-001,
          -6.0475757251851212e-002, -1.9981743785813066e-001,
          -1.9627657037997345e-001, 2.1765850675643955e-001,
          -2.3107971678203426e-001, 7.1622845683151221e-002,
          -1.1350169534213485e-001, -3.9715405933678694e-001,
          -6.7003969618052821e-003, -1.7242142222164877e-001,
          -4.4656794283572540e-002, 6.6196264340176725e-002,
          1.2646730850984586e-001, -7.3539500676590475e-001,
          2.7010797072586835e-002, -1.5818637688512899e-001,
          -5.1940298315087348e-002, -7.7016454313430877e-002,
          -9.4520204241410818e-002, -1.3802747051901154e-001,
          1.9289101982182461e-001, -1.0944282147736489e-001,
          -5.9781846336891853e-001, -9.8317313056160940e-002,
          -2.7243828259406838e-001, 1.8461120292079433e-001,
          6.6288980290750824e-002, -9.2560322371265588e-002,
          -8.0557334528798791e-002, 4.1427344659111603e-001,
          -1.6446009619226495e-001, -1.3693070529411197e-001,
          -5.5311012372548492e-002, 1.8712464483039225e-002,
          -8.2381073059357701e-001, -5.8427572478752902e-002,
          -2.7939882440826066e-002, 4.4072191422215795e-001,
          -1.9281869574701380e-001, 5.5149504610277317e-002,
          -1.9532971514169109e-001, 3.1001846260754924e-002,
          -1.0260633838466114e-001, 2.5788940195610943e-001,
          -1.5862214312673392e-001, -2.6656115501286250e-002,
          2.0850953270745085e-001, -2.3402231160479899e-002,
          -1.3706410635299257e-001, 3.8335150506488941e-001,
          -3.6882850376483381e-002, -5.5350149680303418e-001,
          -5.1145516982199470e-002, -2.0046784365899076e-002,
          -9.0468772401112840e-002, -3.7645806057559089e-001,
          -1.3551286857832667e-001, 5.7405711602726908e-003,
          2.3249836563372134e-001, 1.2991022435446478e-001,
          9.5322280945741564e-002, -4.2910103519545401e-001,
          -1.2517895805782611e-001, -9.5636999566278053e-002,
          1.0546570817311710e-001, -9.8701928325956936e-002,
          -1.8769313614449871e-003, 4.2904385749444640e-001,
          -8.1504350562084903e-003, 1.0549856786784675e-001,
          3.7285188030317673e-001, -3.0742449104692544e-002,
          2.2926571992239415e-002, -7.2455256682882427e-002,
          -2.6571359997488758e-002, -2.8820010501490706e-001,
          -2.0967651008569507e-001, -1.5075528911359939e-001,
          4.4095682311302634e-003, 2.3086002575805870e-001,
          1.2028738794789526e-002, 8.8121509532176540e-002,
          -4.2918671995911645e-001, -3.7767239518068052e-001,
          -1.0489038334572603e-001, 1.0554185536449638e-001,
          -9.8450874615314987e-002, -3.6685661803097853e-002,
          4.4660750644819303e-001, 8.4832421461200680e-002,
          1.2297629990218249e-001, 2.7182672778445943e-001,
          -4.0507146932067993e-002, 3.0550796847909505e-002,
          -1.1658953749659456e-001, -3.1142488849908133e-002,
          -3.7784991421306013e-001, -2.4058677386454473e-002,
          -5.5177620017448115e-001, 5.8862855668435377e-001,
          2.4271486624019449e-002, -1.7769095547195157e-001,
          3.8461109023006901e-001, -1.7572775059167048e-001,
          -5.5215024100942325e-002, 1.7565589924085237e-001,
          3.0004703704145541e-001, -1.9452486302512995e-001,
          -1.5722112436632626e-001, 4.3054858443084221e-001,
          2.1642960881129984e-002, -3.5768807324877488e-001,
          1.4759877784906972e-002, 5.7206625763013302e-002,
          2.9570022673783943e-002, -1.6323703538659035e-001,
          1.1291865818357763e-001, -4.2538737646375324e-001,
          3.6413971267634446e-004, -2.2640944802042556e-001,
          1.2499167165648553e-001, 2.3878147788567665e-002,
          -1.0647286049762349e-001, -2.2820618544150778e-001,
          -4.2142569801592811e-001, 2.1381072302357806e-002,
          1.6308523877532755e-001, 2.3231991410111047e-001,
          4.8411410603580153e-002, -1.5615806540052704e-001,
          4.3258378992858754e-001, 9.0519738688817908e-002,
          -4.0038652090858062e-001, 1.0315071857033289e-001,
          -1.4704466188673143e-001, 3.3256794637752690e-002,
          -1.6079784518338430e-001, 6.9875899098066144e-002,
          -1.5070650281818843e-001, 5.6533932916110006e-003,
          -4.7222396010941338e-002, 3.8595603684226078e-002,
          -1.2747109005101603e-001, -1.0781342209315070e-001,
          -2.8419098813243843e-001, -2.4237454734096736e-001,
          -5.5985546570725561e-002, 8.4563698331881293e-002,
          2.5395440500805788e-001, -1.1167552793150864e-001,
          -5.8474662532641004e-002, 7.3948039215802369e-002,
          -1.6734515173063153e-001, -1.6773470505142794e-002,
          7.6943363750843222e-002, -4.1645810277076217e-001,
          2.6710168180119193e-002, -1.3552322938631231e-001,
          1.4919690048357387e-001, -2.7346249375292142e-001,
          -5.1729897864603613e-001, -1.3790076256984460e-001,
          -7.2426391036234258e-002, -3.4148048671523129e-001,
          3.1490835699521144e-002, -3.5209896861392931e-001,
          -1.5253672482687436e-001, 4.9118856321175651e-002,
          3.3533921628801139e-001, -1.0295673479489573e-001,
          -6.4816091732628722e-001, 3.3600790576430041e-002,
          4.3209641456104481e-002, -4.2911389095446317e-001,
          -4.5461447304953245e-002, -3.4495964195469575e-002,
          7.1012171203507390e-002, 3.1545584886778728e-002,
          7.9030341658705858e-002, 2.5366356936543388e-001,
          -1.0233723993189939e-001, 1.7885420749140021e-001,
          -1.2103606973855030e-001, -1.8745916081414904e-001,
          -1.3345057329920218e+000, -6.2480326794053784e-002,
          -4.0365316061448264e-001, 8.3573818788303014e-002,
          7.3629999066458188e-002, 6.6899815965610399e-001,
          -7.2336825354831616e-002, -1.9852405792300873e-001,
          -1.0241110317575542e-002, 5.7545294568344812e-002,
          -2.0235340614927425e-001, -1.3195796769256249e-003,
          -3.0161173517209611e-001, -3.7493612976356942e-002,
          -7.9200829886479779e-004, -1.8469463547326367e-002,
          -1.7369556408956729e-001, 1.1950656177746043e-001,
          1.7515461407007668e-001, -1.1955103401286479e-001,
          -1.8916509915760055e-001, -2.4424987694135691e-001,
          -1.9057156672277151e-001, -3.7921445623197975e-001,
          2.9339188576855108e-001, 7.0194134611514122e-002,
          5.2451892639262665e-001, -1.9749360764728141e-001,
          -2.0108728059416997e-001, 4.6914560426428603e-001,
          8.4144091497799514e-002, 6.9046672026901540e-002,
          2.1163787387236828e-003, -5.4475001526790212e-001,
          1.8144125314167112e-001, -3.3725331192936359e-002,
          -1.1319497290181225e-001, 6.7312604260071379e-002,
          1.1887242857862328e-001, 1.5162919253852419e-001,
          -1.2694733404996802e-001, -1.8868199613695258e-001,
          -2.4899354243264990e-001, -1.3674312781324588e-001,
          -1.1014231224950086e-001, 3.1164852288958544e-001,
          7.5009955082466981e-002, 5.0095288118543402e-001,
          -1.9635300539868406e-001, -3.2428694481211218e-001,
          2.6115630808099644e-001, 6.5185089001549720e-002,
          7.6250024568449232e-002, -1.0264139135328706e-001,
          -4.8882541121644713e-001, 4.4325640420237183e-001,
          -3.1315521366703326e-002, -1.7976601643979701e-001,
          5.4405907208447978e-002, 1.2430361197617430e-001,
          8.1278332034442874e-002, -1.2663160824980685e-001,
          -1.9288495369869738e-001, -2.3914183352935181e-001,
          -1.2631103264639604e-001, -1.0217311424622667e-001,
          3.0528661814017438e-001, 3.6387712079240137e-001,
          5.0660847492027339e-001, -1.9397669770191994e-001,
          -3.2313185563137842e-001, 2.6748008232935089e-001,
          -3.1220069883525164e-001, 7.3307100822962046e-002,
          -1.1260649411942215e-001, -4.3250687439899305e-001,
          3.1151064493648451e-003, -3.1477666979375804e-002,
          -1.7322754369392132e-001, 5.8518967643122845e-002,
          1.1855520474230868e-001, -5.1491188590770309e-001,
          -5.2568709476912088e-003, -1.5460732520839585e-001,
          -2.4308745483659019e-001, -1.2872578116107775e-001,
          -3.2118764339770331e-002, 3.1463233059439477e-001,
          3.5879570023550639e-001, -7.7077624081817175e-002,
          -1.9597508351394088e-001, -3.1571741479308219e-001,
          2.7053806741025127e-001, -6.5978926052092657e-001,
          7.4663963048764742e-002, -6.9465043301878387e-002,
          -4.3068382593548205e-001, 6.1740520022032421e-003,
          -1.5865072686079448e-001, -1.7570631188368405e-001,
          6.1884526403671876e-002, 1.1898376598930421e-001,
          -5.1819640142629730e-001, -6.8837926443735317e-003,
          -2.4201550676294842e-002, -2.4447003530082667e-001,
          -1.7431228165275628e-001, -3.2673874962734117e-001,
          3.9156460064587273e-001, 9.4426011664772491e-001,
          -7.0334996427840746e-002, -1.9520333154230524e-001,
          -1.9138848906950717e-001, 2.7242445576838997e-001,
          -1.7287292156870246e-001, 7.8950348751004318e-002,
          -1.1003566813189074e-001, -5.0277967976864313e-001,
          -8.6446718987083990e-003, -1.5578165611749559e-001,
          -2.4601306197232062e-001, 5.9664704609673026e-002,
          1.1907961502181019e-001, -5.0232723329955520e-001,
          9.2121066749389878e-003, -6.5322798845699054e-002,
          -3.3892335723826328e-002, -1.8777425646064333e-001,
          -3.0892930743495700e-001, 3.9386481481640945e-001,
          9.2206443698578400e-001, -6.1692347552096377e-002,
          -1.8928852085170361e-001, -1.9061138828096325e-001,
          2.6371586839713174e-001, -1.6791583124289376e-002,
          5.8202257023341503e-002, -6.4362826797219927e-002,
          -4.9511352854071011e-001, -1.0400248949039726e-002,
          -1.5450716970708248e-001, -9.7237496098713974e-002,
          8.1876065273812706e-002, 1.2170326270776358e-001,
          -3.5764760181314259e-001, 4.3947121195053437e-002,
          -2.2388669842923878e-001, -8.1670612218394070e-002,
          -1.4862033547409004e-001, -3.2432754545306175e-001,
          -2.3512364596483179e-001, 1.9133841522553063e-001,
          -1.3217863917812522e-002, -8.9738049041768797e-001,
          -2.2201934855999361e-001, -2.7474112685158275e-001,
          8.8040380429810494e-002, -6.8167309612571059e-002,
          -7.5423980761051584e-002, -9.8365527553248802e-002,
          -1.5385663455616188e-002, -1.8416392899943193e-001,
          -1.0959371719515013e-001, -3.3078207446924329e-002,
          -9.0787862557067632e-003, -5.6293773673909708e-001,
          -7.8393948054336582e-002, 1.0619974247363806e-002,
          -1.2460205748169091e-001, -4.8941919179409943e-001,
          9.1561236110244526e-002, -2.0695331451797683e-001,
          1.2969770783514667e-002, 1.5912864010711694e-001,
          1.2936443356030348e-002, -2.2763449810201553e-001,
          3.2082132866183130e-003, 4.5168266602870200e-001,
          -2.3022284572084040e-002, -1.4366969510747724e-001,
          1.6858703112974596e-001, 4.4362708150440945e-002,
          -6.6811805018638967e-002, 6.7936369645531833e-002,
          4.8535359584700684e-002, 2.6058828244331750e-001,
          -4.1408478703095514e-001, -1.1126861035619899e-001,
          -2.4676372024625658e-002, 2.4081843241365736e-001,
          1.1558470983940376e-001, 9.7549577693716777e-002,
          -4.3576330976433425e-001, -1.5978976785488863e-001,
          1.3883326394684981e-001, 1.0989779055546589e-001,
          -9.1140026823214815e-002, 4.7531823278638610e-003,
          4.2915926523400239e-001, -2.4835140046405160e-002,
          4.9861630574569771e-002, 2.6862933725010407e-001,
          -2.9585648509916251e-002, 2.3777868074877095e-002,
          6.0755035562669459e-002, 4.5381093954864622e-002,
          -2.1815755093879716e-001, -2.1235599968736010e-001,
          -1.1948076052895200e-001, 3.3147564540424883e-002,
          2.3408919903640774e-001, -7.5297187259055556e-002,
          9.1662033686929975e-002, -4.2393759523409819e-001,
          -3.6803956448774344e-001, 1.2939929395875313e-001,
          1.1028767043686037e-001, -4.9019099651360899e-002,
          -2.6859207596288657e-002, 4.0020413766318380e-001,
          -1.8755599669886106e-002, 4.5812150554326296e-002,
          2.4404493042467301e-001, -3.0421045936122028e-002,
          3.1018683958868254e-002, 2.6319054579196158e-002,
          -2.8043915993350346e-002, -2.1592304890701206e-001,
          -3.1279703956863900e-002, -2.2087363421750003e-001,
          1.1746913906881751e-001, -5.5694746373912730e-002,
          -1.0564405016523432e-001, -1.5258030450799800e-001,
          -2.6684405468389925e-002, -7.4445003619948491e-002,
          1.0655469083033624e-001, 5.9874725722104956e-002,
          -1.8099426505088229e-001, -2.3093520676734791e-001,
          4.3530881152218487e-001, 1.2197345741573490e-002,
          -6.1253771062677424e-002, -4.2307503407035037e-003,
          5.8886532561300331e-002, 2.6448259352882992e-002,
          -1.5983724362102941e-001, -3.5462233306913617e-003,
          -3.5855060859961285e-001, -2.3740711066304633e-002,
          -7.5700553032578249e-002, 4.6720361732499646e-002,
          -5.2514509447938680e-002, -1.1713700111362729e-001,
          -2.2117619272050931e-001, -2.2000559902577888e-001,
          -2.3788369713700561e-002, 8.3195171819400615e-002,
          2.0699441293328312e-002, 1.1768561431253959e-001,
          -2.3290182511808602e-001, 1.2069838663503615e-001,
          8.2887842298204700e-002, -6.3576043826749723e-002,
          -7.5333500325952540e-003, 4.6773571566294574e-002,
          3.2628584130850236e-002, -2.5963799921220609e-001,
          -6.9993430271218847e-005, -1.4910574677738636e-001,
          -3.7233661527813159e-003, -6.0348999035624844e-002,
          2.3711572322949220e-001, -1.0957048264825926e-001,
          -1.2107684543572093e-001, -2.3706307854653433e-001,
          -1.4277606055724418e-001, -9.7271856830268601e-003,
          1.9960831770591516e-002, 4.5498124060480448e-002,
          -5.4193298711996747e-002, 4.0150005904148389e-003,
          -4.1527763804460230e-002, -2.1011709419994251e-002,
          2.5262915019009284e-002, 4.2960215692472713e-004,
          -5.3767607178379237e-002, 2.8692430899711133e-002,
          -1.3475199375762592e-001, 9.1408702849961093e-004,
          -5.5061902197275359e-001, -4.6291213676455550e-001,
          -1.3200912571436335e-001, -5.7379453363839497e-002,
          -6.8963766618956024e-001, -4.7671796549324130e-002,
          -5.8035626726313583e-001, -3.6882510743293628e-001,
          5.0570008940142949e-002, 2.9450470494251269e-001,
          -1.0384509487562274e-001, -9.0934928566536233e-002,
          3.0677724502861381e-002, 6.1843740667436350e-002,
          -4.3127248902519322e-001, -3.2807525117628453e-002,
          -1.7366306134819043e-002, 1.5659316605162452e-001,
          2.7680501619215977e-002, -5.0653189609145922e-002,
          4.5317641619420690e-001, -2.7144582482589302e-001,
          -1.7639040906886089e-002, -1.1949122145815737e-001,
          -1.0013321573516527e-001, -7.6287722677977188e-001,
          -4.1446134079098626e-002, -3.8639065064403200e-001,
          5.4503698740926844e-002, 9.4247522796343908e-002,
          1.0735574700484851e+000, -7.7013909867720928e-002,
          -2.1320126125242239e-001, -3.6051120641182793e-002,
          6.8576693827389554e-002, -1.8341497580534113e-001,
          -9.1696465073068334e-002, -4.2231837400960348e-001,
          6.6546994396883399e-002, -3.2545488782848013e-002,
          -9.6469141057841767e-002, -2.1821993951954349e-001,
          1.1656767713122176e-001, 1.1057212061035329e-001,
          -1.3615134919575636e-001, -4.6461570046267775e-002,
          -2.4616713658314204e-001, -1.2066773776175058e-001,
          -9.6527256305911205e-002, 2.8768557672547440e-001,
          8.0024350748166689e-002, 5.0169868560204622e-001,
          -1.9630142313963800e-001, -4.6580484980214235e-002,
          2.4658362413906790e-001, 1.3228711084956776e-001,
          7.5394894414190880e-002, -1.1959005798620272e-002,
          -4.0541752245232393e-001, 2.7324986542348373e-001,
          -3.3887681672798473e-002, -1.6004224107069903e-001,
          7.1843028524769550e-002, 1.1568619483055186e-001,
          8.3067037830383217e-002, -6.2401835714106658e-002,
          -1.2329019192174097e-001, -2.4055577116754479e-001,
          -1.2013257233088756e-001, -1.0826058286571616e-001,
          3.0013905999858437e-001, 7.0449779180157046e-002,
          1.8656532385537678e-002, -2.0306380341447872e-001,
          -9.8953307922684766e-002, 2.6426821804363632e-001,
          -2.0400640568967329e-001, 6.9531485194607112e-002,
          -8.2622890093181814e-002, -4.1282609481839683e-001,
          -5.9325289792872445e-002, -3.2808123662651310e-002,
          -1.5861183982004248e-001, 7.1655885366753366e-002,
          1.2744186038790831e-001, -8.1780133188391446e-002,
          1.3348859367326899e-002, -4.6560838198785787e-002,
          -2.4330257188006355e-001, -1.2613764507155478e-001,
          -1.0074618164843545e-001, 2.8796056501940254e-001,
          3.6496625086018614e-001, 2.7972594536282754e-002,
          -2.0288196950169302e-001, -9.1756472987914853e-002,
          2.7309100102924361e-001, -6.7364272248787138e-001,
          7.0854407837874903e-002, -8.4839558558984451e-002,
          -4.1722294950784511e-001, -5.8926535409074589e-002,
          -1.7052252297663037e-001, -1.8499859763586024e-001,
          7.8856356930993701e-002, 1.2728353365635842e-001,
          -7.5488221651517373e-001, 1.2318816269570520e-002,
          -5.1870695515601528e-002, -2.4528232612968631e-001,
          -1.2261367470830228e-001, -7.4136366467879751e-003,
          2.9431300508598762e-001, 3.6185826012599059e-001,
          -7.2529998640199267e-002, -7.0219055554012352e-002,
          -9.9972693609916383e-002, 2.6625772877546011e-001,
          -5.7285676348464631e-001, 7.8854266940904805e-002,
          -1.0929475286182701e-001, -4.8712457428584710e-001,
          -4.1768992743368948e-004, -1.6098705478560224e-001,
          -1.7501391822699577e-001, 7.2378830707995445e-002,
          1.2567835379927428e-001, -1.0096513737661836e+000,
          4.8074564647557893e-003, -4.6207224942924494e-002,
          -2.3961480329610418e-001, -1.2294932143503060e-001,
          -3.1363755457235365e-001, 3.1084644880237311e-001,
          4.5786593818841809e-001, -7.1302576690876696e-002,
          -7.9009094849411807e-002, -5.4303265649525159e-002,
          2.7551254410960546e-001, 3.2597796070840982e-003,
          7.1028200106325060e-002, -1.0786388143275524e-001,
          -1.3875482986284295e+000, -3.7504328260997565e-003,
          -1.6788156362542078e-001, -9.6175064138873473e-002,
          6.9716208112573369e-002, 1.2036485568870380e-001,
          -4.6355047855495290e-001, -1.5609969673955246e-001,
          -6.8211213207928070e-002, -3.4412980004824859e-002,
          -1.3400374953605781e-001, -3.4929987030685655e-001,
          2.5213552043164283e-001, 6.1281831919480090e-001,
          -1.0732037020281182e-001, -1.0174596870026227e-001,
          -3.9882144344419938e-002, 2.6225396471415152e-001,
          1.2477422930394052e-002, 1.4577521985919970e-001,
          -1.2678142557896725e-002, -1.1223513528677325e+000,
          -1.0712269880445892e-001, -1.7278376976416090e-001,
          -5.0105466331844720e-002, 6.7625340706735856e-002,
          1.1672151164806406e-001, -9.8582744443445239e-002,
          -2.0535561296584720e-001, -5.6067279623981586e-002,
          -8.7294174596895077e-002, -1.6619985190847517e-001,
          -2.8773330767431926e-001, -4.9354913903993247e-001,
          -4.4599739427075361e-002, 1.2692131800689591e-001,
          -2.5806044245673254e-001, -2.5065222159798123e-001,
          6.0931396242684635e-002, 1.1672556286653053e-001,
          2.9311437565623072e-002, -7.2776793818603150e-002,
          -8.0398681970940089e-001, -4.0413429053397898e-001,
          7.0369867927402421e-002, 2.4121480428363869e-002,
          2.9011985659998535e-001, 3.3838054379809002e-001,
          -3.0031851252946723e-001, -1.2995794339169389e-001,
          1.6762460189941600e-001, 1.0485637803387873e-001,
          -8.9660696447778154e-001, -4.2976727589714236e-001,
          -4.3035078262893195e-001, -6.7136383035419703e-002,
          1.4751703756357593e-001, -9.1810412561717625e-002,
          4.9147261191228919e-002, -3.4870018058094802e-002,
          1.6403833632049941e-001, -9.7367781419674074e-002,
          -9.1362986630010815e-002, -2.2217121836393235e-002,
          1.3442188548076681e-001, -6.6245874139702954e-002,
          6.3219000134975514e-002, -7.8132060559601271e-002,
          -3.0165030091898293e-001, -1.6877572244775513e-001,
          -1.1249052039249847e-001, 1.0847671404215496e-001,
          8.1580401115767753e-001, -1.0397802353018748e+000,
          9.4608164982205409e-002, -7.2853751929074517e-001,
          -4.3413968866905894e-001, 1.3394510241490692e-001,
          5.3283967526789690e-002, 1.5776547111642858e-001,
          8.1918044177909377e-002, -2.1663740395500959e-002,
          -2.4642132340951581e-001, -4.3640412015494562e-001,
          -2.8646514428120176e-002, 1.0714945950359896e-001,
          2.8137284765190933e-002, 6.6804962793508324e-002,
          -7.5840875191626494e-002, -2.1979830043415491e-001,
          -1.4820217746380382e-001, -9.5594005550161940e-002,
          -3.0737357857981953e-002, 4.5255640419623544e-001,
          -1.7945918240558725e-001, 1.0287161131798617e-002,
          -5.6768103935663394e-001, -4.4167868586020054e-001,
          1.3429115511041750e-001, 6.2375388974544019e-002,
          1.2792270180388637e-001, 1.0766904346660940e-001,
          -1.5943255290858088e-002, -1.0134599566912192e-001,
          -2.1123565056946836e-001, -1.3070778903234145e-001,
          -3.4208902905913594e-002, 2.5357358007014299e-002,
          3.5114921383410533e-002, 2.1251237128513473e-002,
          -5.7089186099307443e-001, 2.6438333593305335e-001,
          -2.2022229739632218e-001, 5.7579516125022025e-002,
          -6.3386195370702933e-002, -1.2535471609557391e-001,
          -2.2974284599094749e-001, -1.8769110334274787e-002,
          -8.9574064870388145e-002, -2.9496188435975127e-002,
          5.8742837425459417e-002, -1.7311845898987271e-001,
          -2.2646240813782362e-001, 2.4099228358651550e-001,
          -1.7676050595045120e-001, -4.7532111761151130e-002,
          3.1942168643351696e-003, 9.7895407523364408e-003,
          3.3575173470006478e-002, -4.9289663701301535e-002,
          -5.5886537457689442e-002, -7.8280917734023714e-001,
          2.8964749274885243e-001, -1.7200497086765595e-001,
          3.0688261520381878e-002, -1.4285606661668415e-001,
          -1.2701729198024805e-001, -2.2467332808714149e-001,
          -3.1666153041754970e-002, -1.9381517290701303e-001,
          -3.0156580946857608e-002, 2.6937122319043657e-002,
          1.2452769737602074e-001, -2.4110244086594582e-001,
          6.0767262238395375e-002, 1.1573939414333894e-002,
          -4.3997695649841476e-002, -2.1065949407053030e-003,
          5.3392689936851562e-002, 3.2146791693670927e-002,
          -1.4016849050674399e-001, -1.1114202273727435e-002,
          -6.1009307016141590e-001, 9.0278995640689919e-003,
          -6.4354662485080302e-002, 2.7738677971135578e-002,
          -1.9402085649675468e-001, -7.1625349907806601e-001,
          -1.9495895791690793e-001, -3.0273035075330335e-001,
          -1.3543382882603483e-001, 6.3645934265808751e-002,
          7.7588914202112336e-002, -7.6535636291107434e-002,
          1.5255382191445305e-001, 7.9450838347110087e-002,
          -1.7487822609673218e-002, -2.4064678862134030e-002,
          2.3510422748501528e-001, -7.0158707275789656e-002,
          -7.4169850205575705e-002, -1.0395860285677647e-001,
          -3.3260166224143121e-002, 2.8046301210895447e-001,
          -1.9795097545447619e-002, -1.3322418272434794e-001,
          4.9350120066965743e-002, -2.5612297927248179e-001,
          -6.9430395871504957e-002, -5.7012907961075632e-001,
          -4.3437029765672686e-001, -9.7640855856624700e-002,
          3.7190003463678623e-001, -2.9358675681117111e-002,
          -1.5717448117184032e-001, 3.5753934205878479e-001,
          9.9279889236958643e-002, -2.0754079348850198e+000,
          2.2166208749007646e-001, 6.8936251117480507e-001,
          6.5297032161788532e-002, -3.9167243403262254e-002,
          1.1599893173034061e-001, 3.1304241633377916e-001,
          -4.8122068709826923e-002, 6.8895195891116298e-002,
          1.4344624123207489e-001, -1.5669268577375478e-001,
          -4.8281602504509802e-001, -1.4659846131661358e-001,
          -7.5767709141256995e-002, 8.9877184699448956e-002,
          8.2976223180287287e-002, 1.9109763770606183e+000,
          6.2556441305504362e-002, 2.6581756456997835e-001,
          -6.4804009870381929e-002, 1.0406553079654761e-001,
          1.7229032361924804e-001, 1.0258729918334758e-002,
          -1.3833937446742275e-001, 2.5127797679395980e-001,
          -5.8261234700405784e-001, -5.8118030002286623e-002,
          6.8055534693082245e-002, 4.6510013165026781e-001,
          1.3361871254396682e-001, -1.4531166302796853e-002,
          -1.4876186113359666e-001, -9.6550020957155577e-002,
          -1.3315290140139410e-001, -8.5881225965525804e-002,
          2.1882571114945354e-001, 7.3740941354811462e-002,
          1.3375998966126518e-001, -1.2650241048839330e-002,
          -6.7833967730180758e-002, -6.1573559163326116e-002,
          3.9929232680488524e-001, 2.5362791676873686e-001,
          -1.3460045707335103e-001, -2.1844718330201476e-001,
          2.7460686156069553e-001, -5.6181152491479883e-002,
          -1.6455414134313773e-001, -1.7617847661324776e-001,
          1.0470326596746995e+000, -8.7130242111585945e-002,
          -3.5512319128223069e-001, -2.0382220248691457e-001,
          -1.2524468266125360e-001, -1.2066320390261834e-001,
          -7.6618958803729792e-002, 3.0817539176778835e-001,
          7.7103612597555382e-002, 3.3168095775503004e-002,
          -4.4315461205287751e-003, -1.2025069936316886e-001,
          2.5933600747975222e-001, -8.2119028984474285e-001,
          7.1861853971185483e-002, 1.2227036838299656e-001,
          -2.0773467643485871e-001, -5.8122187196843374e-002,
          -6.2254990808849726e-002, -1.7817578988501356e-001,
          -1.8636931878224283e-001, 3.0290815927207554e-001,
          -4.1948015868844774e-001, -1.3696088796739175e-001,
          -3.4138029268548781e-001, -2.3111841948564521e-001,
          -1.2181393159086609e-001, 4.8960221160454828e-002,
          2.9295842891199225e-001, 3.6051791649444831e-001,
          -6.6310545815750147e-002, 1.0397506541303865e-001,
          -2.3605397964463651e-002, 2.6797870300836751e-001,
          -4.7840707029576096e-001, 7.2859680156936085e-002,
          1.4374393857367640e-001, -2.2768955204195004e-001,
          -5.3597352239863109e-002, -1.7378546373865281e-001,
          -1.7494995779715530e-001, -1.7793691910970263e-001,
          1.1821094434793764e-001, -6.2578657570555518e-001,
          -1.4479975062755224e-001, -5.6083865484994266e-001,
          -2.4464081249758901e-001, -1.2934760362828718e-001,
          -6.9164858234768353e-002, 2.8343206859859477e-001,
          3.4958959674876511e-001, -7.6242491720517960e-002,
          5.4337600198730900e-002, -2.2926349583328721e-002,
          2.1366133094305603e-001, -4.3152950382032856e-001,
          1.7076054283166101e-001, 1.3006585066607637e-001,
          -1.9966544957433102e-001, -5.2486874334161916e-002,
          -1.0002182411915900e-001, -1.7457006940068190e-001,
          -4.9025028059620814e-002, 1.2630143731358728e-001,
          -1.8314597676211924e-001, -1.4227939964800315e-001,
          -2.2932359664093141e-001, -1.2948987843995338e-001,
          1.8106956059807215e-002, -1.0785438469555547e-001,
          3.2826353416959819e-001, 3.5300352229796145e-001,
          -1.3237279182246295e-001, 1.1975154837977330e-001,
          8.6270324741774870e-003, -3.0984689032753990e-002,
          9.3802761407693613e-002, 1.7389372557837729e-001,
          3.9377239122170848e-001, -2.5994358141837282e-001,
          -6.8820086559206337e-002, -2.4066821124685772e-001,
          -1.5773180806634104e-001, 5.3069591936721347e-003,
          9.4831963624923976e-001, 3.6802349074341778e-001,
          -1.1540985030598135e-001, -2.0219636385334427e-001,
          3.6454752344336351e-002, -1.4455475274778481e-001,
          -5.1979384503884596e-001, 4.3641636165124997e-001,
          3.4678619228091556e-001, -1.6835937677061985e-001,
          2.9820145400705222e-001, -4.9411241803095307e-002,
          -3.4349097639911164e-001, 8.0456621294643496e-002,
          2.4941802577565311e-001, 1.2605981495895316e-001,
          -4.5042623844509960e-001, -1.9130490611818790e-001,
          -2.5135593427314412e-001, 6.1419066772925557e-001,
          1.3845836855344087e-001, 1.6308957867565217e+000,
          2.3526660253763768e-001, -1.1991109891897042e-001,
          -2.4886370301195074e-001, 2.0518626711167598e-001,
          -2.3953689148753057e-001, -5.3251381927939789e-001,
          9.4170962376396106e-002, 8.7538331759269890e-003,
          6.8051280800400585e-002, -2.1161477676812659e-002,
          2.5297325082595756e-001, -4.1370075042353760e-001,
          7.1310467696119127e-003, 1.3131393167932631e-001,
          9.4336902623483501e-002, -5.0341067482424812e-002,
          -3.5083723996385702e-001, 6.6867013897103966e-001,
          8.5269125573077220e-001, 2.8126109574829496e-002,
          2.5638048060937768e-001, 7.3181567870387347e-003,
          -1.1660543707369150e-001, 1.1418119209369247e-001,
          -8.1620465020581345e-002, -4.7289272719659531e-001,
          -4.8090081658938866e-001, 6.5544911177009849e-002,
          -9.5005360711987633e-002, 5.8211847520972151e-002,
          3.6352005805291701e-002, 5.9548546589627653e-002,
          -1.9059096213051660e-001, 1.9378264392060526e-001,
          -5.4296152555928054e-002, 2.3225542607225952e-001,
          -6.8362668804600249e-003, 2.5908364624327427e-003,
          4.7880537252961042e-001, 3.5935279505820164e-002,
          1.8701488060523541e-001, -1.8133752539173115e-002,
          5.6207678481902412e-001, -1.2095272661623375e-001,
          2.6193332975615280e-001, -7.7277547499066415e-002,
          -1.3500329323045768e+000, -1.0003440770053483e-001,
          7.1247330323377725e-002, -1.5623058114467692e-001,
          5.2891576430882725e-001, -1.6036431168677640e-001,
          6.0873408076462472e-002, -1.8900721659223441e-001,
          -5.2745707216714111e-001, -1.3139748215627853e-001,
          5.9780229315951372e-001, -1.1619912282508990e-002,
          9.6200222098538860e-002, 3.3711537471602182e-001,
          -6.9071557128800396e-003, -7.0759740609834601e-002,
          1.7946372157571946e-001, 2.4976033511045345e-001,
          -2.4482173416159014e-001, 1.9191473162549483e-001,
          5.8998016504369089e-003, -3.4142597121158649e+000,
          -9.1928878558011129e-002, -3.6359067558224240e-001,
          -4.5396955927018368e-001, 4.2102202889832574e-001,
          -4.8123389079022344e-001, -8.0699135564847438e-002,
          -1.8565441582127251e-001, -5.1579632111210749e-001,
          -9.6962383549238140e-002, 4.8351768027232472e-001,
          1.2793580644691463e-001, 8.4890441957654175e-002,
          3.3834842294867973e-001, 3.5674333366471377e-002,
          -2.8342449011883719e-001, -2.5815158896593865e-001,
          3.8533063856776212e-001, -1.4891697468365153e-001,
          1.5161996765863278e-002, -7.1694321486876461e-002,
          -1.2893992909843924e-001, -1.5690021861376335e-001,
          -2.7704832807922793e-002, -4.0655830361238893e-001,
          5.3927762599755701e-002, -2.0125435896008170e-001,
          -1.8077654805849430e-001, -8.3773522269345382e-002,
          6.0286016112596909e-002, 3.2760053311509371e-002,
          -6.8259226541645887e-002, 1.7384915526407699e-001,
          3.5062987524927383e-002, 4.8622490551625770e-002,
          -2.4527710035102276e-001, -1.7785632665105028e-001,
          -1.7815947306474980e-001, 3.4125603304922103e-001,
          -1.2271425937892766e-001, 6.2112406303695168e-003,
          -7.8230780481999329e-002, -1.2732832276418207e-001,
          -1.4922979621250784e-001, -2.9997539739230576e-002,
          -3.8297521541618529e-001, 1.2177541049274543e-001,
          -2.9937213273053292e-001, 1.3766648855595315e-001,
          9.4773869710080186e-002, 5.4061023020120696e-002,
          3.2235457190720171e-002, -3.1270917477148337e-002,
          4.2650202144698460e-003, 4.5771917044208472e-002,
          -2.9306002707357039e-002, -3.3170714138929625e-001,
          -1.7694847512092293e-001, -2.6318949266976749e-001,
          1.0388555915625766e-001, -9.1056669708523941e-002,
          -9.0977904464361464e-002, -1.0215619983932087e-001,
          -7.3323487262515918e-001, -1.0585725415634699e-001,
          -6.0983326767418494e-002, -2.1525692494254414e-001,
          1.5545695172484117e-001, -8.1173454533579215e-002,
          1.9591508750560740e-001, 2.1925111883929438e-001,
          9.9424745491157498e-002, 9.2120767018744245e-003,
          1.3538032827426991e-001, 3.8133080153545390e-001,
          5.1035213921515510e-001, 2.8416194642612513e-001,
          3.7271164712260413e-002, 1.8137515219787178e-002,
          3.6945551223262512e+000, 3.3628953317043758e-001,
          -8.8320338159407503e-003, -2.5021683316880139e-001,
          -2.4818835109725365e-001, -1.7915338821874649e-001,
          -3.3624528565349865e-002, -3.0760871437237124e-002,
          -2.8615473705194648e-002, 2.2666867617328004e-001,
          -2.6160061614671725e-002, 5.3526863166333005e-001,
          1.5586068154597688e-001, 8.9888053552979477e-002,
          -6.1339784818690520e-002, 3.1432254415839878e-001,
          1.1104422668327356e+000, 2.5320792505502354e-001,
          -1.4309563991383198e-001, 7.6178927292756106e-003,
          -5.3790663345023892e-001, -8.7809460165105865e-002,
          -4.4898164809211931e-002, -4.7974699907794342e-002,
          -2.0575477402389961e-001, -4.5995188047164022e-002,
          2.9207468559364583e-002, -4.4892520762400891e-002,
          2.7195707151381063e-002, -3.0768487297793499e-002,
          1.1104906103115467e-001, -2.7663550706508631e-002,
          4.1222377012376232e-001, 1.4527961278748067e-001,
          9.2024985454306707e-002, 1.7722394498999394e-001,
          1.6651938373706490e-001, 5.0723391228408299e-001,
          4.7263177210350749e-001, -2.6521110802121400e-001,
          1.1009087656905814e-001, -4.0918364412851821e-002,
          -1.1606381379294309e-001, -3.5621109764527731e-001,
          -3.0066390058368542e-001, -2.6778331391772758e-001,
          2.8073582533418243e-002, 1.1469234554002623e-001,
          -7.2190129217411372e-002, 4.2468362217121330e-002,
          -2.1493092999117686e-002, 1.5132337114181174e-001,
          -2.6342108853558269e-002, -3.0329991400258018e-002,
          1.2464451106850601e-001, 2.2603424645835066e-002,
          8.5578598924383617e-002, 8.8340571491625688e-003,
          -2.1682883187546023e-001, 3.2787499718309798e-001,
          2.4898311750100716e-001, 1.0771026509961355e-001,
          8.3311436731958913e-002, 3.8563178301563716e-001,
          -1.9556600600151808e-001, -4.3235689964601080e-002,
          -2.6002554464049965e-001, 5.2940756180522290e-002,
          1.0731316402179346e-001, 1.1494701825287590e-001,
          2.9870616742048922e-001, 9.7651157057706509e-002,
          1.2420352082434551e-001, -2.5164534605739572e-002,
          -3.3353573261020571e-002, 5.1028681927795900e-003,
          -4.7600859189769640e-001, 8.6526190576835346e-002,
          -4.2283397473018715e-002, -2.1822294957273547e-001,
          -4.6868536623227389e-002, -1.1265133064461624e-001,
          1.0547337755330918e-001, 1.4553146756508473e-001,
          6.8067250094874276e-001, -2.3694974301708935e-001,
          -2.0067197028932537e-001, -2.2591537950474247e-001,
          1.0891512977800706e-001, 4.9094536012507944e-001,
          -7.1238170679661525e-002, 3.3391544505483683e-001,
          1.3093060643074075e-001, 2.9042168549731639e-002,
          2.0888058900762446e-001, -3.2352017394698576e-002,
          -2.8810452696806965e-001, -9.2923972763039719e-003,
          8.1758524977714950e-002, -7.1105956277003862e-002,
          2.7082026425429812e-002, -7.5634050262289421e-002,
          5.7053095572234994e-002, 1.0692700897870129e-001,
          1.3615003460587119e-001, 8.9309065745421967e-002,
          -2.4162221161117617e-001, -2.3853737335039030e-001,
          -2.0868120414328403e-001, 1.0244653569348239e-001,
          2.6098765330943940e-001, -1.2754522980644317e-001,
          3.3610050573157646e-001, 1.5107618202120041e-001,
          -4.3234785366358364e-001, 4.1424009657613625e-001,
          -1.8969225423068455e-002, -7.9394685311378443e-002,
          -2.5407680409726394e-002, 3.1067126762383573e-001,
          -4.1142806998654595e-003, -6.1010859108770421e-001,
          -2.5492824680794290e-001, 9.7784364043772193e-002,
          1.0834162288144843e-001, 4.9869793384738859e-001,
          -1.7403560039650090e-001, -1.0230956853269195e-001,
          -3.0524975354522033e-001, -1.6313135862205569e-001,
          1.5020822487680821e-001, 3.1954635415333688e-001,
          2.5382606799010643e-001, 3.4171679769616958e-001,
          1.5252717692299997e-001, -2.4525698916055089e-001,
          2.1539225443040066e-001, -5.4647653602974550e-003,
          -1.9115331937452423e-001, 3.5229320597893587e-001,
          1.0858457172400386e+000, -6.7374949812423601e-003,
          -7.4245627094571343e-001, -3.2121622414592188e-001,
          -1.6962064291742504e-001, 9.2932193512098984e-002,
          2.1612072556749332e-001, 2.9445931986016312e-002,
          -8.8653158488037009e-002, -5.3414153526717967e-002,
          -3.8429660912958852e-001, -6.9299510192039546e-003,
          2.7798648835707529e-001, 3.1022030800061073e-001,
          3.0047303847197998e-001, 1.5241813390118589e-001,
          -2.5040056942207511e-001, -1.9231317482250516e-003,
          -6.5181163056942340e-002, -1.3847327201291837e-001,
          1.0710994644364472e-001, 8.3105285441629773e-001,
          1.0639257303148897e-001, 7.5706276791316959e-002,
          -5.3432371289412273e-001, -1.2584876177035012e-001,
          4.5617757004950699e-001, 1.2995481968957970e-001,
          1.0989749674084989e-002, 5.2417568211275488e-002,
          -5.5872741820996816e-002, 3.7067151184190454e-002,
          -2.1196410976501845e-001, -2.8765336109641915e-001,
          1.0242323425908251e-001, 7.4042069515946260e-002,
          7.4908227237634506e-001, 3.8220837540933589e-001,
          1.3220747586517267e-002, 2.6570964858023660e-001,
          -1.2746179991237688e-001, 4.2508896845377994e-002,
          3.7390769169938010e-001, 1.7981135634137432e-001,
          9.1288103854302971e-002, -2.0267473270291214e-001,
          -1.8005352032049221e-001, 1.1628869897079239e+000,
          7.4223733180158583e-002, 1.8629957517896698e-001,
          1.1122819052465146e-002, -4.1787208436499620e-002,
          6.3174205547038412e-002, 1.2807225100433983e-001,
          -4.2392855610441434e-002, -1.1650470812489999e-001,
          7.7985583599705782e-002, -6.4658701242576277e-002,
          2.5983383876154725e-001, 3.1311649935509743e-002,
          2.5983127803867062e-001, -2.2718883257112063e-001,
          1.2633278792744662e-001, 3.3305910438453745e-001,
          6.7495075809757521e-001, 2.5634209634288979e-001,
          3.7194394210998523e-002, 5.9734757520501280e-001,
          -1.4324118974115813e-002, -7.4137731118493988e-001,
          2.1742974050482292e-001, 7.6884728851695366e-002,
          -3.1843999958285532e-002, 1.1972233221170772e-001,
          -1.2095608982361673e-001, 5.7215645362225214e-003,
          1.9568516075379329e-002, 2.8314758487796032e-001,
          -1.6894201647946136e-001, 2.1915133162644163e-001,
          1.3212844664554996e-001, 3.4497813876395211e-001,
          -2.0608827467135174e-001, -3.5524110317131391e-001,
          -2.8369129316097426e-002, 3.3876511418219679e-001,
          2.8322166650388116e-003, 1.5929868524817967e-001,
          9.7203039059843221e-001, 1.0420670941524570e-002,
          -5.8779729910735712e-001, 4.5223729130750373e-002,
          1.8440258942215718e-001, -1.4765558337248894e-002,
          1.0649524504002261e-001, -5.1762284668034550e-002,
          -4.5330334659756766e-001, -6.9992483066053893e-002,
          -2.3941687741583218e-002, -1.6381822129224563e-001,
          4.5406222772840621e-001, -1.7276913983280570e-001,
          6.0904321054527122e-001, 8.7825650981266795e-002,
          -5.2852823003946037e-001, -2.0097246763318168e-002,
          1.8900485511157958e-001, 8.4701128598073157e-003,
          2.4748565489178570e-001, 3.0947296113160949e-001,
          2.0893696762759251e-002, -5.9974256813056737e-001,
          5.0806624537025030e-002, 3.0167274484739065e-001,
          -2.2573314939676981e-001, -3.3987591999872785e-001,
          1.2423416828887437e-001, -1.0966424483783176e-001,
          -1.3158786864643182e-001, -2.2189544750584898e-002,
          1.6129497248501906e-002, 7.8770391174225046e-002,
          2.8494679535178678e-002, 3.3945466330559698e-001,
          2.6104055250242092e-001, 5.1438001658492445e-002,
          2.6312526993461670e-002, 3.0696840667552266e-001,
          -8.2360066368639795e-002, 7.6571402700012947e-002,
          1.0803948141783350e-001, -2.5223718453668181e-001,
          -1.9177155218142974e-001, -1.9682564214337187e-001,
          2.9082988248179253e-001, -2.2073956735087394e-001,
          5.8235749788454081e-003, 6.2458967884049893e-002,
          -3.8678558451941447e-001, -1.0577163938317558e-001,
          -2.6490703618756106e-002, 3.3391601472767596e-002,
          8.9483904929942099e-002, -2.9456423166850482e-001,
          5.3172132798221705e-001, 9.1947301803682657e-002,
          5.9685069942002927e-002, 3.7346980239157834e-002,
          2.1572635620418490e-001, 1.6066483283393357e-001,
          7.1584616595453954e-002, 6.6613367488235514e-002,
          -3.1891765374722525e-001, -2.1311344250780509e-001,
          -2.0135944296792338e-001, 1.0149856405799160e-001,
          -9.8463688883011380e-002, -9.1724537855355948e-002,
          8.2102199770363773e-002, -2.4838416316249288e+000,
          -4.1939681578244387e-001, -7.1648305910926982e-002,
          -4.4018572317333632e-001, 1.3400122715098950e-001,
          2.1128252087548610e-001, 9.5425964462504842e-001,
          2.1929743720665962e-001, 8.6742353195866151e-002,
          -1.4608976647115185e-001, 6.4853151357368055e-001,
          6.3246535418209937e-001, 4.5767889749171026e-001,
          1.2303558640677963e-001, 6.1150877175995136e-003,
          -3.7313383113611115e-001, -3.9876194764528430e-002,
          1.2750046243970725e-001, -5.4728878392927213e-002,
          -5.6837777493678399e-001, -4.8011564321495814e-001,
          -9.7460911868634015e-001, -1.4938069020791195e-001,
          -4.0889100048117105e-001, 5.6714630679685157e-002,
          -6.4153961045730512e-002, 4.4393728807111087e-002,
          5.4877174767366521e-001, 3.7145865764585922e-001,
          1.7870229754123366e-002, 3.8761764809498850e-001,
          2.9812162242384904e-001, 1.3653410415657459e+000,
          3.3517763705736603e-001, 5.4977235859191696e-002,
          3.8670514847821824e-001, -8.0993647303712535e-001,
          -1.1463205473599208e-001, -6.0349383733539964e-002,
          -2.4348586606075451e-001, -2.5809735566332087e-001,
          -2.2177554647924333e-001, -2.3694786782478425e-001,
          -1.5525007439287450e-001, 4.3843255456913588e-002,
          -2.5451242513857875e-002, -8.5711532277743183e-002,
          -9.9955516256256000e-003, 3.0466880353824205e-001,
          6.1691715215476152e-002, 9.9267815731852949e-002,
          1.1336203726988554e-001, 9.5092951378180871e-002,
          3.5727542379321198e-001, 4.9668803008888862e-001,
          7.1077370142625065e-002, 3.7226467431818872e-001,
          -1.6775222532039549e-001, -1.1245986928883342e-001,
          -3.6466292352541274e-001, -9.5778990679545220e-002,
          -2.2119129745718308e-001, -2.2652824141667174e-001,
          2.3621012876780859e-001, 1.2939605018489081e-001,
          1.4277575344404961e-001, -3.1216858442236577e-002,
          -1.3293947102666798e-001, 2.6840514679453065e-001,
          -3.3778960602402583e-002, -9.9124939229688305e-002,
          -7.8693808421081243e-002, 2.6967307080252221e-002,
          -8.8144749128217223e-002, 1.0841652750260136e-001,
          3.3917785207374995e-001, 4.7661074400593656e-001,
          4.8666439478814821e-001, -1.5234249878409642e-001,
          9.8321332433151439e-003, -2.1181613157502213e-001,
          -1.4984913084710547e-001, -1.4055909020484017e-001,
          1.6196119261270195e-001, 3.2337645364055517e-001,
          2.9623197222217124e-001, 6.1489652200408113e-002,
          1.0067938908307950e-001, -6.8935520388875654e-002,
          4.3554929247273411e-001, -3.3912703714605474e-002,
          -2.2851946186617633e-001, -4.7369329883564813e-002,
          9.9816788608426577e-002, -6.0747574233076314e-002,
          -1.1934499493848524e-001, -6.4109260776562399e-002,
          -9.9629173714297928e-002, 5.0031270374059744e-001,
          2.7773365625886857e-002, 1.3726788046735695e-002,
          -1.3493380051870937e-001, -1.8566565451718392e-001,
          -4.4277808334439860e-002, 5.3263926665694949e-001,
          1.6447803222512464e-001, 1.6382790491034563e-001,
          4.1556428811929202e-001, 1.4658834812916879e-001,
          -4.4717854795026313e-001, 6.7368036725782809e-001,
          -1.8786793192880281e-002, -9.8050318735092970e-002,
          -2.3543543816364823e-002, 4.2543822194393655e-001,
          -1.2431306213123954e-001, -5.4097674571101417e-001,
          -1.1174940242101730e+000, -9.4905068538031559e-002,
          1.3438558037746515e-001, 2.4855731608933068e-001,
          5.1235036666941363e-003, -9.8089872454517363e-002,
          -1.8735674489863269e-001, -1.2340560336138703e-001,
          5.2681696138458189e-001, 9.2168593747011349e-002,
          1.0644486536970935e-001, 4.2296632845604187e-001,
          1.4797412904424276e-001, -4.3964568170731583e-001,
          4.1926985642169157e-001, -2.5626332453039184e-002,
          -3.0408158840620952e-001, 7.9845680687290768e-002,
          1.2930048516990362e+000, -1.2457376950568405e-001,
          -9.8329895183833693e-001, -1.1070187550051618e+000,
          -2.2128888815910408e-001, 1.7425356570222478e-001,
          2.6170812684275546e-001, 7.9923558975504676e-003,
          -8.9859176386090686e-002, -6.5515623216897398e-002,
          -1.1468443832753436e-001, 2.1553198353133063e-001,
          5.9742579792006381e-002, 3.0518511342639343e-001,
          5.7228992456936863e-002, 1.4042846365009329e-001,
          -2.1616261788171917e-001, 2.4946771868689641e-002,
          3.3442546454545371e-003, -2.2747661215297355e-001,
          3.5015254898505355e-001, 2.6426267377430679e-001,
          3.9927732592543716e-002, -4.4307043364023235e-001,
          -8.6240475749464007e-001, -2.3308189100335577e-001,
          2.7774511563717758e-001, 1.3009947146079451e-001,
          9.0289871350859360e-003, -9.0994087061009796e-002,
          -2.1713392131619522e-001, 9.3422237139143036e-002,
          1.9863951198537069e-001, -1.8465398478007686e-001,
          3.4605748577982187e-001, 1.4446402993481658e-001,
          1.5194282036994447e-001, -1.7697282953660873e-001,
          2.8451004491433274e-001, -1.6253382826156494e-002,
          1.1387981265440414e-001, 5.2038624687885573e-002,
          1.1105162540605844e-001, 1.0913665833036476e-002,
          5.9900154076836042e-002, -1.2882177689539978e+000,
          1.7471498384049444e-001, 1.5822280521380168e+000,
          1.7298918183266540e-001, -9.2340491852799481e-002,
          2.3607415174283192e-002, -6.2692451550614106e-002,
          -3.5317963779075939e-001, 1.2962378015432699e-001,
          -3.1630295158641192e-001, 1.1406047623788296e-001,
          5.5645302063396830e-002, 1.2767520245726988e-001,
          -4.4740101218877670e-002, 3.7052520591411853e-001,
          2.8047294072452095e-001, -1.2678283578896898e-001,
          4.7679629776404359e-002, 1.0981353724435622e-001,
          1.4807145711840097e-001, 8.3805958718826234e-002,
          7.6401654861092502e-002, -1.9401889223897018e-002,
          1.1967096982873564e+000, -8.1013047752889408e-002,
          1.2197852275008102e-001, 3.7465639467764233e-001,
          -1.0262518827587172e-001, 6.5623438637604350e-002,
          -1.4690358441198209e-001, -8.2299172134394343e-003,
          -1.0625695086207532e-001, 7.7526086359772886e-002,
          -6.9146790465458088e-002, 2.3020406354962245e-001,
          1.2153578759185035e-001, 2.5268484084758919e-001,
          1.6569111962085253e-001, -4.3381044760373155e-001,
          3.7556601039698378e-001, 2.3721376793777868e-001,
          2.5334772766789543e-001, 6.8555194041086898e-002,
          5.9022013762482628e-001, 2.7057019621615906e-002,
          -2.3994497486977201e-001, 2.2485033942787871e-001,
          6.2359146634160603e-002, -6.2650221306859627e-002,
          1.3913669669784984e-001, 3.9982145008141685e-002,
          2.0263543710835835e-001, -2.3549693695134827e-001,
          4.3593559301195672e-001, -1.9748941301242590e-001,
          2.2219212112981035e-001, 2.2393929253518002e-001,
          1.0997501924701746e-001, 1.8681106192725522e-001,
          -1.4967980945880283e-001, -5.8579890983955156e-002,
          3.2523857043755311e-001, 4.2881200659546599e-002,
          7.9116815411897870e-002, 1.4843110342110397e+000,
          -1.7370854870881658e-001, -1.7354945431475083e-001,
          1.4935154013050569e-001, 5.3974737739942893e-002,
          -6.7105032124204253e-002, 2.0222881941707571e-001,
          2.2351322877844240e-001, -2.4351365387497861e-001,
          1.2937966996905354e-002, 2.4096578581696043e-001,
          -2.1449427063457702e-001, 1.1522165371436523e-001,
          2.2323754100597232e-001, 1.7522074313063260e-001,
          2.6101211042777139e-001, -5.2999883562676886e-001,
          -8.5716287024055635e-002, 1.9391765425083410e-001,
          -1.2633173289112071e-001, 1.6373601417875444e-001,
          2.1397309625154861e+000, -5.6874258584268832e-002,
          -2.4423362666866649e-001, 1.4590555504226579e-001,
          3.3824473547789269e-001, -2.1744251562922828e-001,
          -3.3720514024476950e-001, -1.5869041306275372e-001,
          -2.4818621703622409e-001, 7.3828465557293568e-002,
          -3.0243355712144319e-002, 2.3678459706259543e-002,
          5.3320435828724110e-002, -2.9722591769896417e-001,
          5.4703030868374014e-001, 2.6890314822593542e-001,
          -1.9962244556806740e-002, 5.3029070650881138e-002,
          7.6667300879348055e-001, -9.9469412100408369e-002,
          3.4748540886023932e-001, 3.0921116713665278e-002,
          -4.3762124519573856e-002, -6.5916350583087618e-002,
          -2.0567631195029540e-001, 8.1733195117432655e-002,
          -2.1737740798370306e-001, -3.3923229896221424e-001,
          -4.2118724807724511e-001, -6.9604435385867469e-001,
          8.5827731821635486e-002, -2.5689025120569045e-002,
          2.9137824387405101e-002, 3.7966125120115012e-002,
          -2.8453380835590802e-001, 4.5868279599020362e-001,
          8.1563661475986604e-001, -1.5976701217617302e-002,
          -8.1544307216411607e-002, 4.6303956544850294e-001,
          2.7825169414940018e-003, 3.3983618470456939e-001,
          1.1498639764531506e-001, -4.4130491703823840e-002,
          -4.2947097798588046e-002, -1.7421430422640657e-001,
          -1.3513239365221096e-002, -4.4278633892428053e-002,
          -1.0875835920817298e-001, 2.6667654246640554e-001,
          -2.6432810529157096e+000, -2.4658341547685134e-002,
          1.9859207403937837e-001, -2.5905076488783599e-004,
          7.4803944043926221e-002, 1.2193529484372459e-001,
          1.0572579779126758e+000, 5.7054627969577838e-002,
          6.4902046859152910e-003, -1.4950851209821850e-001,
          5.1984006940027749e-001, 2.6221616466322284e-001,
          9.6153065762680090e-001, 8.6635013863702204e-002,
          5.3137755191615538e-003, -1.9907383459521036e-001,
          -2.0066626722025652e-001, 1.3218505298247818e-001,
          -5.4248475029951448e-002, 8.7304843550462308e-002,
          2.5752693515282010e-001, -1.3779219850630464e+000,
          1.0344902423662737e-001, -1.5580113171365687e-001,
          -1.8902171966349274e-001, -3.4039530780000199e-001,
          1.3877493018426382e-001, 1.2652225020895496e+000,
          3.8483200352458236e-001, 1.0836351381247417e-002,
          -3.3695790637023160e-002, -4.8249646006809983e-002,
          7.3876279592679495e-001, 3.6697764928205678e-001,
          -7.2912344212949010e-001, 4.8654057459359695e-001,
          -5.9329179630504980e-001, -1.8862952653023077e-001,
          -3.4013971914747532e-001, -3.1361569142621570e-001,
          -2.3304451193806269e-001, -1.6927994596002385e-001,
          -2.7455001072611257e-001, 9.7903938163812862e-002,
          2.0681446319606505e-003, -4.0115220372630614e-002,
          -4.4816942076075694e-001, 3.2913142525656219e-001,
          2.8241612895908413e-001, -9.3628360616768977e-002,
          1.1170192376195552e-001, 1.0042863737768538e-001,
          -2.1584956761579407e-001, 1.3416263632178199e-001,
          5.2984750508667156e-001, 5.4401048699759931e-002,
          4.9251546486394870e-001, -5.6974838427838341e-002,
          -1.1556381422949048e-001, -3.4444515557602595e-001,
          -4.4413029668714171e-001, 7.6712093561586120e-002,
          4.1764223756423316e-002, 4.6027902905513139e-002,
          3.1954036615987258e-001, 8.6630683151810647e-002,
          -3.6804672706386304e-001, -3.8220325485504991e-001,
          2.3523886452811421e-001, -3.7015744917069521e-002,
          -9.4633435146608672e-002, 3.2650747504390301e-002,
          3.5938155069006612e-002, -1.0735529199988667e-001,
          1.3368904356674668e-001, -1.2537010816633520e-001,
          -1.0056081255805280e-001, 5.3161279634404934e-001,
          2.7081180710133181e-002, -1.2672213366242260e-001,
          -8.7814421036639417e-002, -1.8642187399655560e-001,
          1.7335484807181631e-001, 3.3631924741959918e-002,
          8.8258761583784040e-002, 7.1557857779877843e-001,
          1.9265967851668179e-002, -1.1553885630451120e-001,
          -3.7458350619997610e-001, 2.5212969756799530e-001,
          -2.8241840356900089e-001, -4.5691251875401379e-001,
          2.9989589304460113e-001, 1.9473172257611429e-001,
          -3.2423040131372434e-002, 1.0954492541867177e-001,
          -6.6973598845748850e-001, -1.0451196662637131e-001,
          3.4678661324413695e-001, 2.2810413724092807e-001,
          8.9721321796048959e-003, -9.7935332420078597e-002,
          -1.9457971142876393e-001, 1.8065460870562527e-001,
          3.5174785078206247e-002, 9.2043225213599089e-002,
          8.2736362775924249e-002, 5.9533012815398655e-002,
          1.5384512055969271e-001, 8.0575486829007359e-001,
          6.8190913939748887e-001, -2.3863558806690796e-001,
          -2.4951630111392797e-001, 6.6232365075660715e-001,
          1.9182855757916500e-001, -1.9975500712301811e-002,
          -2.1267627281233525e-001, -5.4968742503794588e-001,
          -9.4974047476312703e-002, -1.0278701291256524e-001,
          3.4221308495152619e-001, 9.3308665953913614e-003,
          -9.0319276110091135e-002, -1.8570664815742896e-001,
          1.7059250115531457e-001, 3.2458245582587739e-002,
          4.6166728171880236e-002, 1.0585772129694701e-001,
          2.0344712808537078e-002, 1.4924837428737714e-001,
          -5.1012170134194934e-001, 1.9761873853001544e-001,
          2.9378661627261115e-002, -2.5865312765367793e-001,
          8.1681729026264360e-001, 2.0972088094802410e-001,
          1.1840724448078721e-001, -1.9590636356730276e-001,
          -5.3131882902959660e-001, -2.2711427040512980e-001,
          3.5237180964246057e-001, 3.3924684444507136e-001,
          1.2915125223370912e-002, -9.3972442864888803e-002,
          -1.5839876287308197e-001, 1.7718833736453704e-001,
          3.8036965231611541e-002, 5.2141502516118994e-002,
          3.4141047409829112e-001, 1.3485955533023530e-001,
          1.4926974474509164e-001, -4.4082916820629958e-001,
          2.8504219316824819e-001, -2.3038939678154586e-002,
          -2.6705210932889095e-001, 3.0484889434268692e-001,
          1.8553243791361776e-001, 1.2991582839619217e-001,
          -2.0677854988014066e-001, -1.3106142574787758e+000,
          -2.2746097241401639e-001, 3.4881567630558480e-001,
          3.4214058788607937e-001, -1.2414042271206636e-001,
          -3.3976565436367712e-001, -3.1005644290869445e-002,
          -4.1920692289245338e-002, 2.9152369843476716e-001,
          -3.3294432236212215e-002, 3.4503919453156140e-001,
          1.3591255934680935e-001, -3.7253252151083593e-001,
          -2.7402906320237369e-001, 8.5508923129769510e-001,
          1.3997608509428405e-001, -1.7385098880965250e-001,
          4.3061240157615130e-002, 9.9798275424003741e-002,
          5.3921450009066306e-002, 9.9607540559796620e-002,
          -1.1581139789267552e+000, -2.3514381445652338e-001,
          1.4786844447327512e+000, 2.1235851116862475e-001,
          -8.8571468857138916e-002, 1.7131489473427863e-001,
          6.8895693569115379e-001, -3.0859673536935434e-001,
          2.3242122176449656e-001, 3.0606207547690376e-002,
          7.9795892788853781e-002, 5.9033658682560441e-002,
          -4.7670562733943234e-001, 2.2998752990904667e-001,
          3.4941639701116289e-001, 4.6702216021660475e-001,
          1.0836117041018008e-001, -2.4708196078257680e-001,
          1.1243905269188800e-001, 1.3496017407875299e-001,
          8.4303280555126939e-002, 2.6619455062103714e-001,
          5.8472801297684218e-001, 3.6877418429773096e-001,
          -1.3782576111170380e-001, 1.4739149617004479e-001,
          2.3698018421098047e-001, -3.9225668337920704e-002,
          4.9357122255285581e-002, 1.7597596444293467e-001,
          2.1145133968961427e-001, -1.4503062683947704e-001,
          2.8791203831559459e-001, -1.6595827479153222e-001,
          2.3435782260281290e-001, 5.3904755128314397e-001,
          5.8459291461896164e-002, 1.6678442091916779e-001,
          -4.5859814679101812e-001, 1.8501569922911359e-001,
          2.1665315302354354e-001, 2.7899228969628154e-001,
          2.6819663334817911e-001, 2.7893477799625538e-001,
          3.3055922466047431e-002, -2.4628135740657248e-001,
          2.0974546547017245e-001, 1.7774124466290389e-001,
          2.4079301631831357e-001, 1.7896578666499380e-001,
          3.8408046807129954e-002, 2.1240938881604846e-001,
          -1.0682622073754421e-001, 2.1364545907526597e-001,
          -3.8632155536484991e-001, 3.7424478999888844e-001,
          2.2406432796967485e-001, 1.6946680020401561e-001,
          1.7855759314957365e-001, -1.5066441551411675e-001,
          -6.0090183749493209e-002, 2.6317958367913796e-001,
          3.7811435638957301e-002, 2.7210830019226950e-001,
          6.4551841506047947e-001, -4.6425257350486243e-001,
          -3.5127443115565021e-001, 1.5005908556968578e-001,
          2.9605748171468310e-001, -2.2697413817683160e-002,
          3.1333879678964216e-001, 3.7675710667611169e-002,
          1.0083414946096395e-001, 6.5574174273358571e-002,
          2.5395249468404207e-001, -4.1737700319271642e-001,
          3.6416594271428437e-001, 2.1718855735718873e-001,
          3.5246942973054925e-002, 1.5998796974772730e-001,
          -1.4936592857686251e-001, 5.4845881834564472e-002,
          -2.4426053518748000e-001, 1.6043540141342068e-002,
          2.6399935573258870e-001, 4.4518106026601945e-001,
          -7.0497282424574981e-001, -3.5015201674631458e-001,
          1.4925038838468108e-001, 9.5423999317892916e-002,
          -2.1997785736905062e-001, -3.3389199594178898e-001,
          -4.1684454608928295e-001, -1.3419685151377621e+000,
          1.5922245558557929e-001, -3.1894899216205697e-002,
          2.1314313806929355e-002, -2.5195928017000502e-001,
          -2.9355920934639018e-001, 5.6985584312340176e-001,
          3.8600937477315028e-001, -5.0613264100339995e-003,
          -1.4933638711262423e-001, 1.5831380218312410e+000,
          2.6373663230120505e-002, 6.8168710384237252e-001,
          1.0055280777020230e-001, -8.7056169888974130e-003,
          -1.3401583854746457e-001, -1.7175115435699520e-001,
          -5.6550589350527279e-002, -2.2477158075326345e-001,
          -3.3670813595152310e-001, -4.2032534575442765e-001,
          -1.1400112362673576e+000, -5.2009994246396428e-002,
          -2.6210697723047332e-002, 2.7207422251519089e-002,
          4.0202936425283130e-002, -2.8802195022085464e-001,
          3.7134405762190503e-001, 4.3970544029686109e-001,
          -4.3525873313247226e-003, -1.4127609249318054e-001,
          9.8454816581584237e-001, -7.8183845559183340e-002,
          6.8906711264252007e-001, 9.3868706664224116e-002,
          -5.0053276699515800e-002, -6.4273157305388462e-002,
          -1.7400634465569723e-001, -1.9449922826908373e-002,
          -9.5523301429049454e-002, -1.0432733753597161e-001,
          2.2074973526461589e-001, -2.5310825983930303e+000,
          2.2061600498737552e-001, 2.1522411782321896e-001,
          1.1390133815790836e-003, 8.6493181812002357e-002,
          -1.3007115859225454e-001, 1.1921613363735228e+000,
          5.1767424676557650e-001, 2.4100691662827609e-002,
          -1.5475313796163598e-001, 1.8063697666585643e-001,
          1.8519345270564192e-002, 9.5163971960680771e-001,
          3.5408023607588324e-002, 1.4689952098066420e-002,
          -3.7132861829308632e-002, -1.0241787325820388e-001,
          1.2879449027223863e-001, 8.3830523861113643e-002,
          7.2824880178566004e-002, 3.6775013244716953e-001,
          -1.5050157468609606e+000, 7.2822096769481218e-002,
          1.3739508774423728e-001, -1.8795395097010767e-001,
          -3.3157443186002405e-001, 3.7080671926696357e-001,
          8.7833365176813860e-001, 2.0427123285764673e-001,
          1.3728535775566849e-002, -3.5062894276495316e-001,
          -1.3419086814397352e-002, 3.5493757051648017e-001,
          9.1751015948633141e-001, 3.4269846993806086e-001,
          2.5958629987160953e-001, -1.6774067977462745e-001,
          -1.0418970101821999e-003, -2.3483144642982906e-001,
          -4.9436973819405899e-002, 1.7610885021972653e-001,
          2.5329234803524770e-002, -1.0233114075815301e-001,
          2.9049229483493355e-001, 6.6690302290098357e-003,
          -3.9765574226281131e-001, -1.4156271494146269e-001,
          3.4314621795075712e-001, 1.0195182485756073e-001,
          1.1163025845812723e-001, 2.7218012543160736e-001,
          8.8520676150745117e-002, -9.6301366756058188e-002,
          1.2655373323555538e-001, 3.2134180848112058e-002,
          -9.8028061935258357e-002, 4.4090221683434555e-001,
          1.4338970786440777e-001, -1.2032203544049450e-001,
          -3.3882680935666776e-001, 5.3332463828738803e-002,
          1.7386521891407025e-001, 4.0492508298742014e-002,
          -1.0551870071816369e-001, 3.0860144988517485e-001,
          8.7925803961078200e-002, -4.0069936768000614e-001,
          -4.0903743812905929e-001, 6.8242288860931011e-001,
          -1.2696005804823079e-001, -3.1892275427483691e-001,
          2.9523808356471448e-001, 6.8479049165556014e-002,
          6.0511365153180341e-002, 1.0304134375475875e-001,
          -2.7095853165725814e-001, -1.0068830207563585e-001,
          -1.2018173591345377e-001, 2.1218912408584020e-001,
          -1.1866547019795473e-001, -3.1684560437836473e-001,
          -1.2399382590644126e-001, 1.7222591426722839e-001,
          3.6645106782081285e-002, 1.9566770127098626e-001,
          7.4123916321435201e-001, 7.7258037090906839e-002,
          -1.0667703736246929e-001, -1.3646743115009144e-001,
          2.8952615828455697e-001, -2.0761422360186904e-001,
          -2.6581550347843536e-001, 2.8270338904005798e-001,
          1.8956426220622424e-001, -1.7286668551033668e-002,
          -2.1906424935249505e-001, -5.2741493359004210e-001,
          -9.5169857095366711e-002, -1.3582952893605943e-001,
          2.1362499133094023e-001, -1.2330934994264255e-001,
          -8.3631970718827331e-002, -4.6182172565554583e-002,
          1.7532696749169691e-001, 3.3738920711715109e-002,
          1.9502647549370428e-001, 2.1538650951290073e-001,
          -3.0856909616636558e-001, -1.0630823138555960e-001,
          -3.2800609754575993e-001, 1.9533149310450118e-001,
          -2.0779701470666187e-001, -2.4875640352403769e-001,
          4.4723147899852506e-001, 1.9586339068123790e-001,
          1.2639074486220936e-001, -2.0484317405152833e-001,
          -1.3803206758188256e+000, -2.2900626569003898e-001,
          -1.1330908900421457e-002, 3.4218495437382501e-001,
          -1.2653627711793838e-001, 9.1867413305293827e-002,
          -4.4947438873396479e-002, 1.7959144370443625e-001,
          3.9696368284227110e-002, 8.2883019316414619e-002,
          1.4560718823822236e-001, 1.4391033527206623e-002,
          -1.1695958900852084e-001, -4.0324539082122779e-001,
          2.8589706038818485e-001, -2.8015744039743862e-001,
          -2.6175135927694254e-001, 3.0244831198025712e-001,
          1.9086156567982326e-001, 1.2398286394977473e-001,
          -8.0583171288262548e-002, -5.0902978559946999e-001,
          -2.3512517797080892e-001, -1.1157347106302586e-002,
          2.3417885893019594e-001, -1.2241543846150865e-001,
          -3.9459776580190016e-002, -7.9344948235908361e-002,
          8.1906162158180390e-002, 4.1168295199025831e-002,
          6.6553889996726151e-002, 3.3646413168579792e-001,
          1.4014622696645512e-001, -3.8790041066009567e-001,
          -6.3004567500093112e-001, 2.8505953485865743e-001,
          -1.4056699545921672e-001, -2.3275691531818923e-001,
          5.4760226021070377e-002, 8.6492060531916368e-002,
          1.0223473999802751e-001, 7.5540760649969813e-002,
          -4.6112810677448673e-001, -2.2934923564026441e-001,
          1.8052204174720818e-001, 2.2062886593810882e-001,
          -1.2121081580715198e-001, -8.4055580415211967e-002,
          9.8327987576069775e-001, -2.7197052463581251e-001,
          3.6020383478210877e-002, -3.1447412046161116e-001,
          2.9692378938052622e-001, 2.9632811368915705e-002,
          -3.7734575836141748e-001, -5.3881935290283223e-001,
          4.2817823848821895e-001, 1.0220275822741429e-001,
          -1.7690395334081324e-001, 5.1547849061007754e-002,
          5.6560096331093428e-002, 6.8449367851944665e-002,
          1.0319212589774135e-001, -3.2820694917925841e-001,
          -1.1035954413822448e-001, 1.4538477120314600e-001,
          7.3975302528182492e-003, -1.1669159603290462e-001,
          2.2164899363413826e-001, 7.8954829619210520e-001,
          -8.2863753909950252e-002, 3.4654431811862652e-001,
          1.7971022105389362e-001, -7.1864012292365431e-001,
          1.2335018086051176e-001, -1.2637703812214082e-001,
          1.6859552679945686e-001, 3.8449662021379277e-001,
          6.3103366202336725e-002, 1.1467264529697230e-001,
          -5.5783023843083368e-001, 3.0621048282740558e-002,
          1.1810750329480317e-001, 3.0443887424669774e-001,
          2.7594181302773457e-001, 5.1682121515336443e-001,
          8.7554111036913018e-002, -7.1332353859970343e-001,
          -8.4294421645826845e-001, 4.9822774510205253e-001,
          3.1444296842019576e-001, -6.4542216899400717e-001,
          4.4532215500148259e-001, 2.2747842710125105e-001,
          -2.8406822450122432e-001, 4.2465580848229079e-001,
          -1.1156066640966363e-001, 1.5910101168026794e-001,
          2.1777851588901725e-001, -2.8053765136002676e-002,
          1.0949149774934705e-001, -9.7030887460218884e-001,
          1.8074816991936049e-001, 3.5675897901881259e-001,
          4.3912243746319503e-002, 2.6357007844842584e-001,
          5.7773586817103539e-001, -1.5782534817096797e-001,
          -3.5359499813479489e-001, 4.8124013739217528e-002,
          1.9499279149583282e-001, 2.4073819550575232e-001,
          1.8447038140270955e-001, 3.7309767343193363e-002,
          1.2681657181577879e-001, 4.9541666087486065e-002,
          2.1567974251258190e-001, -3.7617070966889821e-001,
          1.7850807090092918e-001, 2.1868117786391644e-001,
          2.3946450790932525e-001, 1.8206843186203478e-001,
          -1.9567568488331347e-001, -1.6468919662130330e-001,
          1.6355057516462659e-001, 3.8848855230329014e-002,
          2.6460600548663715e-001, 6.1638911462703072e-001,
          -4.0902098698778500e-001, -3.5620704521897656e-001,
          1.5106633615166279e-001, 1.8037916088843906e-001,
          2.3741541968645608e-001, 3.1067342236932799e-001,
          3.8425071583528876e-002, 8.1787306227644796e-002,
          -1.0365167111613775e-002, 2.6015725312472815e-001,
          -4.0195035511382970e-001, 1.2513325704077449e-001,
          2.6509531122992142e-001, 1.5689340086208503e-001,
          1.4333489277611769e-001, -1.5069581786096134e-001,
          2.3825840657962487e-002, 6.1930215491198655e-002,
          2.8117899491109894e-002, 4.1982732156965502e-001,
          2.0083589077877645e-001, -6.6171627119530896e-001,
          -5.5299221829434420e-001, 1.4572257457707652e-001,
          -6.1642572843089022e-002, -2.2599105731945540e-001,
          -3.3596481089309921e-001, -4.2418425178173730e-001,
          -1.2183523677172292e+000, 1.9195284877819319e-001,
