%YAML:1.0
mlp: !!opencv-ml-ann-mlp
   layer_sizes: !!opencv-matrix
      rows: 1
      cols: 3
      dt: i
      data: [ 330, 15, 12 ]
   activation_function: SIGMOID_SYM
   f_param1: 6.6666666666666663e-001
   f_param2: 1.7159000000000000e+000
   min_val: -9.4999999999999996e-001
   max_val: 9.4999999999999996e-001
   min_val1: -9.7999999999999998e-001
   max_val1: 9.7999999999999998e-001
   training_params:
      train_method: RPROP
      dw0: 1.0000000000000001e-001
      dw_plus: 1.2000000000000000e+000
      dw_minus: 5.0000000000000000e-001
      dw_min: 1.1920928955078125e-007
      dw_max: 50.
      term_criteria: { epsilon:9.9999997764825821e-003, iterations:1000 }
   input_scale: [ 3.9746557709134063e+000, -2.6348993269878656e+000,
       3.9258443001548886e+000, -2.5217151661734039e+000,
       4.2447750213576745e+000, -2.5901874463604768e+000,
       5.1227789420401004e+000, -3.2017694939493304e+000,
       4.4857776050787050e+000, -2.6663390088992358e+000,
       3.4732578529761704e+000, -2.0038167766902140e+000,
       3.0354988508322798e+000, -1.7050989373101337e+000,
       3.0349209774240662e+000, -1.6797074496150652e+000,
       3.1574827806269519e+000, -1.7427393297132765e+000,
       3.5663397442310947e+000, -2.0546079825899093e+000,
       4.4469505593429304e+000, -2.5754009927802595e+000,
       5.0475339038175795e+000, -3.0387152552688623e+000,
       4.2926349972400111e+000, -2.5548051659298046e+000,
       4.0159703485259648e+000, -2.6126203691379994e+000,
       3.9826103160130963e+000, -2.6871367010674172e+000,
       4.0950700529932069e+000, -2.5764281215126474e+000,
       3.4503682690650637e+000, -1.7384305132891988e+000,
       3.5722870394940811e+000, -1.5912706360891073e+000,
       3.9518553393400349e+000, -1.8095487192864714e+000,
       3.5539744249421856e+000, -1.6910643977466382e+000,
       3.0636489111702043e+000, -1.4224874184028293e+000,
       2.7102962574225664e+000, -1.2643646575462439e+000,
       2.6635149087746552e+000, -1.1793785511231762e+000,
       2.7007842815202592e+000, -1.1534825613342150e+000,
       3.0653106391194789e+000, -1.2374058204120688e+000,
       3.5499297260552485e+000, -1.5654482619407450e+000,
       4.1050202981818771e+000, -1.8675886637582095e+000,
       3.9153351127767047e+000, -1.8645180094517464e+000,
       3.5985665419549258e+000, -2.0074207394093242e+000,
       4.1363807618252579e+000, -2.7283711395336598e+000,
       4.1664183578707048e+000, -2.5533259683015301e+000,
       3.2637771809728759e+000, -1.3246753007952161e+000,
       3.5439633537774973e+000, -1.2312742129141550e+000,
       3.9465265623531778e+000, -1.5970108298600674e+000,
       3.6741623815761071e+000, -1.6559647244308699e+000,
       3.2478556574161281e+000, -1.5452384968101804e+000,
       3.0432037457540164e+000, -1.4961875989320725e+000,
       2.8016543259596767e+000, -1.2957428207465247e+000,
       3.0226422295871016e+000, -1.2831473414575079e+000,
       3.4223316770917354e+000, -1.3258209180989731e+000,
       3.6824385918541043e+000, -1.4447370640454062e+000,
       4.1222643038178779e+000, -1.5905905262622417e+000,
       4.1517887651780017e+000, -1.6164920000408396e+000,
       3.4882519015903166e+000, -1.7093722782993734e+000,
       4.4650486311554332e+000, -2.8790343954120594e+000,
       4.3609629005778894e+000, -2.5573969504926621e+000,
       3.5130152608040439e+000, -1.3117247412894488e+000,
       3.7818075824607145e+000, -1.2722792405414525e+000,
       4.2641499796054410e+000, -1.9530958800379981e+000,
       4.4892994484918667e+000, -2.2689910369371225e+000,
       3.7913968589731653e+000, -2.1711544363281345e+000,
       3.8129608819195382e+000, -2.2286838979217913e+000,
       3.1677005988476017e+000, -1.7591295235926860e+000,
       3.5338983911168733e+000, -1.8224859604111847e+000,
       3.8384072963547142e+000, -1.7835915936099676e+000,
       4.3509449517612593e+000, -1.7885144715290695e+000,
       4.1137166574515582e+000, -1.6173761943319611e+000,
       4.3690705126608993e+000, -1.5626005756708534e+000,
       3.8769430387845749e+000, -1.7905736434531179e+000,
       4.4057429219764952e+000, -2.7365849077278335e+000,
       4.6402128629020281e+000, -2.6257176368313124e+000,
       3.6398762173812189e+000, -1.3186475810821396e+000,
       3.7791065450433368e+000, -1.2856733230746002e+000,
       3.9374441327865402e+000, -1.8540223926092791e+000,
       4.4986734971028621e+000, -2.5733655364756931e+000,
       4.2090970023530687e+000, -2.7017786816532703e+000,
       3.8169627148291640e+000, -2.4697823745175098e+000,
       3.3411987931130001e+000, -2.0315947616578653e+000,
       3.4571203295700581e+000, -1.9760589237000390e+000,
       3.6191915173503202e+000, -1.9529080492340734e+000,
       4.0620272889547531e+000, -1.9395765796638567e+000,
       3.7600674205614557e+000, -1.6467529958332157e+000,
       4.0161352877079901e+000, -1.5657188032683136e+000,
       3.5931284917905311e+000, -1.6578029130406855e+000,
       3.9575001877791558e+000, -2.4209900587811206e+000,
       4.3087631359458118e+000, -2.4844988309395371e+000,
       3.4250686292080048e+000, -1.2376898008082244e+000,
       3.7905200354294171e+000, -1.3115075484651018e+000,
       4.2918763983432378e+000, -2.2050115943359234e+000,
       4.5182284934184489e+000, -2.8376404644619204e+000,
       4.3326402810387528e+000, -3.0094606546183318e+000,
       3.6039262179715577e+000, -2.5150383052038214e+000,
       3.0780991260694175e+000, -2.0076082442881149e+000,
       3.2908931855460013e+000, -2.1014358095931032e+000,
       3.6421413025296796e+000, -2.2075125676928664e+000,
       4.2491609081476653e+000, -2.3731324914814427e+000,
       3.7277525557274696e+000, -1.8964854746798687e+000,
       3.5784030409821916e+000, -1.5776004871158540e+000,
       3.2141416934640570e+000, -1.5850580798563474e+000,
       3.7277009981929705e+000, -2.3451102760739322e+000,
       4.1906356575955810e+000, -2.3742760287372930e+000,
       3.2609196016894249e+000, -1.2046490457872330e+000,
       3.5488819018281008e+000, -1.2614349705748833e+000,
       4.3927599113595459e+000, -2.3270180680474692e+000,
       4.0649304350585327e+000, -2.5964056943782192e+000,
       4.5628980470859393e+000, -3.1380555572045084e+000,
       3.6415116648711723e+000, -2.4642916235590420e+000,
       3.0344190486196561e+000, -1.9592315390672568e+000,
       3.3223371600117799e+000, -2.1608103752530967e+000,
       3.7399640754082468e+000, -2.4432963582933995e+000,
       4.0368735412933416e+000, -2.4516862015802920e+000,
       3.8599065627727778e+000, -2.1993248658541851e+000,
       3.3507665373769204e+000, -1.6633025582993277e+000,
       3.0866428036552400e+000, -1.6245040065070009e+000,
       3.7860975387816236e+000, -2.4925889180667804e+000,
       4.1892482298437335e+000, -2.2967897307242926e+000,
       3.0937850326274283e+000, -1.1494195272277881e+000,
       3.3802267023574819e+000, -1.2106130791239571e+000,
       4.3792145972036849e+000, -2.3375131329126559e+000,
       4.1375162664040808e+000, -2.6222325889368157e+000,
       4.1592514185447742e+000, -2.7687848332943052e+000,
       3.3025142767607876e+000, -2.1354430041709902e+000,
       3.0817467477014566e+000, -1.9844384827421553e+000,
       3.3474552328973473e+000, -2.1850932419118037e+000,
       3.9728926536096441e+000, -2.6994129768403292e+000,
       3.8810484598611215e+000, -2.4708983928639126e+000,
       3.8240397215970394e+000, -2.3109903571177939e+000,
       3.1960307527293201e+000, -1.6960042435892657e+000,
       2.9651373288372507e+000, -1.6273409453956340e+000,
       3.8326850967176327e+000, -2.6112232681759386e+000,
       3.7823576814786879e+000, -2.0503265861975426e+000,
       2.9580314701909209e+000, -1.0351989533474975e+000,
       3.3181577780914746e+000, -1.1754783479067195e+000,
       4.0358666032058110e+000, -2.0113074989435398e+000,
       4.0433690056792511e+000, -2.3155649305725583e+000,
       3.8469305510497533e+000, -2.2719220459683189e+000,
       3.3320972823293062e+000, -1.9513726741008512e+000,
       3.1684973268911309e+000, -1.9773052182298372e+000,
       3.8080411690291789e+000, -2.3988533939431287e+000,
       4.0939802905636418e+000, -2.7184761724121120e+000,
       4.2881428496072633e+000, -2.7221299324683339e+000,
       3.7475546019647248e+000, -2.2765921055100571e+000,
       3.1464172121192169e+000, -1.7309117070346629e+000,
       2.9967331371862365e+000, -1.6971090309608454e+000,
       4.0402744604224434e+000, -2.8330495291737248e+000,
       3.6668146209539660e+000, -1.9697122200880772e+000,
       3.0152687154340159e+000, -9.8715403850755201e-001,
       3.0601241731698372e+000, -1.0008994009120888e+000,
       3.2362657004582109e+000, -1.3020334755019380e+000,
       3.5909505701727382e+000, -1.5953532310768599e+000,
       3.5663855010424514e+000, -1.5363115779583425e+000,
       3.2465389177570123e+000, -1.4689983246337561e+000,
       2.9868821830226691e+000, -1.4232233643707131e+000,
       3.3010411724779209e+000, -1.7241131787974766e+000,
       3.3428436831627080e+000, -1.8258294359792773e+000,
       3.4489768314382112e+000, -1.8406422663328021e+000,
       3.2636378148907763e+000, -1.6834204217771340e+000,
       3.1081203132040205e+000, -1.6385105186908415e+000,
       3.1304576218143616e+000, -1.7862172403432695e+000,
       4.1254349716104102e+000, -2.9851234488459397e+000,
       3.6145649595108864e+000, -1.9470553992009314e+000,
       3.0491514800266866e+000, -1.0008886318792019e+000,
       3.1824872290953752e+000, -9.7316613799783880e-001,
       3.2493415347151045e+000, -1.1601191868117187e+000,
       3.3396405845789512e+000, -1.2358913406950907e+000,
       3.4381600278238280e+000, -1.1686683567411893e+000,
       3.1519735021386186e+000, -1.1786404201967584e+000,
       2.7995788149874561e+000, -1.0991750925358668e+000,
       3.0763925808912331e+000, -1.4547481271652221e+000,
       3.1335057184848303e+000, -1.5392791508366528e+000,
       3.2524667551741024e+000, -1.5659339762803366e+000,
       3.1273108036467652e+000, -1.4962231127730463e+000,
       2.9750324744764138e+000, -1.5482208103025907e+000,
       3.0535443029143021e+000, -1.8122575673263224e+000,
       4.0971167138841036e+000, -3.0300192372724810e+000,
       3.6963747922382355e+000, -1.9821339384505432e+000,
       2.9951036158241764e+000, -1.0021451496189582e+000,
       3.2629266624498134e+000, -9.7792770124174999e-001,
       3.4960338510695244e+000, -1.2027524708621418e+000,
       3.5260778701472275e+000, -1.2606885110865806e+000,
       3.5592987184032383e+000, -1.2151493366778878e+000,
       3.2094197302697931e+000, -1.2241110548907868e+000,
       2.7252653519951044e+000, -1.0800651682164630e+000,
       2.9906191968053202e+000, -1.3812547480475255e+000,
       3.2307394658066162e+000, -1.5496954224840549e+000,
       3.4510549833984046e+000, -1.6183181496317469e+000,
       3.1919491254579917e+000, -1.4919543881317368e+000,
       3.0147567227648522e+000, -1.5548366133578493e+000,
       2.9033218435975292e+000, -1.7136234280328106e+000,
       4.0856626566288563e+000, -2.9999197163613633e+000,
       3.7936905688867464e+000, -2.0237170554259580e+000,
       2.8760181941312815e+000, -1.0261890447335149e+000,
       3.2217564369769587e+000, -1.1274934162449128e+000,
       4.0419664103354211e+000, -1.6708639105340404e+000,
       4.0631801292384520e+000, -1.8310967356645189e+000,
       4.1863057750023929e+000, -2.0301149463574140e+000,
       3.6436203168613881e+000, -1.9230200167678724e+000,
       3.0067201504217826e+000, -1.5754655459366724e+000,
       3.5311214805840789e+000, -1.9929433169285340e+000,
       4.0812095532162305e+000, -2.2626801583368303e+000,
       4.3771219625073101e+000, -2.3908120821966170e+000,
       3.7003110965971615e+000, -1.9526490300373354e+000,
       3.1412000251978887e+000, -1.6587237885483854e+000,
       2.7530008002731066e+000, -1.6125026051842586e+000,
       3.8155528373823322e+000, -2.7727783227505420e+000,
       3.9213862999409805e+000, -2.1257194223847282e+000,
       3.0492202115491041e+000, -1.0878085228357066e+000,
       3.4504355567914304e+000, -1.2259996136037581e+000,
       3.9670961435755676e+000, -1.9233609826578733e+000,
       3.8753608259633507e+000, -2.2314521554606128e+000,
       4.2392202083941140e+000, -2.6642370170420175e+000,
       3.6962058287537354e+000, -2.4463126102830799e+000,
       3.1750932889883487e+000, -2.0676106432644974e+000,
       3.4486675027714946e+000, -2.3211176375434102e+000,
       3.8870257855525239e+000, -2.5039381581492983e+000,
       4.0282907932091394e+000, -2.5579094983470805e+000,
       3.7428350766339609e+000, -2.3495446650717664e+000,
       3.0482271492224151e+000, -1.7478646191094587e+000,
       2.7463077639878404e+000, -1.6601525224328315e+000,
       3.6944209871123195e+000, -2.6537323889018758e+000,
       3.9765412038916543e+000, -2.1890912758661671e+000,
       3.2264397993602683e+000, -1.1881886174925402e+000,
       3.7816139722370306e+000, -1.3371047513153800e+000,
       4.0122115783370855e+000, -2.0440946462273608e+000,
       3.8496482847644589e+000, -2.3397801518377932e+000,
       3.8577697198538359e+000, -2.5908947088498371e+000,
       3.4486066349160649e+000, -2.3340936200301239e+000,
       3.0844912942486045e+000, -2.0071333799328790e+000,
       3.0598730156945404e+000, -2.0383852361897095e+000,
       3.0914773606472465e+000, -2.0445385970941730e+000,
       3.3206841093563915e+000, -2.1533298533878829e+000,
       3.5507933308237796e+000, -2.2883846508282821e+000,
       3.0445560186252174e+000, -1.7619130762001829e+000,
       3.0020884610346581e+000, -1.7754186259638025e+000,
       3.7704873926602680e+000, -2.7193927848558155e+000,
       3.9462860124332870e+000, -2.2355579840643984e+000,
       3.3767549845160989e+000, -1.2771455576720583e+000,
       3.9562778340653688e+000, -1.3893147446486922e+000,
       3.8897091693785906e+000, -1.9248368992701022e+000,
       3.6196475438030937e+000, -2.1828885193600414e+000,
       3.4291198409528070e+000, -2.3687196270999582e+000,
       3.1903312754972721e+000, -2.2753515621121583e+000,
       3.0707518740925583e+000, -2.1429920413805288e+000,
       3.1215929210993130e+000, -2.1746179711486593e+000,
       2.9431099386260668e+000, -1.9752812102522066e+000,
       3.0926493169270843e+000, -1.9855250441309467e+000,
       3.4651862060842551e+000, -2.1413077483935807e+000,
       3.2447174297914891e+000, -1.7549836261465881e+000,
       3.1935603974863005e+000, -1.7927293702833678e+000,
       4.1186670582006268e+000, -2.9135268776623469e+000,
       3.7464416927327688e+000, -2.2111352193434044e+000,
       3.5950654546197987e+000, -1.3078938806588618e+000,
       4.2224585019154137e+000, -1.3941801186184926e+000,
       3.7570430247790823e+000, -1.7517169209938743e+000,
       3.7264720011370915e+000, -2.2323863946249172e+000,
       3.4120734008373597e+000, -2.3912629279603945e+000,
       3.3464300589442839e+000, -2.4772487477063438e+000,
       3.2183637152032976e+000, -2.3917986717018378e+000,
       3.4136977717861114e+000, -2.4826682950092436e+000,
       3.3142412337188145e+000, -2.2834959870911069e+000,
       3.2770800355905618e+000, -2.0588232309214765e+000,
       3.3454866000466890e+000, -1.8546014617492910e+000,
       3.3521243093123738e+000, -1.6041917865943847e+000,
       3.3080074052764155e+000, -1.7008439821002512e+000,
       4.4797971995136896e+000, -3.0823440590400444e+000,
       3.8390766009673913e+000, -2.3321388903883977e+000,
       3.6169052509858921e+000, -1.3257622929606014e+000,
       4.3536317964728655e+000, -1.3959933486274259e+000,
       4.0985611503739445e+000, -1.8891936195717582e+000,
       3.9202256729271769e+000, -2.2804068146599397e+000,
       3.7407335598304563e+000, -2.5713049879941536e+000,
       3.7848532807443274e+000, -2.7780074429538670e+000,
       3.7926543482728796e+000, -2.7582879693240963e+000,
       4.2966728299279682e+000, -3.0981454509513298e+000,
       4.0464803804776235e+000, -2.6777722707968157e+000,
       3.5153353684381856e+000, -2.0820349174212556e+000,
       3.3077624096083844e+000, -1.6816142998099970e+000,
       3.3116997950286149e+000, -1.4419657322136423e+000,
       3.3489218878746412e+000, -1.6120098037855330e+000,
       4.6277343180159010e+000, -3.0361344569559958e+000,
       3.9155514225628210e+000, -2.3673207282328654e+000,
       3.6806781576669438e+000, -1.3511835198356066e+000,
       4.3395982523050680e+000, -1.4139240401745186e+000,
       4.4517604562727255e+000, -2.0290822307425755e+000,
       4.3774922242933165e+000, -2.4272955003130932e+000,
       3.6322289472629685e+000, -2.4358502506748234e+000,
       3.5973832698946127e+000, -2.5227772756243221e+000,
       3.5694059513145984e+000, -2.4986694221956176e+000,
       3.9588241640580630e+000, -2.7589406456064860e+000,
       3.7720878575787720e+000, -2.4930516310479072e+000,
       3.5856813108638672e+000, -2.0612097825327771e+000,
       3.3095309424909582e+000, -1.6334702170607023e+000,
       3.3469973757159019e+000, -1.4134021110657542e+000,
       3.3134269314711475e+000, -1.5419847630905130e+000,
       4.4473565568781392e+000, -2.8377391130440648e+000,
       3.6433998956331544e+000, -2.0942788392593554e+000,
       3.3640695254875683e+000, -1.2686127592956606e+000,
       3.9370142861046573e+000, -1.3315369589613544e+000,
       4.4285191044868393e+000, -1.9719817875773813e+000,
       3.8423500085394009e+000, -2.0704452109460916e+000,
       2.9135532342550281e+000, -1.7583476890358323e+000,
       2.7538054557024640e+000, -1.6949066136419684e+000,
       2.6249989466459018e+000, -1.5952324426397564e+000,
       2.7944286276810768e+000, -1.7073662647680627e+000,
       2.9284669424424044e+000, -1.7503362856442835e+000,
       3.2143531737758373e+000, -1.8194931045802138e+000,
       3.4966788861155926e+000, -1.8118171459797705e+000,
       3.5356782350019276e+000, -1.6562819784154017e+000,
       3.2191568665607173e+000, -1.5900223170330821e+000,
       3.9421846244060390e+000, -2.4969039292882007e+000,
       3.6064734985610718e+000, -2.0454476849172307e+000,
       3.4298576269090497e+000, -1.4957906755612274e+000,
       3.9550284480659408e+000, -1.6304526938294768e+000,
       4.7674629354427589e+000, -2.4241392543662168e+000,
       3.7994457494580747e+000, -2.2120984862931925e+000,
       2.9536823356370165e+000, -1.8609681758889896e+000,
       2.7076502605359467e+000, -1.7266508212318630e+000,
       2.6268188655940659e+000, -1.6381956871640970e+000,
       2.7393218745770977e+000, -1.7323118863529956e+000,
       2.9834440627039260e+000, -1.9071820344791648e+000,
       3.5891597480514448e+000, -2.3121279437237083e+000,
       4.2984065642909242e+000, -2.6305355996657731e+000,
       3.6262407497262168e+000, -2.0179737386844030e+000,
       3.2336375581000634e+000, -1.8409861769755704e+000,
       3.6977277774194430e+000, -2.4022271563943240e+000,
       3.7697243109913852e+000, -2.2353820054682330e+000,
       3.8081557435233351e+000, -2.1221510415634608e+000,
       4.3316342677016761e+000, -2.3432800163535443e+000,
       6.4365299095333990e+000, -4.0834868311005419e+000,
       5.4283162559296665e+000, -3.7940330577352293e+000,
       3.9390359863968936e+000, -2.8884370986596335e+000,
       3.4640073481987637e+000, -2.5156809639116506e+000,
       3.3573827245699523e+000, -2.4428550209414603e+000,
       3.4428781051753150e+000, -2.5313782455145684e+000,
       3.9694835844021159e+000, -2.9649715007506230e+000,
       4.9370507660070997e+000, -3.7171421853990094e+000,
       5.6036875214830042e+000, -4.0248891442966626e+000,
       3.7625555697188533e+000, -2.4460922436622834e+000,
       3.4875238364713392e+000, -2.3283095849981050e+000,
       3.6529354315048197e+000, -2.5531711471729825e+000 ]
   output_scale: [ 5.2631578947368418e-001, 4.9999999999999994e-001,
       5.2631578947368418e-001, 4.9999999999999994e-001,
       5.2631578947368418e-001, 4.9999999999999994e-001,
       5.2631578947368418e-001, 4.9999999999999994e-001,
       5.2631578947368418e-001, 4.9999999999999994e-001,
       5.2631578947368418e-001, 4.9999999999999994e-001,
       5.2631578947368418e-001, 4.9999999999999994e-001,
       5.2631578947368418e-001, 4.9999999999999994e-001,
       5.2631578947368418e-001, 4.9999999999999994e-001,
       5.2631578947368418e-001, 4.9999999999999994e-001,
       5.2631578947368418e-001, 4.9999999999999994e-001,
       5.2631578947368418e-001, 4.9999999999999994e-001 ]
   inv_output_scale: [ 1.8999999999999999e+000, -9.4999999999999996e-001,
       1.8999999999999999e+000, -9.4999999999999996e-001,
       1.8999999999999999e+000, -9.4999999999999996e-001,
       1.8999999999999999e+000, -9.4999999999999996e-001,
       1.8999999999999999e+000, -9.4999999999999996e-001,
       1.8999999999999999e+000, -9.4999999999999996e-001,
       1.8999999999999999e+000, -9.4999999999999996e-001,
       1.8999999999999999e+000, -9.4999999999999996e-001,
       1.8999999999999999e+000, -9.4999999999999996e-001,
       1.8999999999999999e+000, -9.4999999999999996e-001,
       1.8999999999999999e+000, -9.4999999999999996e-001,
       1.8999999999999999e+000, -9.4999999999999996e-001 ]
   weights:
      - [ -3.1319203333709258e-002, 6.9736086424645087e-003,
          2.2593926043169021e-002, -4.5567905514795476e-001,
          5.3259293747288639e-001, -1.8781710072918956e-001,
          -4.3300959746986709e-002, -2.1567859949817964e-001,
          2.1761978878553359e-001, -2.5440724553566596e-001,
          -5.6840873561768014e-002, -1.9673073941438748e-001,
          2.3637078192286418e-001, 9.3298323556464446e-002,
          -2.0504961988293982e-001, 1.9663138891989920e-001,
          1.0833515620969320e-002, -7.2514934369255532e-002,
          -4.0432233203063783e-001, 5.1919948303056784e-001,
          1.9869381517122141e-003, 1.6800602247271074e-001,
          -2.1287406329945771e-001, 1.9226951248969115e-001,
          -2.4380994747106133e-001, -1.3413424959892287e-001,
          -1.5018315186989020e-001, 1.2417942300727763e-001,
          1.1077944160534531e-001, -1.9604438398316840e-001,
          8.0763961641214843e-001, 1.8974246897038569e-002,
          -8.3444275586296621e-002, -3.3136248673137852e-001,
          4.7346076972253304e-001, -1.9976154396880254e-002,
          -7.0076974041866927e-002, -2.1297718142356228e-001,
          1.9413885617070034e-001, -2.4847207717307410e-001,
          -1.4327602532016287e-001, -1.1368632732568124e-001,
          1.2488950880717070e-001, 8.0678364787226911e-002,
          -2.0297998709689877e-001, -7.2394812067882730e-002,
          1.5284424219921815e-002, 5.9317701998658723e-001,
          1.7293072432642026e-003, 5.5761047902410854e-001,
          -1.9855460537503855e-001, -3.2653358539139105e-001,
          -2.1019673064298791e-001, 2.5740293645469975e-001,
          -1.1845909847653059e-001, 6.8171558067559368e-002,
          1.0246887627784701e-001, 1.0241978136928409e-001,
          3.7354819022702526e-003, 3.5472217408485512e-001,
          -1.5953900799468337e-001, 1.1917858563932554e-001,
          7.9045572777606909e-001, -6.5680848850878840e-002,
          1.6390149694686409e-001, 1.0085668445846804e-001,
          -1.5845610643299538e-001, 1.1644795339548916e-001,
          -3.7420301402746152e-002, -3.0109527028268718e-001,
          1.9363014459624756e-001, 2.0038515859453035e-001,
          -5.7766839649068639e-002, -4.2499179208667026e-002,
          3.4620746563855964e-001, -1.6942546936802352e-001,
          3.5313011216038949e-002, 7.9658073959413844e-001,
          -6.0780003333843986e-002, 1.6427133365421817e-001,
          1.8636922519811569e-001, -2.0162644293918500e-001,
          1.1157627346820784e-001, -5.5861106540839922e-002,
          -3.5820094377500206e-001, 4.2068735976550187e-001,
          1.3181514484638925e-002, 1.8705410441144679e-001,
          -1.0245327924259277e-001, 5.4220720049645765e-001,
          -1.7369921836143273e-001, 1.0042217098162537e-001,
          9.8635216381807500e-001, -6.9560326466583458e-002,
          1.6621334375157346e-001, 2.3634920815723481e-001,
          -2.0327824795778773e-001, -2.5178710773798366e-002,
          -5.4003293348132975e-002, -3.1452846003657076e-001,
          3.2843711367990314e-001, 4.3119212013794450e-001,
          1.8759585581547375e-001, -1.0661066686059684e-001,
          3.1967512656446828e-001, -1.7856948009946891e-001,
          9.4475749543679238e-002, 9.9180673241474149e-001,
          -6.9227176120335687e-002, 1.7336514727338068e-001,
          2.3113968421977668e-001, -2.0042383677594611e-001,
          -3.1479442031347754e-002, -4.4088245514402075e-002,
          -3.1823930582413668e-001, 3.3186146734379640e-001,
          7.0422360802143891e-001, 2.3366159902025083e-001,
          -1.0351030493621044e-001, 3.1936255512233369e-001,
          -3.1764463273308052e-001, 1.0019154168236255e-001,
          9.9658908439838534e-001, -6.8409162289324948e-002,
          1.7227003136097715e-001, -2.3120078160501746e-002,
          -1.9295194037137631e-001, -3.7297606607194195e-002,
          -5.0503375313801183e-002, -3.1755024837262980e-001,
          3.3266134729173047e-001, 7.0547714134627504e-001,
          4.9375999422073026e-002, -3.6293064604888331e-001,
          -9.1365202554018962e-003, -1.9832017548405478e-001,
          9.4479008939582429e-002, 9.9131426110656595e-001,
          -6.3662406984941328e-002, 1.6326839346108815e-001,
          -1.3516486689267915e-001, -2.0447918509363530e-001,
          -4.6592832930354944e-001, -5.2197033153051624e-002,
          -3.2539251892805310e-001, 3.3581968638925619e-001,
          7.1007098333437313e-001, 3.9945393922641056e-002,
          -4.5514663821423978e-001, 3.0165550052077039e-001,
          -8.7161338510722011e-002, 9.8373770200440233e-002,
          9.8796389713235055e-001, -6.6374434141736896e-002,
          1.6375094450800612e-001, -2.2013107285239766e-002,
          -2.3272462535324798e-001, -4.5245221676859138e-001,
          1.1227466696236242e-001, -3.1324308074710483e-001,
          3.3236037914505023e-001, 7.0546584096912524e-001,
          -5.8013275901028491e-002, -3.6558374256060078e-001,
          2.8101125052378334e-001, -5.5911612671472280e-002,
          3.1126344048060717e-001, 3.3440835994196672e-001,
          8.9396859505462278e-002, 3.6357594326249069e-002,
          1.5410073970459383e-002, -8.0479849492053057e-002,
          3.1419519799223430e-002, 1.1854441900973629e+000,
          -2.9964065755236324e-001, -1.8337308827289533e-001,
          6.7794021957031467e-003, 7.3839662261434593e-004,
          -1.1837548956697176e-001, 2.7754826107459613e-001,
          -9.7623974712552519e-002, -1.1580471218202812e-001,
          -7.9709758309689716e-001, -1.1472660593900132e-001,
          1.4848325715558569e-001, -5.1347105097583529e-002,
          2.5449357636773595e-001, 3.4121775857193198e-002,
          5.3732266684457360e-002, 5.6357945985538858e-002,
          -2.5961629605249859e-001, -8.4256194800660683e-002,
          -5.2112297331492481e-002, 1.3032245057484287e-001,
          -4.4265421517600473e-001, -9.3300752722901698e-002,
          -2.4328254437288377e-001, -5.8362972216160147e-001,
          -1.8669123071104610e-001, 1.4598472450024025e-001,
          1.5948547069738572e-001, -4.0174183822864820e-002,
          3.4387643615300924e-002, -9.8477414918367034e-002,
          5.0420063738891178e-002, -1.0634026912509191e-001,
          -2.5861903857428731e-001, -2.7536145719075583e-001,
          1.3861020972871163e-001, -8.3789777578102664e-001,
          -5.0847150251106150e-002, -2.3740299308156321e-001,
          -5.8496072509074382e-001, -4.3287156858264904e-002,
          1.5653654689869959e-001, -4.7024799681529672e-002,
          -4.0416118586527223e-002, 2.8049277253100181e-002,
          -1.0703994065172012e-001, 5.0034936172056822e-002,
          -1.5432128928673153e-001, -2.0032090635354013e-001,
          -1.5032642714817657e-001, 1.2464230203417449e-001,
          -4.4378130625437878e-001, 6.9173047105952082e-002,
          1.0640155694619253e-002, -8.3373926688027553e-002,
          -4.0057367099230423e-001, 4.2451986447406670e-001,
          1.2882755485783315e-001, 1.7443466744634695e-001,
          -4.4840454586286971e-001, 1.8970123501619951e-001,
          -2.4531209818651523e-001, -1.3553872187375143e-001,
          -2.0906393218288069e-001, 4.9526787600161204e-001,
          5.8168032471014798e-002, -2.0310935771733332e-001,
          3.8866157575820232e-001, 2.0860454261186059e-001,
          -7.4880448379333983e-002, -4.9586112810717997e-001,
          4.6917819853526367e-002, -2.6949103749015385e-001,
          2.7687869140374366e-001, -3.8417266874232570e-001,
          3.7484856324832727e-001, -2.4544325281311530e-001,
          -2.3619592338133621e-001, -1.0137629799148141e-001,
          1.2161563988528654e-001, 5.2444391511442631e-002,
          1.1491237961994738e-001, -1.3484213281442478e-001,
          2.2315655462134490e-001, 8.2864207419066901e-002,
          -4.4109776807459344e-001, 1.6139907014776314e-002,
          -3.2376053104153441e-001, -2.4240443794186991e-002,
          -2.0622397457473177e-001, 1.8854533483201838e-001,
          -2.2410585036091615e-001, -5.5044083420231560e-001,
          -1.0970048994589833e-001, 9.9395174136520797e-002,
          1.7339820501070821e-001, 1.7280291307101830e-002,
          -1.3973970179679063e-001, -1.7342314981933664e-002,
          5.9378860191574767e-001, -1.8488019195009148e-003,
          -1.6772620544935465e-001, 2.6132612128754906e-002,
          -1.6802043847357676e-001, -8.3065519735355933e-002,
          3.7543381870209315e-002, -1.5993745223388572e-001,
          1.8355540038938972e-001, 2.3270489380165721e-001,
          -4.8204163239490908e-002, 1.3261186863856736e-001,
          1.7600418455126202e-001, -2.1936852164384443e-001,
          1.1167988888267730e-001, 4.5159540122714797e-001,
          -4.7886861303516853e-002, -1.3539959616815631e-001,
          2.7291532888815938e-002, -1.6487355799920447e-001,
          -1.9467494292709600e-001, -3.3719744836567131e-002,
          -3.5113751803560800e-001, 3.5766596462937877e-001,
          2.4386122575305164e-001, -4.2735066762852096e-002,
          -1.0596401023937188e-001, 1.7471436398634324e-001,
          -3.9018621215059174e-001, 1.1386649569928724e-001,
          7.9549367395031090e-001, -4.6300507898172819e-002,
          -1.4099217034593034e-001, 1.9156042335055697e-002,
          -1.6515173501527763e-001, -1.9815594514055937e-001,
          -3.6344312244332252e-002, -3.1848305260627152e-001,
          1.9843443913464434e-001, 2.0141251390032158e-001,
          -4.5074441299288545e-002, -1.5158217701646076e-001,
          1.2450900932736919e-001, -3.9643556961751691e-001,
          2.3887165199042582e-001, 9.9504237697095899e-001,
          -4.5919120959963866e-002, -1.4203328023640466e-001,
          1.0770406993005403e-002, -1.6067294076656397e-001,
          -4.5621722083575666e-001, -4.0588986322890722e-002,
          -3.1734245035767417e-001, 1.9209653491670195e-001,
          2.0291161686988649e-001, 2.1761183807652129e-001,
          -1.4457362455481404e-001, 2.7409703115262024e-001,
          -3.9671365619233362e-001, 2.2027882143030772e-001,
          9.9083941940921405e-001, -6.4301218293684792e-002,
          1.6313881493044510e-001, 8.2276367107013484e-003,
          -1.6846136166701511e-001, -4.5489194154378576e-001,
          -4.8462983709753181e-002, -3.1496614266091005e-001,
          1.9211996231380171e-001, 5.6724460966964263e-001,
          2.2520048191920611e-001, -1.4760026473680496e-001,
          6.0298939835889431e-001, -3.8767567705891837e-001,
          2.1213728814042335e-001, 9.9535776086912564e-001,
          -6.1657564613904113e-002, 1.7098406641576339e-001,
          -3.8740489390571192e-001, -1.5690552652794021e-001,
          -4.5980151680414427e-001, 8.6412300600463607e-002,
          -3.1696452847293100e-001, 3.4240544315209781e-001,
          5.8079927837508150e-001, 2.2167243431214287e-001,
          -1.4624590036873283e-001, 6.0762292736435486e-001,
          -6.4707005529481865e-001, 2.1705680767915878e-001,
          9.8991972947584617e-001, -4.6552052857642620e-002,
          1.6646198497314116e-001, -2.1925242816878962e-001,
          -1.6293382786645164e-001, -4.5733466411817203e-001,
          9.3154928254440009e-002, -3.1619277650129535e-001,
          3.3612408971721430e-001, 5.6784097169322012e-001,
          2.2413709279487301e-001, -1.4238735212710638e-001,
          2.7541032529507598e-001, -3.2195793965569208e-001,
          8.7381953536670276e-002, 7.8126069733388404e-001,
          -3.7827001638642194e-002, -1.4264024376380216e-001,
          -1.9901500237850839e-002, -1.6087621882043704e-001,
          -4.6220365240458627e-001, 9.9059127258361923e-001,
          -3.1524796353248008e-001, 1.3983290034255813e-001,
          6.9752226450761745e-001, -3.7072911795065923e-002,
          -3.2088345789562694e-001, 2.7727546911076045e-001,
          -2.5437566491531066e-001, -5.4120958499070858e-002,
          7.8268066938295955e-001, -4.9054215081143340e-002,
          -1.6592367989985804e-001, 4.9550978284254150e-002,
          8.5359308967817182e-002, -9.2579871522393206e-002,
          5.1026200893981166e-001, -2.8024154193793310e-001,
          -1.2948470413618199e-001, 1.6527819703349746e-002,
          -4.5245558366896955e-002, -3.7753062402500373e-003,
          3.1652902410987532e-001, -1.8737560825474536e-001,
          -1.7378893319229746e-001, 8.0433711288805401e-002,
          -2.2993858535791764e-001, -1.5854380931284606e-001,
          -4.2226065144283502e-002, 2.7956405002465062e-001,
          -3.9730892141531610e-001, 3.0182785501618398e-001,
          -1.2026180220974367e-001, -3.0175012862516271e-001,
          -6.2487308353589753e-002, 1.9709516543551869e-001,
          5.8495976930851332e-002, -8.8815258832817257e-001,
          -9.3869263693274488e-002, -1.0880247147589153e-001,
          -1.4121340475614488e-002, -5.1578103088746212e-002,
          -1.6799609421203707e-001, 1.6072376349326881e-001,
          1.7001605259407360e-001, -1.4328404616558588e-001,
          1.6329403339720869e-002, -2.0517913407556004e-001,
          -9.3575743203620027e-002, -2.6166556010860981e-001,
          2.0300592383553631e-001, 1.5679694335132432e-001,
          -4.4210957924271793e-001, -4.5173976880618118e-002,
          -8.5558193850668388e-002, -4.0199492604227577e-001,
          -4.0057983579915864e-002, 1.4237834542484651e-001,
          1.3555977012442380e-001, -3.5824623621254909e-002,
          4.5774807450987715e-001, 1.9516064100484726e-001,
          7.3857740884420778e-002, -1.3867089577222380e-001,
          -3.4535966518612217e-002, -5.8735900661178217e-002,
          6.0536461860210326e-002, -4.4615905926296145e-001,
          4.1468308140851506e-001, 2.2519753980550808e-001,
          1.7867259725468465e-001, -4.9212263040373994e-001,
          1.8947114809913659e-001, -3.2202275240233690e-002,
          2.7975684743909424e-001, -3.9091895644205943e-001,
          3.1471666956940164e-001, -2.5795164347033450e-001,
          -1.4345664937994287e-001, -1.8863110794550245e-001,
          1.0333147511513574e-002, 2.7284917331458269e-002,
          1.1544309963069221e-001, 3.8536640148532597e-001,
          2.0706343759970794e-001, 7.6905896839995810e-002,
          -3.2591271578924536e-001, 4.9284922000091928e-002,
          -1.1606224876582411e-001, 2.8299807572496283e-001,
          -1.8100783631653550e-001, 3.7413126452293183e-001,
          -7.8690477899111280e-002, -1.6648423676924698e-001,
          -1.3860580576104034e-001, -7.9440423329132398e-002,
          1.4048875583114057e-001, 1.1134328520996623e-001,
          1.4859468533507736e-001, 2.2726018167465226e-001,
          8.5436495998474180e-002, -2.1479123043655579e-001,
          5.3971362422494097e-002, -1.3957446061154263e-001,
          -2.8855368504284173e-002, -1.7265356706999546e-001,
          3.0155586891276581e-001, -2.3880110982093646e-002,
          -6.0523254250589742e-001, -2.2172246430218992e-001,
          -6.7757868238656344e-002, 1.7368957685119438e-001,
          3.0771131201674962e-002, -1.3472317886925109e-001,
          1.2005939005742164e-001, 5.9391713958814241e-001,
          7.7849181503052726e-003, -5.6965551283645090e-002,
          1.0744657526871597e-001, -1.7664870903562407e-001,
          -8.2325825037750863e-002, 1.1561297929049369e-001,
          -1.7882581231461273e-001, -4.9424558446682074e-002,
          1.0364059622345412e-001, -3.0335928243884484e-002,
          1.8657292472212278e-001, 1.8083141321274029e-001,
          -2.1829824157364905e-001, 1.1428073086107840e-001,
          -3.2577643513141608e+000, -3.9457416855985417e-002,
          -1.3860180345320111e-001, 9.5173117489057893e-002,
          -1.6223430670913794e-001, -1.8924281002557558e-001,
          -5.9099164513822425e-002, -3.5581460254849734e-001,
          3.3505379713569416e-001, 7.9934541014683572e-002,
          -4.9646430512009482e-002, 4.4821192379511293e-002,
          1.7618301597266608e-001, -3.9392696000209521e-001,
          2.3580172588699638e-001, 9.9641740668404377e-001,
          -4.7821237889957943e-002, 1.6878210981509059e-001,
          2.4344895323795003e-002, -1.6795290625332870e-001,
          1.1600042226647576e-001, -6.6324723710411773e-002,
          -3.5185086809862809e-001, 2.5199153842997057e-001,
          5.3628481938182171e-001, -2.8227571329553114e-001,
          -1.3052370410917147e-001, 2.8398448552523142e-001,
          -3.9369362582115780e-001, 2.1816058832085275e-001,
          9.8823150432950047e-001, -4.4070624681877779e-002,
          1.6931727524595355e-001, 2.1896363767900970e-003,
          -1.5639151621815084e-001, -4.5244779551662156e-001,
          -6.2275558577144181e-002, -3.5861324837346881e-001,
          1.9416587306762431e-001, 2.8434187057012633e-001,
          -2.2929412192401914e-002, -1.3634234270635517e-001,
          2.8024015923003115e-001, -3.9504258514387053e-001,
          2.1868032405828028e-001, 9.9631813853152573e-001,
          1.7462707073256339e-001, 1.6331220250528636e-001,
          -4.5493836166955542e-001, -1.7004707008264811e-001,
          -3.4533104538463094e-001, -5.1342928541667915e-002,
          -3.2387141446068313e-001, 3.1724305724907975e-001,
          2.8376218427594702e-001, 4.2455199372638166e-003,
          -1.4925307280821795e-001, 5.9989471612448553e-001,
          -4.1653066785732157e-001, 9.8298964846376291e-002,
          9.9100828121471030e-001, 1.7624146647586014e-001,
          1.6683617286853883e-001, -1.0262854750271089e+000,
          -1.6823013506553275e-001, -3.9257599244411295e-001,
          8.8154478281850107e-002, -3.1445974823478884e-001,
          3.3377073381141609e-001, 2.1691949761013168e-001,
          -4.4629996181765025e-002, -4.4895748274084096e-001,
          5.9902365731528218e-001, -4.2630917022517295e-001,
          1.0080693139042295e-001, 9.9714874891975125e-001,
          2.4168938948907981e-001, 1.6557769841550427e-001,
          -2.1185617467483175e-001, -1.5782039930095201e-001,
          -3.9645252295992955e-001, 1.1739406296875882e-001,
          -3.5953548118358625e-001, 3.3626183776065977e-001,
          3.5484455753250371e-001, 1.4927465433977166e-001,
          -3.6625354299686641e-001, 2.8205593321207445e-001,
          -2.3515215195966632e-001, 9.1567715993805393e-002,
          7.7407426546750058e-001, 2.4478204158035921e-001,
          -1.3872984520401674e-001, -2.6130412105022482e-002,
          -1.6356368669124047e-001, -4.5092711430600063e-001,
          2.8987410294507221e-001, -3.5026541138103867e-001,
          7.2059676255227592e-002, 5.9868638626434867e-001,
          -3.4863171869201515e-002, -4.9487021674353693e-001,
          2.8006489393776618e-001, -1.8055430747678253e-001,
          9.0173466947790659e-002, 7.7576885105144711e-001,
          1.5944705826073607e-001, -1.6147294226789177e-001,
          5.3239602822382159e-002, -1.7391396887504756e-001,
          -2.3401022766870738e-001, 2.1535071884305443e-001,
          -2.6239178766250670e-001, 6.3736166484190282e-002,
          2.7172842607137904e-001, -6.4751683446037905e-002,
          -2.9807744639134492e-001, 3.1831058838560805e-001,
          -2.1494077482667992e-001, 1.2807646754465341e-001,
          2.9918763693779821e-001, -4.4310650426255739e-002,
          -2.2793283720441496e-001, -1.9888705570269485e-001,
          2.8635120416781035e-001, -8.8739137819493163e-002,
          2.3754556169988769e-001, -2.0685244232429173e-001,
          -3.9366159253424338e-001, -9.5725423615629246e-002,
          1.2123314545009480e-001, 2.2141884278762600e-002,
          8.0470384870736655e-002, 3.9662222090032900e-001,
          1.7203544789363454e-001, 4.5769448332659557e-002,
          -5.4214364735527952e-002, -1.8613956508339666e-001,
          -9.9365974838426050e-003, 1.7758137583032135e-001,
          1.2958404846309121e-001, 3.1060224339387110e-001,
          -2.1631857293860460e-001, -1.6467244270998310e-001,
          -6.2035874541194455e-002, 9.5896614363698354e-002,
          1.4076445147401775e-001, 1.2608366511813043e-001,
          -1.9982091633941496e-001, 1.1954023933883372e-001,
          -1.7472086128646713e-002, -4.5921798766539824e-002,
          7.5892303724050633e-002, 1.4931760425487062e-001,
          -6.8708924583779099e-002, 1.1206653731335989e-001,
          3.3261166138287823e-001, -2.6375119721845630e-001,
          -3.1906937918735589e-001, 1.8379586564156461e-001,
          1.6603077531054944e-001, 3.4222371850098843e-001,
          -4.4196421326530827e-001, 3.9046399517490471e-001,
          2.2584887662668593e-001, 1.7957478189007445e-001,
          -4.0889254790493440e-001, 4.2701981237571594e-002,
          -2.2640131126125965e-001, -2.7131088102963448e-002,
          -2.9573863449689375e-001, 1.4182613616316572e-001,
          1.3940319562198843e-003, -2.3153616095893320e-001,
          -6.5979835834002049e-002, -5.6314139678959582e-002,
          1.2468403555081339e-001, 1.5970963664654469e-001,
          1.5011435013042407e-001, 2.0302830968652311e-001,
          8.1591709664977849e-002, -3.4004454907104376e-001,
          4.2702777438989030e-002, 1.3338206054395421e-001,
          -5.6029395478576589e-003, -2.9164484651375627e-001,
          3.8162378169236000e-001, -4.8328903579997855e-002,
          -3.7916660537795510e-001, -1.8033323940491092e-001,
          -7.7973071126950483e-002, 1.4346560540021180e-001,
          1.0704011945407446e-001, 1.5042525226257614e-001,
          2.2242131860963796e-001, 7.9258836658612233e-002,
          1.6872639571494885e-001, 4.3901316898162616e-002,
          2.7493259470797798e-001, -2.8911444342103295e-002,
          5.0801831855947388e-002, 7.3433650278676613e-002,
          -6.4144625363661723e-002, -4.1599070742338068e-001,
          -1.5576645291399252e-001, 4.5851254981764240e-002,
          1.5927220935797184e-001, 3.6983019586303761e-002,
          9.8390725957683001e-002, 3.7044854110971782e-002,
          1.3605690271698273e-001, 1.6840581719304908e-002,
          -1.4637832233938908e-001, 2.4204951357602802e-001,
          -4.0923022353085836e-001, 3.6519520596659327e-001,
          6.6392127759071093e-002, -4.2848365363054641e-001,
          -2.3067106645949456e-001, 9.6141535260483385e-002,
          6.5735894608184436e-003, -2.7864380057461313e-001,
          5.4887467853584082e-001, -2.7512367220178346e-001,
          9.1917248598416573e-002, 1.5463624647428686e-001,
          -8.8923790048592341e-002, 1.6383638626022759e-001,
          6.5470887210399331e-001, -2.5586187389768250e-001,
          3.6692413344255387e-001, 3.8434888089394860e-002,
          -4.2889979078026952e-001, 1.3730466211378814e-001,
          9.8608561367110575e-002, 7.4754261445367384e-002,
          -2.1712552240898103e-001, 6.2160648729121137e-002,
          -3.2253056617897369e-001, 1.0013045517186925e-001,
          3.1698357459993903e-001, -4.6414632976348076e-002,
          1.6546110522450327e-001, 2.0139119346441214e-001,
          -9.8128102737482820e-002, 3.6834225471912896e-001,
          -1.2258820033501976e-001, -2.2366671377461342e-001,
          1.3808400603592755e-001, 9.7110712700547178e-002,
          1.7702806881949323e-001, -3.3756725145674182e-001,
          9.5204259224546898e-003, -3.0329939039461340e-001,
          9.8943363053358907e-002, 2.1712323324662108e-001,
          1.1365942536857380e-001, 1.6878664367422277e-001,
          -2.1767802338304754e-001, -1.0463883846473367e-001,
          -1.0685692440552583e-001, -5.0362365027123546e-002,
          -2.9667334900950287e-001, 4.2562124343615537e-001,
          7.8329985987716955e-002, -8.6363017827982124e-003,
          -4.1861531175527622e-001, 3.2050347113703126e-001,
          -2.2826600215137891e-001, 9.8512243671920019e-002,
          2.1243601965762485e-001, 1.2075564085912219e-001,
          1.6763591598597502e-001, -3.8889954608041427e-001,
          -9.8133224941279532e-002, -1.0694945699277417e-001,
          -3.5108045817621225e-001, -3.5221078610720674e-001,
          1.2976131638543729e+000, 7.7989036524669611e-002,
          -1.7437783349319461e-001, -4.5547218393455691e-001,
          -1.1248863357287689e-002, -2.0169012895968907e-001,
          9.5446043735424008e-002, 1.4387991268879130e-001,
          1.8548372511023803e-001, 1.6701640299761020e-001,
          -3.7157834341532636e-001, -9.1555767478932709e-002,
          -1.1787777673845742e-001, -6.6084806404942145e-002,
          4.3987527472956832e-002, 5.3440301705693594e-001,
          3.4587019705023730e-001, 3.0382626642495691e-002,
          -3.5975784867836580e-001, 1.6665952290989466e-001,
          -2.7352930935020090e-002, 9.1316634003751784e-002,
          5.8780700500172289e-001, 5.7619137638544526e-001,
          1.2837480268570470e-001, -4.3816550685552152e-003,
          -3.1476634742956762e-002, -1.1572090457898836e-001,
          2.4743421295791565e-001, 4.9591910853999173e-002,
          3.9344823964093606e-001, 2.7378373600015710e-001,
          3.0655619404802766e-002, -3.2091772100242411e-001,
          1.7000398061657002e-001, 8.8623499542501941e-002,
          3.1356006643833902e-002, 5.8473619339115135e-001,
          3.2654884007506407e-002, 1.4289135588476543e-001,
          4.6450854646926104e-001, -2.2677079484410290e-001,
          -3.7667305888916099e-002, 9.6611434195240831e-001,
          -2.7531785681921821e-002, 4.1102903761614962e-001,
          1.4418654064841932e-001, 2.4977287438685072e-002,
          -3.4739885905772561e-001, 5.5003929312168776e-001,
          -6.6326571427249528e-002, 3.8322923200797512e-002,
          5.8627154588336106e-001, 3.2343228554262443e-002,
          -5.1104035198162467e-001, 4.7084755101250320e-001,
          -1.1569192813756733e-001, -2.9015540440767144e-002,
          1.9305517823490267e-001, -2.8401098386944207e-001,
          5.3371559432942500e-002, 8.7689467385678843e-001,
          -6.0307594995283438e-002, -6.9529543414803763e-001,
          9.0473684208355598e-001, 5.3771928440675310e-001,
          1.1692833623416550e-001, 4.6612801482019614e-002,
          -1.1788540896412773e-001, -4.4618050686575546e-002,
          -1.9807259639494121e-001, -1.1850441807996995e-002,
          1.2091217087547043e-001, 6.4386716454029969e-001,
          -1.3734599078093765e-001, -1.4617142086135673e+000,
          -1.2227580165872476e-001, -1.2546284614491254e-001,
          -1.3271297344945024e-001, 1.3874937346758559e-001,
          8.6771858426408044e-001, 1.1681045086365795e-001,
          1.6733636479453506e-001, -2.7354249144261283e-001,
          -6.5204643323788697e-002, -1.1560951657641053e-002,
          -5.6341806676996611e-003, 3.2917722493579504e-001,
          3.1456300285949979e-001, -2.5041290027300572e-001,
          -3.3324167003061300e-001, -7.2591589718935742e-002,
          -8.1445718521343080e-002, 1.7896119516438705e-001,
          -2.8413097823924233e-001, -5.3947978219531081e-002,
          1.0754731506327407e-001, 1.6785475092327484e-001,
          -3.0069808613192698e-002, -7.1424140680007034e-002,
          -1.2723802593529588e-002, -1.2843187201202641e-001,
          2.0987309739442994e-001, 1.3814025400774343e-001,
          -7.8243550254421271e-002, -3.9075948835159197e-001,
          -6.8121062091584930e-002, -1.8755089632095198e-001,
          5.5424156065500885e-001, -2.6999895123251627e-002,
          3.9790363730623923e-001, 2.0601044798358617e-001,
          1.8242152333614126e-001, -1.2362820755888024e-001,
          4.2489605704150273e-002, -2.2371260373896285e-001,
          -5.4327234389877285e-002, -2.9297197721913232e-001,
          1.4861750548390135e-001, 5.4530915254762038e-004,
          -3.8549521654972280e-001, -6.8654544836300360e-002,
          5.7516572751924011e-001, 1.1664161262574811e-001,
          1.6926669118793453e-001, 2.2503973858418608e-001,
          2.1042849439827452e-001, 7.8957557046584151e-002,
          -3.4604676293635900e-001, 4.5763545932647927e-002,
          1.3425651904837885e-001, -3.9343262453332851e-003,
          -2.8948552787455706e-001, 3.9911488791080646e-001,
          -1.9293301922972558e-002, -4.7192702756944094e-003,
          -2.0043564531515266e-002, -3.5121320815322521e-001,
          1.4303562160208169e-001, 1.6179321961966187e-001,
          1.6370631601517885e-001, 2.1231486052104934e-001,
          -7.9839471652632346e-002, -1.5005621902776694e-002,
          4.3874890061085754e-002, 2.7556477702796128e-001,
          -2.3647739728010372e-001, 2.2807357091517787e-002,
          1.2746601124968332e-001, -6.4638472123008661e-002,
          -3.8270078535377428e-001, -3.1150642220277824e-001,
          4.9515100527519125e-002, 1.5100898042574257e-001,
          3.9013482934569382e-002, -9.8685963319848025e-002,
          1.7303030052411386e-001, 5.9160371599759086e-002,
          2.5247502154373044e-002, 1.4113980833335088e-001,
          7.8414326272864299e-001, -3.8548791482406297e-001,
          7.6518385724619864e-001, 6.8826563165047358e-002,
          -9.5820592616228273e-002, -5.6830202220349368e-001,
          -3.8443354170733324e-001, 7.7871489558846776e-002,
          -1.6750073634256735e-001, 2.9287682823679995e-001,
          -7.1434336943411458e-001, 9.1414823944071896e-002,
          -1.8191061460285715e-001, -7.7106610331155276e-002,
          1.6320133807492351e-001, 8.6113783663637766e-001,
          -2.7661034661972067e-001, 7.6236602063378966e-001,
          2.0360090675941858e-001, -5.5006365514069053e-002,
          -1.8870964542869176e-001, 1.0099022940873907e-001,
          3.6931010416356991e-001, 5.7917402721892981e-003,
          -1.1046814421517609e-001, -2.1351568351778363e-001,
          9.7249743425136315e-002, 4.7883968171054941e-001,
          -1.9741496429215247e-001, 1.5781661216592374e-001,
          -1.9097392066380567e-001, -3.5431749097755377e-001,
          1.8242258446880244e-001, -1.3395033677203333e-001,
          -6.8435806412889808e-004, 6.4956000673490107e-003,
          9.5016753124795364e-002, 4.5236240073164541e-002,
          -9.7433911658163466e-002, 1.0431423822988353e-002,
          -3.8399847951878796e-001, 9.5768654809217535e-002,
          4.6032277030395546e-001, 2.4835026538773591e-001,
          1.6384062917303460e-001, -3.0953488357592918e-002,
          -2.8509220348143083e-001, -1.1378595340789222e-002,
          -3.1520136518185105e-001, 5.9830986201820861e-002,
          9.4915613603980253e-001, 1.5089991699543764e-001,
          -2.8238777183638847e-001, -3.0880447235580675e-002,
          2.0261119166718775e-001, -3.7829197888955929e-001,
          -2.2619719627869297e-001, 1.4498212876092736e-001,
          5.3036030911020354e-002, 1.1293502003324883e-001,
          -3.4886923416520145e-002, -7.6166469208727813e-002,
          -2.2066895249865708e-002, -1.1556511341040814e-001,
          4.6905947757053833e-002, 4.0397742588436436e-001,
          5.5203194759992885e-002, -4.4726051318342050e-002,
          5.5230480679128655e-002, 8.6354646784708704e-003,
          -2.1676036067316931e-001, -2.7275372006531517e-001,
          -2.8661464758305069e-002, 1.3759800652633561e-001,
          1.3858871388785299e-001, -2.7883172307787429e-002,
          2.6018591468011745e-002, -7.9804538382361373e-002,
          9.8610984422695964e-003, 4.1090187937692861e-002,
          1.7228486794050513e-001, -2.5352577247939160e-002,
          -8.3279687628085547e-002, -4.0304951430344873e-004,
          3.4259977600484000e-002, -2.1973057381520386e-001,
          -4.7044757272804388e-001, -3.1933695212204766e-002,
          5.6673136041956074e-001, 9.1872140171750355e-002,
          3.6114771377021337e-001, -2.7857607541635510e-001,
          -1.2645109340387281e-001, -8.6357719339908240e-002,
          7.5731985431957347e-002, 3.8862952073447393e-001,
          1.3749667440814128e-001, 2.0522959582061358e-002,
          -1.2470243125097998e-001, 3.1641547309395092e-002,
          -1.6071570612264990e-001, 1.6511105567567455e-001,
          -1.7421496140069617e-001, 9.9125512667868121e-002,
          1.9495449724962945e-002, 4.4427196684965770e-001,
          -5.2176225860708625e-001, -7.8456312399166742e-002,
          -1.1324702619251809e-001, 2.3757990931808806e-001,
          4.2865351740298174e-001, 9.5650139125929262e-002,
          1.8291957510952531e-001, -4.4979610562501954e-001,
          5.5719857354022302e-002, -4.6327650837457657e-002,
          6.2855579298323347e-002, 6.9482264727790857e-002,
          7.4957967328976222e-002, 1.4925247541433662e-001,
          4.7919728605030432e-001, -7.1057269968813208e-001,
          -7.5694209818006022e-002, 8.5907332120571209e-002,
          -9.5814577221043140e-002, 2.1560768427444651e-001,
          3.4144977531674803e-001, -1.6262225795828048e-002,
          -6.0893947630531331e-001, 5.7215530800903713e-001,
          4.0446610242275333e-001, 2.0810796324427047e-001,
          9.9605814935365508e-002, -1.9531586315979008e-001,
          1.6451648255353396e-001, -4.3999048841337152e-002,
          -1.7029914754752734e-001, 4.0521867278238938e-001,
          2.2874942426983733e-001, -1.5279492332891961e-001,
          -2.1126604468894186e-001, 1.9309459305423599e-001,
          -1.5383945892127013e-001, -2.3808638260395862e-001,
          -1.1660347571341415e-001, 2.7711715057631375e-001,
          1.1747806761403339e-001, 1.6133740013990500e-001,
          -2.2723612992331288e-001, -8.7981872337797862e-002,
          1.2632066373296827e-001, -1.6545172013044618e-001,
          4.0951739192659603e-001, 3.3054023865637816e-001,
          -5.1869802920224174e-002, -4.3487391398855157e-001,
          3.3135558807499998e-001, -2.2927348021540997e-001,
          1.6240029887016955e-001, -1.6098288869027463e-001,
          2.3566328686615581e-002, 1.1587442389366094e-001,
          1.5971786647164582e-001, -9.2317627018210419e-002,
          -7.8415818438988663e-002, 1.5193062814993505e-001,
          -8.7506436860318990e-002, 3.9749028913566253e-001,
          4.6177029290088156e-002, -6.8121661031162392e-002,
          -2.4160254961943026e-001, 3.3931296601305871e-001,
          -8.1469675317381848e-002, 1.6084216706781293e-001,
          -1.7116530653229647e-001, 3.3186560685389632e-001,
          1.9320524970903699e-001, 1.7261655373159585e-001,
          -1.1889387252328934e-001, 4.5270616717847441e-002,
          -6.3364663080941996e-001, -2.4008329300908857e-001,
          5.4811994311567303e-002, 1.4209453999445418e-001,
          2.9251207564608056e-002, -1.4579663905281334e-001,
          -5.2711416442061690e-002, -2.4628140239831292e-001,
          1.2722562727217784e-001, 4.2320858373951542e-001,
          2.1504889754537332e-001, 2.0113049005137043e-001,
          7.9258126191829217e-002, -9.4745803248713775e-002,
          4.0713379249097785e-002, 1.3447304837695259e-001,
          -1.4905241368433184e-001, 5.4787310528072758e-002,
          1.8354105594800305e-001, -1.4485400860944454e-002,
          -2.4437878960511642e-002, -1.3121795953599241e-001,
          -2.5234916123134293e-001, 1.4492109879288459e-001,
          1.8140719009095230e-001, 1.6534769802153562e-001,
          4.7701617896830462e-001, -8.0141946557330243e-002,
          1.7626350075146477e-001, 3.6226619864592309e-002,
          7.0195024956289542e-002, -3.3725511661128155e-001,
          7.2159232243203891e-002, 1.2966832672605033e-001,
          -1.3568336978207055e-001, -3.7042937803455733e-001,
          -3.0024797414667281e-001, -3.0549928443340602e-001,
          1.5598253385217620e-001, 1.1911678703942302e-001,
          -9.8453390724934975e-002, 5.4302618761585741e-001,
          -2.6861098002706169e-001, 3.9939614149726736e-002,
          -1.5418452412969844e-001, 3.0199396995787747e-001,
          -3.4081400664588896e-001, 7.6888587541180242e-001,
          2.3012467160259639e-001, -9.1833066742318240e-002,
          -5.4842411716358792e-002, -3.8909128155691636e-001,
          1.5889168012820817e-001, -5.2419837918867707e-001,
          1.1875197921248011e+000, -3.7103931665139794e-001,
          1.5726309622080251e-001, -2.9967869169942440e-001,
          -5.6855716804648557e-002, 1.6415675441783428e-001,
          1.6078053878896743e+000, -3.5724023005655459e-001,
          7.5842300227888848e-001, -1.9608967453021060e-002,
          -5.6692898090819965e-001, 2.5752516538996462e-001,
          9.9543084756968672e-002, 4.7676468864219074e-001,
          -6.0758736665730458e-002, -2.1382474695098538e-001,
          -3.8458141993363693e-001, -2.2903270758378327e-001,
          -1.9799972789784798e-001, -3.2197789513830283e-001,
          1.6807415341093482e-001, -1.0280831448235901e-001,
          3.3948559213942943e-002, 2.9355795378069099e-001,
          3.1056529125557206e-002, -7.0176289976039960e-002,
          1.4290828069842040e-001, 1.7483952337839420e-002,
          5.2297446076963711e-002, -1.1573959478075609e-001,
          -9.4990614903392154e-002, -3.8703188856312198e-001,
          -2.5182802401032989e-001, -5.1155069043519047e-002,
          -1.5095242981958512e-001, 4.4253851435758917e-001,
          -1.0533423606383202e-001, 2.3558656924497509e-001,
          -4.6893631998302321e-002, -7.4073047237331893e-002,
          3.1387890862163481e-002, 3.5517745304004156e-001,
          1.0303449614211295e-001, -1.5967229913257604e-002,
          -5.3617873683534677e-002, -1.0057582857520163e-001,
          -2.2256214751654560e-001, -4.1479611696350294e-001,
          -7.4873787173118780e-002, 1.3125235208180283e-001,
          3.4121330394772997e-001, -2.6770578380226128e-002,
          1.3258795950423660e-001, -8.3634119881009272e-002,
          -1.3223932521798951e-001, 1.1827485861938468e-001,
          2.7293405960871964e-001, -2.7523320543600977e-002,
          -1.7540293225999279e-001, 5.2780998928934455e-003,
          -1.0348316911615167e-001, -2.1485113481763798e-001,
          -2.7388012162692832e-001, -8.4397077567581871e-002,
          4.6552557883534469e-002, 3.3765002072781569e-001,
          -2.2650715372974955e-002, -5.0055122244699997e-002,
          -8.2831355743419044e-002, -7.4683676639875379e-002,
          -2.1576812576751859e-002, 3.8519659382455179e-001,
          -7.5988688009681934e-002, -3.5917446309852476e-002,
          -3.6349112767269383e-002, -1.9067702597629069e-001,
          -2.1825640254392922e-001, -2.7043930183458270e-001,
          -7.8160965345233632e-002, 1.4647891496600027e-001,
          3.4343713677132215e-001, 1.5280852368370912e-001,
          2.9126523443976839e-002, -2.0228672927850083e-001,
          -2.0684467908595502e-002, -5.3923763741880973e-002,
          5.2406456530562527e-003, -1.0890638921987467e-003,
          1.2796534776975910e-001, -1.2822534565548210e-001,
          -1.7624595944952726e-001, -2.1939131321884833e-001,
          -2.6448571325506548e-001, -2.6857296169020196e-002,
          3.5154173188084031e-001, 7.7864978127225939e-002,
          4.7726161636612313e-001, -5.1495940756127367e-001,
          -7.2553025819585268e-002, 7.4196751673575895e-002,
          8.2724569743762064e-002, 1.2642820336774405e-001,
          9.6832528915200292e-002, 5.2696852801859990e-002,
          -1.2671586274674160e-001, 7.9879919629199908e-002,
          -1.2478996854321658e-001, 6.3358345665666241e-002,
          -1.1507080916465101e-002, 9.9953987986888426e-002,
          2.2888080161108390e-001, 4.5220869870929670e-001,
          -3.5311434088080790e-001, 1.7883173405517794e-001,
          2.3570220275837431e-001, -1.0162887033586765e-001,
          2.3763715039022490e-001, 9.7209758311518402e-002,
          -3.4531982210946985e-002, -5.9701390290094081e-001,
          5.8014651127054395e-001, 3.9175097909007423e-001,
          1.7222867525504273e-001, 5.3885313600911755e-002,
          -1.9320642881139313e-001, 1.0801865403412048e-001,
          -6.6111012231312452e-002, -1.6616429833939572e-001,
          4.0077029123224750e-001, 2.3664942908416012e-001,
          -9.1984386700085116e-002, -1.3858072851159681e-001,
          -8.7236103490828998e-002, -3.7697641747126859e-001,
          -3.2051243073852287e-001, -1.2596196554251224e-001,
          3.9390826039866378e-001, -1.2134786809866337e-002,
          6.2344826848255076e-002, -5.2499628160364756e-002,
          1.1905450525757302e-001, 1.2702583286502264e-001,
          -1.6921575600990313e-001, 4.1046369040525849e-001,
          1.1749875640025248e-001, -7.3829058542493184e-003,
          -3.2363370166907030e-001, 3.3997895701190650e-001,
          -4.8682084948204635e-001, -1.1937625747930329e-001,
          -8.8676920793802627e-002, 1.2786516604796947e+000,
          1.4353412720019415e-001, 1.6169569829545788e-001,
          -5.0056681132125369e-001, 1.6583694854416329e-002,
          -7.2524523024163748e-002, -1.8975163021127001e-001,
          3.9704569503108578e-001, 4.5131805377665327e-002,
          -1.8616457743457028e-002, -3.0613827629140067e-001,
          3.4127630661461772e-001, -2.4304423906419928e-001,
          2.5478730794283744e-001, -1.2092906245175879e-001,
          3.2511793501313657e-001, 2.1045383547657856e-001,
          1.7827622861966608e-001, -1.2835929913475738e-001,
          4.4265672970182544e-002, -9.9270002585418071e-002,
          -2.3802288995954482e-001, 4.5094886992725070e-002,
          4.5215009728903255e-001, 1.3024292390009833e-002,
          -7.1314895186137572e-001, -9.6964037911770939e-002,
          -2.4262992479422940e-001, 6.1979108231758166e-002,
          4.1814084529323137e-001, 2.2067796970975156e-001,
          2.0449264941854137e-001, 8.2163808384074125e-002,
          -1.2156917538780074e-001, 3.9932558541603901e-002,
          1.3683181495007113e-001, -2.2909985660800861e-001,
          5.0858978578627645e-002, 2.2058431355108418e-001,
          3.4583224369866140e-002, 1.4030076486985502e-001,
          -1.2493821124547355e-001, -2.3550457889043713e-001,
          1.8783801208732759e-001, 1.1926621177886684e-001,
          1.6664276508274570e-001, 8.6942718960102983e-001,
          -7.3308016729497624e-003, 6.9847493891589632e-002,
          4.9538383597794632e-002, 9.0534529368725483e-002,
          -3.4144625442714682e-001, 5.0280963981087237e-002,
          1.2686538020352586e-001, -8.1939139105704759e-002,
          -1.1671394040160510e-001, -2.9138271651109265e-001,
          -2.3612115057824731e-001, 1.5195866306216560e-001,
          2.2390223637486589e-001, -8.9401798582164044e-002,
          4.7249303660457703e-001, -1.6859808705550028e-001,
          2.2209212173844309e-002, -6.8415770518577515e-002,
          2.9361999825022739e-001, -3.3350264726384965e-001,
          6.4814318046684960e-001, 4.0680217661506646e-001,
          -1.5672496974151037e-001, -1.1865610939691962e-001,
          -3.9707522187889827e-001, -2.9336190962159586e-001,
          -5.4022474515405594e-001, 1.1871022056802201e+000,
          -1.0344581600240869e-001, -1.2812282142692791e-001,
          -1.7040162993679453e-001, 9.9761546983203036e-004,
          9.3486682071921559e-004, 2.1408229933944620e-001,
          -3.5352880844296414e-001, 7.6285761865769675e-001,
          1.6311487203818104e-002, -5.1658947311327356e-002,
          3.8209862991588031e-002, 1.7905269713944946e-002,
          -1.6404076538717952e-003, -7.1865803972817013e-002,
          -2.1570594080758107e-001, -2.2211486393259619e-001,
          -2.0285611405077406e-001, -3.1036536502419765e-001,
          -6.2472547828760820e-002, 1.0350564452979219e-001,
          -1.4277611934699699e-001, 8.6179090039285880e-002,
          -4.6313365408657076e-002, -1.2103700793376429e-001,
          -5.2545360102911616e-002, -2.8266631196892898e-002,
          9.8457509015257738e-002, 7.1331315844113563e-002,
          -5.2855897537715399e-002, -9.6239802569120167e-002,
          -9.6674471737122222e-002, -4.0238773251959020e-001,
          -8.3670902063890981e-002, 1.4925779247151499e-001,
          3.2873504939326770e-001, -1.0569100573311421e-001,
          3.0407245229186027e-002, -1.1758555566667542e-001,
          -2.4592783822997233e-001, 2.8209656379228670e-001,
          -1.2097619736720125e-001, 6.0002054259171933e-002,
          5.1366863791764403e-002, -1.3389422969872392e-001,
          -9.6146227758843489e-002, -9.2423611341425613e-002,
          -7.0299368261920347e-001, -7.6371141430082043e-002,
          4.2213484097105333e-002, 3.3562991302308276e-001,
          -2.4306023723006623e-002, -5.2704127100034311e-002,
          -1.0713478709597662e-001, -2.7225458882636816e-001,
          1.2048611075904535e-001, 9.5415508001700081e-002,
          -5.9494635762469501e-002, -1.3362623362125946e-002,
          -1.2689088193745374e-001, -1.8972788143126240e-001,
          -9.9207555031438174e-002, -6.7512488055189690e-001,
          -8.2884025862384733e-002, -1.2896177307075643e-001,
          3.2280965673968909e-001, -3.0518868445737327e-002,
          6.4519409567552182e-003, -1.0995751609961348e-001,
          -1.6783317314169083e-001, 2.8889840593065158e-001,
          2.1593838335869114e-002, -6.1839078568648093e-002,
          4.6722630685401771e-002, -1.3052052866409328e-001,
          -7.8067277031163756e-002, -2.2049448789972723e-001,
          -6.7862005426488448e-001, -7.6288189653162267e-002,
          -3.5190721882532611e-002, 3.2567403108392784e-001,
          -1.0297761704500741e-001, 1.1547668310461452e-004,
          -1.1361747502178121e-001, -6.7382177291129122e-002,
          -2.0486252680232234e-001, 4.3258552926476491e-002,
          -2.7284175190233243e-002, 5.5613814950933198e-002,
          -1.3152537715321622e-001, -2.0964470110841135e-001,
          -2.2287916706529207e-001, -1.6966691876526030e-001,
          -2.4175721930694458e-001, 1.6232867684958310e-001,
          4.8751845781533198e-001, -1.2252981179125957e-001,
          1.4994125916786719e-003, -1.1061126232812918e-001,
          -1.5167739230012983e-001, 8.4142331939251705e-002,
          1.0144118593510167e-001, 1.4268610064268250e-001,
          9.8225765561891984e-002, -1.3539969285880463e-001,
          -7.9644447869545526e-002, 1.2681921222474202e-001,
          7.0398613103608246e-002, -8.2774916097779400e-002,
          1.4974276604246270e-001, 1.6628683914954995e-001,
          -6.9975119114341960e-003, -1.2381358693300434e-001,
          1.2742107450544721e-001, 3.4351137580455569e-003,
          -9.9790830774512881e-003, 3.2584981163314997e-001,
          3.3205131891379952e-001, -2.1866191327648740e-001,
          -7.1426224975951169e-001, 5.7370463213221290e-001,
          5.0420229609417400e-001, 2.6615560710285624e-001,
          -2.0419518551734034e-001, -6.4246390389389529e-001,
          -6.1020235130350105e-002, -5.9680584413279121e-002,
          -1.6875785158857454e-001, 4.1103728649323196e-001,
          4.1765590692726527e-002, -9.1021800677630257e-002,
          1.7033880771429438e-001, 1.6085026366869579e-001,
          -3.0612482926040174e-001, -3.1893684005931078e-001,
          1.3820854204219055e-001, 3.8830215842740712e-001,
          1.7530845081530680e-001, 5.3044307330985502e-002,
          -2.7179497409185965e-001, 1.1353918809826169e-001,
          -6.3023450921173355e-002, -1.7227900640687649e-001,
          4.0114948196153560e-001, 1.2721015288172821e-002,
          -9.2007870419754528e-002, -1.5102937719259246e-001,
          2.3246483400168580e-001, -2.8540026508870125e-001,
          -1.1946011907813929e-001, 1.7271675589118482e-001,
          4.1592184769360335e-001, -2.0181979320689880e-002,
          5.2954798586777263e-002, -2.7842606250089513e-001,
          -1.2839114948106203e-001, -7.0097617266542719e-002,
          -1.8820022377818157e-001, 3.9491114164928942e-001,
          -4.9068732408234256e-002, -1.4133641032240619e-002,
          -1.1000983565040133e-001, 4.4715886373068986e-001,
          -3.2548733527200846e-001, -8.6613737086719322e-002,
          -1.2095142924953439e-001, 3.9570344885313669e-001,
          4.5322751099266027e-002, 3.1222207436567750e-001,
          -1.3843647912601784e-001, -9.7443604238395848e-002,
          -6.3302481230511909e-002, -2.8022543868226618e-001,
          2.1472898439194998e-001, 9.5581247106533720e-002,
          -4.0982277872013764e-002, 5.0955912442667409e-002,
          -1.6322860837585074e-001, -7.5131653952041666e-001,
          1.2643835336532347e-001, 4.2020150861023875e-001,
          2.1641050524179167e-001, 4.7605255948847558e-001,
          1.3599395677020618e-001, 3.9496633185016700e-002,
          -9.8463577302820932e-002, 1.3764784501048938e-001,
          -2.2766217171577582e-001, 4.8045587254600258e-002,
          1.7559781669625227e-001, -7.0968317135080519e-002,
          1.3931474895925730e-001, -1.3104229515051594e-001,
          -8.7088641716030160e-002, 1.2361085130986525e-001,
          1.2090461245305960e-001, 1.7636890188431931e-001,
          8.6781284795528746e-001, 3.7515829850440441e-002,
          5.9758608300986275e-002, 4.0040397886394942e-002,
          1.9881130255645883e-002, -2.3479228929312657e-001,
          5.3740432877834803e-002, 1.3197814253649653e-001,
          -9.2697592541683874e-002, -1.2200360715771263e-001,
          -2.2311068180646698e-001, -2.3696066360133503e-001,
          9.8822037198748158e-002, 2.2369919593781068e-001,
          2.3199263710759641e-001, 4.0178666703718596e-001,
          8.6208901547433339e-002, -1.0681526908061997e-001,
          3.6744545077583193e-002, 2.8106957581484127e-001,
          -3.3296472392686027e-001, 2.7818089662952855e-001,
          7.8030195285348836e-001, -1.6382533139059288e-001,
          -3.7469590573682665e-001, -7.1458293093153394e-002,
          -3.4246243971456480e-001, -1.6040409165670694e-001,
          7.3757319185913250e-001, -1.0476020649675154e-001,
          1.3620936737002190e-001, -1.7096694610939700e-001,
          1.7712083201834064e-001, 7.8908707391990171e-002,
          1.2667856327739094e-001, -3.4896131571152872e-001,
          -8.0775917526547503e-002, -6.7971398443291767e-002,
          1.0186756817794650e-001, 4.6139465313486167e-001,
          7.9407303760817505e-002, -2.6314014488894039e-001,
          -1.6083387373291314e-001, -4.4889393475925007e-002,
          -9.9128688158592312e-002, -2.5218353161842594e-001,
          -3.4519433828229029e-002, 1.5965284710555797e-001,
          1.5028895500500655e-001, -1.2937624939327844e-001,
          9.3708896975134414e-003, -1.1677023970307737e-001,
          -3.7081816394294725e-001, 5.9294950735866603e-002,
          -5.8399430184554388e-003, 5.7883392168099193e-002,
          2.6162873814967163e-002, -1.0898579792184374e-001,
          -1.1642285468709318e-001, -9.6233883299711900e-002,
          -7.0981724573448635e-001, -3.6158738475070881e-002,
          -1.2477491187126286e-001, 3.4402886360685808e-001,
          -2.9480663284578670e-002, -1.3032540565112332e-003,
          -1.0711117637012468e-001, -1.0093138218207913e-001,
          4.5020272477186409e-002, -4.4575996921029641e-002,
          5.9840431558398743e-002, 5.2562384788913855e-002,
          -1.3244686525467847e-001, -2.1485183601598132e-001,
          -9.5624247667906156e-002, -6.8174613211569624e-001,
          -3.3057685250602362e-002, -1.4922238026938578e-001,
          3.2324062303945722e-001, -1.9789765946030130e-002,
          8.9786734218457332e-003, -1.0683714039321501e-001,
          -2.3784546521970620e-001, 6.5253492670275332e-002,
          -5.8875051845662468e-002, -6.5266654838402230e-002,
          4.6424441047489044e-002, 1.3720653402242700e-001,
          -1.8578719281303105e-001, -9.4864558416053194e-002,
          -6.8051139842353814e-001, -2.8793209037863032e-002,
          -3.3474583140957033e-002, 3.2097557880396588e-001,
          -2.0909073905076368e-002, 5.3231090472448080e-004,
          -1.1800061978033688e-001, -8.2140223883978680e-002,
          1.0089564777614204e-002, -3.5132606521527117e-002,
          -6.9564189768696702e-002, -2.1763328046731167e-001,
          -1.2800426208324356e-001, -2.1681929110933854e-001,
          -1.0614124529062945e-001, -6.1218722463635855e-001,
          -3.6063838541180337e-002, 1.5997327361384170e-001,
          3.1862948045592410e-001, 1.8937326182499419e-002,
          6.2196673108509248e-003, -1.0832574397351508e-001,
          -7.2349992791723411e-002, 3.0312392480868083e-003,
          2.6501568191739111e-001, -7.1535548311819575e-002,
          -2.1562829030177122e-001, -2.3060631422446923e-001,
          -3.3636895376091443e-002, -1.0072796413271173e-001,
          6.4271004763361325e-002, -8.4373361953771334e-002,
          1.5515623069302678e-001, 5.5422609856932026e-001,
          -1.3273968455272092e-001, 7.7847938256390872e-002,
          -2.6429054615123659e-001, -3.6961357672960549e-001,
          8.2616610425775408e-002, 6.8100468423006100e-001,
          1.4699161223357005e-001, -1.4942765842420863e-001,
          -8.7683643202533224e-001, -1.5682948900232564e-002,
          3.6421055698938087e-001, 6.7562432897488048e-002,
          1.0754661828881801e-001, -7.1732729250382543e-002,
          3.6632466019217641e-001, -1.3869979293672671e-001,
          1.6989470955276526e-001, 1.0360049170615937e-001,
          -2.6719591112480640e-002, -3.3230739204651930e-002,
          2.7994303182294650e-001, -2.3892259900725152e-001,
          -2.6521702032351679e-001, -3.0368094343053476e-001,
          5.7454605810238590e-001, 3.4158016935073793e-001,
          1.7299583008961009e-001, -2.0829332512861082e-001,
          -6.5250651333534737e-001, -5.5930167460289400e-002,
          -8.3006647914952866e-002, 9.2987062430436390e-002,
          1.2408899932866466e-001, -2.1752927225899332e-001,
          -1.8337445886041212e-001, 4.3782887352362221e-001,
          1.7510857364509444e-001, -2.7898927296723752e-001,
          -3.4339586936906374e-001, 1.4013118467745958e-001,
          1.5138659229546975e-001, 1.7525363000274555e-001,
          -2.0048473743828377e-001, -6.8871841862531324e-001,
          -7.7626613302203801e-002, -6.6655564096143052e-002,
          -1.7024472296956056e-001, 4.1130032765748731e-001,
          -2.6342897330795943e-002, -8.4421645400512918e-002,
          1.0186883584785410e-001, 1.8845367639829408e-001,
          -3.1661695692765351e-001, -1.2575421760437760e-001,
          1.7309604349441124e-001, 2.8054337942742402e-001,
          1.7193085418344925e-001, 5.0289424166463120e-002,
          -2.6680851901530067e-001, -1.2404416866363822e-001,
          -3.2183695865151496e-001, -7.1982679610968991e-002,
          4.0255822803339503e-001, -5.7989319583875674e-002,
          -8.5141444646635089e-002, -1.3673436686555257e-001,
          -1.1255383301179568e-001, -2.9256181601623066e-001,
          -1.2142456312074448e-001, 1.3664354405974530e-001,
          8.8708224181841311e-001, 4.0383174665576099e-001,
          3.7926925941436729e-001, 1.4223815181527797e-002,
          -9.1569176147941439e-002, -7.0115274018928364e-002,
          -2.4312619523176526e-001, 2.2104099967073104e-001,
          3.4646518671800147e-001, -1.5437555732154695e-001,
          -2.9148706418669895e-001, -3.1504211637288525e-002,
          -2.6640537871143860e-001, 1.3066646946606747e-001,
          3.8700369623002517e-001, 3.4874230415541069e-001,
          4.1069543853816914e-001, 3.2118739484878010e-004,
          3.8692915150205967e-002, -1.0070574195154955e-001,
          1.0947757398419371e-001, -1.4708944736699056e-001,
          4.5157113166769791e-002, 6.5102789002623040e-001,
          -7.6370215383819967e-002, 3.7477570939211613e-002,
          -1.7892862752314595e-001, -7.4870938277731580e-001,
          4.6347537358343564e-002, 1.7826548252294694e-001,
          2.1434024980644353e-001, 4.7672926087417544e-001,
          2.3762297382293768e-001, 6.2442724607852870e-002,
          4.5583300613120541e-002, -1.9946092172846135e-002,
          -2.3485998312625311e-001, 4.3150881669173885e-002,
          1.0543187973037881e-001, -1.0392826421387164e-001,
          4.0873291225894663e-002, -2.3448333820190473e-001,
          -2.2662076242716137e-001, 8.5546120727455793e-002,
          2.1550338352980572e-001, 1.4963622831586096e-001,
          4.0814312079717679e-001, 3.4210356570128631e-001,
          2.0684314395465364e-001, -1.7979380489778782e-001,
          2.9566040861730475e-001, -2.2089794575882402e-001,
          -5.7298975477126410e-002, 1.0001126948957406e+000,
          2.3049323261729021e-001, -1.8123042023337235e-001,
          -1.1490726649263147e-001, -1.0339432933655369e-001,
          -1.2989578271610802e-001, 7.3035532372180922e-001,
          -9.9856273899341583e-002, -1.5539381690548568e-002,
          -4.8915952556226475e-003, 1.8727565966382773e-001,
          1.2751321300351556e-001, -1.0820449914127293e-001,
          -3.5031364290343059e-001, -8.4324020272154715e-002,
          1.7826129761597356e-001, 2.3438485343520729e-001,
          1.9558783214216710e-001, 1.1282630712699740e-001,
          -4.4855874861984746e-001, -3.5907742479317828e-001,
          1.6997240531317560e-002, -9.4388526226264258e-002,
          -6.9661207894142130e-001, -3.5448269523610576e-002,
          -3.2894056357671252e-002, 3.2623915405565451e-001,
          -2.1128499158684942e-002, 9.5107850115262998e-003,
          -1.1345653138852216e-001, -9.7671886475946129e-002,
          6.7088341668804202e-002, 1.9665460160182177e-001,
          1.1275093226942691e-001, -2.2135059797811529e-001,
          -2.1853716236728427e-001, -3.1155699364898027e-002,
          -9.9817819354294554e-002, -6.7884098262707548e-001,
          -3.5807536098442463e-002, -1.4313050243347067e-001,
          3.3376352059017422e-001, -1.5930417563865078e-002,
          4.0044133606992549e-004, -1.1102222753021965e-001,
          -1.0893092331788086e-001, -3.2753716277721730e-002,
          3.1899674797538435e-001, 2.2952585469164735e-001,
          -2.2387185451399771e-001, 4.1224266189388445e-002,
          -2.6900852804331115e-002, -1.1976868193300908e-002,
          -6.7559820041077223e-001, 2.6921894101882204e-001,
          1.5111885225233856e-001, 1.3441164642414938e-001,
          2.7187398164409605e-002, -2.2142904084299700e-001,
          3.6209189939915572e-002, -8.8412739454067496e-002,
          -2.7170153213612568e-002, -9.8634085088579029e-002,
          2.3078453934670684e-001, -2.3038432897649572e-001,
          4.5631978296220184e-002, -3.6313379771097214e-002,
          -5.7161189130044594e-002, -6.2083419104386428e-001,
          2.7115366582521350e-001, -2.7292835226579198e-002,
          1.2648961521692806e-001, 2.0127627530783807e-001,
          1.9955077750517555e-003, -1.1789322848437281e-001,
          -8.9240806911609058e-002, -5.1958437451156823e-002,
          -1.1022591306230656e-001, 2.3406762588364521e-001,
          -2.2397722067048884e-001, 4.2134996983674643e-002,
          -3.7217814480025736e-002, -1.0065225244378877e-001,
          -8.7220197247184467e-002, 5.9328983627714682e-001,
          1.8469552143852547e-001, 3.6168670971503497e-001,
          -1.8965532193071560e-003, 4.1521809734724836e-002,
          -6.2753549004701592e-002, -3.2114728012942245e-001,
          9.8687928715905260e-002, -1.5347223876697000e-001,
          2.3115935825217865e-001, -2.0407248921901627e-002,
          -7.2084127757418703e-001, -2.1581384188889087e-002,
          3.5530612307703463e-002, 2.2361406188809690e-002,
          -7.6205730683122211e-002, 1.5423341151238576e-001,
          1.1293370358083629e-001, -4.0424868786734713e-001,
          3.8531190869958439e-002, -2.7772356254606362e-002,
          -3.6162802808612532e-001, 3.1639792562852043e-001,
          3.0324892909376627e-001, 2.8284026737207102e-001,
          3.3636217361332960e-001, -3.4446501346567848e-001,
          4.1494697842999799e-002, 1.9557186924514008e-001,
          1.1635135575022490e-001, 1.1439992051087144e-001,
          -7.0667919737115850e-002, 1.3915544236404126e-001,
          -3.9727184867709453e-001, 1.5817079529103523e-002,
          -1.9809619098675613e-002, 1.0974759403114720e-001,
          -9.0309024600610341e-002, 2.7998883188165929e-001,
          2.5778694625160620e-001, -1.9835456938595961e-001,
          -3.8138416656135310e-001, 4.7470398733673158e-001,
          9.6325357027608943e-002, 4.0088024023759677e-001,
          -2.0662983388745260e-001, -1.9462966409127433e+000,
          -4.1228178966103320e-002, -9.3080255317246105e-002,
          6.6481864384362488e-002, 1.2539886622016222e-001,
          -2.4674289640261049e-001, -9.9223818142259237e-002,
          4.3246597553312627e-001, -1.7006945823290687e-001,
          -2.5289272466016155e-001, -3.0684537246094917e-001,
          1.8596178901166616e-001, 9.8052935662482590e-002,
          4.0159501066939135e-001, -3.3946859041704808e-001,
          -6.8817432981943327e-001, -3.2849002763786245e-001,
          -5.9112289943872971e-002, 3.1900870856661989e-002,
          4.0394299182459836e-001, -5.9582806399480726e-001,
          -8.1299440908947085e-002, 1.2182805403315763e-001,
          -8.4525717509604345e-002, -4.8146985604661313e-001,
          1.3695734049794667e-001, 1.7616720211788930e-001,
          3.2068774098660668e-001, 1.7437517760843771e-001,
          -1.9944524208046582e-001, -2.7961273472851306e-001,
          -3.2023073073658481e-001, -3.9515777371896743e-001,
          -3.5522321687310310e-001, 4.0246587414763713e-001,
          -8.2315242710085196e-002, -7.5941470136427366e-002,
          1.1308109368012012e-001, -1.1760744710485120e-001,
          -2.9097046171995461e-001, -2.1974914470590731e-001,
          1.7111183370288238e-001, 8.8359014590039475e-001,
          4.1191000550901141e-001, 3.7798043988322139e-001,
          2.2299121698745237e-002, -8.7861442378955573e-002,
          -7.0453125811378942e-002, -1.7499752395900989e-001,
          2.2045889302395666e-001, 3.4757905903555925e-001,
          -2.2023703295802963e-001, -2.9364288496432850e-001,
          -3.4320713181844271e-002, -4.2360095511099483e-001,
          -1.7228587852843279e-003, 1.5878761718892223e-001,
          3.4761942312204458e-001, 8.7588825600788789e-001,
          8.3036307481388891e-002, 4.1672823426668608e-002,
          -9.6595629230357055e-002, 1.3677428680151660e-001,
          -1.6142749137779497e-001, 5.1671021194942213e-002,
          6.5846378856263177e-001, -7.1152325105100681e-002,
          4.3560463634252852e-002, -1.6807090930543564e-001,
          -3.5647582475704848e-001, 3.0868268368047229e-002,
          3.8973531581710774e-001, 1.4839623963241078e-001,
          8.6862999075721470e-001, 1.4299268931451986e-001,
          5.9282518952514685e-002, -1.6712870322559273e-001,
          -1.3443967702485675e-002, -2.2674515073028145e-001,
          5.3108761683235778e-002, 6.8855608208889285e-001,
          -1.0689191089322508e-001, 1.3642835887314606e-001,
          -2.3233650125726929e-001, -2.2607861269398163e-001,
          1.2517770411825377e-001, 2.1518707321374334e-001,
          1.2399720994628252e-001, 2.3667981434925892e-001,
          7.9650414609968231e-002, -4.6774736900101499e-001,
          -1.6988897296083019e-001, -9.2973682148172726e-002,
          -1.7225324874623529e-001, -4.6923335335336089e-002,
          4.4576756222076908e-001, 1.6464560404705916e-001,
          -6.9233580851641241e-003, -8.4468789862845631e-002,
          -1.9181565913754195e-001, 1.3006373972592658e-001,
          1.2746128191136280e-001, 3.3875474993576371e-001,
          4.9425874776806843e-002, 7.9757712676543094e-002,
          -3.0920347842590352e-002, -1.6991214177537753e-001,
          -2.1342861433103488e-002, 2.4454511508366589e-001,
          -4.5493602067389158e-002, -4.7412546007496670e-002,
          2.6618759428071764e-001, 2.0154950148763190e-001,
          -8.7229193968132598e-002, -1.6935296386022322e-001,
          -2.6693050108463011e-003, -1.2931393983787276e-001,
          3.3976564519337010e-001, -7.0255218955553322e-001,
          8.7304917005981433e-002, -3.0708030669690689e-002,
          1.3852457544164468e-001, -4.3994615842608310e-003,
          2.4669878853127764e-001, -7.3937737437497014e-002,
          -5.3295785227268321e-002, 4.0702037805186736e-001,
          2.0063003375403457e-001, -6.2442483988439851e-002,
          -4.4263365224109530e-001, 1.1232678365503689e-002,
          -9.0479231250014266e-002, 7.4187939080044718e-001,
          -6.8469614094321052e-001, 7.7587108309806321e-002,
          -1.2825229500395766e-001, 1.4075038889108596e-001,
          -3.3369750942700581e-002, 7.8555965725771304e-001,
          -5.8849684240603571e-002, -1.0854444056844105e-001,
          3.4323970308326091e-001, -1.0134493325792172e-001,
          -6.8859295590592104e-002, -2.1435733972083965e-001,
          5.3909673391065536e-003, -2.3910500602028209e-001,
          1.2080182863316048e-001, 1.6417179585757662e-002,
          8.4871260610856494e-002, -3.3084437714586572e-002,
          4.8818186694230936e-001, 2.3961324252372984e-001,
          -1.0512894363337034e-002, -8.2856291251796083e-002,
          2.1877119975555798e-001, 1.8005207769375468e-002,
          -1.0731159617919805e-001, -6.9324846651250410e-002,
          4.1771681303767405e-002, -5.3570205851962094e-002,
          -2.3979693695448376e-001, -1.6099185496710595e-002,
          4.3015550085045560e-002, 8.0474942890373949e-002,
          -3.9051523824982720e-001, 4.8733812670012100e-001,
          -4.6069851683617942e-003, 7.8048756984192580e-001,
          -8.3290935136233757e-002, 2.1672269337595362e-002,
          -2.4700247643991532e-001, -1.0027039060404566e-001,
          -7.4218504275325364e-002, 3.2186638741986677e-002,
          1.3056515486925635e-001, -2.3783094074970348e-001,
          -1.6960206102543705e-002, -1.9923580557477581e-002,
          1.5678904031917035e-002, -8.1425436645650939e-001,
          1.8756347142668203e-001, -3.7967751634178613e-002,
          5.4765888519834793e-001, -1.9675405077478964e-002,
          5.7064307446992348e-002, -6.1215046901279234e-002,
          -1.0369962027732102e-001, -7.3334446644861939e-002,
          4.8251000413587639e-002, 1.5352398906109288e-001,
          -2.8309960648021798e-001, -1.7993025108785951e-001,
          -1.0957543460321940e-002, 2.3439400876425834e-001,
          -8.1681510258404832e-001, 1.3774473213813254e-001,
          -2.5109047642741533e-001, 8.7928377003969965e-002,
          1.5764969964865591e-001, 5.3780281901161395e-002,
          -5.6716363347472036e-002, 1.7439138974842991e-001,
          1.8019699674977210e-001, -1.9791231500288836e-001,
          1.4245300425016508e-001, -1.3758997444470789e-001,
          3.3506846836145920e-001, 1.1159946403662360e-001,
          -6.8114399598827391e-003, -1.1343301496812628e+000,
          1.3661817747757282e-001, -2.9460149219907877e-001,
          6.6640320191624020e-003, 1.2884118572006314e-001,
          -7.1345199658332314e-001, -7.9632981001509964e-002,
          2.8787909813264334e-001, 2.8435494618237089e-001,
          3.3020774760712253e-002, -3.3940996539939411e-001,
          -1.2984361527729787e-001, 1.0033795637810135e-001,
          4.0990310925137047e-001, -2.0531393660920139e-001,
          -6.7596032305998399e-001, -3.0735373688573570e-001,
          -2.9442205590993520e-001, 9.1281483706326508e-002,
          1.3110909363022502e-001, -1.0693916962912298e+000,
          -8.2662229793149938e-002, 2.2881521382044098e-001,
          -6.9118458439255237e-002, -4.8480637360601309e-001,
          2.2820385662871923e-002, 1.2630804454823005e-001,
          7.1719010707150241e-002, 4.0831191566951780e-001,
          -3.3651900875892082e-001, -2.7268030106230828e-001,
          -6.3000000237080911e-002, 2.0578476676734053e-001,
          2.1841971311554492e-001, 1.3493388191626360e-001,
          -2.6385130978608429e-001, -7.4102199288582402e-002,
          1.2335657335810846e-001, -3.3036916596750682e-001,
          -7.4939920700621254e-001, -3.5411977376800596e-001,
          1.7323243927167950e-001, 1.6441226614790241e-001,
          1.7922482293884920e-001, -2.0227911385153546e-001,
          -2.7988392662422279e-001, -6.9072244823438225e-002,
          -2.8392834077877827e-001, -3.4478810182806119e-001,
          4.7174339152390576e-001, -8.1790289323419946e-002,
          -6.6200133345697521e-002, -1.2648148252229593e-001,
          -1.3215800261753857e-001, -9.4632830205249840e-001,
          -4.1568828033677868e-001, 1.7436297705898393e-001,
          8.7051911254005343e-001, 4.0498385131486919e-001,
          3.7914625023793030e-001, 1.3673807590376244e-002,
          -8.8278495578375776e-002, -7.1535585861586426e-002,
          -1.6778629563326344e-001, 1.5171846230243613e-001,
          3.5265933748953421e-001, -2.1525178304502382e-001,
          -2.9376846967939335e-001, -3.4909999945482752e-002,
          -3.8076557709921366e-001, -1.8268338078904284e-002,
          1.5946556080171417e-001, 3.5339546640355263e-001,
          8.7331510391032496e-001, -5.2125191194470214e-003,
          3.2798863773546891e-002, -1.0519326730411707e-001,
          1.3658979993813147e-001, -1.4251705270148110e-001,
          4.9760028873382517e-002, 6.5931622853998284e-001,
          -7.6818535893274337e-002, 4.4240343165015641e-002,
          -2.5620247963598103e-002, -2.7871462486586751e-001,
          3.9329825724080947e-002, 3.8181247817034880e-001,
          1.4990138651421012e-001, 8.7654530974288292e-001,
          1.5323893250194587e-001, 5.7774381065060589e-002,
          -1.7399799001689450e-001, -2.5167692400461551e-002,
          -2.3172188053016746e-001, 5.2349804271005274e-002,
          6.8817943074046883e-001, -1.1064956014511204e-001,
          8.5513299167705017e-002, -1.3073147355529460e-001,
          -2.2532225443455564e-001, 1.2451159139514680e-001,
          2.1231356007084387e-001, 9.1456240578965078e-002,
          1.9695764023688991e-001, 8.0533648486305717e-002,
          -3.4706624289906629e-001, -1.7031977965763137e-001,
          -6.5304732767744056e-001, -1.5394000040045674e-001,
          -2.9907165512823530e-001, -8.8369153705957371e-003,
          2.2075022250446577e-001, -1.4460093010118982e-001,
          -8.1779180500614196e-002, -3.4148303499291677e-001,
          1.6720348754938169e-001, 9.9932792745624402e-002,
          3.3187250273924279e-001, -9.3776352031139668e-002,
          8.5424732235031012e-002, -1.2822569892578446e-002,
          -1.6538514720614197e-001, -7.0783275006239199e-001,
          1.0121693868057563e-001, -7.4944577751825592e-001,
          -8.9638049380502946e-002, 3.6037386436222202e-001,
          1.9809053974890409e-001, -7.7675099302403933e-002,
          -1.8800120121155497e-001, 1.7363585462411393e-001,
          -1.6793588323533384e-001, -2.9368490655014381e-003,
          -1.0069311203832497e-001, 8.1633195359777325e-002,
          -3.8562672234573138e-002, -1.6503420717581171e-001,
          -3.0668308674641442e-001, 8.3249853984304178e-001,
          -2.9470491516415659e-001, -5.2104717761176471e-002,
          1.9686167542067343e-001, 1.7539661695526521e-001,
          -8.1069118594544853e-002, -1.6272559447821211e-001,
          3.9302289928657148e-002, -2.2303105145415772e-001,
          1.7922103053232741e-001, -9.7936411946263791e-002,
          8.7348205058955922e-002, -3.9863673730033446e-002,
          -1.6551691081831124e-001, -2.2275853821901109e-001,
          3.5135128587037162e-001, -3.7782747365309416e-001,
          3.0175108861783007e-001, 2.8872930083382820e-001,
          -1.2211501548561249e-001, -5.6343458869796713e-002,
          2.1977469242976187e-002, 4.2119208198374038e-002,
          -2.1008304938150754e-001, -1.3569745503330216e-001,
          2.3099811330684020e-001, 8.4837396351460717e-002,
          -4.6902485118632797e-001, 3.5582768758947080e-002,
          -1.5679705515043375e-002, 3.5394692186611820e-001,
          -3.8521100134904968e-001, 2.2061042080546159e-001,
          -2.5134716353069636e-001, -1.2813504874709622e-001,
          -6.9237392490328051e-002, 1.9047533943103584e-001,
          1.2938764435305861e-001, -1.9605278131798606e-001,
          -1.4267428137495550e-001, 2.5221809502905290e-001,
          2.4271172654925491e-001, -4.9573330227935031e-001,
          -1.4481416144387157e-002, -6.4236016460926084e-003,
          2.7907907244293612e-001, -3.8217522416366273e-001,
          5.8797034179984192e-002, -6.2507575485153011e-002,
          -9.2867787481083791e-002, -6.2532998548042174e-002,
          1.9192139494890317e-001, 9.9831511759354327e-002,
          -3.6577413957186294e-001, -2.3456728612221464e-001,
          1.7670743661447560e-001, 2.4090180307984552e-001,
          -1.0648083947488021e+000, -6.6774712631129746e-002,
          -2.2684373297244467e-001, 6.1042689148628093e-001,
          -1.5758572239804267e-001, 5.4423878743937906e-002,
          -1.1636651679631804e-001, -3.9718660389604260e-001,
          -7.1449094725592827e-002, 2.3486155153332487e-002,
          1.6447473742418395e-001, -4.7927208321358117e-001,
          8.8986181141960611e-003, 1.7180337216250527e-001,
          2.3519489548800213e-001, -1.0773746016745434e+000,
          1.4073648504707265e-001, -5.4727526608484689e-001,
          1.2691121765391231e-001, 6.8494063146408421e-002,
          1.5179487291661468e-002, -6.1650944019646388e-002,
          -2.0124653689943803e-002, -8.1756543967499623e-002,
          -1.2976565397455080e-002, 1.2475886152584501e-001,
          -1.6659413185878244e-001, 1.0718933094658734e-002,
          1.7293189664278347e-001, -7.7771749976867921e-002,
          -6.7616111157418235e-001, 1.0411888981278930e-001,
          -1.3500951220425468e+000, 1.4352893507830927e-002,
          -3.3102627766563281e-002, -7.3184073325077459e-001,
          -8.5667384619233164e-002, -1.4084382643658092e-002,
          2.1848582082577225e-001, 1.5588472435646808e-001,
          4.5223438834271039e-002, -1.6331965131792300e-001,
          5.4275583691937600e-002, 4.1132553077073425e-001,
          -2.0116897760500546e-001, -8.7031967126106524e-001,
          -3.1092601439404716e-001, -4.5891200294420981e-001,
          6.5343066820277948e-002, 1.3352788134371604e-001,
          -1.0008342486030402e+000, -8.7788003217440000e-002,
          1.1424091611626247e-001, -7.6398731175320964e-002,
          2.0716222591576605e-001, 1.9997674023623513e-002,
          2.5845856026562652e-001, 1.7962629697521709e-001,
          2.7612312392255406e-001, -3.3611036545089779e-001,
          -1.6071289885613949e-001, -8.3788524803143694e-002,
          2.0501834148268111e-001, 1.1740219710844838e-001,
          9.5977311740619464e-002, -2.6495092633977696e-001,
          -5.9809724992085221e-002, 4.8867654587380988e-002,
          -6.4111223385971483e-001, -9.6386438681026432e-001,
          -9.7966224663324247e-002, 1.7514729546651384e-001,
          1.6636584425973369e-001, 1.8021956443255047e-001,
          -3.4251971936777093e-001, -1.7788593276170439e-001,
          -6.6838973603334739e-002, -7.7678733478882683e-003,
          -3.5510771519685480e-001, 4.5749972995931837e-001,
          -6.0754967007352600e-001, -6.5381673290125411e-002,
          -1.3857238106838818e-001, -1.8773819392520566e-001,
          -7.1043240177628220e-001, -8.6719725428500746e-002,
          1.7128687970705700e-001, 8.3033548309241234e-001,
          4.0380593162272255e-001, 3.7370877139689612e-001,
          1.2886210635582417e-002, -3.7248192076247594e-001,
          -6.0581711143544315e-004, -1.6814739488236216e-001,
          2.2345272909143660e-001, 3.4810314744695586e-001,
          -1.5834052220546180e-001, -2.8592334485019166e-001,
          -3.8085407694123885e-002, -9.3344063804572308e-001,
          -9.7687139037247395e-001, 1.6889818711129059e-001,
          3.4698569887843150e-001, 8.6837250308582525e-001,
          3.8150899651128689e-001, 3.2296177198608389e-002,
          -1.0649094288485773e-001, 1.3605899427389853e-001,
          -1.5267530230440959e-001, 4.6245623952736764e-002,
          7.6616226819484612e-001, -7.1748019306931934e-002,
          4.5025967572242594e-002, -1.6567313080470050e-001,
          -2.8394050791546882e-001, 3.8381491363648879e-002,
          3.8930018092612317e-001, 6.5207091343000720e-002,
          8.3838828492911166e-001, 8.0998081652675982e-002,
          -9.5924284077696098e-002, -1.7262389841439404e-001,
          4.3893570613717368e-002, -2.2565005602144209e-001,
          5.2016917155422747e-002, 2.7902323917841459e-001,
          -1.1044979823010520e-001, 3.9923902310236098e-002,
          -8.3691478129214819e-002, -5.6768594631340452e-001,
          8.4643074091970583e-002, 2.1740489865090704e-001,
          9.0566311664134896e-002, -1.6803830576151721e-001,
          8.3490128258946042e-002, 3.4375769740512953e-003,
          -1.6547055936789737e-001, -1.1020575234395336e+000,
