%YAML:1.0
mlp: !!opencv-ml-ann-mlp
   layer_sizes: !!opencv-matrix
      rows: 1
      cols: 3
      dt: i
      data: [ 330, 13, 10 ]
   activation_function: SIGMOID_SYM
   f_param1: 6.6666666666666663e-001
   f_param2: 1.7159000000000000e+000
   min_val: -9.4999999999999996e-001
   max_val: 9.4999999999999996e-001
   min_val1: -9.7999999999999998e-001
   max_val1: 9.7999999999999998e-001
   training_params:
      train_method: RPROP
      dw0: 1.0000000000000001e-001
      dw_plus: 1.2000000000000000e+000
      dw_minus: 5.0000000000000000e-001
      dw_min: 1.1920928955078125e-007
      dw_max: 50.
      term_criteria: { epsilon:9.9999997764825821e-003, iterations:1000 }
   input_scale: [ 3.8705539320323239e+000, -2.9336595196307900e+000,
       3.5265451592390233e+000, -2.4974194513421120e+000,
       3.5585931105573181e+000, -2.3122589579642909e+000,
       3.5460477541066919e+000, -2.0970674051568090e+000,
       3.5769592759786120e+000, -1.8593551318798860e+000,
       3.8003921668779523e+000, -1.6795822237447231e+000,
       4.5295502054819767e+000, -1.7834801526374757e+000,
       5.2190293676630883e+000, -1.8734505983341248e+000,
       5.3614673960645671e+000, -1.8776560616682212e+000,
       5.6184402276590397e+000, -1.9845023955492220e+000,
       4.4717438027264489e+000, -1.8842321354013596e+000,
       3.9561243804467079e+000, -1.9311108871983935e+000,
       3.5072315924310327e+000, -1.9632767703242244e+000,
       3.1332156436121776e+000, -1.9822171030628708e+000,
       3.2300928768383650e+000, -2.1711614091832794e+000,
       3.6945049987820506e+000, -2.7265189686030809e+000,
       3.2966973495053806e+000, -2.0924078397539789e+000,
       2.9416212588569794e+000, -1.5262311944473519e+000,
       3.0828747798815743e+000, -1.2050425768233195e+000,
       3.3846433174536856e+000, -1.1557204953197906e+000,
       4.0989519663772001e+000, -1.1065332103645498e+000,
       4.4036809268258832e+000, -7.9483312836326014e-001,
       5.1512510342676077e+000, -8.2407704294443840e-001,
       6.9854271788251419e+000, -8.7544705426951108e-001,
       6.3826773883042947e+000, -1.0914979041428527e+000,
       5.7752149506411516e+000, -1.1069349550199641e+000,
       4.3233171159717401e+000, -1.0583964684697849e+000,
       3.0908610138115424e+000, -1.1257379853066345e+000,
       3.0316462636254622e+000, -1.5524045882422994e+000,
       3.2225427600846039e+000, -2.1232288470977632e+000,
       4.0561678867762048e+000, -2.8913878657591381e+000,
       3.7117514045149416e+000, -2.1878973040265666e+000,
       3.6719100724680387e+000, -1.6640493142268655e+000,
       3.7796885188206737e+000, -1.4103482229553985e+000,
       3.9460284189361534e+000, -1.2702138523124509e+000,
       5.1769393315336707e+000, -1.7263609146148811e+000,
       5.9920258571206135e+000, -1.8312908755222503e+000,
       5.9930983525552275e+000, -1.6170002757517103e+000,
       6.4696630326474498e+000, -1.6857162960109280e+000,
       5.8519835954433086e+000, -1.3372855490436246e+000,
       5.3279666693719498e+000, -1.0502941106593480e+000,
       4.7508629223861920e+000, -1.0599604564672500e+000,
       3.8601141453838848e+000, -1.1029411079012050e+000,
       3.1110033483540982e+000, -1.4550771251924270e+000,
       3.5427836120181100e+000, -2.1407384360380588e+000,
       4.5795956999971077e+000, -3.2456323398051272e+000,
       4.3429393831189280e+000, -2.5179336588422743e+000,
       3.7326788858219242e+000, -1.6259271790759018e+000,
       4.0581804675814075e+000, -1.5569467486378472e+000,
       5.2445536438798355e+000, -2.1312724284696314e+000,
       6.0376128209820168e+000, -2.7086161450489650e+000,
       4.7597764866666150e+000, -2.4758918411573618e+000,
       4.0800398502458481e+000, -2.2603196167554076e+000,
       3.9856410410732228e+000, -1.8551731153232067e+000,
       4.3841875636352095e+000, -1.6292237074289324e+000,
       4.2201196032029964e+000, -1.3328697890429273e+000,
       3.8807468111981587e+000, -1.0005223202599161e+000,
       3.4173071623001268e+000, -1.0536696905628711e+000,
       3.5162272212459866e+000, -1.5963918264634926e+000,
       3.5966080777039675e+000, -2.1778629646559629e+000,
       4.0831332717205626e+000, -2.8895049395222663e+000,
       3.5063567085843865e+000, -2.0161849424431018e+000,
       3.2538031843516855e+000, -1.5789988147672711e+000,
       3.3199933338867029e+000, -1.4429233723511197e+000,
       3.9766152070527139e+000, -2.0456514741759499e+000,
       3.8780136994153582e+000, -2.4806667262097917e+000,
       3.5898695973176489e+000, -2.4590543826784437e+000,
       3.2340771060831544e+000, -2.3123638335779710e+000,
       3.6993678393676364e+000, -2.3606409627037070e+000,
       3.8362250567601821e+000, -2.1199039061275515e+000,
       3.8442314565444278e+000, -1.6774033004160755e+000,
       3.1562551179736009e+000, -1.0839067646655767e+000,
       2.8978874953350959e+000, -1.0018554058546931e+000,
       3.2245285257644105e+000, -1.4651461409795399e+000,
       4.0171821138286088e+000, -2.5386153730359222e+000,
       3.9787053831267643e+000, -2.6788294602776208e+000,
       3.1848237064270744e+000, -1.7118143542448019e+000,
       3.1998895852055922e+000, -1.4618152920311365e+000,
       3.3096846306941110e+000, -1.5342836489742315e+000,
       3.6850545919166211e+000, -2.1157698386918806e+000,
       3.2372888047496335e+000, -2.1965475950009696e+000,
       3.4324949775307045e+000, -2.6159313225963867e+000,
       3.3366833676669514e+000, -2.5419906587823058e+000,
       3.1721125900693621e+000, -2.1887341147952664e+000,
       3.2658839464925493e+000, -2.0743942288357577e+000,
       3.2272501033312850e+000, -1.6338025612275526e+000,
       2.9692497704393177e+000, -1.2104720743688504e+000,
       2.9224344110600380e+000, -1.1653706687226917e+000,
       3.0770676896345073e+000, -1.4213337403555302e+000,
       3.8253554878413762e+000, -2.4064907084781928e+000,
       4.1142351135580153e+000, -2.7970770565829159e+000,
       3.1373167905478891e+000, -1.6863446167353295e+000,
       3.1088250680614182e+000, -1.4772607442241616e+000,
       3.0646928449819719e+000, -1.4630982365863312e+000,
       3.3680239815512025e+000, -2.1372516540156488e+000,
       3.4935293036701278e+000, -2.4878149187260572e+000,
       3.5113791249656474e+000, -2.6409082671976933e+000,
       3.3880977951112574e+000, -2.5386850345258969e+000,
       3.2604813671616037e+000, -2.2980942416865178e+000,
       2.9721824497890714e+000, -1.9203440255293971e+000,
       2.9885794297948660e+000, -1.7723471490043152e+000,
       3.0281533800710250e+000, -1.3638704145922822e+000,
       2.8664101369396420e+000, -1.2731626371723150e+000,
       2.8060523917865914e+000, -1.3656872120428847e+000,
       3.3693129389075831e+000, -2.0325190007515910e+000,
       3.7974846960757285e+000, -2.6150958001981506e+000,
       2.9894438647438379e+000, -1.6033381453422875e+000,
       2.9018170355737141e+000, -1.4159877229067563e+000,
       3.0346500352117367e+000, -1.5257230401908182e+000,
       3.6057259743496584e+000, -2.2356202517252792e+000,
       3.8915905915823017e+000, -2.6954178825687469e+000,
       3.5260762880731402e+000, -2.5566034117682337e+000,
       3.5002296575458525e+000, -2.4162843896876942e+000,
       3.3934877650812623e+000, -2.3702310728225893e+000,
       3.1770488872301161e+000, -2.1256096712244288e+000,
       3.3834093681115824e+000, -2.0284322665379646e+000,
       3.2211156109808257e+000, -1.5721859538568059e+000,
       2.7954781101457731e+000, -1.3529125694277047e+000,
       2.7255121752916462e+000, -1.4061529629264891e+000,
       3.3183795439480792e+000, -2.0469999548016480e+000,
       3.9993288577708053e+000, -2.6809761152720446e+000,
       3.2162193312605312e+000, -1.8216591386354002e+000,
       2.9143683255629029e+000, -1.4354696662084656e+000,
       3.0188897041460838e+000, -1.5023684721609443e+000,
       3.0810805373950192e+000, -1.7089099596655819e+000,
       3.6081931548139781e+000, -2.1799285595558557e+000,
       3.6062294929031933e+000, -2.3177568248291074e+000,
       3.4100220603688856e+000, -2.1696410596409561e+000,
       3.3250797766756532e+000, -2.0252444855119234e+000,
       3.8165070655401898e+000, -2.2809787996769360e+000,
       3.4360752003606576e+000, -1.8813110363518046e+000,
       3.4471256850212373e+000, -1.7646018285706973e+000,
       2.7929363807773666e+000, -1.4045375025348865e+000,
       2.6342180709848528e+000, -1.4629173660186845e+000,
       3.1874767496799423e+000, -2.1696605310046149e+000,
       4.2083546674455041e+000, -3.0235072563859515e+000,
       3.3044412844517739e+000, -1.9815496862779867e+000,
       2.7843824061091200e+000, -1.4049471174594403e+000,
       2.9375437942522167e+000, -1.4751366835838915e+000,
       2.7995012768930962e+000, -1.4730441709879882e+000,
       2.8466783645146583e+000, -1.4954056651781871e+000,
       2.8123720023030021e+000, -1.5019704179311864e+000,
       2.8638239636207161e+000, -1.4817481456960553e+000,
       2.9008276236171535e+000, -1.4681771833476440e+000,
       3.3813195106761973e+000, -1.5689373562991673e+000,
       3.8909155428874613e+000, -1.7637524641021165e+000,
       5.0264322961253702e+000, -2.2112330887304505e+000,
       3.2854447425406281e+000, -1.4809723988952155e+000,
       3.1104737759685799e+000, -1.6637997801876652e+000,
       3.6377301028812203e+000, -2.4433852907718432e+000,
       4.1574602880333655e+000, -3.1115361272323692e+000,
       3.1952708757424593e+000, -2.0383819425406187e+000,
       2.8039879936931213e+000, -1.4802820279615385e+000,
       2.6632282421383748e+000, -1.4047622389872982e+000,
       2.5857111833024038e+000, -1.4030311336772390e+000,
       2.9058279283012958e+000, -1.5672007258641376e+000,
       3.0031392096834395e+000, -1.4854772094477431e+000,
       2.9751262664291303e+000, -1.4850741404413996e+000,
       2.8963298702012858e+000, -1.3236319853522232e+000,
       3.1294006720220673e+000, -1.2989810387592817e+000,
       3.4736750025935139e+000, -1.2452950038425763e+000,
       5.0972237751547054e+000, -1.7417083766615207e+000,
       4.3606574017610757e+000, -1.5049632524228276e+000,
       3.6413306696531427e+000, -1.7653284973934449e+000,
       3.7813792655260929e+000, -2.4680133670717610e+000,
       3.8291884154808948e+000, -2.7588275224899323e+000,
       3.0082998459794372e+000, -1.8947657822792419e+000,
       2.7227287278650230e+000, -1.4957156851663047e+000,
       2.6672661619383380e+000, -1.4875123146830980e+000,
       3.1303355818922385e+000, -1.8914244700985032e+000,
       3.2882610356034316e+000, -1.8787980834507061e+000,
       3.1847336444822907e+000, -1.7678635495816351e+000,
       2.8028120761430473e+000, -1.4713628117013828e+000,
       2.8894017615966554e+000, -1.4755029250961034e+000,
       2.9840747050322070e+000, -1.2361202602521804e+000,
       3.2371307616778178e+000, -1.1044210214871775e+000,
       4.3908576109807997e+000, -1.2454318341734221e+000,
       4.5041580888164106e+000, -1.2994798569418824e+000,
       3.7264495662657473e+000, -1.5474579028672690e+000,
       3.9583087946656166e+000, -2.4122678275756018e+000,
       3.5634527472951003e+000, -2.6632040586371803e+000,
       2.7090912548679222e+000, -1.6819149968641596e+000,
       2.4989954825318481e+000, -1.4513287672644928e+000,
       3.1603923770818994e+000, -2.0192944204634178e+000,
       3.7942862255562662e+000, -2.5396139310227670e+000,
       4.0381992831902940e+000, -2.6924894630681582e+000,
       3.5926219228731506e+000, -2.3046816620004180e+000,
       3.3831764747398569e+000, -2.1194674533878373e+000,
       3.1672825328062042e+000, -1.7248020321359914e+000,
       3.4981375510379014e+000, -1.7641715627717911e+000,
       4.0951061157631417e+000, -1.7196658410232071e+000,
       4.8647623661559631e+000, -1.5522686759554118e+000,
       3.6462542333478734e+000, -9.7684723203449697e-001,
       3.3657707372185892e+000, -1.2485422475469310e+000,
       4.0283412732717707e+000, -2.1688145683171496e+000,
       3.2754626156140008e+000, -2.3977428493224937e+000,
       2.4869251081017345e+000, -1.5855971047004016e+000,
       2.4409772148851858e+000, -1.5053154080831119e+000,
       3.2498268500901770e+000, -2.1687911381920806e+000,
       4.1986018963133835e+000, -3.0612271275747780e+000,
       3.4220363087041856e+000, -2.4083169758866596e+000,
       3.2896359912856394e+000, -2.3169513356386844e+000,
       2.9304032238519042e+000, -1.9865163540947266e+000,
       3.2540438687022935e+000, -2.0609638765907801e+000,
       3.6892390390974352e+000, -2.1447161209003158e+000,
       3.8779301308352276e+000, -1.9451359608008665e+000,
       3.7565852258780499e+000, -1.4725655786567973e+000,
       3.5855790873792581e+000, -1.0363932480931848e+000,
       3.1734542795655258e+000, -1.1008366415505904e+000,
       3.8416938810881671e+000, -1.9714843697791875e+000,
       3.3159480772980552e+000, -2.3326995447451178e+000,
       2.5224175524952472e+000, -1.5785199962333116e+000,
       2.5721916405778353e+000, -1.5688173989250733e+000,
       3.1776120718130434e+000, -2.0765835471171283e+000,
       3.1378422520329523e+000, -2.2731241851649044e+000,
       2.8605990129770915e+000, -2.0791759181365017e+000,
       2.6956217048949296e+000, -1.9315783164174485e+000,
       2.9705917369231227e+000, -2.1125090061900118e+000,
       2.9073994453057126e+000, -1.9664804664896043e+000,
       3.3182153629429165e+000, -2.1679988798443182e+000,
       3.3489633296812178e+000, -1.9653655154596390e+000,
       3.3518303687167390e+000, -1.3835788610822426e+000,
       3.1087778395034631e+000, -9.9959309037318766e-001,
       3.2578688977282830e+000, -1.2189410842345445e+000,
       3.6267389813468465e+000, -1.8617353591269112e+000,
       3.5060481041997509e+000, -2.2755067818460284e+000,
       2.9145135456088971e+000, -1.6186248477955776e+000,
       3.1203918489776323e+000, -1.6504320540678348e+000,
       3.5132297400825747e+000, -2.0151232100436496e+000,
       3.7131678341998966e+000, -2.5561364311806769e+000,
       3.2152946991872038e+000, -2.4500543863474911e+000,
       3.1465672978131991e+000, -2.3726665309294499e+000,
       3.0704979677935595e+000, -2.2282630093458562e+000,
       3.9593525293113085e+000, -2.9955073821402549e+000,
       3.6816425115218068e+000, -2.6642146946130207e+000,
       3.7088664157691480e+000, -2.2892469294613478e+000,
       3.6527057276520618e+000, -1.6596426517773282e+000,
       3.2054069020241100e+000, -1.0819179476435088e+000,
       3.1005666314176490e+000, -1.1609451567759757e+000,
       3.6694715190001261e+000, -1.9927576259285860e+000,
       3.6567454695549015e+000, -2.4169936082153023e+000,
       3.0941555228710031e+000, -1.5997914901952501e+000,
       2.9873441664218241e+000, -1.4264657291520471e+000,
       3.2616203721052912e+000, -1.7983970038915889e+000,
       3.8058902803144661e+000, -2.4892456054986654e+000,
       3.6881511985586917e+000, -2.7619168612080442e+000,
       3.6527905959686904e+000, -2.8502456200312150e+000,
       4.0861296346138554e+000, -3.2745485515774373e+000,
       4.6040709485879940e+000, -3.7333256995308246e+000,
       5.1288131717187317e+000, -3.8948353925202799e+000,
       4.5548183523992138e+000, -2.7704215587834691e+000,
       3.7612960864677865e+000, -1.7209606754625906e+000,
       3.1132796496606971e+000, -1.1129096401584011e+000,
       3.1389476941133756e+000, -1.2447662250564739e+000,
       3.7816563591523518e+000, -2.2508494806569406e+000,
       3.5848383674881918e+000, -2.3781165437009655e+000,
       2.8781926122660608e+000, -1.4851095977495183e+000,
       2.6967419697897825e+000, -1.2566678381126877e+000,
       3.0015917731957180e+000, -1.4983670805493774e+000,
       3.2079524424516999e+000, -1.8832308384329290e+000,
       4.0383565519538029e+000, -2.9163983843879353e+000,
       4.6255815630953689e+000, -3.6870586125683085e+000,
       5.1257752389012552e+000, -4.3335684434279331e+000,
       4.6900813275203825e+000, -3.7050079026804674e+000,
       4.6136154797619664e+000, -3.1657064228420939e+000,
       4.2672138205231711e+000, -2.3116840736469833e+000,
       3.3846229749527694e+000, -1.4875485442574838e+000,
       3.0739788482138404e+000, -1.1218806329490827e+000,
       3.0820234453627000e+000, -1.3866121119062504e+000,
       3.8048305343306938e+000, -2.4021262743360277e+000,
       3.6043926152566490e+000, -2.4839601245102276e+000,
       3.0610268994807512e+000, -1.6701284901977007e+000,
       2.7192997379160220e+000, -1.1600135050931113e+000,
       2.7627553810226626e+000, -1.0800671549882195e+000,
       3.3913409348361658e+000, -1.6010388276880416e+000,
       3.6660235640963847e+000, -1.9560046775252493e+000,
       3.9251282206237277e+000, -2.4814509554844690e+000,
       4.1202521826017939e+000, -2.6785811243799569e+000,
       4.0098106613158473e+000, -2.4479831039773061e+000,
       4.5904835963211861e+000, -2.2392548704390012e+000,
       4.8990278743970590e+000, -2.0172805821427664e+000,
       3.7912522020633399e+000, -1.3180726072527220e+000,
       3.4077056581143457e+000, -1.2558309761616635e+000,
       3.9404802738097064e+000, -1.9027199786202971e+000,
       4.1918822289981064e+000, -2.7652735724435580e+000,
       4.0588883882101578e+000, -3.0741711119526931e+000,
       3.4119920951802145e+000, -2.1634067678068547e+000,
       2.8959206797290609e+000, -1.3444725859302311e+000,
       2.8024940522983615e+000, -1.0517610343757156e+000,
       2.9349453882783632e+000, -1.0811107453192446e+000,
       3.2141417342439853e+000, -1.3574744786300608e+000,
       3.2481391974164961e+000, -1.3861048419035433e+000,
       3.3350307377289607e+000, -1.4775926726905324e+000,
       3.3942588282427950e+000, -1.4788806607311791e+000,
       3.6323535035783134e+000, -1.4644027928797285e+000,
       3.6484861371578852e+000, -1.1552904280354552e+000,
       3.9167021398251523e+000, -1.3593535152081604e+000,
       3.6119279782232252e+000, -1.5249313508280407e+000,
       3.6829930578496666e+000, -2.0700676988238320e+000,
       3.9145685252685101e+000, -2.8514263179597621e+000,
       3.8646561163879007e+000, -3.1369299306449672e+000,
       3.4332550316071297e+000, -2.4366360315055160e+000,
       3.2450656482400722e+000, -1.9050584085718525e+000,
       3.1381332172210117e+000, -1.4319222318735065e+000,
       3.0702881880368236e+000, -1.2277334390052415e+000,
       2.9965817283757703e+000, -1.0852569063271502e+000,
       2.7550195255142307e+000, -8.3764322334274433e-001,
       2.8490689677931758e+000, -8.3969279955429255e-001,
       2.8756034152854761e+000, -8.8922097269335398e-001,
       3.3627287598425042e+000, -1.2536554373844166e+000,
       3.7580809678418099e+000, -1.5072350102196934e+000,
       3.6791773149532845e+000, -1.6143058020011614e+000,
       3.2963067558501371e+000, -1.8107519354541655e+000,
       3.2356709666370587e+000, -2.1324059726240865e+000,
       3.7685467734073343e+000, -2.8552761891967862e+000,
       3.7893380842286906e+000, -3.1907703609116114e+000,
       3.7005877029023937e+000, -3.0125202839110425e+000,
       4.0566284411244027e+000, -2.9803388142499312e+000,
       4.1057281563001276e+000, -2.6420224375155636e+000,
       3.6813455111993738e+000, -1.9928181858709118e+000,
       3.6384605259056131e+000, -1.7415166198728400e+000,
       3.4817907474904422e+000, -1.6078625674259408e+000,
       3.5397045185918512e+000, -1.6566588846825205e+000,
       3.6676105712723603e+000, -1.8079682692036403e+000,
       4.1221766343841066e+000, -2.1031550318658629e+000,
       4.3929798438131087e+000, -2.5533863177729903e+000,
       4.2555893844322261e+000, -2.7238113244290791e+000,
       3.7723087048988715e+000, -2.6507405361366585e+000,
       3.6227708779692054e+000, -2.7598090130609254e+000,
       3.6166574046470452e+000, -2.9518198883125200e+000 ]
   output_scale: [ 5.2631578947368418e-001, 4.9999999999999994e-001,
       5.2631578947368418e-001, 4.9999999999999994e-001,
       5.2631578947368418e-001, 4.9999999999999994e-001,
       5.2631578947368418e-001, 4.9999999999999994e-001,
       5.2631578947368418e-001, 4.9999999999999994e-001,
       5.2631578947368418e-001, 4.9999999999999994e-001,
       5.2631578947368418e-001, 4.9999999999999994e-001,
       5.2631578947368418e-001, 4.9999999999999994e-001,
       5.2631578947368418e-001, 4.9999999999999994e-001,
       5.2631578947368418e-001, 4.9999999999999994e-001 ]
   inv_output_scale: [ 1.8999999999999999e+000, -9.4999999999999996e-001,
       1.8999999999999999e+000, -9.4999999999999996e-001,
       1.8999999999999999e+000, -9.4999999999999996e-001,
       1.8999999999999999e+000, -9.4999999999999996e-001,
       1.8999999999999999e+000, -9.4999999999999996e-001,
       1.8999999999999999e+000, -9.4999999999999996e-001,
       1.8999999999999999e+000, -9.4999999999999996e-001,
       1.8999999999999999e+000, -9.4999999999999996e-001,
       1.8999999999999999e+000, -9.4999999999999996e-001,
       1.8999999999999999e+000, -9.4999999999999996e-001 ]
   weights:
      - [ 1.2297846009029074e-001, -5.7854125063570717e-002,
          1.9376461886690363e-001, -4.8492389756133826e-002,
          -8.0021848208841909e-002, -1.1294535349337508e-001,
          4.3193193132071234e-001, 1.4688777260242428e-001,
          -1.3651141900605719e+000, 9.1554999139334015e-002,
          3.2064278303938643e-001, -8.4378570348505821e-002,
          1.7609294508553064e-001, 1.7356045631573930e-001,
          -9.8043833549206705e-002, 2.6961499624520069e-001,
          -5.7862542658477879e-002, 7.4894506610024225e-002,
          -1.1514417571247325e-001, 2.0447476474040996e-001,
          2.8207973874302329e-002, -1.3653717610714096e+000,
          9.3602297203938589e-002, 3.2947972562723160e-001,
          -1.1863565572397017e-001, -1.1111949289244721e-001,
          1.7158800750800790e-001, -9.7495102273137457e-002,
          2.7235050772557540e-001, -4.6458494630774769e-002,
          6.6141640428111922e-002, -6.6837797721574360e-002,
          2.0297176822583221e-001, 3.6971856867279364e-002,
          -1.0305094173254399e+000, 6.6874609519258152e-003,
          3.3174274990599162e-001, 4.6541702666387692e-003,
          -1.1040940709255412e-001, 1.7300269335385260e-001,
          -1.0118492495025422e-001, 7.4182110967410522e-002,
          -1.6226860903673576e-001, 1.8644218079174157e-001,
          -7.9613068881394744e-002, -8.4864843123691774e-002,
          4.7370351707853683e-002, -1.5195317285391903e+000,
          5.4624104134694193e-003, 1.3062487980262902e-001,
          1.3521649522420220e-001, -1.4839228855045988e-001,
          1.7728516987060844e-001, 1.8751523790798719e-001,
          -3.1890948374084828e-002, 1.1260805618423567e-001,
          1.8158144678596599e-001, -8.6764702709531960e-002,
          6.2785961198682044e-002, 2.8505454689569082e-002,
          -3.0494021481890615e-001, 1.2617968770512779e-002,
          9.5632648994890795e-002, 1.3198051745354855e-001,
          1.1301947405507215e-001, 1.6088185492409168e-001,
          2.2762907894884141e-001, -4.5038743400103706e-002,
          3.0108197092111055e-001, 2.9650425405332004e-001,
          -4.8936690647004337e-002, -1.2216770497873700e-001,
          3.7960277162287753e-002, -2.5580597389283971e-001,
          7.5699373482139339e-003, 1.3367392120094521e-001,
          -1.1829843516020201e-001, 1.4140282110584679e-001,
          1.8942815133779695e-001, 2.2799902510386538e-001,
          -2.5195411369831236e-002, 2.7349167883471587e-001,
          2.9844626415067543e-001, -1.4802093125316507e-001,
          -1.1088948655115981e-001, -2.5991929479718342e-002,
          -4.4096978338429299e-001, -1.8028982829103468e-001,
          1.3569143895176214e-001, -9.2035078847885934e-002,
          1.4205341162667379e-001, 1.4834250839650542e-001,
          2.2205260366591922e-001, -3.1396892773164681e-002,
          2.7103854779088354e-001, 3.0559806767248265e-001,
          -1.6079309652262330e-001, 1.0178811396242819e-001,
          -1.8307048338599732e-001, -1.8081103443344207e-001,
          -1.7052042328692066e-001, 1.3731579261565549e-001,
          -1.8583357518627933e-001, 1.5557140335128211e-001,
          4.2276273696614908e-001, 1.4057348614060258e-001,
          -2.6614540789521281e-002, -8.1120600393644923e-002,
          2.9981929014005976e-001, -1.9488865170290173e-001,
          1.0926001036699799e-001, -1.9634111221061840e-001,
          -4.6229652599779525e-001, -9.8313658354138196e-003,
          1.3035387776038970e-001, -5.9092980052811361e-001,
          1.5712980375310431e-001, 1.5098793899484431e-001,
          1.3825274181361774e-001, 1.0778743591865954e-001,
          -8.1230470789101256e-002, 2.9081765224017081e-001,
          -1.5975226929267919e-001, 5.7379282602201642e-001,
          -1.6809602683383840e-001, -4.1377970598950942e-001,
          -1.7767363639083708e-001, 1.3359693966111527e-001,
          -5.8923746718641579e-001, 1.6745533339369151e-001,
          -5.6996906019560722e-001, -3.0640092492552473e-001,
          -1.2712437901780346e-001, -2.0782630146589684e-001,
          1.7517134981124882e-001, -6.5877746146123950e-001,
          3.1227946678902113e-001, 5.1266230200502728e-002,
          -3.2058055931552543e-001, -3.4538651071584769e-002,
          5.1137632416909315e-002, -7.3448504372826545e-002,
          -1.1032846199083329e-001, -1.1764246240331235e-001,
          -2.3077764491619521e-001, -7.6254586741283464e-002,
          -1.7352491938733774e-001, 5.0357183826045726e-001,
          -4.0595891685450058e-001, 2.1303621051251717e-001,
          -1.4703522005869657e-001, -6.2836168549323135e-001,
          2.3743915788763689e-001, -1.9758265302087616e-001,
          -3.3841769780271404e-002, -1.0773550619122568e-001,
          -1.1378893265559252e-001, -2.7653541304297141e-001,
          -1.8275956317132694e-001, -2.6695853770557457e-002,
          2.5925583922585765e-001, -4.6238623326574074e-001,
          2.0252337221867753e-001, -8.5941960871485229e-002,
          -7.1879419891605467e-001, 1.3331869595538871e-002,
          8.9227265302560671e-002, 6.9429725516593124e-003,
          -1.1209210035357248e-001, -1.0946571066594170e-001,
          -1.3359084148826963e-001, -1.8211976846077821e-001,
          -4.4804074242442239e-002, 2.6231125673299749e-001,
          -3.8677540581676467e-001, 2.0873615852983915e-001,
          -6.4095791616647899e-002, -2.2828098623036702e-001,
          1.0220976988891177e-002, 9.5061497426767311e-002,
          4.2188499368112739e-002, -1.1607934780259593e-001,
          -1.1501210819414619e-001, -2.2894656770979894e-002,
          -2.6675634109920649e-002, -4.6442414118104895e-002,
          2.5864769675479166e-001, -3.9077997969752964e-001,
          1.2509877414531279e-001, 3.3146222188831370e-002,
          -1.5013924962612013e-001, 9.8358494220568207e-003,
          9.5154698138343680e-002, 1.2478163790459868e-002,
          -1.4225252452607096e-001, 2.6315000078106665e-001,
          -9.8076099179415996e-002, 1.8379676613570708e-001,
          -4.7381871252144249e-002, 1.1746167674377818e-001,
          -1.8506155710302102e-001, 6.7833230462213456e-001,
          1.3696559640163594e-001, -1.7695783547547661e+000,
          9.2100146488484705e-002, 3.2807525335240306e-001,
          -1.1896099603696067e-001, 4.2595679058722115e-002,
          1.8101637898231754e-001, -7.4937417321501554e-002,
          2.8091433493253809e-001, -4.5362974595756049e-002,
          -7.7312811872041601e-002, -8.0748645419008086e-002,
          -1.3370855086441641e-001, 1.4681855947010311e-001,
          -1.5117211411055627e+000, 8.9701911850884622e-002,
          3.2959416948481812e-001, 1.1731586480880016e-001,
          -1.1009855086351347e-001, 1.7944172142557524e-001,
          -8.1147992108762015e-002, 2.4106246618693897e-001,
          -2.3759704943467028e-001, 2.3821463789176309e-002,
          -1.6702849036955988e-001, -1.2485000721338707e-001,
          5.1497978233869909e-002, -2.1672890520894178e-001,
          -4.0450769893716126e-002, 2.1529417346703877e-001,
          1.4317920458466166e-001, -1.1908301661227924e-001,
          -1.5982347556790611e-002, 5.4737387848998320e-001,
          3.7408047080377099e-001, 2.0653382369713905e-001,
          1.5176396967961161e-002, -1.8691384197510430e-001,
          -1.2495151367408884e-001, 6.7883962298058195e-002,
          -2.6819003564595084e-001, 1.3765822939330190e-002,
          8.1321678058048935e-002, -3.3958672943771730e-002,
          -8.8915268203330899e-002, -8.6111674038444330e-003,
          5.4639608235459425e-001, 7.8458521874950427e-001,
          2.0676176436032317e-001, 2.1924324370926462e-002,
          -1.8235680921504327e-001, -1.3080463319971658e-001,
          -1.6832859499882719e-001, -2.7257554247061527e-001,
          1.4565757137607976e-002, 3.2951664437911732e-001,
          -2.8991456650489224e-002, 7.8865984574231131e-003,
          -1.2459356543551726e-002, 5.4416279985699456e-001,
          3.7576143597520478e-001, 1.1754325129227518e-001,
          1.6331750193152413e-002, -2.3015136483294429e-001,
          -1.3018281021578970e-001, -1.7167672092429054e-001,
          4.7851727051526974e-002, -3.3121417006905540e-001,
          2.1554316688438274e-001, 1.2791951995420961e-001,
          1.5937884407711447e-002, 1.1129128598952305e-001,
          1.2660046737351091e-001, 3.0234821735745260e-001,
          1.3617550925852637e-001, 1.5290640302678082e-002,
          -2.3440764268699457e-001, -1.4573907798896404e-001,
          -1.0415896513066623e+000, 2.3116871327938918e-001,
          -3.3007356782045805e-001, -6.5261924921838719e-003,
          5.4115714995976859e-002, 2.0640284672676121e-001,
          4.0546752401886638e-001, 3.4706128333715325e-001,
          2.3948925979570798e-001, 2.1380680887591524e-001,
          1.5462735469527863e-002, -2.2648791296929863e-001,
          -1.5210098273837505e-001, -6.4687611729469152e-001,
          2.3952305708466595e-001, -3.2769726012369393e-001,
          -6.5027650950841374e-003, -2.6539307812426682e-001,
          1.1263229277744610e-001, 5.6763734800900700e-001,
          1.1424121081824426e-001, 2.2566583365549139e-001,
          2.1947604381393584e-001, -7.6692013045153856e-002,
          6.8795880800286823e-003, -2.5597166375034036e-001,
          -6.1484052359351404e-001, -4.8897824199024442e-002,
          9.6304354064284989e-002, -5.7753995929799139e-003,
          1.7261581581481569e-002, 1.0165604958387411e-001,
          -1.8180152501527221e-002, 1.5546715238274911e-001,
          1.0390308725808033e+000, 2.0544396749235744e-001,
          1.7878590551222395e-001, 2.6461846632102599e-003,
          -8.8592989378116615e-003, -2.0998895186907782e-001,
          -3.4949242794010976e-001, 2.3707610603592061e-001,
          2.7592446925339170e-002, 1.4103171885162036e-001,
          -3.5995310287409576e-001, -1.2485068048651949e-002,
          -4.5476569885435338e-002, 8.6881477203083857e-001,
          -2.3646250596264226e-001, 1.4683676775280579e-002,
          -3.8497571640585077e-001, 1.6319270597905089e-001,
          -1.8121637215549205e-001, -9.3894546914282770e-002,
          1.5895311640735890e-002, 3.7683679928712674e-002,
          1.1699970880704453e-002, -3.8943528232388519e-001,
          1.7549720669172952e-001, -1.2969289283473498e-001,
          2.6825607871031432e-001, -2.4343036500602377e-001,
          1.7526522579435005e-001, -3.1055524475958585e-001,
          1.5842823376730508e-001, 3.5371867507782574e-002,
          -1.1901347693538819e-001, 1.4901733235282943e-002,
          8.8911651126077296e-002, 6.0080539139586320e-003,
          -1.1271946118073700e-001, -1.1038472568660466e-001,
          -1.2874006752796155e-001, -3.6352298743322561e-002,
          -2.3948878980279459e-001, 1.8535031495575122e-001,
          -3.0532785533052342e-001, 1.5874352775649053e-001,
          -9.4129822385140255e-002, -1.8917569714786053e-001,
          9.3990210902562647e-003, -3.1759483575900815e-001,
          4.2864408878410261e-002, -1.1491896703232130e-001,
          -1.1713930026927453e-001, -9.8293172336834794e-002,
          -3.6740990014727443e-002, -4.6826635830506183e-002,
          2.5807946682072008e-001, -2.5135881568707030e-001,
          1.5452218434009490e-001, 4.2180284309618322e-002,
          -1.8299059333739914e-001, 1.4585453421239968e-002,
          2.1019948202253441e-001, 4.4666215964990083e-002,
          -1.1020569772830369e-001, -1.0933893482365815e-001,
          -9.9305322509587790e-002, -3.3310716841569395e-002,
          -5.5088240839755866e-002, 2.5648363689927856e-001,
          -8.0211487022117622e-001, 1.2953401911058510e-001,
          4.2779052881768420e-002, -1.5293866796955274e-001,
          1.4581664494420797e-002, 9.5752396475635410e-002,
          2.4998662877878152e-003, -1.1962674443301821e-001,
          1.8447120827692126e-001, -1.9410979333171330e-001,
          1.0139756710249262e-001, 1.2307755672034112e-002,
          -6.5241924746339192e-002, -6.1626121255487804e-002,
          5.7253890085929418e-002, 1.0011823433804939e-001,
          -1.9201074164053022e+000, 4.1930922119366548e-001,
          1.2764379953191635e-001, 1.1582605392681761e-001,
          1.8255379152087908e-001, 1.8004957709236608e-001,
          2.3551177086960107e-001, 1.5110928277586777e-001,
          1.5227807462283782e-001, 4.3054290274523933e-002,
          -1.0344336263000960e-001, 6.4300280524450790e-002,
          6.3938634463573313e-002, -1.4161788572095728e+000,
          8.7527391900888749e-002, 9.2451529782612174e-002,
          1.1485830321127966e-001, 2.5145713515027618e-002,
          -1.7842443057882622e-002, 7.4196166272992026e-001,
          2.4080215968308216e-001, 5.5099631840328167e-001,
          3.4997346443076505e-002, -1.9671562142518856e-001,
          -1.1671043754779395e-001, 1.5053322566254135e-002,
          -2.7851439756019408e-001, -3.4319770163297364e-001,
          -1.1182826651762212e-001, 3.7567503148331800e-002,
          -7.1493456566563054e-003, -1.1160307262211098e-002,
          4.2635553190222408e-001, 8.7490641116165724e-002,
          3.6215330626678521e-001, 1.3803211833922902e-002,
          1.7516071101797667e-001, -9.7132985824094395e-002,
          -5.3682816045585668e-001, -1.0881218450784468e-001,
          -4.5922718056907691e-001, 1.2880137202197711e-001,
          1.0262403108247237e-001, 3.5128266756115523e-002,
          1.9085587765231012e-002, 1.2404470486204076e-001,
          1.8894879713748772e-001, 9.7535315002546655e-002,
          1.6182272468204159e-001, 7.3230681033544130e-003,
          2.5620611225072407e-002, -7.4507581336048134e-001,
          1.4802843613513747e-001, -4.5276057080296156e-001,
          2.0267296457966213e-001, 3.3500815411423954e-002,
          -2.6755856912009504e-002, 6.9347353336784795e-002,
          3.7303465988813250e-001, 3.2909283552186541e-001,
          1.7900115897342128e-001, 1.0109788795033331e-001,
          1.6494845938091519e-002, -2.0515423898717422e-001,
          -2.3590779516301673e-003, -3.0116744352844699e-001,
          -4.4521073556141216e-001, 3.4071759521292511e-001,
          -2.0287634267692853e-002, -3.8672559425711839e-003,
          6.9580687517722201e-002, 7.5512305164249427e-001,
          8.2832865567194228e-002, 9.3350023426654286e-002,
          9.1633053381196261e-002, 7.9577169110865327e-003,
          6.6031269370827239e-004, -2.6944356542323039e-001,
          -3.0378736445234428e-001, -4.5555921662793303e-001,
          1.6838235660253326e-001, 1.1302246386267249e-002,
          -9.0359694422161865e-002, 2.1303172819500943e-001,
          5.8341400150896970e-002, 2.0215088205771614e-001,
          -6.1047831508285137e-003, 6.8543447040529115e-002,
          1.6169057525235175e-001, -3.1918884831588978e-001,
          -1.1308125393037030e-001, -4.4490124944419190e-001,
          5.5422617284852892e-002, 1.4650769718961748e-001,
          1.3868334185208803e-001, 2.6275546769427832e-001,
          2.8298708063865285e-001, 5.9600984397501798e-002,
          3.9745409104340190e-001, 1.6893648092500203e-002,
          -3.5678662596218401e-002, 1.6092330189479809e-001,
          -1.3114874025532821e-002, -3.3043379684085897e-002,
          -1.6821159682834511e-001, 6.4834283510747215e-002,
          1.3829147656761603e-001, -2.4058513040169544e-001,
          2.5458112547072470e-001, 9.2714704253726354e-002,
          -1.2760771029938192e-001, 6.0581492445941222e-002,
          -5.5820490782920160e-002, 6.6399920276878407e-003,
          -3.9969945169571719e-001, 2.6970007649808803e-001,
          -5.6701890931658810e-002, -1.4375650348062252e-001,
          5.4318550561949751e-002, -7.7246237671215343e-002,
          -2.9066819974228403e-001, 1.4913690653177164e-001,
          -1.0443125648445526e+000, 1.5886987084072607e-001,
          6.3242923330147593e-001, 2.0423084018195931e-001,
          9.0604230527385976e-002, -4.0711108512590799e-001,
          8.4585009167799513e-002, 2.2915549714309361e-001,
          2.2546398873518522e-001, -3.6411379635502700e-002,
          -2.4414728959028539e-001, 9.7375973310849344e-003,
          1.5295753573079843e-001, -9.6742461129629242e-001,
          -1.0481456662108384e-001, 1.7333117826508157e-001,
          -6.9760823384524703e-002, 1.5111515622247629e-001,
          -4.0799645719850319e-001, 7.1862062905916280e-001,
          -3.1544208859613232e-002, 1.2442387532305439e-001,
          4.1187022264149342e-001, -3.1995528316465516e-001,
          1.5078864264433811e-001, 2.0950692663502213e-001,
          -1.1057070261803018e-001, -1.7422466572523965e-001,
          1.5027084593154921e-001, -2.3575127520961583e-001,
          5.1949088666742277e-002, -1.4765773157902364e+000,
          5.4923726907534054e-001, 3.9603623829095630e-002,
          -2.2757610846223703e-001, 1.2912145172508282e-002,
          -4.4045717308089073e-002, 6.7535179834892364e-002,
          4.8002830534623547e-001, -1.5856362450977038e-001,
          -9.1405015301144088e-002, 3.8345399312912026e-001,
          -1.0353987339979674e-001, 5.0667728293670444e-001,
          -7.4167448391917079e-001, 1.6001370021634259e-001,
          4.9741810111680107e-002, -2.4201860536409361e-001,
          1.0572372488179434e-002, 8.8854323841876109e-002,
          4.8054304847371138e-001, 1.4370476720785835e-001,
          -1.1513294628245503e-001, -1.2403545846010491e-001,
          6.7877867572176301e-002, -2.8863792346955804e-002,
          2.6315977555441483e-001, -4.1156404299586874e-001,
          1.5858719314806086e-001, 6.1117885904823158e-003,
          -1.4595035030640419e-001, 1.1472726391543488e-002,
          5.5625784447009788e-002, -9.3526101244000792e-002,
          -1.2172099952529059e-001, 4.1391364874134341e-002,
          2.0670638982146447e-001, 2.0417244872213075e-001,
          6.2069816071564740e-002, -1.2190237909215643e-001,
          -5.1692819867187122e-002, 6.7058632287692557e-002,
          1.2959075033121498e-001, -3.5109465051395422e-001,
          1.2844483289701988e-001, -1.5448039440707409e-001,
          -1.7561069565074031e-002, -4.4443495669594074e-002,
          -1.6128295629575913e-002, 2.7347956604930174e-001,
          -8.9663949300014145e-002, -5.2726176439043752e-002,
          -4.0076512547464478e-002, -9.9009565820231252e-002,
          6.2319749028478193e-002, -2.2109965573364748e-001,
          2.3294720910558153e-001, -2.2867878934767777e-001,
          -4.5597924022895975e-002, -3.8452466046270083e-002,
          2.4713188017690868e-001, -1.2016693497423878e-002,
          4.7297769467627576e-001, 1.9307109113362031e-001,
          3.9407660823172881e-002, -1.6034015126132536e-001,
          -1.4594785440949293e-001, 2.1845960492106703e-001,
          -5.9102666259618453e-001, 2.0771753752071173e-001,
          -3.5785666955943297e-002, -2.9957468152938593e-001,
          -8.8692277079061299e-002, -4.1052231714376546e-002,
          1.1878828807705583e-001, 4.1858638380345425e-001,
          1.9887353119698284e-001, 4.0137538047445721e-002,
          4.9923879605789714e-003, 1.6714116328528886e-001,
          -3.2602974211706753e-001, -1.3254563448775147e+000,
          1.5383194225820165e-001, -3.0167115662828103e-002,
          -1.5559273781913784e-002, -1.3659381803565740e-001,
          -4.1203540010362340e-002, 2.8562546510996056e-001,
          7.1583686814954184e-001, 6.7396280181366386e-001,
          3.9198562039548475e-002, 7.7449044531611125e-002,
          4.2033518231015971e-001, -3.1353383801672235e-001,
          -6.4677065902874176e-001, -3.7208228994051406e-003,
          -2.4133527372551321e-002, -7.1614480247581902e-001,
          -9.2411676232889414e-002, 1.1774536640920741e-001,
          2.2014342942690601e-001, 8.4608972912299463e-001,
          3.3055976944630105e-001, -1.3310862964223157e-003,
          -2.3347660116331320e-001, 2.1072781521606649e-002,
          -1.8161566601151788e-001, -1.1227002233287102e-001,
          1.4319102457634025e-001, -3.2090209726895004e-002,
          2.3514263534618676e-001, 9.7148136399747217e-002,
          5.5967078426398287e-001, -4.7683522077505182e-002,
          4.6062432947758872e-002, -6.3355305007305407e-002,
          3.2818217376153791e-001, -1.5147021486534485e-002,
          -3.7163838185431791e-001, -1.3262344698644474e-001,
          2.3945270808471419e-001, -3.8636872404040129e-001,
          5.6554974247007350e-001, 6.3484220028314567e-003,
          -1.8458361619299757e-001, 7.9153600936390747e-002,
          -5.4375309232670678e-002, -4.9368686433680004e-002,
          1.3793967109662292e-001, -9.5197883973641664e-002,
          1.4363028238039210e-001, -3.7114243706240474e-001,
          -1.2074306226299061e-001, 4.2308338540978596e-001,
          -2.9380404705012980e-001, 3.8932822988408916e-001,
          6.7967516053868485e-003, -2.3371514863236797e-001,
          1.1033419707906156e-002, -1.1993021218380430e-001,
          -5.2434886370176029e-002, 3.5857832345566243e-001,
          -2.8048150581922025e-002, 2.3611545118597294e-001,
          -9.6122356773406414e-002, -8.2548874745087125e-002,
          -1.1073374584217453e-002, -1.9534396407245963e-001,
          5.6257333988895686e-001, -4.5920514882215924e-001,
          -2.1297652823409940e-001, 2.3108384768780483e-002,
          -9.7627122279180079e-002, -1.5288183206008254e-002,
          -1.7101130816573912e-001, -8.3877412534628812e-002,
          3.3751282264494736e-001, -2.2589518104295522e-001,
          2.5269520433800324e-001, 4.5382536915009319e-001,
          1.6281370300781034e-001, 2.4889560008628073e-001,
          -2.0399333624560481e-001, -5.1643152550649818e-001,
          2.7557068180480282e-001, -9.5267545493658068e-002,
          -1.5133488335520370e-001, 1.0653068291968938e-001,
          -6.2281978851741276e-002, 9.6421563392835835e-002,
          1.1534742740837552e-001, 1.2229687648958029e-001,
          9.2638003333238884e-003, 1.4150589220093324e-001,
          3.6186460399359793e-001, -3.1596490560089574e-001,
          -6.9838129667331705e-001, 2.7888933407164507e-001,
          -1.4927325129419586e-001, -1.3360455193825921e-001,
          3.5263765776793610e-001, 3.0546584068284172e-001,
          -5.5112425118520902e-001, -1.6195296880358229e-001,
          7.4819828695512014e-002, 2.4994461620184166e-001,
          2.5135919572441823e-001, 4.1156198859775800e-001,
          -3.8448114346969814e-001, 1.1086537270771379e-001,
          2.1194030925376453e-001, -1.7620811223729183e-001,
          -7.2125446469962440e-002, 8.0414472757027608e-002,
          3.2023713907168218e-002, 3.2426239483925347e-002,
          -1.5352625945582660e-001, 5.8667556273411012e-002,
          -3.4324722696420645e-002, 1.9251972866250711e-001,
          2.3470767721586230e-001, -1.0024527721786546e-002,
          -9.5182858208203158e-002, 2.5037926069924760e-001,
          -1.7272414259590052e-001, -6.5647589202979861e-002,
          1.4872811018815810e-001, -7.4165009690856015e-002,
          2.8124979568140904e-002, -1.5901461471852646e-001,
          6.4289605399526967e-002, -3.0332926815110701e-002,
          -9.0640763199278732e-002, 2.2903135972379426e-001,
          -3.2122129044445868e-001, -9.1251612827757244e-003,
          2.0591981155891292e-001, -1.0350309994859655e-001,
          -1.4752231586334458e-001, 1.8541877824834624e-001,
          -1.7085471615735268e-001, 8.2656825520044064e-001,
          -1.5723063146144147e+000, 5.4128453434302914e-001,
          3.3212945643524061e-002, -3.5634812572317615e-001,
          2.3756267990557869e-001, -3.8258446334026686e-001,
          -9.4279617563584939e-002, 4.8282189951344051e-001,
          3.3831007005468913e-002, -1.0249790125363517e-001,
          -1.0546473791390679e-001, -5.7874135299040196e-002,
          2.1770334626658230e-001, 1.0062013763552272e-002,
          2.4955668105066023e-001, 7.2975868044097647e-001,
          5.9324338725936586e-002, -3.4289717870652429e-002,
          -4.8794865809447759e-002, -1.2203433578618833e-001,
          1.6446517376751599e-002, 2.6052918795386109e-002,
          1.1505945876105318e-001, 1.8080330352159218e-001,
          4.3361791835801036e-002, 3.8257297439079914e-002,
          -6.5751453683806665e-002, -6.5944588696495354e-001,
          -1.7596677574448286e-002, 3.5284375065683972e-002,
          -1.6068157258697252e-001, -2.0767676619876260e-001,
          -3.6071623083835241e-002, 1.1322121781861488e-001,
          -1.4115333060821151e-002, 1.1978320721982801e-001,
          1.9150222882237569e-001, 4.0606366250004113e-002,
          -1.7872743561648213e-001, 3.0668432791049050e-001,
          -4.6078226433385588e-001, 1.7430347921465670e-002,
          1.6283594919090461e-001, -1.6097154278700859e-001,
          -1.7047366832665101e-001, -3.4489116928417100e-003,
          1.1295391846813330e-001, 1.1241555940419679e-001,
          4.2378576522770428e-001, 1.9941099359975908e-001,
          4.8072166222673858e-002, -9.8260698530101165e-002,
          8.9323908565443255e-002, -2.8353189896620856e-001,
          -1.9992350987119242e-001, 1.3026358054417797e-001,
          -1.5513726328022825e-001, -1.8065867973807545e-001,
          -3.6389465537133314e-001, -5.0910175661428386e-002,
          6.3961654402045265e-001, 1.4207848375976169e+000,
          1.2791118546877278e-001, -1.5672630207645498e-002,
          2.4310657966326286e-002, 1.0600401642005805e-001,
          -6.6355021424051308e-001, -1.5469148715560149e-001,
          1.2638906695872992e-001, -1.5629679617806902e-001,
          -8.2619465039840675e-002, 5.2138917203375837e-002,
          3.8354538245942921e-001, -4.5842539124823715e-002,
          4.6659001735331482e-002, -1.3730991967359979e-001,
          3.0668376613570393e-002, 2.3870676333166509e-002,
          1.0443151524021071e-001, 1.4451401930796293e-001,
          4.4058050280869371e-001, -9.4018678345086504e-001,
          -9.8001028728128894e-002, 8.5281228991454072e-002,
          -1.6846571292320459e-001, -3.4106552770995460e-002,
          1.2834664874171970e-002, 4.5177913119412702e-002,
          -1.4889887550984060e-001, -2.0770180363344815e-001,
          -1.2792295095562628e-002, 2.3913273351207073e-002,
          1.1994973161103897e-001, 1.0418485425830506e+000,
          -7.7920223396721347e-002, 9.0483321537820918e-002,
          -3.3044720554345103e-001, -1.7043215363859765e-001,
          -6.4647771987350694e-002, -2.3071315910075935e-001,
          -5.1258367205311572e-002, -1.3989414486932161e-001,
          -3.5859365645779635e-002, -8.5729042353484344e-003,
          2.3675702685444680e-002, 1.1889778703478190e-001,
          1.0329984144243740e+000, -4.8607354500592798e-001,
          9.6791522733053817e-002, -4.9712944422695970e-001,
          5.4690285926223183e-004, 2.2014047159942769e-002,
          -9.1572039517329312e-002, -9.1151770266376608e-002,
          -1.8148196767670510e-001, -5.2635889330304345e-002,
          1.1669848986184339e-001, -2.2281367313978737e-001,
          7.4831405352897284e-002, 4.0524684425536023e-001,
          -2.2025173238447207e-001, 3.3991904745001272e-001,
          -3.2411924162833045e-001, -1.9467838340618437e-001,
          2.6800458530914430e-002, -9.4542252659363890e-002,
          -9.8117653927081494e-002, -1.8475419813060479e-001,
          1.5791055923243780e-001, 3.4373224982382061e-001,
          -1.2773306097794654e-001, 9.0231314271145738e-002,
          2.7279667136417851e-001, -4.8086161453785004e-001,
          4.1724075609595740e-001, -3.2274514096397938e-001,
          -2.5293629727219458e-001, 4.1670375345434285e-001,
          -9.2696886333849926e-002, 2.8856817761846576e-001,
          9.5768883181703804e-002, -1.5114369925487109e-001,
          9.5692816278562950e-002, -1.9063861017823344e-001,
          3.8581139062952535e-001, 4.4370564463342455e-001,
          3.5174217283580422e-001, 1.7440288178528798e-001,
          -1.5189123031997490e-001, -8.7452743855010506e-002,
          7.7369312575023974e-001, 4.0019541334267147e-002,
          5.9363170972619884e-003, 6.4595264032750899e-002,
          1.0652410090393528e-001, -1.7436567966126046e-001,
          -3.2532631526676442e-001, -6.9174074775724403e-003,
          1.5190274562460285e-001, 2.5518470409554189e-001,
          1.3040848632895685e-001, -4.1214059039962703e-001,
          -2.6575382761639222e-002, 5.7197849067278106e-001,
          -1.5888350785820657e-001, -3.3601318009825987e-001,
          1.4404491844589351e-001, -5.2038359402273304e-002,
          -5.5209351979788768e-002, -5.5370984931749700e-001,
          -6.7855690519624673e-003, -4.7905197557501868e-002,
          3.2973106442404465e-001, 1.2735091509608037e-001,
          1.5078657385013193e-003, -9.5881451992933034e-002,
          2.6470585629900506e-001, -1.5213307402784618e-001,
          -7.1575715090094583e-002, -6.2350360661887011e-002,
          5.5812532277748184e-001, -5.4889917221868235e-002,
          -3.2425351778557249e-001, -5.3006606406413425e-003,
          3.7309088268750490e-001, 1.8454378595745552e-001,
          -7.0121382562241801e-003, -4.8931063137982025e-002,
          -1.1524278227259138e-002, 2.2450424925577084e-001,
          -3.4357863817336520e-001, -2.0377390937623219e-001,
          7.9756821439668807e-002, -1.9807202719147118e-001,
          6.6981649073331331e-002, -3.1678945278620568e-001,
          4.9870156122108905e-001, 6.8410795371755651e-001,
          -1.0031135044083124e-001, -1.3526874334079431e-001,
          -3.1645593005631573e-001, -2.4750788227812762e-003,
          1.7873045415379901e-001, 3.3792976553126006e-002,
          7.3349858571815654e-002, -1.1331931054539617e-001,
          -5.2971517523289317e-002, 3.7579893856279446e-002,
          6.0292468557823928e-002, -3.0196630895790716e-001,
          -2.0224099165808744e-002, 2.3901833323648944e-001,
          3.8333713260608054e-002, -2.1357660780078579e-002,
          -1.0831639816545370e-001, 1.1372167134056715e-001,
          4.7228612616554193e-002, 1.1115873455163930e-001,
          -2.2645420769749541e-001, 5.5872079751286184e-002,
          3.2146733187529787e-002, -2.3634988611232900e-002,
          -7.6127417996974311e-002, -1.7493804462167258e-002,
          2.1556047721872063e-001, -1.5587367152494441e-001,
          -1.9733060186304374e-001, -5.2609259083124665e-003,
          1.4675899988051627e-001, 1.1679488604969560e-001,
          4.1707917483293805e-001, 1.8170379991767782e-001,
          5.4019763963547976e-002, -1.7927946505465031e-001,
          7.4368483682662967e-002, -2.8613484071004613e-001,
          -2.0375045376506484e-001, 1.9735566598311172e-001,
          -1.5610702408607047e-001, 6.7440980975508977e-002,
          6.1553352778127221e-002, -4.2609223904456484e-002,
          3.1772296565583535e-001, 5.4294771915816942e-001,
          -3.0477224324779767e-001, 1.1561852513309955e-001,
          -1.0266341727180942e-001, 1.6474563417803742e-001,
          -2.9019280925964897e-001, -9.2148693497588710e-002,
          3.5675687850889748e-001, -1.5711817704631820e-001,
          -1.7541927444774033e-001, 1.2060548892280210e-001,
          1.1083674915379646e-001, -2.4763258136003049e-002,
          1.1563410185802381e-001, -5.6309667551968430e-002,
          1.7199011331886113e-001, 8.9848738143402260e-002,
          5.4534710393301510e-002, -5.6743116258218700e-002,
          -1.5409933667850279e-001, -7.4650535289890449e-002,
          -1.5412754937539963e-001, 1.9503047231039319e-001,
          9.1256921956687054e-002, 2.4000167633310915e-003,
          -5.2748275540676966e-002, 1.0713091634957889e-001,
          -1.8587093245735145e-001, -5.6553651101490049e-002,
          -1.9341455621822400e-002, -2.3946751082935022e-002,
          1.2901281545745272e-001, 4.4474468415258223e-001,
          -5.7154013923801383e-001, -2.3889820028003994e-001,
          -1.0636812682793952e+000, 3.8776773703804189e-002,
          4.0868388372822910e-002, -1.2019874417016203e-001,
          -9.6132767138972341e-002, -1.7933447456851104e-001,
          -4.9987156551668403e-002, -1.4086572725453404e-002,
          2.3145647665616795e-001, 9.4037227226283257e-002,
          1.0406091776759374e+000, -8.5478285333183890e-004,
          3.2834802106216338e-001, -2.9956051224041946e-001,
          8.1482815725129609e-003, -2.9299807707292808e-002,
          -1.2031950175654559e-001, -9.2949290809050789e-002,
          -1.7905319269811076e-001, -2.3296264866837155e-002,
          2.7493177806622621e-001, 2.2932519321977388e-001,
          2.3928575470474867e-001, 1.4217028227323067e-001,
          2.8145706156105219e-003, 1.0138015588901447e-001,
          -1.9698255690576735e-001, 3.3612374158350992e-002,
          2.7785712340276013e-002, -8.9662813661797985e-002,
          -5.1140381190499559e-002, -1.8857648309257385e-001,
          1.2284065960795221e-002, 3.3207548005985832e-001,
          5.2977018877025037e-002, 1.8335449219626002e-001,
          3.6191626937914112e-001, -2.5490722038438729e-001,
          4.1583195808724821e-001, -6.4570092903440990e-001,
          -1.1618721964929254e-001, 2.3596715562736327e-002,
          -9.3068081388089252e-002, -4.1979050917566324e-001,
          -1.5992317087022562e-001, -5.8597882113039811e-002,
          7.4007135436256488e-001, -2.2333236014829080e-001,
          4.0091910522964075e-001, 5.5285947325348661e-001,
          -2.0293034690364919e-001, 4.1552974092211908e-001,
          3.1413301301623470e-001, -2.0612741512096577e-001,
          3.7750980300678492e-002, -9.4202992063008362e-002,
          -1.8984171545612682e-001, -1.5715747066502025e-001,
          -5.0955813658999732e-002, 2.5672803466482585e-001,
          -2.4791214561961733e-001, 5.5019414062817618e-001,
          5.6746009024206061e-002, 2.7661910411091395e-002,
          1.5401051396776205e-001, 3.2894892778129053e-001,
          -4.9768640695347155e-001, 5.0868713949800071e-001,
          3.9557223628508248e-002, -3.2566750167541425e-001,
          4.2577426115511872e-002, -8.2263342667360587e-002,
          -1.7638412589902713e-001, -1.3242946575662326e-001,
          -8.0415325192079706e-003, 7.1944453806083844e-002,
          3.1280810681711085e-001, 2.2691059946413231e-001,
          -1.3834672452573089e-002, -5.4396418638231324e-002,
          6.2215184021147862e-001, -1.5725871674608574e-001,
          7.9708805781463182e-004, 3.3390847151094152e-002,
          -3.8695688962347635e-001, -5.8407997123200239e-001,
          -6.0285725134985313e-001, -1.1494469843830872e-002,
          2.6414614438761636e-001, 3.2722172453243736e-001,
          -1.3768059362342841e-001, -4.1089307572332874e-002,
          -1.8773672473032907e-001, 2.0298761243172014e-001,
          -1.5157753624538098e-001, 3.5333625992905460e-002,
          1.4340498728655263e-001, -4.3452352860319954e-002,
          -5.8137480800854990e-001, -8.8780348653518137e-002,
          3.0160008231762216e-003, 8.3603880447147527e-001,
          1.8745674678713009e-001, -1.7894367651824930e-001,
          -2.4203745095905432e-001, -1.5683248559848242e-001,
          1.9696833145620524e-001, -3.4019661559070535e-001,
          2.3092424315580021e-002, 2.5998831605778514e-002,
          -6.7928359018792539e-001, -2.1266332251518372e-001,
          -2.0001007040416369e-001, -1.4640578650310012e-002,
          7.0125597470848078e-001, 2.3762499931888673e-001,
          -9.0555428047457018e-002, -5.1023220244031067e-002,
          1.1524725507777596e-003, 2.0605742615607597e-001,
          -1.8367861630908131e-002, -1.3637451376064283e-001,
          -6.9070960275231474e-001, 2.1577558326524268e-001,
          3.7781935476614549e-002, -1.7998559308290274e-001,
          -2.0761491712118577e-001, -1.8547474937514966e-002,
          3.8897815912194994e-001, 3.1925917202809843e-002,
          -1.4668515877909048e-002, -3.7854186619516289e-001,
          1.5002930808466980e-001, 4.0573830357767715e-001,
          1.9808807641881013e-001, -1.1834299417867017e-001,
          2.4147422549419936e-001, -1.2574215519964091e-002,
          1.0932377796188567e-001, -7.5325739498787236e-002,
          -2.1422136411612384e-002, 3.8815881583382089e-001,
          3.9186754065866136e-002, -3.1950310389510744e-001,
          -2.6630562413204473e-001, 1.1765315142340288e-001,
          1.1808995311090570e-001, 4.1630626240579194e-001,
          -7.1318694704926744e-002, 2.4450265229158968e-001,
          -5.5926192795773377e-002, 6.8511070040700034e-002,
          -2.9032597852591147e-001, -2.0111766114147273e-001,
          5.8193554255191748e-001, 4.0137206590295238e-002,
          -2.1773783412930028e-002, -4.0579493852581278e-001,
          1.1713862758559268e-001, 3.9152755619860635e-001,
          2.7538565294688899e-001, -1.8572297527269055e-001,
          1.7453759807751404e-001, -5.6018509926254956e-002,
          1.6601310620798740e-001, -6.8365435863428414e-002,
          -1.3053437818224445e-001, -9.4574705205231813e-002,
          -1.5396144004551027e-001, -8.2189742289760420e-002,
          -7.8274079721195426e-003, 5.4664251581289297e-003,
          -2.7933295684563143e-002, 8.4013152810293437e-002,
          8.8328419772220557e-002, 1.1462336622554008e-001,
          -1.0686182765804988e-002, 5.2131608910723042e-002,
          -1.0049481121665123e-001, 3.5116411086830562e-001,
          -2.2617504826309479e-001, -2.2885751577852737e-001,
          -5.5753117434093641e-002, 2.9360689420723528e-002,
          3.0362148698530262e-003, -5.4872218172596209e-002,
          -1.3487078413552714e-002, -8.9064151299198036e-002,
          -2.8653079727720898e-001, -1.3807623884049897e-001,
          4.6725992585188482e-002, 9.3629748020594025e-002,
          1.0415522413215825e+000, -6.1048821613764327e-002,
          3.2762885429388822e-001, -3.7354252011706562e-001,
          3.5462247252569766e-002, -1.2527887381921657e-002,
          -1.1758130466912219e-001, -9.3270187590061310e-002,
          -1.9213903078888303e-001, -4.9404102971224252e-002,
          -2.2864778050444370e-002, 4.2904765866885790e-002,
          9.0961224361534199e-002, 9.7604410047156454e-001,
          1.9006121415690502e-001, 1.9896778005031018e-001,
          -2.0759613561436926e-001, -1.7624039066422001e-001,
          -2.8800844295735584e-002, -1.1333044427342558e-001,
          -1.0142802502226964e-001, -1.8055054695507405e-001,
          -4.1082973339977916e-002, 3.2438635813745070e-001,
          4.3079364876993383e-002, 3.8101269554726164e-001,
          -4.8801642160245400e-002, 1.7890567892358958e-004,
          4.1847124106304540e-001, -2.0294654660821990e-001,
          -1.9235882385206959e-001, 2.2209833051954057e-002,
          -9.7168712567598153e-002, -4.1455016689095392e-001,
          -1.5715215458737675e-001, -5.8804898610596408e-002,
          7.1190567289886775e-001, -2.2763347984573729e-001,
          4.7755601535041914e-001, 5.5346368643237409e-001,
          -3.5055526368469460e-002, 4.1951450875978963e-001,
          2.0984409002903159e-001, -1.9092278842464810e-001,
          -5.8967202018188648e-002, -8.6108381603868023e-002,
          -1.9309235123608215e-001, -1.5805039517815422e-001,
          -5.2913878961572611e-002, 7.3634824867517057e-001,
          -2.3785584548116734e-001, 6.7209695337685682e-001,
          3.9638867895031606e-002, -2.2470089722822989e-001,
          1.5454266222167756e-001, 3.3003799562584690e-001,
          -2.4607323378783963e-001, 5.0833817419907390e-001,
          -9.7690845909452068e-002, -6.4160500196248860e-001,
          2.0829686716806339e-001, -1.5006943654557743e-002,
          1.2451737435369986e-001, -5.3938291640789704e-001,
          5.3620106248534272e-001, 8.0316134505537418e-003,
          1.2758365949031736e-002, 2.2824821009925175e-001,
          1.5973092332856084e-001, -1.9937629403453888e-001,
          4.0042962944677751e-001, 3.1166404396466799e-002,
          -9.8772342374723477e-003, -1.7825585152850820e-002,
          -9.1624209768087148e-002, -1.0774227468471422e-002,
          -5.5529110552423411e-001, -4.7982947224443464e-003,
          3.6349305208117832e-001, 6.5297755355725051e-001,
          2.3856038672254873e-001, -4.1212463495772350e-001,
          9.2415620809741708e-002, 6.1580945192461334e-001,
          -1.4832244297086286e-001, -1.6036920362003872e-003,
          1.4331291874674923e-001, -8.5289131269492902e-004,
          -5.7746355454559273e-001, -2.2103896086767916e-001,
          3.4739052445048068e-003, 1.0121022972134078e-001,
          3.7148027394978783e-001, -1.9315915160263020e-001,
          -1.6835485695802571e-001, -1.8601185235116777e-001,
          9.8109276869849882e-002, 1.3281636178336237e-001,
          5.0776863618078594e-002, 1.4440466303786542e-001,
          4.6671774083500282e-002, -5.7877198116786122e-001,
          -2.2438182737557333e-001, 4.5148280675786200e-003,
          9.0989861221644361e-002, 3.2975790790865028e-001,
          -2.9588139669754487e-002, 1.3888445667200727e-001,
          -1.4592135371891574e-001, 1.8879656560252844e-001,
          1.3119027388158422e-001, 2.7286433482081901e-002,
          3.3449720857497235e-002, 4.2265248084141505e-002,
          -8.8651369968742025e-002, -1.7213187457854276e-001,
          -5.0971783887313622e-003, 6.8390832493684772e-001,
          2.4506235711880578e-001, -3.6396304332240621e-002,
          -1.3374161145976525e-002, 1.3872192734085921e-002,
          1.6979459423071147e-001, -1.3782347790908112e-002,
          -1.8735903306846516e-001, -3.8079672911506568e-001,
          -2.1124294451783848e-001, 6.8644294900036151e-002,
          3.2242061813673190e-001, -3.3437273246827981e-001,
          -2.3305752635941191e-002, -8.9505139945391790e-002,
          3.5131350797170224e-002, -1.6982160664491784e-002,
          -3.8557654049924261e-001, 1.4570262623144253e-001,
          1.4041851910971720e-001, 1.4518547564924961e-001,
          -6.7930996724489423e-001, 2.4233612781701677e-001,
          -1.5864544548022891e-001, 1.1013980802230391e-001,
          -1.6258359301935454e-001, -2.5523502491563993e-001,
          -3.8821009861510151e-002, 3.5698612200919466e-002,
          -3.3236019514189719e-001, -4.9410067803708690e-001,
          1.1082726530969544e-001, 9.0569968320479338e-002,
          -6.9303284379969798e-002, -1.1429643327455152e-001,
          2.3548816654098634e-001, -5.8443484248847821e-002,
          7.6920170927620463e-002, -6.6150312253575050e-001,
          -1.7781706973652171e-003, -8.0300008361792991e-002,
          2.9378753154316130e-002, -3.4002238238386706e-001,
          -1.5924781715423014e-001, 1.1629911456250497e-001,
          -1.5100762530837786e-001, -6.5721930301445117e-002,
          2.6137448022441327e-002, 4.3551311682304972e-001,
          -5.0711152316527855e-002, 1.6301717215404130e-001,
          -5.7012910926439023e-002, -1.9356662019565624e-002,
          -1.5113080696926418e-001, -2.3458282569459282e-001,
          -5.4374197867396445e-002, -1.4724008170374791e-002,
          -1.4955494482476006e-001, -2.9247686178905986e-002,
          -1.3099308099275675e-001, -2.8254308490811356e-002,
          1.6596666214185032e-001, -1.7959537245440979e-001,
          2.8084687847784345e-001, -3.2176788400398185e-002,
          1.1747889169334368e-001, -3.5891056606953159e-001,
          -4.2015430028925349e-001, -5.4161363486610957e-002,
          8.6904626221658343e-002, 1.1713603936973206e-003,
          -1.0503552109059229e-001, -1.5096155779200199e-002,
          1.2135364794231979e-001, -4.6338930064042147e-002,
          -2.2816247184683752e-001, -8.2721829737560128e-003,
          -3.1357993950934568e-002, 8.2794681377429846e-001,
          2.0131407219094066e-001, 9.7366692031482342e-003,
          -2.3250141703629634e-001, -1.1236138857888085e-003,
          -3.4311412025992832e-002, -1.7694187449259741e-001,
          -9.6454796109684063e-002, -1.9827486602067096e-001,
          5.8340790688971265e-003, 3.1207508014131641e-001,
          3.4868917315421341e-002, 2.2140224699569144e-001,
          -5.8385404234393465e-002, -7.9277659952191076e-002,
          1.1052259765463064e+000, -8.5522315160734830e-003,
          6.7439577407987349e-003, 2.4828779513913872e-002,
          -1.7633223886079163e-001, -2.3312133875089378e-001,
          -1.9655244160900245e-001, -5.2363623481469050e-002,
          6.4887927164253989e-001, 3.3007043181969863e-002,
          1.7345122529464574e-001, 4.5167942437483632e-001,
          -3.3392365959129017e-001, 4.1722726333427534e-001,
          2.0361852784750001e-001, -1.3185207548608224e-001,
          -3.4099690762542500e-004, -7.1272251743563497e-002,
          -1.9202785055873578e-001, -1.5670933658346303e-001,
          -5.2786847540957048e-002, 1.5795104079584857e-001,
          -2.2324722230507624e-001, 6.7251378759847680e-001,
          2.5968118502875889e-002, -2.9485823667726135e-001,
          2.3359223457761422e-001, 3.3963895834462732e-001,
          -2.4922333749641506e-001, 5.0418166510608362e-002,
          -7.4309259158554908e-002, -1.8679322407155602e-001,
          2.0663426398041959e-001, -2.4861044926318316e-002,
          -1.0680403000403318e-001, -5.5533448168950028e-001,
          1.6510999654329889e-001, 6.9434224949416132e-002,
          -1.2194655722182901e-001, 2.3275470904808679e-001,
          8.9258548844311711e-003, -4.2287799270092924e-001,
          1.1700942153612956e-001, -6.6567605617712439e-002,
          -2.9154951807385987e-001, 3.2472261910837275e-001,
          1.3456445571214121e-001, 1.0229062607676320e-001,
          -7.0549499001272387e-001, 1.5607877927015085e-001,
          8.0356558239669168e-002, -2.5483999159711196e-002,
          2.2672248858577540e-001, 1.6725587694512054e-001,
          -2.3070996305151695e-001, 4.8388611801711062e-001,
          -1.5142220367877909e-001, 1.0643170696426662e-002,
          4.4715038229650994e-001, -9.1945240579032705e-001,
          -5.6367519987319870e-001, -2.4307167449064673e-001,
          -3.7371167516699684e-003, 3.7191656384189048e-001,
          9.7674414204881510e-001, -1.7944713499365186e-001,
          -3.9398518615849337e-001, 9.8946391210716564e-002,
          4.7690352738960395e-001, 1.3266924622786960e-001,
          3.6464242892381947e-002, 1.4210067008525409e-001,
          4.7533270645852943e-002, -7.3624286875532199e-002,
          -2.2465752996935290e-001, 2.2288429785108734e-003,
          9.0183415638424663e-002, 3.6258132580308661e-001,
          -3.5873951750412109e-002, -1.6789686092501779e-001,
          -1.7414212433194232e-001, 1.8577439761391212e-001,
          1.0873636769130970e-001, 5.0722042805517370e-002,
          3.9043824339421239e-002, 4.7524632987563702e-002,
          -7.6745523450246586e-002, -2.2801394055054303e-001,
          1.0594199386351877e-001, -2.5533211151440388e-001,
          3.7126393048104395e-001, -3.4971289775512920e-002,
          -3.0860062966886665e-002, -3.6886841189323152e-003,
          3.3050808435450085e-001, 1.4076665482326411e-001,
          2.6380897378296597e-001, 4.1060116079915171e-001,
          -2.2956539099994069e-001, -1.1800038915131815e-001,
          -1.5483470056767501e-001, -1.8896579365139299e-003,
          9.8547592634489284e-002, 2.4281650918412437e-001,
          3.5250909564364913e-002, -1.6561639992149900e-002,
          -1.9403613453395641e-002, 3.1641069973562863e-001,
          1.1627960234354490e-001, -8.7057811877984476e-002,
          -2.9981316112805562e-001, -4.0910968070132996e-002,
          -4.8799121036892448e-003, 6.3652374212315441e-002,
          -1.2942733890746441e-001, -1.7206925710116017e-001,
          -2.2938030202439835e-001, 4.0526067491253037e-002,
          -1.0133524559408316e-001, -6.5687795940944860e-001,
          1.1263963621144135e-001, 4.9658470476366690e-001,
          3.0780075914199856e-001, -6.1402253186735933e-001,
          2.4007311378220605e-001, -3.7857610128957581e-002,
          6.8126519306407091e-002, -1.2838314072129697e-001,
          -2.6742641106702386e-003, -8.6950675605619948e-002,
          3.0296713952180039e-002, 1.3223920776646809e-002,
          -1.7474895600391382e-001, 1.1147248746257937e-001,
          9.6547446017643479e-002, -6.7202948401210383e-002,
          -1.1027134709354230e-001, 2.3482701032305289e-001,
          -5.2900581522122236e-002, 7.2804467013508040e-002,
          -5.7416857636887708e-001, 4.6427980860483551e-003,
          -3.9151850723113563e-001, 3.7679182995344340e-002,
          -7.5845484000259797e-002, -3.4251768873350893e-002,
          -1.4845855076828135e-001, 1.0787209383696170e-001,
          -6.7689867709454218e-002, -9.6259536930690559e-002,
          2.4077188041463438e-001, -5.2845557547768962e-001,
          9.7971405568344813e-002, -5.3346183237926670e-001,
          1.5902046688512328e-001, -4.3390667396218136e-001,
          -2.3114877937349382e-001, -3.3337103519975092e-001,
          2.1839249909304270e-001, -1.4787052577218890e-001,
          -2.1314375358149601e-001, -2.2439465825535110e-001,
          3.3928404659385354e-002, 1.0569157809198773e-001,
          -1.7770420205859547e-001, 1.1496449130792890e+000,
          -5.9615847702918501e-002, 5.6628909436981656e-001,
          1.5198374696975889e-001, -2.3899786966879283e-001,
          -3.5853910224147405e-002, 1.7023395812119958e-002,
          -9.9649098673097314e-001, -1.4475988583812344e-001,
          -1.1681420307678819e-001, -1.2497230974761052e-001,
          4.1880894016188058e-001, 5.3139440774602220e-001,
          4.1418210473315058e-002, 1.3306297233926300e-002,
          1.1329789994720907e-001, -2.2032883945834614e-001,
          1.0038838120780418e-001, -2.4273093272129276e-001,
          3.6592238659545251e-002, -1.6878240883635534e-001,
          -1.1832643462229457e-001, -2.3448182723515876e-001,
          -4.0943555762570465e-002, 2.0711214401178996e-001,
          5.3082046632221680e-001, -4.8351280388650815e-003,
          2.7806971833431759e-001, -6.4896379394488418e-002,
          -9.1434002890680863e-002, 8.8846177882278235e-002,
          -4.3365541579951644e-001, -1.9836995628352623e-002,
          -3.3604393987935222e-001, -1.0952754213634093e-001,
          -2.6990248536788025e-001, -3.0341331731769932e-002,
          -5.8954190355661483e-002, 3.4772338472323361e-001,
          2.0055377415025921e-001, 1.4251389979162701e-001,
          -1.3809022704435323e-001, -2.9861514939116829e-001,
          1.2109428446387387e-002, 1.3059630035260941e-002,
          -1.0672296378617872e-001, -1.1691242654006695e-001,
          -1.1471186307308463e-001, -1.8184612045194731e-001,
          5.5821862187462157e-001, -4.7379526634579186e-002,
          4.8231943534368077e-002, -1.1113751779216187e-001,
          2.0623558956071572e-001, 6.3059354531358386e-002,
          -2.0104143387373391e-001, 2.2736265557284308e-001,
          3.3505969765334018e-003, -8.6948897375554793e-002,
          -1.4591905337407923e-001, -4.0850608540762878e-001,
          -2.6726536897852288e-001, 3.3820025681957017e-001,
          1.1797675452190455e-001, 4.6967323813160503e-002,
          -2.1393988952300919e-001, 1.6065265074848478e-001,
          7.5410263131029623e-002, -2.0331311210820105e-001,
          2.3330739851590523e-001, 1.2904271271869971e-002,
          1.1637865778568285e-001, -8.3181255085741618e-002,
          -1.6799232225768482e-001, -2.7655388061641162e-001,
          7.9290945295060744e-001, -1.0830140152761424e-001,
          -1.2763470131653917e-001, -5.5169377359447636e-001,
          -1.3323796811628164e-001, 3.6379316345160090e-001,
          1.0211448335356639e-001, -1.1649650781147958e-001,
          -3.8190475016887454e-001, 1.1028577579063108e-001,
          1.7361778802282146e-001, -1.7541952739890465e-001,
          5.2842056611168142e-002, 1.3200830471583525e-001,
          -4.2628971864399579e-001, -5.7413049355883594e-001,
          -2.2111735499901461e-001, 3.7403153895516329e-002,
          2.2665824972943321e-001, 8.7646350420011260e-002,
          -1.9369174770461031e-001, -9.6487454671940670e-002,
          4.7463522005341194e-003, 1.0492695631679884e-001,
          1.1371211899944894e-001, 4.5948653040368666e-002,
          1.2489948838146511e-001, 4.5009075321113513e-002,
          3.9884485484653925e-002, -1.9653220322764617e-001,
          -6.3781002509797513e-002, 9.1802961729922278e-002,
          3.6764975105769965e-001, 3.7559351193740820e-002,
          -1.6854647773873285e-001, 6.5073925356981116e-002,
          3.3416248965495288e-001, 1.1553609472632256e-001,
          4.6663423472163221e-002, 2.1380630304656801e-002,
          5.7724710901661015e-002, 3.3184963430094847e-002,
          -1.8692883356627304e-001, -6.2486920938538026e-002,
          -2.6152291391113297e-001, 3.6742197858905185e-001,
          3.9092913302052917e-002, 7.2593153018193617e-003,
          -2.5414153588463606e-002, 1.1355769697546692e-001,
          1.1781915504889134e-001, 5.2018404920795402e-001,
          1.8852344137711108e-001, 5.3891090531327020e-002,
          2.5143684145207262e-002, -1.9414332109896751e-001,
          -1.3155876054880242e-001, -1.7538059920326868e-001,
          2.5078879985375485e-001, 2.9170259199572647e-002,
          -5.8839743311543978e-002, -7.8754856602529899e-001,
          1.1502706889188541e-001, 4.2724067276880096e-001,
          3.2559042500238039e-001, -5.1803923324704915e-001,
          -3.5954608632190063e-002, -3.5532508670342149e-004,
          2.6053286995010477e-001, -7.7161074892231230e-002,
          -1.4734772214793446e-001, -4.3151155261500057e-001,
          3.1876595711154358e-002, -8.7574684939706257e-002,
          -5.0582526952360407e-001, 1.0700607550084526e-001,
          1.3023082213030079e-001, 7.2920917401590513e-001,
          -5.1326515505275505e-001, 2.4114286056682863e-001,
          -5.2389981723925103e-002, 2.7248017328387192e-001,
          -1.7439628232540555e-001, -1.5455525129529787e-001,
          -3.6104746966282703e-001, 3.5514604230899305e-002,
          3.8339162314189346e-001, -2.6790514258543563e-001,
          1.1755887302412271e-001, 9.3008618476570742e-002,
          -6.9443925805882808e-002, -2.2314013559694243e-001,
          2.3478036566355476e-001, -5.5622038860835471e-002,
          2.6588619707572775e-001, -1.5687599174404138e-001,
          -4.6296468070042502e-003, -1.8471519542649198e-001,
          -1.5528446368400903e-001, 4.0681264622901964e-001,
          -8.3361794177269369e-002, -1.4791640103510162e-001,
          -4.1146518522095082e-002, -6.4298312086632059e-002,
          -1.0078981891502375e-001, 9.9271657043349712e-002,
          -5.2748786869607311e-001, 1.9267625802462732e-001,
          -5.3300818817477691e-001, 1.0200973073826392e-001,
          -4.4391566842243080e-001, -2.3438632097694084e-001,
          -8.6485618362207334e-002, 5.7965194401974340e-001,
          -5.6810214583368268e-001, -5.0084259457135083e-001,
          -5.3443704651906510e-001, 2.9186259151551097e-002,
          1.0541181234940968e-001, -1.9105743991062024e-001,
          1.9271421760305649e-001, 9.5519321408445868e-003,
          5.7791239165805108e-001, -1.4925183960749669e-001,
          -2.2610434978840244e-001, -4.8424823784227314e-002,
          1.2404461396786735e-001, -9.9282135328553345e-001,
          -4.7542072891048898e-001, -5.4408919369090003e-001,
          3.3163346360989443e-002, 4.7790869972186112e-001,
          1.6113123980640187e-001, 4.5751557931899181e-002,
          1.8680656238056322e-002, -7.5865332158035606e-002,
          -1.4449777749606835e-001, 9.1554118519067376e-002,
          -2.2676080913880625e-001, -8.3155155704398454e-003,
          -3.8431008659517535e-001, -4.6737675661541139e-001,
          -7.7341103867129346e-001, 2.3445537664814338e-002,
          2.2664518312038143e-001, -5.5157841628156803e-002,
          2.2834075651079064e-001, 1.4616666576040191e-001,
          -7.3977569598632345e-002, -3.5712746355789116e-001,
          -4.6210222268441925e-001, -9.3039143022609315e-003,
          -1.9207368485092101e-002, -3.2799737822795405e-001,
          -4.7173910003069869e-001, -3.9723399358441847e-001,
          2.9917633834013641e-001, 2.1318600404541327e-001,
          -3.1423772071189668e-002, -8.1072365405124289e-002,
          6.3227468699601608e-002, 1.7960267080644396e-001,
          -2.1946530988540208e-001, -4.7134550348330451e-001,
          8.6709238883321618e-003, 2.3141133450123935e-001,
          -1.5143378800009177e-001, -4.6666481645527796e-001,
          -1.0155265644303753e-001, 4.4302085893978177e-001,
          4.6756356127132873e-002, -2.5027136919529797e-001,
          -1.2173315513782093e-001, 7.0122589898278631e-002,
          2.9847387487976607e-001, -2.0634754996756952e-001,
          -3.3785731177591527e-001, -6.6157520521404004e-003,
          3.4779424822601457e-001, -8.7564662821853295e-002,
          -1.4738579503136284e-001, -9.2222050864995131e-002,
          5.4716904590071680e-001, -8.6005915067888350e-002,
          -2.5967958834056065e-001, -1.6498979792409868e-001,
          7.7899964136270677e-002, 3.4603156608028091e-001,
          -2.0681965257796769e-001, -1.9669233354458415e-001,
          -1.7077313347908013e-003, -5.5146942448798486e-001,
          -3.3858885925478988e-001, -1.3283218085958431e-001,
          -9.4879246895519506e-002, 5.4255479704560206e-001,
          -5.3682794967887304e-001, -1.8343934374111023e-001,
          -2.2749752388254504e-001, -2.4309843599645137e-001,
          1.0722234730109343e+000, 3.5208833544408785e-001,
          -5.6112013800357484e-002, -3.7838723863421075e-001,
          1.3883833291822006e-001, -3.9260089610240834e-001,
          1.6040953858973447e-001, 1.9047776060142596e-001,
          5.2028043233912524e-001, 3.3954449103982327e-002,
          -2.2546318329010467e-001, -2.2643090158967091e-001,
          6.2257526194431270e-002, 7.4449870958687137e-001,
          3.1969883378059050e-001, 3.9335093974490032e-002,
          -1.1036573691252376e-001, 2.6223044822791242e-001,
          2.3308980484286673e-001, 1.6303821318521583e-001,
          8.8615135437414216e-001, 5.0882975947735853e-001,
          5.6874776399454131e-002, 3.9100401674586727e-002,
          -1.9004721798993535e-001, -6.0413822948854334e-002,
          -2.0984752010550617e-001, 2.7096353474468726e-001,
          3.8918124417850058e-002, 8.5006893929106351e-003,
          -2.2695487107174495e-001, 1.4166887047288607e-001,
          1.3695769227099022e-001, 3.7464215247228966e-001,
          -3.2260242642134379e-001, -5.3055323113892480e-002,
          3.2171031563676317e-002, 1.9704938033388554e-002,
          -6.2959564075495050e-002, -2.0968424674821631e-001,
          1.5350372031777465e-001, 4.1346625271417581e-002,
          -4.4431695537507573e-003, -3.4041580297359653e-001,
          8.9389967157627509e-002, 1.9038480364701688e-001,
          9.5288019445480210e-002, -4.6378092292669443e-001,
          -4.8880101364382762e-002, 2.5727851681091896e-001,
          3.1680698148682174e-001, -8.2956147674896369e-002,
          -1.2741155562904763e-001, 2.4749130564618019e-001,
          3.8911595990302472e-002, -3.8828640067578343e-002,
          -7.9013130233158635e-001, 3.3230714041534176e-001,
          2.0920961193750520e-001, 3.2415587640823834e-001,
          -5.3521856209234042e-001, 1.6245890131406579e-001,
          -6.6491128286123594e-002, 1.9090133166484327e+000,
          -5.5069111006484775e-002, -4.4644090033436373e-001,
          -2.0858871071383217e-001, -3.4012547011839846e-002,
          9.2217159244711633e-002, -5.1409675393890342e-001,
          4.7976498879483198e-001, 8.9184698089004560e-002,
          7.6085042191834218e-001, -1.6067345438165503e-001,
          2.3226890091370692e-001, -6.0898390197685115e-002,
          2.6019881469010603e-001, -1.4387299382692348e-001,
          -5.2449385203285748e-001, -2.0548297658001680e-001,
          -1.6015160655727428e-001, 3.5464837119341142e-001,
          -2.8413953827726196e-001, -1.4251346390799230e-001,
          7.2960301149720352e-002, 1.9563401084378534e-001,
          -9.3166160530031100e-002, 2.3440546930506070e-001,
          -6.3146101752137251e-002, 1.0783938562618163e+000,
          -5.3988442116479141e-001, -2.5620191121151636e-001,
          -4.2541157813875596e-001, -2.3704211293589600e-001,
          1.1600685052555050e-001, 2.3450369984978059e-001,
          -1.4184782846271565e-001, -1.7344546920149383e-002,
          -6.7934115262841252e-002, -1.0003780503868626e-001,
          9.7163614179973684e-002, -1.8946789139287407e-001,
          8.0515792581195800e-001, -5.4264554858990699e-001,
          1.4339347252130685e-001, -3.0843475980963558e-001,
          -2.3339978043513177e-001, -8.4147087562570957e-002,
          5.7415814880793958e-001, -1.8411577628905745e-001,
          -4.2147376525820668e-001, -5.4939008490517449e-001,
          3.2366103337239029e-002, 1.0662328581550477e-001,
          -1.7164020050938469e-001, 7.6867871607256977e-001,
          -5.4033412565991468e-001, 1.8081458180237742e-001,
          -6.3919518810036213e-001, -2.2396468767523592e-001,
          -5.5085103162955049e-002, 1.3055417632393601e-001,
          -6.3542679041066519e-001, -4.1265644304587590e-001,
          -8.7731080395236016e-001, 3.1061741834785328e-002,
          1.0160347794037763e+000, -8.4255252194894492e-002,
          3.9766046688379336e-001, 2.2330084147477048e-002,
          -2.3787649958112944e-001, -7.1527303556039534e-001,
          9.1316807919535378e-002, 5.8631207312198530e-001,
          6.1855382203293041e-001, -3.9412530980593052e-001,
          -4.1769856344804701e-001, -4.5730054482029903e-001,
          3.6986703533963917e-002, 3.2288361751438777e-001,
          -1.5331170464188029e-001, -5.6330615274265285e-002,
          5.5059367440547791e-002, 3.6492860510980357e-002,
          -2.3202465474216985e-001, -4.0482918142171892e-002,
          1.6924143342624673e-001, 1.3622993196754321e-001,
          -3.9323045686088304e-001, -4.4954843133241673e-001,
          -2.1849559033038127e-001, 4.5863270852246857e-001,
          -3.4127366725650532e-002, -2.2111867354217046e-001,
          -2.2604990582483001e-001, 5.8195003436294329e-002,
          1.7502318677373670e-002, -1.6978837756095111e-001,
          -3.3579623991696284e-002, 1.6265665016476302e-001,
          1.8243036815171941e-002, -3.5625164817682342e-001,
          -9.8368999670814694e-002, -1.0031085957414458e-001,
          4.7996565135386271e-001, -1.0158260166392635e-001,
          -2.5477842464560840e-001, -2.1764371556609260e-001,
          6.6001029633976069e-002, 2.5339686884830520e-001,
          -3.4670436776862773e-001, -3.3320035946152987e-002,
          1.7028477991515042e-001, 3.3780907811923933e-001,
          -3.1740625661493688e-001, -8.1581774150374653e-002,
          -9.7821517988721948e-002, 4.8084042609885341e-001,
          -7.2955707061713088e-002, -2.6479296034664723e-001,
          -9.9924646620316721e-002, 7.4184032405321371e-002,
          5.8825265497452517e-001, -1.0077170594858142e+000,
          -2.1955134259102040e-002, 5.9943437267797176e-002,
          5.4401832198097810e-001, -3.8246942421050756e-001,
          -1.5468678818166309e-001, -9.4454759272692257e-002,
          4.5202274884301008e-001, -1.1478205371802823e-001,
          -2.5538825959260486e-001, -1.6142872436324684e-001,
          -2.3280967598704769e-001, 6.4561492124802067e-001,
          -5.7377983208338527e-002, -4.4513461355244649e-001,
          7.5648307002867093e-002, 6.2053320353544816e-001,
          -3.9231378728053984e-001, -1.4472301266534127e-001,
          2.1519107321398584e-001, -3.0220007008844908e-002,
          4.9878015181452316e-002, 1.2112128404031179e-001,
          -2.0038172274449931e-001, -3.4691656327783299e-001,
          6.7176668641705503e-002, -9.7002807873484850e-002,
          -3.6937154943713177e-002, -4.7186021274980925e-003,
          5.5987589195948366e-002, 5.5311757844442602e-002,
          -2.4176821820420313e-001, -1.3329325074974913e-001,
          -1.8489115858931954e-002, -5.4364872649686542e-002,
          3.1562145206710031e-002, -4.7516276246036993e-001,
          -6.5134511579722082e-002, -2.5636834199201508e-001,
          2.3953089442807377e-001, 1.6121592652627836e-001,
          -1.6580882679559669e-001, -5.2038994818621120e-001,
          7.3876104919721297e-002, 1.3335286583363620e-001,
          1.0508388208735658e-001, -4.3862273022525683e-001,
          -5.3235593556139486e-002, 2.6117325496813559e-002,
          4.6462961492805721e-001, -7.4239563931551567e-002,
          -2.1591999955249805e-001, 1.4522258862982290e-001,
          3.5294004343914775e-002, 7.5680093948507308e-003,
          -2.9734493917377747e-001, 3.1527666583101538e-001,
          1.4728787318855280e-001, 1.0049476093918147e-001,
          -4.5751393321579392e-001, 1.0081018313669564e-001,
          2.5658226332062228e-001, 2.5237577251195176e-001,
          5.1706534516317786e-002, -1.8231572740295993e-001,
          9.8251876371273916e-002, -1.3294942540125414e-002,
          -1.6922786854919558e-001, -6.2320538575880535e-001,
          3.8975015662371776e-001, 1.3986940227000061e-001,
          6.1956195194809160e-001, -5.8803958820626279e-001,
          2.1463248030464716e-001, -7.1074154695951783e-002,
          -1.5210492263780576e-001, -1.5695108224924745e-001,
          -2.0462418014765457e-001, 3.1679269669558719e-003,
          3.6561102607338164e-002, 9.2300489270713437e-002,
          -3.7928610988612371e-001, -1.3620087139997877e-001,
          4.5028100758546928e-002, 7.2203176848286865e-001,
          -5.7733140086313606e-001, 4.1894492613949386e-001,
          -5.0746494682844578e-001, 1.5960016761357232e-001,
          -1.5403124342985203e-001, -1.5705421537503272e-002,
          -2.8598155195491382e-001, -2.3308108997093191e-001,
          4.1703057406874122e-001, -4.2115576185750042e-001,
          -1.4023934695759366e-001, -1.4053861799315928e-001,
          -3.5241559746065923e-002, -6.5076445485116013e-002,
          9.8788324129303870e-002, -1.8404430371763675e-001,
          7.5919803305978040e-001, -1.5677034410285001e-001,
          7.8187398147371551e-002, -8.1582909173411711e-002,
          -2.3684235102088919e-001, 1.1173929371086024e-001,
          2.4115819903586044e-001, -1.7357728731326494e-001,
          -1.3932887636402505e-001, -3.1624865325088375e-002,
          -9.7681083459709939e-002, 9.8918982749051323e-002,
          -2.9301981814698003e-001, 7.5232029418656099e-001,
          -5.3957756666880241e-001, 1.7644522203753268e-001,
          4.8066991776297335e-002, -2.3662997192085489e-001,
          -4.9293505806044122e-002, -3.0377166571112446e-002,
          -4.6996763504034078e-001, -7.5920341557348792e-001,
          -4.4798937340196693e-001, 3.8083401239896862e-002,
          1.0121950673458237e-001, -2.0539515064604325e-001,
          9.9660670310527899e-001, -4.6815587324896479e-001,
          1.4012078872252270e-001, -5.1577004693349959e-001,
          -2.2306100432563142e-001, 4.4380466715064279e-002,
          3.2970094501505315e-001, -1.0659148995733807e-001,
          -7.5847935413968703e-001, -8.5448201362345322e-001,
          -1.3117462201967553e-001, 9.6242902345426273e-001,
          -4.9451390035418451e-002, -8.2143010784603482e-002,
          -5.5326060993264126e-001, -2.9362824604786603e-001,
          -2.9901891706556427e-001, 9.2256128786478389e-002,
          -1.2469429761329739e-001, -1.5789213857489590e-002,
          -4.1174444024543833e-001, -7.5625878747425523e-001,
          -2.1038995396343529e-001, 1.7809373414797686e-001,
          1.3497608424809387e-001, 7.3465803999108792e-002,
          -4.0767870230257863e-001, -4.3352043116078785e-002,
          -1.3198269724855080e-001, -3.8766982580248738e-001,
          -3.3793936912137812e-001, 9.5057928129805430e-002,
          -2.7278082309663082e-002, -3.4957860033511795e-001,
          2.3085232644479559e-001, -1.6978096153900690e-001,
          3.6566838045436645e-001, -5.5330066866922406e-002,
          -3.0707674232806043e-002, -4.5707956909074032e-001,
          -2.7085620459873630e-002, 4.2053244219164754e-001,
          -3.8490088924317362e-001, 9.6880638351807616e-003,
          9.3248328975187561e-002, 6.4245080051616710e-001,
          -3.8423943706049568e-001, -2.9167267424440768e-001,
          -1.6514112967687733e-001, 2.4478994910153676e-001,
          -5.2186586501897059e-002, -2.7468597528205626e-002,
          -4.5933739890825565e-001, -3.7278313549459326e-002,
          2.3536894601040548e-001, -6.1657189201689067e-001,
          1.4252824857621867e-002, 5.0342660532550446e-002,
          6.4266142610936905e-001, -3.8821718174558628e-001,
          -2.2432748376084971e-001, -3.4968260316085797e-002,
          2.4499614253080856e-001, -4.7826344963599193e-002,
          -2.0849764121085099e-001, -4.0678103412106548e-001,
          -2.2892038008052404e-001, 7.0554502995694560e-002,
          -1.3188394164379263e-002, -3.3019312506773835e-001,
          2.4723740026179494e-002, 5.8478353277024353e-001,
          -3.8479506625797866e-001, -2.9392968949439557e-001,
          5.4322413780758819e-002, 7.9131876063611467e-002,
          -6.6676346957573518e-002, -3.2147044571996342e-001,
          -1.5822303610793909e-001, -2.6189644465937539e-001,
          3.5590267212859274e-002, -1.4633288659828694e-001,
          -4.7169533175501532e-001, -5.0210256514565205e-002,
          1.6274484656920871e-001, -1.0526158182870550e-001,
          -8.2688072934281848e-002, -4.4547050941902637e-002,
          2.4815617871310265e-002, 3.4250516454978364e-001,
          -1.4575857019493813e-001, -2.0654729362589747e-001,
          -7.4952447573229221e-003, 9.0059154898750812e-002,
          5.9855806940046989e-002, -1.9405338378428585e-001,
          -1.2719584058922609e-001, 1.9920478613074860e-002,
          4.2846870929882590e-002, -8.4078596000833061e-003,
          -1.5562936183342449e-001, -1.8008045330379152e-001,
          1.0797408734726248e-001, -1.4136914633755815e-001,
          2.0201361527311563e-002, 2.4603779933838110e-001,
          -1.2149494460450641e-002, -7.2196579428400132e-002,
          -4.4772952489853038e-002, -4.2120027019224397e-003,
          -1.9089205685098720e-001, 7.3848308770716159e-002,
          -2.3595273222777291e-001, -2.3982691850003263e-002,
          -1.2923270880424997e-001, 3.6387888321138140e-001,
          2.6649446084050624e-002, 5.2210562823022180e-002,
          2.2273475018237465e-001, -1.2874939129636295e-001,
          1.0173328218437772e-001, -3.9707010711362081e-002,
          -1.6224951031038135e-001, -4.8961698233321260e-001,
          7.1387264175916204e-002, 1.7602450136833120e-001,
          -3.2990083622330663e-002, -1.3516987038123851e-001,
          1.7476874592720182e-001, 2.2861638014454874e-001,
          1.9931065499977457e-001, 5.8714966372886861e-002,
          -1.2004915320425857e-001, -1.9437054762528833e-001,
          7.8246620356607871e-002, -1.6173888034426118e-001,
          -6.2634299151767436e-001, 3.8528807640488028e-001,
          1.1612484008346137e-001, 1.8864945893930926e-001,
          -1.7790193643422805e-001, 2.0497251884405321e-001,
          -4.8744242860170073e-001, 3.6005089062726020e-001,
          -2.0172982740973647e-001, 3.2846571571246397e-001,
          3.3673867514982844e-002, -9.4109919750515011e-002,
          2.6864833678361366e-001, 5.2937031851246229e-002,
          1.1607480141762769e-001, 1.1079828288622738e-001,
          -1.3814456933158381e-001, -1.7429257763959358e-001,
          6.3157477620236976e-002, -1.7083088567486748e-001,
          6.4833963795642502e-001, -1.5519692578528765e-001,
          2.7262792709112382e-001, -8.7904962565279882e-003,
          -6.9983982928411292e-003, 4.8915602916145273e-002,
          2.6347963472960197e-002, -1.7416954090936576e-001,
          -1.7493714683946740e-002, -1.8974235530837998e-002,
          -1.7229408565323154e-001, 1.6780091229320193e-001,
          -1.7735362821354528e-001, 8.5312900020785487e-001,
          1.3176942123390895e-001, 3.1792741825273785e-001,
          -7.6359243928204703e-003, -2.3387633348144965e-001,
          1.1684146675684302e-001, 2.1141198278588766e-001,
          -1.9136641797324613e-001, -2.1417396559967203e-002,
          -1.3120518867371411e-001, -1.8162015966102449e-001,
          1.6448390766405502e-001, -1.7430339402286266e-001,
          1.2338867371094566e+000, 1.4785156980084943e-001,
          6.9856459326521875e-002, -7.5196691999949869e-002,
          -2.2704635721444133e-001, -4.6684634224320808e-002,
          1.7495031984240891e-001, -1.3430814463303681e-001,
          -4.1265545048610491e-001, -5.3238052055659180e-001,
          -1.5575556070323793e-001, 9.8423939046978409e-002,
          -1.5642527515097863e-002, 1.3017287413699001e+000,
          -1.3612546226870112e-001, 1.3271212965551354e-001,
          -3.9489892816603644e-002, -4.2043550713062078e-001,
          1.5259888830616353e-002, -2.0031856405572504e-001,
          -1.1696360416257220e-001, 1.3887888227814099e-001,
          -4.7504768283084775e-001, 9.2266261896929297e-002,
          -1.3467229701098786e-002, -6.2320452076066346e-002,
          -5.7049004169646301e-003, -3.3371720508281931e-002,
          3.2462319284597829e-001, -5.5395983666793458e-001,
          2.7803329756307477e-001, -1.5397435686230607e-001,
          -2.1281947404692469e-001, -6.6549280289546278e-002,
          4.7063328480981093e-001, -1.5703488469939114e-001,
          6.2176236314129121e-002, -5.5300384685238679e-002,
          -2.5587250037496838e-002, -1.1999231995783537e-005,
          -3.0599355658053464e-002, 1.9174431231864575e-001,
          -1.7400639722603248e+000, 2.8318748884332234e-001,
          -2.0054431493435257e-001, 1.6783144719841919e-001,
          1.1367814976972639e-002, 4.7515858458453369e-001,
          3.9273901043425563e-001, 3.6898100374341138e-002,
          -5.2813751088144373e-002, -3.2757758371368038e-002,
          -7.8098736093642901e-002, -3.1199473480725652e-002,
          2.5863253340885023e-001, -1.7448499248421245e+000,
          2.9394827234683230e-001, -1.9871880332932410e-001,
          1.6832179008142228e-001, 4.9849919337078975e-002,
          4.6491598679240703e-001, 5.4326651408104965e-001,
          2.4589780855866807e-002, -7.3995190020943527e-002,
          -3.1053568897153720e-002, -9.6230700717966716e-002,
          -2.7258575909134556e-002, 2.2932504310540755e-001,
          -8.4289528252375914e-002, 3.0433716047456143e-002,
          -3.2422351632738178e-001, 1.7649281779837911e-001,
          7.0305740286419199e-002, 1.0777576617898233e-002,
          5.9251395476076260e-002, 2.5887196465322816e-002,
          -5.5009832648402521e-002, -3.1368360982662012e-002,
          -8.1413284694921068e-002, -1.5323040215371992e-002,
          1.5138886812949376e-001, -3.4749802573281258e-001,
          1.5201927545879490e-002, -3.4874226534736275e-001,
          1.2117403160291459e-001, 2.9292896636154045e-002,
          3.6890853027408813e-002, 1.1199319577315570e-001,
          -2.2920219517710821e-002, -3.2692227193050059e-002,
          -3.4011750301531793e-002, 1.0188269426634701e-002,
          2.2263588298504292e-001, -2.0182215765694751e-002,
          -6.0136724437178136e-002, 4.0698424248610296e-002,
          -2.2763125595868214e-001, -2.6717520071553633e-002,
          2.0015615251948787e-001, -7.5497715564970069e-001,
          -4.7641551603752952e-001, -1.8974352909289224e-001,
          3.6333446723421836e-001, 1.5680731250282898e-001,
          -2.3511128868762754e-001, 2.3996130766056809e-001,
          3.4661157951526619e-002, -5.9202404497583135e-002,
          -2.6008110389068506e-001, -1.3763529865204646e-002,
          2.1890919721184690e-002, 2.5041476790524462e-004,
          -5.9159223194775867e-001, -8.7759349768920925e-001,
          2.7581150600837417e-002, 6.7806642014494412e-001,
          -6.9533881642283607e-002, 3.8019331622186452e-002,
          -1.0979232089443722e-001, -4.3533497326918840e-003,
          -1.7965566204235020e-002, -9.0628359215318435e-002,
          1.9480824495136620e-001, -1.6719007712939802e-002,
          -3.8243510951458554e-001, -4.0394642105475936e-001,
          -1.5897926612135485e-001, -1.8258211578509501e-001,
          5.6010491267185714e-001, -2.4509560213386702e-003,
          1.1549304166438837e-001, 2.4033366725297239e-002,
          -1.1829210944479751e-001, -6.8251946185030332e-002,
          3.3639442704561967e-003, -1.7253358547931089e-001,
          -9.4932269082090709e-002, -4.7563941484824157e-001,
          -4.6466255079782287e-001, -2.4397454057685935e-002,
          -3.4258268511596711e-002, 5.5232369421547178e-001,
          8.5700845289175043e-002, -5.4186834202481380e-003,
          4.2759206173890785e-002, -2.1479935987280965e-001,
          -1.5455627167350311e-001, -3.5996393248815951e-003,
