%YAML:1.0
mlp: !!opencv-ml-ann-mlp
   layer_sizes: !!opencv-matrix
      rows: 1
      cols: 3
      dt: i
      data: [ 330, 15, 10 ]
   activation_function: SIGMOID_SYM
   f_param1: 6.6666666666666663e-001
   f_param2: 1.7159000000000000e+000
   min_val: -9.4999999999999996e-001
   max_val: 9.4999999999999996e-001
   min_val1: -9.7999999999999998e-001
   max_val1: 9.7999999999999998e-001
   training_params:
      train_method: RPROP
      dw0: 1.0000000000000001e-001
      dw_plus: 1.2000000000000000e+000
      dw_minus: 5.0000000000000000e-001
      dw_min: 1.1920928955078125e-007
      dw_max: 50.
      term_criteria: { epsilon:9.9999997764825821e-003, iterations:1000 }
   input_scale: [ 3.5143674766351687e+000, -2.8999434806116899e+000,
       3.1839351118209884e+000, -2.4202578371155772e+000,
       3.3225604802764042e+000, -2.3280398758181100e+000,
       3.2186642896867279e+000, -2.0536421652408285e+000,
       3.0876210845892493e+000, -1.6472329155583514e+000,
       3.2983452579375618e+000, -1.4474827278196141e+000,
       4.1631396078885921e+000, -1.6063566024716398e+000,
       5.1687833975483608e+000, -1.7572304597025661e+000,
       5.3465005696621377e+000, -1.7525985076967654e+000,
       5.6304967972656561e+000, -1.8655514667348918e+000,
       4.2286508424986602e+000, -1.7425051977318893e+000,
       4.1423305542487361e+000, -2.0719803343293890e+000,
       3.6705666574699323e+000, -2.2075659537194103e+000,
       3.0367020957059085e+000, -2.1188127971381627e+000,
       2.9782515305795765e+000, -2.2114120021977723e+000,
       3.4369890810006671e+000, -2.6704646593829815e+000,
       2.8735477141179389e+000, -1.8697721534052085e+000,
       2.4905493733073309e+000, -1.2882124669765584e+000,
       2.6628888815893066e+000, -9.8147885732809592e-001,
       2.9645329246395544e+000, -9.6823525551712730e-001,
       3.8787361376229361e+000, -9.3284668344598165e-001,
       4.4467129216111188e+000, -5.4192219674776465e-001,
       5.2291229038995057e+000, -5.4736218965845218e-001,
       8.8354647067171914e+000, -5.6513207875566684e-001,
       5.3990671003035038e+000, -9.2834624654590303e-001,
       4.9061824072932101e+000, -1.0118723933971374e+000,
       3.9158918742985698e+000, -9.3913475082310394e-001,
       2.9057291535512344e+000, -1.0413922599702046e+000,
       2.7449188202207111e+000, -1.4718080158030249e+000,
       2.9270955658169218e+000, -2.0891427272473724e+000,
       3.7096075727420961e+000, -2.6871604362970603e+000,
       3.1608483803534311e+000, -1.8638278560879782e+000,
       3.1494099803382740e+000, -1.3520842226652849e+000,
       3.4464392100089696e+000, -1.2490967611149746e+000,
       3.5574754401416784e+000, -1.1308362616480852e+000,
       5.0095378317655372e+000, -1.7690178023928975e+000,
       5.7232344178159247e+000, -1.8428166760814271e+000,
       5.3243327252020327e+000, -1.5217750433406041e+000,
       5.8108420526697317e+000, -1.7934146492737928e+000,
       5.2781322921416214e+000, -1.5478926818777952e+000,
       4.5968411024669349e+000, -1.1313914556914901e+000,
       4.1776424960740686e+000, -1.1389064237417359e+000,
       3.2959793712933783e+000, -1.0212767904677937e+000,
       2.7951280363797681e+000, -1.3714446829194682e+000,
       3.2853051386480701e+000, -2.0990561003971715e+000,
       3.9874228704107302e+000, -2.9464274334009555e+000,
       3.7014901555155966e+000, -2.1704039964894428e+000,
       3.2430708187779418e+000, -1.3559709617972506e+000,
       3.6296387183560745e+000, -1.3517206966070900e+000,
       5.0498379389174239e+000, -2.1585409507504600e+000,
       5.3150168365913553e+000, -2.5032300090708852e+000,
       4.3112209547775260e+000, -2.4597883027383722e+000,
       3.8567386235138201e+000, -2.4542882704237878e+000,
       3.6817220507057278e+000, -1.9755598998475796e+000,
       4.0748290863343097e+000, -1.7208829370845462e+000,
       3.8365050414091142e+000, -1.4009555847592106e+000,
       3.3892317251217983e+000, -9.3494411316735693e-001,
       3.0342513678109708e+000, -1.0157647929387257e+000,
       3.1373541421233577e+000, -1.5233351791629390e+000,
       3.1598431192179715e+000, -2.0110143470657436e+000,
       3.3606776814505008e+000, -2.4604825824420580e+000,
       2.9934666869930093e+000, -1.7768152005702451e+000,
       2.7941120777259938e+000, -1.4341423096908794e+000,
       2.8050576226581603e+000, -1.2655900993576927e+000,
       3.5263137322486369e+000, -1.9855471971011172e+000,
       3.5924014426206075e+000, -2.5634204076154021e+000,
       3.4665778200541744e+000, -2.6471478392128249e+000,
       3.4686588776799212e+000, -2.8591584951522848e+000,
       4.4443866069182771e+000, -3.1985749407865605e+000,
       4.2229466693392084e+000, -2.6439170451583789e+000,
       3.7095979132076407e+000, -1.7841522080321672e+000,
       2.7934934673913099e+000, -1.0295515910434709e+000,
       2.6097897395531091e+000, -9.5929659511231935e-001,
       2.8824638692273012e+000, -1.4463858050072311e+000,
       3.5296855051719360e+000, -2.3575827508252778e+000,
       3.3068238362087259e+000, -2.3055162609569839e+000,
       2.7250357879353140e+000, -1.5041540037406935e+000,
       2.7355627660461099e+000, -1.2772836424378837e+000,
       2.9254253349621360e+000, -1.4235305051168079e+000,
       3.3739696939845860e+000, -2.0990875097837569e+000,
       3.0535994610670274e+000, -2.2735115548398803e+000,
       3.8143555081917464e+000, -3.2052092493663675e+000,
       4.1779650413433460e+000, -3.4932955135743451e+000,
       3.4362014114878803e+000, -2.5914555885074724e+000,
       3.4431756674508440e+000, -2.4379900033615338e+000,
       3.1151163524307530e+000, -1.6959295169807482e+000,
       2.8415443314025843e+000, -1.1223457425568764e+000,
       2.6724433729801294e+000, -1.0810698438442627e+000,
       2.8264257382781151e+000, -1.3867816718925954e+000,
       3.3151228156229049e+000, -2.2156070739721043e+000,
       3.6418669725112442e+000, -2.5978351323389215e+000,
       2.8450823175755575e+000, -1.6433090726028738e+000,
       2.7975477028702596e+000, -1.4610246849316955e+000,
       2.7026443058143732e+000, -1.4320185283139912e+000,
       3.2701418057648235e+000, -2.2800618976488756e+000,
       3.3959121109958810e+000, -2.6180760923940087e+000,
       3.7861584123338798e+000, -3.0220843375454178e+000,
       3.6015317493735792e+000, -2.8931268067502742e+000,
       3.2499989631931689e+000, -2.4749605699635593e+000,
       2.8714533891662422e+000, -2.0224617930288402e+000,
       3.1068762295416263e+000, -2.0461802195579972e+000,
       2.8569189187412669e+000, -1.2808049699238806e+000,
       2.7028359077604587e+000, -1.2115385332785928e+000,
       2.4756961349182021e+000, -1.2219408922067965e+000,
       2.8633268817625432e+000, -1.7934838405990199e+000,
       3.3362443747708168e+000, -2.4776871604539625e+000,
       2.5802809426975193e+000, -1.4894019838143289e+000,
       2.6502684439138320e+000, -1.4739703140522153e+000,
       2.6941685555391817e+000, -1.5235326891289722e+000,
       3.5751328842231955e+000, -2.5128581412361721e+000,
       4.1077736221238457e+000, -3.0772460818855079e+000,
       3.6457432812706019e+000, -2.7596522683526383e+000,
       3.4058682810741305e+000, -2.4514032590353572e+000,
       3.4341079616200854e+000, -2.5934508138826042e+000,
       3.3072152994034698e+000, -2.3693229879312114e+000,
       3.5352692403178150e+000, -2.2701440706989988e+000,
       2.9679097981106159e+000, -1.4277023658900585e+000,
       2.5059836044723598e+000, -1.2335890214793861e+000,
       2.4283335297568476e+000, -1.2954042523985192e+000,
       2.8239452390248956e+000, -1.7593615192030647e+000,
       3.3589820919706321e+000, -2.3816264094575352e+000,
       2.8674735153769553e+000, -1.8284360639915189e+000,
       2.7079953708662030e+000, -1.5215966031442922e+000,
       2.7873747232348465e+000, -1.5873486992916486e+000,
       2.8185637023576007e+000, -1.7339905755433072e+000,
       3.5050423716789205e+000, -2.3442724448381189e+000,
       3.3393208361887532e+000, -2.3161690582943906e+000,
       3.1395874799067536e+000, -2.1262063231964774e+000,
       3.0773937069861654e+000, -1.9911254085988197e+000,
       3.8002933456419434e+000, -2.4031839440871199e+000,
       3.1620457658453498e+000, -1.7509530253093954e+000,
       3.3991879022618030e+000, -1.6900507613455196e+000,
       2.6827960597801384e+000, -1.2583109202507348e+000,
       2.4413592899378438e+000, -1.3242993089702590e+000,
       2.7392870454216589e+000, -1.9043090587175269e+000,
       3.4849010080914393e+000, -2.6308159755160503e+000,
       2.9040665069849396e+000, -1.8630703665529287e+000,
       2.5100678527479374e+000, -1.4294388517796806e+000,
       2.8042223709152352e+000, -1.6564386950877608e+000,
       2.7427116346987903e+000, -1.6267405178748908e+000,
       2.6394694558127663e+000, -1.5432071638027667e+000,
       2.4498947894821046e+000, -1.4371238377363451e+000,
       2.4604489184092944e+000, -1.3601124203365837e+000,
       2.5567795345725206e+000, -1.3844215959832231e+000,
       2.9229122192076620e+000, -1.3933229623111587e+000,
       3.5232454383270078e+000, -1.6235722507199108e+000,
       5.1931529412817126e+000, -2.3729971867827557e+000,
       3.2487740130904159e+000, -1.3831678969269736e+000,
       3.0446670265528164e+000, -1.5512646913220882e+000,
       3.2720604488965472e+000, -2.2328795014915617e+000,
       3.4438180685250166e+000, -2.7145389679151890e+000,
       2.8097084787277922e+000, -1.8991595152665304e+000,
       2.6316005927606771e+000, -1.6072742119298489e+000,
       2.6924621756404430e+000, -1.7160825083653892e+000,
       2.7169360112282379e+000, -1.7375276829278090e+000,
       2.9279290229736326e+000, -1.8633051452993683e+000,
       2.8052369747683206e+000, -1.5760100964011998e+000,
       2.7480540524713182e+000, -1.5209440176090361e+000,
       2.7084408724095081e+000, -1.3053759285648714e+000,
       2.8121517324956118e+000, -1.2703460917997473e+000,
       3.3205090428669908e+000, -1.2218817489578024e+000,
       5.0604911264850649e+000, -1.7616077840747009e+000,
       4.7298628886169212e+000, -1.5576184052158744e+000,
       3.6590949918950151e+000, -1.7635704235552847e+000,
       3.5438988080591591e+000, -2.3434211790834585e+000,
       3.1653648336761449e+000, -2.3193578364657501e+000,
       2.6016179361404479e+000, -1.7643913942829439e+000,
       2.5508736558992866e+000, -1.5993939300875344e+000,
       2.6132889806159172e+000, -1.6923969341955571e+000,
       3.7235550350393516e+000, -2.6658570445276637e+000,
       3.3357355343590775e+000, -2.2074247610287618e+000,
       3.0695404184737640e+000, -1.9183330876904161e+000,
       2.6130787490882885e+000, -1.4562190450568975e+000,
       2.6309208274618698e+000, -1.4444271554918937e+000,
       2.7201593734411484e+000, -1.1783528642215331e+000,
       3.1409414894010586e+000, -1.0906599380588582e+000,
       4.4323494788260707e+000, -1.2639984644601909e+000,
       4.3154131822331756e+000, -1.3176121308104971e+000,
       3.2775113502301441e+000, -1.4533491071469020e+000,
       3.4106240454387255e+000, -2.1825094970408010e+000,
       3.0531551550539655e+000, -2.3702749188710954e+000,
       2.4068513424572009e+000, -1.5734200703836290e+000,
       2.3888014005955713e+000, -1.5598668976046155e+000,
       3.2822310107086441e+000, -2.3654820432394459e+000,
       4.3404188534248487e+000, -3.3109188801396283e+000,
       4.7076862330108957e+000, -3.5200169621976096e+000,
       3.4444266980457425e+000, -2.4060641317829892e+000,
       3.1756691670542438e+000, -2.1505329140270280e+000,
       2.8032448888890982e+000, -1.5788486600693055e+000,
       3.3025419939181475e+000, -1.7471004158977281e+000,
       3.8417727673356388e+000, -1.7518757215066501e+000,
       5.5296609611492080e+000, -1.9687063129535471e+000,
       3.1896205964728823e+000, -1.0078014162227524e+000,
       2.7711652632120876e+000, -1.1386323940634870e+000,
       3.2780325857397390e+000, -1.8451777120543076e+000,
       3.1450446640135916e+000, -2.4547872122301708e+000,
       2.3510140189205462e+000, -1.5847891174732240e+000,
       2.2815029578342982e+000, -1.5076960661056162e+000,
       3.1091240594047775e+000, -2.2492805099179138e+000,
       5.0168594387455263e+000, -4.0652865391886257e+000,
       3.2734224637994482e+000, -2.4270260830192343e+000,
       3.0710967045214179e+000, -2.2916369825514713e+000,
       2.6008985295110270e+000, -1.8476971545183913e+000,
       2.8674180057204084e+000, -1.9213758175645923e+000,
       3.5528966999531986e+000, -2.2130344786673026e+000,
       4.2769149457067650e+000, -2.3596159718510363e+000,
       3.9382235893576500e+000, -1.7493371565011842e+000,
       3.2097967544373414e+000, -1.0608951873801333e+000,
       2.5633436874281208e+000, -9.6379331129059187e-001,
       3.1589728111337863e+000, -1.7448080225770248e+000,
       3.1874333136055792e+000, -2.3469796071324422e+000,
       2.4047369431931398e+000, -1.5760275986004293e+000,
       2.3851702593973823e+000, -1.4970570881663208e+000,
       3.0655762109237101e+000, -2.1004380852124926e+000,
       2.9606450678201233e+000, -2.2550104434175502e+000,
       2.6143327401869083e+000, -1.9298480943311742e+000,
       2.3495746737773771e+000, -1.6920245169490016e+000,
       2.5888137504441993e+000, -1.9074442179106637e+000,
       2.5003202887040548e+000, -1.7193961812527008e+000,
       3.1004719245451215e+000, -2.1215184043644739e+000,
       3.6091254973679581e+000, -2.3377314027284468e+000,
       3.2766550384388258e+000, -1.5279369083124843e+000,
       2.6294447612803151e+000, -9.6611280934228905e-001,
       2.6003510301219359e+000, -1.0528480308442361e+000,
       3.0063256433275578e+000, -1.6356333849836446e+000,
       3.2789616132580570e+000, -2.1207504587655204e+000,
       2.7677331610663432e+000, -1.5411337947818629e+000,
       2.9341933911643161e+000, -1.5190711830836097e+000,
       3.3989548273481747e+000, -1.9265972632319222e+000,
       3.5384204946252611e+000, -2.4762104485013223e+000,
       2.9955305798293121e+000, -2.3526888273631963e+000,
       2.8714280003113961e+000, -2.1785606570995522e+000,
       2.6455822475939836e+000, -1.9325301556920500e+000,
       3.6917260698639480e+000, -2.9167789636375363e+000,
       3.5268567534079702e+000, -2.7247761447809449e+000,
       3.9540905036788225e+000, -2.6780492782763141e+000,
       3.6221122343647152e+000, -1.9066625561766257e+000,
       2.7017652873155531e+000, -1.0285454136369745e+000,
       2.5944370749785892e+000, -1.0623495955684428e+000,
       3.0347398257293201e+000, -1.7349913621830244e+000,
       3.5890922866831434e+000, -2.4344836646585373e+000,
       2.9300409701960439e+000, -1.4861892727979285e+000,
       2.7433177041460715e+000, -1.2244244885607030e+000,
       3.2484321222610539e+000, -1.6889560659441547e+000,
       3.6142499012462848e+000, -2.2675738483821917e+000,
       3.3651880895931461e+000, -2.4340681894640239e+000,
       3.1588047586822747e+000, -2.4525125302783799e+000,
       3.4964474016531195e+000, -2.8667704542456622e+000,
       4.0130045999749964e+000, -3.3672922461748578e+000,
       5.0703372357887879e+000, -4.0132395363227200e+000,
       4.6773251187315283e+000, -3.0622016693160661e+000,
       3.5961542538889253e+000, -1.8741587981472478e+000,
       2.6321386420634529e+000, -1.0529878510271475e+000,
       2.6002109378444516e+000, -1.0668316447639721e+000,
       3.2058114582706407e+000, -2.0379628409165211e+000,
       3.2046187546918250e+000, -2.1410797458415272e+000,
       2.6819224235044472e+000, -1.3547091406089313e+000,
       2.5072429655190991e+000, -1.1518947351609965e+000,
       2.8277028677159985e+000, -1.3794832114454896e+000,
       2.9770400238967882e+000, -1.5600355783025088e+000,
       3.7681397874864486e+000, -2.4866579723080124e+000,
       4.0094066119389655e+000, -3.0768983667342260e+000,
       4.2733126258882628e+000, -3.5913873440467703e+000,
       4.0820803058413953e+000, -3.2455925346018124e+000,
       4.3569632758630386e+000, -3.0750494631130039e+000,
       3.8352463309099720e+000, -2.2435060057077583e+000,
       3.0766103079089095e+000, -1.5653351245837854e+000,
       2.5774609095532379e+000, -1.0099914728546930e+000,
       2.5590567627268119e+000, -1.1813136364119319e+000,
       3.2559279383933655e+000, -2.1272151333066112e+000,
       3.1569612200755373e+000, -2.2299301980939275e+000,
       3.0005137952437266e+000, -1.6750255916129737e+000,
       2.6541695384943194e+000, -1.1254533055669274e+000,
       2.5817958948054849e+000, -9.7534511645146360e-001,
       3.0605352299480351e+000, -1.3406050527715434e+000,
       3.3190131822587978e+000, -1.5466101926867677e+000,
       3.3031164845655558e+000, -1.8914058304855443e+000,
       3.5775037286726961e+000, -2.1068910876666194e+000,
       3.6112457504998710e+000, -2.0789329819209028e+000,
       4.2636260110786273e+000, -1.9871734040355074e+000,
       4.4463243461703339e+000, -1.9378853851653017e+000,
       3.3437208807043595e+000, -1.2474224921428798e+000,
       2.9791138430657784e+000, -1.1215555155989112e+000,
       3.4649369777872101e+000, -1.6143240995154280e+000,
       3.6162666860458539e+000, -2.2699582296835272e+000,
       3.5935464476945738e+000, -2.8145752453946908e+000,
       3.2884952956933207e+000, -2.1763657936790399e+000,
       2.8307302076847938e+000, -1.3239185472241557e+000,
       2.7697251070754345e+000, -1.0133935429045753e+000,
       2.8299046945099078e+000, -8.9515477685046030e-001,
       3.0401411426267195e+000, -1.1572489842591160e+000,
       2.9728669702173920e+000, -1.0782013152001162e+000,
       3.0906568699007297e+000, -1.1853238980112129e+000,
       3.1742409636200919e+000, -1.2434714673377931e+000,
       3.2220875947778262e+000, -1.2848116522416582e+000,
       3.0925749614250231e+000, -9.2497372558107538e-001,
       3.5115426347485235e+000, -1.2359075601264569e+000,
       3.1661919122656319e+000, -1.2582027549200101e+000,
       3.1789827305124749e+000, -1.6904468444664451e+000,
       3.3522164255690416e+000, -2.2908421825369425e+000,
       3.4274886922285059e+000, -2.8133323604108589e+000,
       3.0311666831104045e+000, -2.1629471081188063e+000,
       3.0365945843312585e+000, -1.8401590936603311e+000,
       3.0646412667978336e+000, -1.3745214933273349e+000,
       3.0272775496334132e+000, -1.1414326567879114e+000,
       2.9465832883190615e+000, -9.0284846746331049e-001,
       2.7719697436666046e+000, -5.7780727152340028e-001,
       2.7719697436666046e+000, -5.7780727152340028e-001,
       2.7506380271048507e+000, -6.2627150237892082e-001,
       2.9928278890623194e+000, -1.0740173468779215e+000,
       3.2616879241755177e+000, -1.2822686917524702e+000,
       3.1860019157804671e+000, -1.3042781342094893e+000,
       2.8160660740571388e+000, -1.4790106511678418e+000,
       2.6783319296800179e+000, -1.6932948100376297e+000,
       3.0981930969964986e+000, -2.2336897601548440e+000,
       3.4259713955110054e+000, -2.9504536391261120e+000,
       3.4107823629543428e+000, -2.8775909075078681e+000,
       3.7213057542698578e+000, -2.8225981321645395e+000,
       3.7648554445587297e+000, -2.4750389898942076e+000,
       3.4177325474382334e+000, -1.7811338324459756e+000,
       3.5033081423634038e+000, -1.5139577659667829e+000,
       3.3579214031927163e+000, -1.4219896650943029e+000,
       3.2485187656850525e+000, -1.4419895625098464e+000,
       3.3280979681336671e+000, -1.5078311687523742e+000,
       3.4887730333618223e+000, -1.6461174782047545e+000,
       3.6437791430197732e+000, -2.1162894104291730e+000,
       3.6603515737199737e+000, -2.3669935255393209e+000,
       3.2753730486484094e+000, -2.2776409319688984e+000,
       3.0771364749564851e+000, -2.2597227822315165e+000,
       2.9316811143458033e+000, -2.2868747407087744e+000 ]
   output_scale: [ 5.2631578947368418e-001, 4.9999999999999994e-001,
       5.2631578947368418e-001, 4.9999999999999994e-001,
       5.2631578947368418e-001, 4.9999999999999994e-001,
       5.2631578947368418e-001, 4.9999999999999994e-001,
       5.2631578947368418e-001, 4.9999999999999994e-001,
       5.2631578947368418e-001, 4.9999999999999994e-001,
       5.2631578947368418e-001, 4.9999999999999994e-001,
       5.2631578947368418e-001, 4.9999999999999994e-001,
       5.2631578947368418e-001, 4.9999999999999994e-001,
       5.2631578947368418e-001, 4.9999999999999994e-001 ]
   inv_output_scale: [ 1.8999999999999999e+000, -9.4999999999999996e-001,
       1.8999999999999999e+000, -9.4999999999999996e-001,
       1.8999999999999999e+000, -9.4999999999999996e-001,
       1.8999999999999999e+000, -9.4999999999999996e-001,
       1.8999999999999999e+000, -9.4999999999999996e-001,
       1.8999999999999999e+000, -9.4999999999999996e-001,
       1.8999999999999999e+000, -9.4999999999999996e-001,
       1.8999999999999999e+000, -9.4999999999999996e-001,
       1.8999999999999999e+000, -9.4999999999999996e-001,
       1.8999999999999999e+000, -9.4999999999999996e-001 ]
   weights:
      - [ -7.3049846343043137e-002, -2.1456438351287652e-001,
          2.4826434073051760e-002, 1.0340032356251985e-001,
          -1.7220137875286404e-001, -4.2885641131044996e-002,
          4.8496670468206354e-002, -3.7287756236581682e-001,
          -1.2609779509817204e-001, 2.2341575847896752e-001,
          2.4610790049783798e-001, -4.4530012621286624e-001,
          2.2900761290059021e-001, -1.9024763388623717e-001,
          -6.8768580232287790e-001, -7.0140572039355725e-002,
          -2.2406821467618024e-001, -3.5023617344135732e-001,
          1.0564132823936571e-001, 3.2943698273485966e-001,
          -4.9348470812433168e-002, 4.9484961426945848e-002,
          -3.6469491973583273e-001, -5.3116585513935013e-002,
          4.2164710060240709e-002, 2.4775515404569343e-001,
          -2.3800193587944801e-001, 2.3344540045411086e-001,
          -1.8629610168132055e-001, -6.8689852382908201e-001,
          -7.0777890626321158e-002, -2.2167389818499392e-001,
          -3.9215989555142705e-001, 1.0655041975837558e-001,
          3.6951209993008444e-001, -4.0271184294737264e-002,
          4.2361882460404010e-002, -3.6928778793824835e-001,
          -6.1411018796575650e-002, 3.9955514317274801e-002,
          1.2182247389135578e-001, -3.0583802765314699e-001,
          2.3044882981985351e-001, -1.9349014393075853e-001,
          -6.9379145102928674e-001, -1.9722431274779281e-001,
          -2.1801420880745784e-001, -5.0929029829788375e-001,
          2.2095358559917778e-002, 2.4798397714742279e-001,
          -4.3930489790971763e-002, 4.4419665862991856e-002,
          -3.6629634842636766e-001, 2.7436034008710025e-001,
          4.4326842646815648e-002, 3.2413802374149114e-001,
          -4.3902561231555565e-001, 2.2878579877436009e-001,
          -1.9218211587907991e-001, -6.8859779364730433e-001,
          -4.5741431321218806e-001, 8.9311974705283612e-002,
          -2.1057576938271491e-001, -1.8582743581405218e-002,
          1.5384299052593706e-001, 1.6116899733965734e-001,
          4.5812566049965607e-002, -1.5259074979510789e-001,
          3.8302063951069598e-001, 2.7216266035367093e-001,
          -1.5272629988907341e-001, -1.0413308364724538e-001,
          7.4388020207122929e-001, -2.0245331345302247e-002,
          -1.3508821240485996e-001, -1.5506950074074138e-001,
          -9.7874063691845092e-002, -1.1510965469198742e-001,
          -1.0005241112835683e-001, 1.2193574899979671e-001,
          2.2149853888914889e-001, 5.8433395197832250e-002,
          -2.0144602292873096e-001, 1.9398789671670932e-001,
          1.3285346153946262e-001, -7.1973328445919006e-003,
          -5.5931185794434228e-002, 1.0967158036779974e-001,
          2.3882064304983314e-001, -2.2891883737746965e-001,
          -5.7189750673255813e-001, 9.7424503457517922e-002,
          -2.0005904094733712e-001, -1.7945326175216533e-002,
          5.7506890084200568e-001, 3.1908325409938021e-003,
          5.7176954838932759e-002, -2.0374598921125001e-001,
          -1.1973390277637817e-001, -1.2993967059061401e-001,
          -2.2213892620829959e-001, 3.2630193156435122e-001,
          -1.9800049918460458e-001, 2.2989907798736425e-001,
          -4.7938955716765996e-001, -7.2574579683047002e-001,
          -2.1574686066492224e-001, -1.8013510364165292e-001,
          -1.8570068509433005e-002, 5.7234483671660552e-001,
          -3.2382404955728023e-003, 3.9263906045801079e-002,
          -5.6676385191346357e-001, -2.6849135819072013e-005,
          -1.2950263524884845e-001, 1.3740571091340132e-002,
          8.2612644530946897e-002, -1.9567304919951831e-001,
          2.3035702328224955e-001, -1.9383538519655485e-001,
          -7.2863559182849758e-001, -2.2538517721796089e-001,
          -1.7791100215087485e-001, -1.4609520604364243e-001,
          1.4356682035509694e-001, 2.6134391189215544e-003,
          4.8814279629811330e-002, -5.6425421401246978e-001,
          -2.6174371566300680e-001, -1.3102473843689127e-001,
          8.9500652317224746e-002, 9.0591103193514808e-002,
          -1.9579682386777528e-001, 2.3587654903747668e-001,
          -1.9283179226943981e-001, -7.2281145385404655e-001,
          -2.2562528539491442e-001, -1.8323726759569298e-001,
          -1.5331666783772238e-001, 1.4548902908666281e-001,
          -7.0067177190148624e-003, 4.7255923001085838e-002,
          -6.6149453689911666e-002, -2.5985217398242888e-001,
          -1.2888345030546822e-001, 8.9541540138471834e-002,
          8.7937404314973280e-002, -1.9438125961191663e-001,
          -2.3867645208016663e-002, -1.8804026641788329e-001,
          -1.3362693716705665e-001, 8.9168722012004167e-002,
          -2.9473144942156321e-001, -1.6349974520726979e-002,
          1.6922269924092223e-001, -7.7388706157532183e-002,
          1.6096013476426850e-003, 1.7999348769405552e-002,
          -7.3657524031323496e-001, -2.9095482639798897e-001,
          8.9419273616191647e-002, 3.6559380506403831e-002,
          -2.0253182319311183e-001, -2.5566283531926842e-002,
          6.5460215723373827e-001, -5.2891640051354841e-002,
          -3.3276115190781427e-003, -2.0317897885693575e-001,
          -9.2213588084021844e-002, 7.0135912458057573e-002,
          -2.0479029978535626e-001, -1.5320385880972032e-001,
          -1.2194051775073923e-002, -1.1606731409421940e-001,
          -4.9513464940920521e-001, 3.4239929539269937e-001,
          -3.2050059515078050e-001, 2.3341921237541877e-001,
          -1.9290415575498276e-001, -6.4528859693407326e-001,
          6.3294380740939196e-002, -4.4228028030882036e-003,
          8.5673967274402671e-002, -9.4067536262742134e-003,
          7.0442880660633769e-002, -4.7772927977978677e-002,
          -1.7359422767831048e-001, 1.0142150443085227e-001,
          1.1918700279538948e-001, -4.9530937148045734e-001,
          5.6978248662687092e-001, -5.9827758946111864e-001,
          2.2593230664957245e-001, -1.8981415957102882e-001,
          -2.8918740477364785e-001, -1.4194034010762735e-001,
          9.2060751812378341e-002, 7.7403311754012036e-002,
          1.1095881783493419e-001, 9.3868932584162762e-002,
          -4.8450194503653357e-002, 2.1937627165935863e-002,
          1.0215806603439309e-001, 1.1745765348866617e-001,
          -1.7658411715016271e-002, 2.5575768214661548e-001,
          -6.0006810356251228e-001, 2.3284756614859273e-001,
          -1.8474628545434574e-001, -2.9240486717119490e-001,
          2.0016891423595203e-002, 8.6919011451566178e-002,
          -4.9380289849530370e-002, 1.1165010555431563e-001,
          -1.6723834374127325e-001, -4.9202751153892513e-002,
          -1.1450840318712870e-001, -2.2282504559482830e-001,
          1.1345576676006215e-001, 3.9654727380797464e-002,
          -3.7159749453847570e-002, -2.4542904640909380e-001,
          2.2569225071823670e-001, -1.8615359561368755e-001,
          -2.8409609316161749e-001, -4.4124398200994057e-002,
          -2.1372984720283891e-001, -3.1426310371022664e-001,
          -3.1737813694030269e-003, 3.3446487389895618e-001,
          1.1040043564012043e-001, 3.9440064844147554e-002,
          -3.6788175554468144e-001, -7.6658609747616249e-002,
          4.5176099178175895e-002, 2.5343655992327013e-001,
          -3.1764406571607090e-001, 2.3686262465782534e-001,
          -2.0745607368224439e-001, -2.0714412145969088e+000,
          -5.1578905974598355e-002, -2.1744785138948700e-001,
          -2.7115244261562538e-001, 1.1224715175296771e-001,
          3.3837888783951797e-001, -4.6268013940307565e-002,
          4.4317354007103391e-002, -3.7480838952310908e-001,
          -5.9255250146960287e-002, 3.5202298470611307e-002,
          1.2146171753299415e-001, -4.3500395986445711e-001,
          2.3214626249943690e-001, -1.8548221934644299e-001,
          -6.9655138697617425e-001, -1.9953570965881551e-001,
          -2.1433284393803484e-001, -3.8452392486740550e-001,
          2.2257747257825346e-002, 3.3018545655287290e-001,
          -4.7561392190176674e-002, 3.7636559568866017e-002,
          -3.6685695333684953e-001, 2.7797252327594463e-001,
          3.8042800979639371e-002, 4.7997955035440792e-001,
          -4.3576458197312601e-001, 2.2647160772333844e-001,
          -1.8849345742673895e-001, -6.9605212120701621e-001,
          9.1074514387252795e-002, -2.2147505099678769e-001,
          -3.8647185908158666e-001, 3.8502226886873159e-002,
          2.7245406665110733e-001, 1.6367935608226492e-001,
          4.3151762830509685e-002, -1.5460903961155698e-001,
          -6.2276607449530980e-002, 4.3430671761764419e-002,
          -8.0413859156821116e-003, -6.3626889371027262e-001,
          2.3664065404479298e-001, -2.3110932893028218e-002,
          -2.6482207790463580e-001, 9.3869734360584475e-002,
          9.0202234072903412e-002, -1.0383129291845903e+000,
          3.7987682387453627e-002, 3.1751959161629811e-001,
          1.6602434451968490e-001, 4.5527226490535783e-002,
          -1.6056589787127451e-001, 2.5455668686771293e-001,
          4.1368777487596278e-002, -7.5296249525035278e-003,
          -6.4122001408013241e-001, 2.3367559849493683e-001,
          -2.3372775324755884e-002, -2.5678669761570483e-001,
          1.2172432783475283e-001, 9.4563660334410729e-002,
          -8.5074706282215717e-001, 2.2632558696164363e-002,
          -8.7639152755337124e-002, 1.6728971774423657e-001,
          5.5620300619354537e-002, -1.5120768386798555e-001,
          3.7271884336947925e-001, 2.6768830000622007e-001,
          -1.9650780447903048e-002, -1.0076248430184678e-001,
          7.4769425613484197e-001, -2.3222948118585423e-002,
          -1.3061785564571529e-001, 2.6862589643510787e-001,
          -1.0114594321675642e-001, -4.3361117593638326e-001,
          3.8321818673161222e-002, -6.6081125523617223e-002,
          7.6706926329010139e-001, 5.2214919758745804e-001,
          7.8064741766238014e-003, 1.2309287294952570e-001,
          1.2401004381857690e-001, -5.8758807853829054e-003,
          -5.2886845303631824e-001, 9.3528050155104314e-001,
          8.5569589824115311e-001, -3.2396806615018391e-002,
          2.5907529623138126e-001, -1.0038402860765790e-001,
          -4.3298795675289453e-001, 4.5674548025328998e-001,
          -6.0512857254317598e-002, 7.6920101871967483e-001,
          5.1477288154087553e-001, 1.3231933531909158e-004,
          1.2461616038802115e-001, 1.3223294947823358e-001,
          -2.2369001565074155e-003, -5.3188936916988083e-001,
          9.2734661955061937e-001, 8.6662066312549624e-001,
          -2.7185151057077143e-002, -2.0955925408227369e-002,
          -9.6416850684859792e-002, -4.2758806328808713e-001,
          -3.9520840962743009e-001, 2.0508655455380817e-001,
          7.6028968284179843e-001, -2.6097351706453548e-003,
          -8.0197817118810924e-002, -3.1098031852414920e-001,
          2.9554588501801263e-002, 3.2900096146502533e-001,
          -1.4103723252619038e-001, 2.9340064535799254e-001,
          8.6580880735322729e-001, -1.5961098970412613e-001,
          1.0980092960977031e-001, 3.4185376045349436e-001,
          -5.0715183610272507e-001, -4.2319097056307410e-002,
          7.0791300379417901e-002, 1.6675749175809346e-001,
          -1.2057508802152847e-001, -1.5604264622144665e-001,
          -1.1729862683669341e-001, -1.8844295055138589e-002,
          1.0455609301422555e+000, -2.4330409811964387e-001,
          2.3096999722127973e-001, -2.1440525990357433e-002,
          -2.6098555677012797e-001, 1.8830944979490845e-002,
          9.3519992493811141e-002, -2.0493297620153605e-001,
          6.1326690032057436e-002, 9.4933852989584483e-002,
          1.6026297191151717e-001, 3.8674986830419679e-002,
          -2.1647152961211205e-001, -1.2488470576981579e-001,
          -1.7187200086785776e-002, 3.5732876954075822e-002,
          -2.3984821577492366e-001, 2.2668319817507024e-001,
          -2.5693017308752380e-002, -2.5841523977526432e-001,
          1.8603376843678021e-001, 8.8790642114406224e-002,
          -2.0608719651308635e-001, 4.2454821341657734e-001,
          2.2546144386649275e-001, 1.6512124415992696e-001,
          -1.1334570879566917e-001, -2.1931226771039483e-001,
          6.9160014137117343e-001, -1.7941806140165485e-002,
          4.7070714121389794e-002, -4.4157186370846718e-001,
          2.2516044429533946e-001, -2.7329111024488855e-002,
          -1.9489223537134243e-001, -1.4223092176085383e-001,
          8.9378826922050778e-002, -2.1600931593439929e-001,
          5.3625658701289991e-001, 3.3089476812782803e-001,
          1.6449582725815809e-001, -1.1543532686039219e-001,
          -2.2156596426032152e-001, 6.9633571720650367e-001,
          -1.7720262614399619e-002, 4.5053699193322687e-002,
          -4.4233096041626180e-001, 2.3366709499763874e-001,
          -2.2877649143590344e-002, -1.9529969662993543e-001,
          3.0050007357162581e-002, 9.1163427638034908e-002,
          -5.3042252517844106e-002, 1.0138275795957567e-001,
          9.1183844100451245e-002, -5.0411777305070418e-002,
          -1.1126980892915576e-001, -2.1806809537808219e-001,
          6.3931150201138931e-001, 4.1745712871585142e-002,
          -3.4563442666399900e-002, -5.9973065854023766e-001,
          2.2981415282979770e-001, -1.9406426357748080e-001,
          -2.8921428232029839e-001, 2.3188068466008314e-002,
          9.3640748960993989e-002, 7.9238527169411543e-002,
          1.1529907197018238e-001, 2.3342499827749857e-001,
          -4.5584548838794661e-002, 1.5133148063781833e-002,
          -2.1199582767730391e-001, 1.1325611668941911e-001,
          -8.8946221876023846e-003, -3.6641730965002041e-002,
          -4.4347154400406891e-001, 2.3215617662594881e-001,
          -1.9222481028273980e-001, -2.8635866475481264e-001,
          -1.5678183676124957e-001, -2.1590293068644242e-001,
          5.2384325339258540e-002, -1.5484407907335393e-002,
          2.1077315880876392e-002, -2.0369552931435828e-001,
          4.8898862014114086e-002, -3.7073200939087497e-001,
          3.0169256337472727e-001, 2.7025483575904069e-001,
          1.4195394646006879e-001, -5.4925875774632392e-002,
          1.5456397447290451e-001, -1.9201785779300184e-001,
          -3.5622114079539258e-001, -1.3009327197703015e-002,
          -2.2250721616730826e-001, -4.0598308266368038e-001,
          -1.5022882548193447e-001, 2.3181915770767042e-001,
          1.0984309376232600e-001, 3.9339835102641899e-002,
          -3.7392405732063805e-001, 4.3404228578661991e-001,
          -1.5688359758142428e-001, 3.2276311863153928e-001,
          -4.4039826671307997e-001, 2.3348001534423915e-001,
          7.8894764884592822e-002, -6.8942576184008419e-001,
          -2.6306238217548888e-001, -2.3629735940837909e-001,
          -2.8489909666776891e-001, 2.2827743630941484e-002,
          1.3779874950662960e-001, 2.1978106930679475e-001,
          5.2361148831218707e-001, -1.9473792527096759e-001,
          1.1708926812640560e-001, -1.4937102111054817e-001,
          -1.0526339070825123e-002, -6.3370085980440793e-001,
          4.7167999895336307e-002, -2.6071832304422487e-002,
          -1.5917852031722679e-001, -5.6938168237771902e-001,
          9.2426920475765798e-002, -3.8885627776316145e-001,
          2.1746111769156662e-001, 1.0852345380770670e-001,
          3.6542424825424519e-001, 5.3333881663286575e-001,
          -1.9672546805791294e-001, 1.8447784188048139e-001,
          2.9579183883802759e-002, -9.2669161334476211e-003,
          -6.6046565162578702e-002, 4.7700808744988749e-002,
          -1.9751913220688716e-001, -1.6037940930447042e-001,
          -2.0877594801349894e-001, -1.0430242637502539e-001,
          -1.1257969814834595e-001, 4.4792694015823004e-001,
          2.7226989785138839e-001, 3.0651636892058182e-001,
          5.3448678483462309e-001, -4.0640665024466748e-002,
          -5.5401254225217800e-002, 2.9062880419842004e-002,
          -6.2965998888254160e-003, -6.9825791106689683e-002,
          -1.3136040731665669e-001, 8.6422890847243927e-001,
          -1.2157141014574471e-001, -7.3208773196374433e-001,
          8.6780686060782805e-002, -1.7465515413744126e-001,
          -2.1237366803617402e-002, 4.7182057575154346e-001,
          -1.6927598015246202e-003, 3.1142373002505701e-002,
          -5.6075516040774975e-001, -1.2821571934696002e-001,
          -1.2018003952325490e-001, -1.4467005444530703e-001,
          9.2998834368031205e-002, -1.9456680997092204e-001,
          -2.5073646114925251e-002, -4.8459652287422905e-001,
          -7.3428121222365117e-001, 9.5319229533338365e-002,
          -1.8301780431723802e-001, -2.4379797131897432e-002,
          1.4268674206696602e-001, -3.0633641131158290e-003,
          4.1584464297913237e-002, -5.6720023678382170e-001,
          4.5446127866571127e-003, -1.2349322236323280e-001,
          -3.4898332346048733e-001, 8.5734608790391978e-002,
          -1.9391679709552059e-001, -2.5962273582794886e-002,
          -1.9344673739141394e-001, -3.3825740705970003e-001,
          -5.3261261204832677e-001, 2.8631935808989175e-002,
          -1.7977664548100517e-001, 2.5443166325749511e-001,
          -3.7054226258785367e-001, -7.7580902266188703e-002,
          -5.5930299420681628e-001, -2.6358215663279205e-001,
          -5.5078285433613849e-001, 8.2997229691565266e-003,
          9.2378756071206922e-002, -1.9271866670052443e-001,
          -1.2696028210490456e-001, -2.3718170719371909e-001,
          -1.3475799123602003e-001, 9.4855133769152930e-002,
          -1.8581150618116610e-001, -2.3812418769702803e-002,
          6.5058210732338362e-002, -2.4620880529949646e-003,
          4.8479850061193715e-002, 1.8694349452594405e-002,
          1.9635440159670465e-003, -1.2932372913445769e-001,
          -1.1548412422323925e-001, 8.2980552968417262e-002,
          -1.9438560396334195e-001, -2.1871744602629761e-002,
          -1.8329225656821158e-001, -4.5890113240829707e-002,
          9.5630749281984187e-002, 1.9731050976635772e-002,
          3.0808625721778238e-001, 6.3439512805916864e-002,
          2.5376341472721003e-003, 1.3353908533056694e-001,
          2.2240088772032471e-002, 1.9516354618219278e-001,
          -7.3308090720165198e-001, -3.3308824036433138e-001,
          9.3334558924260555e-002, -2.0205813639699635e-001,
          -2.1828107395118795e-002, -1.6923331762207844e-001,
          1.7736213531370233e-002, 1.6372750672798972e-001,
          2.6510393374061286e-002, 8.1153794864541745e-002,
          3.0122818002101953e-001, 1.5804463242993733e-001,
          1.3151883432245778e-001, 1.8104163832624892e-002,
          1.3089777811740083e-001, -1.2585125924138896e-001,
          -2.1778282554980086e-001, -7.5241957046096319e-002,
          -1.3105145700294132e-001, 5.0149058931308998e-001,
          1.1897137925484237e-001, 1.9532740198626389e-002,
          9.1976772423905992e-002, -1.8384455735721136e-001,
          1.3985849252691079e-001, 5.1052630600151402e-002,
          -2.7969391890486400e-002, -1.1180947627402739e-001,
          4.9838455659339066e-002, 4.1812934002747271e-001,
          -3.0871931823941162e-001, -2.2524303803683640e-001,
          -2.7799507292211308e-002, 2.5900552789837057e-002,
          -2.2611405250472599e-002, -2.9530780482110108e-001,
          2.4875802946938228e-002, 9.2354150159632067e-002,
          -3.9524349146448740e-001, -2.2013462926127603e-002,
          4.2189198917124709e-001, -2.9441060154276274e-002,
          -1.0957628586940209e-001, -2.1733700211483611e-001,
          4.2246245597547760e-001, -1.0041706067515878e-002,
          -2.1153402881885883e-001, -2.7092441040614309e-002,
          2.3191504373163759e-002, -2.2448746473978636e-002,
          -2.9210356217117606e-001, -8.7320069723324928e-002,
          8.8723602957905087e-002, -5.1276559384321885e-001,
          -1.6882914257124366e-002, -4.6884609456718240e-002,
          -4.6491604753959734e-002, -1.1120875476140300e-001,
          -5.2735005241590660e-001, 4.3884082851111311e-001,
          -1.1137303496361757e-002, -1.4944803852853458e-001,
          -3.2382979202023038e-001, 2.2671203530461595e-001,
          -1.9335214732913286e-001, -9.1491425892174016e-001,
          -1.4804955095872044e-001, 9.2822910658082639e-002,
          -4.7249538083113406e-002, 6.3653371327126507e-002,
          -3.6615131595150313e-002, -3.9570905383569069e-002,
          -1.1309009651405193e-001, -2.1492575912044909e-001,
          6.9813077147489522e-001, -1.1382009047446620e-001,
          4.7169130521645918e-002, -4.3630450876368437e-001,
          2.3017063499915205e-001, -1.8655861046743383e-001,
          -2.9361157818595857e-001, -6.7965531125854206e-001,
          -2.1697346571837076e-001, -7.4115433603610822e-002,
          -1.5638743041397049e-001, 6.6428279578360686e-002,
          -8.9562813907175000e-003, 2.6335866522461122e-002,
          -4.8879109132276327e-001, 2.4452714308265214e-001,
          1.2378758751426523e-001, 8.5898522551268397e-002,
          -6.3986629448005997e-002, -3.5416054147350474e-002,
          1.0249648966554381e-001, -1.0877474278151051e+000,
          -3.6781957293699610e-002, 8.8292777465149422e-002,
          -3.7051516637812187e-001, 1.4916583207773859e-001,
          -2.1567183160153527e-001, 3.6459920088029391e-001,
          5.0424705693429195e-001, -1.9307514177200394e-001,
          6.2540858055565071e-002, 2.1825899622719711e-001,
          -2.3008691019962041e-001, 7.4213438596930331e-002,
          2.8727905543467402e-001, 1.7942987067931618e-001,
          -2.9074186691062768e-002, -3.6178393400502457e-001,
          1.6093377998051328e-001, -3.7933573072367327e-001,
          2.7851044658215535e-001, -2.0292543585459250e-001,
          3.6765303655363674e-001, 1.0524414527728239e+000,
          -2.0322727746128091e-001, 3.3851225528797400e-002,
          3.7888113713634036e-001, -5.3593360216001914e-003,
          -1.2987854455144723e-001, 4.9757888297037853e-002,
          -1.4860135482740990e-002, -1.9555604711960908e-002,
          -2.6281844967995927e-001, 1.5450508647872443e-001,
          -9.2425346286030344e-002, 2.4459178068895432e-001,
          -8.5133348854106554e-003, 9.6128741984925392e-001,
          1.0464023817506216e+000, -3.5630587433892268e-002,
          -1.4109450972249385e-001, 3.8194152020679178e-001,
          -1.7402724767876601e-001, -1.3595434637301534e-001,
          -1.5644984789832098e-001, 4.5160444950629952e-001,
          -1.2791685623006743e-001, -3.7385998679084165e-001,
          3.9598464066359106e-002, 3.6550497907439680e-002,
          1.8003814046151873e-001, -1.4241027173106720e-002,
          -8.2444367451813064e-003, 4.1892526755821879e-001,
          -5.5740987008243159e-001, 6.7560596585624893e-003,
          9.6050336439483075e-002, -3.1884073369529126e-001,
          3.2396626345303975e-001, -1.9413172970253037e-001,
          1.3694431565254378e-001, 1.8499739827005718e-001,
          -2.6721893230405348e-002, 3.6400392766626641e-002,
          2.6772001362448773e-002, 1.1885518582135766e-001,
          4.3947225021623421e-001, 1.6107786256829060e-001,
          -3.6311887066172815e-001, -2.9647971461435468e-001,
          6.3285846511130339e-002, -1.6806431042740771e-001,
          -3.7067493290016074e-001, 8.7165508299400354e-002,
          -9.3377287079309623e-001, 1.7339458041667560e-001,
          -4.4985477008537535e-002, -1.5922522969012937e-001,
          9.5057921880395482e-002, 4.3748492409541423e-001,
          -2.3777345220160406e-001, -2.7341373056542861e-001,
          -3.7350249857081319e-001, -4.5460594227580881e-001,
          -2.9485455772419455e-001, -1.0868876412842376e-001,
          -5.4116513466253902e-001, -3.3932828742795745e-001,
          2.2913132628477406e-001, -9.3119241723652413e-001,
          -3.0995515782054880e-002, 1.1220479265739218e-001,
          2.9271111824805734e-001, 9.5865713010937950e-002,
          1.2097025197297355e-001, -2.4465328300744499e-001,
          6.7787014547550040e-002, -7.6492707774070234e-001,
          -9.8783285285598832e-001, -1.0149797236144693e-001,
          -1.0329018150803992e-001, -5.4105993900697047e-001,
          1.6211040122700429e-001, 2.6169949469548542e-001,
          -9.2874462885391085e-001, -4.5415518231159246e-001,
          2.3170823038245674e-002, -8.5070165737825262e-002,
          1.0199466463866254e-001, 4.3637413477161696e-001,
          3.1226044917662277e-001, 7.0240794927475814e-002,
          -3.7013419704829675e-001, -1.5576439649421507e+000,
          1.8549335760008084e-002, -5.3665891909115880e-002,
          -8.6571792471383746e-001, -3.3133456014243468e-001,
          8.4876485513598401e-002, -9.3118638889176297e-001,
          -2.7884501169810765e-002, 1.0786688584765229e-001,
          4.0117268472538249e-002, 3.1063684237711348e-001,
          1.6844466634192222e-002, -2.3253087287928215e-001,
          -4.7633654258085245e-001, 2.7725903904992971e-003,
          1.3875020069183586e-001, 2.1157454578855719e-002,
          2.1678820173600047e-001, -7.2931626574033392e-001,
          -2.3957892808302894e-001, -2.2898558264646568e-002,
          -2.0049533567193864e-001, 1.3623756394666187e-001,
          7.0476221010664739e-002, -2.2098189245644960e-002,
          9.0050143577851585e-002, -1.7930835124362948e-001,
          2.6366418188329815e-001, 9.1078265245418139e-003,
          -3.7793838815289782e-003, 1.3295080222356967e-001,
          1.8123545443630373e-002, 2.2355448021184626e-001,
          -1.2856805276416350e-001, -5.0351491897329792e-001,
          -2.2037133018374400e-002, -2.0109208172071777e-001,
          1.2888606446161227e-001, -1.6236136644953508e-001,
          1.8378324449868550e-002, 1.5728604925844727e-001,
          3.0487788652452625e-002, 7.4955108457063727e-002,
          2.6073556836136813e-001, 1.0422248985830636e-001,
          -1.0739536229849825e-001, 4.5068062791456233e-002,
          4.1917963750699250e-001, -3.1421690703934563e-001,
          -2.2144529414741596e-001, -7.9871435131256743e-003,
          5.0944774032178050e-002, 1.0158172522606956e+000,
          -2.8842098337836591e-001, 2.0908174465541930e-002,
          8.8960447160471037e-002, 2.8862573302756229e-002,
          1.3251110487934659e-001, 4.3106681390575739e-002,
          2.2352157048737633e-002, -1.0446302837818738e-001,
          4.6053748281810365e-002, 4.5639773564380470e-001,
          -3.1024149308489063e-001, -2.0797747383711709e-001,
          -2.5641992984534012e-002, 3.2286402869881346e-002,
          2.3886134765185285e-001, -2.9338683613522176e-001,
          -7.5487171520701585e-004, 9.5439663689678947e-002,
          5.2156136642637664e-002, -1.6200419078286163e-002,
          3.0851772241405978e-002, -2.4371072945394087e-002,
          -9.9794620042113674e-002, 8.0922913436941898e-002,
          7.6926390256595678e-001, -6.4713575901025056e-002,
          -2.2282709520671870e-001, 3.3377302230019495e-001,
          1.5705827465131841e-001, -3.0551181262967058e-002,
          -1.0283431294236696e-001, -1.1617569643797666e-001,
          8.7396471764194725e-002, -1.7347856505338044e-001,
          -2.6598435883078572e-002, 3.8695772805207496e-001,
          -2.0425019631161503e-001, -1.2354244181454493e-001,
          -2.1217904592632930e-001, 2.9790681996798363e-001,
          -1.4374787273542590e-002, -1.4880124797515545e-001,
          -1.8387347930007436e-001, 2.7801162307326141e-002,
          -1.8333550574643176e-001, -6.4493692214191845e-001,
          -1.8845745140588205e-001, -2.1414263187963054e-001,
          -5.2806061074122293e-002, 1.8787604720315795e-001,
          -8.4005073339068925e-002, -3.4717423284765020e-003,
          5.7932736990738858e-002, -1.3960260760214413e-001,
          1.3060844741091288e-001, -1.3203457724732384e-001,
          -2.2380168098006201e-001, 1.8776368737183474e-001,
          -3.6284984365320690e-002, -1.7355886321840552e-001,
          8.6133343786150882e-002, -1.0273107979015519e-001,
          2.1433589029875499e-003, -1.1801386770230955e-001,
          3.3365649131982761e-001, -4.2828652871365619e-001,
          9.5238203477599848e-001, 9.8579055152213169e-001,
          -2.2831417353125667e-002, 1.7263989770357646e-001,
          7.9647167673036978e-002, -1.6680002820369838e-001,
          -7.9949313604044961e-002, 3.5949752406852070e-001,
          1.8580239303649615e-001, 3.5203910532689875e-001,
          -5.1618987106042102e-001, 1.7465186544538946e-001,
          -7.7890440105995232e-002, 2.8838548037289830e-001,
          -1.6111238142454662e-001, 9.5265913841466887e-001,
          9.8209177075218990e-001, 5.3763381485808483e-002,
          9.7883645033129560e-002, 3.7394972628184159e-001,
          -1.6326705407293551e-001, 2.5876795087188900e-002,
          -2.4072070987193751e-002, 1.8957778574928186e-001,
          3.4742406635705025e-001, -1.6356801695853987e-001,
          1.6772511987421437e-003, -8.9301414765905821e-002,
          2.2807114457423821e-002, -1.6477977686400688e-001,
          2.0194393562840882e-001, 1.4605654146862904e-001,
          2.1184485152533408e-001, 1.5876389079661485e-001,
          3.7450597493860321e-001, -1.7531077724028912e-001,
          3.1548380164918920e-002, -1.5934038215141758e-001,
          1.9537666072577076e-001, 6.8419451845486912e-001,
          -1.0899012550820375e-001, 1.2411133732768757e-002,
          4.8577709241542047e-002, 8.0932310949075378e-003,
          4.0970401116256105e-001, 5.0856800982130232e-002,
          -1.7686033005917171e-001, -1.3770373257865223e-001,
          -2.0003729281773908e-001, -2.5175474152532301e-001,
          -1.3955193326496426e-001, 2.5759855224523270e-001,
          -1.5008010260243701e-001, 2.0932102185855084e-001,
          3.5372552866253237e-001, -1.4456350695168452e-001,
          9.9556559552434490e-002, 4.6960874585545870e-001,
          -2.9293950518031756e-002, -9.2584286403010452e-001,
          -3.7516710430973876e-001, -4.8895362546234930e-002,
          8.3122699309045603e-002, -1.4903799023995165e-001,
          -3.4862260788295144e-002, -3.5240869233910255e-001,
          5.2107046465842233e-001, -9.2944207027522474e-001,
          -4.0510114411525688e-001, 1.0609543554444258e-001,
          1.1746497528990341e-001, 9.9675239623476145e-002,
          4.3776513756129282e-001, -5.0229756776797599e-002,
          -1.2864249760271712e-001, -7.6326758418757290e-001,
          -4.9309254912948702e-001, -2.8220984039125444e-003,
          2.2639312313536436e-001, -2.7107718017743782e-001,
          7.9708909978462150e-003, 2.2762728998911486e-001,
          -9.3673108675091810e-001, -8.6027099131048423e-001,
          2.6807193126622959e-002, 2.2321420033510168e-002,
          9.6521635378302953e-002, 4.1624756231857030e-001,
          1.0697655968975599e-001, 1.6841777351009743e-001,
          -9.5198113350482461e-001, -5.1923206203608541e-001,
          3.4643432688042965e-002, -4.5380685923446712e-002,
          -2.1838578821664936e-001, 2.1168815389184942e-003,
          2.3629016669418867e-001, -3.5293746742105297e-001,
          -8.6277328554989752e-001, -2.2086393196352620e-004,
          1.3267061174806333e-001, 3.4765425576710940e-001,
          2.8731703104905632e-001, -1.8499468711622344e-001,
          1.6562826449398418e-001, -9.5627641695007470e-001,
          -4.0063271648155879e-001, -5.3340191482858075e-002,
          2.2041220899783387e-002, -4.5353886599557708e-001,
          1.8350010470061254e-001, -2.5645189522866157e-001,
          2.9734373579962066e-002, -1.8916846462159165e-001,
          -3.5470258105270425e-001, 3.5873524463582322e-002,
          3.3926798688455417e-001, 7.3747636175425332e-002,
          -1.9658357919380698e-002, 1.6960123387179840e-001,
          -2.1073430128091916e-001, -1.6133666271549260e-001,
          -5.8472364753292212e-002, 1.9013770598280133e-002,
          -4.8967792913788361e-001, 1.7623149369127916e-001,
          -4.3797873010072114e-001, 2.6683864349156018e-002,
          -2.9415823081750819e-002, -2.6990883292471879e-001,
          2.1999145975302215e-002, 2.4809195331194717e-002,
          2.6353419114092311e-002, -7.9390821265983888e-002,
          4.4837088364621379e-002, 1.0131948807900402e-001,
          -1.0004106939047377e-001, 8.3440269696067881e-002,
          2.3049518259483612e-001, -3.1054215884389141e-001,
          1.8373319497196992e+000, 1.7015419218242672e-001,
          2.9071057606947323e-002, 3.6951811949034130e-001,
          -2.8942587782414647e-001, 7.4214368810976955e-002,
          1.6104531841276512e-001, -8.3280539940340348e-002,
          3.1179766661458747e-001, -6.2015717413487256e-002,
          3.0088875085433242e-001, 5.6700059998434735e-002,
          2.1706449999521318e-001, 2.5005528689806672e-001,
          2.2439012562378988e-001, -2.1764982149994813e-001,
          1.5318494396546661e-001, 3.0777601007456711e-002,
          8.5888630876151950e-001, -4.2737059671633111e-002,
          1.2736224851685507e-001, 8.0040027630777263e-002,
          -1.4584864798146316e-001, 2.5982224641345836e-001,
          -2.0715298439799801e-002, 7.1311203476067661e-002,
          -1.0922021792522078e-001, -2.9374086147314504e-001,
          2.6735823184576402e-001, 2.2006052022661524e-001,
          -2.0617641100377768e-001, 1.3090656644948967e-001,
          -3.9471334061300108e-002, 2.6263065233585497e-001,
          -7.2907435768405679e-002, 6.4420492440047956e-003,
          9.4129061811961748e-002, 3.1736278214468294e-001,
          1.3672808976067560e-001, -6.0621267073322840e-003,
          7.4756623507972728e-002, -1.0770141510942345e-001,
          -2.9241482876394442e-001, 3.6180222485294100e-001,
          -5.9675543832541880e-002, -2.2141534751689254e-001,
          3.2411640888477405e-001, -3.5020427166457375e-002,
          2.3479820533665230e-001, 2.1340685589263657e-002,
          -4.1613858466913944e-001, 8.7969518178185782e-002,
          -1.7606965395878293e-001, -1.5767881940236686e-001,
          5.1629501949028864e-002, 7.7170681894637473e-004,
          -1.1675477398577780e-001, -9.9225895023491370e-002,
          1.8729056539385275e-001, -2.2759842372934930e-003,
          -2.2130292962166440e-001, 9.3234793456299689e-002,
          -1.9584819586696237e-001, 9.6661384834430736e-002,
          -2.7793699358763724e-001, 5.5802630973556464e-002,
          8.6796363783352384e-002, 4.7677001594588320e-002,
          1.8696791549654942e-001, -1.5704506019706108e-002,
          8.1315027533311449e-002, 3.1602087012410474e-001,
          5.1071898409291674e-002, 1.2478647194729867e-001,
          -1.3905771113216628e-001, -5.5025650185348163e-001,
          3.3036820012139828e-001, -4.2240029526953972e-002,
          -4.3106488484088129e-001, 1.8048056569173415e-001,
          -1.0858554353006147e-001, 4.8758384589858497e-003,
          -1.1372554161602325e-001, 3.3002923732656214e-001,
          -3.0354006032243208e-001, 9.5175868919215312e-001,
          3.1790387359101319e-001, -1.4058539681442642e-001,
          2.0186898658114977e-001, -2.3460290151936371e-002,
          -5.3392046990466668e-001, -7.1136518030337451e-002,
          3.5172822351757066e-001, 1.8971010636566260e-001,
          3.4933278989980965e-001, -2.0201971223826362e-001,
          1.2410593653318192e-002, 4.2343959582219627e-002,
          2.3521458955365528e-002, -1.6498566264594508e-001,
          9.5347020404303329e-001, 1.3213368923332000e-001,
          2.0508226453452807e-001, 1.1292683582197902e-001,
          4.0815710222032969e-001, -1.7529170105400380e-001,
          2.6321999234936468e-002, -3.2270884542106158e-002,
          1.9458900318341704e-001, 6.7850365757573916e-001,
          -2.9867159548699725e-002, 5.2050046380552120e-003,
          -5.2876991749139374e-002, -7.2679166294676148e-002,
          7.4921316846345468e-002, 5.4729682060717488e-002,
          5.3226152995008318e-002, 9.6292028627650839e-001,
          -1.4251679602125297e-001, 1.3517806202084023e-001,
          -6.4270194432958450e-002, 1.0071068138409751e-002,
          -1.5358998542215177e-001, 1.9539895728832007e-001,
          4.1938232770103961e-001, 1.6347586979947273e-001,
          2.2439739517740689e-001, 6.5548382535149993e-003,
          2.3603053253749576e-001, -1.6723382882641173e+000,
          2.0351622249344151e-001, -4.7958597013576576e-002,
          3.7035577903986844e-001, -4.1957116726298527e-001,
          -2.7188210025333331e-001, -8.9936082526219652e-002,
          1.2964220169794004e-002, -1.4923541572364948e-001,
          -1.0701045554591648e-001, 4.8947700984983800e-001,
          -2.6199925600111917e-001, 9.6364017593647058e-002,
          3.6985723250038161e-001, -3.2710716307804567e-002,
          -2.7568498534675689e-001, -7.6710375813950493e-001,
          -5.2081861632538629e-001, -2.5096005039749111e-003,
          -5.9502961435044771e-002, -2.7194467541146378e-001,
          1.9907838776631056e-004, 5.2853561692342843e-001,
          -9.2928638531827545e-001, -8.6151338968542834e-001,
          2.5624225960374381e-002, 2.3702351761935296e-002,
          1.0250900657487917e-001, 4.1613911315210061e-001,
          -1.8835202510752028e-001, 3.0287970708199458e-001,
          -9.6051369898280259e-001, -5.1537680681247089e-001,
          3.5716083478712614e-002, -3.6222048714336458e-002,
          -1.3340222352095665e-001, 4.5680264150960151e-003,
          5.3189340551862696e-001, -3.6155802288317124e-001,
          -8.5937748723490515e-001, -9.4517723138079924e-004,
          3.6104912467748945e-001, -1.6511192061783755e-001,
          3.7804414218747812e-001, -2.4056252568921101e-002,
          1.1307593642722948e-001, -9.5661699257658850e-001,
          -4.2176357689300326e-001, 3.9062121366930457e-002,
          -4.4721355327202617e-002, -4.0587970571548554e-001,
          1.2702127586912870e-002, 7.4662628644643417e-002,
          2.5224097938230446e-002, -8.5853838760885726e-001,
          7.4131976958541606e-003, 5.2350291807790217e-001,
          -3.4207845131076007e-003, 6.9104746093600386e-002,
          -2.2644968718961888e-002, 4.2072466533394787e-001,
          -2.1031495043781420e-001, -4.0352561087548472e-001,
          -5.8194889454749411e-002, -4.6916397715193597e-002,
          -3.0288290116158967e+000, 1.4029563965371935e-002,
          -4.3389008431763149e-001, 3.2052314346521497e-002,
          -1.8720921862127404e-001, -3.5858892393226161e-001,
          1.4743727058582565e-001, -1.0767704917092492e-002,
          6.2571518622129743e-002, -2.2163334361200826e-002,
          1.6432617580803541e-001, -2.0102896098928888e-001,
          -1.8097022430947510e-001, -5.8383855739747394e-002,
          2.0198389349671594e-002, -4.9823311986655067e-001,
          9.4758701400506753e-002, -4.2691561939903394e-001,
          2.4730151614215858e-002, -1.9296689512111725e-001,
          -5.7943332158506300e-001, 1.5953329767979504e-001,
          5.3454829464901943e-001, 3.8645297485894292e-002,
          1.0869394598510132e-001, -1.3177584712323985e-002,
          9.9062960705144795e-002, 4.6177871236272774e-002,
          5.6257714952964812e-002, 3.0134017929056990e-002,
          3.5192933459428713e-002, -1.1328700689651570e-001,
          -3.7570248809252754e-001, 4.7662682391045388e-002,
          6.4117730690373298e-002, -5.2425935820521193e-002,
          2.7592619844546834e-002, 1.5843427943684726e-001,
          -2.9371443073404887e-002, -8.3222285007387778e-002,
          -2.3890577253505785e-002, 1.0906603674022815e-001,
          5.9058349764371715e-002, 2.9226618873672744e-001,
          4.8337698091108716e-001, 1.2939446457120543e-001,
          -2.1737047135927409e-001, 1.5362986730722383e-001,
          2.1655815950590215e-001, 1.0104501179404046e+000,
          -2.9621914386867942e-001, -2.1354888360718347e-003,
          3.7311774656335700e-002, -1.7922271562404551e-001,
          1.2494184121929965e-001, 2.1701873392455726e-001,
          6.9557896446593562e-002, -1.0238853347774676e-001,
          -2.9262654561757584e-001, 2.6274565770279867e-001,
          -1.4775355011038816e-003, -2.1094563886597481e-001,
          1.4051662923611691e-001, -3.4851796354358068e-002,
          2.3780059995954156e-001, -7.2399746002270435e-002,
          -8.6698585155750123e-003, 1.6698367521901111e-001,
          2.4582636490776959e-002, 1.5300023672699681e-001,
          -7.6669716733932747e-002, 3.0450517126620458e-001,
          -1.1107151920211734e-001, -2.9711601883941041e-001,
          2.7703027031107463e-001, 8.2228960169995591e-002,
          8.0690497514900351e-003, 1.4962210125737896e-001,
          3.0835189044846355e-002, 6.9105145572061377e-001,
          3.1661027029419642e-001, -3.9157609778278329e-001,
          9.0335286080417895e-002, 2.6142289477828470e-002,
          1.8858905234537210e-001, -2.2305435234057151e-002,
          7.1318938659508155e-002, -1.2329466585305345e-001,
          -1.4503127010627861e-001, 8.5748306455341122e-002,
          7.3893296242155404e-002, -2.3139598661856761e-001,
          3.2275613287610455e-001, -3.7884880245389559e-002,
          2.3291520569040608e-001, 3.0546140471463812e-002,
          5.7693314563508777e-002, -5.6133636464500099e-002,
          4.6603041573606790e-001, 8.4549205216173717e-001,
          -4.2617781585251466e-002, -2.2685649968029447e-002,
          3.9252848193640300e-001, 4.4716627744049706e-002,
          1.2974584525635108e-001, -9.5228609134821365e-003,
          -6.6771839064711935e-001, 3.2627203520142628e-001,
          -3.0087043294085714e-001, -1.3632046614379764e-001,
          1.8307014021763240e-001, 5.6151133601369543e-002,
          3.6386068338163584e-003, 1.7184418959212200e-001,
          1.9260955395127954e+000, -5.4733117255759856e-001,
          2.0188962119345952e-001, 3.8371278600080627e-001,
          2.0551183521841163e-001, 1.2308464144292984e-001,
          2.1300090724522283e-001, -3.3634896954597543e-001,
          1.8822099816302446e-001, -2.8980705666388371e-002,
          -1.0056511051236722e-001, 6.8682655670557125e-001,
          7.4582857077596418e-002, 1.0682195372270723e-002,
          1.4135829705190267e-001, 1.5183094759309945e-001,
          -1.3008679876760989e+000, 2.0759854547633097e-001,
          1.5677140164813624e-001, 2.0650113127882233e-001,
          -1.7971092311487366e-001, 6.8059970497093703e-001,
          -3.6595332415377041e-001, 1.8213432586696621e-001,
          -2.1707352214706717e-002, -1.0390981598468374e-001,
          1.1102016795993386e+000, -3.2964447748102532e-001,
          2.2346811167744743e-001, 1.0282066582669154e+000,
          1.5163118572223960e-001, -1.4132939447488877e+000,
          5.4763673715341660e-002, 1.1938405959878352e-001,
          3.7406201755985446e-001, -2.9931095239649697e-001,
          6.0001824816811003e-002, -3.5353259555360300e-001,
          1.1777328820638706e-002, -1.5116539441278168e-001,
          -8.1970421785889758e-002, 4.1543253530687535e-001,
          -7.6461787717597735e-002, -8.9527261661767901e-002,
          3.6209243783554046e-001, 1.5455756904676615e-001,
          -4.5310747255980771e-001, -4.7773030235425229e-002,
          -5.4219205251272995e-002, 1.5651537942893912e-001,
          -3.6892261299891149e-001, -1.3212865255457332e-001,
          2.2393792976787433e-001, 1.2294039826299058e-001,
          -1.5987450737842393e-001, -1.8691367641108483e-001,
          1.9575672850463216e-001, -2.4227225182140444e-001,
          -1.5627804264057096e-001, 3.8718574292593244e-001,
          -3.5910350268255141e-002, 1.0684233290862019e-001,
          -1.3568355464323647e+000, -5.1525672323002800e-002,
          -5.3692953270505342e-002, -1.4988448400660681e-001,
          -1.2985867677657659e-001, 5.3022800929002781e-003,
          1.5533978281458483e-001, -9.3734084109554516e-001,
          -8.6172710516671192e-001, 6.6732961190216808e-002,
          7.8970783524283938e-002, -1.6932521521593719e-001,
          4.1119152526377190e-001, -2.5175521996959077e-001,
          1.1804934935234286e-001, -9.5395376239842988e-001,
          -4.8131676472830520e-001, -5.7156862576550165e-002,
          -2.5675992482616011e-002, -3.7432972945541321e-001,
          4.5870513630715025e-003, 7.1966033818719313e-002,
          -3.5835596090694150e-001, -8.6797935427416273e-001,
          -1.0237773481379985e-003, 2.9603780195504742e-001,
          -1.6217438597617875e-001, 1.3523865384547545e-001,
          -1.7399821517287719e-002, 1.2034129608851264e-001,
          -2.0146790150811680e-001, -3.2315621500975539e-001,
          -6.0582561197386649e-002, -4.2847331996774929e-002,
          -3.9929435256356965e-001, 1.6975352578419780e-002,
          -4.2787899430433513e-001, 2.9913935617395811e-002,
          -8.6644023323201536e-001, -3.5429782498312823e-001,
          1.4145355071671004e-001, -8.6798316878597473e-003,
          7.6567416956536904e-002, -1.7027264036685176e-002,
          5.2098859349471882e-001, -2.0516754400215273e-001,
          3.4092824335161212e-002, -5.1080894718160567e-002,
          -1.5966763264073319e-001, -2.9966871583261162e-001,
          -3.4759835031308542e-002, -4.3648042359303169e-001,
          3.3034262349356767e-002, -1.9076488702911132e-001,
          -5.7747867003742470e-001, 1.4918464731610784e-001,
          -5.2085479791327757e-003, 8.2435643148139975e-002,
          -2.6139614011750703e-002, 5.2041119653726808e-001,
          -2.1161369635658597e-001, 1.3968726717444958e-002,
          -5.1167458642352996e-002, -1.6996618231726657e-001,
          -5.6738220684566763e-002, 9.6840703373208506e-002,
          -4.2829162636886003e-001, 2.5229131471873868e-002,
          -1.8983452590765165e-001, -5.8372495850251405e-001,
          6.1503909036649963e-002, 1.5846202212509294e-001,
          6.9963982928539156e-002, -8.4026332827858902e-002,
          -1.0579573544454716e-002, 2.9773474909443719e-002,
          2.2567592786384962e-002, 1.0393999748092801e-001,
          4.8810005946125834e-001, 2.6471234726372112e-001,
          -3.7119274072162406e-001, -5.7338632899622828e-002,
          2.1859286040854362e-001, 3.2568437987326698e-002,
          -2.4678839850431375e-001, 2.4245758504682413e-002,
          1.5987091748993162e-001, -1.7617391511190222e-001,
          3.6583854286369372e-001, 1.2471643904366074e-001,
          6.1428291285834047e-002, -1.0550515580337669e-001,
          2.1327283841955677e-001, 2.3430236940863899e-001,
          -6.2540024164895638e-002, -2.2486927897109396e-001,
          9.0697744330765856e-002, 2.5130458321927236e-002,
          1.0102713221427813e+000, -1.7527057342461044e-001,
          2.5694938668701672e-003, -3.9786203339870790e-002,
          2.9346724225581061e-001, 1.3556828187612480e-001,
          -1.8920892324323701e-002, 2.9977832224384648e-001,
          -1.0192112915480547e-001, -1.4302497118209637e-001,
          2.6226773808106352e-001, 8.2630534804654904e-002,
          -1.3921069183680279e-001, 1.4003679085081983e-001,
          -3.2855498037805971e-002, 2.3265147476916709e-001,
          1.9005345847688804e-001, 7.4807281979300089e-002,
          1.6993202679865263e-001, 1.7900371291404572e-002,
          1.5447639363645832e-001, -9.5188593259784182e-002,
          3.0104155360028034e-001, 1.4421000118917299e-001,
          -1.3915485840109501e-001, 6.5283153099209526e-002,
          7.4829499527363341e-002, -1.2827535365389139e-001,
          1.5125469062882191e-001, 3.0401194911565170e-002,
          8.5993249184554132e-001, 5.7899287930795296e-001,
          6.2848713502604223e-002, 9.6115440001833655e-002,
          2.3749240402358565e-001, 1.8276337687441724e-001,
          -1.8961261573915783e-002, 7.5053161826503803e-002,
          1.3914151368498029e-001, -1.3782704243178093e-001,
          7.6930216444923732e-002, 7.4188869339073621e-002,
          -2.2302889845374010e-001, 3.3135687177111967e-001,
          -3.6997405121170952e-002, 1.8352532669967450e-001,
          2.8830659118162782e-001, 6.3438081063400750e-002,
          4.2284518343446133e-002, 2.1009235011699393e-001,
          2.7033656309805670e-001, -4.9930183521422333e-001,
          -2.7589515497820443e-002, 1.5302333495108975e-001,
          5.1160903836274738e-002, 3.0033065954712838e-002,
          1.1233777036116198e-001, -6.5324571781628804e-001,
          1.9054007425829383e-001, -5.5821891808968696e-002,
          -1.2512107688716675e-001, 1.5831091985395426e-001,
          9.7098717961096939e-002, 4.8422738689539516e-003,
          1.7326263897929844e-001, 6.4346211374281814e-001,
          -1.6572111042158919e+000, 2.0332120857429384e-001,
          1.5677952449392743e-001, 2.1092620943810972e-001,
          -1.7230801359755044e-001, 1.3721158211370030e-001,
          -3.6002434750518930e-001, 1.8801032797421746e-001,
          -3.1122851677163131e-002, -1.0558946679745668e-001,
          1.1073968730400634e+000, 5.8151796313088433e-001,
          2.2530890592870328e-001, 1.3650697472383860e-001,
          1.5960735407673951e-001, -2.2964350818856061e+000,
          2.0695215474731729e-001, 1.5910754398969429e-001,
          2.0524469003797383e-001, -1.9316069331252123e-001,
          1.3932272212623673e-001, -8.7385610027736094e-002,
          1.8391350011284252e-001, -3.3225286339613684e-002,
          -1.0145626223921533e-001, 1.1147744398724848e+000,
          -3.3003231650300069e-001, 2.1446203780806675e-001,
          1.0262834131199947e+000, 1.5225955709364766e-001,
          -3.5842571408096890e-001, 5.2705115367786465e-002,
          1.2198261766250880e-001, 3.7464478912845772e-001,
          -2.9981390272903097e-001, 5.9009501223483425e-002,
          -1.4095297572570156e-001, 1.4843149126539943e-002,
          -1.5173187202366603e-001, -7.7171738144112934e-002,
          4.2072650883843005e-001, -5.0115545039130377e-003,
          -8.7828667469641672e-002, 3.2501873530658565e-001,
          1.5537807362525544e-001, -3.5624170393850874e-001,
          -1.2793730752832791e-001, -5.0240627913047883e-002,
          1.5286727945680550e-001, -4.2103910185908155e-001,
          -1.3025765981665766e-001, 2.2999332806283537e-001,
          -1.3180133841241842e-001, -1.5393007569209141e-001,
          -1.8495289334247608e-001, 2.0325678309184736e-001,
          -1.2322833257428127e-001, -9.0765230091265900e-002,
          1.9763595604029219e-001, 1.4570991486970572e-001,
          7.3819020066390920e-002, -5.0449326075752821e-001,
          -4.4044062125391392e-001, 6.1048381604414725e-002,
          -9.1425446275526429e-002, -2.2197864223705485e-001,
          1.4288702476906270e-001, -1.8732749588271325e-001,
          -1.5429730001475053e-001, -1.8286101476803904e-001,
          1.3892777846155535e-001, -1.1798796529873361e-001,
          -1.5346744761662393e-001, 2.3669796759065401e-001,
          -2.4159206888065682e-001, -6.9990897872403396e-002,
          -2.1153477124709422e-001, -3.2655334327201041e-001,
          1.0109559110417582e-001, 1.5750706925296287e-002,
          -1.1075059279134862e+000, 1.6377021460841964e-002,
          -1.8316819607989832e-001, 2.3717313740595394e-001,
          -8.6633488582726526e-001, -6.9117897613521173e-001,
          1.3929820748905980e-001, -8.7466076881438856e-003,
          1.3679181063938803e-001, -2.3184808561340208e-002,
          2.8590332329061413e-001, -2.0551192092038897e-001,
          2.2101729911047557e-002, -5.4363619852968247e-002,
          -2.8144308852168526e-001, -3.2155294054817801e-001,
          4.8372628374924280e-003, -4.7730680019791499e-001,
          2.5047604014466353e-002, -1.8717515280377128e-001,
          -1.0972444908946778e-001, 6.7605760353681293e-002,
          -1.2638119401801904e-002, -6.5306166986725880e-002,
          -4.8176104375875314e-002, 7.5053894546043790e-002,
          -2.0933145468877581e-001, 1.3441891518732714e-002,
          1.0054893525003258e-001, -1.3155970696657018e-001,
          -1.2385834215644319e-001, 1.1625548918207122e-001,
          -8.2135319637675808e-001, 2.2797968361608137e-001,
          -1.8392311960516833e-001, -9.0660452513906720e-001,
          4.8760396896462214e-002, -9.8754043430252028e-002,
          1.3379398308840354e-001, 1.4271415102012805e-001,
          7.3077042941073367e-001, 2.2957313085446057e-002,
          1.6305750944878183e-002, 1.0170982554803322e-001,
          2.0503942165930239e-001, 3.6076272955218550e-002,
          1.2500743896433492e-001, -3.9544749704744359e-001,
          5.1269399406633123e-002, -1.7144574649798183e-001,
          -1.9503606863884204e-001, -7.0732830099120875e-002,
          1.6113312922984083e-001, 1.3768848552265073e-001,
          1.2510291816868500e-002, 9.5472272261730537e-002,
          2.0883976233390288e-002, -1.1182646872399353e-001,
          -1.5210663271592395e-001, 4.6334150733136331e-001,
          2.6889246441096432e-001, -7.8677114591155700e-002,
          -1.7523412794107102e-001, 2.1514404680257312e-001,
          -2.6559584379442280e-002, -2.4411706830821031e-001,
          2.8118497131806839e-002, 1.6191288043362276e-001,
          -1.7527802791628971e-001, 3.6448907628096100e-001,
          6.2742729936149363e-002, 1.5156760543525044e-001,
          1.4924158194498532e-001, -7.3651960469241357e-002,
          5.9350222793606799e-002, 7.5248658827869241e-002,
          -2.2239478527197670e-001, 8.0191329975043579e-002,
          2.7896342182787463e-002, 1.0100712181496982e+000,
          4.7082624314895120e-002, 8.4199503184296420e-002,
          1.3049393613139207e-001, 2.2976534028171361e-001,
          1.5401953338261237e-001, -8.8807124308922986e-002,
          3.0779792832658287e-001, 1.4681008623545500e-001,
          -1.4230951125876121e-001, 7.5219090225283489e-002,
          8.0458944071753885e-002, -1.2227547969059296e-001,
          1.5099351808530143e-001, 3.0852500455764618e-002,
          6.4528495902853211e-001, 3.0412244373990782e-001,
          7.5996066863483286e-002, 9.6513225655862830e-002,
          -7.7442771729895277e-002, 1.8902739638939389e-001,
          -2.1642031969555667e-002, 7.7822694522516153e-002,
          3.1526815070229225e-001, -1.4070750539318269e-001,
          8.6675155743174859e-002, 7.9378222082957167e-002,
          -2.2557944352222145e-001, 3.3249847699605567e-001,
          -3.9356737993148157e-002, -1.0411936456356054e-002,
          2.8232970937912671e-001, 5.6918510714043483e-002,
          9.8833326325543272e-002, 2.3450326229023635e-001,
          1.8622111441445599e-001, -1.4376977175209525e-002,
          7.5789979755526884e-002, 1.4104482303998322e-001,
          -1.4465695813695820e-001, 7.7823291367768971e-002,
          7.7594196633972490e-002, -2.2783843406830015e-001,
          3.3114980749843076e-001, -3.4423643335145783e-002,
          1.8550240459659142e-001, 2.8922273974794799e-001,
          8.2145472315752088e-002, 9.9473858791601769e-002,
          4.6068215818159947e-001, 4.0267907278002646e-001,
          -1.1905231588890199e+000, -1.8980017121585573e-002,
          3.8724029299933804e-001, 5.4347852425479334e-002,
          1.5962050443008682e-001, 2.2031194311443988e-001,
          -3.3415935894098631e-001, 1.4012137926925089e-001,
          -2.9465837330967487e-001, -1.3370625623326224e-001,
          2.8112630742733558e-001, 1.7633556150871060e-001,
          -6.3860409613533606e-002, -1.3969799380067807e-001,
          2.1752853208600542e-001, -1.5575154695978997e+000,
          -1.8242451890025026e-002, 1.5089207929209034e-001,
          5.1913424538049216e-002, -1.7621831158292203e-001,
          1.4070283528087110e-001, -3.4622983035474653e-001,
          5.7639584339771666e-001, -5.4793379039444048e-002,
          -2.5847419900601176e-001, 1.2318777022851317e+000,
          5.8140752883502922e-001, 2.3138386394254623e-001,
          1.3010932124460822e-001, 1.5154996039217430e-001,
          -2.3004764016928720e+000, 1.9978001252965574e-001,
          1.1273085123865915e-001, 2.1484752315181302e-001,
          -1.8716370158556397e-001, 3.1478350829175833e-001,
          -9.1357362469616274e-002, 4.3511757848878202e-001,
          -2.4749550979824821e-002, -1.0182854731468627e-001,
          1.1151341943696025e+000, 5.1424678560646930e-001,
          2.3939139464732750e-001, 9.6251014916220401e-001,
          1.6366821846955684e-001, -2.2966978718196751e+000,
          5.3290172330628216e-002, 1.0834224708378412e-001,
          2.1189490931635077e-001, -1.9327309355318065e-001,
          1.4968526987594993e-001, -9.4289868619776465e-002,
          4.2992790920755192e-001, -2.9677322809615693e-002,
          -4.4214551387185774e-002, 1.3181468775364391e+000,
          -8.2917002235253084e-003, -9.9029240080988415e-002,
          3.2762622210823222e-001, 1.5445479149995364e-001,
          -4.0653104794230710e-001, -1.2988310123178240e-001,
          -3.7220471936160217e-002, 6.0435534523148704e-002,
          -4.1293455108484856e-001, 6.5700220157190597e-002,
          1.4337274355156374e-001, -3.2402361773276861e-001,
          -1.5753287895288617e-001, 7.4058905115405055e-002,
          1.9493476231072709e-001, -1.1734594042668660e-001,
          -9.0138691595904111e-002, 3.0839751607075877e-001,
          -1.8743488143331175e-001, -2.5233730013458294e-001,
          -7.1299558395170812e-002, -3.2115919697370948e-001,
          1.0404375468899983e-001, -3.9961562131151356e-003,
          -8.4110096499887238e-002, 1.5130469004110447e-001,
          -3.3394325546837195e-001, 3.8456086948306469e-002,
          -2.6558475946489207e-001, -9.1741287247793527e-002,
          1.3539833272701213e-001, -8.9543060801433302e-002,
          3.0096157557429903e-001, -1.8586484576624138e-001,
          -2.2526252549780959e-001, 1.5033826727736591e-001,
          1.6633396643006679e-001, 3.6652698429710057e-001,
          -9.5315097515260044e-002, -4.9803725436655538e-002,
          1.3931555181959490e-001, -3.2651327087897680e-001,
          4.2193265109009066e-002, -2.6792160003928445e-001,
          -1.8723378324013432e-001, -1.3249476488115306e-002,
          5.6712963167178977e-002, -4.9055636762000983e-002,
          -1.9067504679697564e-001, 2.1079467526186446e-002,
          1.5118697689608798e-001, 1.8069692365936782e-001,
          1.4587390500012778e-001, -1.4969830849662635e-001,
          2.1094510564709190e-001, 1.4765423050333823e-001,
          -3.2666533580824303e-001, 2.9486006709648388e-001,
          1.1477584722709634e-002, -4.0193743419682798e-001,
          -7.3172343996021030e-002, 5.6873499678821750e-002,
          -4.8770743629726769e-002, 1.3961117960993072e-001,
          2.0981557525331193e-001, 1.4774884669110003e-001,
          1.8149089396403081e-001, 1.4047870651033248e-001,
          -7.8889899468633840e-002, 2.1194389476422507e-001,
          1.0673150173867414e-001, -3.3364948955225265e-001,
          2.9368454782123143e-001, -3.6053664144344029e-002,
          -4.0487980088375891e-001, -8.4211412970247174e-002,
          -9.4433376598475463e-002, 8.5445922503483693e-002,
          1.3698656215693680e-001, 8.3642057546534948e-002,
          1.5220245494514786e-001, 4.5407929499090643e-002,
          -1.5404716187078027e-001, 1.5405754601813468e-001,
          3.4694019828568803e-002, 3.3766171929304173e-001,
          -7.3999414469479208e-001, 3.0246975185755354e-001,
          -3.4948884524483088e-002, -3.9937845518709009e-001,
          -8.9338897754680735e-002, -1.0193109005932595e-001,
          8.8137023112875551e-002, 2.4347046363625058e-001,
          1.3859121345560277e-001, 5.2237540412831962e-002,
          -1.4126245498843987e-001, 5.7528108543384048e-002,
          1.3393281311285093e-001, -1.3098445439809314e-001,
          3.4203338827841262e-001, -8.5355806506879184e-001,
          -1.3073012867853420e-001, 4.6247078319113943e-001,
          1.3544232625156465e-002, -1.9242979958758605e-001,
          1.6768647164288239e-001, -2.0509303554794889e-001,
          1.3201062505549011e-001, 5.2494360283527344e-002,
          1.5999358171015748e-001, -1.2596633286531284e-001,
          -1.3731624682066881e-001, 7.6397731242918418e-002,
          7.9031163851946890e-002, -1.2547677660267950e-001,
          3.4676205669720522e-001, 2.7255339379234404e-002,
          6.9430063425618260e-001, 5.1767206781224644e-002,
          5.6563075659140941e-002, 3.7869257159864694e-002,
          -2.2318373163037596e-002, 3.1491540763023107e-001,
          -2.0850833392545589e-002, 2.9991410791154238e-001,
          1.4747762013617383e-001, -1.4045818624001385e-001,
          6.7105919078762927e-002, 7.6578306927749556e-002,
          -1.3838144935425573e-001, 3.3305813903137144e-001,
          -3.5627488513029888e-002, 2.6821469159221700e-001,
          1.8245075338383560e-001, 5.9368538307933413e-002,
          9.4146005491384008e-002, 5.4486559690884943e-002,
          1.8889064997600272e-001, -1.6406674540408700e-002,
          7.6138985598497619e-002, 3.1941910629129100e-001,
          5.2944234837089224e-002, 1.0714499675665952e-001,
          7.8143831147457404e-002, -2.2542029886477058e-001,
          3.2932730338034516e-001, -3.2171611340766855e-002,
          -8.9773243743878975e-003, 1.8819105485623872e-001,
          7.3874650832672417e-002, 9.6934240241101491e-002,
          4.5475501020976042e-002, 1.8160795096111806e-001,
          -2.3212950959215026e-002, 7.6290877568342144e-002,
          3.1196477778897785e-001, -1.4662346993170830e-001,
          8.0484169702464470e-002, -1.3419301824770194e-001,
          -3.2879700255378130e-001, 3.2315533817872738e-001,
          -4.1218514688619236e-002, 1.0699254658498170e-001,
          2.8309686663132472e-001, 1.4505623213160446e-001,
          9.9712958699952517e-002, -9.6399292701461692e-002,
          1.1430242201788710e-001, -7.3942593664842182e-001,
          -2.5792650018729251e-002, 1.5951263477067401e-001,
          4.6751650229668026e-002, -2.5149000925505538e-001,
          1.7802743796798345e-001, -3.3317633027122423e-001,
          1.9264230955422562e-001, -4.8632536759808789e-002,
          -1.3028360967023456e-001, 4.3604786928619954e-001,
          1.7954526272875584e-001, 9.5716455149699856e-002,
          -1.3925264994962194e-001, 2.1049390966135140e-001,
          -1.5592188408646388e+000, -1.9343683912094022e-002,
          1.5313214166083056e-001, 5.4690998289754031e-002,
          -1.7472447492142781e-001, 1.3313493291711945e-001,
          -3.3632850435245387e-001, 5.7561799628272825e-001,
          -5.5133577519674085e-002, -2.6263497582631590e-001,
          1.2294705956171379e+000, 5.9412849002595380e-001,
          9.7671925408176777e-002, 1.3908994046577611e-001,
          2.1129399971276583e-001, -1.5640418063437853e+000,
          -2.4892121528009608e-002, 1.1186904698043833e-001,
          4.5376390807525299e-002, -1.9447889944731697e-001,
          3.1299738639820546e-001, -9.5759929597113713e-002,
          5.7553166923469601e-001, -5.2628652806513895e-002,
          -1.3069564311274956e-001, 1.2305065347875952e+000,
          5.7338880281365169e-002, 2.2944703376128850e-001,
          4.6364354395978452e-001, 1.5522948314390392e-001,
          -2.2993984939874226e+000, 5.6007937991764831e-002,
          1.1569549909902201e-001, 2.0581870108227932e-001,
          -1.9370073992453801e-001, 3.1615029820729940e-001,
          -9.6458444263533297e-002, 4.3653592235252464e-001,
          -2.2496619487628051e-002, -8.4023728531950864e-002,
          1.1124762052414332e+000, 1.2919035077772142e-001,
          -9.7269556457787995e-002, 1.0689851403490139e-001,
          1.4822893327976999e-001, -4.2676630295789436e-001,
          -1.1913323655971950e-001, 1.2051396695431815e-001,
          2.8897885319169347e-001, -1.8304657634524743e-001,
          3.0837250261753218e-001, 1.4188497200684147e-001,
          -8.2672931428269938e-002, -3.0990210612705148e-002,
          -1.8362229096108115e-001, 4.8890644737679934e-001,
          7.3683158794987130e-002, -9.3216653830222471e-002,
          3.1105637207375630e-001, 1.0661991576450464e-001,
          -2.2090908054160921e-001, -8.1084673667180543e-002,
          1.7166453197412918e-001, 1.4507293478512392e-001,
          -9.8007174282237430e-002, -8.4322699022301939e-002,
          1.5405484354793827e-001, -3.2289201494935965e-001,
          3.2127428798963277e-002, -1.8089654156128768e-001,
          -1.9251649956748876e-001, -5.3583325546130031e-002,
          -9.4138244483830166e-002, 1.1170463466015422e-001,
          -1.8615408025327049e-001, -2.2109296271758092e-001,
          1.4507270725170887e-001, 6.5301057726467382e-002,
          1.4427910928275314e-001, -9.3210586149421126e-002,
          -8.4356632464456488e-002, 1.5806069132925929e-001,
          -3.3221789809097074e-001, 4.2341186198664400e-002,
          -1.7685358401771731e-001, -2.8775873913320105e-001,
          -8.8233644961247221e-002, -3.4252199101833436e-001,
          -5.4889848054320955e-002, -2.3504911401278715e-002,
          2.1312855083261953e-001, 1.5032145792599530e-001,
          -3.6455757150943291e-002, 1.4497847879119888e-001,
          -1.0211215556454203e-001, 1.3473228633649029e-001,
          -9.4538145995078274e-002, -3.2764684350613033e-001,
          3.6639929772855968e-002, -1.1755478793866650e-001,
          -2.8299401924805778e-001, -9.0254450540558168e-002,
          -9.8563874474271548e-002, 7.3753527870727892e-002,
          -2.5070392063758849e-002, 6.8453164411913936e-001,
          1.5170863604815835e-001, -6.8648108976533645e-002,
          -7.5638488347256880e-002, -1.0206109924174006e-001,
          1.4749197037428621e-001, 9.4345435568148325e-002,
          -3.3336728057684678e-001, 3.4674819266340647e-002,
          -1.1520613656480558e-001, -2.8724662967830072e-001,
          -5.6669336654939972e-001, -1.0210020157125611e-001,
          7.6796205494213773e-002, -1.2462140894891201e-001,
          3.1676212330875736e-001, 2.6862180733270443e-003,
          -1.0548812445438398e-001, -4.3057725834053745e-001,
          2.0979098680012492e-002, 1.4710814814971742e-002,
          3.3091942755042902e-001, -3.2940614505168114e-001,
          7.5152805321425917e-002, 2.6022906082635089e-001,
          -3.3182792695524421e-001, -1.5262243242637877e-001,
          5.8652720251300118e-002, 4.4450023112310340e-002,
          -3.1125896512826112e-001, 3.7616040114334115e-001,
          5.3077359801568608e-002, -4.4264783842199285e-001,
          6.5598841018612034e-002, 2.7450514383359359e-001,
          -9.6140687489260253e-003, 3.2997860911525517e-001,
          -1.2315232090869623e-001, 3.5616501060214201e-001,
          1.5119786832197923e-001, -5.7347273897742490e-001,
          -9.4461945106640066e-001, 9.0441041389337520e-002,
          -3.2712247912003160e-002, 3.0420748582615065e-001,
          7.9443621393156727e-004, -7.9514810338421962e-003,
          1.2390521891706498e-001, -2.9004323463011500e-001,
          1.6886161497375693e-001, 7.9768449932806434e-002,
          -9.2491341335259949e-003, -1.3084238451288435e-001,
          2.8994448261879163e-001, 3.6963503693520638e-001,
          2.1166636230044600e-001, 7.9858093211262887e-002,
          9.8913115640757679e-002, -3.3889988294384180e-002,
          1.8282932969931012e-001, -2.0846032387936815e-002,
          -1.4190074959872559e-001, 1.5245083756317498e-001,
          -1.4395355953835945e-001, 1.2448036831986717e-001,
          -1.3641647335650867e-001, -1.4475725122494884e-001,
          3.2637478600218922e-001, -3.6645445987803345e-002,
          1.8686915377605270e-001, 2.8767451631826391e-001,
          6.0477060007388048e-002, 8.8291674277384255e-002,
          -8.0175327942856076e-002, 1.8264527359033941e-001,
          -2.0064294538569394e-002, -1.4685149130941746e-001,
          3.1019710938695932e-001, 5.4752275579351126e-002,
          1.5816461499219617e-001, 8.0670106933568492e-002,
          -3.2898580072765871e-001, 3.3009636463192610e-001,
          -4.0327436164154191e-002, -8.2536224919684612e-003,
          2.8141041001710876e-001, 6.6801911766034408e-002,
          8.6939585426275931e-002, 4.8811752946146904e-002,
          1.7344186659787229e-002, -1.2756015901957269e+000,
          -1.4051685141870532e-001, 2.7644557586679902e-001,
          4.6688860335790769e-002, 1.2501191683095533e-001,
          -1.3683365920076687e-001, -9.7781348541718632e-002,
          -4.1184619731219965e-003, -2.9762380157811585e-001,
          -1.5317987850543718e-001, 2.9251962486725314e-001,
          6.7771674844281898e-002, 9.6531748474567983e-002,
          -1.3568944467408381e-001, 1.1355130482367266e-001,
          -1.5626970803211124e+000, -3.0378649989537414e-002,
          5.1592286142397992e-001, -1.0123474463287611e-001,
          -6.1631094991651691e-001, 7.4956341294202600e-001,
          -3.3176534822261861e-001, 3.1120422994864722e-001,
          -5.1227336840445850e-002, -1.2938660038445160e-001,
          1.8613391116896780e-001, 8.0747460226539072e-002,
          2.6977741161782953e-001, -1.4295650539467805e-001,
          2.1891944992635748e-001, -1.5620097881901267e+000,
          -2.8839801711214873e-002, 4.3569577834463835e-001,
          5.4014985586725982e-002, -4.0896790638944791e-001,
          3.1360491803793217e-001, -9.2550453710314992e-002,
          5.8019173192306217e-001, -5.2561252484104745e-002,
          -1.3043037942666988e-001, 6.1872889078456672e-001,
          8.3806904251750594e-002, 2.2216964680937787e-001,
          1.4432115313680280e-002, 1.4642991414558834e-001,
          -2.2977148170882038e+000, 2.0227248526160332e-001,
          1.1919079754200280e-001, 5.2579670065355917e-002,
          -4.2930254196548978e-001, 3.1016002395524528e-001,
          -9.2187859659062316e-002, 1.8122472159358849e-001,
          -2.8265292571681602e-002, -9.6671377856643925e-002,
          6.5312165561400082e-001, -2.3136762826925599e-002,
          -9.0491601712567357e-002, 5.0161647847439296e-002,
          1.4598634861254517e-001, -1.6706360737538433e+000,
          -5.3608100851854593e-002, 1.0151620595784180e-001,
          -5.4756328189011126e-002, -1.7407336060190187e-001,
          3.1342328679862358e-001, 2.1358387520607716e-001,
          2.7145924593913625e-002, -3.2874683222024019e-002,
          -2.3639700704951577e-001, 2.9285857909014701e-001,
          6.1764841416780325e-003, -8.8467200655492031e-002,
          3.2083180437632586e-001, -1.3866236624954550e-001,
          -4.2688744472969831e-001, -1.1852091386368246e-001,
          4.1340241481491524e-001, -1.6681332230554846e-001,
          -2.9259343589641007e-001, 9.2643444736006747e-002,
          1.4946943236650059e-001, -8.3937601716652918e-002,
          -2.8808089348859103e-002, 7.6690663023673000e-002,
          2.9908219992043306e-001, 3.3245318317661698e-002,
          -9.7781734582528049e-002, 3.0657658505023072e-001,
          -1.8227616583489978e-001, -4.3593038579875634e-002,
          -7.5980412422990348e-002, 6.5323181353306742e-003,
          -5.2893408006311413e-002, -4.5098841820324330e-002,
          4.6321699646206709e-003, 2.1485295917743605e-001,
          1.9378381159723016e-002, 1.9923198504957010e-001,
          -2.6765203040708885e-001, -6.3340279816964065e-002,
          4.3350397489944556e-002, -1.5968270766531478e-001,
          7.5290677171362022e-002, -5.0406681482676203e-003,
          3.7509755447627816e-002, -7.5207769696101531e-002,
          -1.8099282439933889e-001, -3.0728166447193533e-001,
          -4.1706706033232385e-002, 2.2227494842181340e-004,
          6.0128826349821946e-002, 2.1975268648730339e-002,
          2.0191310956567440e-001, 1.4937578203609726e-002,
          -6.5079024142067274e-002, 1.1874341933519321e-001,
          -5.4489563268026164e-001, -5.3728332672670256e-002,
          -1.1223266264655168e-002, 1.3278700886298517e-001,
          1.4842305036664646e-001, -1.8046773501348545e-001,
          -3.0634649682995074e-001, -3.9409189685611953e-002,
          2.4956388085363356e-003, 5.3467593787382882e-002,
          2.6575331264645171e-002, 9.2674783694450602e-001,
          1.3791021627501211e-002, -7.4224113679611695e-002,
          -2.5654102114326529e-002, -1.1353711664170292e+000,
          3.6238178104998880e-002, 4.4233623671410738e-001,
          3.2299904012789377e-001, -4.8740281144028189e-002,
          -2.7639999527002096e-001, -3.0405080685128949e-001,
          2.3190071515557886e-001, -1.5390505595768020e-001,
          -1.5512535302394561e+000, -1.8734398256695786e-001,
          7.3913860378328222e-001, 1.7302505312231316e-002,
          -1.7513055769675936e-001, -1.1166389672751358e-001,
          -5.3186006552266718e-001, 4.1490722360694954e-002,
          -1.3232067556701374e-001, -3.7388142156026274e-002,
          -1.4321303592965279e-001, -2.7054544580785850e-001,
          -1.3139551807761205e+000, 2.0166490871665257e-001,
          -2.9158760092338570e-001, 1.9646800521346963e-001,
          -1.0464967648080192e-001, 2.8885269313160455e-001,
          2.0187061101921849e-002, -1.9928098895699803e-001,
          -3.0533742561066191e-001, -1.0453115898835248e-001,
          8.6567665086266413e-002, -1.2326765637187602e-001,
          2.8090348636427367e-002, 2.0693371002276853e-001,
          -2.6905069911369073e-001, -1.6857095284745283e-001,
          1.8051054166029068e-001, -2.9206751539200188e-001,
          3.4264096085368051e-001, -2.3668678398407283e-001,
          3.5516436766850296e-001, 1.3635662640297092e-001,
          -3.7572620474219012e-002, -2.8253774288025391e-001,
          -2.1698449539350814e-001, 3.2910320105454793e-001,
          -3.4769768117247452e-001, -1.3934622463406784e-001,
          1.5099700418727179e-002, 2.6731288683097681e-002,
          -6.4457991519335656e-001, 4.0168142414916552e-001,
          -1.0038403521239042e-001, 1.6985856625083387e-001,
          -1.6131183936816989e-002, 2.8540507776513885e-001,
          -1.7643740235602567e-001, -1.6252943822971062e-002,
          6.3873142129883806e-002, 8.8446479311261247e-002,
          -9.4684585145831477e-003, 4.3801379238519056e-001,
          -1.3389214139358138e-001, -3.6984615697311374e-001,
          3.3392880236666567e-001, 1.8261226346276513e-002,
          6.6772294769186336e-001, -1.3194082088685125e-001,
          -1.0144931346646703e-001, 1.4093351863599035e-001,
          -3.3074930308162727e-002, 1.1619378821320445e-001,
          2.9212088055423102e-001, 4.4759942285466300e-002,
          3.4897440955073911e-001, -6.1772578659926865e-002,
          2.1414023784649985e-001, -2.1874584181274463e+000,
          -1.4759528554094695e-001, 3.2223897008931035e-001,
          5.2810185145272956e-002, 5.6815455576834872e-001,
          3.1388721760898836e-001, -9.9193051367478163e-002,
          -2.1005540914537722e-003, -2.9200443202356424e-001,
          -1.4733591110395228e-001, 2.8797865267080014e-001,
          2.5103981093185990e-001, 1.0384294906064569e-001,
          -8.2955808381788357e-002, 3.9495235010357488e-001,
          -1.3168324531713138e-001, -1.4900926045742693e-001,
          9.9712038562240604e-002, 3.0925200539104730e-001,
          -4.5098202417897959e-001, -1.6716363189396863e-001,
          -3.3459538861564814e-001, 3.4156447513249429e-002,
          -9.3571749326138953e-001, -1.2890232649723349e-001,
          2.9176966756074973e-001, 8.4026418704576722e-002,
          2.7074205886128644e-001, -8.8865211398197475e-002,
          1.0853763737015727e-001, -8.0334241795917039e-001,
          -3.0681328554797504e-002, 1.1692750274820159e-001,
          -1.0899282023654923e-001, 1.7512256670516966e+000,
          6.3097841548750255e-002, -3.5201829782544869e-001,
          8.5171984458590100e-001, -9.3707441179671747e-001,
          -1.2683864218735688e-001, 1.8741974852103999e-001,
          7.5494108732505977e-002, 2.6811084943405972e-001,
          -8.5531758516061221e-002, 1.0958977159720150e-001,
          -4.8928376793341122e-001, -1.4864234495543563e-001,
          1.0458902820861293e-001, 5.1442401924536536e-002,
          -2.2037674071781601e+000, 6.1548641241393892e-002,
          -3.4603311552973004e-001, 5.2338337065453833e-001,
          -9.3828997752475496e-001, -2.5834881760689787e-001,
          4.8926704705935679e-002, 8.7113835078915736e-002,
          2.1489610940957446e-001, 4.8802341451945654e-002,
          1.1694037983051508e-001, -3.3665716417969771e-001,
          4.7085351031210823e-002, 1.2329566302312328e-001,
          6.2409626310536717e-002, -1.1673446050707781e+000,
          3.1183196056833057e-001, -3.2569424637336664e-001,
          1.7381298722622769e+000, -2.3400128387048288e-001,
          -1.0635279997680958e-001, 2.8667846270227304e-001,
          -2.1174139194259818e-002, -9.6721158028327467e-002,
          4.2468637459242553e-001, -1.3688191780917178e-001,
          4.4545610351241133e-002, -3.0339343760411974e-001,
          1.1000534272164376e-001, 2.2031139194773774e-001,
          -1.1639473904316031e+000, 3.0993761045235729e-001,
          1.5091928237577004e-001, -4.4899804999577929e-002,
          -2.2522330144439831e-001, 1.9445174320150116e-001,
          6.4118146292054268e-001, 2.7441269461281656e-002,
