%YAML:1.0
mlp: !!opencv-ml-ann-mlp
   layer_sizes: !!opencv-matrix
      rows: 1
      cols: 3
      dt: i
      data: [ 330, 19, 10 ]
   activation_function: SIGMOID_SYM
   f_param1: 6.6666666666666663e-001
   f_param2: 1.7159000000000000e+000
   min_val: -9.4999999999999996e-001
   max_val: 9.4999999999999996e-001
   min_val1: -9.7999999999999998e-001
   max_val1: 9.7999999999999998e-001
   training_params:
      train_method: RPROP
      dw0: 1.0000000000000001e-001
      dw_plus: 1.2000000000000000e+000
      dw_minus: 5.0000000000000000e-001
      dw_min: 1.1920928955078125e-007
      dw_max: 50.
      term_criteria: { epsilon:9.9999997764825821e-003, iterations:1000 }
   input_scale: [ 3.9573113801293092e+000, -2.9444598388378913e+000,
       3.9431445425389366e+000, -2.8116665283938427e+000,
       3.7417439929958487e+000, -2.4094601481349778e+000,
       3.6360040048215865e+000, -2.0520875533885299e+000,
       3.7263660456116519e+000, -1.7960258141788048e+000,
       4.0186428867201700e+000, -1.6290874793078562e+000,
       4.4485125514126747e+000, -1.5128239169135846e+000,
       4.9553322231915011e+000, -1.4647572215369542e+000,
       5.4525518369361325e+000, -1.5264503068423512e+000,
       5.3574625840106744e+000, -1.6085799202416213e+000,
       4.6979645623815056e+000, -1.6660245447592192e+000,
       4.0075558471529060e+000, -1.7376765300621757e+000,
       3.6593328737360937e+000, -1.9135687666974166e+000,
       3.5496945063492213e+000, -2.1461203033056018e+000,
       3.4029790135406586e+000, -2.1904165073606001e+000,
       4.0984954126552466e+000, -2.9591852384985287e+000,
       4.0669403658246761e+000, -2.7718159004183676e+000,
       3.7474297566601416e+000, -2.2501694205761584e+000,
       3.6299622676879504e+000, -1.8587469991364345e+000,
       3.8811765399137217e+000, -1.6722606215723113e+000,
       4.4272107483238434e+000, -1.5848415452554860e+000,
       5.1968258466309019e+000, -1.5389988430591599e+000,
       5.9773965847527890e+000, -1.4990016206229628e+000,
       6.3930831985998804e+000, -1.4829282079735144e+000,
       5.8216250456248186e+000, -1.4206469086575286e+000,
       4.8393043257197368e+000, -1.4051871684829031e+000,
       4.0431628698996622e+000, -1.4954473450504557e+000,
       3.6226701158390244e+000, -1.6990697431556185e+000,
       3.5011453726968331e+000, -1.9773930423983845e+000,
       3.3649166934542714e+000, -2.0614173959094946e+000,
       4.2321879383613128e+000, -2.9165619448262308e+000,
       4.0893615741338252e+000, -2.6099363377799119e+000,
       3.6653045743150998e+000, -1.9439383172117304e+000,
       3.7424430458202833e+000, -1.6147420179388938e+000,
       4.2559844820329289e+000, -1.5475062489507843e+000,
       4.8756099873530898e+000, -1.5443495655310027e+000,
       5.2741556504343050e+000, -1.4932653705589840e+000,
       5.5757770315603690e+000, -1.4277633758009496e+000,
       5.7369591324972822e+000, -1.3641644303724685e+000,
       5.4037720026610154e+000, -1.2262457726285332e+000,
       4.5339653583096409e+000, -1.0710077957110165e+000,
       3.7729404353944314e+000, -1.0889938793307212e+000,
       3.4857199492551274e+000, -1.3491774683202864e+000,
       3.3796129775434958e+000, -1.6975535110429105e+000,
       3.2841407301073913e+000, -1.8406682458555153e+000,
       4.2417135692727070e+000, -2.7776796888046511e+000,
       4.2213426477953782e+000, -2.5258770727190512e+000,
       4.0306868038685071e+000, -1.9728011900688314e+000,
       4.3690247304543472e+000, -1.7925927211241064e+000,
       4.8766244556111147e+000, -1.8583401251537177e+000,
       4.9353200338131318e+000, -1.8537667166582938e+000,
       4.6890509312245205e+000, -1.7809415721233726e+000,
       4.6495755721714493e+000, -1.8022044200953204e+000,
       4.7648528290482126e+000, -1.8060820628558301e+000,
       4.7526219685909767e+000, -1.6828919103767668e+000,
       4.0798262195416655e+000, -1.2680247208383566e+000,
       3.4338183817020407e+000, -1.0178334153196269e+000,
       3.2511585014653162e+000, -1.1562708323257396e+000,
       3.3403943372533385e+000, -1.5630227643926009e+000,
       3.3292314195917703e+000, -1.7571900981673680e+000,
       3.9419177256603652e+000, -2.4144531833645515e+000,
       4.1779465938407867e+000, -2.3406720994669237e+000,
       4.2610277776119867e+000, -1.9799691761662264e+000,
       4.6112666813741390e+000, -1.9416921842832189e+000,
       4.6610246137474665e+000, -1.9995507920340554e+000,
       4.2886886882947595e+000, -1.9998332654838598e+000,
       3.9326397253826668e+000, -2.0039073500863722e+000,
       3.8288729812492224e+000, -2.0556412119260363e+000,
       4.0347662534311635e+000, -2.1527997300391615e+000,
       4.1434471921078018e+000, -2.0521686204632488e+000,
       3.7008918315026520e+000, -1.5597894938266843e+000,
       3.1341292211263476e+000, -1.0981166310063211e+000,
       2.9958661251545458e+000, -1.0761805933580182e+000,
       3.2055129177876869e+000, -1.4474541427116223e+000,
       3.2403346683538081e+000, -1.6386703500392956e+000,
       3.6432132783483588e+000, -2.1309873331082372e+000,
       3.9464544975546461e+000, -2.1115034358354476e+000,
       4.0766638388940368e+000, -1.8499941380252731e+000,
       4.1889203773623622e+000, -1.8145156933505568e+000,
       4.0532343788917959e+000, -1.9197346526287884e+000,
       3.7963458400309937e+000, -2.0701455172680236e+000,
       3.5752122802586093e+000, -2.1881755677728312e+000,
       3.6775332902541660e+000, -2.3714944249247889e+000,
       3.7928365488745803e+000, -2.4293287717817886e+000,
       3.7395488643576451e+000, -2.2085561233730271e+000,
       3.3929419690593146e+000, -1.6866790201388913e+000,
       3.0391549787888401e+000, -1.2181873786100281e+000,
       2.9130748626162437e+000, -1.1122468722343271e+000,
       3.1128114657854620e+000, -1.4188920879705245e+000,
       3.1371117577250862e+000, -1.5690774285553100e+000,
       3.6752807957190687e+000, -2.1153846783770023e+000,
       3.8931777427624699e+000, -2.0440338628990151e+000,
       3.9028022430771556e+000, -1.7294106600209544e+000,
       3.9076503713421542e+000, -1.6932626312025392e+000,
       3.8250656657726645e+000, -1.9066601659118199e+000,
       3.7322145838725529e+000, -2.2044340014243695e+000,
       3.7555290974502582e+000, -2.4962519737665843e+000,
       3.8658443580821515e+000, -2.7129452467949999e+000,
       3.8733518619072451e+000, -2.6520954131600205e+000,
       3.6039043886043554e+000, -2.2553062548778273e+000,
       3.3668868950062518e+000, -1.7713254894141526e+000,
       3.1467683929123802e+000, -1.3505113678687619e+000,
       3.0505647867917740e+000, -1.2469697483485320e+000,
       3.1312648450956542e+000, -1.4830334565206993e+000,
       3.0904495420593170e+000, -1.5799844551989017e+000,
       3.8141318227385717e+000, -2.2392376852176024e+000,
       3.8807679146503808e+000, -2.0614243296067172e+000,
       3.5979780302561570e+000, -1.5657874331719772e+000,
       3.5921471290162637e+000, -1.5031218680222773e+000,
       3.7449468596130737e+000, -1.8272807367964410e+000,
       3.9761204417899578e+000, -2.3327505611568085e+000,
       4.2781023981108186e+000, -2.8125078781835318e+000,
       4.3253637613072051e+000, -2.9758593359354344e+000,
       4.1613733033595608e+000, -2.7581851993005064e+000,
       3.8393789279011781e+000, -2.3011435596901189e+000,
       3.5979677359503115e+000, -1.8427200904084535e+000,
       3.3478930625566883e+000, -1.4755550551270107e+000,
       3.1572342831659914e+000, -1.3824904697392237e+000,
       3.1594637929618941e+000, -1.5960417798740376e+000,
       3.0856024854598862e+000, -1.6761491559849675e+000,
       3.9269867144025792e+000, -2.3952815681014865e+000,
       3.8820549989461397e+000, -2.1248092125083859e+000,
       3.3490133826520947e+000, -1.4538931412456484e+000,
       3.2566748078157759e+000, -1.2803722257582353e+000,
       3.4867046155565125e+000, -1.5348020216265454e+000,
       3.9995980880691495e+000, -2.1015186385972791e+000,
       4.6368244885664085e+000, -2.7167084071665046e+000,
       4.6246575731266759e+000, -2.7697603553136920e+000,
       4.5769933894002310e+000, -2.5898391331826320e+000,
       4.4413297004676462e+000, -2.2676817394103317e+000,
       4.1868454916919058e+000, -1.8677907932410680e+000,
       3.7286021712651927e+000, -1.5417170624973533e+000,
       3.3898810135670727e+000, -1.5190944049166804e+000,
       3.3398620475527085e+000, -1.7852378266432081e+000,
       3.2513752080659986e+000, -1.8869563726684639e+000,
       3.8885585812165337e+000, -2.4464130970592919e+000,
       3.7686542257978344e+000, -2.1279187215149342e+000,
       3.1807173827880129e+000, -1.3932003373605231e+000,
       2.9708034062547930e+000, -1.1021074992829836e+000,
       3.1070780693137605e+000, -1.1801283058662237e+000,
       3.4886108634573150e+000, -1.5080073880988272e+000,
       3.9246592024089315e+000, -1.8398273330794901e+000,
       4.1428484298848538e+000, -1.9196925614629985e+000,
       4.4179975587850437e+000, -1.8956764674819369e+000,
       4.6252008944239922e+000, -1.7458477335356086e+000,
       4.7825925887736442e+000, -1.6450382684314369e+000,
       4.3538957686257440e+000, -1.5500790772878885e+000,
       3.9268835330658796e+000, -1.7027940745264687e+000,
       3.7483723242709344e+000, -2.0486723314005468e+000,
       3.5581431502661989e+000, -2.1414772660442432e+000,
       3.8095096706002463e+000, -2.4295388382369567e+000,
       3.6239225256062491e+000, -2.0898100559660113e+000,
       3.0768370228828186e+000, -1.3978363550589434e+000,
       2.8800651627817149e+000, -1.0959311795902535e+000,
       2.9696629657346572e+000, -1.0977461395892494e+000,
       3.4019155808122510e+000, -1.3306462854498788e+000,
       3.8948342513704342e+000, -1.5756762778773823e+000,
       4.0388138290415947e+000, -1.5565925304411081e+000,
       4.1322633509209981e+000, -1.3883164489697706e+000,
       4.3201937797623993e+000, -1.1992664348547935e+000,
       4.7158853548117605e+000, -1.2254564786891944e+000,
       5.1799317181348483e+000, -1.5207599317438494e+000,
       4.7316288886546980e+000, -1.8885122037224860e+000,
       4.2678762900717260e+000, -2.2811086795982471e+000,
       3.8890887778154162e+000, -2.3250663527394537e+000,
       3.6556265323474495e+000, -2.3206854419120071e+000,
       3.4142434307093708e+000, -1.9770589538345880e+000,
       2.9647626347745062e+000, -1.4097129870191669e+000,
       2.9357013871543298e+000, -1.2428894754984599e+000,
       3.2506212573932958e+000, -1.3849540605138368e+000,
       3.9427221064576949e+000, -1.7664173637930827e+000,
       4.3835905798962669e+000, -1.9902248182438234e+000,
       4.3321192041399383e+000, -1.8380955425595848e+000,
       4.2273421368069073e+000, -1.5454142522811596e+000,
       4.4996079371484976e+000, -1.3366963850596949e+000,
       5.0177324087855624e+000, -1.2516074050246673e+000,
       5.4938934484335054e+000, -1.3969232302469843e+000,
       5.2117806476913451e+000, -1.8429358027526102e+000,
       4.6491587175164577e+000, -2.3182528509209233e+000,
       4.1209027661115787e+000, -2.3407338167082430e+000,
       3.2730745398799939e+000, -2.0170942027394543e+000,
       3.0691727828362856e+000, -1.7543238952418609e+000,
       2.8721786916765222e+000, -1.4385448215711656e+000,
       3.2539659129172915e+000, -1.6118560762524481e+000,
       3.9877730184214086e+000, -2.0916315639691749e+000,
       4.3910494602803745e+000, -2.4203645981728603e+000,
       4.2845683290486027e+000, -2.3432017918916817e+000,
       3.8922060362763826e+000, -2.0063051530653553e+000,
       3.7974087291155434e+000, -1.7481215020684966e+000,
       4.2825911424735947e+000, -1.7002512112460237e+000,
       5.3276210015981169e+000, -1.7332341401657312e+000,
       5.4948191482528825e+000, -1.5278897990342573e+000,
       4.8911449308387231e+000, -1.5630634586120546e+000,
       4.5630863064868379e+000, -2.0628955477867130e+000,
       4.0215296549721273e+000, -2.0847002536328305e+000,
       2.8693874531311541e+000, -1.7074186567879204e+000,
       2.8333050392637920e+000, -1.5990072969369287e+000,
       2.8949537093203284e+000, -1.5439527613418316e+000,
       3.6116200584532039e+000, -2.0476126207888776e+000,
       4.3457676154711358e+000, -2.6833958129068187e+000,
       4.3223365459886631e+000, -2.7893524625263595e+000,
       3.8181017641377242e+000, -2.4406293656227658e+000,
       3.4291748081160582e+000, -2.0894922059781393e+000,
       3.5142156597159824e+000, -1.9929650343915657e+000,
       3.9366414030808499e+000, -1.9952920765102220e+000,
       4.5925579059945427e+000, -1.9537330272483286e+000,
       4.8581664005020331e+000, -1.6594427673146497e+000,
       4.3407799164937693e+000, -1.4158636395985524e+000,
       4.1053841817417922e+000, -1.6777740872074227e+000,
       3.6682042624336217e+000, -1.6994314214045041e+000,
       2.7894081291849777e+000, -1.6003745745632858e+000,
       2.8573076975160228e+000, -1.5818243765914470e+000,
       3.1431391203834500e+000, -1.7230820616598659e+000,
       4.0384932416850026e+000, -2.4507643908290921e+000,
       4.5299389828587202e+000, -3.0326763125420215e+000,
       3.9593305031224766e+000, -2.7692259581744509e+000,
       3.4211539053975399e+000, -2.3758808588339106e+000,
       3.2623897416557734e+000, -2.2080003760438216e+000,
       3.4407941551046526e+000, -2.2333503350755097e+000,
       3.7433831899992644e+000, -2.2219867275370184e+000,
       4.1563806289038929e+000, -2.1094600701104951e+000,
       4.3868625014087925e+000, -1.8063624158393261e+000,
       4.0573984420189531e+000, -1.4516558805888269e+000,
       3.7419196537681798e+000, -1.4649003263396831e+000,
       3.3649083991170521e+000, -1.4410567752265488e+000,
       2.9212297131217766e+000, -1.6232857454822631e+000,
       3.0681936430263379e+000, -1.6602077328887606e+000,
       3.4129332972733764e+000, -1.8719771497461206e+000,
       4.3546427870808166e+000, -2.6953363237865742e+000,
       4.5532801729185408e+000, -3.1326308567296550e+000,
       3.8775642348625921e+000, -2.8042462784714011e+000,
       3.5164991075947256e+000, -2.5542199409040136e+000,
       3.5307792886260807e+000, -2.5362089301835038e+000,
       3.6960117868807694e+000, -2.5791357059173889e+000,
       3.9210294427047714e+000, -2.5359573778324971e+000,
       4.2094044783898017e+000, -2.3781117043465008e+000,
       4.3975347173535857e+000, -2.0305499967414584e+000,
       3.8828665065373063e+000, -1.5078824208475576e+000,
       3.4697309105537495e+000, -1.3838045866799129e+000,
       3.2123350906756922e+000, -1.3653617358395578e+000,
       3.1409836335623096e+000, -1.7162498847443211e+000,
       3.2852559881153454e+000, -1.7475147951275030e+000,
       3.4918635840759920e+000, -1.8274230104878861e+000,
       4.1467192235103347e+000, -2.4506850153038826e+000,
       4.3934316288040449e+000, -2.9441930385205262e+000,
       4.0536997968671828e+000, -2.9122446683901333e+000,
       3.9229865542145923e+000, -2.8970305979524702e+000,
       4.0245433854048267e+000, -2.9736073947283561e+000,
       4.1592459531606893e+000, -2.9702424208548663e+000,
       4.2651003760338195e+000, -2.8208297652476682e+000,
       4.5689077845093848e+000, -2.6391682789231825e+000,
       4.5111199377613653e+000, -2.1382748992817899e+000,
       3.7538972041976040e+000, -1.5105749858259778e+000,
       3.4335266742335593e+000, -1.4423295633851305e+000,
       3.2078474575173037e+000, -1.4337168748560760e+000,
       3.5642671941070319e+000, -2.0274392616105144e+000,
       3.5188531836057453e+000, -1.8686990328174886e+000,
       3.3622309603722020e+000, -1.6253624550330905e+000,
       3.7029120129196995e+000, -1.9442755463429042e+000,
       4.0761916698417648e+000, -2.4606687418807409e+000,
       4.1737762131908163e+000, -2.7904034230956478e+000,
       4.3154059051999409e+000, -3.0268608352407149e+000,
       4.5414238870781531e+000, -3.1996572424098924e+000,
       4.6025136098186978e+000, -3.1109802582083010e+000,
       4.8612447698991579e+000, -3.0260727534854919e+000,
       5.0582389342606637e+000, -2.7377390488685518e+000,
       4.5337570760438153e+000, -2.0416633882718864e+000,
       3.8100371524752998e+000, -1.5531809441209008e+000,
       3.7113210797300757e+000, -1.7134757246498491e+000,
       3.5568202455391695e+000, -1.7790664014915281e+000,
       4.0817919452005169e+000, -2.5362822993279273e+000,
       3.8460640279273868e+000, -2.1897881297828929e+000,
       3.3148601030185656e+000, -1.5724555615224567e+000,
       3.2947497004283131e+000, -1.5036943043899471e+000,
       3.6280930808713432e+000, -1.8307528877437800e+000,
       4.0655849870451579e+000, -2.2957193784345948e+000,
       4.5046443274014463e+000, -2.7113572398514525e+000,
       4.7335065498469255e+000, -2.8735799624316525e+000,
       4.8821412913537010e+000, -2.8397564758074436e+000,
       5.1241558501408706e+000, -2.7371179885662533e+000,
       4.9598331834941352e+000, -2.3272289171821083e+000,
       4.3912454854259666e+000, -1.8220738806307470e+000,
       4.0667377102752251e+000, -1.7723811865830692e+000,
       4.2646515751666820e+000, -2.2395251333019748e+000,
       4.1323508335264023e+000, -2.3766262220580203e+000,
       4.5518842200396943e+000, -3.1485270663155962e+000,
       4.3607895177896605e+000, -2.7619620365958855e+000,
       3.7049759104127187e+000, -1.9482120090105546e+000,
       3.3557022994975805e+000, -1.4891230515623775e+000,
       3.3645377487610624e+000, -1.4175019947486780e+000,
       3.6143451239162196e+000, -1.5958251162187114e+000,
       3.9265193205347497e+000, -1.8261998679381490e+000,
       4.1419943474388532e+000, -1.9583096144928371e+000,
       4.3027744111422619e+000, -1.9876134831488690e+000,
       4.4306497735296952e+000, -1.9328659027703770e+000,
       4.5100591826394112e+000, -1.8682738533441157e+000,
       4.4769144047911373e+000, -1.9316541781440433e+000,
       4.5092014482896490e+000, -2.2819825471539810e+000,
       4.5541951513668435e+000, -2.7406071249658996e+000,
       4.3502211616032600e+000, -2.8255573548626938e+000,
       4.8629522340737417e+000, -3.7083764772487520e+000,
       4.8305347281597006e+000, -3.4338946547891065e+000,
       4.4100885423741376e+000, -2.7125425457318340e+000,
       4.0289059189316418e+000, -2.1084355714948075e+000,
       3.7853031553748826e+000, -1.7246054098624868e+000,
       3.6710606624435056e+000, -1.5380328934155096e+000,
       3.6391725867462865e+000, -1.4764768599838907e+000,
       3.7048638156368328e+000, -1.5037836752367499e+000,
       3.9499055674152062e+000, -1.6379473015123915e+000,
       4.3727032554273606e+000, -1.8854961440040781e+000,
       4.7532889645006797e+000, -2.2086057965918195e+000,
       4.7461100358977335e+000, -2.4766327993243373e+000,
       4.5402227944173337e+000, -2.7185307440958306e+000,
       4.4408120517967751e+000, -3.0127039894909959e+000,
       4.2936283168843312e+000, -3.0760233613678976e+000,
       4.6928511733344811e+000, -3.7350198237817813e+000,
       4.7058599447507818e+000, -3.5341828346756183e+000,
       4.4755924576708015e+000, -2.9783819310181086e+000,
       4.2771947710845613e+000, -2.4623401224126087e+000,
       4.0868859086759368e+000, -2.0412224602803222e+000,
       3.8592897142158669e+000, -1.6972447993187307e+000,
       3.6170656138700390e+000, -1.4638989524617216e+000,
       3.5477609021590140e+000, -1.4176783771327397e+000,
       3.7740626070600820e+000, -1.5735263973538147e+000,
       4.2424704395722381e+000, -1.9288727606821348e+000,
       4.6733597109455847e+000, -2.3841777693364099e+000,
       4.5657391207776428e+000, -2.6373562567076831e+000,
       4.3071632522296470e+000, -2.8025364469733272e+000,
       4.2848740727922801e+000, -3.0714522381141403e+000,
       4.1519796168340433e+000, -3.1222931536401273e+000 ]
   output_scale: [ 5.2631578947368418e-001, 4.9999999999999994e-001,
       5.2631578947368418e-001, 4.9999999999999994e-001,
       5.2631578947368418e-001, 4.9999999999999994e-001,
       5.2631578947368418e-001, 4.9999999999999994e-001,
       5.2631578947368418e-001, 4.9999999999999994e-001,
       5.2631578947368418e-001, 4.9999999999999994e-001,
       5.2631578947368418e-001, 4.9999999999999994e-001,
       5.2631578947368418e-001, 4.9999999999999994e-001,
       5.2631578947368418e-001, 4.9999999999999994e-001,
       5.2631578947368418e-001, 4.9999999999999994e-001 ]
   inv_output_scale: [ 1.8999999999999999e+000, -9.4999999999999996e-001,
       1.8999999999999999e+000, -9.4999999999999996e-001,
       1.8999999999999999e+000, -9.4999999999999996e-001,
       1.8999999999999999e+000, -9.4999999999999996e-001,
       1.8999999999999999e+000, -9.4999999999999996e-001,
       1.8999999999999999e+000, -9.4999999999999996e-001,
       1.8999999999999999e+000, -9.4999999999999996e-001,
       1.8999999999999999e+000, -9.4999999999999996e-001,
       1.8999999999999999e+000, -9.4999999999999996e-001,
       1.8999999999999999e+000, -9.4999999999999996e-001 ]
   weights:
      - [ -1.2257459037978063e-002, 2.7265746433823141e-002,
          -5.0700915981822997e-002, 7.2437527895066217e-002,
          3.6875743723259169e-001, 1.6247259497062500e-001,
          -2.3618598911960745e-001, 9.5316572022697865e-001,
          2.3363839880368831e-002, 3.7049551408164938e-001,
          -1.6445317546516808e-001, 8.2640992496002902e-002,
          1.0587282016091393e-001, -3.6125689844479014e-001,
          8.4524166396612227e-002, 2.3992681477332725e-001,
          1.0483148040353087e+000, 7.1344658847252704e-002,
          -5.8614406632814875e-001, -1.2217962812529529e-002,
          8.4309808154430205e-002, -4.7934776394247536e-002,
          6.9799385360722166e-002, 1.8974122073734012e-001,
          8.4347246576384682e-001, -5.1204546626989422e-001,
          1.5432000410600686e+000, 2.3898617639835210e-002,
          2.7772367846409851e-001, -6.9933843430922807e-002,
          7.3194555070002221e-002, -2.0893150160338408e-002,
          -3.6276635260121826e-001, 8.4466902296383622e-002,
          2.4370813367065169e-001, 8.0348838420559665e-001,
          7.6602859851045438e-002, -1.7489066883715804e-001,
          -4.2215149772462761e-003, -2.2941379977230662e-002,
          -5.9149347298788624e-002, 2.8544236002906509e-001,
          1.6122179399749431e-001, 8.3887192512606723e-001,
          -5.2184183235457116e-001, 6.6461884659193637e-001,
          2.6050680169804316e-002, 3.3829263306032586e-001,
          -7.8857940918562811e-002, 1.1818331536178141e-001,
          -1.1074401493964528e-001, -3.5779917190139493e-001,
          3.0242298187461109e-001, 1.3773638412341899e-001,
          7.6998376912766131e-001, 6.1303007962153065e-002,
          -1.7079215947771681e-001, -2.8068291314015774e-003,
          -4.9501041478751222e-004, -7.8818599125389494e-002,
          2.9400727627526402e-001, 2.1757294509581851e-001,
          8.3566604154292523e-001, -3.6648915405719562e-001,
          6.5822225638675080e-001, -5.5266877171360980e-002,
          8.6508075483661406e-002, -7.6700105789230116e-002,
          9.7370640319344781e-002, -1.7159302754484076e-001,
          -3.7123921989965220e-001, 3.6890548398616690e-001,
          3.5911944789450406e-003, 2.2410340922046429e-001,
          3.8685669376550100e-003, -1.6808225654276865e-001,
          6.4959691940003998e-003, 4.2051524434537513e-003,
          -4.7435237411837160e-002, 2.6180899441696104e-001,
          2.1416071071493897e-001, 8.5054288854773030e-001,
          -3.6128665011395789e-001, 3.4089467977949417e-001,
          -5.2057164362842169e-002, 6.8755406722665738e-002,
          -2.8994978319536835e-001, 1.0534286951968254e-001,
          -1.6765943628906868e-001, -7.7514480279790186e-003,
          5.6137223554371152e-001, 4.7371993692698441e-002,
          2.3268718200766350e-001, -1.1013145377966370e-001,
          -1.2249830601873908e-001, -5.1118975577508344e-002,
          1.0532569026461922e+000, 1.1988614032623229e-001,
          2.6567789497809191e-001, 2.1412111265962538e-001,
          1.0144469478211031e+000, -9.4994537019185005e-002,
          2.6295293899265693e-001, -4.5253402744039939e-002,
          -9.0926246996331055e-003, -2.9570596752691397e-001,
          4.1131206746639580e-002, -1.6700977693031316e-001,
          2.0665188656904246e-001, 5.6173446890907830e-001,
          -2.5653793263362246e-001, 1.2359863019203579e-001,
          2.3867511033493846e-001, 3.6285039166799193e-001,
          -6.0996622868517501e-002, 1.0762633576246878e+000,
          2.4592609124661671e-001, 2.4666155417698782e-001,
          -5.1230147554877968e-003, 5.6397173599193717e-001,
          -1.2086150559885010e-001, 2.4864977273956618e-001,
          -3.0670791087332987e-002, 2.8996458987045247e-002,
          -5.3475631427017700e-001, -4.5278047453188704e-002,
          4.7377428482777058e+000, 2.8413171593620334e-001,
          4.7790378560089042e-001, -2.2583513130180405e-001,
          1.2450659646782494e-001, -1.5095873611392868e-002,
          -5.5701050071105658e-002, -2.1161952849241622e-001,
          3.4466237558338816e-002, 1.4483273899643526e-001,
          1.4019470452323560e-001, 4.3414649907823448e-002,
          5.1564539580266311e-001, 1.0565207353090924e+000,
          -1.0053773036138290e-001, -2.2026799092642085e-002,
          2.5285613199479310e-002, -4.9627512049679467e-001,
          5.3810200128639032e-002, 4.5479728215141284e-002,
          8.2261647406829577e-002, 4.7759121415875583e-001,
          -1.8402794952039453e-001, 2.0142763764936619e-001,
          1.7771672825197257e-002, -2.2998236566060309e-001,
          6.6681490675303448e-002, -7.7628557021871963e-002,
          -9.0581554805521283e-002, 1.0201271835424638e-001,
          4.4323979705438443e-001, 2.6084629414849031e-001,
          3.5789891635905666e-002, 1.3905719694901450e-001,
          -1.8616700791673238e-001, 1.4157467065098617e-001,
          -4.8766323766886049e-001, 1.2626268998141121e-001,
          4.6169375395267491e-002, 1.1381108757390072e-001,
          3.7260398635446668e-001, 5.8718922677771269e-002,
          4.3881171567261949e-002, 5.4698835608499301e-002,
          -3.4233896937000574e-001, 1.2857207390725395e-001,
          -5.1343767221606842e-002, -3.6580050825209326e-001,
          1.0659747365863001e-001, 1.1276538395952338e+000,
          -4.3036102516359212e-002, -1.7600504647012116e-001,
          1.3083025150293576e-001, 3.4987101638948373e-002,
          1.4596722726535488e-001, -2.0441792403011036e-001,
          1.2017592156157300e-001, 1.9541519590953141e-001,
          -6.0209120699487959e-002, 1.2140196893339136e-001,
          2.1824837365143457e-001, 2.7680671721534633e-001,
          4.6981309087750688e-002, -1.2115465478307100e-001,
          1.3539803221311800e-001, -1.4941017983828580e-002,
          -1.8806831420851577e-001, 1.3403256287959119e-002,
          9.1087851864297145e-002, -5.2465144821239762e-002,
          -4.1853914470242753e-002, -1.0502524282106154e-002,
          2.6941305194437837e-001, 1.9930852615829564e-001,
          -6.9296071813601270e-002, 1.5020240325276832e-001,
          9.5197377701275468e-002, -6.2535668000856706e-002,
          1.2655925862618339e-001, 7.7476357547319005e-002,
          1.3901338119837778e-001, -2.3894282524520549e-001,
          -5.4704355352663360e-002, 4.2259564208713768e-001,
          -2.0200044468195264e-002, -5.3409493636570139e-002,
          2.5848208929283047e-002, 1.2841991211345435e-001,
          -3.1290325327050061e-001, -3.5987937688954766e-002,
          1.0426572653252114e-002, 2.7087624971923063e-001,
          4.5858697918983726e-001, 9.6564443424666246e-002,
          1.4805442911572858e-001, -6.2096664991168624e-003,
          -2.8995635119609725e-001, 9.3701281131556027e-002,
          3.1245430647341671e-001, 2.3271615937358064e-001,
          -2.2648800275640882e-001, -1.1059586825347199e-001,
          3.6510996719103561e-001, 1.1536767717316937e-001,
          -2.3026900140308376e-001, 1.1674530040160258e-001,
          2.7083653185418904e-001, -1.1991706643374070e-001,
          -3.5388393441658622e-001, 2.8875305745259129e-002,
          2.7014809240444970e-001, 4.2937476525773077e-001,
          1.0375558182730944e-001, 1.4482621780273125e-001,
          -1.0566260661463682e-002, -2.8808595427347961e-001,
          1.2121659333676311e-001, 4.4352928177551543e-001,
          3.8195482506863937e-001, -1.0001062410174462e-001,
          -1.1811147158046401e-001, 3.6943318918068641e-001,
          1.1153357182449831e-001, -3.8596705821658145e-001,
          1.1401629178955772e-001, -6.7393557198337116e-003,
          4.2356655955530428e-004, -4.9913544478382477e-001,
          7.6298446806120107e-002, 1.1846732543529702e-001,
          1.0033072037532287e+000, 7.3123775332339172e-002,
          5.0724850004272751e-002, 1.1391743251031289e-001,
          -3.0161102112140037e-001, 1.2004013873174131e-001,
          7.8408916590076960e-001, 3.4246450501587039e-001,
          -9.6855891465600571e-002, -8.3011269139245170e-002,
          3.6388679165248194e-001, 1.1652773524653662e-001,
          -3.0200522850570777e-001, 1.5812795191389514e-001,
          -1.2247537173879545e-002, -4.7685916335296940e-003,
          -4.9922112954748721e-001, 3.8084229616292500e-002,
          1.1056466203954389e-001, 1.0946699772742574e+000,
          6.4576976043915491e-002, 9.8552576206459894e-002,
          1.1993312820685698e-001, -3.5794306468582543e-001,
          1.2068909017838908e-001, 7.7061462113345536e-001,
          2.0217218171502452e-001, -7.6271666609930497e-002,
          -8.4505022695698734e-002, 4.6559246206979727e-003,
          6.9699308036840088e-002, -6.0147748400519521e-002,
          7.3548046399055794e-002, 4.1275633536276063e-001,
          1.7031604656097910e-001, -1.5974108132932030e-001,
          7.0866933949693200e-001, 2.1330340166343546e-002,
          2.6044866143080003e-001, -1.5723838338575147e-001,
          1.4099978363960489e-001, 4.5102991689967536e-001,
          -9.2914947636953168e-002, 7.7401928562218753e-002,
          1.9805017052028401e-001, 8.1821903503503579e-001,
          7.5072654470861630e-002, -5.8832156691018855e-001,
          5.2068564970633741e-003, -3.6776709489177223e-001,
          -7.9922427984325972e-002, 7.3154707563604010e-002,
          2.2206272245832637e-001, 8.4162104203279364e-001,
          -2.8337093583721629e-001, 7.6217676892541875e-001,
          2.8062955113466580e-002, 7.7333417692420259e-001,
          -7.6465142421336257e-002, 7.3932273722810971e-002,
          -1.2844142834767344e-001, -9.4738925387470307e-002,
          8.2821629227499388e-002, 1.2850272206650737e-001,
          7.7241771403521375e-001, 6.6286994539042146e-002,
          -1.5262792759188015e-001, 3.6321989403210447e-003,
          -5.5604507765506638e-003, -8.2177772185925091e-002,
          2.9100117699732964e-001, 2.2100182062911236e-001,
          8.1726948949162859e-001, -3.4795190817292604e-001,
          6.6234988291276697e-001, -5.1635947017837684e-002,
          8.4197971002283850e-002, -7.2224338439115660e-002,
          1.2820834967980424e-001, -3.9876042235192100e-001,
          -3.5483358042641444e-001, 3.4896420877173412e-001,
          1.7310708429366845e-001, 7.2910901312779230e-001,
          7.9883789998086534e-003, -3.5271682101333945e-001,
          3.2284517666013902e-003, 1.0496138787505876e-001,
          1.1694474321211018e-002, 2.6210512194097896e-001,
          2.1878099266697684e-001, 3.9527160259275479e-001,
          -3.4994286170127581e-001, 6.1828282607156415e-001,
          -5.6911865108990704e-002, 9.2540171199330196e-002,
          -7.9963307533810257e-002, 9.7413449817119802e-002,
          -3.9961267394297273e-001, -4.0580500303019794e-003,
          3.6527943024593085e-001, 3.9057524136814556e-002,
          2.2673282023404098e-001, -7.5432102714765331e-002,
          -1.8415825976622488e-001, -5.7075317535044433e-002,
          5.1313221252167307e-001, 1.6650289490562436e-003,
          2.5545446401472321e-001, 2.2060939035240493e-001,
          2.7305353314589065e-001, -3.5177872071868627e-001,
          6.6412983727527730e-001, -6.7848764654551141e-002,
          -4.0324541162392015e-002, -7.0512923847037154e-002,
          9.9643654897011200e-002, -3.8233280302673672e-001,
          -2.5791095994839325e-003, 5.6403538620376403e-001,
          -2.7422753731081767e-001, 2.2850692158022781e-001,
          -4.2828226260518888e-002, -1.3957596198182148e-001,
          4.7900976514752280e-002, 5.2230373002407360e-001,
          -4.0909394395264003e-005, 4.2212472313902072e-001,
          1.2242147114700840e-001, 4.8442479296015772e-001,
          -3.6474998647516876e-001, 6.6064883506181382e-001,
          -4.2417880703552728e-002, -4.2230075733055518e-002,
          -1.1928946751777171e-001, 9.7864606389332864e-002,
          1.0443923338640022e+000, -1.0234141246460816e-002,
          4.8704603154479009e-001, -4.4099741777535340e-001,
          1.2867819976225589e-001, -1.4776899877139918e-001,
          -2.2956813431888667e-001, -2.3462535034172456e-002,
          -8.6508990962028312e-002, -4.8367018169473081e-003,
          4.7012776859930583e-001, -8.1737776019619179e-003,
          4.5294932389664139e-001, -9.4243628358295251e-002,
          6.3619718614707788e-001, -4.4022475899511200e-002,
          1.4613797451554175e-001, -1.7418225742398291e-001,
          -3.1527209571139365e-002, -1.2170107076443878e-001,
          4.1058924028225939e-002, 5.4286622543945817e-001,
          -2.5063316696806903e-001, 1.6502401450933632e-001,
          -1.1238755468624317e-001, -1.3767016330646811e-001,
          -1.2133755336403947e-001, -9.8479894527972484e-002,
          9.9715487721307852e-002, 1.6913133231829594e-001,
          3.0872107176955987e-001, 1.7816287438935272e-001,
          1.6215769724941603e-001, 5.5296882434387451e-001,
          -4.7349270277689155e-002, 1.4851428221230586e-001,
          -7.3604366208054979e-003, -9.8319801130172468e-001,
          1.1158586868939478e-001, 6.9935410435035025e-002,
          3.1362165877356324e-001, -1.3416253263251945e-001,
          1.2629468663282975e-001, 3.8187331077540812e-002,
          -1.2738307087158454e-001, 7.8454352457881654e-002,
          -1.7625792865891823e-001, 1.6058325632121939e-001,
          1.1389758659025589e-001, 3.7093788516924625e-001,
          1.6672958822727987e-001, -1.3968114119671506e-002,
          5.5921397831404418e-001, 4.4632609998030990e-003,
          2.1761229496028495e-001, 1.5257754811413048e-002,
          1.4554557244125757e-001, 2.3555095250178085e-002,
          1.2598929480310717e-001, 3.7209817305902387e-001,
          1.3795236176697434e-001, 1.2890956858912414e-001,
          4.5383287203257620e-002, -3.8546088032551029e-001,
          6.1935815487726947e-002, 1.4790238665520997e-001,
          -5.6639681865019963e-002, 1.0268538628033821e-001,
          1.8058376279975530e-001, 2.4163350642961018e-001,
          -9.1141973555411690e-002, 1.2428266866866078e-001,
          -2.2893304120876479e-002, 1.5411864405192066e-001,
          -1.7896031665777681e-001, 2.0296404092137521e-001,
          -2.6757429225967706e-002, -2.7951138853030633e-001,
          9.2177221067235957e-002, 9.4652307994552556e-002,
          6.9068653714166661e-001, 5.6936237349860287e-002,
          -1.3834967239663137e-001, 1.5379025994060216e-001,
          1.4662531121070543e-001, -7.3894720478734327e-002,
          -2.7288973073174438e-001, 4.5965370724277879e-002,
          -3.7547592697850844e-002, -8.5966777325397037e-002,
          1.6577271324233375e-001, 2.2080525863562120e-001,
          1.5277045769913591e-001, -2.1714577025671938e-001,
          2.1348400192255845e-001, -1.8905809281061178e-001,
          -2.8603230646599515e-001, 1.7937627360868039e-001,
          2.7276974114686864e-001, 2.8098935781250789e-001,
          6.9154826254903143e-002, -2.2747418368232927e-001,
          1.4049852317556946e-001, 1.1724852792215047e-001,
          -7.3978748923226728e-002, -7.7395170084308365e-002,
          1.4201797894334728e-001, -4.3412059731745833e-002,
          -3.4667351411314279e-001, 1.6579649412452682e-001,
          2.4092947636015449e-001, 5.1661383929368287e-001,
          -1.2650411274505952e-001, -6.5435034732720873e-002,
          -1.5895600680748284e-001, -2.8783069955036300e-001,
          1.8304972187392010e-001, 5.6733239881971853e-001,
          2.0214132285407335e-001, 1.4431649086599174e-001,
          -1.1844441475254253e-001, 3.8192373958338793e-001,
          1.1922020829452391e-001, -9.1371185730279386e-002,
          1.1965063406920551e-001, 1.2062462790475588e-001,
          8.3286704033316533e-002, -3.4648181961630931e-001,
          9.5414270612392722e-003, 2.4386392478384211e-001,
          7.1894189390244811e-001, 1.2901634741433967e-002,
          1.2650105358534258e-001, -1.0953028385906710e-001,
          -2.8649320677801798e-001, 8.0727983440900514e-002,
          4.9956306367559550e-001, 2.5523400672143604e-001,
          -1.1842856504856708e-001, -5.1008638496670075e-002,
          3.2888939276191675e-001, 1.2760441400393699e-001,
          -7.3084877001684270e-002, 1.2153602240949385e-001,
          2.1608711065016641e-002, -1.1565846271921125e-001,
          -4.9845754237990531e-001, 7.5834744583624755e-002,
          1.4114870453242487e-001, 4.4717755947964000e-001,
          1.0269038857061095e-001, 4.7440888377252730e-002,
          -1.1807432022703689e-002, -2.8618475358758860e-001,
          1.2236081719004992e-001, 4.6277261594922348e-001,
          2.7673550146173592e-001, -9.6112529157736840e-002,
          -6.9985803158941290e-002, 3.4020154269108777e-001,
          2.0149204750904018e-003, -2.9580991123735656e-001,
          1.1362934089144418e-001, 3.3566848029646490e-002,
          -1.2129251427557630e-001, -4.9344282008301482e-001,
          1.2029291113685640e-001, 1.4081650769611123e-001,
          7.3154986814220502e-001, 1.0704071300038419e-001,
          4.4856101719928619e-002, -1.3728478727418206e-002,
          -3.1288164957691234e-001, 1.1831133716980641e-001,
          4.6037645747539613e-001, 2.1225828271097050e-001,
          -1.1571299924897174e-001, -6.5631248235548653e-002,
          -3.2989382834473883e-003, 2.4848996033778123e-001,
          -5.3619869770307416e-002, 7.4065365716063813e-002,
          2.6021876218851653e-001, 5.9230644837523194e-001,
          -1.0341433597079511e-001, 1.5357171500485332e+000,
          3.0548078213727164e-002, 6.8292812951980961e-002,
          -5.4310699217450276e-001, 1.3563837500784620e-001,
          3.2590192063118301e-001, -1.0290078093650967e-001,
          6.3351550278256419e-001, 2.3819376390316710e-001,
          5.5760858325795948e-001, 1.2453587017257248e-001,
          2.7549838724879622e-001, 4.2400546071118660e-003,
          5.6026171911916813e-003, -5.9896748684996164e-002,
          2.9386622928267769e-001, 2.4758699911445992e-001,
          5.7642034776733875e-001, -2.9251551515997225e-002,
          1.5129952938338778e+000, 9.0790456388071150e-002,
          1.1620855346514847e-001, -2.9313090240764705e-001,
          1.5331242549432864e-001, -8.6518060128358221e-002,
          -1.0065775948259000e-001, 3.2124421750947602e-001,
          1.9698001752469999e-002, 2.2982511823313675e-001,
          -6.2083805049460282e-002, 2.0874771747806393e-002,
          1.3683562655093665e-003, 6.0760058403719652e-001,
          4.3541436534282205e-002, 2.8861325994352749e-001,
          2.4387946949605058e-001, 3.9379794096247211e-001,
          -3.6660971766428396e-001, 1.7251362525877527e+000,
          -5.6517049707394240e-002, 6.1037043494706358e-002,
          -9.8175752109481360e-002, 1.2439037532351277e-001,
          -4.7397458853665614e-001, 2.2248256641407180e-001,
          3.7167071663207502e-001, -2.7781322621664845e-001,
          2.3241239591354176e-001, -9.6605800709322592e-002,
          3.6814451036639262e-001, -5.6269774646295602e-002,
          5.2151171369641758e-001, 3.3349393718072960e-002,
          6.8765933064777440e-001, 4.0628715991618908e-002,
          4.1379485515191594e-001, -3.6775167802378411e-001,
          6.7158909554944768e-001, -5.9259636655044738e-002,
          4.9187164558603169e-002, -8.4461498889882067e-002,
          7.2924192963343903e-002, -3.2643649830212440e-001,
          1.2652403232098521e-003, 3.4486567362740900e-001,
          -3.0091318337866917e-002, 2.2297245890425602e-001,
          -8.3870607811979886e-002, -1.1440206222946503e-001,
          1.6578202390143582e-001, 1.5428560432664243e-001,
          -5.0544223495599724e-003, 5.1308934640401449e-001,
          -4.9381619602623704e-003, 5.7533805183269371e-001,
          -3.6759566817089778e-001, 5.0550911056162284e-001,
          -6.5488444274482929e-002, 1.7453787432471862e-001,
          -1.2470684815659995e-001, 1.0464285065805742e-001,
          -7.8358645195200916e-001, -5.7865377761125213e-004,
          3.4794883819008682e-001, -2.9391195928011687e-001,
          1.5423645776387060e-001, -5.1021826916475610e-001,
          -3.1932317540357658e-001, 8.3693200426198947e-002,
          -9.3844917065457764e-002, -1.1234767190085442e-001,
          2.1040104537004206e-001, 1.2473063944473331e-001,
          3.9194182026446436e-002, -1.0653056005428872e-001,
          1.8886901904369788e-001, -5.9657557026067454e-002,
          1.4539017101458784e-001, 3.6284859122501838e-002,
          -4.7700779318458891e-001, -2.6844293548684006e-001,
          -1.0674682424371470e-002, 1.1725055782014333e-001,
          -2.5451324866902408e-001, 3.1897054289598042e-001,
          -2.6960944066283965e-001, -3.6330331863519244e-001,
          6.1715312275254147e-002, -1.0337902177865446e-001,
          -2.3573574255397751e-002, 4.8850731092742961e-001,
          5.3863636968839623e-001, -3.7415707000558532e-002,
          2.3083913829849062e-002, 2.9762914512012922e-001,
          5.4060659967948864e-002, -1.1712988293705286e-001,
          4.5060374232082636e-003, -4.3088267769676641e-001,
          -3.8612536219832838e-001, -1.1215002766517249e-001,
          1.7570106972219107e-001, -3.0298233899608975e-002,
          7.2001121709089300e-001, -8.5991659889477864e-002,
          -3.0755036847503159e-001, 4.1491835295254131e-001,
          -1.1590928604122694e-001, 4.9758553663619483e-002,
          6.7011070214910998e-002, 5.2767955607297723e-001,
          -4.4465813055309042e-002, -1.5042324988360808e-001,
          9.1306790717298969e-001, 1.7059236734676433e-002,
          -8.0819871965451151e-002, 2.8598245408039352e-001,
          -7.3280932129283303e-003, -3.8357102860157777e-001,
          2.2767940697580011e-001, 1.7208897653915461e-001,
          1.3934853785574286e-001, 1.0555711360320243e+000,
          1.6778368623631817e-001, -2.8875555024972172e-001,
          9.8336279231062418e-002, -4.1968028899719023e-001,
          3.7782402629811820e-002, 4.4630345534804210e-002,
          7.7615612627595165e-001, -2.9000915212862695e-002,
          -1.1160658101753283e-001, 5.9215783884042118e-002,
          2.2223328830291889e-001, 1.5249637814012326e-001,
          1.7836535301500009e-001, 3.6674579155008691e-001,
          -5.5955248998495444e-001, -5.0369070340405921e-002,
          2.6897917729951287e-002, 7.5847960704901324e-002,
          2.2653922534174678e-001, 5.7257475079888809e-001,
          -9.4693363851306570e-002, 1.0096390284613593e-001,
          1.8087268754219857e-002, -5.8893567268680114e-002,
          -9.0624396246216099e-002, -9.9436142319258656e-003,
          2.5118739864381950e-001, -9.8399929101912045e-002,
          3.0768812955429183e-002, 1.2063651171553745e-001,
          1.4198064519132578e-001, 2.8399889114945964e-001,
          2.7453819559137194e-001, -1.0906381462662831e-001,
          -7.6414403028866401e-002, 1.2620614473463435e-001,
          1.4341020940342133e-001, -6.7419262831670421e-002,
          4.7185000137657374e-001, -1.1807424104123118e-001,
          1.2861953426958789e-001, 1.7687730571948190e-001,
          -4.5331152345117739e-002, 6.6977606693063338e-002,
          -1.9898286558822004e-002, 2.3666060737497743e-001,
          -1.1318108103300054e-001, 2.3661331795578094e-001,
          1.1016637772972476e-001, 8.3984482617061762e-002,
          -1.2815021791277234e-001, 2.3821823396080172e-001,
          -1.0923651756840155e-001, -7.7370244909880898e-002,
          1.4330335274352610e-001, 1.0883932345094847e+000,
          -5.5089885807938062e-002, 8.2999868718164038e-001,
          -1.1300541211084285e-001, 2.1266253597642937e-001,
          4.0820989902792737e-001, 4.8609432745260792e-002,
          -1.6353704062175001e+000, -1.9833465857523710e-002,
          5.4572914842238207e-001, -2.5775730309431161e-001,
          1.7056799397821268e-001, 1.2677092717585442e-001,
          6.7460198485716039e-001, -1.3028880655880967e-001,
          3.7512785841498025e-001, -4.6693583076004358e-001,
          -2.7854622719768857e-001, 1.8527534974619689e-001,
          5.9853236460177683e-001, 2.1243362406741109e-001,
          9.8819346421909904e-001, -1.1770271671446463e-001,
          3.4441178625568808e-001, 1.2834447263979484e-001,
          5.4910041172843873e-004, -3.6438356313123242e-004,
          -5.8528392457707519e-005, 1.0321360925730508e-001,
          -3.6721933005145352e-001, 2.1964587442601571e-002,
          1.1896604407382702e-001, 6.8085201475217538e-001,
          -5.0679701985123660e-003, 2.2207776117691033e-001,
          -2.2965879821636434e-002, -2.8303833943010676e-001,
          1.7556698737051274e-001, 6.9612361598909578e-001,
          1.6256325913539738e-001, 6.0425093493977095e-002,
          -2.2841890769482545e-001, 8.9884555709066682e-001,
          1.4713956221939328e-001, -1.8987101557531968e-001,
          7.6694284840203297e-002, -6.3655570495977872e-004,
          8.6916340269757419e-002, -3.6968423173476117e-001,
          1.1243313683309880e-001, 1.4670452266885872e-001,
          9.0201111895466390e-001, 1.3239232214981850e-001,
          -1.3260387077385333e-001, -9.8031778418887466e-002,
          -2.8000108453232592e-001, 7.7516496048661704e-002,
          7.4324403786690052e-001, 1.5867526740330612e-001,
          1.6987658243992806e-001, -1.1060935402944462e-001,
          4.5823745308579134e-001, 6.9354924799042775e-002,
          -1.9944618954361096e-001, 7.3240663384244231e-002,
          -1.0103680835806981e-003, -7.0464487303529361e-002,
          -3.7271256444553902e-001, 7.0909665924308224e-002,
          1.3899423166965977e-001, 4.3204757294883933e-001,
          8.5665585959150567e-002, 8.1983373965343220e-002,
          -2.2839729433181782e-002, -2.6435502243309394e-001,
          2.3175521368790755e-001, 7.8612077233105793e-001,
          1.5610553432466395e-001, 1.6709665568175139e-001,
          -9.7685661300615387e-002, -1.3787816862342696e-003,
          8.2738146279949509e-001, -3.1482389531491767e-001,
          2.9071567477820137e-001, 2.5784084660575851e-001,
          6.9982636827585920e-001, -1.2667351786245143e-001,
          3.9525656704621026e-001, -2.2007876071941468e-001,
          1.3280797933819900e-002, -4.1623627280072528e-001,
          -5.4877889535924328e-003, 9.8994156375203941e-003,
          2.1726050378454140e-001, 3.2433270476558435e-001,
          2.1007310934180579e-001, 1.5823150852023471e-001,
          -2.9525555462870395e-001, -3.3859691023111016e-001,
          9.5099843040489271e-004, 1.5181293435703795e+000,
          -6.1188902900014136e-002, 6.2800885866867739e-001,
          8.0063194639117014e-002, 6.6442966793320191e-001,
          -1.3200828771863632e-001, 1.7502657480473346e-001,
          -5.2729438573603882e-001, 4.4835061796270829e-002,
          -1.8795380241654722e-001, 1.2370812162505174e-001,
          -1.9950047752695046e-001, 5.4215494617184701e-001,
          7.6010485933946520e-002, -1.0600698337904155e-001,
          2.2646441026933792e-001, -2.9544881398327971e-001,
          -1.7654668357589159e-001, 1.1787947543928011e-001,
          5.9215398661807972e-001, 4.8172431197842036e-001,
          5.4745507604703192e-001, -1.2221107863770940e-001,
          6.4612031375783263e-001, -2.3466579350210334e-001,
          9.9087999471947324e-002, -5.3246111888890857e-001,
          -1.4173813771086169e-001, -1.6924824623733245e-001,
          1.3129580293320126e-001, -1.9856853966823576e-001,
          5.1297812998484937e-001, 2.5874615645670357e-001,
          -2.2824593233567092e-001, 2.3033617243962543e-001,
          -5.2345818314668335e-001, -1.6126964926918089e-001,
          3.0888717439636465e-001, 4.9905222404409405e-001,
          4.7345535517343085e-001, 4.7788711391130473e-001,
          -6.9535736817250317e-003, 9.8653930879289953e-001,
          -2.3359892240252711e-001, -1.3323324154315455e-002,
          -5.5591716452607454e-001, -4.9280402070546514e-002,
          -6.4193799677798577e-002, 1.6285916086048338e-001,
          -7.4533917067742161e-001, -7.6003862235262702e-003,
          1.0805844202952403e-001, -2.7283397707564738e-001,
          -1.0582711705051440e-001, -5.0209942412404929e-001,
          -3.7244600110061471e-001, 3.7708776705935548e-001,
          -3.8175748157502348e-001, -2.8043045319121128e-002,
          2.1084665612420764e-001, 2.2895427275470330e-002,
          1.9568546071824008e-001, -2.6287203014062660e-001,
          1.8651550159282604e-001, 3.8917063602974374e-002,
          -1.0726475020426969e-001, 8.7581738286319488e-002,
          -4.7012825535406627e-001, -2.6551003745012669e-001,
          3.6833340283808455e-002, 1.7123545298572856e-001,
          -2.5248627548368224e-001, -9.3771950994090927e-002,
          -4.5644708992424836e-002, -1.0055695699543456e-001,
          4.5725586253416123e-001, -1.6553470659811470e-001,
          1.4130164875191600e-001, -1.2871997795932063e-002,
          6.0569731966694573e-001, -1.0818430683382786e-001,
          1.2253265410178042e-002, 2.2514817046241450e-001,
          1.3855229066103436e-001, -1.3100408452834439e-001,
          6.5489872330363341e-001, -2.3833298527845620e-001,
          -1.2665091203187320e-001, -5.4567768803496244e-002,
          3.2353863954454706e-002, 2.2155767433414658e-001,
          1.1423858709304113e-001, -3.0123339359140550e-002,
          -8.5407579322681684e-002, 1.4751567859910286e-001,
          -9.7058378775687149e-001, -1.2893137912864561e-002,
          9.1576215380558657e-002, 1.9581951045791346e-001,
          -4.4656722497454121e-001, -5.8457122868881894e-001,
          3.0469043463932638e-001, 1.1095468456796338e+000,
          -1.9123067815945485e-001, 5.2292529787510833e-001,
          -6.4843515860351086e-001, 3.4965226780401787e-002,
          -1.3675387018583984e-001, 1.2961328209690931e-001,
          1.4818558813135982e-001, -6.4372214619098742e-002,
          1.3947894071399455e-001, -1.7656002633903584e-001,
          1.1262000647139091e-001, -4.1647194892302403e-001,
          -7.5483571888481371e-002, 9.2634693996101275e-002,
          1.9069707076352180e-001, -1.5504123936843792e-001,
          -1.2045538425284841e-001, 1.9386138200374062e-001,
          8.5300049508035003e-001, -2.5127937538439077e-001,
          6.4628926471690695e-001, -4.6942430994091067e-001,
          6.5223695070005347e-002, -1.9295946922153781e-001,
          6.9791980092956075e-003, 3.2306242218954856e-001,
          -1.4201031202784006e-001, 1.0490996344455707e-001,
          -1.7663296007517765e-001, 1.3717207607531642e-001,
          3.5977920141853269e-002, 5.2656353626368266e-002,
          9.8411135421225676e-002, -2.3930702038890081e-001,
          -1.1646851953942043e-001, -1.2086196640793348e-001,
          -8.5140178871205063e-002, 9.4675461797651114e-002,
          1.1390906729568263e-003, 4.8893594904447368e-001,
          -3.5523802998107140e-001, -1.2272086757297952e-001,
          9.6935618722134940e-003, 9.8864404014503649e-004,
          2.5962082745849324e-001, -2.3395265520834685e-001,
          9.2482089748120638e-002, -1.8339876934995514e-001,
          -2.0545214438256347e-002, 5.4396590255113030e-002,
          -2.4783442855469529e-001, 1.0228035331216544e-001,
          -3.1972408799020531e-002, -2.2070816849475686e-001,
          -5.3083683858844111e-001, -1.1722780319525766e-002,
          6.6182828540443814e-002, 8.2332510646639198e-002,
          -1.7822511980226405e-001, -3.7171098089615183e-002,
          -2.2660582795519713e-001, -7.5010846455546815e-002,
          1.5794455495257001e-001, 1.9802197888633477e-001,
          -7.6253340083776669e-002, 2.2861477777854543e-002,
          -2.2623851063858585e-001, 1.1899275039959605e-001,
          4.8100601476335533e-002, -1.6677576423327067e-001,
          1.2555046554070678e-001, -7.5571114776764162e-002,
          6.3769711083813263e-001, -5.3172809168876745e-001,
          -6.9902722290676053e-002, 1.1017152591459724e-001,
          6.9534654002174165e-002, -1.6933559914705018e-001,
          1.8360459074854713e-001, -2.6225439147183549e-001,
          -7.6219984510848243e-002, 2.9446098247093100e-001,
          2.3767893616280139e-001, -6.3097907288018507e-002,
          2.8949502074939865e-001, -2.4825355241006242e-001,
          3.8267195579521812e-001, 2.3391433727906780e-001,
          -1.0644408530157558e-001, 6.3268300739622751e-002,
          -8.0348995557432940e-002, 2.5091618591995446e-001,
          -1.4606133571240251e-001, -1.3181301159852218e-001,
          -1.9387712851064087e-001, 8.9774687814653989e-002,
          -9.4340262075091641e-001, 2.2243442869079885e-001,
          -4.3889467805727400e-001, -7.3168802041830558e-002,
          2.6526003524188457e-001, 2.3467942327526536e-001,
          2.8275628378190535e-002, 1.9090209972989807e+000,
          -4.7976347105589934e-001, 2.6829121402012207e-001,
          2.3192133109708796e-001, -1.2974130488106514e-001,
          -1.1082787889284201e-001, -3.5630622816874645e-002,
          -3.0872689185847027e-002, -4.8456243609340990e-002,
          -7.8107109802222933e-003, 1.3312256208330708e-001,
          -3.5939662968785557e-001, -9.7419252883423679e-001,
          2.8949633709672556e-001, -4.1020439475911297e-001,
          -7.5732626254135030e-002, 3.5945817580322736e-001,
          5.9872336005351323e-001, 2.2486305204685206e-001,
          2.7495630387015479e+000, -4.5168661222515516e-001,
          2.2031522071284829e-001, 8.5343745746807836e-002,
          -1.7035138107553463e-001, 3.9937727679788447e-002,
          -4.4151973874163100e-002, 1.3905597000534661e-001,
          -4.5119634627076549e-002, -7.0420471914307168e-003,
          1.2614523257262522e-001, -4.7719877925070187e-001,
          -3.7373293063920432e-001, 1.7870737508101042e-001,
          -9.7853174939380824e-002, -9.1400175504012957e-002,
          1.7357892093835270e-001, 7.9545199685920909e-001,
          2.2321504172291134e-001, 1.5169457025653887e+000,
          -4.7408677883201478e-001, 1.6636575906888612e-001,
          1.6495165044559762e-001, -5.1270985476887498e-001,
          3.9488178194007302e-002, -5.2883235239110146e-003,
          -6.7244348548898547e-002, -4.2923265436790363e-002,
          -4.6239306402775593e-003, 1.7617175319130440e-001,
          5.6144593451252156e-001, -8.1311716408365931e-002,
          1.0240838249175714e-001, -6.3602633871206349e-002,
          -9.8462489176968024e-002, 1.4204439893247964e-001,
          5.1504096092231466e-001, 2.1190526158202666e-001,
          5.7876692922681550e-001, -4.5074713774727188e-001,
          2.0181145909280321e-001, 9.3777883853040278e-001,
          7.9368018811149230e-002, 6.2343502780868087e-001,
          -1.0326677526366278e-001, 6.5403186724328355e-001,
          5.1567448919055840e-002, -2.4381675016539078e-002,
          -3.0396909368368386e-001, 1.2432075130147595e-002,
          -4.0124668603170699e-001, -6.0595369004334456e-003,
          1.7749063080482769e-002, 1.3246156530393557e-001,
          2.5516772760400042e-001, -8.9014367090061566e-002,
          7.6955507857413827e-002, -2.9665071505466512e-001,
          4.0149416922953007e-001, 1.8449614235762613e-001,
          9.4187008757341129e-001, 7.0623199521592184e-002,
          8.1249152295808436e-001, -1.2822463374707554e-001,
          4.8584486274243333e-001, 1.2122552318388806e-001,
          -5.5009346375963816e-002, -3.6775856134393659e-001,
          1.0776130499342963e-002, -3.2583222731428640e-001,
          -5.7622720881232402e-003, 6.2436120707748581e-003,
          5.3329936032031022e-001, 1.7635474119790179e-001,
          -6.1311073751472850e-002, -1.2810364396869323e-001,
          -3.2534715574095269e-001, 1.9948046060591743e-001,
          3.9741864975411645e-001, 4.8192143009800509e-001,
          7.1947282260195944e-001, 5.2959590033466319e-001,
          -1.2223750547478622e-001, 3.6766097268960496e-001,
          1.9790574710936235e-002, -6.7416283492802237e-002,
          -5.8014535435296222e-001, -8.2374929647020823e-001,
          -2.5572795375723012e-001, 5.7151921702789032e-001,
          -3.0317866809570682e-001, 5.1024342633669018e-001,
          -7.9818218392278567e-002, -2.5592963356225285e-001,
          -9.8119208080686110e-002, -1.7395387867226958e-001,
          1.0199404728990628e-001, 5.4070411728940848e-001,
          1.2814180417984494e-001, 5.3706594340276703e-001,
          1.2789050208653310e-001, -2.1807913787701187e-002,
          4.6452008655712324e-001, -1.5138275314953029e-001,
          -1.0226157697903249e-001, -2.8040776464009842e-001,
          -5.0808604705622817e-001, 1.6799052487669805e-001,
          -4.7523898359247883e-002, -2.8096735247436261e-001,
          8.1104666746836543e-002, -7.5939408269516812e-002,
          -2.6259049705325566e-001, -1.0282712216534333e-001,
          -2.9372381198327822e-002, 3.1021319398917629e-001,
          6.4786551132214487e-001, -4.2367414672892134e-001,
          8.2563588724213488e-001, -4.0640651328245109e-001,
          4.9060269650166285e-002, -1.0161566366186196e-001,
          5.0172030572279216e-002, -2.2646877634815599e-001,
          -1.4771577003453978e-001, -1.1301693655438907e-001,
          6.5758569318703952e-001, -5.2001412298770672e-002,
          -2.0530187900132532e-001, -4.4744332871894336e-003,
          -1.7184247847693607e-001, 2.5201405510295399e-001,
          -1.0531634840487722e-001, 1.7610679205190893e-001,
          3.1522781224806218e-001, 1.5825283421964731e-001,
          -4.9783619329338391e-001, -3.5957240163833920e-002,
          -4.8829520972048801e-001, 1.4930075512139052e-001,
          -2.0165452816099697e-001, -3.0679685074925933e-001,
          2.1402302287215622e-001, 5.3404849340179295e-001,
          -4.1395312415635183e-001, 5.0101631693825499e-001,
          -2.1304449103540993e-001, 2.1387336280089569e-001,
          -7.7114571047040226e-001, 2.3534758625771890e-001,
          5.0024890652235232e-001, -1.0082533329311461e-001,
          1.3545601954853143e-001, 1.2035859763926797e-001,
          1.9287225889123447e-001, -3.6512375959354726e-001,
          -1.9623651301404543e-001, -2.4418905424464812e-001,
          1.9690678395058134e-001, -4.2891119587489435e-001,
          -3.0518923449327079e-001, 1.7804660135162478e-001,
          5.4350601690773592e-001, -1.5050511647817916e-001,
          3.3123419897509271e-001, -5.6635711337720752e-002,
          3.0011854528647458e-001, -7.8483381487830239e-002,
          -2.5166115426432212e-001, 1.8814095299152145e-001,
          -2.0755311910948396e-001, 2.4919990536371924e-004,
          1.8832005928419998e-001, 1.6920757984154364e-001,
          -2.4876530484835022e-001, -1.3939668292473942e-001,
          -2.4933151042657969e-001, 2.0766155721079557e-001,
          -7.0092356468472927e-001, -3.0211915954082380e-001,
          1.6287932544254832e-001, 5.7906753192840021e-001,
          2.1308324038653799e-002, 3.7230542438883296e-001,
          -5.5683708209090499e-001, 2.6056015194586274e-001,
          -1.0491955801140061e-001, -1.6730207160108115e-001,
          1.1692395251345279e-001, -1.8533546058059530e-001,
          1.7739820154537008e-002, 4.7776117149935204e-001,
          3.5045610981384182e-003, 8.1927326268663392e-002,
          9.2589672352949397e-003, -2.5580010451110452e-001,
          -1.3251607396177259e-001, -1.3554879108756338e-001,
          -4.1469665899988253e-002, -9.6039201637223570e-002,
          5.6308764029917621e-002, 1.3926522489769289e-001,
          3.8027453046090709e-001, -5.6246274973875987e-001,
          6.5618819780515436e-001, -3.8585812535615431e-002,
          1.2947860545008402e-001, -7.6716507338066814e-002,
          -2.3010350574464958e-001, 1.1065967183617492e-002,
          2.6879410184772456e-001, 9.1103895446548427e-002,
          1.1669416134741452e-001, -4.7405474483506030e-002,
          1.4638220688888584e-001, 3.8850129439820733e-002,
          -2.2892673432156255e-001, -2.6603187793539507e-001,
          -2.2482296179635486e-002, 6.4145386130312440e-002,
          4.8302232207355728e-001, -1.7309939265714203e-001,
          -4.4402334418550948e-001, -2.2516624179386496e-003,
          -6.8788326832739971e-002, 1.1317267515899508e-001,
          1.4459108248035604e-001, -6.6656066020170504e-002,
          -6.9980049459752169e-003, -2.1142370107204239e-001,
          8.0074364465787598e-003, 1.2223719960236323e-001,
          -2.2721159914584818e-001, 1.6268683742839901e-001,
          4.9235525404317838e-002, -1.3504103352184962e-001,
          -2.2546528496612661e-001, 7.2560962222254374e-002,
          1.1288223963580524e-001, 6.4385498346848768e-001,
          -5.4336208602266123e-002, 1.8253093360745340e-001,
          2.2805553734101137e-003, -1.0129551410002761e-001,
          8.9197439720627480e-001, 2.1514773018037425e-001,
          -6.5149103197722574e-002, 2.9032417999419113e-001,
          -2.4068987887437152e-001, 1.5687273864685830e-001,
          1.4508461224836597e-001, -1.2550759740724909e-001,
          1.3282722297548730e-001, 6.9936724324355624e-003,
          2.8240768449301229e-001, -1.5413796804717242e-001,
          -2.8747051485016283e-002, -1.8104985240749810e-001,
          9.0220011218956814e-002, -1.2594527785779683e+000,
          2.5916046840192675e-001, -3.2524364344729728e-001,
          1.6489611952666391e-001, 2.6501876042216976e-001,
          2.2723091607183629e-001, 2.3731756303156677e-002,
          1.1562687932525950e+000, -2.5610482478054725e-001,
          2.1905399689932539e-001, 1.5309244419286314e-001,
          -1.1679421394962645e-001, 6.4154284632286729e-002,
          -2.2262427740570886e-001, 2.9645579180394921e-001,
          -1.8397518762156251e-001, 5.0450224650498157e-002,
          -1.7970097534557575e-001, 1.1116243998608033e-001,
          -5.1240081411205174e-001, 2.6995623984474110e-001,
          -4.1387779915935552e-001, 1.6464368525615339e-001,
          3.6241187311863698e-001, 2.7767440420774558e-001,
          2.4207016878446192e-002, 4.9399846489068389e-001,
          -4.6487456168302121e-001, 2.2070050240991379e-001,
          4.3196816141162953e-001, -1.3132430114188703e-001,
          1.3243028086503009e-001, -3.0871948864817234e-001,
          1.0360891266795939e-001, -2.0743742591968137e-001,
          3.9833974354704843e-002, 1.1731629929735954e-001,
          3.4096017955971175e-001, -2.2655143695124558e-001,
          2.7578794578295096e-001, -4.4010181269852300e-001,
          1.6396498083816952e-001, 3.4972591364536709e-001,
          3.0952241994319196e-001, 3.3303159951973915e-002,
          2.2645476618187907e+000, -4.3939926300351745e-001,
          2.2882432112437556e-001, 5.3250298412375385e-001,
          -5.0132325100833108e-001, 3.6793035254684558e-001,
          -3.0218148732242406e-001, -4.3719287978571129e-002,
          -1.3562759625935888e-001, -3.2548954615243278e-002,
          1.3538349416481349e-001, 4.6544231834785327e-001,
          -2.0520173494577892e-001, 1.0519690025562893e-001,
          -4.0649581616454233e-001, 1.5866804995984496e-001,
          4.6747579411686024e-001, 3.1451732076374384e-001,
          2.2235073371267150e-001, 1.4552143188534223e+000,
          -3.7487792470213094e-001, 1.6659824397491621e-001,
          8.4757162385918905e-002, 7.2750032366603809e-002,
          1.0151792044710686e-002, -1.0833856751998919e-001,
          3.4609391973222381e-001, 3.9931170131734438e-002,
          -2.9415895308157421e-002, -2.9753205917313097e-001,
          1.4181113625408075e-002, -2.6445425584919354e-002,
          8.7934951899331960e-003, 8.9010486263783190e-003,
          -4.9156638061899557e-002, -7.4055499345708362e-002,
          -4.7196092622791000e-003, -1.8876665063323941e-001,
          1.9756245326508332e-001, 9.9201701397717323e-001,
          1.7082491515681683e-001, 2.8530563604959169e-001,
          2.0259618416763725e-001, 2.4035952489590166e-002,
          -4.1494966780447001e-001, 3.3309457585955093e-001,
          1.0855862966382565e-001, -5.4015034891682787e-002,
          -1.7588225298761626e-001, -3.2715891563862892e-001,
          1.3096035822348828e-001, -5.4493593919450745e-001,
          -2.9523480975342905e-002, -2.3440574090605937e-001,
          -7.8212052790807771e-002, -5.2614361799134840e-002,
          -1.2904660700930901e-001, 1.9378066032708913e-001,
          6.0530009740264379e-001, 1.6389241817309380e-001,
          4.6759959746794616e-001, 7.5378989396900564e-001,
          -1.8765500436452025e-002, -6.4591597071248574e-001,
          7.4720970493286937e-002, 2.8329627964513712e-002,
          -6.6259933521864919e-002, -2.4244226422322515e-001,
          -6.7224164786207030e-001, 4.8628031525711365e-002,
          6.7397587493543332e-001, -1.8266613806829649e-001,
          8.2551504020787786e-002, -3.3971491428742495e-001,
          -2.6235076341179259e-001, -2.6248553288634197e-001,
          -2.7571551883109755e-002, 5.9064846218960854e-001,
          2.8030123356850095e-001, 1.1907405136651873e-001,
          3.3593092699793031e-001, -1.2049654604565246e-001,
          -4.6651975058380940e-001, 1.1130885111787739e-001,
          -1.4366770632716913e-001, -9.8786911635188698e-002,
          -1.0176966085916900e-001, -2.0166696082231825e-001,
          1.4699889247564127e-001, -2.1336335349003708e-003,
          -2.2504078859137688e-002, -4.5847890603548089e-002,
          -8.7282983500531708e-001, -2.6698036303112604e-001,
          -3.8542544038804316e-001, -1.6156287762159424e-001,
          3.2208339302984285e-001, 2.4265843043240332e-001,
          -3.1175881559010393e-001, 3.3946552561480148e-001,
          -3.0220357990634455e-001, 1.5504386195985020e-001,
          -4.0328466372090011e-001, 2.0580168380322128e-001,
          -1.2613103406219300e-001, 4.1025859333840911e-002,
          -1.6956560521388422e-001, 3.2655565360500471e-001,
          -1.1656762619854105e-001, 1.2805555381630890e-001,
          -3.8152822552077054e-001, -8.6467398144698548e-001,
          6.3763802621104648e-002, -1.2739206238618975e-001,
          1.9337638568080009e-001, 3.8498801850476222e-001,
          -7.0864230236615366e-002, -2.5855904452486578e-001,
          2.1096957813223202e-001, -7.4517130436431767e-001,
          1.5953549984697754e-001, -7.7965538308174187e-001,
          -2.1570800426057090e-002, -1.9571149580737608e-003,
          5.2815905857554080e-001, -2.1784107049528409e-001,
          3.8996716956093563e-001, 2.2066335509732693e-002,
          3.0308710564664826e-001, -1.0339013409423565e+000,
          -7.1625089164950018e-001, 2.8778466910041411e-001,
          -9.0460106232483489e-002, 4.8748188977340776e-002,
          2.0998785814307730e-001, 1.5456407517580911e-001,
          -3.4183489678121243e-001, -1.7533888190833824e-001,
          -3.3193884079166841e-001, 2.0680858458038212e-001,
          -5.9060990034410066e-001, -1.8591388767406486e-001,
          2.3138735870787375e-001, 5.3018771110276386e-001,
          1.6551698040467456e-002, 5.2430269999529278e-001,
          -5.6607980114527043e-002, 3.0652725499190708e-001,
          -4.2228791951794208e-002, -9.6649953134753608e-002,
          1.3882683502996726e-001, -1.6381488331979768e-001,
          -6.9571526844976488e-005, 3.3330248494453135e-001,
          5.9089337583855791e-003, -2.4863669792815482e-001,
          -8.6497289625011098e-001, -3.6108479652683712e-001,
          1.7917985592207666e-001, -5.6699155407425517e-001,
          -1.9291249741480326e-001, 1.8234791156430737e-002,
          5.6893719372628682e-001, 2.7493283490098458e-001,
          5.9989688506791972e-001, -5.9751752189823515e-001,
          2.4000452888315595e+000, -5.4308707439135261e-002,
          -7.7986206367661459e-002, 2.3864815981316559e-001,
          -6.9391152003908885e-002, 3.0382566473644941e-003,
          3.6985893523389435e-001, -7.0381704689211544e-004,
          7.8438715344540444e-002, -4.0904858459257393e-001,
          -3.6646835179920478e-001, -1.3860537018014160e-001,
          -9.8873799632098150e-002, -2.3671811666390002e-001,
          6.6148649489950430e-003, 6.4076538875260602e-002,
          4.9172232406484806e-001, 6.2341935905258394e-001,
          -5.6438299424514249e-001, 1.0001236510686564e+000,
          -8.0070062718434927e-003, -1.0152410667824269e-001,
          1.2368918110429016e-001, -2.0172547945002503e-001,
          6.3036739847150995e-003, -1.3352949430769817e-001,
          -1.2202682279484562e-003, 1.1701651123885200e-001,
          -3.8297427408094076e-001, -5.2097939630398240e-003,
          2.3451606762976476e-001, -2.3394574444204577e-001,
          -2.7841057663629193e-001, -2.6720687186363628e-004,
          6.5773416745336225e-002, 4.1389171125811891e-001,
          -1.6531495664172785e-001, -3.0738831003937600e-001,
          -5.4343283954622892e-003, -9.4063644423482085e-002,
          3.5308256440517044e-001, 1.9015863781283243e-001,
          -3.6518429873605706e-004, 2.5131128510219575e-001,
          -2.0352901512989463e-001, 1.1650941720590755e-001,
          1.2367537729523319e-001, -3.2400917303321219e-001,
          9.2885126782094402e-002, 8.9371062546999960e-002,
          -2.5288868850325269e-001, -2.1935419465631406e-001,
          1.9657993353016552e-002, 1.2400755873434773e-001,
          6.3779511565096181e-001, -3.7839707427705593e-001,
          1.9781068699046192e-001, 5.0788308018599885e-003,
          -9.2433736546741641e-002, 4.0420381813105910e-001,
          1.9688252492667951e-001, 2.4104839842534589e-001,
          1.1517092383508107e+000, -1.9482202298849605e-001,
          3.9104355656162076e-002, 1.4888255374464324e-001,
          -1.2661008411488814e-001, -5.6284358385084087e-004,
          -1.0506793378382712e-001, -2.4665753208424880e-002,
          -1.5539709308880795e-001, 1.4880160790528379e-001,
          -1.8096318651874832e-001, 8.4405718104132305e-002,
          -2.5724585347068518e-001, 2.7551126228323414e-001,
          -3.2103805363767479e-001, 1.6784139400692902e-001,
          3.3844219977170975e-001, 2.7355587920280267e-001,
          2.2858365033061454e-001, 3.4357809359715019e-001,
          -2.6551941124687711e-001, 2.2067878801144622e-001,
          3.0393170354996379e-001, -8.5160602871203472e-002,
          1.3406477680852366e-001, -7.3426032997922233e-002,
          3.1741706712992351e-001, 7.8877161586569142e-002,
          -8.7991793847791346e-003, -1.6930317628445860e-001,
          -4.9464948775710074e-002, -6.6129615432894662e-001,
          4.1967894435737263e-001, -2.4445902892047194e-001,
          1.6867859069859975e-001, -4.5736678815864441e-002,
          2.7911980972785599e-001, 2.2802715275459854e-002,
          4.9803265328642993e-001, -4.6007503423013674e-001,
          1.3487598903538706e-001, 2.0677774780713445e-001,
          -1.1254646273574492e-001, 1.6614641125667209e-001,
          -2.9733953277526964e-001, 2.3681648455549426e-001,
          4.7664869960272950e-002, -2.6215597739432744e-002,
          -1.6958163646176597e-001, 9.4039067801750670e-002,
          -5.1492987909218024e-001, 1.3444108530131837e-001,
          -4.6649539560194775e-001, 4.6533099785960980e-001,
          9.3784177517160561e-002, 3.1080892534373811e-001,
          4.2095152430021106e-002, 4.5296521551354707e-001,
          -2.4735342320292367e-001, 1.4292191570703550e-001,
          7.9366166517727088e-001, -1.2093340561651905e-001,
          9.6988054587751754e-002, -3.0649289394148782e-001,
          3.2927530265506116e-001, 4.4139019473901205e-002,
          -1.0436984092619971e-002, -1.7066172974760932e-001,
          6.2545610385822986e-002, -2.1677896011886952e-001,
          1.1133210488025999e-001, -4.5994525093823702e-001,
          4.5682887952677587e-001, 1.1074950786654024e-001,
          3.0748662407081506e-001, -1.7893332224779648e-002,
          8.7797838954322682e-001, -2.3805410937553018e-001,
          6.6203416973331874e-001, 9.8222964277309699e-002,
          8.2170966232978052e-002, 1.2415883253082634e-002,
          -2.0884173306168938e-001, -7.0774833108502883e-002,
          1.0202083218127819e-001, -2.3113300262699960e-001,
          4.4742196873225407e-002, 7.7733175676098559e-003,
          4.5251681582976468e-002, -3.9618697000693909e-001,
          1.6248584324161064e-001, 5.5960077105680739e-002,
          -1.9643198231374770e-001, -5.2936246809734584e-002,
          -5.2434775062022543e-001, 3.0442978145144112e-001,
          6.0386495667548423e-001, 1.6671147797847502e-001,
          2.8493702915535435e-002, 2.0777375435988218e-001,
          4.3171505622199235e-002, -4.1450897585276397e-001,
          6.3023018096623612e-002, 1.2203940120548140e-001,
          -2.4104780572730500e-001, 1.6397781854506574e-001,
          -2.5092834833182981e-001, 6.0150629314855063e-002,
          -8.3046489697935572e-002, 1.6523318407556292e-001,
          -7.6830077778725059e-001, -3.1628552617313316e-001,
          -5.9794476689205282e-002, -4.3283128988745467e-001,
          5.3579796443225795e-002, 6.0852810724450934e-001,
          1.0607119990069205e-001, 2.8857005550937714e-001,
          5.2355807841507318e-001, -3.9391157740410361e-002,
          -5.7085865534390112e-001, 8.5652254559908964e-002,
          5.0881318236625801e-003, -2.0545049141091282e-001,
          4.9328203183851234e-002, -2.9780832006570468e-001,
          4.5324969956710454e-002, 2.6894744820318573e-004,
          2.3197246942175268e-001, 6.1393789414256072e-004,
          -3.4546299073881093e-001, -7.3231138487994799e-002,
          -3.4325916240958487e-001, -2.3733830428256153e-001,
          5.8646162432779614e-001, -2.4574719572907251e-002,
          -3.1232801484476169e-001, 4.6936727339293149e-001,
          -1.2262112109329165e-001, -3.3641501670254953e-002,
          -4.0801531096803657e-002, 2.4336370995324993e-001,
          -3.0506201338224453e-001, 8.5327564360620223e-002,
          -1.5062405912544638e-001, 1.4200456391924041e-001,
          7.4359222683284560e-003, 1.5890843757197337e-001,
          -4.7733301867977518e-001, -8.7262050813712999e-001,
          -1.0553085819675713e-001, -4.4316971345996825e-001,
          -1.6994396928740521e-001, 5.4911046828290588e-001,
          -8.1995550932840666e-002, -2.9965026337586198e-001,
          3.4085320852820900e-001, -6.7600982794271924e-001,
          6.4618223378463693e-002, -1.0694899467226457e-001,
          1.8692113575820060e-001, -2.2585031183964996e-001,
          4.9811031817801152e-002, -2.3409670953852740e-001,
          3.3450072039958800e-001, -1.2535301693464537e-001,
          2.0080174576174428e-001, -3.9750617922785708e-001,
          -1.4995959703639716e+000, -8.6044401194553454e-004,
          -1.6412477634095371e-001, 1.9552382796845619e-001,
          3.4637787943986603e-001, -2.7225441398467171e-001,
          -6.0832178991856715e-002, 2.5955102603998161e-002,
          -5.0389963976706509e-001, 1.6120494158336021e-001,
          -3.3305337874809787e-001, -1.2525429231975405e-001,
          1.0812922635886959e-002, 5.1597158235890273e-001,
          -1.3599628727807667e-002, 5.0843388574290638e-001,
          -1.0761274732999918e-001, 3.0249217809176288e-001,
          -3.6023273781982756e-001, -4.6810062516238976e-001,
          3.1508576417115769e-001, -1.6852994579108757e-001,
          -1.2292108685699506e-001, 2.1741354719535627e-001,
          1.7097302926111776e-001, -2.2890231723230131e-001,
          -5.5379401027048292e-001, -8.2773572230792802e-001,
          3.6055095312547103e-001, -5.9980476598220822e-001,
          -1.8724505981881392e-001, 6.0958553707646098e-003,
          5.5235738314918148e-001, -8.4296136864271301e-002,
          5.3841064346940681e-001, -1.8336576729116087e-002,
          2.8507134094426445e-001, -7.8031516979536386e-001,
          -2.9896471253151768e-001, 2.6575285566103635e-001,
          -1.0276202815988825e-001, -3.0930496879102480e-002,
          1.4447779614752645e-001, -2.9830933009425603e-002,
          -2.5711543214137378e-001, -5.1130413495507410e-001,
          -4.5846567687497786e-001, 1.8011803521905068e-001,
          -2.3064679514668662e-001, -1.8629575745907431e-001,
          2.5559063586954610e-002, 6.8585468473419592e-002,
          8.8669634428685307e-001, 6.1893005284650027e-001,
          -4.2805443962917508e-002, 1.0818079015823734e+000,
          -3.2807382028234627e-001, -1.0811867334166246e-001,
          2.3481242280132311e-001, -1.2439313679370650e-001,
          1.2556118779085529e-001, 7.2427971578116951e-002,
          -3.2828472731438178e-002, 8.2256853523561338e-002,
          -4.9701466850737680e-001, -3.6859480421059654e-001,
          -4.4405734168268207e-002, -1.4288848369252130e-001,
          -7.7390713741272288e-001, 2.6007266065136866e-002,
          7.2310549727806997e-002, 4.9485463253578954e-001,
          8.7343089459069129e-002, -3.2223011204909607e-001,
          9.4515409030566516e-002, -8.2200963567090793e-002,
          3.3278148971516175e-001, 2.3583951077959689e-001,
          -9.1488110465912847e-002, 1.3109034661728297e-001,
          -2.1965462636317035e-001, 8.6508903722727799e-003,
          1.1920574340711788e-001, -3.5935243085263036e+000,
          -5.5177561572612384e-005, 2.1755124264637049e-001,
          -2.2979303000037629e-001, -2.8993914990166952e-001,
          2.2269034413150011e-002, 1.1645793591143672e-001,
          4.1375968455767764e-001, -3.4944456600307559e-002,
          1.7418868566903067e-001, -3.4101244797866768e-002,
          -9.6428632014400176e-002, 3.7286291701330027e-001,
          1.7211500923364789e-001, 3.7284466950376788e-001,
          2.4196665116340446e-001, -2.4446106632867998e-001,
          8.0481876334623420e-002, 1.1809907661561579e-001,
          -1.7885595973320501e-001, 6.3853385615830526e-003,
          5.1014509999395871e-002, -2.5486347194942172e-001,
          -1.5753301996032129e-001, 2.6593721647602042e-002,
          1.2271240452095725e-001, 6.3195156195525137e-001,
          -1.6948085742489835e-001, 1.9433612332779068e-001,
          -2.2123610947868019e-002, -1.0091347442680455e-001,
          5.4488416953718466e-001, 2.6153751297232919e-001,
          2.3714091420736197e-001, 8.4983379711614693e-001,
          -2.3851956472328156e-001, 9.5078399144120612e-002,
          2.4372996016903822e-001, -1.5094633688353876e-001,
          -3.6644417254817416e-002, -1.1438106476927141e-001,
          -3.0952344223805404e-002, -1.8212459204404435e-001,
          1.1560005588687443e-001, -1.8207435187082377e-001,
          1.0851449057854867e-001, -4.4619787734553185e-001,
          2.6119523074769058e-001, -2.5826044192454012e-001,
          -8.9975635993168032e-002, 7.8378118735271840e-002,
          2.6443885481099649e-001, 2.2637654609055927e-001,
          3.1214400173916662e-001, -2.6150606122987247e-001,
          5.4921831042941871e-001, 1.8784415859414841e-001,
          -7.5198531275548292e-002, 1.3895105008730516e-001,
          -1.6484099508959296e-001, 2.8754959066697211e-001,
          7.5992740836590328e-002, -3.0998050176761144e-001,
          -1.8021766765405203e-001, -8.9945908033350230e-002,
          -6.8758569215549126e-001, 1.8245009007221699e-001,
          -4.0653369516833421e-001, 4.6497342681781190e-001,
          9.3650504384170698e-004, 2.6725203695200039e-001,
          3.0444154582552372e-002, 4.9888871352070591e-001,
          -2.4158766119200856e-001, 3.5252445973199342e-001,
          1.8160974747732980e-001, -1.0122351402402251e-001,
          3.8758484782348118e-001, -3.0789049347608510e-001,
          7.9569299404929805e-001, 4.3322716405252870e-002,
          -4.0850012044019626e-002, -1.8087412599854963e-001,
          -1.9981849960422807e-001, -2.1368621685490793e-001,
          1.0717169184136327e-001, -2.9855475864006636e-001,
          4.6829680900360371e-001, 9.6912953699824847e-002,
          3.0509791032314876e-001, -2.4876712433146483e-001,
          4.4313955078662182e-001, -2.0291425778827563e-001,
          4.1819831418980569e-001, 1.9650758966082105e-001,
          -1.1025016642263073e-001, 2.6587811168396230e-001,
          -3.0646773827696616e-001, 9.0954946846328932e-002,
          4.4411522748942889e-002, 9.6355434407967505e-004,
          -1.9210666065169024e-001, -6.1694270216714142e-002,
          -2.1345413006113281e-001, 1.1037989966772815e-001,
          -2.6335753118726069e-001, 4.7426310967351759e-001,
          1.1308935043127455e-001, 6.4075227417506297e-001,
          -4.1331229603233333e-001, 7.2040365932699391e-001,
          -1.4772838124985177e-001, 5.5509804183970046e-001,
          3.6587622537487346e-002, 3.1580171261923327e-002,
          2.3030371450161409e-002, -1.6024763087741020e-001,
          -9.1439373825942860e-002, 1.0198684052281641e-001,
          -2.8384804370945665e-001, 9.4435426427006619e-001,
          1.7969011463947429e-001, 5.1958455655275418e-002,
          -2.1846167258829374e-001, 4.1893676138838354e-001,
          -9.7188112531275339e-001, 2.3118068773003760e-002,
          -5.0278489530715301e-002, -5.0477226276463794e-001,
          -4.2578354019253382e-002, 3.1449340340650306e-001,
          1.9920620816407730e-001, 5.6945976152269269e-002,
          7.7159926852589295e-002, -1.8682916464983303e-002,
          -2.1242800691022448e-001, -4.1829004010770859e-002,
          2.5339364769854766e-001, -2.9163281003075514e-001,
          8.4326695499730420e-001, -5.7100952118811825e-002,
          8.6509872256568351e-002, -2.1954988904623302e-002,
          4.2356842200665556e-001, 1.7980335924265248e-002,
          2.1922457064899582e-002, -7.8956753962419954e-002,
          -2.7317094007202547e-001, -2.0597356337402031e-001,
          5.8880731397309716e-001, -7.5109098807066510e-002,
          1.5394566523758194e-001, 1.1902675661213773e-001,
          -4.8625018491013729e-002, -4.5857732662171174e-001,
          -6.8622177197076945e-002, 1.2898737102559338e-001,
          -2.0227953562792528e-001, 7.2437819515642793e-002,
          -3.9266773501683873e-002, 4.1060860556122923e-002,
          -8.1837245260368389e-003, 2.3113295639866496e-001,
          -4.7241116326970881e-002, -3.3754914255818924e-001,
          -8.5511395973171492e-002, -6.1678266522647640e-001,
          -2.4104119231012458e-001, 5.7692818074239938e-001,
          -3.6734353082499274e-003, -7.8031796029445141e-002,
          1.8299083221978413e-001, -1.4354183114163244e-001,
          -2.2175625108997607e-002, -4.1177264190749775e-002,
          1.6401009040604092e-001, -1.1287778706440961e+000,
          -7.8217815098512972e-002, -1.1113160947059283e-001,
          1.7850533435635729e-001, -1.9598558806534792e-002,
          -1.5520881265208062e-002, -3.9605385832392992e-001,
          -8.6798770550401605e-001, -1.8928217370334904e-001,
          -5.4360248926566834e-001, -2.6170319343759235e-001,
          3.7871041670383698e-001, -6.0687714975522715e-002,
          -2.4277273066955671e-001, 1.8409605708902615e-001,
          -7.4237920943446922e-001, -2.6320727981210579e-001,
          7.9972908657212488e-002, 1.9152202135524979e-001,
          -5.1161003697635221e-001, -9.9397108672795748e-002,
          -8.6564793425253472e-002, 4.9255020279306888e-001,
          3.2812599625545689e-004, 2.0957945213152263e-001,
          -3.9206359239126831e-001, -1.5814068589914720e+000,
          5.2778684883501389e-002, -1.5409097112492617e-001,
          1.1638599126642975e-001, -1.5389377452800640e-002,
          -5.9264262794323501e-002, -2.4002564203070997e-001,
          9.6689838613370965e-002, -1.7258359187524216e-001,
          2.3209748071491257e-001, -2.9176579637158190e-001,
          -1.2656830175048653e-001, 7.0607462248781727e-002,
          5.2298363321960784e-001, 1.8158808751480404e-001,
          3.2358942945558455e-001, -1.1643576828348479e-001,
          2.8620186044696727e-001, -4.3121186088965169e-001,
          -8.5964135863320090e-001, -1.6678717192960577e-002,
          -7.1830709700542533e-002, -5.6799831436975028e-002,
          2.8572140843496757e-001, -7.5007984342806655e-001,
          -2.3076440318962646e-001, -9.3332829393470873e-002,
          -5.5266122887041036e-001, 2.8193938533273633e-001,
          -2.7980784200077707e-001, -3.1345560243711254e-002,
          1.7985206764239872e-001, 5.1780257744942926e-001,
          5.8905808170750185e-001, 5.3192015587557828e-001,
          -1.1509405633920125e-001, 2.9404568175391399e-001,
          -9.9316312044507837e-001, -2.9605125823340206e-001,
          2.5235557333808062e-001, -1.0140906814662695e-001,
          -5.4934203411446766e-002, 3.3122355245242852e-001,
          -1.6804063612514148e-002, -2.4859448730615794e-001,
          -1.2301379228506020e+000, -3.6405162908146910e-001,
          1.4659250447709987e-001, -1.1485144662228558e-002,
          -1.7593655857354267e-002, 4.5189098302516210e-002,
          6.1285342177157788e-002, 5.7671026239577905e-001,
          3.1100552727753750e-001, 1.7780514048114973e-001,
          5.8270791185868920e-001, -1.0397857711906955e+000,
          -1.0835116390858301e-001, 2.5248111998279527e-001,
          -1.5837330135442582e-001, 1.9270646691965068e-001,
          -1.4934366116498859e-001, -2.8696425517653203e-002,
          7.8333133381712203e-002, -6.0973764764087102e-001,
          2.8577411160429556e-003, 3.7601878960086153e-003,
          -1.2376641815186037e-001, -3.2262118360247560e-001,
          2.0955634355394343e-002, 3.1419604161394804e-002,
          3.3244239321761415e-001, -1.5497449881527110e-002,
          1.4983067279130333e-001, 1.0607810651764836e-001,
          -1.2110844128036621e-001, 3.4118128667324066e-001,
          3.5101037287339021e-001, 4.6163495675146693e-001,
          3.3016861922003912e-002, -2.2536065514584580e-001,
          -2.5036311007365395e-002, 8.3372765712507915e-002,
          -2.3672049558534995e+000, 1.8065832458416772e-003,
          1.1618114500158466e-001, -2.2978027112896310e-001,
          -8.2072409147149070e-002, 7.0531394562216160e-002,
          9.9027563356556922e-002, 4.2770262299202266e-001,
          -3.8027663279408826e-002, 1.7154410517016436e-001,
          -3.1575465075952490e-003, -2.1292276088868516e-002,
          2.8933063232899658e-001, 1.5631210441613971e-001,
          3.1730481463708771e-001, 1.0954280679639083e+000,
          -3.1145257769995260e-001, 3.4294334533477071e-002,
          4.0128235182879118e-001, -4.2675712813893607e-001,
          -1.3284817639497332e-001, -1.1514778146627673e-001,
          -2.2528452540829505e-001, -1.5924673010264909e-001,
          3.8533297439669184e-002, 1.2100523843153360e-001,
          2.2914675378577540e-001, -3.6470667264673856e-001,
          1.9739543945083182e-001, -1.2593870934134003e-002,
          -2.1065308285458943e-002, 5.1705150389625765e-001,
          1.6012609879769782e-001, 2.2605167665330264e-001,
          7.4767730220144513e-001, -3.7500422823250262e-001,
          1.4065379106887474e-001, 1.8518094024390266e-001,
          -1.3811357206155894e-001, -9.0468451362577720e-003,
          -1.0614816003319894e-001, -5.6163123012556377e-003,
          -1.5109267732126996e-001, -6.0735260664530655e-001,
          -1.8327244553925920e-001, 7.1421573870348101e-002,
          -4.6310819086770305e-001, 3.6472090547147384e-001,
          -2.8959597935246323e-001, -9.0329209691621545e-002,
          2.2049857121733982e-001, 2.4314760934992732e-001,
          3.1616061654410534e-002, 3.0886858097488223e-001,
          -2.6220710063465463e-001, 4.0895111962815117e-001,
          1.7929712675163315e-001, -7.5024650631033848e-002,
          1.2890844064585302e-001, -6.3750927419532172e-002,
          2.7233198257884550e-001, 4.8011380356196398e-002,
          -4.8756199171727821e-001, -1.9316106269995331e-001,
          -1.0512170884441208e-001, -7.3098647439608222e-001,
          1.7843132709265022e-001, -8.9031343862868273e-001,
          4.6440357025088885e-001, -1.0952420478680924e-001,
          2.6694926270925817e-001, -2.5597295812840093e-001,
          3.7272996021191979e-001, -2.4446095412252788e-001,
          3.5244446563994081e-001, 2.1954155399690550e-001,
          1.4908633705929325e-001, 2.5882400021956370e-001,
          -3.0202065133504652e-001, 1.9720379498410837e-001,
          1.1024585151410028e-001, -3.6994901910799377e-002,
          -1.9489775274199597e-001, -6.0201649709986454e-002,
          -2.9089543129946138e-001, 9.6642530553824407e-002,
          -4.7204688132007611e-001, 4.6205525252068974e-001,
          -7.3534043870708721e-002, -5.4300242789479536e-002,
          -2.5626941903709727e-001, 4.4544205714711205e-001,
          -2.3321119102855301e-001, 4.1060244720112027e-001,
          1.9507926127107231e-001, 3.0998047325958300e-001,
          2.7492826924115998e-001, -3.0212075745954226e-001,
          -2.2206114750783509e-001, 5.0843905921160337e-002,
          1.0872678381689298e-002, -1.9457197144307570e-001,
          5.7269447997644975e-002, -2.8579760890730621e-001,
          8.7772843480246610e-002, -4.4144030200289325e-001,
          4.5537755110823730e-001, 1.8562839194587649e-001,
          -5.9231498305888947e-002, -1.5171670509838056e-001,
          5.8868873661064369e-001, 8.2753921014001267e-002,
          3.4477599197415365e-001, 3.4902117349130027e-002,
          -2.0480538700709575e-001, 8.9744757917706960e-002,
          -2.6732147448852656e-001, -7.3296448697659888e-002,
          2.6540100760569341e-001, -6.3519557132040805e-001,
          1.6764373364607166e+000, 3.2476483133355694e-001,
          1.2643290538590901e-001, -1.7218639679543254e-001,
          1.2855197498067052e+000, -5.1935843892460476e-002,
          2.3494470978458287e-001, -8.1967656109003181e-002,
          -1.2309923319243421e-001, 5.5574488442848000e-002,
          3.1029424540674255e-001, 3.1569906514615398e-001,
          -7.9544224272261543e-002, 2.3457901466400779e-002,
          -1.9486634499794035e-002, -1.2547642001326201e-002,
          -7.4641669428580526e-002, 2.2517683462546917e-001,
          -4.8377439482427004e-001, 3.0598623217967669e+000,
          1.5282049385106530e-001, 3.2326844116046743e-001,
          -1.9546187748674770e-001, 4.2225890705873925e-001,
          -4.2661281325245791e-002, 2.5842784888967707e-001,
          -8.1953409457081475e-002, -3.0719849566325458e-001,
          -2.5952480756026974e-001, 5.7562124322024699e-001,
          -5.7194457626516516e-002, 2.9334460437357705e-002,
          1.0052712824164614e-001, -3.7509537713107124e-002,
          -1.5000193134484230e-001, -7.9711481571170126e-002,
          3.1730774323278682e-001, -2.6538791738106643e-001,
          1.8752710502600067e-001, -9.3063186982255630e-002,
          2.9707201584210190e-002, -4.0993526283253340e-002,
          2.2680585466787861e-001, -1.1284653899232201e-002,
          -2.8669417630709565e-001, -3.7572882191359647e-001,
          -3.6108232031343013e-001, -2.3429342870973971e-001,
          5.6921596398110685e-001, 1.3222065816840139e-002,
          -1.3044899449345423e-001, 4.1594092554715389e-001,
          -3.6770484903261413e-001, 2.1428513705792755e-003,
          3.9707218917137445e-003, 1.6146905961439736e-001,
          -3.7057463579861044e-001, -1.2619011173168182e-001,
          -1.0585760602949386e-001, 1.9043567940211600e-002,
          -1.8947427652499901e-002, 1.6960060264931097e-002,
          -3.9531687769031604e-001, -3.2702701136130907e-001,
          -2.4576022625012597e-001, -1.0016657582283648e+000,
          -3.9825201805349980e-001, 9.2121925136924243e-001,
          2.0110416146872617e-002, -4.6914005440247014e-002,
          -2.8825777100614645e-002, -4.7809057388358167e-001,
          -2.6619035504829136e-001, 4.6508299584481910e-002,
          1.6498577377752943e-001, -1.0750259830276092e+000,
          -1.3195408310347856e-001, -8.9170446324792860e-002,
          3.0111011228216700e-001, -3.4115272116113484e-003,
          -1.9416660789797871e-001, -1.6701841501154532e-001,
          -7.1096965881952556e-001, 6.3008680855063248e-001,
          -5.3593229242341756e-001, -2.4578881377390455e-001,
          1.1264777366970364e+000, -3.0376035807717028e-001,
          7.1434944355532298e-002, -1.4435074876201057e-001,
          -1.8985038637093207e-001, -5.7216803460142032e-002,
          5.3626289967069932e-002, 1.9248071111872625e-001,
          -2.2249533525639542e-001, -9.6427395362346097e-002,
          -7.9914448497795831e-002, 2.7106500677782175e-001,
          5.5452175350130868e-002, 2.7992787963644680e-002,
          -1.7503556996588046e-001, -1.0259357937034579e+000,
          -1.8724381074771829e-001, -5.1871116595894613e-002,
          4.1163938757994862e-003, 1.1442019818010352e+000,
          -7.9624390200637896e-001, -9.1246935217642239e-002,
          -1.4471001533684250e-001, -1.0067855033700988e-001,
          1.1854607256452095e-001, -3.0828393065506349e-001,
          -8.3380392723930039e-002, 1.6462558015981557e-001,
          1.9840667111891919e-001, 5.5226120850287863e-001,
          3.8170133567618442e-001, 5.8906977167994153e-003,
          1.3696664153976223e-001, -5.3295063935522036e-001,
          -8.8724904508644298e-001, 2.6590855574765992e-001,
          1.0686784190144313e-001, -1.6013225967876668e-001,
          9.6343314368540295e-002, -3.9577952359834417e-001,
          5.4787496549681909e-002, -4.1298206030776990e-001,
          4.6650367876344741e-003, 1.3477151440605525e-001,
          -5.5965166285740775e-002, -1.0101497520203699e-001,
          1.7304523830116231e-001, 5.4010363937936112e-001,
          4.7033515202854032e-001, 9.3391431489724966e-002,
          2.6200648054625869e-001, 2.2718618442377303e-001,
          -1.0830452072031547e+000, -1.1174290263257201e-002,
          2.6866678697881247e-001, 1.9207750057976677e-001,
          -2.2223500349419323e-001, -3.1235422152468556e-001,
          -4.0096384453508788e-001, 5.1059397116590063e-002,
          -2.2288646272209395e-001, 2.7128847050871668e-001,
          -3.9512885810911925e-002, -6.7803068052161908e-002,
          -2.7459794546275840e-001, 4.8713129569204638e-001,
          5.4893787189946149e-002, 2.3595492793104367e-001,
          -4.2393690437306612e-002, 5.2517516424364519e-001,
          -1.1586670727022007e-001, -2.6483209465483676e-001,
          8.2921275027814281e-002, 1.6453774344545180e-001,
          4.2981662986394492e-001, 8.5813701294220793e-002,
          -3.0723260451924445e-001, -1.7277877395873241e-002,
          3.9858799906272019e-001, -1.3272017010114001e-001,
          6.1227832457725381e-002, -2.2792439009555499e-001,
          -2.2531994137451891e-001, -1.5531990172360133e-001,
          2.8427005000527478e-001, 9.8631799283799004e-002,
          5.5082594614953562e-001, -1.9022996873196998e-001,
          5.9207032296889439e-001, -1.9014767468190164e-001,
          -9.5883099287858764e-002, 3.3890717890595889e-001,
          6.7747130050168469e-001, 2.7712284130553816e-001,
          5.5403897950138470e-001, -5.6565478011995574e-001,
          7.6859872626390685e-002, 1.4577099434941426e-001,
          -5.8160109424172690e-001, -2.3009047375492178e-001,
          -2.2874850892637455e-001, -2.2805887039784570e-001,
          -5.2179676829081603e-002, -7.3055177412398906e-002,
          -2.1693171645443360e-001, 8.0910013876328443e-002,
          -5.0294235604196524e-001, 1.2333447045024042e-001,
          -9.0705766450138545e-002, -3.6441083120513668e-002,
          3.0550756532722129e-001, 1.4804555642718745e-001,
          2.6400927684564701e-001, 7.2495286748039733e-001,
          -1.9722888098334326e-001, 6.2854087798075742e-001,
          1.5507323529866332e-001, -1.2134381697550549e-001,
          -9.2362927935075514e-002, -3.7003936584914032e-001,
          9.8905059650079521e-002, 1.0579199811506833e-001,
          -2.3412181542487079e-001, -2.4846102616010518e-001,
          7.5595831647197673e-002, -4.6790381522924640e-001,
          3.3162902956066476e-001, -2.6027688791682685e-001,
          4.7222463953319727e-001, 4.1937333918008968e-001,
          3.2481811636760760e-001, 3.2563667176702400e-002,
          2.8166283357125804e-001, -5.0459358432703405e-001,
          3.6151074375698083e-001, 1.8808171048615424e-001,
          1.4156706688545234e-001, 2.3023517227087348e-001,
          -2.8833598626614609e-001, 2.6401627648855230e-001,
          1.0534783092636250e-001, -3.3727889026647323e-001,
          -1.9046863744534026e-001, -9.1089389702259160e-002,
          -6.9631802294394241e-001, -1.8327108219372862e-001,
          -1.4212089177235360e-001, 4.6795482090760537e-001,
          -9.3979228498126385e-002, 2.7662108521601869e-001,
          -2.5532684516803539e-001, 3.6273512659691232e-001,
          -2.3966368554118553e-001, 3.5567284710417857e-001,
          3.2410844798113214e-001, 5.7975146589414106e-001,
          2.7837431431492177e-001, -2.9702262567070514e-001,
          4.5529123657407009e-002, 1.0906891249762200e-001,
          4.3007764134563066e-002, -2.0586136274680719e-001,
          7.9571370966052934e-002, -2.8799053110915784e-001,
