%YAML:1.0
mlp: !!opencv-ml-ann-mlp
   layer_sizes: !!opencv-matrix
      rows: 1
      cols: 3
      dt: i
      data: [ 330, 21, 12 ]
   activation_function: SIGMOID_SYM
   f_param1: 6.6666666666666663e-001
   f_param2: 1.7159000000000000e+000
   min_val: -9.4999999999999996e-001
   max_val: 9.4999999999999996e-001
   min_val1: -9.7999999999999998e-001
   max_val1: 9.7999999999999998e-001
   training_params:
      train_method: RPROP
      dw0: 1.0000000000000001e-001
      dw_plus: 1.2000000000000000e+000
      dw_minus: 5.0000000000000000e-001
      dw_min: 1.1920928955078125e-007
      dw_max: 50.
      term_criteria: { epsilon:9.9999997764825821e-003, iterations:1000 }
   input_scale: [ 3.3813932713239638e+000, -1.8759488750447486e+000,
       3.6335702066766182e+000, -1.9219552163916385e+000,
       4.0327388436723144e+000, -1.9196989499700272e+000,
       4.3678369644651740e+000, -1.9604816834737402e+000,
       3.9420808076615317e+000, -1.7369608328284785e+000,
       3.2493055678636185e+000, -1.4067057472006566e+000,
       2.7793828030666607e+000, -1.1776971596991352e+000,
       2.6254031837104841e+000, -1.1028297146412303e+000,
       2.7414685342341203e+000, -1.1565433585998142e+000,
       3.1555828949951854e+000, -1.3280973062290542e+000,
       3.7694035979607321e+000, -1.6377787422471048e+000,
       4.3203748963322868e+000, -2.0169800460371090e+000,
       4.2947894281786274e+000, -2.1735494090443397e+000,
       3.9954355396969028e+000, -2.2483216487614208e+000,
       3.7799890635639626e+000, -2.2363255143643674e+000,
       3.5731625216051146e+000, -1.9275203296678023e+000,
       3.8628403249033822e+000, -1.9588755850064761e+000,
       4.1920548015997481e+000, -1.8642942951530967e+000,
       4.6448426122784294e+000, -1.9269712844788085e+000,
       4.2084093488483507e+000, -1.7343768113111464e+000,
       3.4225853550886267e+000, -1.4110084033902632e+000,
       2.9017828789766127e+000, -1.1905673672226960e+000,
       2.7225309636071979e+000, -1.1271520611801706e+000,
       2.9025413912775062e+000, -1.1925144894243338e+000,
       3.3471061417789274e+000, -1.3550477433018495e+000,
       3.9782539137512720e+000, -1.6235402751466697e+000,
       4.4566491430027249e+000, -1.9202333316593432e+000,
       4.3972601017813240e+000, -2.0675021987394131e+000,
       4.2150228011872146e+000, -2.2619760763228043e+000,
       4.0261217037173189e+000, -2.3112088039628076e+000,
       3.7033505599799903e+000, -1.8601640927519334e+000,
       3.9598652483752481e+000, -1.8255254734990625e+000,
       4.1478732821687121e+000, -1.5887696575795862e+000,
       4.8294767014784821e+000, -1.7246302659281241e+000,
       4.4736395555569040e+000, -1.6575412114424715e+000,
       3.5751589204042165e+000, -1.3944101757448595e+000,
       3.0172576057811540e+000, -1.2391023480236962e+000,
       2.9025022991641052e+000, -1.2334893427651579e+000,
       3.1797500427887848e+000, -1.3197024839195801e+000,
       3.6909007170620827e+000, -1.4532862109056812e+000,
       4.1901561883106870e+000, -1.5606936084850842e+000,
       4.2432631435718031e+000, -1.5568470533627730e+000,
       4.1020269393955600e+000, -1.6507458940244615e+000,
       4.3132580295453229e+000, -2.1147129802531377e+000,
       4.1974952904935243e+000, -2.2589262809971107e+000,
       3.8992929339105422e+000, -1.8421219687598429e+000,
       4.1995412948090758e+000, -1.7979086395729855e+000,
       4.4271909482523997e+000, -1.5266163383160694e+000,
       5.2854453054157462e+000, -1.7377106838724801e+000,
       4.9074951682107253e+000, -1.7994002319534639e+000,
       4.0482714604084844e+000, -1.6766225774165036e+000,
       3.4612122981509534e+000, -1.5833819192144449e+000,
       3.3786392434034558e+000, -1.6108128333694522e+000,
       3.7540438802180267e+000, -1.7463884618713199e+000,
       4.5719622498515884e+000, -1.9870046812737794e+000,
       4.9575184247490780e+000, -1.9461654566227768e+000,
       4.3437167319937728e+000, -1.5521811056334442e+000,
       3.9657882669356179e+000, -1.5023161068266213e+000,
       4.2835856489541575e+000, -1.9940127236751861e+000,
       4.2369901903933842e+000, -2.1857186815733827e+000,
       3.9891612105154315e+000, -1.7912533645479223e+000,
       4.3808622067035294e+000, -1.7800643015164139e+000,
       4.7187709525782342e+000, -1.5516559333637008e+000,
       5.1912802836899807e+000, -1.7055473064550184e+000,
       5.0241736634777467e+000, -1.9601813303856424e+000,
       4.3621423238326074e+000, -1.9901001230691138e+000,
       3.8230375880967431e+000, -1.9460252744078528e+000,
       3.7209675365140567e+000, -1.9722757812163376e+000,
       4.0445796419072835e+000, -2.0820688289886689e+000,
       4.8832669380376332e+000, -2.3560921634790972e+000,
       5.1548044035433369e+000, -2.2540690984620109e+000,
       4.5135723599438826e+000, -1.8063377635456930e+000,
       4.0330458665289211e+000, -1.6423964103400155e+000,
       4.1737060454881503e+000, -1.9793144169233410e+000,
       4.1314893202092087e+000, -2.1414057733117593e+000,
       3.8393210001164708e+000, -1.6623393998381530e+000,
       4.2150550062794556e+000, -1.6580778661874711e+000,
       4.6453442330118717e+000, -1.5207244896104302e+000,
       5.0688632560914142e+000, -1.7313899177788039e+000,
       4.9324117211258285e+000, -2.0303148889276570e+000,
       4.3121955762331678e+000, -2.1017622708703181e+000,
       3.8546300637684050e+000, -2.1029163939533611e+000,
       3.6928981159379024e+000, -2.0851032731789965e+000,
       3.8656305569246490e+000, -2.1255029308482936e+000,
       4.3905317012120451e+000, -2.2724763491086226e+000,
       4.5765608517989929e+000, -2.1810261712705077e+000,
       4.5142680859362621e+000, -2.0527407214908839e+000,
       4.0016953714816266e+000, -1.8388749031450513e+000,
       3.9094881010607176e+000, -1.9882742781397007e+000,
       3.8183900734636183e+000, -2.0796240956861425e+000,
       3.5546703343333381e+000, -1.5125208509655710e+000,
       3.9648327151646297e+000, -1.5483476865507204e+000,
       4.4537430253239227e+000, -1.5042399667795738e+000,
       5.1616376704178757e+000, -1.8907440472720907e+000,
       4.7349163769887053e+000, -2.0572296677203146e+000,
       4.0745782240368760e+000, -2.0560049991483016e+000,
       3.6958358141502035e+000, -2.0729282382658747e+000,
       3.4768582268050805e+000, -2.0157447112977529e+000,
       3.5564664010546210e+000, -2.0296986720698968e+000,
       3.8881049457455341e+000, -2.1126104111732955e+000,
       4.1805641057705945e+000, -2.1610143480078232e+000,
       4.4589179185390702e+000, -2.2765514181826627e+000,
       3.8476675860327902e+000, -1.9827518102730211e+000,
       3.6582332338311541e+000, -2.0307116834808556e+000,
       3.5654849272582094e+000, -2.0870156627894803e+000,
       3.2297543073112438e+000, -1.3650712446953932e+000,
       3.6668991634158328e+000, -1.4226428101452515e+000,
       4.2871929677784246e+000, -1.4791349313717810e+000,
       5.3107246346180856e+000, -2.0270069136698514e+000,
       4.5303047635793945e+000, -1.9907676986005454e+000,
       3.8293540603423137e+000, -1.8996686965643430e+000,
       3.5198825450817353e+000, -1.9263566447969376e+000,
       3.3674157816438064e+000, -1.9098099658354044e+000,
       3.4163972079357894e+000, -1.9358211117483273e+000,
       3.6318234235650717e+000, -2.0016644946155981e+000,
       4.0786729672914346e+000, -2.2213054442626694e+000,
       4.3966573841686118e+000, -2.4176413364806808e+000,
       3.6085721687292858e+000, -2.0059772408114136e+000,
       3.4402073655763132e+000, -2.0386570991398010e+000,
       3.3508241979133544e+000, -2.0884490664749480e+000,
       3.0410186785122026e+000, -1.2856190396418459e+000,
       3.4517889904675858e+000, -1.3366145374163492e+000,
       4.0738559563703722e+000, -1.4098323560823929e+000,
       5.1177334794513731e+000, -1.9321979445294044e+000,
       4.4769028099416044e+000, -1.8786410716244661e+000,
       3.7458541319423655e+000, -1.7325320409497080e+000,
       3.3417682485671625e+000, -1.6848645244193081e+000,
       3.2460814747656421e+000, -1.7037905366535369e+000,
       3.3217935093323874e+000, -1.7666631838339450e+000,
       3.5872005877799471e+000, -1.9121023570941837e+000,
       4.1260211512457055e+000, -2.2488768397988044e+000,
       4.1804020274271929e+000, -2.3425905039239190e+000,
       3.4963060980194283e+000, -2.0068130523513292e+000,
       3.3786322535509115e+000, -2.1015284087177579e+000,
       3.3093923455218430e+000, -2.1658538278564103e+000,
       2.9559054039738544e+000, -1.2443429271547861e+000,
       3.3347565686196989e+000, -1.2831946045358513e+000,
       3.8212153882597266e+000, -1.3078465227959948e+000,
       4.5204854262522547e+000, -1.6171395041458823e+000,
       4.1710502117417230e+000, -1.6153389791228046e+000,
       3.5966048149770473e+000, -1.5064854132024952e+000,
       3.1273369776332118e+000, -1.3895167714520640e+000,
       2.9881172298974823e+000, -1.3822762219963214e+000,
       3.0887349586487440e+000, -1.4818844697954558e+000,
       3.3762657317872682e+000, -1.6937499601751025e+000,
       3.6584032776376016e+000, -1.9230449566478895e+000,
       3.6893564470076039e+000, -2.0487492973883055e+000,
       3.4211564649098416e+000, -2.0005213558539219e+000,
       3.3637311347932641e+000, -2.1544664118109700e+000,
       3.2965554547886335e+000, -2.2225914222561398e+000,
       2.9430053411863355e+000, -1.2311882073216023e+000,
       3.2867499347703073e+000, -1.2558307637323931e+000,
       3.6931013721196249e+000, -1.2587057534032369e+000,
       4.1006314994255364e+000, -1.4198296135291393e+000,
       3.7653207487868214e+000, -1.3706984755395109e+000,
       3.3388076634923571e+000, -1.2850672341317244e+000,
       2.9216554617894812e+000, -1.1723318319704092e+000,
       2.7419384323369611e+000, -1.1494302305317536e+000,
       2.8706425827800675e+000, -1.2715946654817631e+000,
       3.1694044640246140e+000, -1.5184949609261436e+000,
       3.3586070496328140e+000, -1.7356183473364404e+000,
       3.4404027561724697e+000, -1.9239715602684182e+000,
       3.3157471203528361e+000, -1.9837988594373663e+000,
       3.2958804515703184e+000, -2.1592174038078582e+000,
       3.2255911074838712e+000, -2.2184459764383355e+000,
       2.9746065945859330e+000, -1.2341105659713107e+000,
       3.2943627615143574e+000, -1.2606822427072810e+000,
       3.7296869214160564e+000, -1.2799894736689139e+000,
       4.1782670531319495e+000, -1.4823199187374880e+000,
       3.8522244526297120e+000, -1.4549912242600800e+000,
       3.3884238189379299e+000, -1.3525602147254661e+000,
       2.9647578487031305e+000, -1.2312708834121711e+000,
       2.7643076359675853e+000, -1.1972079102382420e+000,
       2.9560468050207698e+000, -1.3686623129218345e+000,
       3.2984690900767042e+000, -1.6480623496770326e+000,
       3.4379121194057256e+000, -1.8299868386556228e+000,
       3.4835555956120223e+000, -1.9901579458515033e+000,
       3.3134953249755368e+000, -2.0214239975855057e+000,
       3.2782811259084150e+000, -2.1669459696706452e+000,
       3.2032406003339928e+000, -2.2178944786584172e+000,
       3.0130010026059844e+000, -1.2555899306141369e+000,
       3.3516886118580413e+000, -1.3015674897522787e+000,
       3.9267976775251743e+000, -1.3869635968584781e+000,
       4.5704509883894620e+000, -1.7335601832700696e+000,
       4.3446633205418896e+000, -1.8215753333101306e+000,
       3.7453352474906958e+000, -1.6970823306001042e+000,
       3.2297159100921027e+000, -1.5336939685323168e+000,
       3.0570174836157524e+000, -1.5087594424947450e+000,
       3.2909522158946687e+000, -1.7220751742951457e+000,
       3.6626180343506971e+000, -2.0156841683770708e+000,
       3.7820994633158267e+000, -2.1570698045002143e+000,
       3.7009963250383842e+000, -2.1937311924629581e+000,
       3.4502804229402306e+000, -2.1437104240927347e+000,
       3.3296029897044437e+000, -2.2124524846267946e+000,
       3.2430738026558834e+000, -2.2516377243679129e+000,
       3.0743280214367577e+000, -1.3068891898911856e+000,
       3.4536413829472976e+000, -1.3715908288838201e+000,
       4.0961997076431098e+000, -1.5004443250785948e+000,
       4.8279477564472071e+000, -1.9642965740237239e+000,
       4.5291936180195496e+000, -2.0910168586304239e+000,
       3.8811606488383243e+000, -1.9541903577257194e+000,
       3.3774698521357429e+000, -1.7859494500214328e+000,
       3.2813056431249756e+000, -1.7920347880153471e+000,
       3.4562176357349497e+000, -1.9767524318415259e+000,
       3.7114201478186093e+000, -2.1844404615148685e+000,
       3.8445402651301248e+000, -2.2819103938138334e+000,
       3.8457733725646834e+000, -2.3184921254681199e+000,
       3.6023935269869929e+000, -2.2504711019263564e+000,
       3.4791685422084018e+000, -2.3086915410403890e+000,
       3.3736999285682567e+000, -2.3300355164782909e+000,
       3.2155007637192958e+000, -1.3947909119303419e+000,
       3.6247727439425841e+000, -1.4617854224010995e+000,
       4.1537074783455283e+000, -1.5429987325904451e+000,
       4.7376335337891691e+000, -1.9903539575352176e+000,
       4.1999531819756672e+000, -2.0452547422929035e+000,
       3.5167515930751811e+000, -1.8872518913127083e+000,
       3.2031394137607299e+000, -1.8133474107856500e+000,
       3.2038970700789986e+000, -1.8815591249590313e+000,
       3.2887570487080628e+000, -1.9843352714403590e+000,
       3.3960381648367255e+000, -2.0632568964044755e+000,
       3.5631408458009250e+000, -2.1425671097141792e+000,
       3.7478363366163112e+000, -2.2475392086861099e+000,
       3.7162933528383824e+000, -2.2738569569245013e+000,
       3.6815621048211562e+000, -2.3928646922307455e+000,
       3.5793429633772220e+000, -2.4195937051975904e+000,
       3.5060171106320190e+000, -1.5755915764245183e+000,
       3.8836437222744276e+000, -1.6096213882326464e+000,
       4.1880692729271400e+000, -1.5647228508607798e+000,
       4.4792701805635620e+000, -1.8743241340630044e+000,
       4.0124441319208346e+000, -1.9766163361837417e+000,
       3.4429448641005966e+000, -1.8989179625969692e+000,
       3.2085693084867519e+000, -1.8861179458684136e+000,
       3.2382790472440295e+000, -1.9780713027238965e+000,
       3.3666199808574686e+000, -2.0855277670110959e+000,
       3.4429515183695445e+000, -2.1006063374539274e+000,
       3.5313905856627064e+000, -2.0864195177664899e+000,
       3.6639949238158125e+000, -2.1214148732646869e+000,
       3.7568685831857858e+000, -2.2049914005675073e+000,
       3.8817277185665340e+000, -2.4429764201467541e+000,
       3.8165513324992943e+000, -2.5002190838598599e+000,
       3.7586843100727068e+000, -1.7471126284912100e+000,
       4.0930243853188193e+000, -1.7489164388513934e+000,
       4.3318077508207198e+000, -1.6261240603652640e+000,
       4.3160011268557232e+000, -1.7735871623438295e+000,
       3.9704840093813623e+000, -1.9420409362986824e+000,
       3.6574103150032324e+000, -2.0576832220053709e+000,
       3.4933718737747355e+000, -2.1262692331398805e+000,
       3.5839876470999443e+000, -2.2721727481022267e+000,
       3.8286446371922351e+000, -2.4435791878339836e+000,
       3.9361636412255061e+000, -2.4289111875933478e+000,
       3.7413468107451995e+000, -2.1694286889146523e+000,
       3.6382302296246274e+000, -2.0072694165679708e+000,
       3.7135205668447133e+000, -2.0644063669221997e+000,
       3.9956373291896736e+000, -2.4185429270310639e+000,
       3.9855188021939076e+000, -2.5258145957421232e+000,
       4.0095034028332321e+000, -1.9393180269757671e+000,
       4.3249729743264469e+000, -1.9220009824306894e+000,
       4.6153051983629814e+000, -1.7941645531176389e+000,
       4.4134716628084876e+000, -1.8346155401702553e+000,
       3.9767223816957071e+000, -1.9511672720734423e+000,
       3.8251749467550571e+000, -2.1596432160737065e+000,
       3.8024825068617405e+000, -2.3272674381363410e+000,
       3.9630419418916243e+000, -2.5231989143075380e+000,
       4.3214318735867359e+000, -2.7568244008419760e+000,
       4.5255836089729069e+000, -2.7762115867042176e+000,
       4.1008722460535099e+000, -2.3359319446205635e+000,
       3.7125440928592668e+000, -1.9618556884018015e+000,
       3.6933660128667989e+000, -1.9586701269604407e+000,
       4.0566620727987779e+000, -2.3810501714421535e+000,
       4.0767050350640233e+000, -2.5203943192946250e+000,
       4.0648548273312235e+000, -2.0759039158362036e+000,
       4.3284725893893761e+000, -2.0465373036641310e+000,
       4.6558423372576625e+000, -1.9534828766744663e+000,
       4.5221497059972320e+000, -1.9771677719655132e+000,
       3.8051224903896128e+000, -1.8768130545837425e+000,
       3.4605947994935273e+000, -1.9163111617475530e+000,
       3.4218049326505198e+000, -2.0312340887955820e+000,
       3.5089546407999483e+000, -2.1589773722245580e+000,
       3.7373574727709049e+000, -2.3059654128676095e+000,
       3.9901659420410303e+000, -2.3776138830945497e+000,
       3.9619534408394110e+000, -2.2074590173214799e+000,
       3.7417958621235354e+000, -1.9485558511521901e+000,
       3.7046745421854674e+000, -1.9523044522629873e+000,
       3.9820971043297315e+000, -2.3216168199477187e+000,
       3.9846940301814628e+000, -2.4517908993598021e+000,
       4.0101156952758314e+000, -2.1711885512741222e+000,
       4.2983852416721255e+000, -2.1888009771273964e+000,
       4.6544161152406129e+000, -2.1773217220219774e+000,
       4.7946180405592136e+000, -2.3103635381340339e+000,
       3.8167072397568571e+000, -1.9710318449103563e+000,
       3.2079630486373061e+000, -1.7722189422842010e+000,
       3.0178890174219042e+000, -1.7407551792226861e+000,
       2.9700204967534107e+000, -1.7539863944323628e+000,
       3.0740338597340768e+000, -1.8207568191915251e+000,
       3.3549707674391254e+000, -1.9520251806080158e+000,
       3.7403821283698910e+000, -2.1101844945352113e+000,
       3.9610075505363671e+000, -2.1708089454760882e+000,
       3.8811634930565577e+000, -2.1683508114951833e+000,
       4.0014171626176118e+000, -2.4252224192488550e+000,
       3.9622900939020993e+000, -2.5100210799799991e+000,
       3.9936790161107880e+000, -2.3241635476029034e+000,
       4.4321649880668819e+000, -2.4800469005469874e+000,
       5.0565455031550135e+000, -2.6838385685494237e+000,
       5.3527107164840135e+000, -2.8884664041567745e+000,
       4.1272055967357986e+000, -2.3080019336297397e+000,
       3.2788687926156075e+000, -1.8961591225408125e+000,
       2.9412131896035296e+000, -1.7252859943414891e+000,
       2.8155386149605985e+000, -1.6660278918649656e+000,
       2.8909509732276355e+000, -1.7149545450133452e+000,
       3.1647200484562346e+000, -1.8895128260886636e+000,
       3.7030110223786794e+000, -2.2026316662769463e+000,
       4.2089392818071003e+000, -2.4993675243717615e+000,
       4.1772562303144136e+000, -2.5380408463839044e+000,
       4.0973061351935032e+000, -2.6403406807133796e+000,
       3.9751714007240424e+000, -2.6368828786917482e+000,
       3.8268050835905836e+000, -2.2931159545008577e+000,
       4.2503236148175043e+000, -2.4765067130769798e+000,
       4.9918735262582041e+000, -2.7990912697288191e+000,
       5.2828074310862316e+000, -2.9945383159033301e+000,
       4.0551427849892132e+000, -2.3543098026726099e+000,
       3.2097989906662447e+000, -1.9070182924152896e+000,
       2.8376028920501333e+000, -1.6942811417497412e+000,
       2.7015144799094708e+000, -1.6151418015217289e+000,
       2.7509782638967066e+000, -1.6491863641955731e+000,
       2.9965328257374861e+000, -1.8192177647862897e+000,
       3.5355249660086989e+000, -2.1683575245702453e+000,
       4.1138494303021256e+000, -2.5349903754862813e+000,
       4.1505364618972456e+000, -2.6179584737394603e+000,
       3.9926637819675821e+000, -2.6467985962326477e+000,
       3.8374566366520857e+000, -2.5945954674200733e+000 ]
   output_scale: [ 5.2631578947368418e-001, 4.9999999999999994e-001,
       5.2631578947368418e-001, 4.9999999999999994e-001,
       5.2631578947368418e-001, 4.9999999999999994e-001,
       5.2631578947368418e-001, 4.9999999999999994e-001,
       5.2631578947368418e-001, 4.9999999999999994e-001,
       5.2631578947368418e-001, 4.9999999999999994e-001,
       5.2631578947368418e-001, 4.9999999999999994e-001,
       5.2631578947368418e-001, 4.9999999999999994e-001,
       5.2631578947368418e-001, 4.9999999999999994e-001,
       5.2631578947368418e-001, 4.9999999999999994e-001,
       5.2631578947368418e-001, 4.9999999999999994e-001,
       5.2631578947368418e-001, 4.9999999999999994e-001 ]
   inv_output_scale: [ 1.8999999999999999e+000, -9.4999999999999996e-001,
       1.8999999999999999e+000, -9.4999999999999996e-001,
       1.8999999999999999e+000, -9.4999999999999996e-001,
       1.8999999999999999e+000, -9.4999999999999996e-001,
       1.8999999999999999e+000, -9.4999999999999996e-001,
       1.8999999999999999e+000, -9.4999999999999996e-001,
       1.8999999999999999e+000, -9.4999999999999996e-001,
       1.8999999999999999e+000, -9.4999999999999996e-001,
       1.8999999999999999e+000, -9.4999999999999996e-001,
       1.8999999999999999e+000, -9.4999999999999996e-001,
       1.8999999999999999e+000, -9.4999999999999996e-001,
       1.8999999999999999e+000, -9.4999999999999996e-001 ]
   weights:
      - [ -6.4669556604534259e-002, 1.6438492864947268e-001,
          -3.0016525183202660e-002, 2.1654064419135064e-002,
          -9.2231074935319776e-002, -2.3372446188226972e-001,
          -8.4187453928951467e-002, -1.4969651718707314e-001,
          2.0755098763562663e-001, 6.1145668293452408e-002,
          1.1111078967576664e-001, -2.3909028105468311e-001,
          -1.2637038862082814e-001, -1.2635225826187462e-002,
          2.5028448620599708e-001, 1.7570005621900756e-002,
          -3.5883239427672947e-001, 1.1149133172184474e-001,
          -2.4316462248860360e-001, -4.4411575765040248e-002,
          2.8352513096799181e+000, 2.9850609283880336e-001,
          1.6998058666205462e-001, -4.8480517850087515e-002,
          1.9015921884791016e-002, -2.8882092879565258e-001,
          -2.3494469957249009e-001, -8.3987316509253979e-002,
          -1.6769642529993978e-001, 2.2103436097930682e-001,
          2.3493574997908181e-001, 1.2761203495056850e-001,
          -2.0191304884107886e-001, -3.1272376379780004e-001,
          1.8335570441704269e-002, 2.4561796044701414e-001,
          -1.1258952957638829e-002, 8.1021408801107298e-003,
          9.7876582791845426e-002, -2.4394295103665264e-001,
          -3.5473022489363501e-002, 2.8759305205330494e+000,
          9.7379048266982449e-003, -3.3161851525732616e-002,
          -7.2307787867128645e-002, 3.6309410585242022e-002,
          -2.1000107914001889e-001, -3.3429422458449864e-001,
          -3.2560787527142761e-002, 1.0481053757308703e-001,
          2.3069343739374035e-001, 3.1076012638127903e-001,
          4.3909802866125135e-002, -7.8381211085425229e-002,
          -1.1934827314218741e-001, 7.0600125821013118e-002,
          -5.5686600296898682e-002, -5.2832857202929620e-003,
          -1.5317564680486495e-001, 9.9550097442222235e-002,
          -2.0902505564014370e-001, -1.2698685842774990e-001,
          9.9926516929271014e-001, 8.3848223328892454e-002,
          -2.2845259408911710e-002, -2.1467943618714441e-001,
          2.8115266135424196e-002, -2.5107195012998917e-001,
          1.9219648262682282e-001, -3.7266121242555905e-002,
          4.6260436197675121e-002, 4.3079451257497742e-001,
          3.5936765747274302e-001, 7.8989879863446702e-002,
          -6.2171364329717788e-002, -1.4023294316381352e-001,
          6.7833211662755646e-002, -5.8860648087848993e-002,
          -1.1883378343265518e-002, 4.2184702724689653e-002,
          -1.5118320322224954e-002, -7.7154104691751673e-003,
          -2.3744023688554147e-001, -7.4073976474978498e-001,
          -8.5077246711391635e-002, -1.3038705139510305e-002,
          -1.1133199345183721e-001, -1.3339185502995082e-001,
          -4.1855960626829319e-001, -7.1077845115877691e-001,
          3.0845034773826135e-001, 5.0958413893912154e-002,
          5.5483579050883769e-001, -3.0899678417021370e-001,
          -2.1694849514860423e-001, -7.8272200092592267e-002,
          -7.2452541736537457e-001, 4.4318713505000423e-001,
          4.0485408244912251e-003, -5.2891123203522750e-001,
          7.9820342642768827e-002, -2.0994186926151978e-001,
          -1.8638086603015949e-001, 8.4563972933067277e-002,
          -2.7101409081543421e-001, -8.2099198895908346e-002,
          -3.3535551519316080e-002, -2.5068879468767721e-002,
          1.0580557152152759e-001, -4.1534917578738739e-001,
          -1.0083136284188432e-001, 3.2029043449319433e-001,
          4.4388818592451734e-001, 3.7890995968054793e-002,
          1.0518137334194982e-001, -1.2476339493023202e-001,
          6.4817980846361112e-001, -3.6571552814589597e-001,
          4.0979020189704218e-001, -8.9621271972534292e-002,
          -4.5197388119290871e-001, 2.9428456583795434e-002,
          -2.9599991451572744e-001, -1.4840970927934033e-001,
          9.0473422193076913e-002, 8.4447023428750448e-002,
          -1.0314601508931755e-001, -1.4828669949062229e-002,
          -1.2782379101031256e-002, -2.6174624613646846e-001,
          -4.0393471429882066e-001, -9.4280810633165124e-002,
          1.8079954750659274e-001, 9.6238580941627117e-001,
          3.7588809160761745e-002, -6.9901858917493266e-003,
          -7.6699674105804555e-002, 6.4548297504180063e-001,
          -1.4161900211323020e-001, 2.6240963002900325e-001,
          -8.5977828727146724e-002, -1.7058281262731048e-001,
          3.2888401032530205e-002, -7.7672913560243778e-002,
          -1.6019261199147519e-001, 9.1895846885542157e-002,
          1.2366795005338968e-001, -1.0659680684495378e-001,
          -2.3148806448034739e-001, 5.1332103089266412e-001,
          -8.4943881907069890e-002, -4.0726371461701349e-001,
          -9.9490334570623284e-002, 1.5117467134341636e-001,
          9.7225357874107643e-001, 4.6232801155452648e-002,
          -1.7969926964506108e-002, -4.2612286675841417e-002,
          7.7137241587091243e-001, -1.7207617593164132e-001,
          2.6600707262897366e-001, -9.2060175678748163e-002,
          -1.6473350853785329e-001, 3.9563820699319512e-002,
          -1.0968816278954352e-001, -1.5167288807991938e-001,
          8.8707143469148070e-002, 5.3723865739607565e-002,
          -8.7862490929253356e-002, -2.0357337283903784e-001,
          6.0233244639591477e-001, -9.5716596207448892e-004,
          -3.8183029967934856e-001, -9.3750096950901723e-002,
          1.7317002318089492e-001, 9.1040563822285292e-001,
          -6.6129281558941641e-002, 2.7598658014245736e-003,
          -5.1788181008026006e-002, 2.3649160081507517e-001,
          -1.6849048624777116e-001, 2.6120244125415676e-001,
          -5.4824161680285081e-002, -1.6130160081968759e-001,
          4.2428728035090270e-002, -1.1354021770510071e-001,
          -1.4784291696646154e-001, 8.7726253971483606e-002,
          9.8242016372715776e-002, -8.8595463960943532e-002,
          -2.0974169840718238e-001, 3.0026194206572787e-001,
          9.3583418671122659e-002, -3.7616318140366911e-001,
          -9.9415729772679207e-002, 3.7653615093386533e-001,
          9.7865041306132639e-001, -5.6890760914907620e-002,
          1.2518416075995342e-001, -7.2193916128204930e-002,
          7.5062261716550871e-001, -1.9996181780160310e-001,
          3.2561144842076795e-001, -1.9503007370503300e-001,
          -4.1987421371158706e-001, 4.4512673683174638e-002,
          -1.2142987340656483e-001, -2.0177478163100204e-001,
          2.4578289051547597e-001, 1.0199287560547687e-001,
          1.2499434197227903e-003, -2.0435155372142866e-001,
          8.4882012578842911e-002, 1.2835588947426307e-001,
          -1.1249314567856408e-002, -5.3307954046711778e-002,
          1.5223722046273286e-001, 1.1877358791178984e-001,
          -7.4214133709381624e-002, -4.8156425864599686e-002,
          3.0272048025462708e-002, 3.0946391215419179e-002,
          -2.1500272698325951e-001, 7.3525062609091896e-001,
          -1.8995682220948901e-001, -3.7526646762577753e-001,
          1.1290131275809258e-001, -1.9360346876928097e-001,
          -2.8027599961343375e-001, 1.0667008311490743e-001,
          3.9750046687372775e-001, -1.4171592931677923e-002,
          1.0581201541627665e-001, 1.1445570336793527e-001,
          -3.3259098677603058e-004, 2.5993502721154538e-001,
          1.9645000004401875e-001, 8.0239596766437341e-002,
          -7.5828374666626966e-002, -4.3071036200705709e-001,
          -2.7902627297198035e-001, -4.0105140461941732e-002,
          4.2111234978017151e-002, 2.6941997130453026e-002,
          -1.4439620110432116e-001, -4.8885051945566228e-002,
          -6.8460967209800105e-001, -4.6599869728919036e-001,
          1.3999266079077278e-002, -3.7998335051318247e-003,
          3.7239769845619164e-002, 1.5591551735180828e-001,
          5.4165239737913751e-001, 1.1446391845321628e-001,
          -2.0104204354258869e-003, -3.9943721196148374e-001,
          2.1393706603803447e-001, -4.9925129760316281e-002,
          -1.9160644637066229e-001, -2.0541436553945619e-001,
          -3.3963257809571629e-001, -5.1235102311722056e-002,
          2.6313099329268667e-002, -1.9752869580629630e-002,
          1.0085122411229488e-001, -1.6407505628195551e-001,
          -9.4114951173969952e-002, 4.6658946200627355e-002,
          2.6114232441319973e-001, 1.6030207627879497e-001,
          -1.4962598600463981e-002, -2.6659814633427890e-002,
          3.7618644027522088e-002, -7.0688452904366181e-003,
          2.3439629255959207e-001, -2.1576937552515493e-001,
          -3.9284723781738479e-001, 2.1803438064189221e-001,
          -2.0810930138806479e-002, -2.9359496623060460e-001,
          -1.1951873237630903e-002, -3.5407974789541552e-002,
          -4.9707577232943667e-001, -3.9084440400212486e-002,
          -1.3544850134476394e-001, 9.2517111035615260e-002,
          -1.2655870971020033e-001, 1.0138635729367808e-001,
          1.0114045529081461e-001, 5.4505773341553534e-003,
          8.2010073151381896e-002, -8.6936540639245219e-002,
          -1.4351932274866461e-001, -1.6940559736303574e-004,
          -1.2615242818641070e-002, 1.3793347212452203e-001,
          8.9725008958276592e-002, -6.9423381632216352e-001,
          2.6462294390522711e-001, -2.4815504019571479e-002,
          -3.1257351120010352e-001, -8.8698390898518109e-002,
          -4.4973621582426043e-002, -1.5715779636738808e-001,
          1.5289591591506563e-001, -1.7213514541299615e-001,
          1.0175766945215937e-001, -1.2973944777382546e-001,
          1.0586949882032586e-001, 9.8137870499977131e-002,
          -4.3141204932201013e-003, 8.0380136489803439e-002,
          -9.6430816346898693e-002, -1.4297549741562643e-001,
          -1.1949261870522335e-001, 1.9328326609936020e-001,
          1.6575287113200288e-001, -5.9287267392795544e-002,
          2.2764582923124645e-002, -1.5486300186411309e-001,
          -2.2715528686303776e-001, -4.0290975535617807e-002,
          -1.6464640590860619e-001, 2.2581628474002272e-001,
          3.0504889159672161e-001, 1.1854325998878325e-001,
          -2.3388643382317631e-001, -1.2397325185089193e-001,
          -1.1387997871534723e-002, 9.2887731768735077e-002,
          -2.4946438396674347e-002, 4.3385881869557391e-003,
          1.5812293138196565e-001, -2.4534212307064340e-001,
          -3.3626867764624258e-002, 4.7152904232710019e-001,
          2.8006602228749267e-001, 5.3817058563533950e-002,
          -5.6384487860165949e-002, 2.2371244087672857e-002,
          -2.8876870274185917e-001, -2.2899960263990274e-001,
          -8.4806847203462779e-002, -8.3016503824459020e-002,
          2.2519869845293819e-001, 2.3246613190591786e-001,
          1.2150567880815492e-001, -2.0117533018827011e-001,
          -2.9264182022647661e-001, 1.5915247237794825e-001,
          9.3770595466347376e-002, -3.4216085757303151e-002,
          -2.0246093373187607e-003, 1.2826252054326609e-001,
          -2.9768890271931686e-001, -3.4679226850135761e-002,
          1.3785318042161854e-001, 2.5984774041898306e-001,
          -3.8611211333908095e-002, -7.5510966534106674e-002,
          -1.0816420167361551e-001, -5.4237494132679691e-002,
          -4.2859820889619149e-001, 1.1485878971805258e-001,
          -1.6089712580824385e-003, 2.3203999755584151e-001,
          3.0539307167043711e-001, 5.1186026427172328e-002,
          -1.9009642078932110e-001, -1.1473108597524226e-001,
          1.5398140477848957e-001, -8.8785571399775720e-002,
          -3.1825863664542077e-002, -1.5649928794803861e-001,
          1.2985613659635262e-001, -2.1830377357653932e-001,
          -2.2058476313468187e-001, 3.1980838815059714e-001,
          -1.6069309871016393e-001, -1.2880620498819106e-001,
          -2.1389385098517344e-001, -1.7271062935086090e-001,
          -2.5698170465375042e-001, -3.0742976972392327e-001,
          -8.4690855667333420e-003, 9.3679718302401266e-002,
          5.6834248962187051e-001, 1.9046975002380478e-001,
          7.8945561997813607e-002, -6.2150322655302771e-002,
          -1.1599409116881954e-001, 2.6800731745413694e-002,
          -1.0690690609729513e-001, -2.2254395965380633e-002,
          9.7673162565146285e-002, -4.2910476277870632e-002,
          -5.6487897465248771e-001, -2.2722090283320800e-001,
          -4.1656912202170748e-001, 1.7595854426555563e-002,
          -1.5605721058190120e-001, -1.1040948501914379e-001,
          -4.3331992179058876e-001, -4.1276431629876953e-001,
          -6.0621259780042913e-001, 6.3277105258748778e-001,
          1.8633775792852228e-001, 2.3907495147179048e-001,
          7.0937099773513201e-002, -4.1548100419880502e-001,
          -2.5290673097060290e-002, -1.1883696344248089e-001,
          3.3138837090516050e-002, -3.8432011584651961e-002,
          -7.9709826628096070e-001, 1.1165617196893313e-001,
          -2.3812466872472637e-001, -1.8732435802721034e-001,
          8.9809547323470518e-002, 1.9151332043130014e-002,
          -1.0298703391315175e-001, -1.6127660569600785e-001,
          1.7805966972240464e-001, -1.9917235135796835e-001,
          -8.8383066623312445e-001, -8.3347072679344311e-002,
          3.5143570832040233e-001, 9.7627639616977191e-001,
          4.8971472926962481e-002, 1.0151163962080051e-001,
          -7.3081472487479288e-002, 6.4321187477635355e-001,
          -1.3817066439987116e-001, 4.4545946040817902e-001,
          -1.8394945865614440e-001, -6.2744529444595631e-001,
          5.0093405036111940e-002, -3.7107583253180110e-001,
          -1.9127553125595514e-001, 8.9728755124199422e-002,
          7.7075958082995111e-002, -1.0923639138007696e-001,
          -4.8262923630505751e-002, 2.3005334181185272e-001,
          -8.4770840739768816e-001, -9.0961751903854082e-001,
          -1.0032482596699463e-001, 1.4675958641807604e-001,
          6.4044994032149283e-001, 4.0886877731004002e-002,
          1.1152241869397801e-002, -7.9419376705421652e-002,
          2.4611816371150336e-001, -2.0842419755485547e-001,
          2.6368740161836995e-001, -1.9517916239024055e-001,
          -3.2166357983105048e-001, 4.3358601658361605e-002,
          -3.6533455684484573e-001, -1.6031325922873649e-001,
          4.7482016704575976e-002, 1.0006263025231510e-001,
          -1.0799140440558164e-001, -4.3284507657057408e-002,
          2.4285949313414382e-001, -9.2695649121310186e-001,
          -8.9805751549966628e-001, -9.2405096249298685e-002,
          1.4043362125202496e-001, 6.4177521961346384e-001,
          4.6482802960101564e-002, 3.0284129523059302e-003,
          -4.8732915542252044e-002, 2.3374711358011005e-001,
          -1.6803420380933654e-001, 2.6054529371503504e-001,
          -1.3532336444038859e-001, -1.8833846890128578e-001,
          4.2663042681104775e-002, -4.0620073444949911e-001,
          -1.4622750933246700e-001, 5.0325446229201577e-002,
          1.7282551574403261e-003, -7.9027755850147818e-002,
          -2.2917907505733474e-002, 2.4748804750237402e-001,
          -6.2528146671449358e-001, -4.1711841482823087e-001,
          -7.9939164830512069e-002, 1.9807931649618774e-001,
          5.0329009597894203e-001, -6.6141912729681701e-002,
          1.9403180354849879e-003, -3.0846033033317843e-002,
          2.2704720019210817e-001, -2.0769534079776192e-001,
          2.6185399352310712e-001, -1.2838889305664838e-001,
          -4.5110442245571192e-001, 4.5721988233943169e-002,
          -3.9631872521914219e-001, -1.5988270780702968e-001,
          8.8922595342600511e-002, 1.5524280772435861e-002,
          -1.7411118547863166e-001, -2.0798463154191005e-001,
          2.2167301154297628e-001, 2.2182574377157413e-002,
          -3.5112198798281613e-001, -8.3018523183189710e-002,
          1.4934157650213714e-001, 7.0454232560296526e-001,
          -5.9582480658456019e-002, 1.3021207000712062e-001,
          -4.5876240653742552e-002, 2.3388159598939554e-001,
          -2.0055876609295403e-001, 3.6016324622169360e-001,
          -2.5253484504843637e-001, -4.4280948973208950e-001,
          9.0683651668598098e-002, -6.7373470825255202e-002,
          -2.1419740063251991e-001, 1.2301785142644914e-001,
          1.0331695508689336e-001, 1.4780484788447758e-002,
          -2.1171095581009458e-001, 6.4056786319857645e-002,
          9.5027509919357864e-002, -1.2640502839664693e-002,
          -5.1411424252250849e-002, 1.6849973466815177e-001,
          2.3722700349426021e-001, -7.5848666218138794e-002,
          1.1539592758224120e-001, -1.3608080265475419e-002,
          4.6816493207092524e-002, 2.0538291077442045e-001,
          5.8554454887506080e-001, -4.8617837892058174e-002,
          -2.4664199099124509e-001, 6.2804446537786510e-002,
          -5.1529229104581231e-001, -2.6408031188251740e-001,
          7.7467337583848606e-002, 2.6245940659154803e-002,
          -5.7312813155729732e-002, 3.2284776806700374e-002,
          -3.9406884342491760e-002, -9.2412900833766423e-002,
          -2.6738780020595265e-002, -9.0546824606034651e-002,
          8.2439615740698524e-002, -1.2160963376305692e-001,
          -2.8710055466876416e-001, -3.0250932509257805e-001,
          8.8524382557331610e-002, -6.0572686367826064e-004,
          -1.8139201077796610e-001, -3.7197910811365545e-002,
          -6.5750483133263593e-002, -1.0431807450772934e+000,
          1.1514319504687216e-001, -2.6051227752295580e-002,
          1.0204310671810745e-002, 5.8331724241714157e-002,
          1.8167922303276757e-001, -2.1115944332511891e-001,
          7.1444069644970840e-002, -2.9643130964102354e-001,
          -8.4087026359594488e-002, 4.3921084214683959e-001,
          6.2559605437220514e-002, -9.4679778073252410e-002,
          -1.1560243316046295e-001, -2.0602711917694727e-001,
          2.7847450502906778e-002, 1.8571491143795096e-001,
          2.9602391832580274e-002, 1.8024357433546034e-002,
          -1.5054460292950239e-001, -8.8721343758074667e-002,
          -1.0133354638748153e-001, 2.6241509591594547e-001,
          1.6196255708186491e-001, -4.9161655983804779e-002,
          7.8783892033732678e-002, 8.7946430189758923e-002,
          -7.6260179077887987e-003, 8.5016153020333163e-002,
          -2.9219768980240746e-001, -1.0336318776625018e-001,
          2.1392856192961482e-001, -8.4233071969306971e-003,
          -1.2242840227802881e-001, -7.9884760358352486e-002,
          -3.5362104365445367e-002, -2.1935055564699962e-001,
          2.8258676195763255e-001, -1.3297078474788659e-001,
          1.1097556858572533e-001, -1.3004668893158863e-001,
          1.7245322924294471e-001, 9.4667441884687897e-002,
          2.2135458771241654e-002, 6.4509859532080757e-002,
          -8.4908396598941338e-002, -7.2068717211906655e-003,
          -3.0073423821806382e-002, -6.9420694481530740e-003,
          3.0878553129216895e-003, 3.6296121098513809e-002,
          3.5494147150210137e-001, 2.2346262284873528e-001,
          -2.4471177397618067e-002, -4.8036973817556179e-002,
          -7.9065560205581087e-002, -4.4745565201758937e-002,
          -1.6705364982867996e-001, 1.5279072801120019e-001,
          -2.1072774051566820e-001, 9.9618496741192997e-002,
          -1.3455949284091231e-001, 1.7133734581174337e-001,
          8.1052874211835835e-001, 5.7719805027258708e-003,
          7.9173904596411659e-002, -1.0949713180674868e-001,
          -2.0604700121430904e-005, -3.0479557976724969e-001,
          1.3080540073326274e-001, -3.2791548791713275e-002,
          -5.7634601985507385e-002, 4.5421902240132685e-002,
          -5.8527079202559673e-002, -5.4761287704545070e-001,
          -2.5242807530556979e-002, -1.4421351152419276e-001,
          5.4621175993728441e-002, 1.1377348172179348e-001,
          2.1540631034714844e-001, -2.3059938385939804e-001,
          8.9451657814520316e-002, 6.3290393428394182e-002,
          9.6500583544309626e-002, 2.4415896499120074e-001,
          6.0184949852427816e-003, 1.5442400955478300e-001,
          -5.4447144531763962e-002, -4.6235648150836972e-002,
          -1.1556681781694055e-001, 2.6031297330711917e-001,
          -2.8794647453496615e-002, -6.3441210076356169e-002,
          4.8602139166106721e-002, 5.3674470425407166e-003,
          -7.8229765054237277e-001, -2.4489127997277222e-002,
          -2.5692239139866879e-001, 2.3312760096175034e-001,
          1.0534829441681764e-001, 2.1791358987456122e-001,
          -1.8991732216270310e-001, 9.1747644152064600e-002,
          1.5115546790605247e-001, 2.5917240277358224e-002,
          2.4681068105185938e-001, 3.8853603245928344e-003,
          1.5546122213825161e-001, -2.5764705801937843e-001,
          -3.8884240710366891e-002, 2.3393077482629338e-001,
          2.6007739027733462e-001, -4.9176657429108164e-002,
          8.3431777700089416e-002, -1.0922741273218452e-001,
          -7.4821596882179181e-002, -6.4228248264885401e-001,
          9.9430891163153536e-003, 3.7248604349002588e-002,
          3.3025661040238136e-001, 2.7771807144450023e-001,
          4.1818569006806659e-002, -1.9990393114561258e-001,
          -2.6090316380503681e-001, 1.5732286654869973e-001,
          3.4779341929994961e-002, 2.8031318756902945e-001,
          1.5223677396859826e-002, 2.3692185569444055e-001,
          -2.5284598579486389e-001, -2.3204268468651687e-001,
          -1.0683067925085106e-001, 2.1032634941694667e-001,
          -2.0613608629416724e-001, -1.2511662461722703e-001,
          -4.9003857080881413e-001, -1.9653211494060303e-002,
          -1.8525445448006983e-001, -3.1993476591040085e-002,
          1.9295082776851279e-002, 3.7142509166761789e-001,
          -1.7723686368005095e-001, 2.0362272668854726e-002,
          -1.5625724426795320e-001, -2.4718731822542328e-001,
          3.9245045638983772e-001, -1.7606365045239122e-001,
          1.9203513873277631e-001, 1.2335615040348522e-001,
          -1.0254111598938785e-001, -4.7866740804928098e-001,
          -1.1382755221731301e-001, 1.2430748567693842e-001,
          -3.3747968136208992e-002, -2.0024285491707794e-001,
          2.4732824771096010e-002, -1.3153923327680610e+000,
          -1.2638285199382346e+000, -1.3546083698876818e-001,
          2.9419977324228136e-001, 5.2334133308879383e-001,
          3.9673942396437301e-001, 8.7660085660623860e-002,
          -7.3929096328423885e-002, 2.2412697431893411e-001,
          -1.4842546635815357e-001, 8.5092962043358855e-001,
          4.9521340401670853e-002, -9.1602478810507648e-001,
          1.1241425395627408e-001, -1.4593085288717844e-001,
          -1.9109142629215778e-001, 9.7271148452199252e-002,
          6.0544916949593554e-002, -1.0770600256465521e-001,
          -2.9072041961823114e-001, 3.1730997152493740e-001,
          -2.9316790548394306e-001, -7.4829170500355946e-001,
          -5.9078795921004984e-002, 1.6611385583371124e-001,
          1.9613834880867931e-001, -7.9790320222640751e-002,
          9.1888393088443807e-002, -7.6010305190893385e-002,
          1.0003141633995165e+000, -1.9042306058871525e-001,
          3.4772992721082868e-001, 2.9179792938618498e-001,
          -3.2786138267020160e-001, 4.5959853215268701e-002,
          -1.4676870867519282e-001, -1.8881664622017946e-001,
          4.6610474296110024e-002, 5.7170771770550563e-002,
          -1.1792536923440580e-001, -2.2845645797957351e-001,
          3.0592551022232900e-001, -4.9205851970828590e-001,
          -7.3038356841724050e-001, -6.7149146224681863e-002,
          2.6783874430984900e-001, 1.8471286733247239e-001,
          8.0151748747032625e-002, -7.9665612760252857e-002,
          -7.7053299586455765e-002, 3.0820876414651682e-001,
          -1.6597797386385651e-001, 3.1520289577085964e-001,
          -8.8920548862679777e-002, -1.0732186651056934e-001,
          3.7705689393583867e-002, -3.3877325145986148e-001,
          -1.4521690265054621e-001, 4.3023830782253823e-002,
          3.5508345923530568e-002, -1.1665259327910001e-001,
          -1.1393672224214597e-001, 4.1169200512300513e-001,
          -3.3091843092331191e-001, -7.5039250515045086e-001,
          -8.6441287785907442e-002, 2.9697036023799195e-001,
          6.2204394473885427e-001, -1.6694073283532040e-001,
          -7.8623153847467112e-002, -7.1408271191158432e-002,
          2.4954673414061024e-001, -2.3704048511828207e-002,
          3.1620348562076156e-001, -1.0530235436942313e-001,
          7.8127879998246552e-004, 3.8254777589783497e-002,
          -2.9318106878852235e-001, -1.6481931311637860e-001,
          4.8167207147999470e-002, 3.0952258063798054e-002,
          -1.1362619059336765e-001, -1.3673390752983733e-002,
          2.8565795697169716e-001, -3.4856761850877621e-001,
          -7.2064479200125275e-001, -6.0451486650533112e-002,
          6.0263137664346289e-001, 8.1007087248048171e-001,
          -1.7244332601180240e-001, -1.2138554603037280e-001,
          -7.1953897151236804e-002, 2.3639842869749181e-001,
          -3.0799273657689913e-001, 3.5100323097290498e-001,
          -1.3928910548400072e-001, -2.6392110459085910e-001,
          4.0256295179805709e-002, -1.8798495387268327e-001,
          -1.3338972479687541e-001, -8.0428662202647327e-003,
          2.5327008401787532e-002, -2.0203239101749290e-001,
          -2.0341377595634191e-001, 2.0551097458999656e-001,
          -9.0861322881291395e-001, -2.2061146118045294e-001,
          -2.4888770689231825e-002, 1.0089685371671595e-001,
          2.6661713504052897e-001, -1.8330660341556787e-001,
          -1.3206924057917030e-001, -1.7466409292316444e-002,
          1.0556905431106117e-001, -3.6650888814390409e-002,
          5.5626914111324410e-001, -1.3299017950971762e-001,
          -4.3555322130859275e-001, 1.2496122779578862e-001,
          -2.3604828465663186e-001, -2.1587129030177121e-001,
          1.5617904146231465e-002, 2.0283374712198828e-002,
          2.2956471167345288e-001, -1.1321269335295946e-001,
          4.7340165464936537e-002, 1.6928712627424730e-001,
          -1.0925797473845629e-002, -4.6144179729005683e-002,
          -5.9299357021751868e-002, 2.4850354159284582e-001,
          -1.6933092055854804e-002, -1.7183423339349163e-001,
          -2.1594197468645982e-002, 4.1135406785613816e-002,
          -2.0162455887475503e-001, 1.9854604123541583e-001,
          -4.3822290464194849e-002, -4.5809219463218159e-001,
          7.6668833646125950e-002, -4.2795025147147209e-001,
          -2.0739317554402109e-001, 3.8367733717742325e-002,
          2.0457328720245714e-002, -8.1988502451240342e-002,
          1.7478785238293160e-001, -5.9841612982315315e-002,
          1.3783807472053256e-001, -5.2281112015069272e-003,
          9.8165186911431820e-002, 2.6900211932644941e-001,
          -7.9139123909371112e-002, -2.1397954297326560e-001,
          -1.0762926305036760e-001, 2.2907737388531671e-001,
          2.1846227262892887e-004, 2.9310060504046470e-002,
          1.7339479747608171e-002, -8.2447915545235104e-002,
          -5.0204677642492390e-001, 3.7809150375611517e-001,
          -5.4787949934894031e-003, 1.1633544373272816e-002,
          6.0975491294860372e-002, 6.4970293393584372e-002,
          2.1472262619890445e-001, -1.4473849290165325e-001,
          -3.1187632529614712e-001, 1.4301072689544153e-001,
          1.0442481425527060e-001, -4.0771329772461984e-001,
          -8.9334353996157675e-002, -1.0258154044498222e-001,
          9.6763910803299005e-002, -6.1456977081610124e-002,
          2.3358583491626514e-001, -9.2793755699830116e-003,
          1.0186006336730764e-001, -1.3003015507607302e-001,
          -9.3023937583119359e-002, -6.4313594039513339e-002,
          2.1984514477405337e-001, 1.3420436581098838e-001,
          -1.1799367360458546e-001, 1.1094313319137569e-001,
          -1.3207875461011392e-001, 2.3266323582263440e-001,
          -1.8499766869830672e-001, 5.8293102943572830e-002,
          4.7458359139326040e-001, 5.7350000728137951e-001,
          -1.6822642323437068e-001, -9.9690749993162658e-002,
          -2.1158171005605425e-001, 1.6589858449728240e-001,
          1.6068473236482997e-001, 1.1015053054441688e-001,
          3.0443126175855411e-002, 1.0427840838206956e-001,
          -1.0813141197094882e-001, 2.7113614063155633e-001,
          5.7297735077954437e-001, 1.3264059296736322e-001,
          1.4521059373571293e-001, -1.2421006538240466e-001,
          1.1422491123734320e-001, -6.8656234766498986e-002,
          -6.6357978133788742e-002, -1.8331380678894368e-001,
          4.9325492448016310e-002, 3.5380881399490144e-001,
          1.5205057744346953e-001, -1.5675569620770502e-001,
          -9.1312703040507450e-003, -1.2573000536040699e-001,
          1.4086101493147871e-001, 3.2497129501373088e-002,
          1.5270329806462263e-001, -8.0416873833154046e-002,
          -1.4712035800247464e-001, -1.1051733030692031e-001,
          2.1412818082035434e-001, 7.4652186440992929e-001,
          2.1439535199149154e-001, 5.4486616078831658e-002,
          -1.7955475783741673e-001, 1.2129710204920599e-001,
          -7.2106942681738145e-002, 1.4839493233047588e-001,
          -1.9509370960885353e-001, -5.4840418385893597e-002,
          9.7384140793390500e-002, -3.0017868180985241e-001,
          -2.3712258490408669e-001, 3.7959696535890271e-002,
          -2.0427871065828226e-001, 5.0688581962205770e-002,
          1.1264159342514794e-001, 2.2310797382127801e-001,
          -2.0018036512234488e-001, 8.9651170624047150e-002,
          7.2186427319487795e-002, 1.0348065297330630e-001,
          2.8052798979623944e-001, -9.0226000893652777e-003,
          4.1963537537236389e-001, -1.2000802345050189e-001,
          -3.3382263537316909e-002, -1.7745386324581638e-001,
          1.4771406977429744e-001, -2.5315516446662928e-001,
          -6.4631516728814148e-002, -7.5999252478174836e-002,
          -4.8594556865684251e-002, -3.6543903764260410e-001,
          4.0612738217157144e-003, -2.0018492267514479e-001,
          5.0134732945581476e-002, 1.1294947062581077e-001,
          2.2099044420545610e-001, -1.9855664884407362e-001,
          9.5899285196460876e-002, 1.2701401885337721e-001,
          -3.4613892597893513e-002, 2.5365713143495838e-001,
          5.4895236079401219e-004, 5.2184574189557076e-001,
          -1.4579463044889465e-001, -4.1208939619993945e-002,
          -1.8432707502045384e-001, 2.0526160000664331e-001,
          1.2582876593900255e-002, -8.8341326535179732e-002,
          -4.3490465559810643e-001, -1.5723564779388605e-002,
          -2.9780411545439495e-001, 5.5160349759005946e-002,
          -4.7665492684562960e-001, 6.6256178089257101e-002,
          1.1216754939668334e-001, 4.1038627680747598e-002,
          -1.9565901527992408e-001, 1.7252779752754775e-002,
          1.4271156036821575e-001, -3.5646253010790656e-002,
          2.5346480387926451e-001, 2.2067386110186694e-002,
          7.2204174622734363e-001, -1.9841161192591314e-002,
          -2.3343475312915962e-001, 6.8811505445884713e-002,
          2.4693761049089771e-001, -8.6465911101968634e-002,
          -1.3322945328916119e-001, -4.1423332430412113e-001,
          -5.0437369263404246e-002, -1.0899807076866655e-001,
          -9.2778988461403838e-002, -1.2734974602923601e+000,
          3.6998093834226720e-001, -1.4440242772987658e-001,
          2.3504703048469497e-001, -1.1754426908151662e-001,
          1.4107245856727374e-001, 3.0001834815704159e-001,
          -1.3933114664522689e-002, 2.1139333934151341e-001,
          2.1394394719160398e-001, 1.5231660018980656e-001,
          -8.3499381130918045e-003, -1.1636597447642198e-001,
          -5.1107896562501295e-002, -9.1941647130507426e-002,
          -8.0854898589853308e-001, 5.9798971228113473e-001,
          -1.1094761367649006e-001, -3.1533485488768126e-001,
          1.8322655925954431e-002, 4.9400569016176060e-001,
          -7.6501966326542922e-002, -2.0803014469162953e-002,
          -3.5689684994026966e-001, 5.0472146484537621e-002,
          4.8480481267110576e-002, -5.1435582669740099e-001,
          7.2627216734553679e-001, -1.8066408119935443e-002,
          2.3015190921148117e-002, 1.7621181476347583e-001,
          -1.4230490016824212e-002, -1.6500515064666179e-002,
          5.4923759250610417e-002, 2.1409377308567007e-001,
          -1.2397070704448060e-001, -1.2312255342979714e-001,
          3.1451683602081065e-001, -5.1161965200584414e-001,
          -3.9403655140811977e-001, -2.1446268635041166e-001,
          4.7595703485485136e-001, 1.9167649348273938e-001,
          -6.8348160572253513e-002, -1.0156842972836348e-001,
          3.2201776800456039e-001, 1.5611166998669124e-001,
          -9.9742013777401495e-002, 9.7081532513967028e-001,
          -1.7474622537342968e-001, -2.6647092476993134e-001,
          5.1604245879996825e-002, -2.3428678158457519e-002,
          1.0254136556013319e-001, 7.0303265150445812e-002,
          3.2099536970446119e-003, -1.0707475055577462e-001,
          -6.3218953922603259e-003, 4.7091010674927660e-003,
          -4.9995925503321670e-001, -7.3186451865445445e-001,
          -7.9374373677948251e-002, 7.7313346277925621e-001,
          5.7525959742891353e-001, -7.1612962752358775e-002,
          -9.1866078556302869e-002, 1.0284856467275827e-001,
          2.1519821115592322e-001, -1.2054693966185497e-001,
          3.5359409761755212e-001, -3.8338729102758295e-001,
          -1.2133536749124502e-001, -3.5603959037273081e-001,
          -1.8245124331120627e-001, 1.4383785339764890e-001,
          5.0401144066392629e-002, 1.3949463590993694e-003,
          -1.1347221538895866e-001, 1.1613414083000255e-001,
          2.4250014068919499e-002, -4.8244508759640276e-001,
          -7.7923496897376454e-001, -9.2813708384274968e-002,
          3.7231382816790920e-001, 2.0137536763086841e-001,
          -1.5511657399438589e-001, -9.4077375108990766e-002,
          1.0386508016549480e-001, 1.1388592506172175e-001,
          -1.2628847137225138e-001, 3.4227635177818638e-001,
          -4.5040971326571966e-001, -2.7290149248749468e-001,
          -3.5194843899960404e-001, -3.2358119626341858e-001,
          8.9499402699329128e-002, -1.9424497436567384e-001,
          2.6657362129668780e-002, -1.1364844587176222e-001,
          1.4602060306777592e-001, 7.4790050522317075e-002,
          -6.0773753418471088e-001, -7.7784835936127172e-001,
          -1.0784271724133751e-001, 5.4977380240061047e-001,
          5.5578515341373469e-001, -1.6595988817767562e-001,
          -9.9409878247043212e-002, 1.3402768279656105e-001,
          1.1267622278975974e-001, -1.4003022203035415e-001,
          3.4726159273622881e-001, -2.6767544508608854e-001,
          -2.3317108745468410e-001, -2.9561646497587141e-001,
          -3.1479596322346365e-001, 1.4894988391323392e-002,
          -1.1786473944729894e-001, 3.3888446691311434e-002,
          -1.4990010427592876e-001, 3.1770846730489877e-001,
          6.8517679031623191e-001, -2.1623327547844032e-001,
          -2.8002594859186808e-001, -1.2390194611504637e-001,
          4.6249770816048652e-001, 2.7096379987476404e-001,
          -1.7186881316990499e-001, -1.1738487121041553e-001,
          -3.2527076180691172e-002, -9.6684222491074320e-002,
          -1.4893008585705181e-001, 1.3987850073998014e-002,
          -2.3772332668058199e-001, -2.1877825602684284e-001,
          -2.2572785004033341e-001, -2.1179716404810778e-001,
          -1.7120716129385283e-001, 3.6334406730435642e-002,
          2.2608530049935516e-002, -4.6342692852603368e-002,
          -3.7126181117169178e-002, -8.3321144805169039e-003,
          1.2055594276017410e-001, -8.8194932029867362e-002,
          -1.8497004108070528e-001, 4.7125250261258561e-001,
          2.0305754125882128e-001, -4.6374077782031542e-001,
          -5.4981338933118318e-001, -1.1671037569219739e-001,
          -1.5311392769253031e-002, 4.5406838367830088e-001,
          4.7299679064435185e-001, 2.0362608026630363e-001,
          -1.4386957823246849e-001, 1.1073438212713928e-001,
          1.3377323148859843e-001, 2.6807509557021256e-002,
          2.4533596928135454e-001, 7.7964212490455057e-002,
          1.8204126181076413e-001, -1.3855586933964278e-001,
          -2.8505858026813030e-001, -1.3967163378649349e-002,
          -2.9567766751121263e-003, -3.8336767653677473e-001,
          5.0296317731912121e-001, -7.6599451487916109e-002,
          -2.7532752361914020e-002, -1.6738448073221052e-001,
          2.7793932789134241e-002, -1.0500689377259854e-001,
          5.3036680943981007e-001, 9.0539320135133453e-002,
          1.8870772544214681e-001, 3.9444637888990741e-001,
          1.8167861701930321e-001, 1.9876288670066578e-001,
          6.0551974446083595e-002, -8.0890795323839373e-002,
          2.9366111617168744e-001, 1.7909686744501221e-001,
          -7.7272837579526610e-001, -2.9150633798759223e-001,
          4.5979103923419379e-001, 1.0559778991594210e-001,
          -1.0127674950279972e+000, 3.3724034921502727e-001,
          -2.7361734704666824e-001, 6.0220342198507040e-002,
          -1.3848777228849496e-001, 1.3968292987181957e-001,
          -6.0315431900230039e-002, 1.5735275745666055e-001,
          -1.3808986670117099e-001, 1.8894681441072048e-001,
          3.3147510447741135e-001, 6.7955500951176626e-002,
          -4.2641469510440184e-002, 3.5868114778031146e-001,
          1.0093860604128653e-001, -9.9308033117864000e-002,
          1.6898108738638437e-001, -7.6873777188757464e-001,
          5.9328984396414160e-002, 4.7659143013836108e-001,
          2.7653778142848920e-003, -1.0481468863636834e+000,
          2.9177040957184858e-001, -5.2110731916535835e-001,
          1.0822033019272126e-001, 9.5272174033040641e-002,
          1.4190146177989549e-001, -8.2891160050135734e-002,
          -6.8637757920849016e-002, -2.2671795029678036e-002,
          2.5561615689035772e-001, 6.0359604954385770e-001,
          1.0432451606340187e-001, 1.1447131559821705e-001,
          1.8077304444507403e-001, -5.8849227106195633e-002,
          7.3614842276502612e-002, 1.3644259360910255e-001,
          -5.3690625936324432e-001, -2.4797535930870210e-001,
          5.9070113128786439e-001, -3.6703181467463007e-002,
          3.4464177037781801e-001, 8.0095206538908315e-001,
          -3.1168102216697857e-001, 7.2291122340964728e-002,
          1.8723119507028907e-001, 2.2593933309891698e-001,
          -1.7005112851744089e-001, -6.5797864187500180e-002,
          3.3352705754861038e-002, 4.4359047534796400e-002,
          6.2593175848744742e-001, 2.3297694881986780e-001,
          4.2472526283544548e-001, 3.1695352455206972e-002,
          -2.2663964926601745e-002, 3.3672167986630319e-001,
          1.8809639266699443e-001, -1.0249267204988632e-001,
          -5.4376904320148078e-002, -1.6240541802521793e-002,
          -2.6706477479712110e-001, -2.4239850183302225e-001,
          1.9443515038283971e-002, -2.3252617081541321e-001,
          -2.9378082127949678e-002, -2.5234834233212433e-001,
          2.1585858478690434e-001, -1.9826110651097700e-001,
          4.0316478330402838e-001, 1.5340141178507119e-001,
          -2.9060902441479445e-003, 5.1359720214134164e-001,
          2.0766574994886983e-001, 4.7045509821731679e-001,
          -2.9234332889485411e-002, 1.7531494330294969e-001,
          -2.6689054911712656e-001, 1.8561440549034941e-001,
          -1.2838952164828461e-002, 5.2003354779448174e-002,
          -1.3393794753422592e-001, -1.5206671115477602e-001,
          -2.3455387598716657e-001, -1.1091223383623821e-002,
          -2.2903972147083795e-001, -6.8874888280433515e-004,
          -2.6840423850762213e-001, 7.6665734612073377e-002,
          -1.9595978960031532e-001, 6.7484468929208807e-001,
          3.5946369683240225e-003, -8.6652671178315779e-002,
          4.6881181422548712e-001, 2.2717180322516270e-001,
          4.5106638445036762e-001, -1.8334580748835108e-001,
          4.4884015967714574e-001, -4.7105912141288302e-003,
          -1.2188545044815528e-002, -7.9437309494688316e-002,
          1.7274502239357567e-001, -3.0466854885624894e-001,
          -9.8960848050353864e-002, -2.8918038095535259e-001,
          -4.0783496923051825e-002, -3.5837698199286755e-001,
          -7.0635021498952734e-003, -1.6015407586602520e-001,
          7.3799218585906129e-002, -1.9348251852722256e-001,
          2.4317484900891634e-001, 2.1852923802825369e-001,
          -1.0329815275918104e-001, 4.4550690095926526e-001,
          7.2767719990197133e-001, 3.4384634777935436e-001,
          -9.2531791015293130e-002, -1.3655939161400760e-001,
          -7.7071456162688567e-002, 3.2236503870413447e-001,
          -3.6208599775536221e-001, -1.3680625498904092e-001,
          -3.0764757207847332e-001, 9.2801113067935304e-003,
          -5.1570366640077103e-001, 4.2041361926841480e-003,
          -4.7131293861749313e-001, 2.6225999306565817e-001,
          -6.7650882554385749e-001, 2.6160217098960203e-001,
          -1.8061635162241799e-001, 5.2191133261359524e-001,
          -7.3000174599755135e-002, -1.6778364426998688e-001,
          4.3099850194623485e-001, 5.6009421288483918e-001,
          5.5611388546510643e-001, -2.2491323209278952e-002,
          -2.2691586319269454e-002, -4.9384713256930518e-001,
          -6.9358637001414425e-002, -9.7778712283904959e-002,
          -2.7329393890409118e-002, 2.0578794960586941e-002,
          -3.2156023858728533e-001, -1.9876998866932225e-001,
          4.4258299161301518e-001, -1.4130044988719115e-001,
          -2.9478010674539819e-002, -5.0067061182441475e-001,
          3.0793712105964176e-002, -2.8236909841260909e-002,
          1.9920716556667517e-001, 1.3449423240946110e-001,
          -9.3027922003080105e-002, 1.5732227041541872e-002,
          1.5208141007348147e-001, 1.7362308203833549e-001,
          2.0667596332700494e-001, 3.2478021426327663e-001,
          -1.5574309214831694e-001, -1.2813611450835471e-001,
          -1.5557195671042032e-001, 2.9903773491896052e-001,
          -1.5702024567044012e-001, -2.9735836630098644e-001,
          -1.1739394518424008e-001, 4.3673466958795604e-001,
          3.9996962924149615e-002, -8.7887395892102649e-002,
          -1.2930219585900887e-001, 1.8741159066549030e-002,
          -5.4484978139187852e-002, -2.0631546502363543e-001,
          2.1935897552532460e-001, -1.1286494160953755e-002,
          -1.3804350498377257e-001, -1.8944694487650593e-001,
          1.0899574185867400e+000, 9.7980310103918208e-002,
          -8.0183307491601102e-002, -1.0198500211331633e-001,
          -3.7567474609953783e-001, 1.4202523119412709e-002,
          -6.4673925447385316e-002, -4.8049649301876923e-001,
          -2.7776365325621938e-001, -5.8312679466488916e-002,
          2.0193997149712919e-001, 9.9948847433988228e-002,
          -1.0832296510380424e-002, -1.0055895476617915e-001,
          1.8789365981618655e-001, 2.1183576351476027e-001,
          -1.1247118788000986e-001, 1.7765128013801926e-001,
          -2.1849472965499434e-001, -1.2035489884196383e-001,
          -3.5999588903307445e-001, -1.2491600989359067e-001,
          9.6669108900743733e-002, -9.2070982548542943e-002,
          -1.8235506721151649e-003, -2.2992877431717412e-001,
          1.1605700870092311e-002, 6.4178356372295256e-002,
          -4.0421560521539224e-001, -2.7354426239600516e-001,
          2.3882422206339380e-002, 2.0151175487548839e-001,
          3.1057031054444167e-001, -1.1106464493050487e-001,
          -1.1953419381072096e-001, 1.2564900629073381e-001,
          2.0099937747046226e-001, -1.2265988859355992e-001,
          1.7459889332901671e-001, -3.0121911823061293e-001,
          -1.7412912505163783e-001, -3.5251736595517852e-001,
          -2.0821890525700087e-001, -3.7852731782201290e-002,
          4.6477976265092306e-002, -5.4635032477266705e-003,
          -2.3387131830404517e-001, 1.1205616003497880e-001,
          1.2450414221935009e-001, -1.0807825870631169e+000,
          -2.9353049748897148e-001, 2.4091880190180916e-002,
          3.1968501697355117e-001, 5.9726958583192269e-001,
          -1.7802643460155373e-001, -1.0263273483712183e-001,
          -2.6510609399269058e-001, 8.7269679220738181e-002,
          -1.1995697717954952e-001, 1.6926842325058453e-001,
          9.5454550259274476e-002, -2.1116993480616930e-001,
          -4.5183535794153318e-001, 1.1337995761669203e-001,
          -1.8841661175176805e-001, 1.6699166045733485e-001,
          -4.5470538732461055e-002, -5.9039249930915909e-002,
          6.9590194281970708e-001, 1.0857593518293114e-001,
          1.0965979700188570e-001, 1.9331620020815346e-001,
          3.2476606414909501e-002, 2.4817490845606072e-001,
          4.1850583967621169e-001, -5.5262218824577464e-002,
          -9.7569994433870308e-002, 9.7898077642101872e-002,
          -1.3196916507043580e-001, -1.3758335414440259e-001,
          1.7953906040726009e-001, 9.0871687102626997e-002,
          -1.4092307133585960e-001, -3.2709163442728023e-001,
          1.7933335302596309e-001, -6.7495818759210113e-001,
          4.1011127772274930e-001, -2.1379549413759161e-001,
          3.0105076977367012e-001, 1.0460093427963888e+000,
          -6.7461035111909462e-003, 2.7588227185644432e-001,
          4.3155585068793667e-001, -8.4415455768745123e-002,
          7.7857494141037042e-002, 1.1175965749023507e-001,
          -4.0035807768081294e-001, -1.1739116038280211e+000,
          -2.0790063698585055e-002, 3.9106866613648678e-002,
          4.3784560692286417e-001, -7.3542316349371598e-002,
          2.5645691927019160e-001, 1.2061117958910744e-001,
          -5.6922663711757394e-002, 2.5783029752579018e-001,
          -5.9692397281961865e-002, 4.8807020005282731e-001,
          -7.2719889760628809e-001, 3.1195419104542726e-001,
          -3.1123474990152206e-001, 6.6349026564030522e-002,
          -4.0198555558912781e-002, 2.7968037173203625e-001,
          -8.1518796379813507e-001, -1.9737883297157174e-001,
          -2.3075952113911585e-001, 7.3964329415310490e-002,
          -1.3206144671382222e-001, 2.1442282559081172e-001,
          -6.6091676322976661e-002, 5.3680074023921587e-001,
          -1.1504886205068007e-001, 2.1773692148639687e-001,
          9.6584703181433529e-002, 2.0342234021225650e-001,
          3.5262475852850578e-001, -9.7875547741097677e-002,
          -8.0722916717546167e-002, -2.1778084204826582e-002,
          2.5617981808997031e-001, -3.5507804509424346e-001,
          5.7746083135028763e-002, 2.0963225703118588e-001,
          7.2973849146061176e-001, -1.4182567204731995e+000,
          3.2279645016870701e-001, -3.5066684513974938e-001,
          7.6851682394208851e-002, -1.2610360694137468e-001,
          1.5181863766706633e-001, -7.0338848397279913e-002,
          2.5027935305641813e-001, -4.3369303855643038e-001,
          1.9434629763833859e-002, 3.2334317975475863e-001,
          1.3945006526155471e-001, 3.9250179049330845e-003,
          3.4456921367569543e-001, -2.8207484766551444e-001,
          9.6414373662817202e-002, 1.3678537744044839e-001,
          -2.8816101281881157e-001, 1.4203653436807370e-001,
          3.6049176636262459e-001, 2.5888689029317383e-003,
          -1.2677131756058810e+000, 2.7646279086111863e-001,
          -4.0699212599554274e-001, 2.3824579764287981e-001,
          8.9709573364629078e-002, 1.4312195123123697e-001,
          -8.2242135669255964e-002, -2.0340572800036991e-001,
          -1.1100119957336799e-001, 4.0876250268295826e-002,
          6.8292518931768620e-001, 3.8014453673794674e-001,
          1.8887942349726312e-002, 8.8210251487729596e-002,
          -6.2283082122799427e-002, 8.1564953547923910e-002,
          1.3693791865819177e-001, -8.8267461552843751e-001,
          -1.1936731065018716e-001, 9.5615954789405502e-002,
          -2.6427969683788632e-002, -1.1483143156463227e+000,
          1.9652809784624103e-001, -9.0127135736599173e-001,
          3.8867779450020401e-001, -2.1182592769662351e-001,
          7.6566591279971830e-001, -7.6241077590141274e-002,
          -3.6703033023418275e-003, -1.0419590663789442e-001,
          4.6552677373762952e-002, 6.9951197097176032e-001,
          3.7910094190494747e-001, 6.4285909995900087e-002,
          9.0675769226151615e-002, -5.4650620988298725e-002,
          2.8752289457416513e-001, 3.8854502571249450e-001,
          -3.6659301960836999e-001, 1.8034874889073507e-001,
          3.2375142524684369e-001, -2.0455303019132887e-001,
          -2.2460686441603067e-001, 6.2039955399344926e-002,
          -2.2111476768891480e-001, -1.2689624892814955e-001,
          -2.4929803380495830e-001, 7.0537534527063162e-001,
          -1.3160812355425375e-001, 3.8214838638592408e-001,
          2.8257101805732009e-002, -7.4511799059409023e-002,
          5.5406348723621279e-001, 2.0179381408087260e-001,
          1.1156719862188840e+000, -1.1342628349268449e-001,
          4.4124287843895449e-001, -3.0183238542265939e-001,
          1.1960913717120131e-002, -1.2312993441489969e-001,
          -7.0489290060961926e-002, 2.5480982670142915e-001,
          -1.5003903359158935e-001, -2.4684369525923283e-001,
          -1.8651923131194913e-002, -2.9523040998655703e-001,
          -1.1999505026175838e-001, -2.6178870776302454e-001,
          7.0724084140915244e-002, -1.3451288029599243e-001,
          5.6946726715865392e-001, 3.3239538712719605e-002,
          1.5084196248506471e-001, 4.5312546985395447e-001,
          2.2548339355574701e-001, 1.0342992004144613e+000,
          -1.1854066576571448e-001, 1.3392270618255894e-001,
          -2.5490749525722839e-001, -7.4528505384587537e-003,
          2.3474989115693976e-001, 8.2441336157677778e-002,
          -1.7817951930043524e-001, -3.9317464084488232e-002,
          -4.6605895969065461e-002, -1.5232027315961927e-001,
          -6.6494149258440194e-001, 4.8838564638487264e-002,
          -2.0516203839420938e-001, 1.8398717369625356e-001,
          -1.2968893670787274e-001, 2.4477051460575144e-001,
          5.3922094316068170e-001, -5.3257972838684768e-002,
          2.0294249311157233e+000, 3.3129724544646300e-001,
          1.0930138559410802e+000, -1.0790573409572699e-001,
          -2.6128734720889526e-002, -4.7043488181106083e-002,
          3.2259761129904757e-001, -3.1380004972108400e-001,
          -1.3676196192661236e-001, -1.8280749473552413e-001,
          1.0199646221085278e-002, -1.2550766276409095e-001,
          1.0877670020324373e-001, -3.0821081854522453e-001,
          2.5901157189666590e-001, -8.0705986105659278e-001,
          2.1764234863440796e-001, -6.9699117200001243e-002,
          7.0567662621782368e-001, -1.9839167211993322e-001,
          -9.9630066603313527e-002, 6.5609862448572798e-001,
          3.7447797607225092e-001, 1.7707135708269630e+000,
          1.9271844297107660e-001, 1.6685764242985145e-002,
          -3.9590608453381099e-001, -1.2053998987944452e-001,
          -1.0696299423996784e-001, -3.8032891393551697e-002,
          -2.5852459845104597e-001, -4.7780141013589361e-001,
          -2.0898850084182163e-001, 3.6369781378734728e-001,
          -9.3815404659034915e-002, 4.7582250767642570e-001,
          -9.6606565189710314e-001, -4.1717375644095528e-002,
          -1.9398289166031334e-002, 3.7335553501059643e-001,
          -5.5624499539825276e-004, -1.1560926619898537e-001,
          1.9896938550671057e-002, 1.7376775130931466e-001,
          5.9676646001370813e-002, 3.0200478069171882e-001,
          1.4685246174210620e-001, -1.4585051323820852e-001,
          -1.7394287799883390e-001, -8.7972836956153641e-002,
          8.9186190581014413e-001, -3.9124240418104178e-001,
          5.8554320256833603e-002, -8.5279499002794246e-002,
          2.3457130945569649e-001, 3.6956411354101444e-002,
          -2.1743548730698777e-002, 2.0339694899381608e-001,
          -3.3942816971339537e-002, 1.4037819211168256e-001,
          -1.9922278284103626e-001, 1.8212642820621905e-001,
          2.9528141068370570e-002, -1.3491831774969562e-001,
          -3.8391019867278664e-001, -3.5166947539744164e-001,
          3.5433364300153752e-001, 5.8554183517621497e-002,
          -1.2892724906595301e-001, -7.7315831265613677e-001,
          -1.3172670898185557e-001, -4.8075489395450388e-001,
          -5.8671775453052177e-001, 1.5973451014174656e-001,
          2.8857065224967993e-002, 2.2516084466193512e-001,
          8.5014610256313017e-002, -2.6699820384228651e-002,
          2.1355914504001955e-001, -2.6488949763877334e-001,
          -1.3422549367158797e-002, -1.1043843809609279e-001,
          1.7450882794490180e-001, 5.2259312738321136e-002,
          -1.8193504052785731e-001, -4.7729061963521341e-001,
          -2.7021394576407737e-001, -2.4140766982513689e-003,
          4.0145950437596702e-002, -9.6997814492682702e-002,
          -3.0545120044853863e-001, -3.2363395425155317e-002,
          -4.1037783531596661e-001, -5.6711647290607448e-001,
          1.5737783027362859e-001, 1.0038683586591789e-001,
          5.2202102248207982e-001, 1.0135662237360606e-001,
          -1.1994119807688630e-001, 1.6976372311041804e-001,
          -6.1234016666027924e-001, -1.0128944411855398e-001,
          -1.6048474097146795e-001, 1.7180106754952085e-001,
          7.7457465200942752e-002, -2.4777217149570496e-001,
          -1.4052019681410788e-001, -2.0451493322749467e-001,
          -1.7847308047768708e-002, 1.6405574111966786e-001,
          -8.4695530122724225e-002, -2.3132902066384853e-001,
          5.1817514193395871e-002, -4.4659032257257381e-001,
          -1.0297744335120476e-001, -2.1832776341836311e-002,
          -4.3493301126830940e-002, 5.1290794073314305e-001,
          9.4996405691174249e-002, -4.4130991018298921e-001,
          1.9506965416683344e-001, -1.5210435904243449e-001,
          -1.5934329283436779e-001, -1.3893859938638370e-001,
          1.6318937504033060e-001, 4.1564343339454107e-001,
          -1.4930982374194160e-001, -5.8928720687372071e-001,
          -2.5047859091970875e-001, -7.1772026628259578e-001,
          1.7238745603526617e-001, -9.1209246829346835e-002,
          -2.3863149554997570e-001, -5.3638099487125404e-002,
          -1.3424127495225620e-002, -1.5972222997607979e-001,
          1.4100082121322438e-001, 7.5219809055709144e-002,
          7.1195136302109815e-002, 3.4048119214249425e-004,
          -6.5046822324084763e-001, -1.9441887727849456e-002,
          -3.0634333298201427e-001, -8.5060365353541820e-002,
          3.8097066625453774e-001, -1.2896712923482084e-002,
          4.1521405511467441e-001, 1.0565709446344651e-001,
          -7.8172056002882229e-001, -3.1297725733118109e-001,
          5.0920296106589591e-001, 1.7613081140865294e-001,
          -1.1604865115154871e-001, 7.8318432476901789e-001,
          -1.5192198956827141e-001, 7.5125797746085091e-002,
          4.8208660076315669e-002, 2.0695606381722256e-001,
          6.6796304819883370e-002, -6.6060825426717873e-002,
          -4.5383902015741669e-003, -1.6729135935934336e-001,
          -1.5313760793554299e-001, -2.4399531115728939e-002,
          -8.3197139674765955e-002, 4.6241346815770851e-001,
          -6.6622879055541609e-002, 2.1391611932752261e-001,
          1.1219578654086405e-001, 3.9441466845941320e-001,
          -9.7157429604948928e-002, 2.3478494693489907e-001,
          1.6434859823953182e-001, -1.9816241634652623e-001,
          7.9694273535018534e-001, -3.1107208400635583e-001,
          7.2570872115997206e-002, -6.4210237578753590e-002,
          6.6840400697229119e-001, 5.6959141732589536e-002,
          -1.9365737269289199e-001, -1.3733725940819936e+000,
          7.6099365623164342e-002, 2.8566278492996408e-002,
          2.2689104143299577e-001, -7.7983214758001185e-002,
          4.5191705179317671e-001, -1.0872345282415003e-002,
          -1.0532359233120749e-001, -1.9277285878176026e-001,
          3.3025255874177611e-001, 2.2292168289368788e-001,
          5.2078328408424723e-001, -7.5568753160279056e-002,
          -4.3693282074089823e-001, 3.2618454471183433e-001,
          -2.6779845958461501e-001, 2.4143585726843933e-001,
          -1.2902881137588395e-002, 2.4902036572843531e-001,
          -1.9009259938011247e-001, -1.8338700623161400e-002,
          -2.5884079804236226e-001, 2.8041144966635007e-001,
          3.8269004296834927e-002, 3.0971317285955230e-001,
          -9.2575566548179722e-002, 3.6490176048456885e-001,
          -4.1337077998626320e-001, -1.8103105308582945e-001,
          4.7519609956952383e-002, 1.4367537502421493e-001,
          6.8236300745266529e-002, 1.4160613499826855e-001,
          -2.8198464106895893e-001, 8.6009751789491551e-002,
          2.3978027918732298e-001, -2.6968321631181158e-001,
          2.5485776962882173e-001, 3.3996101992288065e-002,
          5.0373824003087408e-001, -6.2596981366242546e-002,
          3.0607475299766174e-001, -2.5311643701420611e-001,
          2.6772453682234676e-001, 1.4331403565829565e-001,
          3.0528957268693790e-001, -9.6297884177708695e-002,
          3.5126352063540534e-001, -4.1079934044703226e-001,
          2.8683836843497852e-002, 4.3009568383018427e-002,
          2.7937165221109278e-001, 5.6748872279968561e-002,
          -1.1963345856756631e-002, -5.0288257077593115e-002,
          3.0746370537034894e-002, 2.3451033560233764e-001,
          -5.6794922683084637e-001, 3.0041292813327647e-001,
          7.1405264311402594e-002, 1.2313658286081630e-001,
          -5.5708672235363715e-002, 2.4432715424581800e-001,
          -3.9582929587094579e-001, 2.8277991462031093e-001,
          8.0457245668070804e-002, 7.6540213554159098e-001,
          2.5588516974196251e-001, -1.5534933270088400e-001,
          -1.6929421037069600e-001, 5.7165450386414046e-002,
          6.8214215652983923e-001, 3.4065597728635144e-001,
          4.7793867629631268e-002, -3.7742369020273933e-002,
          -3.2664125029250318e-001, 1.4911130624494634e-001,
          1.0806795553389184e-001, -1.7653201527867435e-001,
          5.3436754069580539e-001, 3.0177949077505101e-001,
          -2.2710155362676912e-001, -6.1512951946262891e-002,
          1.4338148636176277e-002, 6.6015514216238663e-002,
          -9.8440047849056328e-002, -2.6656593913122167e-001,
          7.1170107195852761e-001, -1.3275609611490699e-001,
          3.9114990896733742e-001, -1.6965209747747936e-001,
          -3.3665681549841386e-001, 3.3582039449067974e-001,
          4.9008085187777495e-001, 9.0201479421529385e-001,
          -1.4463683290711749e-001, -2.2927829106081418e-002,
          -2.5950849947667531e-001, 8.1028266741241084e-002,
          -1.1744587388932873e-001, 7.0800856116938149e-002,
          -1.5155120500928224e-001, -1.5081985429908321e-001,
          -5.9459139089114335e-002, -2.0861953333483607e-001,
          4.5091858063998014e-002, -8.3932646869204555e-002,
          -2.5555364832133376e-001, 5.8005260725662100e-001,
          -1.2695174818547361e-001, 5.7577515384155975e-001,
          -1.6050250478629069e-001, 3.9359117386236819e-002,
          2.5885233409996972e-001, 5.4434690544918807e-001,
          8.1903197820068607e-001, -1.0408169695215003e-001,
          -1.9914845691182303e-002, -2.5178879367155160e-001,
          2.2091173525062474e-001, 2.2010722656051029e-002,
          1.0161432534627325e-001, 1.3868282339560645e-001,
          -1.2645954701569256e-001, -1.3924372908432886e-001,
          -2.9077918722874191e-001, 9.8899270748640331e-003,
          2.1071980303332322e-001, -2.3953990379158632e-001,
          1.7001402894937098e-001, -1.2733797424549287e-001,
          3.5454961879887670e-001, 2.2571271829854508e-001,
          -3.7893055368989667e-002, 1.9110944030529342e+000,
          5.6667335752575776e-001, 4.9158211224211185e-001,
          1.7900027988202621e-001, 1.2971250803411935e-001,
          -8.1029961869910308e-002, 2.6608999448153414e-001,
          4.9073708978593436e-002, 1.0657809961729335e-001,
          1.1382308764143234e-001, 4.0035716379041818e-002,
          2.0678822758932670e-002, 7.7509220638954976e-002,
          -9.3090771640336190e-001, -3.2553075660577191e-001,
          -6.2802279859051757e-001, 1.6589761081222032e-001,
          -9.0557339964119563e-002, 6.8698378769041057e-001,
          -2.7693383982964576e-001, 1.6060893144249022e-001,
          6.4954812932009676e-001, 4.9240553688392552e-001,
          1.8614351723939859e+000, 5.7696454483076287e-001,
          2.6919899724942059e-001, -2.9795869449479118e-001,
          -9.6230581687619818e-002, -1.0690087883770653e-001,
          -3.6580196096339695e-001, -2.2076698944310955e-001,
          1.5568752658604612e-002, -1.2887713904962375e+000,
          2.7606211055540814e-001, -6.1466168626026121e-002,
          -1.7796243537223158e-001, -1.1115392041466002e-001,
          -5.1888835239272152e-002, -1.7297792329953240e-001,
          3.7413109072226913e-001, 5.4776542210082900e-003,
          1.0317550244290212e-001, 4.4617238557131755e-001,
          -6.0364578355716791e-002, 1.1196479529316669e-001,
          1.5961052126867803e-001, 6.8138775365958371e-001,
          -1.2446733155076911e-001, -3.1758709365417948e-001,
          -8.3373412535552707e-002, -2.1165917380622237e-001,
          -1.8534874443676083e-001, 6.5350921340162002e-003,
          -3.6652664003945162e-001, 5.5200688951069721e-001,
          5.6046076845958248e-002, -1.3989891177342861e-001,
          2.5688163864410762e-001, -2.4264530629006920e-001,
          9.6871473764013147e-003, 1.0246299049007837e-001,
          -6.5845483704523892e-003, 5.1632088420204086e-002,
          1.2958689912693933e-001, -5.4623725812869076e-002,
          -2.1050259530473903e-001, 3.5469494303551835e-001,
          2.0295999269795240e-001, -9.9128150047301022e-002,
          -3.1737350404512210e-001, -9.9854415412742745e-002,
          -2.1489845222738960e-002, -1.0635493269026422e-001,
          8.1813241394291594e-002, -2.6091357186111430e-001,
          7.1213640869185996e-002, -1.4833651341206008e-001,
          -1.7050594094524882e-001, 2.3356786948862482e-001,
          -3.8632645622700812e-001, -1.3092285945716101e-001,
          4.0324170739464413e-002, 1.6873423719012609e-001,
          5.0446553341556823e-002, 4.7349091518885826e-002,
          -4.0828096216237136e-001, -2.1494548684185438e-001,
          -6.9360910966008715e-002, 1.9308028868345503e-001,
          -9.9688132508844868e-002, -2.6848176614913777e-001,
          -1.0801225284495108e-001, -2.3630476330074018e-002,
          -9.8536388723937884e-002, 8.3653705024106670e-002,
          -2.6069610485164663e-001, 7.3564648390925677e-002,
          -1.3834241747570791e-001, -4.4389898058483029e-001,
          2.0861570487127065e-001, -4.1652917351454322e-001,
          -1.2218702242131624e-001, 1.2828108955911424e-001,
          1.6358979665667367e-001, 3.6837477840226035e-001,
          6.7036313051937149e-002, -4.4451752019165602e-001,
          -2.3026275055455264e-001, -2.2422375723102198e-001,
          1.7791295668845317e-001, -1.2083278272717070e-001,
          -3.0033212672948462e-001, -1.0623388755761611e-001,
          -3.0109261787376704e-002, 1.2412094548196291e-001,
          5.7569343962931827e-002, -2.4895181757373733e-001,
          6.3107765780005237e-002, -8.6762736988970093e-002,
          -5.6410595964662325e-001, 2.9019813614564555e-001,
          -4.1610417021784868e-001, -4.4214178921847491e-001,
          9.9036732808870556e-002, 1.5690459622179473e-001,
          4.0940670097484699e-001, 9.0672654849593373e-002,
          -3.8068858266000011e-001, -2.6916381117321175e-001,
          2.0446714594438553e-001, 1.8180548049207032e-001,
          -1.2138618926271587e-001, -8.4869580905773664e-002,
          -3.3777391371543022e-002, -3.5536486006954235e-002,
          -3.2342120747172617e-002, 7.8687302868989326e-002,
          8.3202310611242641e-002, 2.5226163948278441e-001,
          -4.1289476579305945e-001, -2.2395158006682592e-001,
          4.0654590368877599e-002, -1.1419394387832038e-001,
          -3.4695852389815274e-001, 3.7954587505774912e-001,
          -1.6046917911216159e-002, 4.2427884663291188e-001,
          5.1913072490172768e-002, -3.3914157366221326e-001,
          -3.5423595213722037e-001, 6.3652845064841390e-001,
          2.0225914135701958e-001, -1.0258645673199632e-001,
          7.6095372690680363e-001, -5.6005169578197705e-002,
          8.2334082939145396e-003, 1.3851183906974301e-001,
          4.6650877042096625e-002, 6.5469656408262869e-002,
          -2.7746508566331436e-002, -4.5797566893258590e-001,
          -1.2094235332966674e-001, -9.0862834498431480e-002,
          1.3400597942510353e-001, -6.8519344896420448e-002,
          5.1095028270870779e-001, -7.1744860198324573e-002,
          2.2618114448168655e-001, -8.4265224567545649e-002,
          -2.5710268181209256e-001, -3.6712987110151141e-001,
          1.1123096280050029e-001, 1.9588826172498128e-001,
          -2.3694676371929083e-001, 6.4224054559353250e-001,
          -3.0724734808841381e-001, 6.8148099575242149e-002,
          1.0212217947369810e-001, 5.3004494506684641e-001,
          4.9828069541269046e-002, -2.2865537986480224e+000,
          -4.5963616330505791e-001, 7.3844379271720592e-002,
          4.0458130435093734e-002, 5.1033312266093055e-002,
          -7.6331885209037345e-002, 5.5107760140503204e-001,
          -8.4235461213448370e-001, -3.2784682568396790e-002,
          1.2502073052402679e-001, -1.3462998235988194e-001,
          9.3735566934954773e-002, 2.2107915773649894e-001,
          -3.3670989818962577e-001, -5.9029912001536800e-001,
          3.4910931112705729e-001, -2.7002780768286927e-001,
          8.8035527487019399e-002, 2.2931008228519303e-001,
          2.3487914431590060e-001, -5.0783584653079424e-002,
          -2.5463284542609654e-002, -2.3288897052063623e-001,
          2.6698101812411179e-001, 4.1589592903114564e-002,
          4.4815550570928599e-002, 2.2030561303098151e-001,
          1.4872835765384981e-001, -3.1418990855313050e-001,
          -2.3718054550112669e-001, 1.3923308200683965e-001,
          1.0212938804840829e-001, 4.5169719163478457e-002,
          -9.5001763204945494e-002, -6.5946969122599153e-001,
          1.2853529867388078e-001, 3.0424811588128259e-001,
          -3.8626067325060115e-001, 1.5726597956443703e-001,
          1.4623309250910030e-001, 2.2299005963018943e-002,
          -5.7774436357973323e-002, 2.6744469780068825e-001,
          -2.0996209086936199e-001, 2.7773918037586703e-001,
          1.4152481874638950e-001, 3.0879381892697272e-001,
          1.7584976581644141e-001, 3.5422115345829397e-001,
          -4.1369018797911494e-001, -1.4634860423151463e-001,
          1.3827084297596556e-001, 1.0110543726364030e-001,
          4.3081015799092556e-002, -1.8312920436696953e-001,
          -3.8892683827927754e-001, 2.1849879062269403e-001,
          7.5652270823613046e-002, -4.3527347196345700e-001,
          1.3236142784047725e-001, 1.3408061743198146e-001,
          4.3555685265337957e-002, -5.2464307727742673e-002,
          2.7623376067890620e-001, -4.6041256833311783e-001,
          3.3440074298274775e-001, 9.0568703406254142e-002,
          3.0675450295737444e-001, 2.0870949642923320e-001,
          7.0835566217031465e-002, -1.3185446740025275e-001,
          3.1675978465257285e-002, -5.4693215748984461e-002,
          1.1819901240796983e-001, 5.3612201251833566e-002,
          -1.8342791967584837e-001, -7.7007053308223161e-001,
          9.6380094044951348e-002, 1.1265346937389187e-001,
          -1.7095418503644827e-001, 1.2875527933106989e-001,
          1.4351043581423026e-001, -4.9156482002564306e-001,
          -1.2686941531222817e-001, -3.9615663530367599e-002,
          4.3178138533812443e-002, 1.0627132925936743e-001,
          -2.6496671147481293e-001, 7.0631115685895296e-001,
          -1.3126080297898676e-001, 6.6970173543879530e-001,
          -1.6935021086891394e-001, -4.0963137471286110e-001,
          -3.2484059903289710e-002, 4.9914808273855055e-001,
          6.1453637376212211e-001, -9.2605477671608330e-002,
          -2.5696954349542288e-002, -2.5686520666949975e-001,
          7.8835463645580556e-002, -1.2484004665888923e-001,
          4.9779737463848756e-001, -1.5150316385091442e-001,
          -1.4818227659469424e-001, -1.4410640466505609e-001,
          -3.4858848308356233e-001, 4.0426920925491786e-002,
          6.7839277630641556e-002, -2.7385932784004058e-001,
          5.7906659134602312e-001, 1.2609159790948402e-001,
          3.5991161721169757e-001, -1.5690928087599085e-001,
          -2.2773745939570419e-002, -3.8007400525850367e-002,
          2.6305209416722997e-001, 6.0772868146286363e-001,
          -1.1562482958826206e-001, -1.8058298896633528e-002,
          -2.9655407931416145e-001, 8.1437504601984036e-003,
          1.1136807708405112e-001, 8.0285887387948479e-002,
          1.6472318019095461e-001, -1.2067129196876704e-001,
          1.1993221519239994e-001, -1.5804615229845713e-002,
          7.2140255138516025e-003, 1.3917703776338178e-001,
          -2.6302266868270280e-001, 1.6439366542077841e-001,
          -1.2830791745382703e-001, 9.2111555335678263e-001,
          5.0955423732841676e-001, -4.4441806359644870e-002,
          9.3752696251765022e-001, 9.2584584015712323e-001,
          4.0542561809623862e-001, 1.6260777403779109e-001,
          1.2276349546490288e-001, -2.3668208598522275e-001,
          7.2699431771294676e-002, 5.3185357830712279e-002,
          1.6875775943364135e-001, 1.7112274948245654e-001,
          1.2994684394559555e-001, -8.6458120590187551e-002,
          6.6775202983447163e-002, -2.8030003958040928e-001,
          -3.8272509749831890e-001, -1.1046303185652167e+000,
          1.6814244619346513e-001, -1.4290785042465959e-001,
          6.2586722416733098e-001, -6.8389767997560982e-002,
          4.8231443754819393e-002, 5.5197078013020884e-001,
          8.8973173426452001e-001, 1.4468874124429780e+000,
          1.7489115650192702e-001, 1.6840102307470758e-001,
          -1.7323638284976664e-001, 2.4912438289560226e-001,
          -1.0122337676411666e-001, -3.6073652328445907e-002,
          1.3209570338443907e-001, 2.3101959943069646e-003,
          -2.2193035028375635e-001, 4.9163057851174913e-001,
          -8.8038040738470713e-002, -1.7559467766890849e-001,
          -6.7573368471576620e-002, -3.6694386394979128e-001,
          -1.8737439890945198e-001, 3.7545023543983813e-001,
          6.6357550716796943e-002, 6.6249684994850633e-001,
          4.7745632343415950e-001, -1.0349022309089247e-001,
          -2.0534093690005467e-001, 1.6439499978581285e-001,
          8.7170181309060191e-001, -9.2309165381412789e-002,
          -1.4254782753902748e-001, -9.5338788651200199e-002,
          6.1003032821687245e-002, 1.9311822297557839e-002,
          1.0678417659176621e-001, -2.4866818928955984e-002,
          7.5177285337513416e-002, -3.1023760919850690e-001,
          -2.3070606091272361e-001, 1.1239566206310340e-001,
          -3.8881554873431567e-001, -3.8819020331931164e-001,
          3.7151999144216719e-001, 3.3439244123044241e-002,
          1.5977548045463650e+000, 2.2462169718968913e-002,
          -4.2186048653144925e-001, -2.1095817267377498e-001,
          1.9766291272841977e-001, 2.0505995080322953e-001,
          -9.1547163065915024e-002, -2.6160291103875211e-001,
          -9.3154636244900862e-002, 4.0474928206529100e-002,
          1.5727749577697119e-002, 1.0137499219611677e-001,
          -2.6591361241257877e-001, -2.5664437414511236e-002,
          -1.1815494470018157e-002, -2.3421302915185549e-001,
          2.5994498391398635e-001, -4.2280621088047299e-001,
          -3.9629336063936266e-001, 3.1024944223289871e-002,
          2.6506090380292152e-001, 5.7547891718269528e-001,
          2.6459335512986137e-002, -4.0249883487722177e-001,
          -9.1077596423606785e-002, 1.5439498915649361e-001,
          1.6657651600826712e-001, -1.0114099642559851e-001,
          -2.6430453824790601e-001, 5.5258460878584638e-002,
          4.3575981430997619e-002, 1.2811926710530955e-002,
          9.9486374658189200e-002, -2.5621256217103017e-001,
          -1.5713441828154266e-002, -1.1694647950201593e-001,
          -5.6610970938989202e-001, 3.0822195020147530e-001,
          -4.2274048600190584e-001, -3.9189210329856367e-001,
          2.5555378308865048e-002, 2.1454547986530442e-001,
          5.8923366435809144e-001, 3.0442609785367798e-002,
          -4.0341573471298198e-001, -2.0891305973802610e-001,
          -6.6402593207646682e-003, 1.7551959351856186e-001,
          4.4215831883986381e-002, -1.2924617640962369e-001,
          -8.6330444648160171e-002, 4.7343342283736968e-002,
          1.2915637288125356e-001, 5.7490266027208609e-002,
          8.3438331391798612e-002, 6.7671127546724469e-002,
          -1.5206830028486823e-001, -5.6927832659925504e-001,
          3.8427866348471940e-001, -4.1672117723844487e-001,
          -3.8437323849980176e-001, 9.6350671698448354e-002,
          -3.3511871524366153e-002, 4.1880451493991533e-001,
          3.9350282363386786e-002, -3.3151290519690008e-001,
          -2.3024979059614004e-001, 2.2388899529892053e-001,
          1.9905543506912146e-001, -9.5803913459583834e-002,
          7.7493665074837279e-002, -4.8100346860450796e-002,
          -1.0015886040332433e-001, 2.4933702683605213e-001,
          2.3015813100297458e-001, 6.2015920829499416e-002,
          2.8314070039085099e-001, -4.1596373461100522e-001,
          -3.9757144130582900e-002, 2.3242988201968356e-001,
          -4.6933069313090897e-001, -3.4187328686081803e-001,
          3.5129503647710875e-001, -1.2507972064809246e-002,
          5.2377960603432894e-001, 4.1603689660088525e-002,
          -4.0116851983966900e-001, -2.1959899826559556e-001,
          2.5891725217640488e-001, 2.0514594524195318e-001,
          -2.0545719494591169e-001, 4.6385148052892300e-001,
          -8.4448997120004018e-002, -8.0107721469290682e-002,
          8.5551062129586075e-002, 4.8203662630119923e-002,
          6.3334259261836195e-002, 1.3456290783934086e-001,
          -4.2654465369808314e-001, 9.6744662538285647e-002,
          5.9770719639596748e-001, -2.8068511482669801e-002,
          -8.5830064683500157e-002, 4.0063769391808990e-001,
          -4.0761582162945892e-001, 6.6104562476628781e-001,
          2.0242208794858368e-002, -2.3395770585391140e-001,
          4.9349706945350416e-002, 1.5583033460270190e-001,
          1.9982709294836057e-001, -2.6141781412491527e-001,
          2.7600178138961740e-001, 1.7387034674666655e-002,
          8.9373582815430480e-002, 1.1581799978368906e-001,
          1.1794567311113784e-001, -1.7083665060195941e-001,
          -6.2345500854760716e-001, -2.6087760407614091e-001,
          2.5339955606614872e-001, 8.1821628142122807e-002,
          7.2400304144914898e-002, 2.4605941877223697e-001,
          1.6627373837031809e+000, -7.0827528701131670e-001,
          -5.8595140250203064e-002, 1.1521776652882373e-001,
          2.9236277896067975e-002, 9.5145617441058178e-002,
          -9.8347151537489103e-002, -3.5470498970770825e-001,
          -2.6081391441562396e-001, 3.4010100032578977e-001,
          3.0981418321041135e-002, 8.3826247212166194e-002,
          2.1926747284374090e-001, 1.6491884626697545e-001,
          -6.3971938818848939e-002, 2.9397496231843628e-001,
          -2.4345772397755869e-001, 4.7073881898875508e-001,
          7.3803661938082632e-002, 4.6890955152285300e-002,
          2.1684028471711125e-001, 1.4987802239742162e-001,
          -4.2190476698219137e-001, -2.4561441512185767e-001,
          -6.9359351756229329e-002, 9.6342101053904255e-002,
          -5.1946888071963779e-002, -1.8903364186419325e-001,
          -3.2931071845771598e-001, 4.0640321168764437e-001,
          3.0416812178922997e-001, -1.8000982554496878e-002,
          9.4925715862493237e-002, 1.4513481304516371e-001,
          1.8078804562553456e-002, -6.1406549532943021e-002,
          2.6937928290640423e-001, -1.8645937583604633e-001,
          4.6164971358662832e-001, 6.6303830734487132e-002,
          3.8826691579488405e-002, 2.1765347164259896e-001,
          3.5043889967638364e-001, -4.1893131287461516e-001,
          -4.0791620638239717e-001, -5.5511516241207134e-002,
          9.3042282882885893e-002, 4.8047603558438824e-002,
          -1.8245431988635777e-001, -4.6279239479002648e-001,
          3.9497426109595118e-001, 3.1219840892118439e-001,
          -2.1484276037793119e-002, 1.0626914938559917e-001,
          1.3482997834789917e-001, 2.9464208942761839e-002,
          -5.3814408037371066e-002, 4.0280281131123849e-002,
          -2.4757462541421946e-001, 2.7050178165134087e-001,
          -3.2881848502835091e-002, 4.2798690274118437e-002,
          1.7482945528827326e-001, 3.4845331226076653e-001,
          -4.2254416345564116e-001, 1.0761152548195377e-001,
          -4.0866935221072161e-002, 1.2733260738160257e-001,
          5.2975722706739142e-002, -6.1732531607840546e-001,
          -1.3805619909575586e+000, 2.4879403558310631e-001,
          3.6406460918188117e-002, -1.7232772572285304e-001,
          1.5063600165210911e-001, 1.3617073012177580e-001,
          -5.1340865344599451e-001, -1.2645633686864460e-001,
