%YAML:1.0
mlp: !!opencv-ml-ann-mlp
   layer_sizes: !!opencv-matrix
      rows: 1
      cols: 3
      dt: i
      data: [ 330, 15, 10 ]
   activation_function: SIGMOID_SYM
   f_param1: 6.6666666666666663e-001
   f_param2: 1.7159000000000000e+000
   min_val: -9.4999999999999996e-001
   max_val: 9.4999999999999996e-001
   min_val1: -9.7999999999999998e-001
   max_val1: 9.7999999999999998e-001
   training_params:
      train_method: RPROP
      dw0: 1.0000000000000001e-001
      dw_plus: 1.2000000000000000e+000
      dw_minus: 5.0000000000000000e-001
      dw_min: 1.1920928955078125e-007
      dw_max: 50.
      term_criteria: { epsilon:9.9999997764825821e-003, iterations:1000 }
   input_scale: [ 3.3156658028047912e+000, -2.5826928730265055e+000,
       3.0400853338567280e+000, -2.1495878086514515e+000,
       3.0772720976935881e+000, -1.9626767126960931e+000,
       3.0147702411647330e+000, -1.7327310162447764e+000,
       3.0763806700301801e+000, -1.4980072687204002e+000,
       3.3051102880202503e+000, -1.3092485256202924e+000,
       4.0627524913453694e+000, -1.4037828451466678e+000,
       4.9305874576300299e+000, -1.4959338129242530e+000,
       5.0823319126164517e+000, -1.4834208747536457e+000,
       5.3080240430638961e+000, -1.5710710424114982e+000,
       4.2060493936452028e+000, -1.5857806949429487e+000,
       3.9452479848015747e+000, -1.7922451261123176e+000,
       3.3174941291672417e+000, -1.7832533163148370e+000,
       2.7813676333526085e+000, -1.7367302463663039e+000,
       2.7863862245563444e+000, -1.8797759553211977e+000,
       3.1712851700498073e+000, -2.3021683845709369e+000,
       2.8421634619836253e+000, -1.7185564425509972e+000,
       2.5531266099898344e+000, -1.2085052324131309e+000,
       2.7666872447980166e+000, -9.2022298621524090e-001,
       3.0603122217391028e+000, -8.9111457013777617e-001,
       4.0022173241832579e+000, -8.5365171531443595e-001,
       4.7367814712703415e+000, -5.2693669810040833e-001,
       5.5924562748955946e+000, -5.5050637705058436e-001,
       9.4768611254788109e+000, -5.9461901109354365e-001,
       5.5948721773136203e+000, -8.5874128453960641e-001,
       5.0556336069441929e+000, -9.3244449939134111e-001,
       4.0418116992131417e+000, -8.6085139248005016e-001,
       2.9680555861405931e+000, -9.4238850817270026e-001,
       2.7328118714301235e+000, -1.3185826029465832e+000,
       2.8341457574175171e+000, -1.8536458507093734e+000,
       3.5722824116340743e+000, -2.4576552912532343e+000,
       3.2395718992385207e+000, -1.8175191743236723e+000,
       3.3320507851065138e+000, -1.3742911246323706e+000,
       3.6710932328762498e+000, -1.2820695195785388e+000,
       3.7953998669343454e+000, -1.1660086535065459e+000,
       5.2292254527022530e+000, -1.7590155222137580e+000,
       6.0049397973052843e+000, -1.8553753980603849e+000,
       5.6689452495545805e+000, -1.5754143695345015e+000,
       6.0646631904509931e+000, -1.7907008755272966e+000,
       5.4831469583356744e+000, -1.5277020356813567e+000,
       4.8108058394327218e+000, -1.1178077420182222e+000,
       4.2885820043414578e+000, -1.0604400366112285e+000,
       3.3885660402244207e+000, -9.3685560998280137e-001,
       2.8107728265015210e+000, -1.2419957847003595e+000,
       3.1881597603040097e+000, -1.8727411122906761e+000,
       4.0360355627472826e+000, -2.8782321810990301e+000,
       3.9009686845759002e+000, -2.2435275204612437e+000,
       3.4600501031978541e+000, -1.4681742014169057e+000,
       3.8630605011197527e+000, -1.4790441854375285e+000,
       5.3672118676708775e+000, -2.3116738493760307e+000,
       5.6338786362350559e+000, -2.6355461918791590e+000,
       4.5107551205885894e+000, -2.4966991173876654e+000,
       4.0008647770272807e+000, -2.4493232794197706e+000,
       3.8820938181642268e+000, -2.0270490912984842e+000,
       4.2612210794686165e+000, -1.7711218459878830e+000,
       3.9823268300618464e+000, -1.4004160886038926e+000,
       3.5540258297142286e+000, -9.1493191381840944e-001,
       3.1400513212997372e+000, -9.4732962179147473e-001,
       3.1452962139415654e+000, -1.3874324122754809e+000,
       3.1495186473638590e+000, -1.8629967374284542e+000,
       3.5610614824051621e+000, -2.5592832230964961e+000,
       3.1937323566748406e+000, -1.9045328645605042e+000,
       2.9768886114011308e+000, -1.5593672565717132e+000,
       2.9740127287625548e+000, -1.3958651505058230e+000,
       3.7586778845019180e+000, -2.1353824078920014e+000,
       3.8021312260323006e+000, -2.6697806880396304e+000,
       3.6752733273337244e+000, -2.7594176522088629e+000,
       3.6969977567153127e+000, -3.0014218140717790e+000,
       4.6455547089525666e+000, -3.2834962321164283e+000,
       4.2615729508020683e+000, -2.5693283930619542e+000,
       3.7386396519223672e+000, -1.6916532774694788e+000,
       2.9061392636852075e+000, -9.8075154702954215e-001,
       2.7389008437484530e+000, -9.2318694652730404e-001,
       2.9884506917261247e+000, -1.3983178961162785e+000,
       3.5842703686851136e+000, -2.2684889094224001e+000,
       3.5339530236528818e+000, -2.4672689568005906e+000,
       2.8868652612074603e+000, -1.6452113031734685e+000,
       2.8733208362427405e+000, -1.4160338758310198e+000,
       3.0772374695100262e+000, -1.5704034354600556e+000,
       3.5746320651899808e+000, -2.2604991985333860e+000,
       3.2528649194986254e+000, -2.4322571548225955e+000,
       4.0726573822065255e+000, -3.4315820595886466e+000,
       4.4341126183981050e+000, -3.7653730870286597e+000,
       3.6553105424884187e+000, -2.7208730082749200e+000,
       3.3908843420135373e+000, -2.2529287177326816e+000,
       3.0435536823512321e+000, -1.4997956486580859e+000,
       2.9315739153788658e+000, -1.0496184483740070e+000,
       2.8314721039146118e+000, -1.0814496235892084e+000,
       3.0179514092430257e+000, -1.4396219291199936e+000,
       3.4944295382041179e+000, -2.2604391122395824e+000,
       3.9013050847152897e+000, -2.7989394924357542e+000,
       3.0129598739871697e+000, -1.8021939666862539e+000,
       2.9603536720093961e+000, -1.6105314681261140e+000,
       2.8730470089210427e+000, -1.5710360493268105e+000,
       3.4845645002914249e+000, -2.4503114227843601e+000,
       3.6208354726342660e+000, -2.8109745461237425e+000,
       4.0224193205207222e+000, -3.2469416325168003e+000,
       3.8685069125118869e+000, -3.1084130859420003e+000,
       3.3393530577455719e+000, -2.4292738270365128e+000,
       2.7637815841054598e+000, -1.7728971945325662e+000,
       2.7557506406870025e+000, -1.5937014893540766e+000,
       2.9455495827911462e+000, -1.2106109601979977e+000,
       2.8903841790549931e+000, -1.2588484570882177e+000,
       2.6588572139400255e+000, -1.3141011073809123e+000,
       3.0701782261356461e+000, -1.9019124823670519e+000,
       3.5721658541244898e+000, -2.6431275256638194e+000,
       2.7388476269740276e+000, -1.6383418722450966e+000,
       2.8102358251994244e+000, -1.6244515555911168e+000,
       2.8691704955143784e+000, -1.6721660876163147e+000,
       3.8346837962835645e+000, -2.7103900790530826e+000,
       4.3344304390045032e+000, -3.3086289932218822e+000,
       3.8787928445639395e+000, -2.9703279818640747e+000,
       3.5468462979310043e+000, -2.4698105375636725e+000,
       3.1801445455408519e+000, -2.2029704031631381e+000,
       2.8595503870291621e+000, -1.8163950474396762e+000,
       3.1364434363205467e+000, -1.7929274599636531e+000,
       3.1370568788524769e+000, -1.4393367842235183e+000,
       2.6911531657035934e+000, -1.3190808057737946e+000,
       2.6048483811721903e+000, -1.4071969988493185e+000,
       3.0270991247620724e+000, -1.8971985622170635e+000,
       3.5889276385200994e+000, -2.5443520967378741e+000,
       3.0581100478002869e+000, -1.9810865804310547e+000,
       2.8483586626419086e+000, -1.6676635112038229e+000,
       2.9180631965781698e+000, -1.7359800243883940e+000,
       2.9549125358762240e+000, -1.9031234118076008e+000,
       3.7466994331757704e+000, -2.5391825238836869e+000,
       3.5217654444255730e+000, -2.3713995086299482e+000,
       3.1072717391945250e+000, -1.9541102349217354e+000,
       2.8863623616204563e+000, -1.6775762806693200e+000,
       3.3618883763250724e+000, -1.9034706569494706e+000,
       3.1749175164079966e+000, -1.6213094334882385e+000,
       3.6281242079358966e+000, -1.7688007144756537e+000,
       2.8216693251336795e+000, -1.4030525888375038e+000,
       2.5545587724736949e+000, -1.4739895109374026e+000,
       2.9115112894652064e+000, -2.0614047759789309e+000,
       3.7172713532851231e+000, -2.7969960323777641e+000,
       3.0968170972549602e+000, -2.0245216653824896e+000,
       2.6551990744413607e+000, -1.5763173881032757e+000,
       2.9497968521641345e+000, -1.8180703646711198e+000,
       2.8404410582242341e+000, -1.7874272945314218e+000,
       2.8243729038469652e+000, -1.6766443144763483e+000,
       2.5961734444582936e+000, -1.4599159247636699e+000,
       2.5261634788950365e+000, -1.2834351546402978e+000,
       2.5636101543120420e+000, -1.2485879124595842e+000,
       3.0301933494857041e+000, -1.3422814328855774e+000,
       3.7265657355691304e+000, -1.6494759283487830e+000,
       5.5696477684822687e+000, -2.5659297517072281e+000,
       3.2699627188110245e+000, -1.5251018493080890e+000,
       3.0836715975157758e+000, -1.7011185034858431e+000,
       3.4715363708116187e+000, -2.4162552941877879e+000,
       3.6699871999997566e+000, -2.8736239900363736e+000,
       2.9944345745780190e+000, -2.0608399966956741e+000,
       2.7836721831462681e+000, -1.7671770042444985e+000,
       2.8376662421325443e+000, -1.8839316101384393e+000,
       2.8428527062304978e+000, -1.9043937317950752e+000,
       3.1374545367594582e+000, -1.9803123035905335e+000,
       2.9192568988734617e+000, -1.5438226529783781e+000,
       2.7712026149898494e+000, -1.3991279232965612e+000,
       2.7873079450607912e+000, -1.2315589852289803e+000,
       2.9464066887019200e+000, -1.2465693092247667e+000,
       3.5408869617065042e+000, -1.2915148156741993e+000,
       4.9486982898902205e+000, -1.8559382086915064e+000,
       4.2083500328904471e+000, -1.5910421194628588e+000,
       3.7161334395246985e+000, -1.9160278260466785e+000,
       3.7785960684467432e+000, -2.5217059057488407e+000,
       3.3832632591306857e+000, -2.4905682505350417e+000,
       2.7673069538321702e+000, -1.9208859286827806e+000,
       2.6892636892836874e+000, -1.7606261487703403e+000,
       2.7408373338214926e+000, -1.8565999910040438e+000,
       3.9914325039600618e+000, -2.8825423568060065e+000,
       3.5291912795245861e+000, -2.2679391031816820e+000,
       3.0938079526800850e+000, -1.7980460250893042e+000,
       2.6760179529248451e+000, -1.3735222797579014e+000,
       2.7255111489757802e+000, -1.3926633353843407e+000,
       2.8818427936379085e+000, -1.1914225818895878e+000,
       3.3195480843467959e+000, -1.1632560035323349e+000,
       4.0622238667348913e+000, -1.3041138182904528e+000,
       4.1191121973775848e+000, -1.4112914353364228e+000,
       3.4507889796965787e+000, -1.6053304401135142e+000,
       3.6491469074299405e+000, -2.3303370214267733e+000,
       3.2730077658791092e+000, -2.5510868927605772e+000,
       2.5524705877187981e+000, -1.7294633758186844e+000,
       2.5241640662840337e+000, -1.7181938212465908e+000,
       3.4933494893336845e+000, -2.5706097734713036e+000,
       4.4994414360223116e+000, -3.3431678780330234e+000,
       4.4503788310222845e+000, -3.1560916008423323e+000,
       3.3678318813572123e+000, -2.2012694427072881e+000,
       3.1331022627007084e+000, -1.9756416552199167e+000,
       2.9526126278545712e+000, -1.5887652530445215e+000,
       3.5168702976061450e+000, -1.8132604741202825e+000,
       4.0217937915775064e+000, -1.8485865615102304e+000,
       4.8215534399871531e+000, -1.8258295266205569e+000,
       3.2665012683921648e+000, -1.1084075022689166e+000,
       2.9510327798189513e+000, -1.2571557479881845e+000,
       3.5174596078229423e+000, -1.9876969952685855e+000,
       3.3579928582273846e+000, -2.6626795037449709e+000,
       2.4808800154425406e+000, -1.7452025271143135e+000,
       2.4098360084532682e+000, -1.6625171656205289e+000,
       3.2705113645987365e+000, -2.3761771137938292e+000,
       4.6990357638716338e+000, -3.6630394362627339e+000,
       3.2759004272702654e+000, -2.3261352389196461e+000,
       3.0603241919003024e+000, -2.1681060852607463e+000,
       2.6671106866418537e+000, -1.8064405864308257e+000,
       3.0112860566956248e+000, -1.9559641810720387e+000,
       3.8090997454179476e+000, -2.3571869024696173e+000,
       4.3166554639186767e+000, -2.4424702116817714e+000,
       3.7617133279239989e+000, -1.7276800536814629e+000,
       3.2050492449835377e+000, -1.1322063898149057e+000,
       2.7064228776118888e+000, -1.0680239402810627e+000,
       3.3930238708249716e+000, -1.8725829422659983e+000,
       3.3499496045123816e+000, -2.5384782445763574e+000,
       2.4994255670446548e+000, -1.7362839927027396e+000,
       2.4872441385452349e+000, -1.6492266349851101e+000,
       3.1336925551380528e+000, -2.1508563346475813e+000,
       2.8877720233156623e+000, -2.1235814139689437e+000,
       2.6083908600423178e+000, -1.8654173887432193e+000,
       2.4204552240968091e+000, -1.6955032458790962e+000,
       2.6675392578345223e+000, -1.9187262627169692e+000,
       2.6381547932547020e+000, -1.8027046049592077e+000,
       3.3269737207537622e+000, -2.2928278823523507e+000,
       3.6760952767156745e+000, -2.4342630292975396e+000,
       3.2370334771414582e+000, -1.5407267579501236e+000,
       2.7235776144758375e+000, -1.0220941402403021e+000,
       2.7650930745329858e+000, -1.1406526676838888e+000,
       3.2278579915653158e+000, -1.7585816531418501e+000,
       3.4095614385597641e+000, -2.2697712540043327e+000,
       2.8751873694420338e+000, -1.6810178043293698e+000,
       3.1079141324806163e+000, -1.6696867873311616e+000,
       3.5782359458616351e+000, -1.9968839001886203e+000,
       3.4646600275474309e+000, -2.3235868527521162e+000,
       2.9077581110479302e+000, -2.1837154081685228e+000,
       2.8556625312220305e+000, -2.1006777449325136e+000,
       2.7287283555416200e+000, -1.9687215674523426e+000,
       3.8582103964520336e+000, -3.0365742013627153e+000,
       3.7730025055226517e+000, -2.9479465444484698e+000,
       4.0898022630437536e+000, -2.8027321341609865e+000,
       3.7332933280097413e+000, -1.9514167341802449e+000,
       2.7935837952957865e+000, -1.0924855433316312e+000,
       2.7216874747073443e+000, -1.1466519741129837e+000,
       3.2460611724465416e+000, -1.8572683971505191e+000,
       3.6413123858153722e+000, -2.4680641026564762e+000,
       3.0837728311099957e+000, -1.5754249719079116e+000,
       2.9438052379643649e+000, -1.3048304514477500e+000,
       3.3882312835633761e+000, -1.6935841470482833e+000,
       3.6013910707950649e+000, -2.1701794311210234e+000,
       3.2787396844057577e+000, -2.3122330020122481e+000,
       3.1490768759377170e+000, -2.3923585196099646e+000,
       3.5360800335758245e+000, -2.8538245973413416e+000,
       4.2614991033001086e+000, -3.5900855210736631e+000,
       5.4104026416097648e+000, -4.3272613199597609e+000,
       4.8317353556554901e+000, -3.1624812631888997e+000,
       3.6356817473325673e+000, -1.8968992510383917e+000,
       2.7204116134981349e+000, -1.1244664862453000e+000,
       2.7370625398237021e+000, -1.1664537755445217e+000,
       3.4307121992431631e+000, -2.1533885118980121e+000,
       3.3560263244603648e+000, -2.1962616502037879e+000,
       2.8314792739223504e+000, -1.3879278876449033e+000,
       2.6579923454511145e+000, -1.1606724681687763e+000,
       2.9534410105874929e+000, -1.3588841447180569e+000,
       3.1049481592049686e+000, -1.5762160327636989e+000,
       3.7723938117556375e+000, -2.4375947962185998e+000,
       4.0528323842706255e+000, -3.0811238453898167e+000,
       4.5454583407552853e+000, -3.8408987730911632e+000,
       4.3497221315241958e+000, -3.5023602857790270e+000,
       4.5751614967536636e+000, -3.2382928167214375e+000,
       3.9259460120665532e+000, -2.2730247326766015e+000,
       3.1143666951155491e+000, -1.5874826914301381e+000,
       2.6678357084635071e+000, -1.0925973438105829e+000,
       2.7049190293910579e+000, -1.2925077007158556e+000,
       3.4931358499945606e+000, -2.2807831026783663e+000,
       3.3004924384766148e+000, -2.2425052161236239e+000,
       3.1432061282319221e+000, -1.6727291180335302e+000,
       2.8041933402262158e+000, -1.1211136214271646e+000,
       2.7367603248890977e+000, -9.7137970686718778e-001,
       3.2560736895961773e+000, -1.3859071983436126e+000,
       3.5427859754079472e+000, -1.6485995010250583e+000,
       3.5353258926717612e+000, -2.0512395438097721e+000,
       3.5910174034269375e+000, -2.2247450570784792e+000,
       3.6291488797496916e+000, -2.1663156971841930e+000,
       4.1345633741335854e+000, -1.9927735422618529e+000,
       4.3003193290865287e+000, -1.8937093996102254e+000,
       3.3410173111122323e+000, -1.3046187800292417e+000,
       3.0443195613292175e+000, -1.2230519053209141e+000,
       3.5658486358375288e+000, -1.7571136502770992e+000,
       3.8041263940497059e+000, -2.4672220454775831e+000,
       3.5929403220300045e+000, -2.6733995960184060e+000,
       3.3521138025299990e+000, -2.0960730780863543e+000,
       2.9704689235589332e+000, -1.3054767350130314e+000,
       2.9252702402159527e+000, -9.9877615571861655e-001,
       3.0379211741916321e+000, -9.5237835555476436e-001,
       3.2359528399368926e+000, -1.2382906411589942e+000,
       3.0662276286060894e+000, -1.1746469779777504e+000,
       3.0027845190654752e+000, -1.2441304758855631e+000,
       3.0922718724486500e+000, -1.2857408067906866e+000,
       3.1634472566716987e+000, -1.3144915900933327e+000,
       3.0484425725277764e+000, -9.9341189837323840e-001,
       3.5043376700822093e+000, -1.3246097601683988e+000,
       3.2048744864301240e+000, -1.3791687966403772e+000,
       3.2893814054749240e+000, -1.8481633391169834e+000,
       3.4911130923253930e+000, -2.4781095551060801e+000,
       3.3607405762797038e+000, -2.6132903325099042e+000,
       3.0585916643529472e+000, -2.0598188265457327e+000,
       3.0888002696014518e+000, -1.7522288620567370e+000,
       3.2112772585093552e+000, -1.3563534623923441e+000,
       3.2324476472710986e+000, -1.1859337979523810e+000,
       3.0056548668409975e+000, -9.7046990453523785e-001,
       2.6288491811372028e+000, -6.6404710808463463e-001,
       2.6890982936513335e+000, -6.7412803236096830e-001,
       2.6982519027715037e+000, -7.2529755071951729e-001,
       2.9678417244594066e+000, -1.1391197969383360e+000,
       3.2255287602892451e+000, -1.3615334883152923e+000,
       3.2210043001774173e+000, -1.4248136732780350e+000,
       2.9245683939784195e+000, -1.6251019869579111e+000,
       2.8179650671240029e+000, -1.8598820672083065e+000,
       3.2520589275059231e+000, -2.4234119187202423e+000,
       3.2451367904067916e+000, -2.6511578550207928e+000,
       3.1881317558564488e+000, -2.5207342933051189e+000,
       3.5134478200288886e+000, -2.4937823954022460e+000,
       3.7621253818348466e+000, -2.3348795266515756e+000,
       3.6242695169463857e+000, -1.8276696454399375e+000,
       3.5975476901345087e+000, -1.6065098350435347e+000,
       3.1712518471736471e+000, -1.4106172720134309e+000,
       3.1742153750338882e+000, -1.4559897823402899e+000,
       3.3124184110928079e+000, -1.5692899162506242e+000,
       3.5234215493287420e+000, -1.7502813738200516e+000,
       3.7856781437116251e+000, -2.2500646229268808e+000,
       3.8509503813512702e+000, -2.5490465819826662e+000,
       3.4462849383932306e+000, -2.4748952640528117e+000,
       3.2150267517314202e+000, -2.4514053594922571e+000,
       3.0929952660603810e+000, -2.4864324901200932e+000 ]
   output_scale: [ 5.2631578947368418e-001, 4.9999999999999994e-001,
       5.2631578947368418e-001, 4.9999999999999994e-001,
       5.2631578947368418e-001, 4.9999999999999994e-001,
       5.2631578947368418e-001, 4.9999999999999994e-001,
       5.2631578947368418e-001, 4.9999999999999994e-001,
       5.2631578947368418e-001, 4.9999999999999994e-001,
       5.2631578947368418e-001, 4.9999999999999994e-001,
       5.2631578947368418e-001, 4.9999999999999994e-001,
       5.2631578947368418e-001, 4.9999999999999994e-001,
       5.2631578947368418e-001, 4.9999999999999994e-001 ]
   inv_output_scale: [ 1.8999999999999999e+000, -9.4999999999999996e-001,
       1.8999999999999999e+000, -9.4999999999999996e-001,
       1.8999999999999999e+000, -9.4999999999999996e-001,
       1.8999999999999999e+000, -9.4999999999999996e-001,
       1.8999999999999999e+000, -9.4999999999999996e-001,
       1.8999999999999999e+000, -9.4999999999999996e-001,
       1.8999999999999999e+000, -9.4999999999999996e-001,
       1.8999999999999999e+000, -9.4999999999999996e-001,
       1.8999999999999999e+000, -9.4999999999999996e-001,
       1.8999999999999999e+000, -9.4999999999999996e-001 ]
   weights:
      - [ 1.4271372243909070e-001, -2.2137386474485071e-001,
          -1.7486705267862293e-001, -1.1257549384752581e-001,
          -1.4148633423764187e-001, 2.3187716826624939e-002,
          2.3779744704851516e-004, -1.9742007415597573e-001,
          -1.0298410394043114e-001, -1.8530316015885426e-001,
          4.8404369989303991e-001, -9.3809766140787482e-002,
          -1.3130402800735486e-001, 1.5160877140839404e-001,
          6.7309403963460232e-002, 1.4275321866453922e-001,
          -2.1472419352452829e-001, -2.8917591309104751e-001,
          1.4478636361813010e-001, -3.5770952395463490e-001,
          2.0233201670912676e-001, -4.1936913325399871e-004,
          -1.7791475828969769e-001, -1.0420690205526878e-001,
          -1.4221586209424969e-001, 2.4700467988246353e+000,
          -8.8317757596290208e-002, -3.3153621648860732e-001,
          1.5121806915878180e-001, 7.6314639863231629e-002,
          -2.1882512323288170e-002, -2.1417546224845904e-001,
          -2.3098525430808856e-001, 1.4380871164583323e-001,
          -4.0380677039485119e-001, 2.0425372016386562e-001,
          -1.9223656478317194e-003, -1.7801787641380226e-001,
          -1.0759412544529968e-001, -1.8791799179626242e-001,
          2.4609050231033955e+000, -1.0125394598068124e-001,
          -1.2756322252871410e-001, 1.5630229809860516e-001,
          6.9379036749501286e-002, -2.0467826477443472e-002,
          -1.1141254797059341e-001, -2.9043759824218945e-001,
          1.5237362789203221e-001, -3.9750623003122149e-001,
          2.0813841360820523e-001, 2.4102300264421909e-004,
          -1.7652342959098782e-001, -1.1339243793526500e-001,
          -1.8914304233471882e-001, 8.8804400244061688e-001,
          -1.0406992571061782e-001, -3.3354858084660088e-001,
          1.5353538394034769e-001, 7.5178971553014964e-002,
          -1.6185349960687632e-002, -1.0671238511235204e-001,
          -1.1226107060863720e-001, 3.9807428201752232e-002,
          -4.7513447980427259e-001, 1.3668269978006803e-001,
          -1.3199672417411787e-001, -2.6210611221475072e-001,
          7.4017033631653822e-002, -1.8198748397767547e-001,
          5.1257827400322364e-001, -1.0454036576446726e-001,
          1.8263134175893136e-001, -1.0889083227797905e-001,
          4.9899522646937161e-001, -3.2357786457590831e-001,
          -1.0128445649062105e-001, -2.9068058790567706e-002,
          4.5281342938627039e-002, -5.5396187805852537e-001,
          2.0323793043971566e-001, -2.9319958629918502e-001,
          -3.1791708402203228e-001, -9.2654149060839922e-002,
          7.2964484600025636e-002, 2.6446645096908600e-001,
          -9.9835489366546154e-002, 1.8220506826808683e-001,
          -1.1090644343095760e-001, -2.1203097660004161e-001,
          -2.2412345275011750e-001, -9.9678836831597048e-002,
          -1.2915023456663119e-001, 1.4494893763786457e-001,
          -1.2479010603228782e-001, 8.0592866566834898e-002,
          -2.9278641517965009e-001, -3.0569068264038362e-002,
          -1.1079633586813299e-001, 8.2076968338456971e-002,
          2.4529225099830296e-001, -1.0207213305423007e-001,
          1.0304854437051379e-001, -1.0546626065259684e-001,
          4.3082340091770352e-002, -2.2899371448815367e-001,
          -1.1228742945408081e-001, -5.1674722645994842e-001,
          1.4528208798411232e-001, -2.7040999093439611e-001,
          -1.5357291508441528e-001, -2.9525550963322378e-001,
          -3.9545888167078970e-002, -5.7327660673442069e-002,
          -1.8163387744910894e-001, 2.4871660466219619e-001,
          -9.8190629392623491e-002, 1.6368555716660393e-001,
          -1.0216108635317045e-001, 4.2769768649635734e-002,
          -2.2982886712176528e-001, -1.0657163731539750e-001,
          -1.1891331398632128e-001, 1.4610010181512309e-001,
          -2.7150510684679968e-001, -1.4783267746469372e-001,
          -4.6766007228653879e-002, -4.3528912358100073e-002,
          -6.7431608091836390e-002, 7.9055180002397890e-002,
          2.4175468980693041e-001, -1.0174890314138738e-001,
          1.0495095570374752e-001, -1.0658142746584331e-001,
          -1.0705469735190108e-001, -6.6348283889814869e-002,
          -1.1310438164238239e-001, -5.0510913776812416e-001,
          -1.0931514288049328e-001, -1.7599328352277310e-001,
          -1.5349831028647118e-001, -5.1104426773635282e-002,
          2.4552953474056158e-001, -6.4162784815989221e-002,
          7.1212909446974615e-002, 2.4715775170765600e-001,
          4.7542634301872992e-002, 9.5520350204315541e-002,
          5.2785244260768062e-002, -1.1466267657572866e-001,
          1.3158762737278024e-002, -1.0920962038152461e-001,
          -1.0024371017423395e+000, -1.1243823925712886e-001,
          -4.3467751647585512e-001, -1.4471053067903178e-001,
          2.0958533291535722e-001, 1.7187303621757755e-001,
          -5.3591872312133589e-002, 1.7179854555790694e-001,
          2.4369844446345004e-001, 5.5805948128513430e-002,
          1.8216849337620677e-001, 5.1686544031939907e-001,
          -1.6534250801846827e-003, 8.1821664604687663e-002,
          -1.1442355154019530e-001, -5.9795925877679379e-001,
          -1.0617257919410893e-001, -2.6944588150248688e-001,
          -1.0937200412900621e-002, 1.6070182551885334e-001,
          3.4735802762898343e-001, -5.6294465545721713e-002,
          -1.7941900141055137e-001, 1.1732044310886464e-001,
          -1.0328465302633393e-001, -5.7672300824185646e-002,
          1.5343801376415886e-001, -1.0049351213961187e-001,
          1.4540382969320748e-001, -2.2176553726011061e-001,
          -1.8384908310579093e-001, -1.0947515156178945e-001,
          -8.4247745600100166e-001, 1.4010305642385934e-001,
          2.5762923834501350e-001, 1.7712312347433198e-002,
          4.2719423079977337e-002, -1.8127358315264938e-001,
          1.1413036143230143e-001, -3.6682860463316075e-001,
          -6.4619168289732493e-002, 1.4926646913772032e-001,
          1.9606606463163097e-002, 1.4972705168285830e-001,
          -2.2409735656538965e-001, -1.7476434039037822e-001,
          -1.1300449633383423e-001, -3.5636915249580242e-001,
          1.4180495910483532e-001, 2.6384202465617512e-001,
          -9.8654392896788275e-004, 5.8834757200032971e-002,
          -1.8438447575929709e-001, 1.1996459355650807e-001,
          -9.8198681244387270e-002, -6.8029853238755905e-002,
          1.6054224511859974e-001, 1.8347045858141321e-002,
          1.4418065415465381e-001, -2.2529997531137441e-001,
          -2.9129534331952062e-001, -1.1464283620949688e-001,
          -3.9922171420815228e-001, 2.1912694650867831e-001,
          2.6375633989251274e-001, -7.3249102911686261e-003,
          4.9932093804279883e-002, -1.8476960332613143e-001,
          8.3157382077633146e-001, -9.5737311686040133e-002,
          -5.8992604822211796e-002, 1.5734620155417453e-001,
          6.6985963538389107e-002, -3.9294017566047862e-002,
          -1.8701178468122767e-001, -1.7943490540981949e-001,
          1.4853502465646376e-001, -3.5633636077128089e-001,
          3.1031168416979039e-002, -1.9143097527961769e-001,
          -1.7486473889836415e-001, -3.7645813358828034e-001,
          -1.4371801280970356e-001, 6.4019937020605644e-001,
          -1.4860591890928063e-001, -3.3198430939741880e-001,
          -9.9944000636953245e-002, 8.8056114282666811e-002,
          -1.2454140848978420e-002, -2.1561777729682316e-001,
          -2.9154142710112591e-001, 1.4814168582101198e-001,
          -3.9500167815914550e-001, 2.0700283707059192e-001,
          -1.1735061891616383e-002, -1.7123483681421695e-001,
          -9.9077337477637389e-002, -1.8696154231130366e-001,
          8.8827896580851073e-001, -8.7334307623481447e-002,
          -7.7990274459673450e-002, 1.5877202161252965e-001,
          2.8423479611197955e-001, -1.4028798405720773e-002,
          -9.3376604517688241e-002, -2.9379677130272502e-001,
          1.4936752861409772e-001, -3.5673297423962358e-001,
          2.2291994880048813e-001, -7.6676518240587008e-002,
          -1.7254716956497176e-001, 5.7366684871058303e-002,
          -1.3373174328625373e-001, 5.8536389032069236e-001,
          -8.6502897287658392e-002, -1.2873683204843922e-001,
          -1.0237527642641442e-001, 2.7868569296425627e-001,
          -3.6789585207990624e-002, -1.0753978268859364e-001,
          -2.2070601631302891e-001, 1.4540723240574707e-001,
          -4.0341598455498279e-001, 2.0808359545035487e-001,
          -7.8667471768936792e-002, -2.5989688460626159e-001,
          5.2883115550209282e-002, 9.3570456910792590e-002,
          1.8862920782618978e-001, -1.0410900464057717e-001,
          -1.2964231413949087e-001, -1.0739786003030199e-001,
          2.7955976125956283e-001, -2.9418405055044467e-002,
          -1.1421108186900025e-001, -2.2492918609094370e-001,
          1.4411387767309117e-001, -3.9666805715201742e-001,
          2.2444410949502391e-001, -8.4520591294564518e-002,
          -2.6661644818282704e-001, 4.8497608725544837e-002,
          8.0027910339419708e-002, 1.9827064783296289e-001,
          -9.9141788347294660e-002, -1.2214226897873690e-001,
          -1.0371849384948395e-001, 2.7826994069464406e-001,
          -1.5929876374847749e-002, -1.1075086132158220e-001,
          -2.2242312443439519e-001, -1.2780116045963541e-001,
          -7.6783369947667990e-002, 2.2067259894126368e-001,
          -8.3898768310637639e-002, -2.7009745039629041e-001,
          9.0419062874067743e-002, 1.1916237576875620e-001,
          1.9661717033822831e-001, -1.0212883638166537e-001,
          4.2840794855711427e-002, -1.1137352549646085e-001,
          2.8422458603567013e-001, -1.3551595166167696e-001,
          1.2840801427317169e-001, -9.5727729576947279e-002,
          6.4611613078573563e-002, -7.5412798381423903e-003,
          1.5083510711460538e-001, -1.9787526771056388e-001,
          -5.9193490858666264e-001, -1.0779001561789076e-001,
          2.3649392999729538e-001, 2.4067926612028587e-001,
          6.1610583123148654e-001, -1.1003792178523869e-001,
          -2.1316774997177410e-001, -2.0985230694965182e-001,
          -1.3579403823649369e-001, 1.3341671303355887e-001,
          1.9153181286130785e-001, 6.7874046994852555e-002,
          8.2955288184791864e-002, -1.0173915838869069e-001,
          -2.0423717245997494e-001, -2.7330599829469143e-001,
          -1.0219409038879318e-001, 2.3485799249234429e-001,
          2.4070269351738569e-001, 8.2769610301795371e-001,
          -1.0244927794255389e-001, -2.1619439015376499e-001,
          -1.9271133650323660e-001, 6.5243940896921648e-002,
          -1.2480637034656547e-001, -1.7962570700731800e-001,
          4.4663958329755843e-001, 1.3671928439100622e-001,
          5.3236673620803887e-001, -2.1078534719403048e-003,
          -2.7821557355505000e-001, -4.6870264165617648e-001,
          3.1579233421451391e-001, 2.4811713435568186e-001,
          1.3660429955908154e-001, 3.3375102811874099e-002,
          -1.5484002578569286e-001, -1.0274945565137603e-001,
          1.4101260984727274e-001, -1.1134731477711006e-001,
          -2.9618266890885997e-001, 1.1400160236896541e-001,
          -8.4397269115463536e-001, 1.3967458715281023e-001,
          5.8961699772791643e-001, -6.8622699779815846e-002,
          2.5727333575399976e-002, 8.0412651873732352e-002,
          7.0829438983420623e-001, -3.6478071029287978e-001,
          3.2346237632963501e-002, 5.2424777824089341e-001,
          -3.0567447919132056e-002, 1.4670769430014802e-001,
          -1.1709103704529454e-001, -2.9195480267500951e-001,
          1.5401426194596582e-001, -4.0390870474766333e-001,
          1.4405268608374916e-001, 5.9167460677393113e-001,
          -7.4562302357645091e-002, -5.1400241065882778e-002,
          8.1357464842547619e-002, 7.0907149062275021e-001,
          -9.9711662365358084e-002, 3.3824637379974092e-002,
          1.5736205849426096e-001, 1.6932266578920392e-002,
          1.4468996904052944e-001, -1.1246437831784949e-001,
          -3.0534830625933915e-002, 1.4909710690258429e-001,
          -4.0332715572859384e-001, 2.1419255441046214e-001,
          1.7471227567245720e-001, -6.8178541231699058e-002,
          -5.8853415936988208e-002, -1.7963611356290529e-001,
          9.1419180894218063e-002, 5.4263856699896140e-002,
          1.7871051138310304e-001, 5.1592846722083674e-001,
          2.0919171500544041e-002, 1.4880803666219530e-001,
          -1.1151155301107606e-001, -2.9622726743298655e-001,
          -1.0696131789418652e-001, -3.9324206656719268e-001,
          1.3809338255491649e-001, 5.8911487561901876e-001,
          -7.8787591124621859e-002, -5.5918967513300548e-002,
          7.4861174292067983e-002, 2.5872608109464529e-001,
          6.2952775632347732e-002, 1.7666430937151870e-001,
          1.5226052026198203e-001, 6.7701866470900554e-002,
          1.4205346207952543e-001, -2.1197353231215640e-001,
          3.2504041295608521e-002, -1.0468442955389816e-001,
          -3.9781935146638375e-001, 2.2540828542299679e-001,
          2.4649567331289493e-001, -1.7355808247146323e-001,
          5.6516136297160867e-002, -1.7995239337694827e-001,
          8.2742507834622692e-001, -9.5577981249072436e-002,
          -6.2270656164463707e-002, 1.5256897345241141e-001,
          6.8657690550049930e-002, 1.4985382752514184e-001,
          -2.1577544672672705e-001, -2.9793042605116937e-001,
          -1.1141366293114784e-001, -3.6219677232952135e-001,
          2.1947127313063172e-001, 2.6819158485778505e-001,
          -6.2692079598231559e-002, 4.7132675460847269e-002,
          -1.8002378825376744e-001, 4.3066683964358415e-001,
          5.4427374209725321e-002, -6.4280559869178189e-002,
          1.4975818042308778e-001, 6.4608210529806434e-002,
          -3.6644888047019314e-001, -1.0514350010317573e-001,
          -4.4430938195709141e-001, -1.1094765602652822e-001,
          -3.6627015658223544e-001, 3.0001338318912198e-002,
          -1.9752879528687048e-001, -1.7798112451395068e-001,
          1.1090526459862311e-001, -1.3939673296852287e-001,
          2.0600017794005707e-001, -1.6658442034390245e-001,
          -7.5784399732006416e-002, -1.0938961577650974e-001,
          3.9435363279472424e-001, -1.3420942738929994e-002,
          -1.9263214490097585e-001, -1.2696029004499623e-001,
          1.5223258089944583e-001, -9.0630897053476073e-002,
          2.2583631107619839e-001, 5.0683992040027742e-003,
          -3.4892934236842654e-001, 1.2292585077296704e-001,
          1.1590440171283117e-001, 2.2032290819075290e-001,
          -5.0552801741040369e-002, 1.2793866757886765e-001,
          -1.0711060548259002e-001, 5.9062668593393430e-001,
          -2.9638954804988277e-001, -8.9272977464380884e-002,
          3.4107809113482185e-002, 1.4815406625213542e-001,
          7.3933043368926088e-002, 2.1079253600027070e-001,
          -1.0424761729628422e-001, -3.0123839764188676e-001,
          -1.0656257272819424e-001, 1.0241789499651809e-001,
          1.8947926325051870e-001, 2.4235552088565018e-001,
          1.3226336169134367e-001, -1.0572890458592826e-001,
          1.0811361832807494e-001, -7.9980248094211101e-002,
          -1.2525823477425588e-001, 1.1634813196165737e-002,
          1.5504095247555325e-001, 6.0193562413122917e-002,
          2.2241142287492394e-001, -1.1001863667658419e-001,
          -2.1409648178865673e-001, 4.0214323524155271e-002,
          2.8693056804035683e-001, 5.7468901790117904e-002,
          2.2997134470633157e-001, 2.4256946395451548e-001,
          -1.0204504517679019e-001, 4.8650678350609121e-002,
          -2.5744061317940892e-001, -5.9116893970599139e-002,
          2.1866986790930210e-001, 4.6218140093255194e-001,
          7.0744192419022134e-002, -4.4787209648679099e-001,
          -7.4082195619649771e-001, -3.1028846677648148e-001,
          -1.4917005583286252e-001, 7.3581515673122910e-001,
          -5.7120888685735272e-001, 6.6825939768418241e-001,
          3.1047161255945305e-001, 3.3881922223887497e-003,
          -7.5124167043065168e-002, -2.2779108440785514e-001,
          -1.1620392588977778e-001, -1.2329699170066248e-001,
          1.4417950108665009e-001, -5.4631796717562853e-002,
          -1.4398854806999700e-001, -3.0322364389428880e-001,
          -3.9711379284430130e-002, -3.3195731616844687e-001,
          7.9314560276399604e-002, 2.4208488094517058e-001,
          1.6515407963942166e-001, 1.0551298583742884e-001,
          -1.0502530310917152e-001, 5.4006712311023365e-002,
          -6.7557750226917818e-002, -3.9731736719269595e-001,
          -5.2032245454518955e-001, 1.4835803054473021e-001,
          1.5542137038176815e-002, 7.4743229029980941e-003,
          2.2039082998984905e-001, 5.6121073663116949e-001,
          -6.7029233736184191e-002, 7.2552180001558858e-002,
          2.4464188654960817e-001, 7.3091382090126403e-002,
          1.2337592936843005e-001, 4.9111287671244765e-002,
          5.0262386015823092e-002, -6.8906709549630546e-002,
          -1.4896334920126189e-002, -3.3711596145958050e-001,
          -2.0886687999765469e-002, 3.7913706429750949e-001,
          2.0678925583470054e-001, 2.1526241499639187e-001,
          5.6829749868402979e-001, -2.9913723011970295e-001,
          -2.3683146506922068e-001, 2.4959192791540163e-001,
          5.3933307755594706e-001, 9.7908204038588617e-002,
          5.0293763003417306e-002, 1.4665029283278663e-001,
          -6.5034902246006387e-002, -1.0846421415138373e-001,
          -1.2449411716999619e-001, 1.6072770774353121e-001,
          -2.7693896533923795e-001, 1.4171982477146898e-002,
          2.0855221114246714e-001, 2.4297954319591408e-001,
          -5.4786101792185092e-002, 8.2145680140238944e-002,
          2.4137570729340005e-001, 6.4494605302163749e-002,
          9.5544200865018969e-002, 5.7744953070794088e-002,
          -2.6628476597641670e-001, -6.3307278630932856e-002,
          -1.0677645919154190e-001, -1.1835364946495534e-001,
          -9.5766083458289103e-002, -1.1568397856835701e-001,
          -1.4362142706862382e-001, 2.2510948577808795e-001,
          2.4579157594834117e-001, -5.3814989244462548e-002,
          7.1629947191441445e-002, 2.4535518027585970e-001,
          2.4883556874155588e-001, 3.4275756517855549e-001,
          4.9890863211133625e-002, -2.6687269319765606e-002,
          -1.4318507773246628e-001, 5.6106565963781625e-003,
          1.1773776496862304e-001, 2.5883153055472374e-001,
          -9.1783906187878017e-002, -4.4432212484441447e-001,
          -7.4273181146820044e-001, -1.8601861319831665e-002,
          1.1685187746734517e-001, 2.7290001699398897e-001,
          3.1440948935227593e-002, 8.8710433961833057e-001,
          3.1037970092759848e-001, -3.7583226698808619e-003,
          -2.2067830859407375e-001, -1.6213293006878249e-001,
          -1.1562104391044936e-001, 1.2815335104255357e-001,
          -1.1190645547591670e-001, -9.9455237838323746e-002,
          8.1136256143982177e-002, -1.9728389651600750e-001,
          -4.2648211932893247e-002, -4.7565421246545607e-002,
          7.2124268479305087e-002, 2.4461200256759025e-001,
          3.5554122028197285e-002, 1.8369024687886210e-001,
          -9.9792500157688646e-002, 3.7071839298768320e-003,
          -1.6780830139051994e-001, -1.0572119613460521e-001,
          -1.8962798178096271e-001, 1.5326619669899225e-001,
          -2.7526277168267727e-001, 8.8659994578905083e-002,
          -2.5006254912754960e-001, -7.2299813865962292e-002,
          4.9684593453922961e-002, -1.8162570162567995e-001,
          2.4932156842415645e-001, 2.1414732973011075e-001,
          3.4834994550094769e-002, -1.0428461239010675e-001,
          2.6343643699713659e-001, -1.1491644341066394e-002,
          -1.0893930378562411e-001, 2.4080846961086760e-001,
          -1.1139766712318870e-001, -9.7113151872895792e-002,
          2.2252669643436540e-001, -8.0128108108573331e-003,
          -6.1952383352639855e-002, 5.1652738066306401e-002,
          -1.8396547431000884e-001, 1.1375741997161687e-001,
          6.2247572997211426e-002, -3.2936526022830181e-001,
          1.5875264250767410e-001, 6.4164601938661706e-002,
          -1.8603466113751053e-002, -2.1175220929540731e-001,
          2.9153295642576297e-002, -1.1254632043834779e-001,
          -3.9470963540852905e-001, 1.4381930757647060e-001,
          2.6124475889526083e-001, -1.7185469397351774e-001,
          4.6043202766235802e-002, -1.8313272635664476e-001,
          2.5994022761495855e-001, 5.6140085330999227e-002,
          2.8571954538549417e-002, 1.5654657002770608e-001,
          6.8803056527459563e-002, -2.3784001219298018e-001,
          -9.0684282512347211e-002, -1.7248619683171756e-001,
          -1.8635630663726346e-001, -2.5592488515297679e-001,
          2.0279068535055367e-001, -2.9397324903275551e-001,
          1.1377919743121503e-001, 3.0320872212220573e-001,
          -1.8156862126516835e-001, 2.5806270172266665e-001,
          9.3737034675053912e-002, 2.9947662251752033e-001,
          -1.0772399755715464e-001, 6.5418639970881631e-001,
          -2.9467540062157599e-001, -1.3416792734717822e-001,
          -3.3274477220014156e-002, 6.6904845484325237e-002,
          2.9586821366452504e-001, 2.1528062038597673e-001,
          5.4663942841363743e-002, -2.7685967708564757e-001,
          3.7787992050558139e-001, 3.6057694571682147e-002,
          -7.0502783934755134e-002, 1.2643369637422017e-001,
          1.5209807107144957e-001, -3.7267393656735293e-001,
          1.7310622437567444e-001, -2.9056379848942399e-001,
          1.7760121575936552e-002, 8.7261989744683621e-001,
          -2.3551267349575928e-002, 1.4676240784369865e-001,
          -1.5060297283037835e-001, 2.5815876620261591e-001,
          -2.5972640154292646e-002, 1.0532089796871187e-001,
          2.2775123711809184e-001, -2.6473067755540414e-002,
          1.3156533483133864e-001, 2.1506441682854824e-001,
          -1.0200764985515054e-001, 7.9112161542749126e-001,
          -9.2795773591041984e-003, -1.7763389873616817e-001,
          6.7954044551019899e-001, 2.3955152770667390e-001,
          9.4713410457559433e-002, -1.3867604578397191e-001,
          -2.9472132570847166e-002, -1.2001622596151551e-001,
          -4.3225903396735310e-001, 2.3336978841120706e-001,
          -2.2001601099494578e-002, 1.0639663546048340e-001,
          -1.3872079500348364e-001, -1.5768311447352626e-001,
          3.5958284949972004e-002, -1.2804349075389870e-001,
          -9.4361425145496405e-002, 6.9499179397678870e-002,
          7.1239633866799670e-002, 7.0899890751457417e-001,
          -4.7688837389207916e-001, -1.3541858920003303e-002,
          4.9343814093279392e-001, -2.4128269553940507e-001,
          -2.8444942187988119e-002, -8.9562277649411812e-002,
          5.1538027336962955e-001, 1.2258193220536741e-001,
          -9.6631507974751535e-002, 1.3288284927936053e-001,
          9.8204991682266055e-002, 4.6371893026589207e-002,
          -4.6378288668130002e-001, 1.9461680988353047e-001,
          4.4812390109672640e-001, -1.2055472345129986e-001,
          6.1493498894921661e-001, 2.0883322954212905e-001,
          -1.4889259165405982e-001, -7.2525518172206371e-001,
          1.8542534855112749e-001, 5.4159016138549998e-001,
          3.2102832060829323e-001, -1.0102411988957627e-001,
          2.9434321000854666e-002, 1.7918699775379082e-001,
          2.1759647533461240e-002, -8.8845474803461799e-001,
          -5.0861731087399054e-002, -4.0098849453355401e-001,
          2.0135260464803084e-001, 2.1857981066604490e-001,
          2.4736679556646776e-001, -1.6429896494115878e-001,
          -2.2713104168805640e-001, 2.4820861691813939e-001,
          2.2303304331251692e-001, -7.7292297124622239e-002,
          5.1557578715815988e-001, 1.0955170350030134e-001,
          1.5784955439329333e-002, 1.8411480954210233e-001,
          -8.7564227823319118e-001, -5.8392597764873641e-002,
          -8.8625760997886216e-002, 1.3852198815533612e-001,
          2.2372400210949903e-001, 4.1374357949746587e-001,
          1.9214604405870091e-002, -2.3061083671574431e-001,
          2.1105251288229485e-001, -9.5996972799878219e-002,
          -8.3033828835018669e-002, 1.5184017161887939e-001,
          3.6473978382181103e-002, 1.2687702546739571e-001,
          3.4512461332863974e-002, -4.5327914662843000e-001,
          -1.9550909789555748e-001, -3.4275873521016659e-001,
          -1.1705729201564641e-001, 2.2754709688202729e-001,
          1.6132714048885730e-001, 8.1207822679540367e-002,
          -1.3223663964025914e-001, 3.5536077293735834e-002,
          -6.9964754006848220e-002, -4.1309855102682098e-002,
          5.2002994929646928e-001, 1.1662215957165482e-001,
          1.7129772215627598e-001, 4.9869386190529365e-002,
          1.9427505984347684e-001, -8.1763519710769589e-002,
          -2.3136969369654872e-001, -3.0917848088935512e-001,
          2.2230305969800318e-001, 2.3603626524901156e-001,
          1.2810777130395110e-001, 8.8197966995810909e-002,
          1.8328937695933592e-001, 3.5475737411231761e-001,
          3.0010033519360274e-001, -1.0495558021554680e-001,
          -4.3453696490629960e-002, -6.7405983238298078e-002,
          1.8020958770682458e-001, 6.7925248722889311e-002,
          1.3412429544075679e-002, -8.5364443670183685e-002,
          -2.0896002924913903e-001, 2.1369751708186191e-001,
          -4.4202654105676080e-002, -8.2737047629067497e-003,
          8.4216000623089857e-002, 1.9100238013134971e-001,
          9.0984581015579002e-001, 3.6288290297438291e-001,
          -1.0616471827084822e-001, 3.6354419739560806e-001,
          -2.5184001369803588e-001, 1.5243195244912000e-001,
          1.1953592716460038e-001, 1.7950816012070707e-002,
          -8.8390683570232942e-002, -4.4799600852208876e-001,
          -4.6712291061160249e-001, -2.0752464351640468e-001,
          1.1897953626503902e-001, 2.7245603443556959e-001,
          1.9118169675134242e-001, 5.5834509197944082e-001,
          1.8173083928087896e-001, 9.2968395816945128e-004,
          -4.7776234155517031e-002, -1.6389224680113179e-001,
          -1.0881361503756569e-001, 1.3605182276022768e-001,
          -1.1373274589960296e-001, -1.3172163617687468e-001,
          8.2676022885058820e-002, -1.9800457616703690e-001,
          -2.7417153808202072e-001, 5.0411010540756929e-001,
          2.4248951791767401e-001, 1.8300136669275416e-001,
          2.8222249499515226e-002, 1.8891633734308746e-001,
          -1.0894079625413505e-001, 3.5899064058256278e-003,
          -2.7059997845975975e-001, -2.3150012384338441e-002,
          1.3444174656575816e-001, -1.2328774956615862e-001,
          -4.2734196658281376e-001, 4.1754848623958958e-002,
          -2.9674227592092112e-001, -2.7260989886766029e-001,
          -4.3755761272787335e-003, 8.0813200425605983e-002,
          1.8574599528778671e-001, 5.3320389656064282e-002,
          2.9715817386117216e-001, -9.9664559754012977e-002,
          2.6270310654539775e-001, -3.8842332656108608e-001,
          -1.1729239661598456e-001, -1.8096086779548601e-001,
          -1.1621247922858467e-001, -2.7989945221662654e-001,
          4.6777900728070428e-002, -1.9152985065063474e-001,
          -1.7796489685647601e-001, 4.9305214817444751e-002,
          -1.7929547939260956e-001, 1.7643022648408242e-002,
          5.5376444011415088e-002, 3.2628588717299817e-002,
          1.5112081482303200e-001, 7.1081041697279648e-002,
          -6.3803441806164496e-001, 2.8157476355693761e-001,
          3.6107154412436510e-001, -5.8082196676052508e-002,
          2.0946182592968632e-001, 3.5454399965152282e-002,
          -2.5546694723733954e-001, 1.1579722120897641e-001,
          1.0271483555793659e-001, 2.1462265593115934e-001,
          -5.8592108731170689e-001, 3.5391535477381164e-001,
          8.4516472754156946e-001, -1.0982752097265192e-001,
          -5.2726966913825522e-002, -1.2014946640773901e-002,
          -1.3236774263542680e-001, 8.7231861783480813e-001,
          -9.9029868380990010e-002, 2.9671138589987989e-001,
          -1.8645240751420666e-001, -8.5923711696111849e-002,
          1.0529964155355175e-001, -4.1740360102316035e-002,
          2.2754736055878097e-001, -1.4599665915249441e-001,
          3.5239468778848476e-001, 1.0565801245157493e-001,
          -1.5706783273391836e-001, 2.3671601793869766e-002,
          3.9230575394717865e-001, -1.3330635625537193e-001,
          8.8565214913559165e-001, -1.0117964409076771e-001,
          8.3165326286621738e-002, -1.7912490187039495e-001,
          -8.7257524041063739e-002, 5.0922150407997760e-002,
          -4.9695000977095269e-002, 1.2388213463020734e-001,
          -2.0958477747819013e-001, 9.7541688612521493e-002,
          8.5625088101093275e-002, -1.5798962086330956e-001,
          2.2081624528169367e-002, 3.9203032180803660e-001,
          5.2414673683845045e-002, 8.7914350791297524e-001,
          6.5113238049925068e-002, 2.2117349106091833e-001,
          -1.4096563558815667e-001, -7.6599863113408606e-002,
          1.7719728068880744e-001, -4.9767275387213990e-002,
          1.2971641413698767e-001, -2.1213396196669385e-001,
          7.1398764829266670e-001, -8.1943484865268409e-002,
          -1.5431665384196344e-001, 1.0071500533329907e-001,
          3.9133462815659353e-001, -4.2010658950633060e+000,
          4.4107136460891888e-001, 1.0849326261621367e-001,
          7.4450400594714694e-001, -7.1716543083941972e-002,
          2.5908360282667919e-001, 1.0001662307639853e-001,
          -5.1618523199339794e-002, 2.0308591416945093e-001,
          -3.7484440470291848e-002, 3.5731106940873913e-001,
          1.8976945195236999e-001, -1.5826486330318942e-001,
          -8.2851227430536092e-002, 1.3596469852637635e-001,
          1.6305515401565146e-001, -1.6473475771532775e-001,
          -3.0605741875558334e-001, 7.1130251020625149e-003,
          -1.3528149825744051e-001, 2.0142035490041074e-001,
          5.1092178722368131e-001, -1.2151012730312529e+000,
          -3.1857274367607130e-001, -7.6169262614250971e-002,
          -8.2800644923204575e-002, 1.8443534632596462e-001,
          2.0998692081684453e-001, 1.7284928460762841e-001,
          2.1011028954617195e-001, 5.3462362654671536e-001,
          9.7700776851861793e-002, 2.4678802765963626e-001,
          -6.4338431810826657e-002, 1.1830489939357507e-001,
          1.8483747303952910e-001, 4.1431444114945082e-001,
          5.6094853979278693e-002, -3.3556465520468959e-001,
          -3.0639727811341350e-001, -7.8364983787205522e-002,
          3.0416950702879009e-001, 5.2528055150201913e-001,
          -3.5149508864122103e-003, 8.8288270495400736e-002,
          3.2864000755008428e-002, 3.3681017088950452e-002,
          -2.5475937720114850e-001, -8.3326656950612421e-002,
          1.2063838412365267e-001, 3.6558552846327214e-001,
          1.5287397756037424e-001, 1.2820181016975188e-001,
          -2.3269347508469976e-001, -2.4771602026885156e-001,
          -1.5640286319974578e-001, -2.5802305792377224e-002,
          5.2228682618901645e-001, 3.1573771238470848e-002,
          1.6743825918830661e-002, 8.7992147784183392e-002,
          -4.6721417298816775e-001, -8.2830095374935353e-002,
          -5.4105053792157276e-001, 1.3742994701381256e-001,
          3.9259603938001164e-001, 4.1088849810787864e-001,
          8.7712579110429609e-002, -8.4303755920495438e-002,
          2.3103075481707026e-002, 2.1538788266164424e-001,
          -7.7298550099869578e-002, 2.1773461087558457e-001,
          7.8482484160484062e-002, -3.9390901506320369e-001,
          -1.8499902819241482e-002, -1.8381469181738871e-001,
          -1.0792968969547001e-001, -7.3258508722807525e-001,
          1.1528565064421452e-002, 1.1377208022460487e-001,
          3.4008745277345825e-001, -3.9229321790340270e-002,
          -1.7386519806623094e-001, 2.1330478646605802e-001,
          1.9175886276016785e-001, -8.1776402264722658e-002,
          1.5751693940726005e-001, 8.1598853869395152e-002,
          -7.7477013678489942e-002, -1.1584540313417441e-001,
          -1.9413254831909615e-001, -1.0730579297826311e-001,
          -2.7545903686445661e-001, -1.4453046542047354e-001,
          -1.6486470296612651e-001, -2.0333575564826095e-001,
          -1.3678625101531033e-001, -1.6995307237690024e-001,
          1.9243148288496584e-001, 2.6276052188230781e-001,
          3.8269319887910130e-002, 5.0271155899972407e-002,
          1.4806634326729992e-001, -4.9145561423027678e-001,
          1.2903695956510197e-001, -1.8366554773403307e-001,
          7.2416587712024638e-002, -1.6573291652564187e-002,
          -4.4541039311001562e-001, -7.4239924461280427e-001,
          -7.0743364637539707e-001, 2.0095167993170182e-001,
          -2.6326028525043180e-002, 9.8781026789646564e-002,
          1.0655182465618707e+000, 3.0590911245664026e-001,
          -2.1248055447333616e-001, -8.1814839381631879e-002,
          -4.5902194560284643e-001, 1.4194379150959913e-001,
          -1.8337616427641037e-001, -1.2506112128333591e-001,
          1.5293218987339524e-001, -2.0546762455973722e-001,
          -7.5989754090156258e-001, -2.7697019678950197e-001,
          -1.0634325424395527e-001, -1.3645075066223972e-001,
          1.0892132879304212e-001, 9.8055088901478527e-001,
          1.5096033886284507e-001, -1.0362069899384668e-001,
          5.5040947578285045e-002, -2.2427151177248614e-001,
          5.4818617285468420e-003, -1.7856125097868697e-001,
          -1.2418741334189515e-001, -1.1636517710284873e-001,
          4.2474907432168287e-002, 2.1902437291551866e-001,
          -3.1089743864529523e-001, -6.1261544154544448e-002,
          2.6290012964993559e-002, 1.8664722332984815e-001,
          4.0588400147660009e-001, 3.0134261155803005e-001,
          -1.0645171516183055e-001, 1.0793497209436546e-001,
          -2.9993223403722452e-001, 1.8577926402907061e-001,
          1.2682324824286881e-001, -1.0609568699824239e-001,
          -1.0091854705338862e-001, 8.9470222431535101e-002,
          -4.9887051219358956e-002, 1.1170366138475669e-001,
          4.8866392767930955e-001, 2.3622443966744941e-001,
          -8.1493251062630265e-002, 5.2138151394587242e-003,
          1.8832750953765820e-001, -1.1005736604015509e-001,
          -1.4182477359405643e-001, -1.9148678835398844e-001,
          1.8399505859335651e-002, 3.5126657451981974e-001,
          -9.3340495599920331e-002, 2.1224283694338347e-001,
          -5.3005163404189704e-001, -2.5122667941706545e-001,
          8.5555864321327307e-002, 1.6394002706848942e-001,
          2.3656264640636163e-001, -4.3108137975272737e-001,
          3.6169041383454642e-001, 2.6052337502351114e-001,
          -3.7086830393069947e-001, 3.5741832440123433e-001,
          -2.0489467679586613e-002, -1.3507000434484065e-001,
          8.7261918698005347e-001, 1.5098173474678169e-002,
          2.7869442051552995e-001, -2.0602253699344086e-001,
          -8.3890920556974280e-002, -4.0334322596216732e-001,
          1.7209340473488061e-001, 2.3235526162080908e-001,
          -1.5020501969651165e-001, 3.5788808233900771e-001,
          2.6537696842344111e-001, -5.2059068140500320e-001,
          2.8285572265160239e-002, 3.9640964845353549e-001,
          -1.3980242743092117e-001, 8.7118164596439773e-001,
          1.4398583768693998e-001, 2.2012675807236903e-001,
          -1.3218140027509701e-001, -7.9202804857246262e-002,
          1.7632986687893518e-001, -3.9939493024120296e-002,
          1.4428481766719153e-001, -2.0808152299455737e-001,
          2.3070867981712717e-001, -2.7672429271496490e-002,
          -1.4931272031584683e-001, 2.7819499315390992e-002,
          3.9226289440294976e-001, 1.7627235076433506e-001,
          5.8237099918471402e-001, 1.4951293352891651e-001,
          8.6704465713171031e-002, -5.8882529843306223e-003,
          -8.3260773406849009e-002, 1.8015066535441135e-001,
          1.3476628417835804e-001, 8.9009478228254613e-002,
          -2.0689455667635873e-001, 7.2807325271508361e-001,
          -3.1775446213243533e-002, -1.5186820783258367e-001,
          -6.7377992084869012e-002, 3.9615696847648646e-001,
          8.5739176129486269e-002, 1.7206504991977550e-001,
          3.8560600949881402e-001, 2.2478414304838273e-001,
          -7.2187004285098513e-002, 2.5162709438984521e-001,
          9.6073604721497258e-002, -3.6764620121890391e-002,
          8.3978424017137912e-002, -2.1390549437323528e-001,
          1.6008783070896862e-001, 1.8469191586029118e-001,
          -1.4839228408077046e-001, 1.5534909817014659e-002,
          1.2905896211052303e-001, 1.5730227376991809e-001,
          9.5950742145672008e-002, -6.3209239349579463e-002,
          -2.7397990757292651e-001, 1.2777820073141377e-001,
          2.0489301115794281e-001, 4.0840996335258228e-001,
          1.0501154551544524e-001, -3.1946991522798235e-001,
          -5.3105165454795544e-002, -5.5154262456195778e-002,
          3.0713806738896376e-001, 2.1410841059684396e-001,
          1.9520724588124785e-001, 7.9548360821837957e-002,
          -1.2851039917865234e-001, -1.8616004120851098e-001,
          -7.2959805320205739e-002, -6.4473636812472951e-002,
          1.2600038566237601e-001, 1.5031624576593508e-001,
          1.5749383201193762e-001, 1.0390094908266817e-001,
          -2.3802477161959010e-001, -2.4512330479675845e-001,
          -2.0402732725948702e-001, 2.9963435561270707e-001,
          2.1581019386990183e-001, 2.1599744155119840e-001,
          7.9427603235454433e-002, -1.2435946403273072e-001,
          1.0436688450188918e-001, -4.0849743138982481e-001,
          -1.2467515578324681e-001, 2.6232443418173899e-002,
          2.8966533944919665e-001, 2.7366513760923061e-001,
          3.9171336771001070e-001, 1.5063127170122615e-002,
          -3.0608579543128028e-001, -1.7216957140120098e-001,
          -1.4713271693972402e-001, 2.2025561845577094e-001,
          -2.1985833898975163e-001, 1.8653051774362016e-002,
          8.4503536860060444e-002, -4.7430868840403656e-001,
          -1.0533414632774213e-001, -7.3811514140803758e-001,
          1.4138965233233040e-002, 1.1605975339625997e-001,
          1.5710951706682091e-001, 8.9859876855164611e-002,
          -8.7913996074940118e-002, 1.6733964300967869e-002,
          -5.8685725187852623e-002, -6.4357109669583676e-002,
          5.1808693745033041e-001, 7.4249736161309379e-002,
          -3.9243484379192911e-001, -2.1866162174326639e-001,
          -4.4314294455700970e-001, -1.1594897583643181e-001,
          -7.3232802536453101e-001, -4.9565659994690835e-002,
          1.1134472023597682e-001, -1.7487889352759492e-001,
          -3.0610266511508475e-002, -1.7557621324006925e-001,
          2.0666294044627212e-001, -1.0040490636828579e-001,
          -6.8939352495462305e-002, 1.5507001237651794e-001,
          6.2617679936680201e-002, -6.4769754466848364e-002,
          -2.1270803316374923e-001, -4.4033525395180423e-001,
          4.2170519478563134e-001, -3.6504719678707026e-001,
          -4.8340796991022889e-001, 1.1322839919968591e-001,
          -3.5900257745427927e-001, -1.0438141889276778e-001,
          -2.1187608481102013e-001, 1.8767848884972796e-001,
          6.0163858778665119e-002, -3.2605994079814016e-001,
          3.8949832893258374e-002, 1.2453854017943945e-001,
          -2.8884134677533163e-001, 1.5378250575698246e-001,
          -1.8512176157127205e-001, 7.1624761152686567e-002,
          -1.7817253474330899e-002, -4.3696934866401527e-001,
          -4.6287901796880793e-001, -6.4930385819391601e-001,
          -9.2385675678748266e-002, -4.8842559834055964e-002,
          1.8916583801654682e-001, 9.8585593127827842e-001,
          5.9906620945737746e-002, -2.1196829319307101e-001,
          -1.2703275386732507e-001, -4.5739715449072565e-001,
          2.6475466487645599e-001, 1.3619309561199658e-001,
          -1.2295168693493891e-001, 1.5151357062118187e-001,
          -2.0943368853211253e-001, -7.3458327306943083e-001,
          -1.1986249701238363e-001, 1.9574341836443748e-001,
          -4.6713226713898374e-002, 1.9308257405838705e-001,
          9.7697006962661992e-001, 1.6260367959972014e-001,
          -1.0173810530140032e-001, 1.0922254531961899e-001,
          -3.7124758696922106e-001, 1.1239120281154688e-001,
          1.2348623525747104e-001, -2.8189685705895057e-001,
          2.1510308584463439e-001, -4.4284788357377335e-002,
          -1.7677265893193836e-001, -2.8240432916327557e-003,
          1.8366147318713011e-001, 1.2220366003096841e-001,
          -8.3816018465486350e-002, 5.6725873819334649e-001,
          1.5104060173620529e-001, -1.0053364498199036e-001,
          -5.2571187855562647e-002, -7.6548636167536466e-001,
          2.2816969537760826e-001, 1.2880108006668095e-001,
          -3.8647809473983591e-001, 1.6535689536383585e-001,
          3.1960440110204413e-001, -2.6509096369030993e-001,
          1.2004321959988041e-002, 1.9426543215088671e-001,
          -3.0183494688164531e-001, -8.9653216054600790e-002,
          4.8493021575000977e-001, 5.2023431279991583e-001,
          -1.0919486662004008e-001, 1.2840946304786252e-001,
          -1.3215327235474816e-001, -1.7836738129984278e-001,
          2.2469579563867403e-001, 6.5620052164746447e-003,
          4.9246714236614531e-002, -5.6728735592454382e-001,
          3.6337236324782058e-003, -1.4903564949751499e-001,
          -4.3283155864189016e-001, -2.6292492775611531e-001,
          -1.1692780682662351e-001, 3.5430463011483715e-001,
          8.4444061469154863e-001, -3.7264832297111916e-001,
          3.5235058595495039e-001, -1.4860395515208343e-002,
          -1.8532824720389775e-002, 4.1382282966228212e-001,
          1.4287245758559128e-001, 4.2536239148035913e-002,
          -2.0366377042032230e-001, 2.5361983471561267e-001,
          -1.5306565791161236e-001, -2.8263337662038274e-002,
          5.4040431483082151e-002, -2.6341223132514496e-001,
          2.2714471444952639e-001, 3.3914484221956298e-001,
          -5.2204610458405054e-001, 1.8706688738283483e-001,
          3.9770471551474557e-001, 2.9693306157932673e-002,
          4.3121351060653584e-001, 1.1548518038298163e-001,
          1.7833442356502663e-001, -1.3803881391705997e-001,
          2.5331513410128836e-001, -1.1256707250915278e-001,
          1.0179783237834727e-001, 1.2800660752483529e-002,
          -2.0917076772160501e-001, 9.7003462096507204e-002,
          1.3466569552175267e-001, -1.5333659110585748e-001,
          -3.5360086517934132e-002, 3.9694748494572069e-001,
          1.2497443743625448e-001, 1.7849926666983737e-001,
          3.8815349425746698e-001, 2.3426368931624872e-001,
          -4.4179191932172623e-002, 2.5827567676377161e-001,
          2.6489980821775544e-001, -3.7554655292246282e-002,
          6.2242877406009652e-002, 1.7788706328308046e-001,
          3.4545358302788054e-001, -3.7145770208911050e-002,
          -1.5669951932207918e-001, 1.1785907972335015e-001,
          1.0341726012417511e+000, 1.3026719992677341e-001,
          1.7549205022802852e-001, 1.2071137755825462e-001,
          -1.8223043942882453e-001, -7.4590105767676954e-002,
          4.7326828409740074e-001, 1.4524088360030543e-001,
          -3.1518609255094837e-002, -2.7777319832700742e-001,
          2.0387328439318805e-001, 1.5825989822072348e-001,
          -2.4950446493986967e-002, 1.0050064861214303e-001,
          2.8022694520418938e-002, 1.2693501947860386e-001,
          3.3533907302927289e-002, -1.9240397669617459e-001,
          -6.4244452725298232e-002, -4.5547195437439805e-002,
          -1.3435553397660357e-001, -5.5839156665354092e-002,
          4.1181717108158300e-001, 3.8836966702623577e-001,
          -7.0746472882850575e-001, -5.6280387644022462e-002,
          -2.0709219877623020e-001, 2.9778356085167823e-001,
          2.1539743402017261e-001, 1.9395805821551984e-001,
          8.2165800322877833e-002, -1.2564781962974128e-001,
          9.5324125771116985e-002, 1.1962324826023836e-001,
          -6.5057169579383900e-002, 1.2494867487309379e-001,
          3.9706569314118600e-001, 1.5180190834356450e-001,
          1.0289427841290512e-001, -2.3659876652432885e-001,
          -2.4269805240720130e-001, -1.6838083081423610e-001,
          -2.1787926895735575e-002, 2.1719757715887614e-001,
          2.1418468215443412e-001, -9.4510503441425628e-002,
          -1.3098067731922960e-001, 1.0286953024492594e-001,
          -9.0234770670346853e-002, -1.4848677880565331e-001,
          2.8162492553793366e-002, 1.1364402854092566e-001,
          -6.6973410960245422e-002, 8.9211462773323563e-002,
          1.3253506364582937e-001, 2.5852157444900121e-002,
          -8.2619162808695024e-003, -1.4666576582036597e-001,
          5.1845987998542342e-001, -3.3699269278486255e-001,
          -3.9653547497143798e-001, -2.1621104370037469e-001,
          -1.3601184864853146e+000, -1.4822539233398843e-001,
          -7.3891550539616424e-001, -5.2893052124137314e-002,
          1.1367013774875519e-001, -5.5927703487076213e-003,
          2.9960867391530539e-002, -1.8023144540239869e-001,
          2.5866407139069129e-002, -9.3801990463648080e-002,
          -5.6817261511129424e-002, 5.1781825008579452e-001,
          -1.8384768628125436e-001, -3.9467292914772706e-001,
          -2.1691645317154454e-001, -1.3535226502760920e+000,
          -1.1077167268496461e-001, -2.7401236272704899e-001,
          -4.5667700723407374e-002, 1.0362392459510461e-001,
          -1.7609949888605000e-001, -9.8972665252089059e-002,
          -1.7548079194051067e-001, 2.1588084771969238e-001,
          6.3889712005816238e-002, -5.8775158597066772e-002,
          1.5187075783878387e-001, 2.4093824391210026e-002,
          -2.2937498047329202e-001, -2.2207611453009177e-001,
          -4.4873919851872063e-001, -4.0284939481808960e-002,
          -5.9335950405187310e-001, -8.4051418971737180e-002,
          -4.6477307138832136e-001, -4.0564935067239788e-001,
          -1.1332610505216273e-001, -3.5052468429285853e-002,
          2.0515320289510150e-001, 6.2631148735398615e-002,
          -8.0056801806108011e-002, 9.6080761733195463e-002,
          2.1189636915094488e-002, -5.0030875116807727e-001,
          1.5152927014990691e-001, -1.8863468654677076e-001,
          6.2263894051959985e-002, 8.8433603234548103e-002,
          -4.4380717006392317e-001, -3.8884842158058169e-001,
          -3.4733385674442158e-001, 2.2867090896917622e-001,
          -2.2965777257563955e-001, 1.8279698223154997e-001,
          9.6867127234868577e-001, -1.0511603237152747e-001,
          -2.0933567599316802e-001, 5.4826796311975907e-002,
          -4.4846088071550277e-001, 4.6009564782441045e-002,
          1.2339416671766767e-001, -1.1835423762415755e-001,
          1.5589947218951117e-001, -1.6200597235679140e-002,
          -2.5011475451060944e-001, -1.0975044720365926e-001,
          1.0452472050594791e-001, -2.0732112401320305e-001,
          -8.3351257605705678e-002, 4.4422986944360515e-001,
          5.1277656887624967e-001, -1.0016251462218817e-001,
          1.0259305290432170e-001, -4.9865879378118166e-001,
          -1.6524148774062188e-002, 1.1959598716919345e-001,
          -9.5623075993130718e-002, 2.1055890468532301e-001,
          -4.5111618543573331e-002, -2.6462836360091158e-001,
          -1.9638251735355636e-002, 9.9934960740650405e-002,
          1.9622138485170790e-001, -1.9607861987419248e-001,
          2.8845097907412109e-001, 5.1646362729381368e-001,
          -5.1643713474082631e-001, 2.6694529105392831e-002,
          -4.5894816386305565e-001, -2.0294514910058906e-002,
          1.1950647842498524e-001, -2.1520979066503082e-001,
          1.9070652388444204e-001, -1.1072381922542706e-002,
          -2.5254710298522143e-001, 3.5140484898383659e-002,
          1.7676006515080572e-001, 3.5901156759439404e-002,
          -1.9584653308041736e-001, 3.4205918690048598e-001,
          5.1467244770143128e-001, -1.0483941164959681e-001,
          1.4429299404216481e-001, -3.6796150335545202e-001,
          -1.8159929338718517e-001, -1.8535466492234542e-001,
          1.4721515957355344e-001, 4.9724937028036140e-002,
          -5.9992348446298904e-001, 2.3694620965124175e-003,
          -1.2425988517994116e-001, -4.3885618153346639e-001,
          -1.1119208318928540e+000, 1.6650546740106734e-001,
          6.9271367180757396e-002, 8.4089153283832130e-001,
          -3.7521807783755379e-001, 8.9574064769033224e-001,
          3.5717860785683159e-001, 2.9502599105249747e-002,
          4.4675385598198220e-001, 1.4373435990840872e-001,
          1.0570496396361106e-001, -1.2484774035990408e-001,
          2.5505751960784551e-001, -1.5587904923563972e-001,
          -4.2834192059687021e-001, -5.7131238902029802e-001,
          6.2029363084257286e-002, 1.4797908316948397e-001,
          3.3231895610585555e-001, -5.1862121850773457e-001,
          1.8870528805702758e-001, 3.8993673072431917e-001,
          1.0807896451219022e-001, 3.8546415001223239e-001,
          1.0647069463237825e-001, 1.8181940201417171e-001,
          -1.1853945511474760e-001, 2.5090338072031337e-001,
          -4.0238890959016527e-001, -5.1599604320001791e-001,
          -8.6597792683495559e-002, 7.4367175842287400e-002,
          1.7382990511330960e-003, 3.3613030535866512e-001,
          1.0023078303072513e-001, 2.8468368517377851e-001,
          3.9355692223548117e-001, 1.3161476424703480e-001,
          1.6843622121924129e-001, 3.8912901300300257e-001,
          1.8213006206436810e-001, -1.9610838685523865e-001,
          2.0147952332636090e-001, -7.4201109119565650e-002,
          -6.5148327380886828e-002, 6.0607243697944714e-002,
          3.9014843158157325e-001, -1.3824639937037478e-001,
          -2.9975006122860004e-001, 1.0165265417527009e-001,
          -1.0520671320336133e-002, 1.6384961472820847e-001,
          1.2727056440372328e-001, 1.0992673405542609e-001,
          -1.5431536286626737e-001, -1.8093000719514585e-001,
          -8.1432455298156445e-002, 1.9902534404004971e-001,
          1.4127609204534372e-001, -9.6985755665691703e-002,
          -2.9362705290529173e-001, 3.0731810192087700e-001,
          5.4542338653939967e-002, -6.5979036110161871e-002,
          1.0564292010793169e-001, -7.5779395959250052e-003,
          5.7924992292220767e-001, 1.3369850443327980e-001,
          1.7477878845017095e-001, 1.2648383181702044e-001,
          -2.4385985154691214e-001, -4.2870393597756025e-002,
          1.5127984958391349e-001, -3.6790775692837348e-002,
          1.2868057644694067e-001, -3.4913718875853386e-002,
          1.6299297089814460e-001, -1.6922244726818883e-001,
          -1.5613505939303285e-001, 1.0960851846804426e-001,
          2.8917678251146828e-002, 2.2978939978108798e-001,
          -6.6236433937684053e-002, 2.3485907120812910e-001,
          -7.8813573055733888e-002, -1.5516658629859550e-001,
          1.1038892237021345e-002, 2.5835519385548872e-001,
          -6.6049800234393510e-002, 1.1884328207808870e-002,
          1.0417294992077042e-001, 1.1594944812057034e-001,
          -1.3881519269760123e-001, -1.5466699216608612e-001,
          2.1058244160292153e-001, 2.1412889884614986e-001,
          1.4730460232093869e-002, 3.3167704735826080e-002,
          -1.2831955689331507e+000, -1.4694471720486105e-001,
          -1.3158861086915195e+000, -1.0592860626030135e-002,
          1.1586593832184570e-001, -6.5637254257483832e-002,
          2.6790588566661784e-002, -1.8251869082791292e-001,
          3.9640844957537544e-002, -9.0196657358402252e-002,
          -6.7133405360510948e-002, 5.2255729594530420e-001,
          -1.7594957751139903e-001, -3.9219247835605303e-001,
          -2.2159756157201582e-001, -4.4241628564304708e-001,
          -1.0911226963234903e-001, -5.6536413778309524e-001,
          3.1438752414923637e-002, 1.0775050769672447e-001,
          -1.1800733644605663e-002, -2.4089073239770922e-001,
          -1.8326592472057404e-001, 4.5249400118472907e-002,
          -9.9260391702759243e-002, -6.2108901425551630e-002,
          1.5093975647963384e-001, 1.9281443752792622e-002,
          -2.2740656006566934e-001, -2.1624447258483614e-001,
          -1.8968691514636429e-001, 2.2359657282449683e-002,
          -5.6771023613113702e-001, -1.0048798181750060e-001,
          -1.9156213589714896e-001, -1.3212585783778386e-001,
          -1.1212081668120821e-001, -3.3545969480450792e-002,
          4.1807930720591177e-002, -1.0088307738191957e-001,
          -3.2847225748001141e-001, 9.9784229547690784e-002,
          -2.6050138127381939e-001, -2.1966490652482690e-001,
          -2.2384083938714011e-001, -1.8735534116554722e-001,
          -4.7788254438365291e-002, -2.8603921531329624e-001,
          6.5606499247436167e-002, -4.6686365498264915e-001,
          -4.0343877488033070e-001, -9.4439590479570387e-002,
          -3.9578189942762222e-002, 4.1528645033261327e-002,
          5.8159891632483023e-002, -7.6991870439030038e-002,
          9.5928927874541076e-002, -2.5479279940820043e-001,
          -4.9289735924332295e-001, 1.4869308994378672e-001,
          -1.8798900042994285e-001, -2.2058675613867290e-003,
          6.1970307245905056e-002, -4.4715405312591067e-001,
          -5.8731383455659802e-001, -3.4240976927810929e-001,
          1.9513775058574082e-001, -2.2963665382784018e-001,
          1.8442748242134646e-001, 9.5695214250466865e-001,
          -1.0428515004655596e-001, -2.0958497353162156e-001,
          1.9536679296451695e-001, -4.9880590933667429e-001,
          -1.9116705499758847e-002, 1.1729199421658210e-001,
          -1.1728632444268441e-001, 1.7716995960126783e-001,
          -4.1223516137352860e-002, -2.6235227104860354e-001,
          -4.1400435816157533e-001, 9.4785964359246633e-002,
          -1.9319388470873217e-001, -1.9788667587797779e-001,
          5.4463943209808641e-001, 5.1344145930519736e-001,
          -5.5017016028854926e-001, 3.5686717153437858e-001,
          -4.5740207005333017e-001, -1.7194828786623411e-002,
          1.2510058190690920e-001, 1.2105726710955696e-002,
          1.7404872302655347e-001, -6.5137008358543011e-002,
          -2.4870046435956860e-003, -2.2425781914403878e-002,
          1.1046863271720404e-001, 3.8786917961207090e-002,
          -3.1078318135695387e-001, 3.5695675078818223e-001,
          6.6747527931884898e-001, -3.7042416034546455e-001,
          3.5456538027383905e-001, -4.4937178292137575e-001,
          -2.0181681405919655e-002, 1.1684110400467107e-001,
          -9.5606051216731797e-002, 2.1632864070186586e-001,
          -2.0394904107515075e-002, -2.4933958253300409e-001,
          1.1641466815748924e-001, 3.8108015801612422e-001,
          3.6673978020044920e-002, -1.9903401192659073e-001,
          3.4865307146460445e-001, 5.1556755863016912e-001,
          -3.7469999432362189e-001, 3.5337953091666430e-001,
          9.8141164598904942e-002, -2.7715922990069967e-002,
          -1.7132334124043966e-001, 1.0800045388109898e-001,
          -3.8239397975689260e-002, -1.4398266873323529e+000,
          9.8713018461995383e-003, -2.1394786990116008e-001,
          -4.8279637593998496e-002, -1.2657709075548490e-001,
          -1.1630899886829899e-001, 7.5333733870551589e-002,
          8.5916720084440157e-001, -3.7397797856382042e-001,
          1.8375527174489903e-001, 2.2728838446752597e-001,
          -1.4788211740200144e-001, 9.3821661166407725e-003,
          -1.8944358126402033e-002, 1.8461207827398646e-001,
          -3.2598050882338486e-001, 1.9755412128036690e-001,
          3.3232476676529753e-002, -2.0921079988576963e-001,
          -7.7039831885631654e-002, 2.4076457474421162e-001,
          -5.2090766311138244e-003, 8.6278229209553958e-001,
          -3.6570647729703454e-001, 1.8434386469715491e-001,
          3.9591420842148334e-001, 1.1017930049094964e-001,
          -1.3123176429674235e-001, 1.0802367541028483e-001,
          3.4268677759698168e-001, -3.2074063229575261e-001,
          2.5083568688718683e-001, -4.1282359034106619e-001,
          -5.2185748985528524e-001, -6.9657362842467346e-002,
          7.8544074225894669e-002, 3.8195324318095268e-002,
          3.3137264002787881e-001, 1.0782185859996782e-001,
          2.8659942871255228e-001, 3.9243664138082074e-001,
          1.1225096157576353e-001, -1.2900275413389056e-001,
          1.1396854550186637e-001, 3.3764219964141456e-001,
          -7.9214399887655232e-002, 2.0306230149439727e-001,
          1.7032310453263363e-001, -5.2115350939258143e-001,
          6.1515758496508122e-001, 9.8000319648611528e-002,
          -9.2347245701594000e-002, -1.3071671033602889e-001,
          1.0238963480888397e-001, 1.4504802092777436e-001,
          3.9643617516561830e-001, 1.2977824314112898e-001,
          1.7733572441618531e-001, -1.4416053522078029e-001,
          1.9272927751642388e-001, -4.9072504862872963e-002,
          2.0790402935929493e-002, 2.7089331586357662e-001,
          9.9150007090441403e-002, -2.9555312228483116e-001,
          4.6827138619750736e-003, -5.5792825475636805e-002,
          -1.7843064107808751e-001, 1.0329400482845469e-001,
          -1.6222653044243923e-004, 4.2828978657357235e-003,
          -1.4067053494064738e-001, 1.0884995275478941e-001,
          1.7206014301934108e-001, -2.9727005691699715e-001,
          1.3771892423510709e-001, 6.6728981803526280e-002,
          -1.7333670325279099e-001, -6.1038966818346162e-002,
          -3.5547796209411793e-002, 3.0416949368162977e-001,
          -3.4413680558657311e-001, -2.9912561877555538e-001,
          3.7302017677331956e-001, -2.9402018526262585e-001,
          2.6513300705705435e-002, -1.8992714577555325e-001,
          4.9706387786357512e-002, -1.6286088079601892e-002,
          -4.5674452835527907e-001, 1.3207580326273485e-001,
          2.5972795735606985e-001, -2.8238974727288846e-001,
          -1.1167571286188085e-001, -3.7454500646259360e-002,
          3.0495554005519226e-001, -3.5584806802835262e-001,
          -2.4552958972237731e-002, 3.6642620893047539e-001,
          -7.8713722226727867e-001, -9.0334779787540967e-002,
          -2.1668436355924997e-001, 2.3352754133830068e-002,
          1.4406765920946496e-002, -8.3979135057079957e-001,
          1.3394345925025924e-001, 9.7976591796299908e-004,
          -2.8015832980275324e-001, -2.4273871025163549e-001,
          -1.8242841835180088e-001, 3.1253359663122898e-001,
          -1.0432876406735572e-001, -3.3840411733622705e-001,
          3.7148192103730715e-001, -1.1111386566882518e-001,
          -9.5519100724284670e-002, -2.2489143899234182e-001,
          -5.9538031338656217e-001, 2.4762679642028818e-002,
          -4.0108319414857579e-001, 1.0490945807838130e-002,
          1.3414556870517359e-003, -2.8926074822704162e-001,
          -1.0495177515757384e-001, -3.8743317819694513e-002,
          3.0201834789250132e-001, -1.0118866092885484e-001,
          -3.3066613367022019e-001, 1.0064168308476171e-001,
          -1.1201830037775370e-001, -9.9367647662988792e-002,
          -2.2635366919566208e-001, -1.0216781951629896e-002,
          2.2220294715133374e-002, -1.4612343361147942e-001,
          1.8480880580850019e-002, 3.3102164956847978e-003,
          -1.3312773654897042e-001, -1.0472267710020101e-001,
          -3.2993280012632374e-002, 2.7160675149629967e-002,
          -9.8469273161883808e-002, -3.2727128252190180e-001,
          9.8209575859469156e-002, -1.7774723469685710e-001,
          3.2337627018475187e-002, 1.5252339509558840e-001,
          1.3252129059508583e-001, 1.6288926380993739e-002,
          -2.3931678360364317e-001, -1.3797554624087677e-001,
          -5.3320504190561913e-001, 1.4067855785160108e-001,
          2.1000665218556638e-001, -2.4137958430966791e-001,
          -4.7673953906233926e-002, 5.9619941350183017e-002,
          -7.8119200613338546e-002, 8.0202460286328721e-005,
          2.3559543270513103e-001, -4.9289468296344857e-001,
          2.0336764804356497e-001, 1.1393374179211049e-001,
          -8.6967536461951447e-002, 7.0289652053963730e-002,
          -2.4529378667901464e-001, -2.5230010089053156e-001,
          9.7961513294331972e-003, -9.4054454543828714e-002,
          -8.2053766538798645e-002, 1.8447328248005926e-001,
          3.9262118997589412e-001, 1.4921426778908042e-001,
          -6.2108242902838429e-001, 2.9069267442203728e-001,
          -4.9376303656509507e-001, -2.1632295351772118e-002,
          2.6506448594772425e-001, 9.5901690445055095e-003,
          1.7783194809545391e-001, -2.9606547023385410e-001,
          -2.5247546741923743e-001, -1.4948030377007768e-001,
          1.6760939869545971e-001, 2.3578828433949436e-001,
          -8.3200560037672067e-001, 3.5255422487698107e-001,
          2.1434064442783851e-001, -5.3804554109595737e-001,
          3.5695423223906142e-001, -1.2824931599751743e-001,
          -1.4171236103645751e-001, 6.8912472892814514e-001,
          1.6667076025052997e-002, 1.6914530869089486e-001,
          -3.2426814376787300e-001, 1.1553991649621993e-002,
          3.7263415688867034e-002, 3.7908771936980062e-001,
          4.1909122452772923e-002, -3.1028013204665034e-001,
          3.8654496061539562e-001, 2.0726108065841095e-001,
          -3.6641660224314032e-001, 3.5763653889731717e-001,
          -1.2596625567494868e-001, -1.3853219409741119e-001,
          1.9814007726472713e-001, -9.4209137545303995e-002,
          1.7030836483384729e-001, -1.4271846430456753e-001,
          7.7398802048615324e-003, 1.1632231427173134e-001,
          1.5386439520991488e-001, -2.8600807654673741e-002,
          -3.0810831102646646e-001, 3.6835821379014888e-001,
          8.4485211063878340e-001, -3.6719752067703781e-001,
          3.5258117048231019e-001, 2.1461050786168651e-001,
          -3.3953423448433961e-001, 2.7164658738186027e-002,
          -1.3924239601683564e-002, -2.2643114103683880e-002,
          -6.0707412904385616e-001, 4.7023737681976885e-001,
          -2.1452997654793446e-001, -2.1607024136280070e-001,
          -7.7626562535583518e-002, 4.4385225235407150e-001,
          5.7075207045995738e-002, 3.2089779909700528e-001,
          -3.6303747475641490e-001, 4.3330819720762241e-002,
          2.2179850183415994e-001, -1.4384562743520937e-001,
          1.2097286203180851e-002, -1.5821717481939383e-002,
          3.1796213413909441e-001, -3.2985257821866859e-001,
          1.9501782904739431e-001, 3.9746384704702160e-002,
          -2.1085442138936775e-001, -7.1821941606912382e-002,
          -3.8498122240747182e-002, -1.3047288402543561e-001,
          8.6577277212108295e-001, -3.6549901758333092e-001,
          7.8018922231239005e-002, 2.2469275304041070e-001,
          -1.5110389268588290e-001, -1.3490995696014249e-001,
          -2.5136530245053332e-002, 2.1984535775826852e-001,
          -2.5243228273688001e-001, 2.0172351802875846e-001,
          -1.4102177480700426e-001, -2.3991926306492092e-002,
          -5.9717866490522686e-001, -2.1050453732185384e-001,
          -1.0957710925726925e-001, 3.3250032256105849e-001,
          7.1553599076575969e-004, 1.7028633835161208e-001,
          3.8822024388174475e-001, -4.3977388261044831e-002,
          1.7137773428177622e-001, 1.0712945076674167e-001,
          3.3708950402303101e-001, -3.1805124082465258e-001,
          2.0351594569888712e-001, -1.0908375532557615e-001,
          -5.1242103897782276e-001, 5.6630084336163411e-001,
          3.2925843496518221e-003, -1.0090474178881041e-001,
          -3.4402065537542013e-002, -5.5660522401561434e-002,
          -3.1019859986877139e-002, 3.8809733417576348e-001,
          1.2206060587307563e-001, 1.7148503234835105e-001,
          -1.4673039392719836e-001, 3.1174186235239926e-001,
          -1.3051408439311511e-002, 3.8293678001836570e-002,
          -6.2540109557629162e-002, 1.0563529939410334e-001,
          -2.8337923370776247e-001, -9.9385635830768093e-002,
          -5.3686986859524569e-002, -1.3102759748522325e-001,
          1.0073656342198828e-001, -5.3557751329712709e-002,
          2.9533286695337030e-001, 1.7338935444524070e-001,
          1.1824423667778942e-001, -6.7181589804055170e-002,
          -2.3695944238870206e-001, 2.6063541259353123e-001,
          -1.8443145872194358e-001, -1.7190011866427568e-001,
          2.1888632225791552e-001, -4.4382058898148606e-002,
          2.0149357879563465e-001, -1.0872433337383185e-001,
          -2.9207501908029543e-001, 3.7138089475640945e-001,
          -2.9184261328598204e-001, -1.6507800751552247e-002,
          -1.1775033573840815e-001, 1.0431442798161432e-001,
          1.4359085732810356e-002, -9.0136868363260805e-002,
          2.6952289758599052e-001, -1.8986882564593408e-001,
          -2.8149970398327240e-001, -2.4317864968600905e-001,
          3.1623506900447431e-003, 3.1116995882188631e-001,
          -9.9794709653092117e-002, -2.0517552196083966e-001,
          3.6315591008019343e-001, -1.0390549191801003e-001,
          -9.6517117146039513e-002, -1.9021886414907754e-001,
          1.0246739848123348e-001, 4.2095555812204449e-001,
          -5.0622898806293636e-002, 2.6625911674348357e-001,
          -2.0281344388855829e-001, -2.8791946357819609e-001,
          -2.3902072176201009e-001, -6.0809301088405373e-003,
          3.0520329590060985e-001, -1.0200917877625039e-001,
          -1.6699513834086357e-001, 3.7531625011916847e-001,
          -1.0459742285221170e-001, -9.1442833570618845e-002,
          -8.4725953510152052e-002, -3.8580516457605692e-002,
          4.1715064457176393e-001, -5.1466639048482025e-002,
          2.7178246434664605e-001, -1.9494091306172126e-001,
          -2.8424825950487376e-001, -3.6490833598996936e-001,
          3.9645846470822484e-002, 3.0423661996013734e-001,
          -1.0383297615032536e-001, -3.2890134257801340e-001,
          3.6921909761034333e-001, -1.0200852425767142e-001,
          1.7298611251249624e-001, 3.3854294749404490e-001,
          -4.0017652709470664e-002, 1.5909412840719596e-002,
          -1.3339135246856060e-001, 6.8189118645501395e-002,
          -1.5099247011652930e-001, -2.9549939724771890e-001,
          -5.8087976019676659e-003, -3.5045360170120214e-002,
          2.4733293639278949e-002, -9.9596106801111930e-002,
          -3.3663253669095011e-001, 5.7444357810928258e-003,
          3.4007576535513333e-002, -2.5046295744322089e-005,
          3.4750898459120055e-001, 6.9251960550728936e-002,
          -2.8263356701772300e-002, 9.8443945799383896e-004,
          5.8696209199054959e-002, 2.3208016040601945e-001,
          2.5784306678415969e-002, 1.2771767435024148e-001,
          -8.3583694796734109e-002, -2.4154882931570101e-002,
          5.4279329357772112e-002, 3.2026269644791695e-002,
          -2.1001544899983496e-001, 2.2716621406345225e-001,
          1.0473673153574465e-002, 1.6126599208814602e-001,
          3.3684758131832526e-001, -3.3154701111280876e-001,
          1.5475136259789524e-001, 2.0016210649736915e-001,
          -8.5373589954058915e-002, 1.7771143777382326e-001,
          1.6824627292810077e-001, -8.3666924859698261e-002,
          -2.6905366976440359e-001, 3.4410160948999252e-001,
          2.1574291577575230e-001, -3.6727202139939408e-001,
          4.7854200254849422e-001, -1.2616036388189872e-001,
          -1.2609426337998445e-002, 1.5539238322597571e-001,
          1.5817141522846113e-002, 1.7742624693538675e-001,
          -3.2738652819153524e-001, -3.3132742527135139e-003,
          1.1784248399449382e-001, 3.8194217387418061e-001,
          -1.8852942436396351e-002, -3.0235168261936712e-001,
          3.9708621598234467e-001, 2.0457847476902694e-001,
          -3.6455037774712795e-001, 3.4923306062032372e-001,
          -1.3682771845284974e-001, 4.9818484336148924e-002,
          -3.4133689413727950e-002, -1.9144961155852350e-001,
          2.0744450708278034e-001, -6.3891904654611406e-002,
          1.9389206963650482e-001, 3.0341429175802348e-001,
          3.6749107001551534e-001, 6.3950078246335969e-003,
          -3.0875161272169954e-001, 1.0062711882139316e-001,
          3.2694167084057152e-001, -3.6949371650909280e-001,
          1.0783311487564749e-001, -1.2881377342009764e-001,
          5.1776364149480260e-002, -4.5778002179558505e-002,
          -1.8628032944101378e-001, 1.2563091505319018e-002,
          -5.8278657530037825e-001, 1.2768342449903642e-002,
          -1.4292373392904753e-001, 3.7180024907657994e-001,
          -1.8859470863943909e-002, -1.6657300860722629e-001,
          9.8175477483861462e-002, 8.5630835504830194e-001,
          -3.6777422307786545e-001, 1.0834075027319194e-001,
          2.2646414650134511e-001, -3.4646038867848183e-001,
          -4.0365779530092689e-002, -2.2549553710052562e-002,
          1.6826161552980438e-002, -3.1288908559373452e-001,
          4.7744860514551535e-001, -2.1982776068636381e-001,
          -2.1012524891026566e-001, -7.0474700213651542e-002,
          4.2958385360606623e-002, -1.3223832536930352e-001,
          2.7357642004771765e-001, -3.6705977295256043e-001,
          4.0802315179954189e-002, 2.2086883265284452e-001,
          -1.4641877953277252e-001, 6.8848459602344994e-002,
          1.0530432286493889e-001, 3.3468896892141881e-001,
          -2.5218706508205369e-001, 2.0212651594587636e-001,
          3.7835392383142478e-002, -2.0926642041201687e-001,
          -7.7488152395086024e-002, -3.7818242709984379e-002,
          -1.2859173196359808e-001, 2.7790325968816781e-001,
          -3.6542270895399642e-001, 9.8896084584479974e-002,
          3.9388052776221000e-001, 1.1681142629978543e-001,
          -1.2586738733323108e-001, 1.0538799739645259e-001,
          3.3298048696696664e-001, -8.8844705129626361e-002,
          2.5397378948327254e-001, -4.0362466773923478e-001,
          -5.2335658377331595e-001, -7.6378658773707753e-002,
          -4.1603591248294977e-002, -1.3392502103529466e-001,
          6.2935019973444362e-002, 1.0762607926765883e-001,
          -1.0479362294488730e-001, 3.9343538182696497e-001,
          8.5291710738970475e-002, -1.3273903184188632e-001,
          1.0451470790336569e-001, 1.5094500236712582e-001,
          -8.5637734273946331e-002, -5.6798071614167309e-003,
          5.0077888008588922e-003, -2.1436904224419567e-001,
          -5.9729398165634939e-001, -2.1086536712911166e-001,
          -1.0942441188061416e-001, -3.2613153492916644e-002,
          -5.7952024578106366e-002, 1.0827059807384394e-002,
          -2.0236166485716960e-002, 1.4054502449130515e-001,
          1.7715205190683900e-001, 1.2948707906896766e-002,
          7.2739009818615225e-002, -3.9668230257746913e-002,
          2.3760157563944593e-002, -6.7371600565302628e-002,
          5.0185243021097094e-002, -2.8771819108295421e-001,
          6.0543182871210818e-004, -6.1908059931295945e-002,
          -1.7442674730155497e-001, 1.0848034249662591e-001,
          9.8009142328261169e-003, -1.1143292811338627e-001,
          -4.0825173551587995e-001, 1.0836051503158532e-001,
          -1.1584129464938020e-001, -6.9380203048034994e-002,
          2.0789585398067667e-001, 6.6909018717077010e-002,
          -2.9519386473604770e-001, -3.8392134848373655e-001,
          -2.3799462522621814e-001, 3.0254275903507327e-001,
          -3.9053702530544861e-002, -1.8891994327821207e-001,
          9.8592660601092397e-002, -1.0600882466836568e-001,
          -9.6006661494757353e-002, -1.1889688952429900e-001,
          -2.5048699336809815e-001, -2.5342296144840501e-002,
          9.6630006925115169e-002, 2.4849366242634272e-001,
          5.6165643144406974e-002, -2.8826276582333410e-001,
          -3.1975778532510740e-001, -2.3871185128792546e-001,
          1.8488852955598759e-001, -9.5546417072921760e-002,
          1.8981102403629158e-001, 1.0194245518666209e-001,
          -1.0312317645747536e-001, -8.8946638444502249e-002,
          -1.1049193503438123e-001, -4.5142834867473300e-003,
          -2.0153280384878704e-002, 7.1839399886289013e-002,
          2.6275224278137799e-001, 5.5051530260153546e-002,
          -2.9177396660094079e-001, -3.1891637287144076e-001,
          -2.3180855713744983e-001, 1.7959974629450390e-001,
          -1.0227864131845309e-001, -7.8884554391951772e-002,
          2.4448330454145677e-002, -1.0212832815395397e-001,
          -1.8586746966251486e-002, 2.0930531806335390e-002,
          9.7617966711046902e-002, -1.5417840618313530e-001,
          -1.2292377558504548e-002, 5.5586629117178632e-001,
          -1.9085060407802382e-001, -6.6304115735553976e-002,
          -3.3963592036497586e-001, -4.6136245096873002e-002,
          3.5102787604489111e-001, -1.0302544581366722e-001,
          -1.1445316992770495e-001, 1.5121354186044136e-001,
          4.8592090552168905e-002, -2.3327998487421470e-001,
          2.3419873391758023e-002, 7.4131227516534707e-003,
          -1.5062844358092206e-001, -8.9492092487703276e-002,
          4.6040929403376318e-001, -2.9807746503467869e-001,
          1.6236643698622613e-001, -5.9077866416062094e-002,
          -8.8353843409822025e-002, 7.1993123423957195e-002,
          -2.8307111035059301e-001, 4.1003511633332455e-002,
          1.5351883531045338e-001, 3.9107085760541470e-002,
          -3.5252224063780407e-001, 4.9990713840820367e-001,
          1.7878506660948028e-002, -2.1624940242997184e-002,
          -1.1233550873500898e-002, 2.6238555010254522e-001,
          -3.6312734543344782e-001, -2.3565564360449739e-001,
          1.9648230264826946e-001, 3.2004590303376153e-003,
          1.5766613838986415e-001, -9.6577534904999623e-002,
          -3.0855831433333991e-001, 1.0349671816584502e-001,
          3.7069113762977550e-002, -1.9710192565734130e-001,
          -1.9277422484140934e-003, 1.3580842363115503e-001,
          -8.5540891095155683e-002, -2.3718591709888817e-001,
          1.3329767035550061e-001, -3.7455697916416913e-001,
          7.8470390722705521e-002, 1.9859758324505641e-001,
          8.0374241685778544e-002, 1.0731708890618891e-001,
          1.2515908870140760e-001, -1.0100603649941661e-001,
          -4.1125240233289466e-003, -8.9214245321310396e-003,
          -1.3582117406806243e-001, 5.3812995181365363e-002,
          2.3153734223017158e-001, 1.6446054944170549e-001,
          1.2134112667510032e-002, -1.8610632655380993e-001,
          5.0632425997514319e-001, -1.3973872829201509e-001,
          7.6662284383526458e-001, -1.3644716939968646e-001,
          -8.2797194943358454e-001, 3.2391812099088696e-001,
          3.3531144571588140e-001, -2.9832746376486273e-005,
          -5.4838954300005356e-002, 2.1613808212977703e-001,
          5.3051980647356625e-002, -2.8092537789208651e-003,
          -1.9086108443277047e-001, 1.0123765216481354e-001,
          -3.3109805982087087e-001, 4.7052411711484848e-001,
          2.3129853895374189e-001, -1.7852511397771843e-003,
          -1.3180915390282316e-001, 3.0158702142380964e-002,
          2.1347104301333705e-001, 3.2979034326717566e-001,
          -3.7064765586620163e-001, 5.1313400388113876e-002,
          8.9951650303893696e-002, -1.8545328200018470e-002,
          -5.2282217731163011e-002, 2.2665881661664580e-002,
          2.4676829347126242e-002, -5.5796490669192911e-001,
          1.8345627480910995e-001, 4.0419373744955839e-001,
          9.0659326144739115e-003, -1.3445610220086335e-001,
          -1.6390463377497477e-001, 8.9587516801194284e-002,
          1.9636614447651776e-001, -9.5992791818388712e-002,
          1.0526465292126501e-001, 8.8850964525360634e-002,
          -1.5231214142790847e-001, -3.1003661037432689e-001,
          1.0666284933515362e-001, 6.1208771727067769e-002,
          -5.3905643407320257e-002, 2.0348750589641632e-001,
          1.1986499539454543e-001, -2.1513905186504406e-001,
          -7.0775443230473523e-002, -1.7990002334991550e-002,
          -1.3472153772612383e-001, 9.2903814396162063e-002,
          -9.5733647350513096e-002, 5.0234941489530636e-002,
          9.0835338409746960e-002, -1.5136138035727212e-001,
          -3.0223638525993612e-001, 9.7249554121977361e-002,
          3.8208859297898232e-002, -1.5671787074628701e-001,
          1.9370364509494778e-001, 2.9432098746249663e-001,
          -2.3714538090548282e-001, -7.2417635808743636e-002,
          -1.8391727203732413e-002, -1.1161470348470043e-001,
          -1.9719744786063362e-001, -1.0209269620351658e-001,
          1.0638378734025440e-001, 1.2186226442296695e-002,
          1.1434606327427327e-001, -2.3787459867551602e-001,
          1.0741491542069585e-001, 1.1220102295036322e-001,
          -2.1419622604627725e-001, 8.6945613991997961e-002,
          -1.0501058980308460e-002, -5.2072791480797165e-001,
          -5.7585335224210676e-001, -1.2224547610458528e-001,
          -1.2750380184921484e-001, -1.8153360987710490e-001,
          -1.5308118803551743e-001, -9.9702284364824187e-002,
          1.3395968071430927e-002, 2.6517900123969387e-002,
          8.3022656093954067e-002, -1.5322322352755671e-001,
          5.3294222656859874e-002, -1.3974740363488863e-001,
          -1.4807774846591218e-001, 1.9493601765993268e-001,
          -5.4126137858262667e-002, -2.7700651775866664e-001,
          -1.1419660193578490e-001, -1.3541505953495242e-001,
          -3.0091794964200121e-002, 1.0082447016048790e-001,
